0.00000000000000000000000000000000000,
0.64447742700576782226562500000000000,
0.29574373364448547363281250000000000,
-0.10555640608072280883789062500000000,
-0.14351601898670196533203125000000000,
0.00247124442830681800842285156250000,
0.41479122638702392578125000000000000,
0.95783066749572753906250000000000000,
0.00332801183685660362243652343750000,
-0.03689645603299140930175781250000000,
0.32612648606300354003906250000000000,
-0.70680940151214599609375000000000000,
-0.01693967729806900024414062500000000,
0.71069425344467163085937500000000000,
-1.03660762310028076171875000000000000,
0.00133199756965041160583496093750000,
0.89938777685165405273437500000000000,
-0.03929835930466651916503906250000000,
-0.02237292379140853881835937500000000,
-0.10958597809076309204101562500000000,
1.05687129497528076171875000000000000,
-0.37521761655807495117187500000000000,
0.73584514856338500976562500000000000,
-0.78836470842361450195312500000000000,
0.55638855695724487304687500000000000,
0.25957503914833068847656250000000000,
0.05683008208870887756347656250000000,
-0.51572626829147338867187500000000000,
0.33813869953155517578125000000000000,
0.04243211820721626281738281250000000,
0.65700227022171020507812500000000000,
-0.18934229016304016113281250000000000,
0.02189214900135993957519531250000000,
0.53992080688476562500000000000000000,
0.14939820766448974609375000000000000,
-0.01196387689560651779174804687500000,
0.39044421911239624023437500000000000,
0.33127039670944213867187500000000000,
0.34109818935394287109375000000000000,
0.01170392520725727081298828125000000,
-0.61898124217987060546875000000000000,
1.51335895061492919921875000000000000,
0.04534299671649932861328125000000000,
-0.19247528910636901855468750000000000,
0.68865817785263061523437500000000000,
-0.00160896196030080318450927734375000,
-0.58725851774215698242187500000000000,
0.54805546998977661132812500000000000,
0.16330532729625701904296875000000000,
-1.01721751689910888671875000000000000,
0.01119571365416049957275390625000000,
0.00269440049305558204650878906250000,
-1.11032676696777343750000000000000000,
1.40653228759765625000000000000000000,
-0.01777301169931888580322265625000000,
-0.28980535268783569335937500000000000,
1.06392109394073486328125000000000000,
-0.10063979029655456542968750000000000,
0.94179821014404296875000000000000000,
-0.75243753194808959960937500000000000,
0.16863335669040679931640625000000000,
