0.20203590393066406250000000000000000,
-0.43046993017196655273437500000000000,
-0.48361080884933471679687500000000000,
0.02405804395675659179687500000000000,
0.57180047035217285156250000000000000,
-0.25514566898345947265625000000000000,
0.38468647003173828125000000000000000,
-0.09779733419418334960937500000000000,
-0.03870248794555664062500000000000000,
0.54661417007446289062500000000000000,
0.40815490484237670898437500000000000,
0.48686492443084716796875000000000000,
-0.23094138503074645996093750000000000,
0.41354697942733764648437500000000000,
0.50009274482727050781250000000000000,
-0.42790341377258300781250000000000000,
-0.45787337422370910644531250000000000,
-0.10256853699684143066406250000000000,
0.04930007457733154296875000000000000,
-0.33988398313522338867187500000000000,
0.15995371341705322265625000000000000,
0.56934022903442382812500000000000000,
0.30166727304458618164062500000000000,
-0.09341171383857727050781250000000000,
-0.44495207071304321289062500000000000,
0.05602711439132690429687500000000000,
-0.37696945667266845703125000000000000,
0.38501924276351928710937500000000000,
-0.26513013243675231933593750000000000,
-0.38791945576667785644531250000000000,
0.17034983634948730468750000000000000,
0.36481899023056030273437500000000000,
0.43217885494232177734375000000000000,
0.56661987304687500000000000000000000,
0.33577001094818115234375000000000000,
-0.06056499481201171875000000000000000,
0.16855794191360473632812500000000000,
-0.49178701639175415039062500000000000,
-0.32129395008087158203125000000000000,
0.03726112842559814453125000000000000,
0.40458220243453979492187500000000000,
0.41445606946945190429687500000000000,
-0.15675947070121765136718750000000000,
0.46429324150085449218750000000000000,
-0.52073234319686889648437500000000000,
0.16842412948608398437500000000000000,
0.12587821483612060546875000000000000,
0.08720821142196655273437500000000000,
-0.04062736034393310546875000000000000,
-0.00547277927398681640625000000000000,
