0.17890936136245727539062500000000000,
0.14626723527908325195312500000000000,
-0.48072639107704162597656250000000000,
0.36189657449722290039062500000000000,
0.18564450740814208984375000000000000,
-0.49684396386146545410156250000000000,
-0.49566471576690673828125000000000000,
0.06942760944366455078125000000000000,
-0.03584939241409301757812500000000000,
0.07418328523635864257812500000000000,
-0.12848877906799316406250000000000000,
0.43839740753173828125000000000000000,
-0.39771518111228942871093750000000000,
-0.33517268300056457519531250000000000,
0.14942258596420288085937500000000000,
0.47874915599822998046875000000000000,
-0.50613623857498168945312500000000000,
-0.04053258895874023437500000000000000,
-0.27818337082862854003906250000000000,
-0.32354515790939331054687500000000000,
-0.02931714057922363281250000000000000,
-0.39621120691299438476562500000000000,
0.29690796136856079101562500000000000,
0.55855512619018554687500000000000000,
-0.54879415035247802734375000000000000,
0.53177928924560546875000000000000000,
0.08316719532012939453125000000000000,
0.01042526960372924804687500000000000,
0.41223394870758056640625000000000000,
-0.19711750745773315429687500000000000,
0.57201766967773437500000000000000000,
0.25562012195587158203125000000000000,
0.17096447944641113281250000000000000,
-0.31852778792381286621093750000000000,
-0.56742668151855468750000000000000000,
-0.50454479455947875976562500000000000,
0.20851981639862060546875000000000000,
-0.51970446109771728515625000000000000,
-0.05594140291213989257812500000000000,
-0.56036400794982910156250000000000000,
-0.03157436847686767578125000000000000,
0.14472514390945434570312500000000000,
-0.44365856051445007324218750000000000,
-0.25622335076332092285156250000000000,
0.04005956649780273437500000000000000,
-0.56373095512390136718750000000000000,
0.45857691764831542968750000000000000,
-0.10676765441894531250000000000000000,
0.20726269483566284179687500000000000,
-0.41258445382118225097656250000000000,
-0.36096692085266113281250000000000000,
0.32983237504959106445312500000000000,
-0.18050730228424072265625000000000000,
-0.17901799082756042480468750000000000,
-0.39520001411437988281250000000000000,
0.17317688465118408203125000000000000,
-0.11500784754753112792968750000000000,
0.21015870571136474609375000000000000,
0.46275711059570312500000000000000000,
-0.25838315486907958984375000000000000,
0.25239485502243041992187500000000000,
-0.07554411888122558593750000000000000,
-0.03425264358520507812500000000000000,
0.38298267126083374023437500000000000,
0.21210098266601562500000000000000000,
0.30912899971008300781250000000000000,
-0.37938591837882995605468750000000000,
0.51829719543457031250000000000000000,
0.21538037061691284179687500000000000,
-0.19063112139701843261718750000000000,
-0.13356038928031921386718750000000000,
0.08245199918746948242187500000000000,
-0.39087194204330444335937500000000000,
-0.40340411663055419921875000000000000,
-0.15837115049362182617187500000000000,
-0.37771236896514892578125000000000000,
0.48857891559600830078125000000000000,
-0.19777995347976684570312500000000000,
0.36905604600906372070312500000000000,
0.28547400236129760742187500000000000,
-0.37087363004684448242187500000000000,
0.29166865348815917968750000000000000,
0.53471136093139648437500000000000000,
0.20045864582061767578125000000000000,
-0.06242340803146362304687500000000000,
0.21628057956695556640625000000000000,
0.15274977684020996093750000000000000,
0.48189294338226318359375000000000000,
-0.52262276411056518554687500000000000,
-0.50441807508468627929687500000000000,
-0.05105984210968017578125000000000000,
0.50759470462799072265625000000000000,
-0.25802615284919738769531250000000000,
-0.32033178210258483886718750000000000,
0.26759731769561767578125000000000000,
-0.25993674993515014648437500000000000,
0.22341656684875488281250000000000000,
-0.20211362838745117187500000000000000,
-0.46796581149101257324218750000000000,
0.38601934909820556640625000000000000,
0.51955437660217285156250000000000000,
0.13771557807922363281250000000000000,
0.48094606399536132812500000000000000,
-0.10700303316116333007812500000000000,
0.02956765890121459960937500000000000,
0.08187317848205566406250000000000000,
0.41373765468597412109375000000000000,
0.30113166570663452148437500000000000,
0.04813915491104125976562500000000000,
0.30204695463180541992187500000000000,
0.02076810598373413085937500000000000,
-0.07495641708374023437500000000000000,
0.46318221092224121093750000000000000,
0.12645244598388671875000000000000000,
0.52329385280609130859375000000000000,
-0.31725367903709411621093750000000000,
-0.48717954754829406738281250000000000,
0.52558553218841552734375000000000000,
-0.09864884614944458007812500000000000,
-0.46723514795303344726562500000000000,
-0.05142933130264282226562500000000000,
-0.26601991057395935058593750000000000,
0.35319870710372924804687500000000000,
-0.55785423517227172851562500000000000,
-0.44652011990547180175781250000000000,
-0.34957036375999450683593750000000000,
-0.22869294881820678710937500000000000,
0.52327752113342285156250000000000000,
0.18098330497741699218750000000000000,
0.32113206386566162109375000000000000,
-0.37230184674263000488281250000000000,
0.10400587320327758789062500000000000,
-0.27448260784149169921875000000000000,
0.07101178169250488281250000000000000,
0.32326465845108032226562500000000000,
0.19387912750244140625000000000000000,
-0.11875772476196289062500000000000000,
0.29604202508926391601562500000000000,
0.46406471729278564453125000000000000,
0.52979469299316406250000000000000000,
-0.33513188362121582031250000000000000,
0.47005796432495117187500000000000000,
-0.54463976621627807617187500000000000,
0.37717318534851074218750000000000000,
0.10913097858428955078125000000000000,
0.31066972017288208007812500000000000,
-0.39898520708084106445312500000000000,
-0.10514894127845764160156250000000000,
0.08154833316802978515625000000000000,
-0.00851666927337646484375000000000000,
