-0.07075333595275878906250000000000000,
0.05295942723751068115234375000000000,
-0.10228361189365386962890625000000000,
-0.02071452140808105468750000000000000,
0.04388979077339172363281250000000000,
-0.10137489438056945800781250000000000,
-0.12911908328533172607421875000000000,
0.08495415747165679931640625000000000,
0.04916453361511230468750000000000000,
0.09826128184795379638671875000000000,
0.11859662830829620361328125000000000,
-0.00313913822174072265625000000000000,
0.06838425993919372558593750000000000,
-0.01911619305610656738281250000000000,
-0.10712463408708572387695312500000000,
-0.00956141948699951171875000000000000,
0.00889980792999267578125000000000000,
0.10562740266323089599609375000000000,
-0.05063327401876449584960937500000000,
-0.11739922314882278442382812500000000,
-0.11091137677431106567382812500000000,
-0.04388184845447540283203125000000000,
0.08692087233066558837890625000000000,
-0.10959067940711975097656250000000000,
-0.12835201621055603027343750000000000,
0.00173576176166534423828125000000000,
-0.02009478956460952758789062500000000,
0.12274362146854400634765625000000000,
0.10680216550827026367187500000000000,
-0.01266556978225708007812500000000000,
0.10658235847949981689453125000000000,
0.02466286718845367431640625000000000,
0.00341279804706573486328125000000000,
-0.03273873031139373779296875000000000,
0.14047957956790924072265625000000000,
0.01801228523254394531250000000000000,
-0.08218639343976974487304687500000000,
-0.10970300436019897460937500000000000,
-0.01946075260639190673828125000000000,
0.12724615633487701416015625000000000,
0.11514131724834442138671875000000000,
-0.03560220450162887573242187500000000,
-0.00895446538925170898437500000000000,
-0.07870867103338241577148437500000000,
-0.08748693019151687622070312500000000,
-0.05553383380174636840820312500000000,
-0.06473058462142944335937500000000000,
0.13911907374858856201171875000000000,
-0.14124239981174468994140625000000000,
0.00819493830204010009765625000000000,
-0.09624511003494262695312500000000000,
0.13837735354900360107421875000000000,
0.05094595253467559814453125000000000,
-0.08185254037380218505859375000000000,
-0.02099674940109252929687500000000000,
0.12363432347774505615234375000000000,
0.02567662298679351806640625000000000,
0.03449094295501708984375000000000000,
0.06948234140872955322265625000000000,
0.00014348328113555908203125000000000,
-0.06027397513389587402343750000000000,
0.04789389669895172119140625000000000,
-0.10212301462888717651367187500000000,
-0.03437950462102890014648437500000000,
0.09149731695652008056640625000000000,
0.12953673303127288818359375000000000,
0.13368512690067291259765625000000000,
0.03945367038249969482421875000000000,
-0.03254418075084686279296875000000000,
-0.12920549511909484863281250000000000,
-0.09674310684204101562500000000000000,
0.07425342500209808349609375000000000,
0.13227491080760955810546875000000000,
0.08654713630676269531250000000000000,
-0.02787314355373382568359375000000000,
-0.00927101075649261474609375000000000,
-0.06486525386571884155273437500000000,
-0.12094476819038391113281250000000000,
0.14068119227886199951171875000000000,
-0.13418430089950561523437500000000000,
-0.03171567618846893310546875000000000,
-0.01990806311368942260742187500000000,
-0.01706047356128692626953125000000000,
0.00078298151493072509765625000000000,
-0.01290722191333770751953125000000000,
0.00089107453823089599609375000000000,
-0.01800245046615600585937500000000000,
-0.05983603745698928833007812500000000,
-0.10669040679931640625000000000000000,
-0.10629282146692276000976562500000000,
-0.10628436505794525146484375000000000,
-0.01741598546504974365234375000000000,
0.10906083881855010986328125000000000,
-0.06979221850633621215820312500000000,
-0.09440279006958007812500000000000000,
-0.04169761389493942260742187500000000,
-0.09913440048694610595703125000000000,
0.04824493825435638427734375000000000,
-0.01545765995979309082031250000000000,
0.04731330275535583496093750000000000,
0.13888640701770782470703125000000000,
-0.07829362154006958007812500000000000,
-0.13822937011718750000000000000000000,
0.06994754076004028320312500000000000,
0.12647978961467742919921875000000000,
0.03370346128940582275390625000000000,
-0.07267972826957702636718750000000000,
0.13104237616062164306640625000000000,
0.07121892273426055908203125000000000,
-0.12978240847587585449218750000000000,
-0.06952386349439620971679687500000000,
0.05661840736865997314453125000000000,
0.01016607880592346191406250000000000,
0.03441020846366882324218750000000000,
-0.13401132822036743164062500000000000,
0.02469433844089508056640625000000000,
-0.04590132832527160644531250000000000,
0.07847073674201965332031250000000000,
0.13773809373378753662109375000000000,
0.00893767178058624267578125000000000,
-0.01571197807788848876953125000000000,
-0.10130898654460906982421875000000000,
-0.02762461453676223754882812500000000,
0.12960408627986907958984375000000000,
0.08931888639926910400390625000000000,
-0.01460620760917663574218750000000000,
-0.04421764612197875976562500000000000,
0.09512755274772644042968750000000000,
0.08723841607570648193359375000000000,
-0.09687994420528411865234375000000000,
0.13839013874530792236328125000000000,
-0.11862485855817794799804687500000000,
0.10452291369438171386718750000000000,
-0.05777269601821899414062500000000000,
0.02776598930358886718750000000000000,
-0.09940174221992492675781250000000000,
0.04274021089076995849609375000000000,
-0.03181288391351699829101562500000000,
0.03029856085777282714843750000000000,
-0.07068945467472076416015625000000000,
-0.11361026018857955932617187500000000,
0.05184505879878997802734375000000000,
0.03655926883220672607421875000000000,
0.03312496840953826904296875000000000,
-0.01165786385536193847656250000000000,
-0.09907519072294235229492187500000000,
-0.13013748824596405029296875000000000,
0.12634570896625518798828125000000000,
-0.00385250151157379150390625000000000,
0.11935417354106903076171875000000000,
