0.00000000000000000000000000000000000,
-0.02713875472545623779296875000000000,
-0.02390879951417446136474609375000000,
-0.03020050004124641418457031250000000,
-0.01141560357064008712768554687500000,
-0.02494440041482448577880859375000000,
0.00926802586764097213745117187500000,
-0.05153483152389526367187500000000000,
-0.08166071027517318725585937500000000,
0.03417408466339111328125000000000000,
-0.03392662107944488525390625000000000,
-0.04814187809824943542480468750000000,
0.04319332167506217956542968750000000,
-0.01912778615951538085937500000000000,
0.00245230155996978282928466796875000,
-0.05397241190075874328613281250000000,
-0.00581192690879106521606445312500000,
-0.06467376649379730224609375000000000,
-0.04398763552308082580566406250000000,
-0.03507216274738311767578125000000000,
-0.05926863104104995727539062500000000,
-0.07345170527696609497070312500000000,
-0.05442938953638076782226562500000000,
-0.08139342069625854492187500000000000,
-0.02138049528002738952636718750000000,
-0.01540617365390062332153320312500000,
-0.00548008689656853675842285156250000,
-0.06735074520111083984375000000000000,
0.00436969101428985595703125000000000,
-0.03508388251066207885742187500000000,
-0.07411624491214752197265625000000000,
0.01712237857282161712646484375000000,
-0.06148580089211463928222656250000000,
-0.04588468000292778015136718750000000,
-0.00198510498739778995513916015625000,
-0.03046029806137084960937500000000000,
-0.02279645018279552459716796875000000,
-0.03054926916956901550292968750000000,
-0.03757666796445846557617187500000000,
-0.04544191807508468627929687500000000,
-0.07443871349096298217773437500000000,
0.05346250534057617187500000000000000,
-0.06349471211433410644531250000000000,
-0.01442494429647922515869140625000000,
-0.02318350225687026977539062500000000,
-0.02544237673282623291015625000000000,
0.02268867567181587219238281250000000,
-0.03444851934909820556640625000000000,
-0.04358286038041114807128906250000000,
-0.05840126425027847290039062500000000,
0.00991770252585411071777343750000000,
-0.04030123353004455566406250000000000,
-0.03874275460839271545410156250000000,
-0.03684772923588752746582031250000000,
0.01664071716368198394775390625000000,
0.03363882377743721008300781250000000,
-0.02214188314974308013916015625000000,
0.05199470371007919311523437500000000,
-0.02055424265563488006591796875000000,
0.00828351732343435287475585937500000,
-0.07500203698873519897460937500000000,
-0.03493427485227584838867187500000000,
-0.00685754325240850448608398437500000,
-0.01714515313506126403808593750000000,
0.03921109065413475036621093750000000,
0.01771319098770618438720703125000000,
-0.02799238264560699462890625000000000,
0.03250269591808319091796875000000000,
0.03405601531267166137695312500000000,
-0.00045492246863432228565216064453125,
-0.05012469738721847534179687500000000,
-0.05145845189690589904785156250000000,
-0.03278050944209098815917968750000000,
-0.02843145839869976043701171875000000,
-0.05310437455773353576660156250000000,
0.02788028866052627563476562500000000,
-0.03027446568012237548828125000000000,
0.00775984907522797584533691406250000,
-0.06760939955711364746093750000000000,
-0.02379338070750236511230468750000000,
-0.02609997987747192382812500000000000,
-0.07918971776962280273437500000000000,
0.01608123257756233215332031250000000,
-0.06399730592966079711914062500000000,
0.00772491516545414924621582031250000,
-0.01820543594658374786376953125000000,
0.02918371185660362243652343750000000,
0.00599638186395168304443359375000000,
0.03667128831148147583007812500000000,
-0.02273613400757312774658203125000000,
-0.00283938413485884666442871093750000,
0.00655199401080608367919921875000000,
-0.08601641654968261718750000000000000,
-0.08023086935281753540039062500000000,
0.00372463162057101726531982421875000,
-0.03838760033249855041503906250000000,
-0.05778453871607780456542968750000000,
-0.07259692996740341186523437500000000,
0.00603412324562668800354003906250000,
-0.02392621524631977081298828125000000,
-0.08549785614013671875000000000000000,
-0.02503348328173160552978515625000000,
-0.02629140019416809082031250000000000,
0.01149261463433504104614257812500000,
-0.06616421043872833251953125000000000,
-0.02847278676927089691162109375000000,
-0.02761245146393775939941406250000000,
-0.09455661475658416748046875000000000,
0.04278045892715454101562500000000000,
-0.03995419293642044067382812500000000,
-0.02557389996945858001708984375000000,
-0.00322555098682641983032226562500000,
0.01445854827761650085449218750000000,
-0.00329257058911025524139404296875000,
-0.00905834138393402099609375000000000,
-0.07225733250379562377929687500000000,
-0.01997607573866844177246093750000000,
-0.07043331861495971679687500000000000,
-0.04265331849455833435058593750000000,
0.03325527906417846679687500000000000,
-0.06043983250856399536132812500000000,
0.01106071192771196365356445312500000,
0.00774076348170638084411621093750000,
-0.07155783474445343017578125000000000,
-0.07791716605424880981445312500000000,
-0.03073860518634319305419921875000000,
-0.01479218248277902603149414062500000,
0.02323768660426139831542968750000000,
0.02907415293157100677490234375000000,
-0.06215712055563926696777343750000000,
-0.02943003550171852111816406250000000,
0.02568998187780380249023437500000000,
0.01649601943790912628173828125000000,
-0.04983782395720481872558593750000000,
-0.01707040332257747650146484375000000,
-0.03049917332828044891357421875000000,
0.01289036590605974197387695312500000,
0.01290693879127502441406250000000000,
0.01545439939945936203002929687500000,
-0.01619062572717666625976562500000000,
0.01162452809512615203857421875000000,
-0.05786071345210075378417968750000000,
0.02442268095910549163818359375000000,
-0.03780460357666015625000000000000000,
0.03757254406809806823730468750000000,
-0.00516012310981750488281250000000000,
-0.02318167686462402343750000000000000,
-0.05402003601193428039550781250000000,
0.03392152860760688781738281250000000,
-0.00180112139787524938583374023437500,
-0.04748437553644180297851562500000000,
-0.03380419313907623291015625000000000,
-0.04169667139649391174316406250000000,
-0.00224491162225604057312011718750000,
-0.05510210990905761718750000000000000,
0.04135109856724739074707031250000000,
-0.07229586690664291381835937500000000,
-0.00466616591438651084899902343750000,
-0.07091078162193298339843750000000000,
0.00895052310079336166381835937500000,
-0.04397442936897277832031250000000000,
-0.04418861865997314453125000000000000,
-0.05417763069272041320800781250000000,
0.02420394122600555419921875000000000,
-0.01963413879275321960449218750000000,
-0.06806444376707077026367187500000000,
-0.03275016695261001586914062500000000,
-0.05082661658525466918945312500000000,
-0.03541678562760353088378906250000000,
-0.03992359712719917297363281250000000,
0.05876279994845390319824218750000000,
0.02581637911498546600341796875000000,
0.01994776353240013122558593750000000,
0.01771939173340797424316406250000000,
0.02566487342119216918945312500000000,
-0.03605251386761665344238281250000000,
0.01154889818280935287475585937500000,
-0.05220019817352294921875000000000000,
0.07543844729661941528320312500000000,
-0.01257344335317611694335937500000000,
0.01524150185286998748779296875000000,
-0.01965360902249813079833984375000000,
0.03056599013507366180419921875000000,
-0.07126194238662719726562500000000000,
0.00227783457376062870025634765625000,
-0.01809760741889476776123046875000000,
-0.07714396715164184570312500000000000,
0.02067335881292819976806640625000000,
-0.04386353865265846252441406250000000,
0.00095396366668865084648132324218750,
0.08506818115711212158203125000000000,
-0.04825693368911743164062500000000000,
-0.05536525323987007141113281250000000,
-0.00746796978637576103210449218750000,
-0.04168898239731788635253906250000000,
0.02464470826089382171630859375000000,
0.00635918974876403808593750000000000,
0.01208743639290332794189453125000000,
-0.06480135768651962280273437500000000,
-0.02289278618991374969482421875000000,
-0.04092019796371459960937500000000000,
