0.00000000000000000000000000000000000,
0.56579613685607910156250000000000000,
0.29054725170135498046875000000000000,
-0.76712572574615478515625000000000000,
-0.31753614544868469238281250000000000,
-0.19564665853977203369140625000000000,
0.05067669227719306945800781250000000,
0.05146243050694465637207031250000000,
-0.41435447335243225097656250000000000,
0.23143169283866882324218750000000000,
-0.52320712804794311523437500000000000,
0.25008562207221984863281250000000000,
-0.31832045316696166992187500000000000,
-0.48634856939315795898437500000000000,
-0.50144970417022705078125000000000000,
-0.36713227629661560058593750000000000,
-0.26733782887458801269531250000000000,
0.78623032569885253906250000000000000,
0.74853360652923583984375000000000000,
0.10236422717571258544921875000000000,
0.88082271814346313476562500000000000,
0.15339721739292144775390625000000000,
-0.43576803803443908691406250000000000,
-0.33912721276283264160156250000000000,
-0.59673953056335449218750000000000000,
-0.43297317624092102050781250000000000,
-0.73644274473190307617187500000000000,
-0.47058376669883728027343750000000000,
-0.41417977213859558105468750000000000,
-0.12200573831796646118164062500000000,
-0.17898024618625640869140625000000000,
-0.72384238243103027343750000000000000,
0.00054837763309478759765625000000000,
0.28393161296844482421875000000000000,
0.11886924505233764648437500000000000,
0.54077070951461791992187500000000000,
-0.18005663156509399414062500000000000,
-0.02501786686480045318603515625000000,
-0.34073075652122497558593750000000000,
-0.11367580294609069824218750000000000,
-0.28282901644706726074218750000000000,
0.54974490404129028320312500000000000,
-0.14165507256984710693359375000000000,
0.33165842294692993164062500000000000,
-0.58468627929687500000000000000000000,
0.05701223760843276977539062500000000,
-0.26767453551292419433593750000000000,
0.38735833764076232910156250000000000,
0.84181380271911621093750000000000000,
-0.24271823465824127197265625000000000,
0.53140652179718017578125000000000000,
0.00239674421027302742004394531250000,
0.13624852895736694335937500000000000,
-0.33549684286117553710937500000000000,
0.21974626183509826660156250000000000,
-0.36443665623664855957031250000000000,
0.07387328147888183593750000000000000,
-0.76772010326385498046875000000000000,
-0.76142686605453491210937500000000000,
-0.45311146974563598632812500000000000,
0.71578294038772583007812500000000000,
0.47067019343376159667968750000000000,
0.15371346473693847656250000000000000,
-0.79600840806961059570312500000000000,
-0.59970247745513916015625000000000000,
0.53325015306472778320312500000000000,
-0.44427913427352905273437500000000000,
-0.55112636089324951171875000000000000,
0.26503384113311767578125000000000000,
-0.55351185798645019531250000000000000,
-0.18345031142234802246093750000000000,
0.68588399887084960937500000000000000,
-0.10565295070409774780273437500000000,
-0.23686617612838745117187500000000000,
0.55698752403259277343750000000000000,
-0.25287365913391113281250000000000000,
-0.08398010581731796264648437500000000,
-0.27116569876670837402343750000000000,
0.15100401639938354492187500000000000,
-0.36565548181533813476562500000000000,
-0.08428446948528289794921875000000000,
-0.37019616365432739257812500000000000,
-0.49965262413024902343750000000000000,
0.15618586540222167968750000000000000,
0.09730406850576400756835937500000000,
-0.15443536639213562011718750000000000,
-0.25198033452033996582031250000000000,
-0.31558915972709655761718750000000000,
0.24842329323291778564453125000000000,
0.13810214400291442871093750000000000,
0.10239157080650329589843750000000000,
-0.60938268899917602539062500000000000,
-0.48550063371658325195312500000000000,
0.60713893175125122070312500000000000,
-0.17162688076496124267578125000000000,
0.39715501666069030761718750000000000,
-0.82662624120712280273437500000000000,
-0.77325379848480224609375000000000000,
0.44856280088424682617187500000000000,
0.10270120948553085327148437500000000,
0.02335862070322036743164062500000000,
0.39439529180526733398437500000000000,
-0.00078084797132760286331176757812500,
-0.55041927099227905273437500000000000,
-0.64304667711257934570312500000000000,
-0.14614881575107574462890625000000000,
-0.50616937875747680664062500000000000,
-0.43186840415000915527343750000000000,
-0.65382313728332519531250000000000000,
-0.80943816900253295898437500000000000,
0.85087966918945312500000000000000000,
-0.41513746976852416992187500000000000,
-0.72058629989624023437500000000000000,
-0.08924912661314010620117187500000000,
0.14715832471847534179687500000000000,
-0.09140891581773757934570312500000000,
0.15991258621215820312500000000000000,
-0.31587377190589904785156250000000000,
-0.72910016775131225585937500000000000,
0.25841444730758666992187500000000000,
-0.15873660147190093994140625000000000,
-0.19846788048744201660156250000000000,
0.46646636724472045898437500000000000,
-0.51674294471740722656250000000000000,
-0.61615025997161865234375000000000000,
-0.38674449920654296875000000000000000,
0.08514798432588577270507812500000000,
0.54885685443878173828125000000000000,
0.15381482243537902832031250000000000,
-0.59711807966232299804687500000000000,
0.12888287007808685302734375000000000,
-0.28023231029510498046875000000000000,
-0.15840983390808105468750000000000000,
-0.47382795810699462890625000000000000,
-0.19967228174209594726562500000000000,
0.16954146325588226318359375000000000,
-0.22951100766658782958984375000000000,
0.52581292390823364257812500000000000,
-0.77806860208511352539062500000000000,
0.72938519716262817382812500000000000,
-0.13889095187187194824218750000000000,
-0.04097086563706398010253906250000000,
0.41558355093002319335937500000000000,
0.26859661936759948730468750000000000,
-0.63941597938537597656250000000000000,
0.18276417255401611328125000000000000,
-0.63661533594131469726562500000000000,
-0.77533644437789916992187500000000000,
0.04054431617259979248046875000000000,
0.19765183329582214355468750000000000,
0.00165345438290387392044067382812500,
-0.29050809144973754882812500000000000,
0.58826434612274169921875000000000000,
0.12348823249340057373046875000000000,
-0.60413521528244018554687500000000000,
-0.32924115657806396484375000000000000,
-0.47019144892692565917968750000000000,
0.14821040630340576171875000000000000,
0.64438223838806152343750000000000000,
-0.45646324753761291503906250000000000,
0.66175049543380737304687500000000000,
-0.55232375860214233398437500000000000,
-0.73774898052215576171875000000000000,
0.22488750517368316650390625000000000,
0.98044574260711669921875000000000000,
0.19361956417560577392578125000000000,
0.50179260969161987304687500000000000,
0.22673161327838897705078125000000000,
0.25831311941146850585937500000000000,
0.69029742479324340820312500000000000,
0.23058646917343139648437500000000000,
0.79197013378143310546875000000000000,
-0.11315125226974487304687500000000000,
0.21999154984951019287109375000000000,
0.62982511520385742187500000000000000,
0.31422793865203857421875000000000000,
0.05103700980544090270996093750000000,
-0.57309836149215698242187500000000000,
-0.65168589353561401367187500000000000,
-0.70638281106948852539062500000000000,
-0.30745735764503479003906250000000000,
-0.22316013276576995849609375000000000,
-0.55396080017089843750000000000000000,
-0.27101379632949829101562500000000000,
-0.26116937398910522460937500000000000,
-0.58401960134506225585937500000000000,
0.66619908809661865234375000000000000,
-0.04447603970766067504882812500000000,
-0.32434234023094177246093750000000000,
-0.27771604061126708984375000000000000,
0.15249511599540710449218750000000000,
0.81939744949340820312500000000000000,
-0.07338867336511611938476562500000000,
-0.13209070265293121337890625000000000,
0.03593289852142333984375000000000000,
-0.35151991248130798339843750000000000,
0.25677314400672912597656250000000000,
0.08908787369728088378906250000000000,
-0.34194514155387878417968750000000000,
-0.60814082622528076171875000000000000,
-0.22088877856731414794921875000000000,
0.41479390859603881835937500000000000,
-0.50408542156219482421875000000000000,
0.19718295335769653320312500000000000,
0.00209181429818272590637207031250000,
0.24697926640510559082031250000000000,
0.26820069551467895507812500000000000,
-0.67926830053329467773437500000000000,
-0.26779735088348388671875000000000000,
-0.37471601366996765136718750000000000,
0.34265655279159545898437500000000000,
-0.06168926879763603210449218750000000,
-0.06604066491127014160156250000000000,
0.36131593585014343261718750000000000,
-0.24125693738460540771484375000000000,
0.30802270770072937011718750000000000,
-0.77993094921112060546875000000000000,
-0.04264037311077117919921875000000000,
-0.10965824127197265625000000000000000,
-0.60465288162231445312500000000000000,
-0.41379034519195556640625000000000000,
0.02243431843817234039306640625000000,
0.05473760142922401428222656250000000,
0.44988775253295898437500000000000000,
0.25081926584243774414062500000000000,
-0.06267984211444854736328125000000000,
0.43780988454818725585937500000000000,
0.31155908107757568359375000000000000,
0.38063266873359680175781250000000000,
-0.81456393003463745117187500000000000,
-0.17053698003292083740234375000000000,
-0.07561527192592620849609375000000000,
-0.44827425479888916015625000000000000,
-0.37218093872070312500000000000000000,
0.26456764340400695800781250000000000,
0.27228429913520812988281250000000000,
0.21131260693073272705078125000000000,
-0.49710461497306823730468750000000000,
-0.78328394889831542968750000000000000,
-0.12593688070774078369140625000000000,
0.10413227230310440063476562500000000,
-0.44623631238937377929687500000000000,
-0.47671291232109069824218750000000000,
0.03178632259368896484375000000000000,
-0.66385394334793090820312500000000000,
0.08290839940309524536132812500000000,
0.50039589405059814453125000000000000,
0.33957377076148986816406250000000000,
0.35931065678596496582031250000000000,
-0.55873417854309082031250000000000000,
-0.40335658192634582519531250000000000,
-0.52768337726593017578125000000000000,
0.20218694210052490234375000000000000,
-0.27829980850219726562500000000000000,
0.17026026546955108642578125000000000,
-0.78506135940551757812500000000000000,
-0.43000647425651550292968750000000000,
-0.54519671201705932617187500000000000,
-0.21759594976902008056640625000000000,
0.50203561782836914062500000000000000,
0.16400252282619476318359375000000000,
-0.22536607086658477783203125000000000,
-0.18395885825157165527343750000000000,
0.39545929431915283203125000000000000,
-0.15861594676971435546875000000000000,
-0.06822196394205093383789062500000000,
-0.55122089385986328125000000000000000,
0.04984238743782043457031250000000000,
-0.07019777595996856689453125000000000,
-0.06902097165584564208984375000000000,
-0.19659791886806488037109375000000000,
-0.65613710880279541015625000000000000,
-0.01269226800650358200073242187500000,
-0.55874347686767578125000000000000000,
0.38662093877792358398437500000000000,
-0.33617743849754333496093750000000000,
0.07816854119300842285156250000000000,
-0.47092396020889282226562500000000000,
-0.49348112940788269042968750000000000,
0.52310383319854736328125000000000000,
-0.04608337953686714172363281250000000,
-0.58599972724914550781250000000000000,
0.04412909224629402160644531250000000,
0.34900709986686706542968750000000000,
-0.38184395432472229003906250000000000,
-0.07656633108854293823242187500000000,
-0.49307507276535034179687500000000000,
-0.09469113498926162719726562500000000,
0.03332441672682762145996093750000000,
0.02359593100845813751220703125000000,
-0.15273573994636535644531250000000000,
0.27065196633338928222656250000000000,
0.38332137465476989746093750000000000,
-0.03750446811318397521972656250000000,
-0.77412480115890502929687500000000000,
-0.39523828029632568359375000000000000,
0.71160763502120971679687500000000000,
-0.51989030838012695312500000000000000,
-0.84754258394241333007812500000000000,
-0.28098237514495849609375000000000000,
0.06375056505203247070312500000000000,
-0.04720826447010040283203125000000000,
0.20954196155071258544921875000000000,
-0.59219509363174438476562500000000000,
0.31605127453804016113281250000000000,
0.74417197704315185546875000000000000,
-0.28843083977699279785156250000000000,
-0.42452582716941833496093750000000000,
-0.46850517392158508300781250000000000,
0.73902344703674316406250000000000000,
-0.24770100414752960205078125000000000,
-0.29879832267761230468750000000000000,
-0.78489524126052856445312500000000000,
-0.57495433092117309570312500000000000,
0.64505130052566528320312500000000000,
0.57125908136367797851562500000000000,
0.03328211978077888488769531250000000,
-0.77908039093017578125000000000000000,
-0.39697304368019104003906250000000000,
-0.19719508290290832519531250000000000,
0.86806213855743408203125000000000000,
0.21629108488559722900390625000000000,
0.07977864146232604980468750000000000,
-0.21746581792831420898437500000000000,
-0.37437832355499267578125000000000000,
-0.17817890644073486328125000000000000,
0.02728242985904216766357421875000000,
-0.27550068497657775878906250000000000,
-0.17290392518043518066406250000000000,
0.54734915494918823242187500000000000,
-0.21770614385604858398437500000000000,
-0.51595258712768554687500000000000000,
-0.82863044738769531250000000000000000,
-0.51889741420745849609375000000000000,
-0.23089763522148132324218750000000000,
0.04582281783223152160644531250000000,
-0.02089054509997367858886718750000000,
-0.04676451906561851501464843750000000,
-0.65399843454360961914062500000000000,
-0.08358419686555862426757812500000000,
0.05854338780045509338378906250000000,
0.05707475543022155761718750000000000,
0.37037864327430725097656250000000000,
0.18272684514522552490234375000000000,
-0.66493016481399536132812500000000000,
0.00591460335999727249145507812500000,
0.18015083670616149902343750000000000,
-0.34802728891372680664062500000000000,
-0.57001793384552001953125000000000000,
0.59692299365997314453125000000000000,
0.69170761108398437500000000000000000,
-0.52003979682922363281250000000000000,
-0.06616726517677307128906250000000000,
-0.02600372768938541412353515625000000,
0.55497258901596069335937500000000000,
-0.50196343660354614257812500000000000,
0.12915955483913421630859375000000000,
0.01310711074620485305786132812500000,
0.13676778972148895263671875000000000,
0.53406554460525512695312500000000000,
-0.12989708781242370605468750000000000,
0.00427779229357838630676269531250000,
0.07780902832746505737304687500000000,
-0.89109367132186889648437500000000000,
-0.26456794142723083496093750000000000,
0.13176496326923370361328125000000000,
0.17577645182609558105468750000000000,
0.05968299135565757751464843750000000,
-0.40642273426055908203125000000000000,
0.32780328392982482910156250000000000,
0.27924054861068725585937500000000000,
-0.38322338461875915527343750000000000,
0.14440083503723144531250000000000000,
-0.06438872218132019042968750000000000,
-0.67344588041305541992187500000000000,
-0.95982015132904052734375000000000000,
0.34120237827301025390625000000000000,
-0.44338867068290710449218750000000000,
-0.37240532040596008300781250000000000,
0.27218708395957946777343750000000000,
0.53837019205093383789062500000000000,
0.04355135560035705566406250000000000,
-0.70088398456573486328125000000000000,
0.44899252057075500488281250000000000,
0.25182914733886718750000000000000000,
0.49154600501060485839843750000000000,
-0.29845741391181945800781250000000000,
-0.07259628176689147949218750000000000,
0.82120019197463989257812500000000000,
0.03453315421938896179199218750000000,
-0.49643325805664062500000000000000000,
0.21130089461803436279296875000000000,
-0.37363547086715698242187500000000000,
-0.15495157241821289062500000000000000,
0.46162495017051696777343750000000000,
-0.74252492189407348632812500000000000,
0.39750277996063232421875000000000000,
-0.14582201838493347167968750000000000,
-0.08918150514364242553710937500000000,
0.57728767395019531250000000000000000,
-0.57674419879913330078125000000000000,
-0.07367907464504241943359375000000000,
-0.89085912704467773437500000000000000,
-0.19478653371334075927734375000000000,
0.37842658162117004394531250000000000,
0.68334776163101196289062500000000000,
0.49878159165382385253906250000000000,
-0.07753919810056686401367187500000000,
0.20238941907882690429687500000000000,
0.51344418525695800781250000000000000,
-0.48598572611808776855468750000000000,
-0.54533880949020385742187500000000000,
-0.58807355165481567382812500000000000,
0.81371408700942993164062500000000000,
0.59439015388488769531250000000000000,
0.16362176835536956787109375000000000,
0.22661209106445312500000000000000000,
-0.63001912832260131835937500000000000,
0.39608502388000488281250000000000000,
-0.20697417855262756347656250000000000,
-0.49775528907775878906250000000000000,
-0.02115436457097530364990234375000000,
-0.38874045014381408691406250000000000,
-0.22980289161205291748046875000000000,
-0.34677365422248840332031250000000000,
0.74446463584899902343750000000000000,
-0.10315907746553421020507812500000000,
0.71833014488220214843750000000000000,
-0.74309337139129638671875000000000000,
-0.51475900411605834960937500000000000,
0.06921265274286270141601562500000000,
-0.25444123148918151855468750000000000,
0.50248426198959350585937500000000000,
-0.75738894939422607421875000000000000,
0.09758571535348892211914062500000000,
0.14106696844100952148437500000000000,
0.14384201169013977050781250000000000,
0.01740279793739318847656250000000000,
0.01601694524288177490234375000000000,
-0.48211109638214111328125000000000000,
0.82394433021545410156250000000000000,
-0.01162863057106733322143554687500000,
-0.11092039197683334350585937500000000,
-0.66114085912704467773437500000000000,
0.79065018892288208007812500000000000,
-0.44793722033500671386718750000000000,
-0.20109787583351135253906250000000000,
0.18591111898422241210937500000000000,
-0.36666035652160644531250000000000000,
0.24046660959720611572265625000000000,
0.22370171546936035156250000000000000,
-0.07130922377109527587890625000000000,
-0.14793778955936431884765625000000000,
-0.20567126572132110595703125000000000,
0.45509505271911621093750000000000000,
0.27569198608398437500000000000000000,
-0.26539984345436096191406250000000000,
0.54415041208267211914062500000000000,
0.28879162669181823730468750000000000,
0.01368876080960035324096679687500000,
-0.50632578134536743164062500000000000,
-0.34898954629898071289062500000000000,
-0.43338644504547119140625000000000000,
-0.26941946148872375488281250000000000,
-0.62549144029617309570312500000000000,
0.47044655680656433105468750000000000,
-0.54458063840866088867187500000000000,
-0.28223323822021484375000000000000000,
0.74403202533721923828125000000000000,
0.79539722204208374023437500000000000,
-0.21257644891738891601562500000000000,
0.60475885868072509765625000000000000,
0.21606303751468658447265625000000000,
0.07204832136631011962890625000000000,
0.86618447303771972656250000000000000,
0.07548715919256210327148437500000000,
0.19407853484153747558593750000000000,
-0.54364651441574096679687500000000000,
-0.11381431668996810913085937500000000,
0.38081187009811401367187500000000000,
0.40497574210166931152343750000000000,
-0.57987189292907714843750000000000000,
-0.63949990272521972656250000000000000,
-0.64448767900466918945312500000000000,
-0.39300557971000671386718750000000000,
-0.74739390611648559570312500000000000,
-0.27891099452972412109375000000000000,
0.15488736331462860107421875000000000,
0.14161194860935211181640625000000000,
0.47514477372169494628906250000000000,
-0.23069103062152862548828125000000000,
-0.58665591478347778320312500000000000,
0.64359742403030395507812500000000000,
-0.34201359748840332031250000000000000,
-0.56968235969543457031250000000000000,
0.17279250919818878173828125000000000,
0.47086095809936523437500000000000000,
-0.36354234814643859863281250000000000,
0.47272711992263793945312500000000000,
0.54750692844390869140625000000000000,
0.22654089331626892089843750000000000,
-0.32976344227790832519531250000000000,
-0.13767412304878234863281250000000000,
0.39496314525604248046875000000000000,
-0.34149467945098876953125000000000000,
-1.02764642238616943359375000000000000,
-0.42941886186599731445312500000000000,
0.26466929912567138671875000000000000,
0.18500022590160369873046875000000000,
0.38210833072662353515625000000000000,
0.16241979598999023437500000000000000,
-0.10685906559228897094726562500000000,
-0.11275507509708404541015625000000000,
0.13375155627727508544921875000000000,
0.37472346425056457519531250000000000,
-0.02488088421523571014404296875000000,
0.26876345276832580566406250000000000,
0.67374485731124877929687500000000000,
-0.49155148863792419433593750000000000,
-0.82489705085754394531250000000000000,
0.14829227328300476074218750000000000,
-0.69105601310729980468750000000000000,
-0.38703772425651550292968750000000000,
0.11946590244770050048828125000000000,
0.22497780621051788330078125000000000,
0.46111756563186645507812500000000000,
-0.09292850643396377563476562500000000,
0.58459705114364624023437500000000000,
-0.52255976200103759765625000000000000,
0.03083789162337779998779296875000000,
-0.19050663709640502929687500000000000,
-0.40993115305900573730468750000000000,
0.05720084905624389648437500000000000,
0.21790438890457153320312500000000000,
0.15305218100547790527343750000000000,
-0.45616662502288818359375000000000000,
-0.03412910178303718566894531250000000,
-0.18993201851844787597656250000000000,
-0.23720380663871765136718750000000000,
-0.05537082627415657043457031250000000,
0.31972217559814453125000000000000000,
-0.23439933359622955322265625000000000,
-0.10954468697309494018554687500000000,
-0.24432833492755889892578125000000000,
-0.05939256399869918823242187500000000,
-0.00796945020556449890136718750000000,
0.04348083958029747009277343750000000,
0.47898927330970764160156250000000000,
0.45974427461624145507812500000000000,
-0.78359299898147583007812500000000000,
-0.45710712671279907226562500000000000,
-0.14387060701847076416015625000000000,
0.78453880548477172851562500000000000,
0.62129139900207519531250000000000000,
-0.30617681145668029785156250000000000,
-0.03394694998860359191894531250000000,
0.54839980602264404296875000000000000,
-0.87943685054779052734375000000000000,
-0.70077657699584960937500000000000000,
0.66780191659927368164062500000000000,
-0.47728639841079711914062500000000000,
0.23035021126270294189453125000000000,
0.06966643035411834716796875000000000,
-0.18896569311618804931640625000000000,
-0.28841164708137512207031250000000000,
-0.12191595137119293212890625000000000,
0.33711147308349609375000000000000000,
-0.14240038394927978515625000000000000,
-0.56617939472198486328125000000000000,
-0.34767481684684753417968750000000000,
0.26803144812583923339843750000000000,
-0.39645001292228698730468750000000000,
-0.12457916885614395141601562500000000,
0.16638083755970001220703125000000000,
0.36469793319702148437500000000000000,
0.02196264825761318206787109375000000,
-0.08102635294198989868164062500000000,
0.83694148063659667968750000000000000,
-0.80311739444732666015625000000000000,
0.13056871294975280761718750000000000,
0.59187906980514526367187500000000000,
0.09134244918823242187500000000000000,
0.57692176103591918945312500000000000,
-0.31698092818260192871093750000000000,
-0.23173978924751281738281250000000000,
0.38405725359916687011718750000000000,
-0.35836169123649597167968750000000000,
-0.15904450416564941406250000000000000,
-0.22142510116100311279296875000000000,
-0.38120281696319580078125000000000000,
0.30015286803245544433593750000000000,
0.53891146183013916015625000000000000,
-0.09921705722808837890625000000000000,
0.14004795253276824951171875000000000,
-0.22715286910533905029296875000000000,
-0.44898733496665954589843750000000000,
0.64896565675735473632812500000000000,
-0.34117317199707031250000000000000000,
0.73072028160095214843750000000000000,
-0.67530447244644165039062500000000000,
-0.16890236735343933105468750000000000,
