-0.36470636725425720214843750000000000,0.45415779948234558105468750000000000,-0.43564340472221374511718750000000000
0.00970941223204135894775390625000000,0.70444464683532714843750000000000000,0.48663172125816345214843750000000000
0.11090997606515884399414062500000000,-0.09272259473800659179687500000000000,0.10884255170822143554687500000000000
-0.82851547002792358398437500000000000,-0.23428656160831451416015625000000000,0.37723627686500549316406250000000000
-0.41856980323791503906250000000000000,-0.17677855491638183593750000000000000,0.08378192782402038574218750000000000
0.11089462041854858398437500000000000,-0.45529368519783020019531250000000000,-0.53184586763381958007812500000000000
-0.57898759841918945312500000000000000,0.27381384372711181640625000000000000,0.12442010641098022460937500000000000
-0.31580594182014465332031250000000000,-0.27485224604606628417968750000000000,0.00948911905288696289062500000000000
-0.17771500349044799804687500000000000,0.18618451058864593505859375000000000,0.29008165001869201660156250000000000
-0.13064952194690704345703125000000000,0.07911829650402069091796875000000000,0.49217343330383300781250000000000000
0.21398444473743438720703125000000000,0.01133910566568374633789062500000000,-0.24653817713260650634765625000000000
0.33390742540359497070312500000000000,-0.43108209967613220214843750000000000,0.38910400867462158203125000000000000
0.36207711696624755859375000000000000,-0.50194942951202392578125000000000000,-0.75874900817871093750000000000000000
-0.32280382513999938964843750000000000,-0.32526278495788574218750000000000000,-0.10458252578973770141601562500000000
-0.36902853846549987792968750000000000,0.39848741888999938964843750000000000,-0.13511075079441070556640625000000000
0.46728712320327758789062500000000000,-0.31874081492424011230468750000000000,-0.47604957222938537597656250000000000
0.01954944990575313568115234375000000,-0.03190330043435096740722656250000000,-0.13290953636169433593750000000000000
-0.21766079962253570556640625000000000,-0.20969708263874053955078125000000000,0.03520686179399490356445312500000000
0.08828542381525039672851562500000000,0.21608683466911315917968750000000000,-0.33754596114158630371093750000000000
0.54941332340240478515625000000000000,0.24421073496341705322265625000000000,-0.39224907755851745605468750000000000
0.08222902566194534301757812500000000,-0.02401543036103248596191406250000000,0.02725641429424285888671875000000000
-0.15450960397720336914062500000000000,-0.26674509048461914062500000000000000,0.34069672226905822753906250000000000
0.19139117002487182617187500000000000,0.00850004982203245162963867187500000,-0.13772693276405334472656250000000000
0.08957360684871673583984375000000000,0.36880385875701904296875000000000000,0.35588333010673522949218750000000000
-0.45442172884941101074218750000000000,0.30950483679771423339843750000000000,-0.25505200028419494628906250000000000
-0.65871328115463256835937500000000000,0.27330940961837768554687500000000000,0.17973257601261138916015625000000000
-0.61112123727798461914062500000000000,0.43407812714576721191406250000000000,0.19129854440689086914062500000000000
-0.04001801088452339172363281250000000,-0.09551596641540527343750000000000000,0.16655193269252777099609375000000000
-0.15596415102481842041015625000000000,0.13228304684162139892578125000000000,-0.13808189332485198974609375000000000
-0.03975963592529296875000000000000000,0.10194068402051925659179687500000000,-0.28136318922042846679687500000000000
-0.31862691044807434082031250000000000,0.38195407390594482421875000000000000,-0.09065366536378860473632812500000000
-1.17907905578613281250000000000000000,-0.25042116641998291015625000000000000,-0.83256644010543823242187500000000000
0.10485581308603286743164062500000000,0.20405571162700653076171875000000000,-0.08857008069753646850585937500000000
-0.25096619129180908203125000000000000,0.44521173834800720214843750000000000,-0.45405849814414978027343750000000000
-0.10593030601739883422851562500000000,0.19650676846504211425781250000000000,-0.22708876430988311767578125000000000
0.23976135253906250000000000000000000,-0.05932537093758583068847656250000000,-0.28924009203910827636718750000000000
0.09204701334238052368164062500000000,-0.54586160182952880859375000000000000,-0.58429431915283203125000000000000000
-0.01199822593480348587036132812500000,0.01865583285689353942871093750000000,-0.33080068230628967285156250000000000
-0.03387060388922691345214843750000000,-0.05918831005692481994628906250000000,0.10593335330486297607421875000000000
0.08825736492872238159179687500000000,-0.75879204273223876953125000000000000,-0.88986259698867797851562500000000000
-0.05620707944035530090332031250000000,0.31484058499336242675781250000000000,-0.37558251619338989257812500000000000
-0.41136080026626586914062500000000000,-0.37133404612541198730468750000000000,0.47208350896835327148437500000000000
-0.30463528633117675781250000000000000,-0.16715307533740997314453125000000000,0.01748484559357166290283203125000000
-0.59129554033279418945312500000000000,0.40307986736297607421875000000000000,-0.30957096815109252929687500000000000
0.21688030660152435302734375000000000,-0.34013205766677856445312500000000000,0.33240455389022827148437500000000000
0.17941126227378845214843750000000000,-0.50875055789947509765625000000000000,-0.85601127147674560546875000000000000
0.20214430987834930419921875000000000,-0.27418836951255798339843750000000000,-0.19674187898635864257812500000000000
-0.38447874784469604492187500000000000,-0.19811187684535980224609375000000000,0.17347677052021026611328125000000000
0.09971328079700469970703125000000000,-0.19991689920425415039062500000000000,-0.20440268516540527343750000000000000
0.15206968784332275390625000000000000,0.30160841345787048339843750000000000,-0.40718609094619750976562500000000000
0.30041781067848205566406250000000000,-0.55082547664642333984375000000000000,-0.58433181047439575195312500000000000
-0.15360052883625030517578125000000000,0.05687749385833740234375000000000000,-0.06186658516526222229003906250000000
0.01105334516614675521850585937500000,-0.31147244572639465332031250000000000,0.34481811523437500000000000000000000
-0.22995112836360931396484375000000000,0.52547669410705566406250000000000000,0.52607351541519165039062500000000000
-0.67660301923751831054687500000000000,-0.08153607696294784545898437500000000,0.19722983241081237792968750000000000
0.06376869231462478637695312500000000,-0.14357309043407440185546875000000000,0.16826090216636657714843750000000000
-0.14773899316787719726562500000000000,-0.72192454338073730468750000000000000,-0.04520529508590698242187500000000000
0.17031639814376831054687500000000000,-0.01820697821676731109619140625000000,0.01096146646887063980102539062500000
-0.20582063496112823486328125000000000,-0.24938282370567321777343750000000000,-0.02183907851576805114746093750000000
-0.10929089039564132690429687500000000,0.16118484735488891601562500000000000,-0.18998306989669799804687500000000000
-0.01105148717761039733886718750000000,0.45741793513298034667968750000000000,-0.21331521868705749511718750000000000
0.03549198806285858154296875000000000,-0.45214110612869262695312500000000000,0.44055566191673278808593750000000000
0.23488877713680267333984375000000000,-0.25116831064224243164062500000000000,0.24330917000770568847656250000000000
0.27391597628593444824218750000000000,-0.47674560546875000000000000000000000,0.45277971029281616210937500000000000
0.08664288371801376342773437500000000,-0.25829777121543884277343750000000000,-0.24086456000804901123046875000000000
-0.21380302309989929199218750000000000,-0.13952866196632385253906250000000000,0.24491380155086517333984375000000000
-0.00135512440465390682220458984375000,0.07689856737852096557617187500000000,-0.02629157528281211853027343750000000
-0.20761094987392425537109375000000000,-0.00718998350203037261962890625000000,0.01334069948643445968627929687500000
-0.29377388954162597656250000000000000,-0.01092640962451696395874023437500000,0.33694753050804138183593750000000000
0.21914964914321899414062500000000000,0.18737213313579559326171875000000000,-0.37853133678436279296875000000000000
-0.18311834335327148437500000000000000,0.00183137354906648397445678710937500,-0.00200427789241075515747070312500000
0.11424888670444488525390625000000000,-0.24077910184860229492187500000000000,0.26246896386146545410156250000000000
-0.19114677608013153076171875000000000,0.31517192721366882324218750000000000,-0.32845094799995422363281250000000000
0.12456346303224563598632812500000000,0.06673208624124526977539062500000000,-0.22860741615295410156250000000000000
-0.10613635182380676269531250000000000,-0.46386525034904479980468750000000000,0.50036698579788208007812500000000000
-0.14659725129604339599609375000000000,0.09552548825740814208984375000000000,-0.10229197889566421508789062500000000
-0.42681908607482910156250000000000000,0.51625382900238037109375000000000000,-0.40421736240386962890625000000000000
-0.45503795146942138671875000000000000,0.29574432969093322753906250000000000,-0.23795363306999206542968750000000000
-0.14368586242198944091796875000000000,-0.11833071708679199218750000000000000,0.28285768628120422363281250000000000
0.20573265850543975830078125000000000,-0.80527216196060180664062500000000000,-0.36765787005424499511718750000000000
-0.25168663263320922851562500000000000,-0.58352029323577880859375000000000000,-0.07642117142677307128906250000000000
0.07893667370080947875976562500000000,-0.07219593226909637451171875000000000,0.09213846921920776367187500000000000
-0.06422092020511627197265625000000000,0.22105450928211212158203125000000000,-0.26912742853164672851562500000000000
0.07371801137924194335937500000000000,-0.47894486784934997558593750000000000,0.45974409580230712890625000000000000
-0.01700455695390701293945312500000000,-0.35548689961433410644531250000000000,-0.22809827327728271484375000000000000
0.20642842352390289306640625000000000,0.32722240686416625976562500000000000,-0.45818653702735900878906250000000000
-0.14491763710975646972656250000000000,-0.91956257820129394531250000000000000,-0.40360543131828308105468750000000000
0.27823778986930847167968750000000000,-0.52519458532333374023437500000000000,0.38801309466361999511718750000000000
-0.25937286019325256347656250000000000,-1.53365945816040039062500000000000000,-0.53157401084899902343750000000000000
-0.28814986348152160644531250000000000,-0.29258587956428527832031250000000000,0.30930206179618835449218750000000000
-0.00084163545398041605949401855468750,-0.60561931133270263671875000000000000,-0.27879396080970764160156250000000000
-0.43153682351112365722656250000000000,0.21898290514945983886718750000000000,-0.16724057495594024658203125000000000
0.36482426524162292480468750000000000,-0.06209491938352584838867187500000000,-0.27677214145660400390625000000000000
0.19835299253463745117187500000000000,0.02817457914352416992187500000000000,-0.26725772023200988769531250000000000
-0.08889877796173095703125000000000000,0.00540958577767014503479003906250000,-0.10087337344884872436523437500000000
0.20646411180496215820312500000000000,0.06443703919649124145507812500000000,-0.52040594816207885742187500000000000
-0.08866254985332489013671875000000000,0.54036062955856323242187500000000000,-0.29854035377502441406250000000000000
-0.18116344511508941650390625000000000,-0.65092039108276367187500000000000000,-0.32556650042533874511718750000000000
-0.02944840118288993835449218750000000,-0.23824721574783325195312500000000000,0.33062985539436340332031250000000000
0.11101160198450088500976562500000000,0.06646627932786941528320312500000000,0.46166649460792541503906250000000000
-0.03365968912839889526367187500000000,0.04618247598409652709960937500000000,-0.10764350742101669311523437500000000
0.25051775574684143066406250000000000,-0.43547064065933227539062500000000000,0.42207410931587219238281250000000000
-0.13485535979270935058593750000000000,-0.30002993345260620117187500000000000,0.36951014399528503417968750000000000
-0.69421547651290893554687500000000000,0.20325371623039245605468750000000000,0.21084606647491455078125000000000000
-0.51149827241897583007812500000000000,0.29969704151153564453125000000000000,-0.23059317469596862792968750000000000
0.14877536892890930175781250000000000,0.04133822768926620483398437500000000,-0.06742458790540695190429687500000000
0.09677448868751525878906250000000000,0.05205483734607696533203125000000000,0.52566373348236083984375000000000000
-0.22035461664199829101562500000000000,0.01002176012843847274780273437500000,0.18503557145595550537109375000000000
0.08098720759153366088867187500000000,0.19573892652988433837890625000000000,-0.13205407559871673583984375000000000
-0.10013276338577270507812500000000000,0.10304191708564758300781250000000000,-0.13168802857398986816406250000000000
0.06815533339977264404296875000000000,0.17208898067474365234375000000000000,-0.33020004630088806152343750000000000
-0.41168239712715148925781250000000000,0.21160571277141571044921875000000000,-0.16166110336780548095703125000000000
-0.16521707177162170410156250000000000,0.03620827943086624145507812500000000,0.11247355490922927856445312500000000
-0.07616523653268814086914062500000000,-0.53732949495315551757812500000000000,-0.13839370012283325195312500000000000
0.05385212972760200500488281250000000,-0.10968243330717086791992187500000000,0.13833919167518615722656250000000000
-0.64763998985290527343750000000000000,0.40228143334388732910156250000000000,0.07924553006887435913085937500000000
0.16798509657382965087890625000000000,-0.60203307867050170898437500000000000,-0.94275301694869995117187500000000000
0.03094800747931003570556640625000000,0.16758503019809722900390625000000000,-0.42541843652725219726562500000000000
0.68015140295028686523437500000000000,0.82163929939270019531250000000000000,-0.31590157747268676757812500000000000
-0.30537807941436767578125000000000000,-0.07348974049091339111328125000000000,0.07544854283332824707031250000000000
-0.11336049437522888183593750000000000,-0.08540330082178115844726562500000000,-0.15925061702728271484375000000000000
-0.38837626576423645019531250000000000,-0.03787711262702941894531250000000000,0.07986313849687576293945312500000000
-0.55258291959762573242187500000000000,-0.05955933779478073120117187500000000,0.24370011687278747558593750000000000
0.37267476320266723632812500000000000,-0.28747189044952392578125000000000000,-0.00105263735167682170867919921875000
-0.13302011787891387939453125000000000,-0.14338886737823486328125000000000000,0.42650732398033142089843750000000000
-0.20378808677196502685546875000000000,0.20581030845642089843750000000000000,-0.20463760197162628173828125000000000
-0.23803380131721496582031250000000000,0.24875435233116149902343750000000000,-0.24475011229515075683593750000000000
0.32504540681838989257812500000000000,-0.37141695618629455566406250000000000,-0.31469786167144775390625000000000000
0.00013918089098297059535980224609375,-0.02282305434346199035644531250000000,-0.25296747684478759765625000000000000
-0.62566298246383666992187500000000000,0.19805063307285308837890625000000000,-0.12937115132808685302734375000000000
-0.06992276012897491455078125000000000,0.00224687578156590461730957031250000,-0.05806574597954750061035156250000000
-0.59570199251174926757812500000000000,0.42021983861923217773437500000000000,-0.00670243659988045692443847656250000
-0.36654907464981079101562500000000000,-0.00498193688690662384033203125000000,0.23102764785289764404296875000000000
-0.02696204558014869689941406250000000,-0.03560278937220573425292968750000000,0.08605494350194931030273437500000000
0.09290011227130889892578125000000000,-0.11492227017879486083984375000000000,0.12659205496311187744140625000000000
-0.33738619089126586914062500000000000,0.28864952921867370605468750000000000,0.24200616776943206787109375000000000
-0.06748160719871520996093750000000000,0.08575338125228881835937500000000000,-0.12447921931743621826171875000000000
0.25099229812622070312500000000000000,-0.13768416643142700195312500000000000,0.35288387537002563476562500000000000
-0.10205653309822082519531250000000000,0.12048036605119705200195312500000000,-0.14807263016700744628906250000000000
-0.05468322336673736572265625000000000,-0.86580330133438110351562500000000000,-0.28522542119026184082031250000000000
-0.10202366113662719726562500000000000,-0.18755328655242919921875000000000000,0.42784351110458374023437500000000000
-0.09048829227685928344726562500000000,-0.24154594540596008300781250000000000,0.50180941820144653320312500000000000
-0.01980117708444595336914062500000000,-0.07827386260032653808593750000000000,0.12674731016159057617187500000000000
0.29087311029434204101562500000000000,0.61367958784103393554687500000000000,-0.27675417065620422363281250000000000
0.11858042329549789428710937500000000,-0.18788725137710571289062500000000000,-0.29376724362373352050781250000000000
-0.57965397834777832031250000000000000,-0.00565814040601253509521484375000000,0.26906087994575500488281250000000000
-0.63258427381515502929687500000000000,-0.87258470058441162109375000000000000,0.29768386483192443847656250000000000
0.44740709662437438964843750000000000,0.79259580373764038085937500000000000,-0.30029076337814331054687500000000000
-0.01691726408898830413818359375000000,-0.24798654019832611083984375000000000,0.37832379341125488281250000000000000
-0.01305316574871540069580078125000000,-0.19388264417648315429687500000000000,0.25192394852638244628906250000000000
-0.07159084826707839965820312500000000,-0.04128308221697807312011718750000000,-0.24464228749275207519531250000000000
-0.27054879069328308105468750000000000,0.55009073019027709960937500000000000,-0.55009013414382934570312500000000000
-0.07539500296115875244140625000000000,0.40211102366447448730468750000000000,-0.44894576072692871093750000000000000
-0.70244884490966796875000000000000000,-0.23364752531051635742187500000000000,0.35758122801780700683593750000000000
0.03098454698920249938964843750000000,0.13436895608901977539062500000000000,-0.05911717936396598815917968750000000
0.13914096355438232421875000000000000,-0.05916770920157432556152343750000000,0.06052253022789955139160156250000000
0.31859982013702392578125000000000000,0.17607104778289794921875000000000000,-0.43114739656448364257812500000000000
-0.19345746934413909912109375000000000,0.31208154559135437011718750000000000,-0.32717949151992797851562500000000000
0.16716790199279785156250000000000000,-0.44149291515350341796875000000000000,-0.44500702619552612304687500000000000
-0.08813543617725372314453125000000000,-0.20098157227039337158203125000000000,-0.04498271644115447998046875000000000
0.19108566641807556152343750000000000,0.32281297445297241210937500000000000,-0.35028028488159179687500000000000000
-0.23968471586704254150390625000000000,-0.08919193595647811889648437500000000,0.24507980048656463623046875000000000
-0.53035080432891845703125000000000000,0.71543937921524047851562500000000000,0.22622269392013549804687500000000000
-0.28464737534523010253906250000000000,0.06593270599842071533203125000000000,-0.03443980589509010314941406250000000
-0.29565292596817016601562500000000000,0.34120094776153564453125000000000000,0.47118636965751647949218750000000000
0.24815107882022857666015625000000000,-0.19692693650722503662109375000000000,-0.24216088652610778808593750000000000
0.01101793721318244934082031250000000,0.60390919446945190429687500000000000,-0.14454104006290435791015625000000000
-0.22926552593708038330078125000000000,-0.32036337256431579589843750000000000,0.37086105346679687500000000000000000
-0.15052016079425811767578125000000000,0.15987350046634674072265625000000000,-0.17400647699832916259765625000000000
-0.14346469938755035400390625000000000,0.17566329240798950195312500000000000,-0.19088302552700042724609375000000000
-0.34405851364135742187500000000000000,-0.06671035289764404296875000000000000,0.09837359935045242309570312500000000
-0.78127181529998779296875000000000000,-0.29805576801300048828125000000000000,0.17092174291610717773437500000000000
-0.15405885875225067138671875000000000,-0.01912277750670909881591796875000000,-0.00128008844330906867980957031250000
0.04526456445455551147460937500000000,-0.32416203618049621582031250000000000,-0.21655134856700897216796875000000000
-0.01000544521957635879516601562500000,0.60795879364013671875000000000000000,-0.26152449846267700195312500000000000
0.21264918148517608642578125000000000,-0.07729953527450561523437500000000000,0.03848588839173316955566406250000000
-0.06869415938854217529296875000000000,0.17678268253803253173828125000000000,0.27744659781455993652343750000000000
0.20169019699096679687500000000000000,-0.01447054650634527206420898437500000,0.49215534329414367675781250000000000
0.23635305464267730712890625000000000,-0.04658072441816329956054687500000000,-0.39133954048156738281250000000000000
-0.30592095851898193359375000000000000,0.33704057335853576660156250000000000,0.12397316843271255493164062500000000
-0.67276227474212646484375000000000000,0.63110756874084472656250000000000000,0.36053693294525146484375000000000000
-0.32820314168930053710937500000000000,0.43277129530906677246093750000000000,-0.41632083058357238769531250000000000
-0.14660730957984924316406250000000000,-0.64808309078216552734375000000000000,-0.20999555289745330810546875000000000
-2.04193639755249023437500000000000000,0.13814888894557952880859375000000000,-1.08858263492584228515625000000000000
0.15557725727558135986328125000000000,0.04889642447233200073242187500000000,-0.04810051992535591125488281250000000
0.01448121760040521621704101562500000,0.10952311754226684570312500000000000,-0.19001555442810058593750000000000000
-0.21268644928932189941406250000000000,0.08952790498733520507812500000000000,0.24179443717002868652343750000000000
0.03416078537702560424804687500000000,0.14264366030693054199218750000000000,-0.24330808222293853759765625000000000
-0.04955662041902542114257812500000000,0.49737134575843811035156250000000000,0.13639691472053527832031250000000000
-0.27985528111457824707031250000000000,0.01854594051837921142578125000000000,0.12409021705389022827148437500000000
0.05325661599636077880859375000000000,0.09226634353399276733398437500000000,-0.19714309275150299072265625000000000
-0.47428014874458312988281250000000000,-0.31184062361717224121093750000000000,0.35506016016006469726562500000000000
0.31722822785377502441406250000000000,-0.59736949205398559570312500000000000,-0.50855118036270141601562500000000000
-0.23044238984584808349609375000000000,0.07680449634790420532226562500000000,-0.16224059462547302246093750000000000
-0.10252691060304641723632812500000000,0.41020750999450683593750000000000000,-0.49271172285079956054687500000000000
-0.35523900389671325683593750000000000,0.49652624130249023437500000000000000,0.16138504445552825927734375000000000
-0.13583976030349731445312500000000000,0.25597757101058959960937500000000000,-0.28093302249908447265625000000000000
0.28195515275001525878906250000000000,-0.20944014191627502441406250000000000,0.17564152181148529052734375000000000
0.26610934734344482421875000000000000,0.70315724611282348632812500000000000,-0.19542925059795379638671875000000000
0.06246718019247055053710937500000000,-0.22551739215850830078125000000000000,0.26225042343139648437500000000000000
0.30991542339324951171875000000000000,0.51075237989425659179687500000000000,-0.30413037538528442382812500000000000
-0.07807160168886184692382812500000000,0.10554930567741394042968750000000000,0.07431703060865402221679687500000000
-0.24924835562705993652343750000000000,0.13176494836807250976562500000000000,-0.11288456618785858154296875000000000
-0.01004352141171693801879882812500000,0.16243173182010650634765625000000000,-0.23083984851837158203125000000000000
-0.14861531555652618408203125000000000,-0.08261772245168685913085937500000000,-0.21994039416313171386718750000000000
0.17439615726470947265625000000000000,-0.34899464249610900878906250000000000,-0.49759072065353393554687500000000000
-0.03046833164989948272705078125000000,-0.28676986694335937500000000000000000,0.34073060750961303710937500000000000
-0.30154868960380554199218750000000000,0.23481604456901550292968750000000000,0.19543294608592987060546875000000000
0.04525241255760192871093750000000000,0.33895152807235717773437500000000000,-0.52081781625747680664062500000000000
0.13993096351623535156250000000000000,-0.12604676187038421630859375000000000,-0.19069921970367431640625000000000000
-0.31733900308609008789062500000000000,0.35376691818237304687500000000000000,-0.33493494987487792968750000000000000
0.09636467695236206054687500000000000,-0.02385295741260051727294921875000000,0.02959372662007808685302734375000000
0.69834685325622558593750000000000000,-0.04846447333693504333496093750000000,-0.33727446198463439941406250000000000
0.27064120769500732421875000000000000,-0.36875379085540771484375000000000000,0.02050652168691158294677734375000000
-0.32914608716964721679687500000000000,0.05043822526931762695312500000000000,0.10857462137937545776367187500000000
-0.57579344511032104492187500000000000,-0.13395562767982482910156250000000000,0.31386971473693847656250000000000000
-0.09024520963430404663085937500000000,0.28440755605697631835937500000000000,-0.33082544803619384765625000000000000
-0.14167685806751251220703125000000000,-0.14437587559223175048828125000000000,-0.02457924187183380126953125000000000
-0.74660623073577880859375000000000000,-0.09511430561542510986328125000000000,0.33405679464340209960937500000000000
0.05716168880462646484375000000000000,-0.04848428443074226379394531250000000,0.07780781388282775878906250000000000
-0.83686959743499755859375000000000000,-0.22478577494621276855468750000000000,0.13785129785537719726562500000000000
-0.19609175622463226318359375000000000,0.16386821866035461425781250000000000,-0.16100269556045532226562500000000000
-0.04108746722340583801269531250000000,-0.04724390432238578796386718750000000,-0.08532159775495529174804687500000000
-0.33690655231475830078125000000000000,0.51531630754470825195312500000000000,-0.41888841986656188964843750000000000
-0.03937817364931106567382812500000000,0.06761229038238525390625000000000000,-0.11888053268194198608398437500000000
-0.05281857401132583618164062500000000,-0.14872331917285919189453125000000000,-0.06217783689498901367187500000000000
-0.01086028199642896652221679687500000,-0.03517682477831840515136718750000000,0.06540723145008087158203125000000000
-0.23684045672416687011718750000000000,-0.01107485871762037277221679687500000,0.02524118125438690185546875000000000
-0.38961392641067504882812500000000000,-0.10002744942903518676757812500000000,0.27012345194816589355468750000000000
-0.56815296411514282226562500000000000,0.25608092546463012695312500000000000,-0.21586449444293975830078125000000000
-0.11222470551729202270507812500000000,-0.16122095286846160888671875000000000,0.33471605181694030761718750000000000
0.12498123943805694580078125000000000,-0.07620704174041748046875000000000000,-0.33731889724731445312500000000000000
-0.18051177263259887695312500000000000,-0.43208298087120056152343750000000000,0.47734645009040832519531250000000000
0.10864838957786560058593750000000000,-0.26339066028594970703125000000000000,0.27760955691337585449218750000000000
0.05159942433238029479980468750000000,-0.05976404249668121337890625000000000,-0.14204348623752593994140625000000000
-0.06414496153593063354492187500000000,0.03654785454273223876953125000000000,-0.07950960844755172729492187500000000
-0.18247157335281372070312500000000000,-0.48647195100784301757812500000000000,-0.04869500175118446350097656250000000
0.23828892409801483154296875000000000,0.02576675079762935638427734375000000,-0.06134611740708351135253906250000000
0.29517278075218200683593750000000000,-0.15003696084022521972656250000000000,0.40828564763069152832031250000000000
-0.15856200456619262695312500000000000,0.30833721160888671875000000000000000,-0.33205679059028625488281250000000000
-0.54609060287475585937500000000000000,-0.31744381785392761230468750000000000,0.43060258030891418457031250000000000
-0.10795066505670547485351562500000000,-0.12127530574798583984375000000000000,0.20425575971603393554687500000000000
0.64248251914978027343750000000000000,0.28321573138236999511718750000000000,-0.42794820666313171386718750000000000
-0.10896009951829910278320312500000000,0.37249651551246643066406250000000000,0.36016106605529785156250000000000000
-0.22628635168075561523437500000000000,0.27286165952682495117187500000000000,-0.27212402224540710449218750000000000
0.36841255426406860351562500000000000,-0.20369900763034820556640625000000000,-0.22336670756340026855468750000000000
0.18088252842426300048828125000000000,-0.31022694706916809082031250000000000,-0.29529622197151184082031250000000000
-0.12928834557533264160156250000000000,-0.03545254468917846679687500000000000,0.09108185768127441406250000000000000
0.33842793107032775878906250000000000,0.20027831196784973144531250000000000,-0.48294183611869812011718750000000000
-0.09835822135210037231445312500000000,-0.13548642396926879882812500000000000,-0.09304423630237579345703125000000000
0.21419388055801391601562500000000000,-0.01297567691653966903686523437500000,-0.01312821730971336364746093750000000
-0.29741019010543823242187500000000000,-2.01333379745483398437500000000000000,-0.92995643615722656250000000000000000
-0.82487189769744873046875000000000000,0.04697215557098388671875000000000000,0.26310902833938598632812500000000000
0.05223784223198890686035156250000000,-0.06749375909566879272460937500000000,0.08940132707357406616210937500000000
-0.00490597821772098541259765625000000,0.17387874424457550048828125000000000,-0.05273561924695968627929687500000000
0.01365733146667480468750000000000000,-0.24232205748558044433593750000000000,0.29222148656845092773437500000000000
0.01957603171467781066894531250000000,-0.03529221564531326293945312500000000,-0.16138786077499389648437500000000000
-0.21178106963634490966796875000000000,-0.32476496696472167968750000000000000,0.37961968779563903808593750000000000
0.11930208653211593627929687500000000,-0.33450949192047119140625000000000000,-0.44692778587341308593750000000000000
-0.44890540838241577148437500000000000,-0.28432551026344299316406250000000000,0.05949156358838081359863281250000000
-0.57967275381088256835937500000000000,0.21912126243114471435546875000000000,-0.13980013132095336914062500000000000
-0.00905691552907228469848632812500000,0.13383008539676666259765625000000000,-0.20122824609279632568359375000000000
-0.76534855365753173828125000000000000,0.11624663323163986206054687500000000,0.04837450757622718811035156250000000
0.16262497007846832275390625000000000,0.00412149401381611824035644531250000,-0.44286969304084777832031250000000000
0.18241772055625915527343750000000000,0.00399591214954853057861328125000000,-0.03232652321457862854003906250000000
0.18821585178375244140625000000000000,0.23358993232250213623046875000000000,-0.59331041574478149414062500000000000
-0.13293074071407318115234375000000000,0.44441479444503784179687500000000000,0.39107796549797058105468750000000000
0.12746971845626831054687500000000000,-0.01084393821656703948974609375000000,-0.36048933863639831542968750000000000
0.29626870155334472656250000000000000,-0.11821015179157257080078125000000000,-0.25652027130126953125000000000000000
-0.19315201044082641601562500000000000,-0.48079612851142883300781250000000000,0.06351924687623977661132812500000000
0.32911109924316406250000000000000000,-0.34456822276115417480468750000000000,0.31407564878463745117187500000000000
-0.28037524223327636718750000000000000,-1.96913588047027587890625000000000000,-0.94978749752044677734375000000000000
-0.10466448217630386352539062500000000,-0.21744845807552337646484375000000000,0.29698741436004638671875000000000000
-0.04203887283802032470703125000000000,-0.24808414280414581298828125000000000,-0.07830963283777236938476562500000000
0.00969479698687791824340820312500000,-0.10314723849296569824218750000000000,0.15630958974361419677734375000000000
0.04349722713232040405273437500000000,0.14537227153778076171875000000000000,-0.24434538185596466064453125000000000
-0.10525945574045181274414062500000000,-0.02865155413746833801269531250000000,-0.21485903859138488769531250000000000
-0.76526719331741333007812500000000000,0.30747553706169128417968750000000000,0.04536047950387001037597656250000000
-0.35892164707183837890625000000000000,-1.37876868247985839843750000000000000,-0.43034940958023071289062500000000000
0.20256417989730834960937500000000000,-0.42402648925781250000000000000000000,0.41970351338386535644531250000000000
0.07218539714813232421875000000000000,-0.26481294631958007812500000000000000,0.30499148368835449218750000000000000
0.02674946188926696777343750000000000,-0.06531299650669097900390625000000000,0.09688597172498703002929687500000000
-0.32610082626342773437500000000000000,0.44620215892791748046875000000000000,-0.43672516942024230957031250000000000
0.02938589081168174743652343750000000,-0.06239597871899604797363281250000000,-0.22109343111515045166015625000000000
0.05648914352059364318847656250000000,0.09128794074058532714843750000000000,0.18499764800071716308593750000000000
-0.55778658390045166015625000000000000,0.12212567031383514404296875000000000,0.19102774560451507568359375000000000
0.37052568793296813964843750000000000,-0.02052423916757106781005859375000000,-0.31214755773544311523437500000000000
0.03861014917492866516113281250000000,-0.38238871097564697265625000000000000,0.36933264136314392089843750000000000
-0.19025193154811859130859375000000000,-0.14697116613388061523437500000000000,0.00253933086059987545013427734375000
-0.33476400375366210937500000000000000,-0.02950473316013813018798828125000000,0.06033962965011596679687500000000000
0.03564666211605072021484375000000000,-0.03223520889878273010253906250000000,0.05036011338233947753906250000000000
-0.41631659865379333496093750000000000,-0.83585768938064575195312500000000000,-0.16034428775310516357421875000000000
-0.60511016845703125000000000000000000,0.53595358133316040039062500000000000,0.05833686888217926025390625000000000
-0.20054097473621368408203125000000000,-0.33811593055725097656250000000000000,0.42138701677322387695312500000000000
0.07141038775444030761718750000000000,0.18949478864669799804687500000000000,-0.47512176632881164550781250000000000
0.55229222774505615234375000000000000,0.36152052879333496093750000000000000,-0.51682019233703613281250000000000000
-0.49756342172622680664062500000000000,-0.30768093466758728027343750000000000,-0.12183902412652969360351562500000000
-0.07918564975261688232421875000000000,-0.08891567587852478027343750000000000,0.17677798867225646972656250000000000
-0.05279398709535598754882812500000000,-0.17509916424751281738281250000000000,-0.19520694017410278320312500000000000
0.74232649803161621093750000000000000,-0.40242296457290649414062500000000000,0.12416120618581771850585937500000000
-0.09039731323719024658203125000000000,-0.13943704962730407714843750000000000,-0.04842530563473701477050781250000000
-0.11683750152587890625000000000000000,0.05166589841246604919433593750000000,-0.06939485669136047363281250000000000
0.12379619479179382324218750000000000,-0.34680235385894775390625000000000000,0.37111249566078186035156250000000000
0.60004776716232299804687500000000000,0.20996804535388946533203125000000000,-0.34266993403434753417968750000000000
-0.15889319777488708496093750000000000,0.11882770061492919921875000000000000,-0.12760001420974731445312500000000000
0.03560098633170127868652343750000000,-0.29322862625122070312500000000000000,0.43638002872467041015625000000000000
0.13809131085872650146484375000000000,-0.12835854291915893554687500000000000,-0.23506455123424530029296875000000000
0.09976363927125930786132812500000000,-0.31126055121421813964843750000000000,0.37515935301780700683593750000000000
-0.06969311088323593139648437500000000,0.36362189054489135742187500000000000,-0.41173177957534790039062500000000000
-0.22167482972145080566406250000000000,-0.07296048104763031005859375000000000,0.02791746146976947784423828125000000
-0.18850032985210418701171875000000000,0.24457894265651702880859375000000000,-0.25099915266036987304687500000000000
0.05925040692090988159179687500000000,-0.07093340158462524414062500000000000,0.09681680053472518920898437500000000
0.29698279500007629394531250000000000,0.02580384165048599243164062500000000,-0.08904084563255310058593750000000000
0.29668635129928588867187500000000000,-0.17729966342449188232421875000000000,-0.25328716635704040527343750000000000
-0.38793206214904785156250000000000000,0.43573030829429626464843750000000000,-0.40894034504890441894531250000000000
0.11647230386734008789062500000000000,0.57306683063507080078125000000000000,0.39470183849334716796875000000000000
0.30746883153915405273437500000000000,-0.31881654262542724609375000000000000,0.29676848649978637695312500000000000
0.16691897809505462646484375000000000,-0.01447459775954484939575195312500000,-0.00434401398524641990661621093750000
-0.22759303450584411621093750000000000,0.44970220327377319335937500000000000,-0.47251319885253906250000000000000000
-0.19940981268882751464843750000000000,0.22609753906726837158203125000000000,-0.23281918466091156005859375000000000
-1.22904300689697265625000000000000000,-0.47308653593063354492187500000000000,-0.38498774170875549316406250000000000
0.02025257050991058349609375000000000,-0.22665756940841674804687500000000000,-0.06587156653404235839843750000000000
-0.40540337562561035156250000000000000,0.05055350065231323242187500000000000,0.10105844587087631225585937500000000
0.09099305421113967895507812500000000,-0.13153161108493804931640625000000000,0.15256880223751068115234375000000000
0.26685306429862976074218750000000000,-0.02330566011369228363037109375000000,-0.34416082501411437988281250000000000
-0.24311415851116180419921875000000000,-0.06203069910407066345214843750000000,0.05172888562083244323730468750000000
-0.24918395280838012695312500000000000,-1.41663026809692382812500000000000000,-0.27664500474929809570312500000000000
0.14876274764537811279296875000000000,-0.13971774280071258544921875000000000,-0.36270359158515930175781250000000000
-0.48285400867462158203125000000000000,-0.26537868380546569824218750000000000,0.11338116973638534545898437500000000
0.03548534959554672241210937500000000,-0.15307492017745971679687500000000000,-0.32513558864593505859375000000000000
0.21146923303604125976562500000000000,-0.36028826236724853515625000000000000,0.36212927103042602539062500000000000
0.12990728020668029785156250000000000,0.00035863812081515789031982421875000,0.00382590107619762420654296875000000
-0.14033833146095275878906250000000000,-0.00996666215360164642333984375000000,0.15243849158287048339843750000000000
0.06653967499732971191406250000000000,-0.11967068165540695190429687500000000,0.14599113166332244873046875000000000
-0.26101660728454589843750000000000000,-0.07161796838045120239257812500000000,0.05950415879487991333007812500000000
-0.28867706656455993652343750000000000,0.17201316356658935546875000000000000,-0.14715722203254699707031250000000000
0.04746624082326889038085937500000000,-0.20215994119644165039062500000000000,0.24160772562026977539062500000000000
0.20513625442981719970703125000000000,0.35229438543319702148437500000000000,0.51252377033233642578125000000000000
-0.37323421239852905273437500000000000,-0.29954147338867187500000000000000000,0.27608180046081542968750000000000000
-0.57295924425125122070312500000000000,0.28396934270858764648437500000000000,0.34398728609085083007812500000000000
0.13477517664432525634765625000000000,0.00819641165435314178466796875000000,-0.03804143890738487243652343750000000
-0.43504518270492553710937500000000000,-0.56473863124847412109375000000000000,0.38799569010734558105468750000000000
0.27006831765174865722656250000000000,0.35781833529472351074218750000000000,-0.48735839128494262695312500000000000
0.12837699055671691894531250000000000,-0.56935918331146240234375000000000000,0.56393224000930786132812500000000000
-4.51472282409667968750000000000000000,1.49821317195892333984375000000000000,-1.42031061649322509765625000000000000
-0.29241588711738586425781250000000000,-0.04800788313150405883789062500000000,0.06664470583200454711914062500000000
0.17425610125064849853515625000000000,-0.30807304382324218750000000000000000,0.24845182895660400390625000000000000
0.25993543863296508789062500000000000,-0.13129256665706634521484375000000000,-0.44660493731498718261718750000000000
0.54684883356094360351562500000000000,0.21884672343730926513671875000000000,-0.36045554280281066894531250000000000
-0.15025588870048522949218750000000000,-0.26572778820991516113281250000000000,0.03108635544776916503906250000000000
0.38804936408996582031250000000000000,-0.59851264953613281250000000000000000,0.53681427240371704101562500000000000
0.74064999818801879882812500000000000,0.21679553389549255371093750000000000,-0.35523858666419982910156250000000000
0.38019162416458129882812500000000000,-0.50346076488494873046875000000000000,-0.26946759223937988281250000000000000
-0.00128635414876043796539306640625000,0.04632347449660301208496093750000000,-0.22434045374393463134765625000000000
-0.27062451839447021484375000000000000,0.35275551676750183105468750000000000,0.01461674924939870834350585937500000
0.04721582308411598205566406250000000,0.61994671821594238281250000000000000,-0.14998503029346466064453125000000000
0.39340251684188842773437500000000000,-0.31858357787132263183593750000000000,0.23696489632129669189453125000000000
0.17830939590930938720703125000000000,-0.17838299274444580078125000000000000,-0.39380282163619995117187500000000000
0.12760534882545471191406250000000000,-0.09341521561145782470703125000000000,-0.17965617775917053222656250000000000
-0.32952618598937988281250000000000000,-0.12549860775470733642578125000000000,0.23860588669776916503906250000000000
0.11794305592775344848632812500000000,-0.29038158059120178222656250000000000,0.31017687916755676269531250000000000
-0.03746792674064636230468750000000000,0.10303837060928344726562500000000000,-0.15262159705162048339843750000000000
0.13813367486000061035156250000000000,0.06779105216264724731445312500000000,-0.49477121233940124511718750000000000
-0.30617079138755798339843750000000000,-0.05362534895539283752441406250000000,0.06990717351436614990234375000000000
0.11620105057954788208007812500000000,-0.12989781796932220458984375000000000,0.13518060743808746337890625000000000
-0.03499338775873184204101562500000000,-0.34891766309738159179687500000000000,0.45275494456291198730468750000000000
0.34760183095932006835937500000000000,0.43967282772064208984375000000000000,-0.59044134616851806640625000000000000
0.26345694065093994140625000000000000,-0.10047006607055664062500000000000000,0.05650009959936141967773437500000000
-0.15539573132991790771484375000000000,-0.17217189073562622070312500000000000,0.29813772439956665039062500000000000
0.37136316299438476562500000000000000,-0.51823365688323974609375000000000000,0.47107744216918945312500000000000000
0.38091585040092468261718750000000000,-0.29605031013488769531250000000000000,0.22614656388759613037109375000000000
0.39996340870857238769531250000000000,-0.46321985125541687011718750000000000,-0.62012064456939697265625000000000000
0.10427582263946533203125000000000000,-0.08145125955343246459960937500000000,-0.37940508127212524414062500000000000
-0.11553732305765151977539062500000000,0.18623964488506317138671875000000000,-0.50042188167572021484375000000000000
0.13683183491230010986328125000000000,-0.05186119675636291503906250000000000,-0.40830457210540771484375000000000000
0.12773476541042327880859375000000000,0.37943425774574279785156250000000000,-0.46948346495628356933593750000000000
-0.14862503111362457275390625000000000,0.13451883196830749511718750000000000,0.53788954019546508789062500000000000
-0.07346117496490478515625000000000000,0.28572237491607666015625000000000000,0.35253319144248962402343750000000000
-0.16409161686897277832031250000000000,0.05671874061226844787597656250000000,-0.05820007994771003723144531250000000
-0.14494647085666656494140625000000000,0.78540354967117309570312500000000000,0.01448196731507778167724609375000000
0.12425520271062850952148437500000000,-0.05899173766374588012695312500000000,-0.31549993157386779785156250000000000
0.13753853738307952880859375000000000,-1.12731647491455078125000000000000000,-0.17482647299766540527343750000000000
-0.01460167206823825836181640625000000,0.07192432880401611328125000000000000,-0.13570836186408996582031250000000000
0.24655337631702423095703125000000000,-0.33823132514953613281250000000000000,0.31591111421585083007812500000000000
0.04376479983329772949218750000000000,0.44231730699539184570312500000000000,-0.43607851862907409667968750000000000
0.54695397615432739257812500000000000,-0.19035862386226654052734375000000000,0.04531668126583099365234375000000000
0.10246004909276962280273437500000000,0.02719187177717685699462890625000000,-0.26134249567985534667968750000000000
-0.09398692101240158081054687500000000,0.13574311137199401855468750000000000,-0.16852582991123199462890625000000000
-0.26869893074035644531250000000000000,-0.40967130661010742187500000000000000,-0.00594858499243855476379394531250000
0.27759027481079101562500000000000000,-0.43051767349243164062500000000000000,0.41923910379409790039062500000000000
-0.13235898315906524658203125000000000,-0.12429846078157424926757812500000000,0.23602834343910217285156250000000000
-0.19320271909236907958984375000000000,-0.22955210506916046142578125000000000,-0.02901832573115825653076171875000000
0.14958012104034423828125000000000000,-0.10335686802864074707031250000000000,-0.51387524604797363281250000000000000
0.05342912673950195312500000000000000,-0.39104723930358886718750000000000000,-0.38232609629631042480468750000000000
-0.35815402865409851074218750000000000,0.19650346040725708007812500000000000,0.05619744956493377685546875000000000
-0.29633846879005432128906250000000000,-0.07725707441568374633789062500000000,0.08324830234050750732421875000000000
0.05667712166905403137207031250000000,0.01597831770777702331542968750000000,-0.15829555690288543701171875000000000
0.10036963224411010742187500000000000,0.26909714937210083007812500000000000,-0.41868829727172851562500000000000000
-0.34632730484008789062500000000000000,0.17123535275459289550781250000000000,-0.13503403961658477783203125000000000
-0.50803560018539428710937500000000000,0.05232046172022819519042968750000000,0.20311227440834045410156250000000000
0.04521150141954421997070312500000000,0.79986721277236938476562500000000000,0.51001071929931640625000000000000000
0.28878125548362731933593750000000000,0.12592293322086334228515625000000000,-0.23893816769123077392578125000000000
-0.41894456744194030761718750000000000,-0.05933570489287376403808593750000000,0.10329832136631011962890625000000000
-0.07101915031671524047851562500000000,-0.79076993465423583984375000000000000,-0.49761739373207092285156250000000000
0.11852031201124191284179687500000000,-0.25734460353851318359375000000000000,-0.21433737874031066894531250000000000
-0.05765085294842720031738281250000000,-0.01286710612475872039794921875000000,-0.07327250391244888305664062500000000
-0.35523551702499389648437500000000000,0.44216832518577575683593750000000000,-0.42320215702056884765625000000000000
-0.61371064186096191406250000000000000,0.30275177955627441406250000000000000,-0.22973115742206573486328125000000000
0.06337349116802215576171875000000000,-0.31107196211814880371093750000000000,-0.14600610733032226562500000000000000
-0.33911404013633728027343750000000000,-1.17396748065948486328125000000000000,-0.39803633093833923339843750000000000
-0.22800303995609283447265625000000000,-0.15552544593811035156250000000000000,0.25856754183769226074218750000000000
-0.46022787690162658691406250000000000,0.34208571910858154296875000000000000,0.11520782113075256347656250000000000
-0.34831082820892333984375000000000000,-0.05673489347100257873535156250000000,0.09192235767841339111328125000000000
0.05274577438831329345703125000000000,-0.00075946515426039695739746093750000,-0.15420073270797729492187500000000000
-0.33591479063034057617187500000000000,-0.29786148667335510253906250000000000,0.25651103258132934570312500000000000
0.05965356156229972839355468750000000,0.10234333574771881103515625000000000,-0.27468532323837280273437500000000000
0.26765254139900207519531250000000000,-0.25037896633148193359375000000000000,0.23045983910560607910156250000000000
-0.05143454298377037048339843750000000,-0.01282582245767116546630859375000000,-0.07751650363206863403320312500000000
0.00969899166375398635864257812500000,-0.84777861833572387695312500000000000,-0.73181772232055664062500000000000000
0.22389881312847137451171875000000000,-0.16898117959499359130859375000000000,-0.32405531406402587890625000000000000
-0.12118295580148696899414062500000000,0.31946629285812377929687500000000000,0.00798774510622024536132812500000000
0.09790100157260894775390625000000000,0.18696138262748718261718750000000000,-0.48776787519454956054687500000000000
0.06289875507354736328125000000000000,-0.25731986761093139648437500000000000,-0.20885770022869110107421875000000000
0.14986266195774078369140625000000000,0.01010158192366361618041992187500000,-0.37073311209678649902343750000000000
-0.12055301666259765625000000000000000,0.06924637407064437866210937500000000,-0.08857314288616180419921875000000000
-0.14071390032768249511718750000000000,-0.16437457501888275146484375000000000,-0.03034750930964946746826171875000000
-0.16653689742088317871093750000000000,0.02360035292804241180419921875000000,-0.02702787145972251892089843750000000
0.11886663734912872314453125000000000,-0.37320774793624877929687500000000000,0.39086064696311950683593750000000000
-0.40200474858283996582031250000000000,0.33451619744300842285156250000000000,-0.28751915693283081054687500000000000
-0.31380024552345275878906250000000000,-0.24116674065589904785156250000000000,-0.09032958745956420898437500000000000
-0.18023991584777832031250000000000000,-0.30045497417449951171875000000000000,-0.04473874345421791076660156250000000
0.16566742956638336181640625000000000,-0.05966935679316520690917968750000000,-0.21289035677909851074218750000000000
-0.14100126922130584716796875000000000,-0.04290861263871192932128906250000000,0.17749693989753723144531250000000000
-0.51104754209518432617187500000000000,0.21980465948581695556640625000000000,0.08470124006271362304687500000000000
0.61481732130050659179687500000000000,0.23157684504985809326171875000000000,-0.39304965734481811523437500000000000
0.01045164745301008224487304687500000,0.03440644964575767517089843750000000,-0.13228988647460937500000000000000000
-0.09086604416370391845703125000000000,-0.35892215371131896972656250000000000,-0.16911070048809051513671875000000000
0.29594090580940246582031250000000000,-0.26135724782943725585937500000000000,-0.29698622226715087890625000000000000
-0.22522500157356262207031250000000000,-0.01656733453273773193359375000000000,0.19079147279262542724609375000000000
-0.16292414069175720214843750000000000,0.34591573476791381835937500000000000,-0.37267422676086425781250000000000000
0.36040109395980834960937500000000000,-0.38780936598777770996093750000000000,0.32622909545898437500000000000000000
-0.20301823318004608154296875000000000,-0.05182605609297752380371093750000000,0.02764872647821903228759765625000000
0.33824378252029418945312500000000000,-0.54934471845626831054687500000000000,0.51242303848266601562500000000000000
-0.32363891601562500000000000000000000,0.29216867685317993164062500000000000,-0.26984965801239013671875000000000000
0.06998940557241439819335937500000000,0.11974596232175827026367187500000000,-0.09229109436273574829101562500000000
-0.29537120461463928222656250000000000,0.33087661862373352050781250000000000,-0.31533110141754150390625000000000000
-0.13133984804153442382812500000000000,-0.28936821222305297851562500000000000,0.35233277082443237304687500000000000
-0.14731647074222564697265625000000000,0.13661921024322509765625000000000000,-0.14600630104541778564453125000000000
-0.35723656415939331054687500000000000,-0.05339341983199119567871093750000000,0.23206271231174468994140625000000000
-0.16721989214420318603515625000000000,0.50070071220397949218750000000000000,-0.52249270677566528320312500000000000
-0.43527358770370483398437500000000000,-0.04589018225669860839843750000000000,0.09392172843217849731445312500000000
-0.07340497523546218872070312500000000,-0.08635171502828598022460937500000000,-0.05679984763264656066894531250000000
-0.30977046489715576171875000000000000,-0.33270075917243957519531250000000000,0.00150531728286296129226684570312500
0.13985240459442138671875000000000000,0.05677307769656181335449218750000000,-0.23146764934062957763671875000000000
-0.29804295301437377929687500000000000,0.11948284506797790527343750000000000,-0.08999965339899063110351562500000000
0.25590100884437561035156250000000000,-0.03986656665802001953125000000000000,-0.34839111566543579101562500000000000
-0.19956523180007934570312500000000000,-0.19647596776485443115234375000000000,0.01115408353507518768310546875000000
-0.31491211056709289550781250000000000,-0.05166628956794738769531250000000000,0.16625702381134033203125000000000000
-0.58769279718399047851562500000000000,0.24058991670608520507812500000000000,0.05462186783552169799804687500000000
-0.02127908915281295776367187500000000,0.01782765984535217285156250000000000,-0.22062636911869049072265625000000000
0.52445787191390991210937500000000000,-0.60085761547088623046875000000000000,-0.41838166117668151855468750000000000
-0.72935032844543457031250000000000000,-0.24663840234279632568359375000000000,0.33633267879486083984375000000000000
-1.16794645786285400390625000000000000,0.44487246870994567871093750000000000,-0.62662380933761596679687500000000000
0.13173073530197143554687500000000000,0.47033342719078063964843750000000000,0.47334682941436767578125000000000000
0.65786826610565185546875000000000000,-0.18082058429718017578125000000000000,-0.31137281656265258789062500000000000
-0.06565092504024505615234375000000000,-0.03479490429162979125976562500000000,0.11615031957626342773437500000000000
0.47616583108901977539062500000000000,0.35405904054641723632812500000000000,-0.52819317579269409179687500000000000
-0.13551577925682067871093750000000000,0.14591066539287567138671875000000000,-0.16420075297355651855468750000000000
0.34132653474807739257812500000000000,0.12656617164611816406250000000000000,-0.33243748545646667480468750000000000
0.06754212826490402221679687500000000,-0.30607223510742187500000000000000000,0.34033885598182678222656250000000000
-0.11320554465055465698242187500000000,0.06131592020392417907714843750000000,-0.08235865086317062377929687500000000
-0.19408701360225677490234375000000000,-0.11040845513343811035156250000000000,0.03799368441104888916015625000000000
-0.23896814882755279541015625000000000,-0.22575449943542480468750000000000000,0.02803592756390571594238281250000000
0.74595111608505249023437500000000000,0.58282959461212158203125000000000000,-0.39773237705230712890625000000000000
0.01800230331718921661376953125000000,0.39929875731468200683593750000000000,0.58418273925781250000000000000000000
-0.02748727612197399139404296875000000,-0.01598836854100227355957031250000000,-0.09181754291057586669921875000000000
-0.84711337089538574218750000000000000,0.28533047437667846679687500000000000,-0.00681109493598341941833496093750000
0.09906836599111557006835937500000000,-0.09892187267541885375976562500000000,0.45487797260284423828125000000000000
-0.00843815971165895462036132812500000,-0.43900251388549804687500000000000000,0.20884892344474792480468750000000000
-0.43397670984268188476562500000000000,0.13680084049701690673828125000000000,0.36232906579971313476562500000000000
0.22635568678379058837890625000000000,-0.18095625936985015869140625000000000,0.46591910719871520996093750000000000
0.42215070128440856933593750000000000,-0.27661281824111938476562500000000000,0.27026948332786560058593750000000000
-0.70830589532852172851562500000000000,-0.18233673274517059326171875000000000,0.34589284658432006835937500000000000
0.14532685279846191406250000000000000,-0.53801983594894409179687500000000000,-0.28889030218124389648437500000000000
0.02981449104845523834228515625000000,0.21332587301731109619140625000000000,-0.10084848850965499877929687500000000
0.09497279673814773559570312500000000,0.00509180780500173568725585937500000,-0.19208444654941558837890625000000000
-0.19280768930912017822265625000000000,0.32559588551521301269531250000000000,-0.34054651856422424316406250000000000
-0.26112681627273559570312500000000000,0.31647595763206481933593750000000000,0.39488154649734497070312500000000000
-0.19232255220413208007812500000000000,0.11451727896928787231445312500000000,-0.11091663688421249389648437500000000
0.01533191744238138198852539062500000,0.24085962772369384765625000000000000,-0.39167547225952148437500000000000000
-0.45610117912292480468750000000000000,-0.31374034285545349121093750000000000,0.43859627842903137207031250000000000
-0.02281054295599460601806640625000000,-0.42793977260589599609375000000000000,0.15308670699596405029296875000000000
0.32918319106101989746093750000000000,-0.29650086164474487304687500000000000,0.25947389006614685058593750000000000
0.25630331039428710937500000000000000,0.21326079964637756347656250000000000,-0.48899114131927490234375000000000000
-0.34425374865531921386718750000000000,-0.41508239507675170898437500000000000,0.47960624098777770996093750000000000
0.36011710762977600097656250000000000,-0.45093214511871337890625000000000000,-0.47651907801628112792968750000000000
0.45258677005767822265625000000000000,-0.50163024663925170898437500000000000,0.44247645139694213867187500000000000
-0.39766991138458251953125000000000000,0.49611970782279968261718750000000000,-0.47306624054908752441406250000000000
-0.03722689300775527954101562500000000,0.50156658887863159179687500000000000,-0.15549044311046600341796875000000000
0.17735308408737182617187500000000000,-0.53996950387954711914062500000000000,0.50373864173889160156250000000000000
-0.57563519477844238281250000000000000,0.27553966641426086425781250000000000,0.21805495023727416992187500000000000
0.08396404981613159179687500000000000,0.54846423864364624023437500000000000,0.75296068191528320312500000000000000
0.06995747983455657958984375000000000,-0.40223854780197143554687500000000000,-0.53735935688018798828125000000000000
-0.10763319581747055053710937500000000,0.00502477260306477546691894531250000,-0.03542742878198623657226562500000000
0.09572841972112655639648437500000000,0.01121696736663579940795898437500000,-0.32794359326362609863281250000000000
-0.41960203647613525390625000000000000,-0.33342981338500976562500000000000000,0.45322650671005249023437500000000000
-0.34311893582344055175781250000000000,0.33776175975799560546875000000000000,-0.31287932395935058593750000000000000
0.36281272768974304199218750000000000,0.20271381735801696777343750000000000,-0.42191189527511596679687500000000000
0.18514958024024963378906250000000000,-0.43189564347267150878906250000000000,-0.11586725711822509765625000000000000
0.05844137817621231079101562500000000,-0.43522840738296508789062500000000000,-0.28640925884246826171875000000000000
-0.04177573695778846740722656250000000,-0.03542703762650489807128906250000000,-0.07579342275857925415039062500000000
0.15240506827831268310546875000000000,-0.04414125904440879821777343750000000,-0.22737464308738708496093750000000000
0.08495991677045822143554687500000000,-0.37643122673034667968750000000000000,0.35669621825218200683593750000000000
-0.21445725858211517333984375000000000,0.25279086828231811523437500000000000,-0.26191872358322143554687500000000000
-0.14102968573570251464843750000000000,-0.08565588295459747314453125000000000,-0.03162567690014839172363281250000000
0.05370547622442245483398437500000000,0.41179540753364562988281250000000000,-0.47270411252975463867187500000000000
0.04434984922409057617187500000000000,0.00841851998120546340942382812500000,-0.15192399919033050537109375000000000
0.08678983151912689208984375000000000,-0.24093520641326904296875000000000000,0.27041608095169067382812500000000000
0.13903336226940155029296875000000000,0.15815050899982452392578125000000000,-0.54386568069458007812500000000000000
0.00589791173115372657775878906250000,-0.15838134288787841796875000000000000,0.20040945708751678466796875000000000
-0.22492033243179321289062500000000000,0.02049176394939422607421875000000000,0.18233010172843933105468750000000000
0.26180526614189147949218750000000000,-0.36513864994049072265625000000000000,-0.43054500222206115722656250000000000
-0.08982420712709426879882812500000000,0.24324581027030944824218750000000000,-0.29871189594268798828125000000000000
0.07823388278484344482421875000000000,-0.48368406295776367187500000000000000,0.47114804387092590332031250000000000
0.50926107168197631835937500000000000,-0.18552134931087493896484375000000000,-0.34361100196838378906250000000000000
-0.89262026548385620117187500000000000,-0.16171063482761383056640625000000000,0.24704204499721527099609375000000000
-0.30397385358810424804687500000000000,0.03306696563959121704101562500000000,0.00213530426844954490661621093750000
0.24286282062530517578125000000000000,-0.08278683573007583618164062500000000,0.04996125400066375732421875000000000
-1.35915887355804443359375000000000000,-6.51563692092895507812500000000000000,-1.58157253265380859375000000000000000
0.43476903438568115234375000000000000,-0.52466922998428344726562500000000000,0.46404129266738891601562500000000000
0.25619998574256896972656250000000000,-0.60616177320480346679687500000000000,-0.70996439456939697265625000000000000
0.38864120841026306152343750000000000,-0.28713127970695495605468750000000000,0.16681872308254241943359375000000000
0.08141526579856872558593750000000000,0.08341568708419799804687500000000000,-0.21255095303058624267578125000000000
0.14260795712471008300781250000000000,0.32533401250839233398437500000000000,-0.42828497290611267089843750000000000
-0.61150527000427246093750000000000000,0.07365304976701736450195312500000000,0.18997986614704132080078125000000000
-0.17427240312099456787109375000000000,-0.81396186351776123046875000000000000,-0.53493863344192504882812500000000000
-0.13734537363052368164062500000000000,0.37761971354484558105468750000000000,-0.42241233587265014648437500000000000
-0.29290941357612609863281250000000000,-0.06713175028562545776367187500000000,0.07029019296169281005859375000000000
-0.37751990556716918945312500000000000,-0.06833162903785705566406250000000000,0.09786079823970794677734375000000000
-0.20735625922679901123046875000000000,0.28061527013778686523437500000000000,-0.29444104433059692382812500000000000
0.08774903416633605957031250000000000,0.18121784925460815429687500000000000,-0.44007080793380737304687500000000000
0.16967199742794036865234375000000000,-0.21262882649898529052734375000000000,-0.23367823660373687744140625000000000
-0.31361687183380126953125000000000000,-0.00273207621648907661437988281250000,0.35961860418319702148437500000000000
0.07702795416116714477539062500000000,0.00347647443413734436035156250000000,-0.17451255023479461669921875000000000
-0.04527540504932403564453125000000000,-0.39832654595375061035156250000000000,0.39775478839874267578125000000000000
-0.02904949896037578582763671875000000,-0.08914997428655624389648437500000000,-0.08395262807607650756835937500000000
-0.19427864253520965576171875000000000,-0.00044468592386692762374877929687500,0.00358245545066893100738525390625000
-0.28002357482910156250000000000000000,0.00900186225771903991699218750000000,0.51403391361236572265625000000000000
-0.59254503250122070312500000000000000,-0.25157693028450012207031250000000000,0.37579712271690368652343750000000000
-0.61970067024230957031250000000000000,-0.45735278725624084472656250000000000,0.05742022022604942321777343750000000
-0.12226328253746032714843750000000000,0.26530191302299499511718750000000000,0.24864919483661651611328125000000000
0.59568274021148681640625000000000000,0.07168859243392944335937500000000000,-0.33742374181747436523437500000000000
-0.25301423668861389160156250000000000,-0.03132618218660354614257812500000000,0.04781042784452438354492187500000000
-0.21036417782306671142578125000000000,0.05793679878115653991699218750000000,0.04334777593612670898437500000000000
-0.48033934831619262695312500000000000,0.31334707140922546386718750000000000,-0.45445275306701660156250000000000000
0.09123091399669647216796875000000000,-0.27529597282409667968750000000000000,-0.13875845074653625488281250000000000
0.08934344351291656494140625000000000,-0.06536754965782165527343750000000000,-0.32636597752571105957031250000000000
0.08285428583621978759765625000000000,0.23035556077957153320312500000000000,-0.09949609637260437011718750000000000
-0.18482655286788940429687500000000000,-0.25428602099418640136718750000000000,0.02011871710419654846191406250000000
0.37929272651672363281250000000000000,-0.38303989171981811523437500000000000,0.34290421009063720703125000000000000
0.25042662024497985839843750000000000,-0.41147825121879577636718750000000000,0.33422040939331054687500000000000000
-0.32364740967750549316406250000000000,-0.28891539573669433593750000000000000,0.02635477669537067413330078125000000
-0.59082788228988647460937500000000000,0.17371928691864013671875000000000000,-0.08629588782787322998046875000000000
-0.00944967009127140045166015625000000,0.17764808237552642822265625000000000,-0.05874507874250411987304687500000000
-0.08559790253639221191406250000000000,0.02652587927877902984619140625000000,-0.25878176093101501464843750000000000
-0.18465857207775115966796875000000000,0.16245073080062866210937500000000000,-0.16416354477405548095703125000000000
-0.18255504965782165527343750000000000,-0.01015874743461608886718750000000000,-0.00039982068119570612907409667968750
0.28555786609649658203125000000000000,-0.48632010817527770996093750000000000,-0.23789137601852416992187500000000000
-0.64846539497375488281250000000000000,-0.11648213863372802734375000000000000,0.10885307937860488891601562500000000
0.10674785822629928588867187500000000,-0.01429190859198570251464843750000000,0.00846334174275398254394531250000000
-1.02702569961547851562500000000000000,-0.08718740195035934448242187500000000,-0.09438107162714004516601562500000000
-0.09759286046028137207031250000000000,-0.16572442650794982910156250000000000,-0.13185478746891021728515625000000000
0.14018525183200836181640625000000000,-0.04348332807421684265136718750000000,-0.37778961658477783203125000000000000
-0.42270249128341674804687500000000000,0.51098787784576416015625000000000000,-0.48228436708450317382812500000000000
0.13169769942760467529296875000000000,0.20301233232021331787109375000000000,0.43023243546485900878906250000000000
-0.53990501165390014648437500000000000,-0.02041879296302795410156250000000000,0.23126254975795745849609375000000000
-0.51001429557800292968750000000000000,-0.12397504597902297973632812500000000,0.17868842184543609619140625000000000
0.25522163510322570800781250000000000,0.00946910399943590164184570312500000,-0.04789746180176734924316406250000000
-0.22708137333393096923828125000000000,0.35688337683677673339843750000000000,-0.36470577120780944824218750000000000
0.45355829596519470214843750000000000,0.17190513014793395996093750000000000,-0.34899064898490905761718750000000000
-0.19089181721210479736328125000000000,0.18825031816959381103515625000000000,-0.37629774212837219238281250000000000
-0.30448937416076660156250000000000000,0.10197376459836959838867187500000000,-0.06990110129117965698242187500000000
0.06541302800178527832031250000000000,-0.09955486655235290527343750000000000,-0.14316006004810333251953125000000000
-0.16511082649230957031250000000000000,0.07977481931447982788085937500000000,-0.07984740287065505981445312500000000
-0.07739698141813278198242187500000000,0.08558851480484008789062500000000000,-0.11922233551740646362304687500000000
-0.15254472196102142333984375000000000,0.47441694140434265136718750000000000,-0.55019932985305786132812500000000000
-0.57900369167327880859375000000000000,-3.50313472747802734375000000000000000,-0.42615023255348205566406250000000000
-0.11346326768398284912109375000000000,-0.16503669321537017822265625000000000,-0.11195591837167739868164062500000000
0.05874988064169883728027343750000000,-0.26543357968330383300781250000000000,0.29983717203140258789062500000000000
-0.00552913872525095939636230468750000,-0.28028360009193420410156250000000000,0.40631577372550964355468750000000000
0.09027221053838729858398437500000000,0.22542540729045867919921875000000000,-0.33248996734619140625000000000000000
-0.08124303817749023437500000000000000,0.27700567245483398437500000000000000,-0.39703160524368286132812500000000000
0.16373984515666961669921875000000000,0.21221116185188293457031250000000000,-0.38635605573654174804687500000000000
0.01549555268138647079467773437500000,-0.06312335282564163208007812500000000,0.10435714572668075561523437500000000
-0.29764935374259948730468750000000000,-0.17664602398872375488281250000000000,0.27938869595527648925781250000000000
0.17398566007614135742187500000000000,0.21453252434730529785156250000000000,-0.34758386015892028808593750000000000
0.06734652072191238403320312500000000,-1.13655495643615722656250000000000000,-0.75810766220092773437500000000000000
0.53246361017227172851562500000000000,-0.45511165261268615722656250000000000,-0.30385944247245788574218750000000000
-0.43023735284805297851562500000000000,-0.14181979000568389892578125000000000,0.28075546026229858398437500000000000
0.64059782028198242187500000000000000,-0.29608276486396789550781250000000000,0.05523090437054634094238281250000000
