-0.36655089259147644042968750000000000,
0.45399007201194763183593750000000000,
-0.43522179126739501953125000000000000,
0.03564034029841423034667968750000000,
0.96987891197204589843750000000000000,
0.40023034811019897460937500000000000,
0.10867742449045181274414062500000000,
-0.09116304665803909301757812500000000,
0.10719555616378784179687500000000000,
-0.85735362768173217773437500000000000,
-0.20599940419197082519531250000000000,
0.37998133897781372070312500000000000,
0.10739360004663467407226562500000000,
-0.66010838747024536132812500000000000,
-0.54392015933990478515625000000000000,
-0.62608838081359863281250000000000000,
0.29895564913749694824218750000000000,
0.09435770660638809204101562500000000,
-0.17126558721065521240234375000000000,
0.20158514380455017089843750000000000,
0.26514205336570739746093750000000000,
-0.11630836129188537597656250000000000,
0.09869222342967987060546875000000000,
0.47077086567878723144531250000000000,
0.21510952711105346679687500000000000,
0.00920881610363721847534179687500000,
-0.24048261344432830810546875000000000,
0.33910357952117919921875000000000000,
-0.43286487460136413574218750000000000,
0.38657104969024658203125000000000000,
0.36138799786567687988281250000000000,
-0.57923334836959838867187500000000000,
-0.79905319213867187500000000000000000,
-0.38562870025634765625000000000000000,
0.40842741727828979492187500000000000,
-0.14067007601261138916015625000000000,
0.44648641347885131835937500000000000,
-0.35903975367546081542968750000000000,
-0.45370519161224365234375000000000000,
0.02370217628777027130126953125000000,
-0.03111703135073184967041015625000000,
-0.12834794819355010986328125000000000,
-0.23415417969226837158203125000000000,
-0.23812076449394226074218750000000000,
0.02776680514216423034667968750000000,
0.09045703709125518798828125000000000,
0.21637776494026184082031250000000000,
-0.33380657434463500976562500000000000,
0.54868042469024658203125000000000000,
0.24210916459560394287109375000000000,
-0.39287948608398437500000000000000000,
0.08147779107093811035156250000000000,
-0.02188947796821594238281250000000000,
0.02637647464871406555175781250000000,
-0.15514682233333587646484375000000000,
-0.26569426059722900390625000000000000,
0.33884087204933166503906250000000000,
0.18341186642646789550781250000000000,
-0.00105976429767906665802001953125000,
-0.15220616757869720458984375000000000,
0.24724650382995605468750000000000000,
0.83104103803634643554687500000000000,
0.45284047722816467285156250000000000,
-0.69631135463714599609375000000000000,
0.29174819588661193847656250000000000,
0.16171625256538391113281250000000000,
-0.62832206487655639648437500000000000,
0.51618552207946777343750000000000000,
0.19074718654155731201171875000000000,
-0.04144024476408958435058593750000000,
-0.09378908574581146240234375000000000,
0.16316002607345581054687500000000000,
-0.15301275253295898437500000000000000,
0.13169102370738983154296875000000000,
-0.13651642203330993652343750000000000,
-0.32902744412422180175781250000000000,
0.38890981674194335937500000000000000,
-0.09344919025897979736328125000000000,
0.09548116475343704223632812500000000,
0.20382709801197052001953125000000000,
-0.10618606954813003540039062500000000,
-0.25202730298042297363281250000000000,
0.44469726085662841796875000000000000,
-0.45328301191329956054687500000000000,
-0.10380303859710693359375000000000000,
0.19645819067955017089843750000000000,
-0.22440393269062042236328125000000000,
0.23628686368465423583984375000000000,
-0.06518217176198959350585937500000000,
-0.28020045161247253417968750000000000,
0.06528711318969726562500000000000000,
-0.97330242395401000976562500000000000,
-0.59960073232650756835937500000000000,
-0.01751567050814628601074218750000000,
-0.01381790265440940856933593750000000,
-0.32507285475730895996093750000000000,
-0.03468602895736694335937500000000000,
-0.05636133626103401184082031250000000,
0.10357949882745742797851562500000000,
0.05145172402262687683105468750000000,
-1.27539098262786865234375000000000000,
-0.96049630641937255859375000000000000,
-0.05449273064732551574707031250000000,
0.31594979763031005859375000000000000,
-0.37293991446495056152343750000000000,
-0.40691384673118591308593750000000000,
-0.37483087182044982910156250000000000,
0.47044801712036132812500000000000000,
-0.30432125926017761230468750000000000,
-0.17830345034599304199218750000000000,
-0.00184349180199205875396728515625000,
-0.58724933862686157226562500000000000,
0.41085508465766906738281250000000000,
-0.31383937597274780273437500000000000,
0.21935838460922241210937500000000000,
-0.33825141191482543945312500000000000,
0.33143061399459838867187500000000000,
0.18367397785186767578125000000000000,
-0.67962098121643066406250000000000000,
-0.89221769571304321289062500000000000,
0.20423685014247894287109375000000000,
-0.32219463586807250976562500000000000,
-0.19428901374340057373046875000000000,
-0.39121359586715698242187500000000000,
-0.20878025889396667480468750000000000,
0.16729161143302917480468750000000000,
0.10099270194768905639648437500000000,
-0.23444546759128570556640625000000000,
-0.19877475500106811523437500000000000,
0.15332211554050445556640625000000000,
0.30231502652168273925781250000000000,
-0.40478202700614929199218750000000000,
0.31368380784988403320312500000000000,
-0.69875073432922363281250000000000000,
-0.59001660346984863281250000000000000,
-0.15064455568790435791015625000000000,
0.05629346892237663269042968750000000,
-0.06074345484375953674316406250000000,
0.00693248771131038665771484375000000,
-0.30973571538925170898437500000000000,
0.34415927529335021972656250000000000,
-0.22616058588027954101562500000000000,
0.60912024974822998046875000000000000,
0.50108283758163452148437500000000000,
0.06130557134747505187988281250000000,
-0.14071853458881378173828125000000000,
0.16546176373958587646484375000000000,
0.17020705342292785644531250000000000,
-0.01629908196628093719482421875000000,
0.01172961108386516571044921875000000,
-0.10648971796035766601562500000000000,
0.16117738187313079833984375000000000,
-0.18697768449783325195312500000000000,
-0.00486086076125502586364746093750000,
0.53462332487106323242187500000000000,
-0.21093389391899108886718750000000000,
0.02298382483422756195068359375000000,
-0.45440107583999633789062500000000000,
0.43809431791305541992187500000000000,
0.23483701050281524658203125000000000,
-0.24873787164688110351562500000000000,
0.24182106554508209228515625000000000,
0.27594870328903198242187500000000000,
-0.47769126296043395996093750000000000,
0.45160236954689025878906250000000000,
0.08517157286405563354492187500000000,
-0.30461466312408447265625000000000000,
-0.23400290310382843017578125000000000,
-0.21475581824779510498046875000000000,
-0.13888555765151977539062500000000000,
0.24075059592723846435546875000000000,
-0.00237884442321956157684326171875000,
0.07748138904571533203125000000000000,
-0.02565252967178821563720703125000000,
-0.20629197359085083007812500000000000,
-0.00765262590721249580383300781250000,
0.01230686344206333160400390625000000,
-0.27622205018997192382812500000000000,
0.01298797689378261566162109375000000,
0.33235639333724975585937500000000000,
0.21887196600437164306640625000000000,
0.18724377453327178955078125000000000,
-0.37515330314636230468750000000000000,
-0.18170557916164398193359375000000000,
0.00147617061156779527664184570312500,
-0.00280302530154585838317871093750000,
0.11499536037445068359375000000000000,
-0.23696678876876831054687500000000000,
0.26053732633590698242187500000000000,
-0.19013896584510803222656250000000000,
0.31559610366821289062500000000000000,
-0.32670167088508605957031250000000000,
0.12796393036842346191406250000000000,
0.06849633157253265380859375000000000,
-0.22276946902275085449218750000000000,
-0.10729216784238815307617187500000000,
-0.46740943193435668945312500000000000,
0.50041037797927856445312500000000000,
-0.14346095919609069824218750000000000,
0.09490624070167541503906250000000000,
-0.10067407786846160888671875000000000,
-0.42668458819389343261718750000000000,
0.51660257577896118164062500000000000,
-0.40703186392784118652343750000000000,
-0.44885876774787902832031250000000000,
0.29583540558815002441406250000000000,
-0.23753945529460906982421875000000000,
-0.14017258584499359130859375000000000,
-0.11493884772062301635742187500000000,
0.27391827106475830078125000000000000,
0.07673788070678710937500000000000000,
-0.07079503685235977172851562500000000,
0.09105604141950607299804687500000000,
-0.06255421787500381469726562500000000,
0.22088477015495300292968750000000000,
-0.26632276177406311035156250000000000,
0.06756080687046051025390625000000000,
-0.48039904236793518066406250000000000,
0.45868885517120361328125000000000000,
0.20741090178489685058593750000000000,
0.32978415489196777343750000000000000,
-0.45718091726303100585937500000000000,
0.27621564269065856933593750000000000,
-0.53472250699996948242187500000000000,
0.38803219795227050781250000000000000,
-0.31057071685791015625000000000000000,
-0.32027846574783325195312500000000000,
0.28395938873291015625000000000000000,
0.37019154429435729980468750000000000,
-0.06309352070093154907226562500000000,
-0.26996189355850219726562500000000000,
0.19601398706436157226562500000000000,
0.02358393557369709014892578125000000,
-0.26202228665351867675781250000000000,
-0.08580303192138671875000000000000000,
0.00535447429865598678588867187500000,
-0.09730980545282363891601562500000000,
-0.08425630629062652587890625000000000,
0.54864007234573364257812500000000000,
-0.29313394427299499511718750000000000,
-0.03172889351844787597656250000000000,
-0.23204480111598968505859375000000000,
0.32553866505622863769531250000000000,
0.10738159716129302978515625000000000,
0.07596705853939056396484375000000000,
0.43589773774147033691406250000000000,
-0.03063634037971496582031250000000000,
0.04712750762701034545898437500000000,
-0.10454653203487396240234375000000000,
0.25291672348976135253906250000000000,
-0.43579477071762084960937500000000000,
0.42149350047111511230468750000000000,
-0.13457676768302917480468750000000000,
-0.29850667715072631835937500000000000,
0.36773782968521118164062500000000000,
-0.72172677516937255859375000000000000,
0.24865782260894775390625000000000000,
0.19911411404609680175781250000000000,
-0.49816492199897766113281250000000000,
0.30298495292663574218750000000000000,
-0.22913749516010284423828125000000000,
0.15100486576557159423828125000000000,
0.04498562216758728027343750000000000,
-0.06366632133722305297851562500000000,
0.13338819146156311035156250000000000,
0.12234895676374435424804687500000000,
0.53239548206329345703125000000000000,
-0.22008159756660461425781250000000000,
0.01298916153609752655029296875000000,
0.17881916463375091552734375000000000,
0.08032714575529098510742187500000000,
0.19514709711074829101562500000000000,
-0.13567340373992919921875000000000000,
-0.09701621532440185546875000000000000,
0.10287901759147644042968750000000000,
-0.12939986586570739746093750000000000,
0.06940917670726776123046875000000000,
0.16710375249385833740234375000000000,
-0.32573351263999938964843750000000000,
-0.16274011135101318359375000000000000,
0.03998100012540817260742187500000000,
0.10741373151540756225585937500000000,
0.05082196369767189025878906250000000,
-0.10787412524223327636718750000000000,
0.13555485010147094726562500000000000,
-0.72788166999816894531250000000000000,
0.44399103522300720214843750000000000,
0.06325647979974746704101562500000000,
0.15229964256286621093750000000000000,
-0.88028228282928466796875000000000000,
-0.98610544204711914062500000000000000,
0.80938053131103515625000000000000000,
2.12304162979125976562500000000000000,
-0.32466939091682434082031250000000000,
-0.30792200565338134765625000000000000,
-0.07449055463075637817382812500000000,
0.07284675538539886474609375000000000,
-0.38764888048171997070312500000000000,
-0.03683573007583618164062500000000000,
0.07988332957029342651367187500000000,
-0.56450319290161132812500000000000000,
-0.05731670558452606201171875000000000,
0.23558950424194335937500000000000000,
0.38679417967796325683593750000000000,
-0.31674277782440185546875000000000000,
-0.05901689082384109497070312500000000,
-0.12480722367763519287109375000000000,
-0.13086342811584472656250000000000000,
0.42056632041931152343750000000000000,
-0.20192724466323852539062500000000000,
0.20524346828460693359375000000000000,
-0.20309612154960632324218750000000000,
-0.23631958663463592529296875000000000,
0.24808935821056365966796875000000000,
-0.24345268309116363525390625000000000,
0.33858665823936462402343750000000000,
-0.42003947496414184570312500000000000,
-0.30501979589462280273437500000000000,
-0.06683924794197082519531250000000000,
0.00336403422988951206207275390625000,
-0.05558628961443901062011718750000000,
-0.61676383018493652343750000000000000,
0.49182978272438049316406250000000000,
0.01212038286030292510986328125000000,
-0.36321598291397094726562500000000000,
0.00093306752387434244155883789062500,
0.22618566453456878662109375000000000,
-0.02900369092822074890136718750000000,
-0.03338211029767990112304687500000000,
0.08471544086933135986328125000000000,
0.09159458428621292114257812500000000,
-0.11253973841667175292968750000000000,
0.12357773631811141967773437500000000,
-0.32918784022331237792968750000000000,
0.33248329162597656250000000000000000,
0.22938781976699829101562500000000000,
-0.06445195525884628295898437500000000,
0.08586972951889038085937500000000000,
-0.12187344580888748168945312500000000,
0.28833308815956115722656250000000000,
-0.10427726805210113525390625000000000,
0.37352961301803588867187500000000000,
-0.09890994429588317871093750000000000,
0.12047164142131805419921875000000000,
-0.14555749297142028808593750000000000,
-0.09556686878204345703125000000000000,
-0.17821441590785980224609375000000000,
0.42225855588912963867187500000000000,
-0.09005255252122879028320312500000000,
-0.23330636322498321533203125000000000,
0.49745929241180419921875000000000000,
-0.02248708903789520263671875000000000,
-0.07566701620817184448242187500000000,
0.12365476787090301513671875000000000,
0.38716787099838256835937500000000000,
1.03211987018585205078125000000000000,
-0.27361512184143066406250000000000000,
-0.58430099487304687500000000000000000,
0.01244379486888647079467773437500000,
0.26701110601425170898437500000000000,
-1.00906705856323242187500000000000000,
-1.45891189575195312500000000000000000,
0.20626068115234375000000000000000000,
0.55091029405593872070312500000000000,
1.40544593334197998046875000000000000,
-0.29789677262306213378906250000000000,
-0.02138125523924827575683593750000000,
-0.24309243261814117431640625000000000,
0.37530353665351867675781250000000000,
-0.01530711166560649871826171875000000,
-0.19072009623050689697265625000000000,
0.24843136966228485107421875000000000,
-0.27209901809692382812500000000000000,
0.55147856473922729492187500000000000,
-0.54929476976394653320312500000000000,
-0.07196697592735290527343750000000000,
0.40300750732421875000000000000000000,
-0.44717738032341003417968750000000000,
-0.71941858530044555664062500000000000,
-0.21324828267097473144531250000000000,
0.35264790058135986328125000000000000,
0.02328923530876636505126953125000000,
0.13487301766872406005859375000000000,
-0.06470777839422225952148437500000000,
0.13845294713973999023437500000000000,
-0.05666223540902137756347656250000000,
0.05986342579126358032226562500000000,
0.32760351896286010742187500000000000,
0.17185306549072265625000000000000000,
-0.43072021007537841796875000000000000,
-0.19309571385383605957031250000000000,
0.31156706809997558593750000000000000,
-0.32569134235382080078125000000000000,
-0.08937706053256988525390625000000000,
-0.21113233268260955810546875000000000,
-0.04487774893641471862792968750000000,
0.20113238692283630371093750000000000,
0.32096925377845764160156250000000000,
-0.36552268266677856445312500000000000,
-0.23862646520137786865234375000000000,
-0.08620233833789825439453125000000000,
0.23949290812015533447265625000000000,
-0.54235106706619262695312500000000000,
0.81628650426864624023437500000000000,
0.20910142362117767333984375000000000,
-0.28305894136428833007812500000000000,
0.06363478302955627441406250000000000,
-0.03527659550309181213378906250000000,
-0.26463410258293151855468750000000000,
0.40704897046089172363281250000000000,
0.45189541578292846679687500000000000,
0.25133231282234191894531250000000000,
-0.20645125210285186767578125000000000,
-0.23127835988998413085937500000000000,
0.03354034572839736938476562500000000,
0.82051050662994384765625000000000000,
-0.16886693239212036132812500000000000,
-0.24016728997230529785156250000000000,
-0.32676279544830322265625000000000000,
0.36624515056610107421875000000000000,
-0.14777323603630065917968750000000000,
0.15929090976715087890625000000000000,
-0.17176763713359832763671875000000000,
-0.14109343290328979492187500000000000,
0.17538358271121978759765625000000000,
-0.18891148269176483154296875000000000,
-0.34555539488792419433593750000000000,
-0.06713689118623733520507812500000000,
0.09624691307544708251953125000000000,
-0.15251855552196502685546875000000000,
-0.01892397366464138031005859375000000,
-0.00157053302973508834838867187500000,
0.03367130830883979797363281250000000,
-0.39542737603187561035156250000000000,
-0.21442842483520507812500000000000000,
0.00637086061760783195495605468750000,
0.69697535037994384765625000000000000,
-0.26748782396316528320312500000000000,
0.21425613760948181152343750000000000,
-0.07184003293514251708984375000000000,
0.03914742171764373779296875000000000,
-0.03818060085177421569824218750000000,
0.24346117675304412841796875000000000,
0.28648719191551208496093750000000000,
0.24910777807235717773437500000000000,
0.03465101867914199829101562500000000,
0.49241757392883300781250000000000000,
-0.29732722043991088867187500000000000,
0.38496139645576477050781250000000000,
0.10778766870498657226562500000000000,
-0.68628579378128051757812500000000000,
0.74777841567993164062500000000000000,
0.31875425577163696289062500000000000,
-0.32896262407302856445312500000000000,
0.43547207117080688476562500000000000,
-0.41455346345901489257812500000000000,
0.16112571954727172851562500000000000,
0.04930468648672103881835937500000000,
-0.05249040946364402770996093750000000,
0.01772798411548137664794921875000000,
0.11053726077079772949218750000000000,
-0.18560644984245300292968750000000000,
-0.19807079434394836425781250000000000,
0.10807812213897705078125000000000000,
0.23044046759605407714843750000000000,
0.03601581975817680358886718750000000,
0.14078547060489654541015625000000000,
-0.23871399462223052978515625000000000,
-0.03492239490151405334472656250000000,
0.73244601488113403320312500000000000,
0.12799192965030670166015625000000000,
-0.26996424794197082519531250000000000,
0.02408145554363727569580078125000000,
0.11666486412286758422851562500000000,
0.05714041367173194885253906250000000,
0.09400042146444320678710937500000000,
-0.19246059656143188476562500000000000,
-0.49024301767349243164062500000000000,
-0.33251824975013732910156250000000000,
0.34321597218513488769531250000000000,
0.34968584775924682617187500000000000,
-0.78452420234680175781250000000000000,
-0.50186425447463989257812500000000000,
-0.10459507256746292114257812500000000,
0.40970760583877563476562500000000000,
-0.48939764499664306640625000000000000,
-0.33849596977233886718750000000000000,
0.58712494373321533203125000000000000,
0.13607788085937500000000000000000000,
-0.13501437008380889892578125000000000,
0.25585997104644775390625000000000000,
-0.27887505292892456054687500000000000,
0.28718176484107971191406250000000000,
-0.20553955435752868652343750000000000,
0.17587521672248840332031250000000000,
0.34990850090980529785156250000000000,
1.05626106262207031250000000000000000,
-0.21519652009010314941406250000000000,
0.06069574505090713500976562500000000,
-0.22209484875202178955078125000000000,
0.26015093922615051269531250000000000,
0.34795135259628295898437500000000000,
0.63748818635940551757812500000000000,
-0.31238335371017456054687500000000000,
-0.08012591302394866943359375000000000,
0.11793367564678192138671875000000000,
0.06565234065055847167968750000000000,
-0.24609574675559997558593750000000000,
0.13075082004070281982421875000000000,
-0.11193613708019256591796875000000000,
-0.00781322177499532699584960937500000,
0.16202311217784881591796875000000000,
-0.22678531706333160400390625000000000,
0.16993513703346252441406250000000000,
-0.44023224711418151855468750000000000,
-0.49030715227127075195312500000000000,
-0.03201545402407646179199218750000000,
-0.28503558039665222167968750000000000,
0.33877626061439514160156250000000000,
-0.29743310809135437011718750000000000,
0.25268897414207458496093750000000000,
0.17331805825233459472656250000000000,
0.04895682632923126220703125000000000,
0.33811992406845092773437500000000000,
-0.51635670661926269531250000000000000,
0.14273163676261901855468750000000000,
-0.13170833885669708251953125000000000,
-0.18177519738674163818359375000000000,
-0.31593608856201171875000000000000000,
0.35486549139022827148437500000000000,
-0.33374977111816406250000000000000000,
0.09472274780273437500000000000000000,
-0.02162085101008415222167968750000000,
0.02966629341244697570800781250000000,
0.69530928134918212890625000000000000,
-0.05980456620454788208007812500000000,
-0.32840031385421752929687500000000000,
0.26995414495468139648437500000000000,
-0.41177928447723388671875000000000000,
-0.00612946925684809684753417968750000,
-0.31392052769660949707031250000000000,
0.05470032989978790283203125000000000,
0.09096047282218933105468750000000000,
-0.58362150192260742187500000000000000,
-0.13018740713596343994140625000000000,
0.31085988879203796386718750000000000,
-0.09027480334043502807617187500000000,
0.28381523489952087402343750000000000,
-0.32804730534553527832031250000000000,
-0.15020373463630676269531250000000000,
-0.16937215626239776611328125000000000,
-0.02813106775283813476562500000000000,
-0.76418185234069824218750000000000000,
-0.08558367192745208740234375000000000,
0.33326715230941772460937500000000000,
0.05539275705814361572265625000000000,
-0.04728707671165466308593750000000000,
0.07629922032356262207031250000000000,
-0.19339829683303833007812500000000000,
0.16325087845325469970703125000000000,
-0.15960228443145751953125000000000000,
-0.03671215474605560302734375000000000,
-0.04600198566913604736328125000000000,
-0.08182196319103240966796875000000000,
-0.33748698234558105468750000000000000,
0.51631224155426025390625000000000000,
-0.41830691695213317871093750000000000,
-0.03583241626620292663574218750000000,
0.06849522143602371215820312500000000,
-0.11509309709072113037109375000000000,
-0.05163908749818801879882812500000000,
-0.15564948320388793945312500000000000,
-0.06040940806269645690917968750000000,
-0.01052356604486703872680664062500000,
-0.03158384189009666442871093750000000,
0.06553670763969421386718750000000000,
-0.23521225154399871826171875000000000,
-0.01155720278620719909667968750000000,
0.02458039298653602600097656250000000,
-0.38985890150070190429687500000000000,
-0.09785326570272445678710937500000000,
0.26635879278182983398437500000000000,
-0.10807321965694427490234375000000000,
-0.15396870672702789306640625000000000,
0.32707968354225158691406250000000000,
-0.18070867657661437988281250000000000,
-0.43334650993347167968750000000000000,
0.47628262639045715332031250000000000,
0.11040472984313964843750000000000000,
-0.26065766811370849609375000000000000,
0.27537077665328979492187500000000000,
0.05486432462930679321289062500000000,
-0.06345182657241821289062500000000000,
-0.13682904839515686035156250000000000,
-0.06156557798385620117187500000000000,
0.03700454533100128173828125000000000,
-0.07732935994863510131835937500000000,
0.24058520793914794921875000000000000,
0.02899779379367828369140625000000000,
-0.05827618017792701721191406250000000,
0.35260170698165893554687500000000000,
-0.12704701721668243408203125000000000,
0.40422281622886657714843750000000000,
-0.15890349447727203369140625000000000,
0.30785238742828369140625000000000000,
-0.33029952645301818847656250000000000,
-0.54979538917541503906250000000000000,
-0.32314202189445495605468750000000000,
0.42265906929969787597656250000000000,
-0.10710905492305755615234375000000000,
-0.11911190301179885864257812500000000,
0.20115722715854644775390625000000000,
0.64752703905105590820312500000000000,
0.28993612527847290039062500000000000,
-0.42467993497848510742187500000000000,
-0.08446291834115982055664062500000000,
0.50962620973587036132812500000000000,
0.37908616662025451660156250000000000,
-0.22462834417819976806640625000000000,
0.27285331487655639648437500000000000,
-0.27041965723037719726562500000000000,
0.37261104583740234375000000000000000,
-0.22728048264980316162109375000000000,
-0.22633832693099975585937500000000000,
-0.13160099089145660400390625000000000,
-0.03175743296742439270019531250000000,
0.09006588906049728393554687500000000,
-0.16411118209362030029296875000000000,
-0.30648681521415710449218750000000000,
-0.10861717909574508666992187500000000,
0.21489612758159637451171875000000000,
-0.00992518849670886993408203125000000,
-0.01152114570140838623046875000000000,
-0.87539035081863403320312500000000000,
0.07192938029766082763671875000000000,
0.25121790170669555664062500000000000,
0.04942163079977035522460937500000000,
-0.06525225192308425903320312500000000,
0.08766826242208480834960937500000000,
-0.01063312683254480361938476562500000,
0.17457301914691925048828125000000000,
-0.05440632626414299011230468750000000,
0.00934394635260105133056640625000000,
-0.24085015058517456054687500000000000,
0.28926864266395568847656250000000000,
-0.21316115558147430419921875000000000,
-0.32556971907615661621093750000000000,
0.37731483578681945800781250000000000,
0.10998536646366119384765625000000000,
-0.44775822758674621582031250000000000,
-0.45009499788284301757812500000000000,
-0.56390917301177978515625000000000000,
0.22515593469142913818359375000000000,
-0.13993526995182037353515625000000000,
-0.00635320879518985748291015625000000,
0.13357307016849517822265625000000000,
-0.19704718887805938720703125000000000,
-0.77378475666046142578125000000000000,
0.12261921912431716918945312500000000,
0.04991078749299049377441406250000000,
0.15896797180175781250000000000000000,
-0.00383567065000534057617187500000000,
-0.42867553234100341796875000000000000,
0.18418078124523162841796875000000000,
0.00783143099397420883178710937500000,
-0.03044452145695686340332031250000000,
-0.12439723312854766845703125000000000,
0.55295503139495849609375000000000000,
0.37783446907997131347656250000000000,
0.12704455852508544921875000000000000,
-0.02684322372078895568847656250000000,
-0.35476896166801452636718750000000000,
0.30520793795585632324218750000000000,
-0.13969501852989196777343750000000000,
-0.27598753571510314941406250000000000,
-0.27398866415023803710937500000000000,
-0.66936582326889038085937500000000000,
-0.00017290808318648487329483032226562,
0.33788815140724182128906250000000000,
-0.34089937806129455566406250000000000,
0.31447589397430419921875000000000000,
-0.10503359138965606689453125000000000,
-0.21653854846954345703125000000000000,
0.29383337497711181640625000000000000,
-0.05288159847259521484375000000000000,
-0.28804844617843627929687500000000000,
-0.08281714469194412231445312500000000,
0.00713124265894293785095214843750000,
-0.10139018297195434570312500000000000,
0.15315437316894531250000000000000000,
0.04572186991572380065917968750000000,
0.14512543380260467529296875000000000,
-0.23925113677978515625000000000000000,
-0.80734348297119140625000000000000000,
0.32156631350517272949218750000000000,
0.05011907964944839477539062500000000,
0.20664717257022857666015625000000000,
-0.42072868347167968750000000000000000,
0.42088836431503295898437500000000000,
0.07128443568944931030273437500000000,
-0.26130110025405883789062500000000000,
0.30266770720481872558593750000000000,
0.02472881972789764404296875000000000,
-0.06284806132316589355468750000000000,
0.09462169557809829711914062500000000,
-0.32740485668182373046875000000000000,
0.44620215892791748046875000000000000,
-0.43629541993141174316406250000000000,
0.05865782499313354492187500000000000,
0.10676832497119903564453125000000000,
0.16875368356704711914062500000000000,
-0.57569074630737304687500000000000000,
0.13367044925689697265625000000000000,
0.16977261006832122802734375000000000,
0.37705743312835693359375000000000000,
-0.02656037546694278717041015625000000,
-0.30398780107498168945312500000000000,
0.03240341693162918090820312500000000,
-0.38217148184776306152343750000000000,
0.36862573027610778808593750000000000,
-0.21897158026695251464843750000000000,
-0.21547211706638336181640625000000000,
-0.01009228359907865524291992187500000,
-0.33341592550277709960937500000000000,
-0.02898674085736274719238281250000000,
0.06097049266099929809570312500000000,
0.03609547391533851623535156250000000,
-0.02806458063423633575439453125000000,
0.04998581111431121826171875000000000,
-0.64730745553970336914062500000000000,
0.60607641935348510742187500000000000,
0.05233179405331611633300781250000000,
-0.20008319616317749023437500000000000,
-0.33678257465362548828125000000000000,
0.41971749067306518554687500000000000,
0.55452549457550048828125000000000000,
0.35907858610153198242187500000000000,
-0.51456338167190551757812500000000000,
-0.07955855131149291992187500000000000,
-0.08803916722536087036132812500000000,
0.17328584194183349609375000000000000,
0.76147371530532836914062500000000000,
-0.40311735868453979492187500000000000,
0.13339857757091522216796875000000000,
-0.10737705230712890625000000000000000,
-0.18443211913108825683593750000000000,
-0.05486464127898216247558593750000000,
-0.11422244459390640258789062500000000,
0.05132665485143661499023437500000000,
-0.06798013299703598022460937500000000,
0.12412872165441513061523437500000000,
-0.34424811601638793945312500000000000,
0.37031525373458862304687500000000000,
0.60060167312622070312500000000000000,
0.20688341557979583740234375000000000,
-0.34183543920516967773437500000000000,
-0.15587595105171203613281250000000000,
0.11812203377485275268554687500000000,
-0.12588369846343994140625000000000000,
0.03481042012572288513183593750000000,
-0.28702959418296813964843750000000000,
0.43644654750823974609375000000000000,
0.14060202240943908691406250000000000,
-0.14157693088054656982421875000000000,
-0.22597499191761016845703125000000000,
0.10177039355039596557617187500000000,
-0.30174520611763000488281250000000000,
0.37593033909797668457031250000000000,
-0.06631713360548019409179687500000000,
0.36494478583335876464843750000000000,
-0.40964019298553466796875000000000000,
-0.23750066757202148437500000000000000,
-0.10387211292982101440429687500000000,
0.01656219363212585449218750000000000,
-0.18671233952045440673828125000000000,
0.24487324059009552001953125000000000,
-0.24866273999214172363281250000000000,
0.05807374417781829833984375000000000,
-0.06811036169528961181640625000000000,
0.09599077701568603515625000000000000,
0.30151131749153137207031250000000000,
0.03014112822711467742919921875000000,
-0.08596283942461013793945312500000000,
0.30397868156433105468750000000000000,
-0.18664750456809997558593750000000000,
-0.24517101049423217773437500000000000,
-0.38983488082885742187500000000000000,
0.43576282262802124023437500000000000,
-0.40866810083389282226562500000000000,
0.26456353068351745605468750000000000,
0.97156035900115966796875000000000000,
0.34632790088653564453125000000000000,
0.31276211142539978027343750000000000,
-0.31616672873497009277343750000000000,
0.29533696174621582031250000000000000,
0.16737908124923706054687500000000000,
-0.01198640372604131698608398437500000,
-0.00313401990570127964019775390625000,
-0.22906967997550964355468750000000000,
0.45034164190292358398437500000000000,
-0.47165435552597045898437500000000000,
-0.19726780056953430175781250000000000,
0.22527198493480682373046875000000000,
-0.23105366528034210205078125000000000,
-0.41389930248260498046875000000000000,
0.05642068013548851013183593750000000,
0.08513899892568588256835937500000000,
0.08916048705577850341796875000000000,
-0.12930954992771148681640625000000000,
0.15046606957912445068359375000000000,
-0.24561099708080291748046875000000000,
-0.06519766896963119506835937500000000,
0.04865369945764541625976562500000000,
0.14694890379905700683593750000000000,
-0.16497816145420074462890625000000000,
-0.34974205493927001953125000000000000,
0.01169280614703893661499023437500000,
-0.26925382018089294433593750000000000,
-0.32753857970237731933593750000000000,
0.21290098130702972412109375000000000,
-0.35800677537918090820312500000000000,
0.36038890480995178222656250000000000,
0.13040083646774291992187500000000000,
0.00189827755093574523925781250000000,
0.00558841042220592498779296875000000,
-0.13899365067481994628906250000000000,
-0.00772741343826055526733398437500000,
0.14777404069900512695312500000000000,
0.06453766673803329467773437500000000,
-0.11730312556028366088867187500000000,
0.14328926801681518554687500000000000,
-0.26528546214103698730468750000000000,
-0.07750640064477920532226562500000000,
0.05545340105891227722167968750000000,
-0.28786778450012207031250000000000000,
0.17049919068813323974609375000000000,
-0.14695094525814056396484375000000000,
0.04531894624233245849609375000000000,
-0.19950684905052185058593750000000000,
0.23935833573341369628906250000000000,
0.41879042983055114746093750000000000,
0.76229470968246459960937500000000000,
0.66498869657516479492187500000000000,
-0.37845531105995178222656250000000000,
-0.31301614642143249511718750000000000,
0.26166993379592895507812500000000000,
-0.59426021575927734375000000000000000,
0.32194033265113830566406250000000000,
0.31246513128280639648437500000000000,
0.13585627079010009765625000000000000,
0.01269075460731983184814453125000000,
-0.03691377490758895874023437500000000,
-0.43225193023681640625000000000000000,
-0.59504401683807373046875000000000000,
0.38413178920745849609375000000000000,
0.27378368377685546875000000000000000,
0.36113503575325012207031250000000000,
-0.48378688097000122070312500000000000,
0.11960601806640625000000000000000000,
-0.56910413503646850585937500000000000,
0.56388503313064575195312500000000000,
-5.43833017349243164062500000000000000,
3.01968717575073242187500000000000000,
-2.25140428543090820312500000000000000,
-0.29091513156890869140625000000000000,
-0.04790952429175376892089843750000000,
0.06578728556632995605468750000000000,
0.17524553835391998291015625000000000,
-0.30595940351486206054687500000000000,
0.24565233290195465087890625000000000,
0.54559409618377685546875000000000000,
0.21589209139347076416015625000000000,
-0.36150118708610534667968750000000000,
-0.16982211172580718994140625000000000,
-0.29229670763015747070312500000000000,
0.02265751734375953674316406250000000,
0.38820534944534301757812500000000000,
-0.60628026723861694335937500000000000,
0.53191322088241577148437500000000000,
0.74875319004058837890625000000000000,
0.20942178368568420410156250000000000,
-0.35488241910934448242187500000000000,
0.37925592064857482910156250000000000,
-0.65996962785720825195312500000000000,
-0.29451331496238708496093750000000000,
0.00122951297089457511901855468750000,
0.04089061170816421508789062500000000,
-0.21934880316257476806640625000000000,
-0.27019891142845153808593750000000000,
0.37598600983619689941406250000000000,
0.00685698911547660827636718750000000,
0.05674035847187042236328125000000000,
0.78224480152130126953125000000000000,
-0.16640184819698333740234375000000000,
0.40055948495864868164062500000000000,
-0.31751215457916259765625000000000000,
0.23673114180564880371093750000000000,
0.13009575009346008300781250000000000,
-0.09809613972902297973632812500000000,
-0.17337763309478759765625000000000000,
-0.32755699753761291503906250000000000,
-0.12318076193332672119140625000000000,
0.23382246494293212890625000000000000,
0.11872302740812301635742187500000000,
-0.28665682673454284667968750000000000,
0.30942538380622863769531250000000000,
-0.03423184901475906372070312500000000,
0.10322976857423782348632812500000000,
-0.14892749488353729248046875000000000,
-0.30667161941528320312500000000000000,
-0.05404014140367507934570312500000000,
0.06916611641645431518554687500000000,
0.11416271328926086425781250000000000,
-0.12786205112934112548828125000000000,
0.13347904384136199951171875000000000,
-0.04845972359180450439453125000000000,
-0.35406392812728881835937500000000000,
0.44467911124229431152343750000000000,
0.35603699088096618652343750000000000,
0.44115027785301208496093750000000000,
-0.58910512924194335937500000000000000,
0.26826918125152587890625000000000000,
-0.09578951448202133178710937500000000,
0.05650730058550834655761718750000000,
-0.15408790111541748046875000000000000,
-0.17223095893859863281250000000000000,
0.29021906852722167968750000000000000,
0.37580212950706481933593750000000000,
-0.52282899618148803710937500000000000,
0.46975767612457275390625000000000000,
0.39432269334793090820312500000000000,
-0.28903391957283020019531250000000000,
0.22848109900951385498046875000000000,
0.39379653334617614746093750000000000,
-0.54043442010879516601562500000000000,
-0.61205631494522094726562500000000000,
0.12654629349708557128906250000000000,
0.37959277629852294921875000000000000,
-0.46908318996429443359375000000000000,
-0.12790551781654357910156250000000000,
0.16595235466957092285156250000000000,
0.50616919994354248046875000000000000,
-0.06105495989322662353515625000000000,
0.35372751951217651367187500000000000,
0.33265969157218933105468750000000000,
-0.16134592890739440917968750000000000,
0.05590428411960601806640625000000000,
-0.05733399465680122375488281250000000,
-0.12156743556261062622070312500000000,
1.30316734313964843750000000000000000,
0.03250998258590698242187500000000000,
-0.01195171847939491271972656250000000,
0.07266156375408172607421875000000000,
-0.13200934231281280517578125000000000,
0.25287741422653198242187500000000000,
-0.33680307865142822265625000000000000,
0.31650295853614807128906250000000000,
0.04296698048710823059082031250000000,
0.43763870000839233398437500000000000,
-0.44471985101699829101562500000000000,
0.53592002391815185546875000000000000,
-0.19814115762710571289062500000000000,
0.02902864478528499603271484375000000,
0.10239561647176742553710937500000000,
0.01848420873284339904785156250000000,
-0.25492751598358154296875000000000000,
-0.09112726897001266479492187500000000,
0.13551990687847137451171875000000000,
-0.16570468246936798095703125000000000,
-0.44108924269676208496093750000000000,
-0.74456113576889038085937500000000000,
-0.06234061345458030700683593750000000,
0.28188291192054748535156250000000000,
-0.42847186326980590820312500000000000,
0.41937479376792907714843750000000000,
-0.12998205423355102539062500000000000,
-0.12050610035657882690429687500000000,
0.23090170323848724365234375000000000,
0.14657001197338104248046875000000000,
-0.12752988934516906738281250000000000,
-0.49960568547248840332031250000000000,
0.01693025790154933929443359375000000,
-0.68848270177841186523437500000000000,
-0.40984407067298889160156250000000000,
-0.36012259125709533691406250000000000,
0.20835229754447937011718750000000000,
0.05570640042424201965332031250000000,
-0.29768279194831848144531250000000000,
-0.07704503089189529418945312500000000,
0.08114119619131088256835937500000000,
0.06013130396604537963867187500000000,
0.01482595317065715789794921875000000,
-0.15221843123435974121093750000000000,
-0.34736481308937072753906250000000000,
0.16942739486694335937500000000000000,
-0.13516964018344879150390625000000000,
-0.52144449949264526367187500000000000,
0.06179802492260932922363281250000000,
0.19016033411026000976562500000000000,
0.09388281404972076416015625000000000,
1.12647151947021484375000000000000000,
0.43586769700050354003906250000000000,
0.30503004789352416992187500000000000,
0.12239067256450653076171875000000000,
-0.24539464712142944335937500000000000,
-0.41508987545967102050781250000000000,
-0.05609250441193580627441406250000000,
0.10535436123609542846679687500000000,
-0.26572832465171813964843750000000000,
-1.76277279853820800781250000000000000,
-0.51282227039337158203125000000000000,
0.12116798013448715209960937500000000,
-0.28461840748786926269531250000000000,
-0.20570130646228790283203125000000000,
-0.05409893393516540527343750000000000,
-0.01090081967413425445556640625000000,
-0.07044201344251632690429687500000000,
-0.35338854789733886718750000000000000,
0.44448217749595642089843750000000000,
-0.42148050665855407714843750000000000,
-0.58797246217727661132812500000000000,
0.30911812186241149902343750000000000,
-0.22678135335445404052734375000000000,
0.06158411502838134765625000000000000,
-0.36436954140663146972656250000000000,
-0.14691410958766937255859375000000000,
-0.22732925415039062500000000000000000,
-0.15453594923019409179687500000000000,
0.25481963157653808593750000000000000,
-0.47932568192481994628906250000000000,
0.35589250922203063964843750000000000,
0.10187979042530059814453125000000000,
-0.34802842140197753906250000000000000,
-0.05680711194872856140136718750000000,
0.09066170454025268554687500000000000,
0.05642900988459587097167968750000000,
0.00041536233038641512393951416015625,
-0.14881859719753265380859375000000000,
-0.36104577779769897460937500000000000,
-0.32089588046073913574218750000000000,
0.23411619663238525390625000000000000,
0.06040580570697784423828125000000000,
0.09767045825719833374023437500000000,
-0.27019429206848144531250000000000000,
0.27126204967498779296875000000000000,
-0.24773183465003967285156250000000000,
0.22902186214923858642578125000000000,
-0.04817252233624458312988281250000000,
-0.01164036430418491363525390625000000,
-0.07445719093084335327148437500000000,
-0.09248490631580352783203125000000000,
-1.83279955387115478515625000000000000,
-0.78708255290985107421875000000000000,
0.22184625267982482910156250000000000,
-0.18535526096820831298828125000000000,
-0.31565293669700622558593750000000000,
-0.12437259405851364135742187500000000,
0.37141188979148864746093750000000000,
-0.00948526524007320404052734375000000,
0.09957981854677200317382812500000000,
0.18401525914669036865234375000000000,
-0.47995311021804809570312500000000000,
0.05675165727734565734863281250000000,
-0.34548437595367431640625000000000000,
-0.20872499048709869384765625000000000,
0.14726248383522033691406250000000000,
0.00201231334358453750610351562500000,
-0.35706907510757446289062500000000000,
-0.11786141246557235717773437500000000,
0.06904414296150207519531250000000000,
-0.08710483461618423461914062500000000,
-0.15453365445137023925781250000000000,
-0.20628458261489868164062500000000000,
-0.03760910779237747192382812500000000,
-0.16474448144435882568359375000000000,
0.02308161929249763488769531250000000,
-0.02721645124256610870361328125000000,
0.11731961369514465332031250000000000,
-0.37036865949630737304687500000000000,
0.38993534445762634277343750000000000,
-0.40013477206230163574218750000000000,
0.33578220009803771972656250000000000,
-0.28748041391372680664062500000000000,
0.16836866736412048339843750000000000,
-0.06346426904201507568359375000000000,
-0.20660649240016937255859375000000000,
-0.14140516519546508789062500000000000,
-0.04154104739427566528320312500000000,
0.17273116111755371093750000000000000,
-0.53496348857879638671875000000000000,
0.23840440809726715087890625000000000,
0.06697310507297515869140625000000000,
0.61910372972488403320312500000000000,
0.23422594368457794189453125000000000,
-0.38946780562400817871093750000000000,
0.01448486559092998504638671875000000,
0.03538987040519714355468750000000000,
-0.12761588394641876220703125000000000,
0.29620572924613952636718750000000000,
-0.29429838061332702636718750000000000,
-0.29009956121444702148437500000000000,
-0.22242151200771331787109375000000000,
-0.01336265727877616882324218750000000,
0.18481922149658203125000000000000000,
-0.16336405277252197265625000000000000,
0.34548375010490417480468750000000000,
-0.37106660008430480957031250000000000,
0.37035936117172241210937500000000000,
-0.38977810740470886230468750000000000,
0.32328945398330688476562500000000000,
-0.20805297791957855224609375000000000,
-0.05978014320135116577148437500000000,
0.02241125144064426422119140625000000,
0.33580470085144042968750000000000000,
-0.55608260631561279296875000000000000,
0.50687056779861450195312500000000000,
-0.32386606931686401367187500000000000,
0.29078271985054016113281250000000000,
-0.26905253529548645019531250000000000,
0.06561201810836791992187500000000000,
0.11759423464536666870117187500000000,
-0.09665761888027191162109375000000000,
-0.29364857077598571777343750000000000,
0.33206918835639953613281250000000000,
-0.31401190161705017089843750000000000,
-0.13579954206943511962890625000000000,
-0.28987684845924377441406250000000000,
0.35065451264381408691406250000000000,
-0.14465007185935974121093750000000000,
0.13630747795104980468750000000000000,
-0.14403860270977020263671875000000000,
-0.34899440407752990722656250000000000,
-0.05457016453146934509277343750000000,
0.22012238204479217529296875000000000,
-0.16648095846176147460937500000000000,
0.50214844942092895507812500000000000,
-0.52084457874298095703125000000000000,
-0.43230417370796203613281250000000000,
-0.04313449561595916748046875000000000,
0.09587758779525756835937500000000000,
-0.07428527623414993286132812500000000,
-0.09750212728977203369140625000000000,
-0.05643438175320625305175781250000000,
0.14183148741722106933593750000000000,
0.05747961997985839843750000000000000,
-0.22548408806324005126953125000000000,
-0.29640612006187438964843750000000000,
0.11827717721462249755859375000000000,
-0.08979512751102447509765625000000000,
0.24889686703681945800781250000000000,
-0.04330798238515853881835937500000000,
-0.33866477012634277343750000000000000,
-0.22046291828155517578125000000000000,
-0.24207392334938049316406250000000000,
0.00079094327520579099655151367187500,
-0.30012357234954833984375000000000000,
-0.04804493114352226257324218750000000,
0.15147346258163452148437500000000000,
-0.61868017911911010742187500000000000,
0.26535403728485107421875000000000000,
0.04464759677648544311523437500000000,
0.56876379251480102539062500000000000,
-0.81976097822189331054687500000000000,
-0.43994346261024475097656250000000000,
0.27484238147735595703125000000000000,
0.91665685176849365234375000000000000,
0.59024000167846679687500000000000000,
0.65979290008544921875000000000000000,
-0.20320540666580200195312500000000000,
-0.30453497171401977539062500000000000,
-0.06607473641633987426757812500000000,
-0.03320531919598579406738281250000000,
0.11374693363904953002929687500000000,
0.48477143049240112304687500000000000,
0.35650983452796936035156250000000000,
-0.52657872438430786132812500000000000,
-0.13299627602100372314453125000000000,
0.14525583386421203613281250000000000,
-0.16202309727668762207031250000000000,
0.34604912996292114257812500000000000,
0.12868259847164154052734375000000000,
-0.32752889394760131835937500000000000,
0.06645717471837997436523437500000000,
-0.30284750461578369140625000000000000,
0.33870148658752441406250000000000000,
-0.11068663001060485839843750000000000,
0.06110744923353195190429687500000000,
-0.08095656335353851318359375000000000,
-0.30416154861450195312500000000000000,
-0.36511284112930297851562500000000000,
-0.00265610893256962299346923828125000,
0.76159745454788208007812500000000000,
0.67633807659149169921875000000000000,
-0.39707189798355102539062500000000000,
0.03751279786229133605957031250000000,
0.55625236034393310546875000000000000,
0.53342139720916748046875000000000000,
-0.02439663372933864593505859375000000,
-0.01570365019142627716064453125000000,
-0.08847320824861526489257812500000000,
-0.84495848417282104492187500000000000,
0.30575236678123474121093750000000000,
-0.02025531046092510223388671875000000,
0.09672681987285614013671875000000000,
-0.09817694872617721557617187500000000,
0.44192302227020263671875000000000000,
-0.01798721030354499816894531250000000,
-0.43834483623504638671875000000000000,
0.21440118551254272460937500000000000,
-0.39910918474197387695312500000000000,
0.14790676534175872802734375000000000,
0.34118258953094482421875000000000000,
0.24133528769016265869140625000000000,
-0.17910574376583099365234375000000000,
0.47376385331153869628906250000000000,
0.47767540812492370605468750000000000,
-0.26543968915939331054687500000000000,
0.26272469758987426757812500000000000,
-0.71890693902969360351562500000000000,
-0.17270256578922271728515625000000000,
0.34738799929618835449218750000000000,
0.02571669593453407287597656250000000,
0.21648339927196502685546875000000000,
-0.10048621892929077148437500000000000,
0.09612206369638442993164062500000000,
0.00129257608205080032348632812500000,
-0.18569751083850860595703125000000000,
-0.19302041828632354736328125000000000,
0.32514700293540954589843750000000000,
-0.33927610516548156738281250000000000,
-0.23692588508129119873046875000000000,
0.37129655480384826660156250000000000,
0.36762180924415588378906250000000000,
-0.18918968737125396728515625000000000,
0.11361128836870193481445312500000000,
-0.10967145115137100219726562500000000,
0.01690263673663139343261718750000000,
0.23594896495342254638671875000000000,
-0.38871642947196960449218750000000000,
-0.45643714070320129394531250000000000,
-0.31028905510902404785156250000000000,
0.43744698166847229003906250000000000,
-0.02989748492836952209472656250000000,
-0.43356353044509887695312500000000000,
0.15408499538898468017578125000000000,
0.33673617243766784667968750000000000,
-0.29300051927566528320312500000000000,
0.25976583361625671386718750000000000,
-0.35011914372444152832031250000000000,
-0.42672145366668701171875000000000000,
0.47478717565536499023437500000000000,
0.37798112630844116210937500000000000,
-0.51482558250427246093750000000000000,
-0.44913753867149353027343750000000000,
0.46575617790222167968750000000000000,
-0.49977570772171020507812500000000000,
0.44554731249809265136718750000000000,
-0.39994290471076965332031250000000000,
0.49722650647163391113281250000000000,
-0.47245153784751892089843750000000000,
-0.01112881209701299667358398437500000,
0.59461104869842529296875000000000000,
-0.13972374796867370605468750000000000,
0.17716443538665771484375000000000000,
-0.54292935132980346679687500000000000,
0.50391948223114013671875000000000000,
-0.60601276159286499023437500000000000,
0.31989789009094238281250000000000000,
0.20194871723651885986328125000000000,
0.20299454033374786376953125000000000,
1.03124272823333740234375000000000000,
0.75066435337066650390625000000000000,
0.03289610892534255981445312500000000,
-0.72428441047668457031250000000000000,
-0.56456363201141357421875000000000000,
-0.10644243657588958740234375000000000,
0.00449802493676543235778808593750000,
-0.03531941771507263183593750000000000,
-0.41666722297668457031250000000000000,
-0.33025082945823669433593750000000000,
0.45453354716300964355468750000000000,
-0.34454503655433654785156250000000000,
0.33682268857955932617187500000000000,
-0.31238168478012084960937500000000000,
0.37170314788818359375000000000000000,
0.19991560280323028564453125000000000,
-0.41915729641914367675781250000000000,
0.18318399786949157714843750000000000,
-0.53709232807159423828125000000000000,
-0.12573072314262390136718750000000000,
0.04334127157926559448242187500000000,
-0.69051736593246459960937500000000000,
-0.30308094620704650878906250000000000,
-0.03814299777150154113769531250000000,
-0.03616839647293090820312500000000000,
-0.07258230447769165039062500000000000,
0.15118876099586486816406250000000000,
-0.05122672766447067260742187500000000,
-0.21912880241870880126953125000000000,
0.07887700200080871582031250000000000,
-0.37921437621116638183593750000000000,
0.35086980462074279785156250000000000,
-0.21362736821174621582031250000000000,
0.25363305211067199707031250000000000,
-0.25982230901718139648437500000000000,
-0.15644139051437377929687500000000000,
-0.11964593082666397094726562500000000,
-0.03847661614418029785156250000000000,
0.05536935850977897644042968750000000,
0.41208201646804809570312500000000000,
-0.47304865717887878417968750000000000,
0.04793750122189521789550781250000000,
0.01003447361290454864501953125000000,
-0.14659301936626434326171875000000000,
0.08699553459882736206054687500000000,
-0.23597018420696258544921875000000000,
0.26940813660621643066406250000000000,
0.00533593818545341491699218750000000,
-0.15378063917160034179687500000000000,
0.19765134155750274658203125000000000,
-0.22470135986804962158203125000000000,
0.02449147775769233703613281250000000,
0.17644713819026947021484375000000000,
0.26610431075096130371093750000000000,
-0.42527994513511657714843750000000000,
-0.42633372545242309570312500000000000,
0.07781196385622024536132812500000000,
-0.48263037204742431640625000000000000,
0.47166460752487182617187500000000000,
0.51473486423492431640625000000000000,
-0.20132808387279510498046875000000000,
-0.33685970306396484375000000000000000,
-0.98602014780044555664062500000000000,
-0.10039613395929336547851562500000000,
0.24935616552829742431640625000000000,
-0.30226203799247741699218750000000000,
0.03150738030672073364257812500000000,
0.00157620722893625497817993164062500,
0.24377821385860443115234375000000000,
-0.07928174734115600585937500000000000,
0.05010032281279563903808593750000000,
0.43627178668975830078125000000000000,
-0.52994370460510253906250000000000000,
0.46050986647605895996093750000000000,
0.27139678597450256347656250000000000,
-0.78173089027404785156250000000000000,
-0.76815593242645263671875000000000000,
0.39650744199752807617187500000000000,
-0.28786730766296386718750000000000000,
0.16075269877910614013671875000000000,
0.08384558558464050292968750000000000,
0.08340375870466232299804687500000000,
-0.20724198222160339355468750000000000,
0.14259108901023864746093750000000000,
0.32623314857482910156250000000000000,
-0.42689180374145507812500000000000000,
-0.63849854469299316406250000000000000,
0.09943746775388717651367187500000000,
0.18571409583091735839843750000000000,
-0.13904540240764617919921875000000000,
0.37789085507392883300781250000000000,
-0.42098712921142578125000000000000000,
-0.29471430182456970214843750000000000,
-0.06880085915327072143554687500000000,
0.06772516667842864990234375000000000,
-0.38194167613983154296875000000000000,
-0.06959044933319091796875000000000000,
0.09527422487735748291015625000000000,
-0.20739467442035675048828125000000000,
0.28091827034950256347656250000000000,
-0.29239490628242492675781250000000000,
0.16962502896785736083984375000000000,
-0.24041821062564849853515625000000000,
-0.22520060837268829345703125000000000,
-0.29579454660415649414062500000000000,
0.01489866897463798522949218750000000,
0.34848874807357788085937500000000000,
0.07962300628423690795898437500000000,
0.00025912473211064934730529785156250,
-0.16861988604068756103515625000000000,
-0.05649484694004058837890625000000000,
-0.40076780319213867187500000000000000,
0.39656388759613037109375000000000000,
-0.02973699942231178283691406250000000,
-0.10141202062368392944335937500000000,
-0.08296544104814529418945312500000000,
-0.19343665242195129394531250000000000,
-0.00100826460402458906173706054687500,
0.00257458398118615150451660156250000,
-0.25831669569015502929687500000000000,
0.02670125477015972137451171875000000,
0.50225448608398437500000000000000000,
-0.60147619247436523437500000000000000,
-0.24691520631313323974609375000000000,
0.36840122938156127929687500000000000,
-0.09960200637578964233398437500000000,
0.34994590282440185546875000000000000,
0.23856899142265319824218750000000000,
0.59910494089126586914062500000000000,
0.07004743069410324096679687500000000,
-0.33162051439285278320312500000000000,
-0.25271373987197875976562500000000000,
-0.03197883442044258117675781250000000,
0.04595280811190605163574218750000000,
-0.20202116668224334716796875000000000,
0.06603021919727325439453125000000000,
0.04171012341976165771484375000000000,
-0.51502192020416259765625000000000000,
0.31750336289405822753906250000000000,
-0.46328690648078918457031250000000000,
0.09872275590896606445312500000000000,
-0.29366275668144226074218750000000000,
-0.13127984106540679931640625000000000,
0.06996656954288482666015625000000000,
0.23182539641857147216796875000000000,
-0.10295086354017257690429687500000000,
-0.21102197468280792236328125000000000,
-0.30686038732528686523437500000000000,
0.00758897094056010246276855468750000,
0.39124688506126403808593750000000000,
-0.38037410378456115722656250000000000,
0.34432137012481689453125000000000000,
0.25318038463592529296875000000000000,
-0.41364666819572448730468750000000000,
0.33312049508094787597656250000000000,
-0.57396972179412841796875000000000000,
0.17995409667491912841796875000000000,
-0.08586396276950836181640625000000000,
-0.01397196389734745025634765625000000,
0.18650455772876739501953125000000000,
-0.06093179062008857727050781250000000,
-0.18208138644695281982421875000000000,
0.16193664073944091796875000000000000,
-0.16283485293388366699218750000000000,
0.10507814586162567138671875000000000,
-0.01169684063643217086791992187500000,
0.00855094008147716522216796875000000,
-1.23289167881011962890625000000000000,
-0.03347370028495788574218750000000000,
-0.06831873953342437744140625000000000,
0.13669852912425994873046875000000000,
-0.05580207705497741699218750000000000,
-0.36459159851074218750000000000000000,
-0.42405033111572265625000000000000000,
0.51231443881988525390625000000000000,
-0.48065665364265441894531250000000000,
0.17258968949317932128906250000000000,
0.30890756845474243164062500000000000,
0.39848479628562927246093750000000000,
-0.51795554161071777343750000000000000,
-0.11863155663013458251953125000000000,
0.17760847508907318115234375000000000,
0.25849559903144836425781250000000000,
0.01274725422263145446777343750000000,
-0.04499879106879234313964843750000000,
-0.22716389596462249755859375000000000,
0.35685667395591735839843750000000000,
-0.36348810791969299316406250000000000,
0.45317512750625610351562500000000000,
0.17276127636432647705078125000000000,
-0.34647276997566223144531250000000000,
-0.21001490950584411621093750000000000,
0.16942314803600311279296875000000000,
-0.38425040245056152343750000000000000,
-0.30192285776138305664062500000000000,
0.10052323341369628906250000000000000,
-0.06997929513454437255859375000000000,
0.06873851269483566284179687500000000,
-0.10964532941579818725585937500000000,
-0.13650459051132202148437500000000000,
-0.16145756840705871582031250000000000,
0.07932396233081817626953125000000000,
-0.07834949344396591186523437500000000,
-0.07468511164188385009765625000000000,
0.08556603640317916870117187500000000,
-0.11680209636688232421875000000000000,
-0.15573526918888092041015625000000000,
0.47406265139579772949218750000000000,
-0.54653197526931762695312500000000000,
0.05675249919295310974121093750000000,
-0.26141574978828430175781250000000000,
0.29872199892997741699218750000000000,
-0.00845355726778507232666015625000000,
-0.27251219749450683593750000000000000,
0.40430495142936706542968750000000000,
0.09355594962835311889648437500000000,
0.22693662345409393310546875000000000,
-0.32791256904602050781250000000000000,
0.16241934895515441894531250000000000,
0.21095854043960571289062500000000000,
-0.38498333096504211425781250000000000,
0.01374863274395465850830078125000000,
-0.06112128123641014099121093750000000,
0.10214106738567352294921875000000000,
-0.29732012748718261718750000000000000,
-0.17421956360340118408203125000000000,
0.27685892581939697265625000000000000,
0.17648845911026000976562500000000000,
0.21601550281047821044921875000000000,
-0.34376725554466247558593750000000000,
-0.91369795799255371093750000000000000,
-5.13417243957519531250000000000000000,
-1.05521857738494873046875000000000000,
0.54754775762557983398437500000000000,
-0.52562522888183593750000000000000000,
-0.29711639881134033203125000000000000,
-0.43099790811538696289062500000000000,
-0.13932955265045166015625000000000000,
0.27831840515136718750000000000000000,
0.63366955518722534179687500000000000,
-0.31342095136642456054687500000000000,
0.03123055770993232727050781250000000,
