0.04567885398864746093750000000000000,
0.03971490263938903808593750000000000,
0.10308754444122314453125000000000000,
0.08772170543670654296875000000000000,
-0.04101873189210891723632812500000000,
0.08482693135738372802734375000000000,
0.13009332120418548583984375000000000,
-0.06009759753942489624023437500000000,
0.06032912433147430419921875000000000,
-0.02601549774408340454101562500000000,
-0.06099195778369903564453125000000000,
-0.05442813783884048461914062500000000,
-0.07641338557004928588867187500000000,
0.09832346439361572265625000000000000,
0.10562425851821899414062500000000000,
0.12694294750690460205078125000000000,
0.13157470524311065673828125000000000,
0.06354148685932159423828125000000000,
-0.07106912881135940551757812500000000,
-0.12017631530761718750000000000000000,
0.00420667231082916259765625000000000,
0.09984697401523590087890625000000000,
-0.11963731050491333007812500000000000,
0.08352220058441162109375000000000000,
-0.03460264950990676879882812500000000,
-0.08506183326244354248046875000000000,
0.11040495336055755615234375000000000,
0.05620560050010681152343750000000000,
-0.12484426796436309814453125000000000,
0.10057911276817321777343750000000000,
0.04266037046909332275390625000000000,
0.01496115326881408691406250000000000,
0.06991569697856903076171875000000000,
-0.10352303087711334228515625000000000,
-0.11715384572744369506835937500000000,
-0.03548985719680786132812500000000000,
-0.02549412101507186889648437500000000,
0.06281615793704986572265625000000000,
0.07600958645343780517578125000000000,
-0.09865134954452514648437500000000000,
0.07902628183364868164062500000000000,
0.12562020123004913330078125000000000,
0.10691325366497039794921875000000000,
0.10443302989006042480468750000000000,
-0.06449262052774429321289062500000000,
0.03163269162178039550781250000000000,
-0.03466797620058059692382812500000000,
-0.13773941993713378906250000000000000,
0.02819432318210601806640625000000000,
0.00488117337226867675781250000000000,
