0.11205583810806274414062500000000000,
0.36451297998428344726562500000000000,
0.36034965515136718750000000000000000,
-0.04614102840423583984375000000000000,
0.40003967285156250000000000000000000,
-0.02232927083969116210937500000000000,
-0.39825624227523803710937500000000000,
0.26139324903488159179687500000000000,
0.29381722211837768554687500000000000,
0.27818220853805541992187500000000000,
-0.36343491077423095703125000000000000,
0.16877728700637817382812500000000000,
0.38590431213378906250000000000000000,
-0.11366719007492065429687500000000000,
-0.11002445220947265625000000000000000,
-0.09351164102554321289062500000000000,
0.24473816156387329101562500000000000,
-0.21466451883316040039062500000000000,
0.33082640171051025390625000000000000,
0.23431587219238281250000000000000000,
-0.06277596950531005859375000000000000,
0.34943610429763793945312500000000000,
-0.24412280321121215820312500000000000,
0.07258814573287963867187500000000000,
-0.28915655612945556640625000000000000,
0.41158580780029296875000000000000000,
-0.43895852565765380859375000000000000,
0.32111293077468872070312500000000000,
0.47932004928588867187500000000000000,
0.07349693775177001953125000000000000,
0.26500946283340454101562500000000000,
0.41234052181243896484375000000000000,
-0.42586660385131835937500000000000000,
0.46068656444549560546875000000000000,
-0.10320585966110229492187500000000000,
-0.30007600784301757812500000000000000,
-0.17902714014053344726562500000000000,
0.55178344249725341796875000000000000,
-0.57440143823623657226562500000000000,
0.18077141046524047851562500000000000,
-0.12438374757766723632812500000000000,
-0.35307744145393371582031250000000000,
-0.00931018590927124023437500000000000,
-0.48023360967636108398437500000000000,
-0.18670144677162170410156250000000000,
-0.35094052553176879882812500000000000,
0.42715823650360107421875000000000000,
0.01305603981018066406250000000000000,
0.53562068939208984375000000000000000,
0.16804128885269165039062500000000000,
