-0.12685404717922210693359375000000000,
-0.09425863623619079589843750000000000,
0.07227346301078796386718750000000000,
0.09103250503540039062500000000000000,
0.13550241291522979736328125000000000,
-0.05632639676332473754882812500000000,
0.10951144993305206298828125000000000,
0.11413912475109100341796875000000000,
0.09511251747608184814453125000000000,
0.00249020755290985107421875000000000,
-0.01684309542179107666015625000000000,
0.07337786257266998291015625000000000,
0.06145200133323669433593750000000000,
-0.12339954078197479248046875000000000,
0.13779766857624053955078125000000000,
0.07365958392620086669921875000000000,
-0.11984027177095413208007812500000000,
-0.06005267053842544555664062500000000,
-0.12840579450130462646484375000000000,
0.01076313853263854980468750000000000,
-0.01904223114252090454101562500000000,
-0.03209039568901062011718750000000000,
0.10924355685710906982421875000000000,
0.02004326879978179931640625000000000,
0.03353492915630340576171875000000000,
-0.07519172132015228271484375000000000,
-0.07055136561393737792968750000000000,
0.08422464132308959960937500000000000,
-0.01313401758670806884765625000000000,
0.06466414034366607666015625000000000,
-0.07690604776144027709960937500000000,
0.14060373604297637939453125000000000,
-0.06568408012390136718750000000000000,
0.12903480231761932373046875000000000,
0.13318572938442230224609375000000000,
0.13201732933521270751953125000000000,
0.13562326133251190185546875000000000,
0.10178798437118530273437500000000000,
-0.00105279684066772460937500000000000,
0.08685159683227539062500000000000000,
0.13852630555629730224609375000000000,
0.13027302920818328857421875000000000,
-0.07478306442499160766601562500000000,
-0.10686084628105163574218750000000000,
-0.07544071972370147705078125000000000,
-0.10713383555412292480468750000000000,
0.03289990127086639404296875000000000,
0.05144609510898590087890625000000000,
-0.13748873770236968994140625000000000,
0.11139078438282012939453125000000000,
-0.11938033252954483032226562500000000,
0.06359249353408813476562500000000000,
0.05747744441032409667968750000000000,
-0.12954694032669067382812500000000000,
0.00857727229595184326171875000000000,
0.01875787973403930664062500000000000,
-0.06982670724391937255859375000000000,
-0.01376405358314514160156250000000000,
0.07627162337303161621093750000000000,
-0.07300001382827758789062500000000000,
-0.13759607076644897460937500000000000,
-0.04893397539854049682617187500000000,
-0.13766308128833770751953125000000000,
-0.08490553498268127441406250000000000,
0.06107120215892791748046875000000000,
0.08941483497619628906250000000000000,
-0.03564152121543884277343750000000000,
-0.09242991358041763305664062500000000,
-0.13690868020057678222656250000000000,
-0.10912998020648956298828125000000000,
-0.09702575951814651489257812500000000,
0.06433816254138946533203125000000000,
-0.07247591018676757812500000000000000,
0.08421006798744201660156250000000000,
-0.01997730135917663574218750000000000,
0.07858751714229583740234375000000000,
0.03107419610023498535156250000000000,
0.07684485614299774169921875000000000,
0.04258674383163452148437500000000000,
-0.11649266630411148071289062500000000,
0.02233964204788208007812500000000000,
0.11295215785503387451171875000000000,
0.06523737311363220214843750000000000,
-0.11582519114017486572265625000000000,
0.01600447297096252441406250000000000,
0.09007945656776428222656250000000000,
0.14100913703441619873046875000000000,
0.06574225425720214843750000000000000,
0.00875085592269897460937500000000000,
0.05790883302688598632812500000000000,
0.13207788765430450439453125000000000,
-0.04808980971574783325195312500000000,
-0.11581385135650634765625000000000000,
0.09209285676479339599609375000000000,
0.10297282040119171142578125000000000,
0.04399231076240539550781250000000000,
0.07634286582469940185546875000000000,
-0.10759561508893966674804687500000000,
0.13508926331996917724609375000000000,
0.03032869100570678710937500000000000,
-0.13890339434146881103515625000000000,
-0.06861154735088348388671875000000000,
0.13991005718708038330078125000000000,
0.11060495674610137939453125000000000,
0.05974005162715911865234375000000000,
-0.04377257078886032104492187500000000,
0.06037168204784393310546875000000000,
0.13642497360706329345703125000000000,
0.04350519180297851562500000000000000,
-0.11236320436000823974609375000000000,
-0.13306511938571929931640625000000000,
0.00029975175857543945312500000000000,
0.02424988150596618652343750000000000,
-0.05646831542253494262695312500000000,
0.04695402085781097412109375000000000,
-0.05082212388515472412109375000000000,
-0.02459613978862762451171875000000000,
0.02063959836959838867187500000000000,
-0.02236326783895492553710937500000000,
0.03167539834976196289062500000000000,
0.06571958959102630615234375000000000,
0.02985192835330963134765625000000000,
0.09547984600067138671875000000000000,
0.03681567311286926269531250000000000,
-0.03999682515859603881835937500000000,
0.12155030667781829833984375000000000,
0.00303982198238372802734375000000000,
-0.00527252256870269775390625000000000,
-0.11389218270778656005859375000000000,
0.10498148202896118164062500000000000,
0.02228359878063201904296875000000000,
0.13925309479236602783203125000000000,
0.06612539291381835937500000000000000,
0.08313438296318054199218750000000000,
-0.08628363907337188720703125000000000,
-0.03762628138065338134765625000000000,
-0.00196789205074310302734375000000000,
0.12637956440448760986328125000000000,
0.13831011950969696044921875000000000,
-0.08191791176795959472656250000000000,
0.09107521176338195800781250000000000,
-0.09898810088634490966796875000000000,
0.08863390982151031494140625000000000,
-0.00723664462566375732421875000000000,
-0.00169087946414947509765625000000000,
-0.03585983812808990478515625000000000,
-0.06693705171346664428710937500000000,
-0.08069863915443420410156250000000000,
-0.03521667420864105224609375000000000,
-0.06070350110530853271484375000000000,
0.12904773652553558349609375000000000,
0.08345460891723632812500000000000000,
-0.09466275572776794433593750000000000,
0.00495859980583190917968750000000000,
-0.09105692058801651000976562500000000,
-0.06720094382762908935546875000000000,
0.06749369204044342041015625000000000,
-0.03316773474216461181640625000000000,
-0.12312479317188262939453125000000000,
0.07760103046894073486328125000000000,
-0.10304193198680877685546875000000000,
0.03164410591125488281250000000000000,
0.04762297868728637695312500000000000,
0.05426557362079620361328125000000000,
-0.09688501060009002685546875000000000,
0.04765559732913970947265625000000000,
-0.01871259510517120361328125000000000,
-0.05476548522710800170898437500000000,
-0.00942818820476531982421875000000000,
-0.08536735177040100097656250000000000,
-0.09407141804695129394531250000000000,
0.06713278591632843017578125000000000,
-0.05098371207714080810546875000000000,
0.09946618974208831787109375000000000,
0.04188154637813568115234375000000000,
0.09778721630573272705078125000000000,
-0.06208506226539611816406250000000000,
-0.02990050613880157470703125000000000,
0.06153149902820587158203125000000000,
-0.05839065462350845336914062500000000,
0.02078086137771606445312500000000000,
0.09945924580097198486328125000000000,
-0.13444446027278900146484375000000000,
0.08231431245803833007812500000000000,
0.10215802490711212158203125000000000,
-0.00964933633804321289062500000000000,
-0.04518134146928787231445312500000000,
-0.00537379086017608642578125000000000,
-0.05566791445016860961914062500000000,
-0.04519499838352203369140625000000000,
0.01907549798488616943359375000000000,
-0.04316235333681106567382812500000000,
-0.02601575106382369995117187500000000,
0.02620315551757812500000000000000000,
0.01925219595432281494140625000000000,
-0.13465888798236846923828125000000000,
-0.04432801902294158935546875000000000,
-0.03806727379560470581054687500000000,
0.06247948110103607177734375000000000,
0.10570786893367767333984375000000000,
0.11875618994235992431640625000000000,
0.02885766327381134033203125000000000,
0.07436841726303100585937500000000000,
0.13743893802165985107421875000000000,
-0.07687656581401824951171875000000000,
0.13006271421909332275390625000000000,
-0.13860529661178588867187500000000000,
0.04425984621047973632812500000000000,
0.03620360791683197021484375000000000,
-0.11780250072479248046875000000000000,
0.05539080500602722167968750000000000,
0.06452427804470062255859375000000000,
0.08906978368759155273437500000000000,
-0.07986114919185638427734375000000000,
0.03135034441947937011718750000000000,
0.05246663093566894531250000000000000,
-0.06089550256729125976562500000000000,
0.05766448378562927246093750000000000,
-0.13419491052627563476562500000000000,
0.13098122179508209228515625000000000,
-0.00172092020511627197265625000000000,
-0.04519546777009963989257812500000000,
0.02224418520927429199218750000000000,
-0.06939256191253662109375000000000000,
0.10080511868000030517578125000000000,
-0.11556027829647064208984375000000000,
-0.11161952465772628784179687500000000,
0.06678557395935058593750000000000000,
-0.03793850541114807128906250000000000,
0.00243176519870758056640625000000000,
0.02890110015869140625000000000000000,
0.05810068547725677490234375000000000,
0.13271109759807586669921875000000000,
-0.11241023242473602294921875000000000,
0.07307958602905273437500000000000000,
0.12641693651676177978515625000000000,
0.11320795118808746337890625000000000,
-0.07033928483724594116210937500000000,
0.05529466271400451660156250000000000,
-0.07237310707569122314453125000000000,
0.00560364127159118652343750000000000,
0.10260494053363800048828125000000000,
0.08872203528881072998046875000000000,
-0.06666111201047897338867187500000000,
0.12737260758876800537109375000000000,
0.02746474742889404296875000000000000,
-0.07877688109874725341796875000000000,
0.12967781722545623779296875000000000,
-0.01858495920896530151367187500000000,
0.03257046639919281005859375000000000,
0.09673979878425598144531250000000000,
-0.13915757834911346435546875000000000,
-0.03129412233829498291015625000000000,
0.09113588929176330566406250000000000,
0.01054891943931579589843750000000000,
0.01929347217082977294921875000000000,
-0.07754663378000259399414062500000000,
-0.12771974503993988037109375000000000,
-0.04686770588159561157226562500000000,
0.12004594504833221435546875000000000,
0.05137526988983154296875000000000000,
-0.07514793425798416137695312500000000,
-0.06907833367586135864257812500000000,
0.09362162649631500244140625000000000,
-0.09245477616786956787109375000000000,
-0.04837732017040252685546875000000000,
0.03959867358207702636718750000000000,
0.12292169034481048583984375000000000,
0.08110274374485015869140625000000000,
-0.11967448145151138305664062500000000,
0.11466415226459503173828125000000000,
-0.03664500266313552856445312500000000,
0.05609507858753204345703125000000000,
0.12122853100299835205078125000000000,
0.05880850553512573242187500000000000,
-0.08761866390705108642578125000000000,
-0.12220312654972076416015625000000000,
-0.05225703865289688110351562500000000,
-0.00634220242500305175781250000000000,
0.00954964756965637207031250000000000,
0.12371934950351715087890625000000000,
-0.07797215878963470458984375000000000,
0.13876630365848541259765625000000000,
-0.09798470139503479003906250000000000,
0.07004152238368988037109375000000000,
0.06310336291790008544921875000000000,
-0.04226502776145935058593750000000000,
0.11546151340007781982421875000000000,
-0.10489007830619812011718750000000000,
0.00570487976074218750000000000000000,
-0.12468882650136947631835937500000000,
-0.03628985583782196044921875000000000,
0.13571383059024810791015625000000000,
0.09884376823902130126953125000000000,
-0.07319100946187973022460937500000000,
-0.05607493221759796142578125000000000,
-0.10971644520759582519531250000000000,
0.12439320981502532958984375000000000,
-0.05023051798343658447265625000000000,
-0.10533785820007324218750000000000000,
-0.09725034981966018676757812500000000,
-0.11355771124362945556640625000000000,
-0.03252578526735305786132812500000000,
-0.13278220593929290771484375000000000,
0.01090252399444580078125000000000000,
0.02295760810375213623046875000000000,
-0.07346870750188827514648437500000000,
-0.04638097435235977172851562500000000,
0.01730546355247497558593750000000000,
0.03770008683204650878906250000000000,
-0.06841342151165008544921875000000000,
0.06249791383743286132812500000000000,
0.10691440105438232421875000000000000,
0.06175665557384490966796875000000000,
0.08679270744323730468750000000000000,
-0.06745623797178268432617187500000000,
0.06569196283817291259765625000000000,
-0.12499734014272689819335937500000000,
-0.04372784495353698730468750000000000,
-0.07581151276826858520507812500000000,
0.11033548414707183837890625000000000,
0.05374549329280853271484375000000000,
-0.11415373533964157104492187500000000,
-0.11669351905584335327148437500000000,
-0.04421627521514892578125000000000000,
0.09479628503322601318359375000000000,
0.04676665365695953369140625000000000,
0.02176670730113983154296875000000000,
-0.05434419959783554077148437500000000,
-0.08404365181922912597656250000000000,
-0.02230310440063476562500000000000000,
-0.13885682821273803710937500000000000,
0.09893730282783508300781250000000000,
0.11849926412105560302734375000000000,
0.00459730625152587890625000000000000,
0.00099867582321166992187500000000000,
-0.11159212887287139892578125000000000,
0.06126956641674041748046875000000000,
-0.06568156927824020385742187500000000,
-0.09357301890850067138671875000000000,
-0.07572988420724868774414062500000000,
0.02271093428134918212890625000000000,
0.12774874269962310791015625000000000,
0.10269129276275634765625000000000000,
0.08767448365688323974609375000000000,
0.06212234497070312500000000000000000,
-0.13320942223072052001953125000000000,
-0.09016484022140502929687500000000000,
-0.12831126153469085693359375000000000,
0.06646859645843505859375000000000000,
0.08870907127857208251953125000000000,
-0.08736637234687805175781250000000000,
-0.05270265042781829833984375000000000,
0.02333056926727294921875000000000000,
-0.04381171613931655883789062500000000,
-0.04999165982007980346679687500000000,
-0.10341899842023849487304687500000000,
0.10091000795364379882812500000000000,
0.07699654996395111083984375000000000,
0.02793906629085540771484375000000000,
0.12449924647808074951171875000000000,
-0.12424070388078689575195312500000000,
-0.05611271411180496215820312500000000,
-0.04941149801015853881835937500000000,
0.09963190555572509765625000000000000,
-0.13512201607227325439453125000000000,
-0.03119022399187088012695312500000000,
-0.12503644824028015136718750000000000,
0.02103756368160247802734375000000000,
-0.00308415293693542480468750000000000,
-0.04986523836851119995117187500000000,
0.01294787228107452392578125000000000,
-0.06831259280443191528320312500000000,
-0.08827023953199386596679687500000000,
0.02981503307819366455078125000000000,
-0.10641434043645858764648437500000000,
0.00481979548931121826171875000000000,
-0.04466192424297332763671875000000000,
0.01930795609951019287109375000000000,
0.02258314192295074462890625000000000,
0.13252393901348114013671875000000000,
-0.09421169757843017578125000000000000,
0.02593535184860229492187500000000000,
0.00406369566917419433593750000000000,
-0.01881930977106094360351562500000000,
0.08694192767143249511718750000000000,
0.07852424681186676025390625000000000,
-0.12676966190338134765625000000000000,
-0.06631537526845932006835937500000000,
-0.02342213690280914306640625000000000,
0.04235681891441345214843750000000000,
0.13658793270587921142578125000000000,
0.08105155825614929199218750000000000,
-0.13273800909519195556640625000000000,
0.09079501032829284667968750000000000,
-0.11130991578102111816406250000000000,
-0.10971131920814514160156250000000000,
-0.10858164727687835693359375000000000,
-0.04524823278188705444335937500000000,
-0.06245241314172744750976562500000000,
0.11458729207515716552734375000000000,
-0.01073127985000610351562500000000000,
-0.08474095165729522705078125000000000,
-0.05924303084611892700195312500000000,
-0.10694471746683120727539062500000000,
-0.06541651487350463867187500000000000,
-0.03583719581365585327148437500000000,
0.10929791629314422607421875000000000,
0.05250965058803558349609375000000000,
0.06374759972095489501953125000000000,
-0.08797299861907958984375000000000000,
-0.00430922210216522216796875000000000,
0.07288478314876556396484375000000000,
0.08941319584846496582031250000000000,
0.02771882712841033935546875000000000,
-0.02125472575426101684570312500000000,
-0.03051301836967468261718750000000000,
0.07602837681770324707031250000000000,
0.02320352196693420410156250000000000,
-0.11801129579544067382812500000000000,
-0.07353959232568740844726562500000000,
0.06784172356128692626953125000000000,
0.12919481098651885986328125000000000,
-0.04404315352439880371093750000000000,
0.05510756373405456542968750000000000,
-0.04004793614149093627929687500000000,
-0.06807813793420791625976562500000000,
0.09395858645439147949218750000000000,
0.01245191693305969238281250000000000,
-0.08494926989078521728515625000000000,
-0.04271273314952850341796875000000000,
-0.11942114681005477905273437500000000,
-0.03480953723192214965820312500000000,
-0.02715008705854415893554687500000000,
0.03271836042404174804687500000000000,
0.12488512694835662841796875000000000,
-0.02158058434724807739257812500000000,
-0.12135526537895202636718750000000000,
0.04777532815933227539062500000000000,
0.00378938019275665283203125000000000,
0.13368634879589080810546875000000000,
0.09540754556655883789062500000000000,
-0.13127130270004272460937500000000000,
-0.08797927200794219970703125000000000,
-0.01535324752330780029296875000000000,
-0.08440320193767547607421875000000000,
-0.07280468940734863281250000000000000,
-0.05569735169410705566406250000000000,
0.01317645609378814697265625000000000,
0.03316348791122436523437500000000000,
0.07072436809539794921875000000000000,
0.04604178667068481445312500000000000,
-0.11647891998291015625000000000000000,
-0.03700654953718185424804687500000000,
-0.06334248185157775878906250000000000,
-0.07617962360382080078125000000000000,
-0.05007553100585937500000000000000000,
0.09616734087467193603515625000000000,
-0.02433834224939346313476562500000000,
0.14088366925716400146484375000000000,
0.02499580383300781250000000000000000,
0.07994161546230316162109375000000000,
-0.06168420612812042236328125000000000,
-0.04944749176502227783203125000000000,
0.06353959441184997558593750000000000,
-0.09098965674638748168945312500000000,
0.10896424949169158935546875000000000,
0.05976435542106628417968750000000000,
-0.06232168525457382202148437500000000,
-0.09105801582336425781250000000000000,
0.02761073410511016845703125000000000,
-0.10512492060661315917968750000000000,
-0.09971819818019866943359375000000000,
-0.02515843510627746582031250000000000,
-0.08916991949081420898437500000000000,
0.00742541253566741943359375000000000,
-0.02392167598009109497070312500000000,
-0.01008133590221405029296875000000000,
0.10188946127891540527343750000000000,
0.01381121575832366943359375000000000,
0.06298848986625671386718750000000000,
0.09556597471237182617187500000000000,
0.06045942008495330810546875000000000,
-0.05955296009778976440429687500000000,
-0.02533787488937377929687500000000000,
0.06752568483352661132812500000000000,
0.11537210643291473388671875000000000,
-0.12735033035278320312500000000000000,
0.06116171181201934814453125000000000,
0.10671055316925048828125000000000000,
0.03672367334365844726562500000000000,
-0.10100243240594863891601562500000000,
-0.00635100901126861572265625000000000,
0.11800362169742584228515625000000000,
-0.12097762525081634521484375000000000,
-0.07294023036956787109375000000000000,
0.11427842080593109130859375000000000,
-0.09384313225746154785156250000000000,
-0.02510768920183181762695312500000000,
-0.04208619147539138793945312500000000,
0.07805876433849334716796875000000000,
0.05900375545024871826171875000000000,
0.07778671383857727050781250000000000,
0.06851921975612640380859375000000000,
-0.11758120357990264892578125000000000,
0.10841985046863555908203125000000000,
0.09066918492317199707031250000000000,
-0.09263902902603149414062500000000000,
0.01377104222774505615234375000000000,
0.09722453355789184570312500000000000,
0.09179072082042694091796875000000000,
-0.04498766362667083740234375000000000,
0.03104668855667114257812500000000000,
-0.10987207293510437011718750000000000,
-0.08576570451259613037109375000000000,
-0.02279030531644821166992187500000000,
-0.13120377063751220703125000000000000,
0.04388453066349029541015625000000000,
-0.10246030986309051513671875000000000,
0.01116096973419189453125000000000000,
-0.01344417035579681396484375000000000,
0.08950883150100708007812500000000000,
0.08700600266456604003906250000000000,
0.04575444757938385009765625000000000,
0.09825959801673889160156250000000000,
0.13286720216274261474609375000000000,
-0.05396919697523117065429687500000000,
-0.03352274745702743530273437500000000,
-0.01340495049953460693359375000000000,
-0.08420745283365249633789062500000000,
0.09429912269115447998046875000000000,
0.08346503973007202148437500000000000,
0.01834416389465332031250000000000000,
0.09796255826950073242187500000000000,
-0.09259550273418426513671875000000000,
-0.03148286789655685424804687500000000,
-0.10654588788747787475585937500000000,
0.09270943701267242431640625000000000,
-0.00252813100814819335937500000000000,
-0.09650906920433044433593750000000000,
0.08378437161445617675781250000000000,
0.03083866834640502929687500000000000,
-0.03624268621206283569335937500000000,
-0.11499579250812530517578125000000000,
-0.05088385939598083496093750000000000,
-0.03283436596393585205078125000000000,
-0.09267463535070419311523437500000000,
0.02403506636619567871093750000000000,
-0.08912202715873718261718750000000000,
0.04153957962989807128906250000000000,
0.08377908170223236083984375000000000,
0.11859469115734100341796875000000000,
-0.11027755588293075561523437500000000,
-0.01120483875274658203125000000000000,
-0.05407118797302246093750000000000000,
-0.13068921864032745361328125000000000,
-0.09022986888885498046875000000000000,
0.05978251993656158447265625000000000,
0.10413001477718353271484375000000000,
-0.08239950239658355712890625000000000,
0.11575372517108917236328125000000000,
-0.10190053284168243408203125000000000,
0.10136996209621429443359375000000000,
-0.06001436710357666015625000000000000,
0.02011108398437500000000000000000000,
-0.09391836822032928466796875000000000,
0.11094735562801361083984375000000000,
0.01720006763935089111328125000000000,
0.06408947706222534179687500000000000,
-0.02937693148851394653320312500000000,
0.12166939675807952880859375000000000,
0.06424972414970397949218750000000000,
-0.00397770106792449951171875000000000,
0.09505444765090942382812500000000000,
0.00697948038578033447265625000000000,
0.11090068519115447998046875000000000,
0.09490038454532623291015625000000000,
-0.11273839324712753295898437500000000,
-0.11337277293205261230468750000000000,
0.03325358033180236816406250000000000,
-0.11151262372732162475585937500000000,
-0.08943551778793334960937500000000000,
0.06847150623798370361328125000000000,
0.04229789972305297851562500000000000,
-0.10830976814031600952148437500000000,
0.13955061137676239013671875000000000,
-0.10332487523555755615234375000000000,
-0.01924568414688110351562500000000000,
0.01342952251434326171875000000000000,
-0.04271841049194335937500000000000000,
0.13067208230495452880859375000000000,
-0.00026614964008331298828125000000000,
-0.11406472325325012207031250000000000,
-0.06652650982141494750976562500000000,
-0.01551604270935058593750000000000000,
0.05080837011337280273437500000000000,
-0.10936522483825683593750000000000000,
0.02078165113925933837890625000000000,
-0.04165954887866973876953125000000000,
0.07566311955451965332031250000000000,
0.09475304186344146728515625000000000,
0.10220439732074737548828125000000000,
-0.06039007753133773803710937500000000,
-0.04497727751731872558593750000000000,
-0.01112470030784606933593750000000000,
0.01930838823318481445312500000000000,
-0.02792020142078399658203125000000000,
-0.05033206939697265625000000000000000,
-0.13711242377758026123046875000000000,
0.01321360468864440917968750000000000,
-0.00562134385108947753906250000000000,
-0.01088030636310577392578125000000000,
0.09764055907726287841796875000000000,
-0.11927427351474761962890625000000000,
0.12733034789562225341796875000000000,
0.06585478782653808593750000000000000,
-0.01671878248453140258789062500000000,
-0.01274055242538452148437500000000000,
0.06801511347293853759765625000000000,
-0.09167285263538360595703125000000000,
-0.07188772410154342651367187500000000,
-0.00040483474731445312500000000000000,
-0.14109812676906585693359375000000000,
0.08393459022045135498046875000000000,
-0.00831821560859680175781250000000000,
0.07724735140800476074218750000000000,
-0.00732135772705078125000000000000000,
0.02106626331806182861328125000000000,
-0.08070430159568786621093750000000000,
-0.11204992979764938354492187500000000,
-0.01089076697826385498046875000000000,
-0.01491869986057281494140625000000000,
0.08553576469421386718750000000000000,
0.08523902297019958496093750000000000,
0.05277168750762939453125000000000000,
-0.03029965609312057495117187500000000,
-0.05936881154775619506835937500000000,
-0.05746763199567794799804687500000000,
-0.02700641751289367675781250000000000,
-0.00989043712615966796875000000000000,
-0.03775352984666824340820312500000000,
0.14111195504665374755859375000000000,
0.05375777184963226318359375000000000,
-0.04937662184238433837890625000000000,
0.10996980965137481689453125000000000,
-0.05355527997016906738281250000000000,
0.02633707225322723388671875000000000,
0.04618057608604431152343750000000000,
0.09984923899173736572265625000000000,
-0.12077479809522628784179687500000000,
0.09754668176174163818359375000000000,
-0.07198806852102279663085937500000000,
-0.03645121306180953979492187500000000,
0.05086870491504669189453125000000000,
0.07803727686405181884765625000000000,
0.06026253104209899902343750000000000,
0.02912952005863189697265625000000000,
0.00656442344188690185546875000000000,
-0.11401636898517608642578125000000000,
-0.06705506891012191772460937500000000,
0.02235960960388183593750000000000000,
0.07230187952518463134765625000000000,
0.13419865071773529052734375000000000,
0.03137341141700744628906250000000000,
-0.05920048058032989501953125000000000,
-0.01573538780212402343750000000000000,
-0.09125005453824996948242187500000000,
0.12066815793514251708984375000000000,
-0.07731293141841888427734375000000000,
-0.10508201271295547485351562500000000,
0.13656549155712127685546875000000000,
-0.03152390569448471069335937500000000,
0.04925815761089324951171875000000000,
-0.06070292741060256958007812500000000,
0.00526562333106994628906250000000000,
0.13472913205623626708984375000000000,
0.09940917789936065673828125000000000,
0.05631065368652343750000000000000000,
0.01870003342628479003906250000000000,
0.13110516965389251708984375000000000,
0.03169482946395874023437500000000000,
-0.06101647019386291503906250000000000,
-0.07037020474672317504882812500000000,
-0.13089518249034881591796875000000000,
-0.05623628944158554077148437500000000,
-0.03347872942686080932617187500000000,
0.08867092430591583251953125000000000,
0.08457669615745544433593750000000000,
-0.04661635309457778930664062500000000,
0.03921575844287872314453125000000000,
-0.13938014209270477294921875000000000,
0.04069247841835021972656250000000000,
-0.06017789989709854125976562500000000,
-0.10346837341785430908203125000000000,
0.05893442034721374511718750000000000,
-0.08103416860103607177734375000000000,
-0.01468011736869812011718750000000000,
0.03520525991916656494140625000000000,
-0.10467319190502166748046875000000000,
0.13322483003139495849609375000000000,
-0.08368782699108123779296875000000000,
0.08027420938014984130859375000000000,
0.01662144064903259277343750000000000,
0.10501393675804138183593750000000000,
-0.07153456658124923706054687500000000,
0.01593905687332153320312500000000000,
0.03723596036434173583984375000000000,
0.05320510268211364746093750000000000,
-0.03914619982242584228515625000000000,
-0.11372464150190353393554687500000000,
0.06302058696746826171875000000000000,
0.06187446415424346923828125000000000,
-0.04639240354299545288085937500000000,
-0.01696466654539108276367187500000000,
0.03684034943580627441406250000000000,
0.11447627842426300048828125000000000,
0.09983311593532562255859375000000000,
-0.04092956334352493286132812500000000,
0.06022222340106964111328125000000000,
0.01246137917041778564453125000000000,
-0.04876616597175598144531250000000000,
0.12889529764652252197265625000000000,
-0.14095529913902282714843750000000000,
0.09639315307140350341796875000000000,
-0.11721090972423553466796875000000000,
-0.12046987563371658325195312500000000,
-0.10414999723434448242187500000000000,
-0.06219595670700073242187500000000000,
-0.02919615060091018676757812500000000,
0.02255070209503173828125000000000000,
-0.07897153496742248535156250000000000,
-0.03911443799734115600585937500000000,
0.07532529532909393310546875000000000,
0.06105177104473114013671875000000000,
0.13384340703487396240234375000000000,
0.09257572889328002929687500000000000,
-0.04802055656909942626953125000000000,
0.10635998845100402832031250000000000,
0.05049036443233489990234375000000000,
-0.04245360940694808959960937500000000,
0.04296533763408660888671875000000000,
0.03277394175529479980468750000000000,
-0.13977266848087310791015625000000000,
-0.05290903151035308837890625000000000,
-0.08350235223770141601562500000000000,
-0.12676979601383209228515625000000000,
-0.12142351269721984863281250000000000,
-0.07293666154146194458007812500000000,
-0.05332365632057189941406250000000000,
-0.02569369971752166748046875000000000,
-0.01022496819496154785156250000000000,
-0.09192526340484619140625000000000000,
-0.00638101994991302490234375000000000,
0.07215808331966400146484375000000000,
0.02925857901573181152343750000000000,
0.11362440884113311767578125000000000,
-0.13914865255355834960937500000000000,
-0.02604405581951141357421875000000000,
-0.11276257038116455078125000000000000,
0.13567857444286346435546875000000000,
-0.03995809704065322875976562500000000,
-0.09433774650096893310546875000000000,
-0.11287140846252441406250000000000000,
-0.07636382430791854858398437500000000,
0.08003292977809906005859375000000000,
0.09250178933143615722656250000000000,
0.11694969236850738525390625000000000,
0.08115772902965545654296875000000000,
0.02566874027252197265625000000000000,
-0.07900650799274444580078125000000000,
0.13190881907939910888671875000000000,
0.09069538116455078125000000000000000,
0.07720609009265899658203125000000000,
0.11166433990001678466796875000000000,
-0.12536121904850006103515625000000000,
0.10779137909412384033203125000000000,
-0.08688805997371673583984375000000000,
-0.05988885462284088134765625000000000,
0.10676094889640808105468750000000000,
0.01017725467681884765625000000000000,
0.11650039255619049072265625000000000,
-0.13355116546154022216796875000000000,
0.01146127283573150634765625000000000,
-0.06305495649576187133789062500000000,
-0.06853750348091125488281250000000000,
0.09068775177001953125000000000000000,
-0.09052862226963043212890625000000000,
-0.10244845598936080932617187500000000,
0.12065918743610382080078125000000000,
-0.11183452606201171875000000000000000,
0.04392704367637634277343750000000000,
0.10007698833942413330078125000000000,
-0.06567229330539703369140625000000000,
-0.13725104928016662597656250000000000,
-0.09459292888641357421875000000000000,
0.06487333774566650390625000000000000,
-0.07396397739648818969726562500000000,
-0.00048278272151947021484375000000000,
0.08956265449523925781250000000000000,
-0.00861729681491851806640625000000000,
0.09070555865764617919921875000000000,
0.12599761784076690673828125000000000,
0.04113709926605224609375000000000000,
-0.02117402106523513793945312500000000,
0.08059184253215789794921875000000000,
0.04477979242801666259765625000000000,
-0.02426727861166000366210937500000000,
0.02627612650394439697265625000000000,
0.05139261484146118164062500000000000,
0.00633570551872253417968750000000000,
-0.13684223592281341552734375000000000,
0.01422615349292755126953125000000000,
0.06314969062805175781250000000000000,
-0.09910498559474945068359375000000000,
-0.08754472434520721435546875000000000,
0.06763856112957000732421875000000000,
0.03208732604980468750000000000000000,
-0.04599492251873016357421875000000000,
0.00888931751251220703125000000000000,
0.04280164837837219238281250000000000,
0.14101462066173553466796875000000000,
0.06334929168224334716796875000000000,
0.05980545282363891601562500000000000,
0.01432760059833526611328125000000000,
-0.13062000274658203125000000000000000,
-0.11626596748828887939453125000000000,
0.09616431593894958496093750000000000,
0.08096230030059814453125000000000000,
-0.02598676830530166625976562500000000,
0.06120756268501281738281250000000000,
-0.11925382167100906372070312500000000,
-0.11825150251388549804687500000000000,
-0.04773737490177154541015625000000000,
-0.13188864290714263916015625000000000,
0.12232609093189239501953125000000000,
-0.04394196718931198120117187500000000,
0.07420207560062408447265625000000000,
0.00532595813274383544921875000000000,
-0.06518518179655075073242187500000000,
0.05711224675178527832031250000000000,
-0.07624164968729019165039062500000000,
0.03893984854221343994140625000000000,
-0.01563820242881774902343750000000000,
-0.09434112161397933959960937500000000,
-0.13253790140151977539062500000000000,
-0.00457634031772613525390625000000000,
-0.03709032386541366577148437500000000,
0.11404128372669219970703125000000000,
0.04997666180133819580078125000000000,
-0.07935710251331329345703125000000000,
-0.05673989653587341308593750000000000,
-0.10843084752559661865234375000000000,
0.04233807325363159179687500000000000,
-0.12582302093505859375000000000000000,
-0.05202171951532363891601562500000000,
0.10853751003742218017578125000000000,
-0.04176395386457443237304687500000000,
0.10494884848594665527343750000000000,
-0.07560934126377105712890625000000000,
-0.10118688642978668212890625000000000,
0.03271503746509552001953125000000000,
-0.06849148124456405639648437500000000,
0.11043332517147064208984375000000000,
0.04595202207565307617187500000000000,
-0.02449914067983627319335937500000000,
0.02138379216194152832031250000000000,
0.06392529606819152832031250000000000,
-0.03723379224538803100585937500000000,
0.00872488319873809814453125000000000,
0.00513003766536712646484375000000000,
0.07256360352039337158203125000000000,
0.08693246543407440185546875000000000,
-0.11024093627929687500000000000000000,
-0.10280442982912063598632812500000000,
0.03643813729286193847656250000000000,
-0.04450430721044540405273437500000000,
-0.09539263695478439331054687500000000,
0.11091457307338714599609375000000000,
0.12197287380695343017578125000000000,
-0.09479339420795440673828125000000000,
0.04592457413673400878906250000000000,
0.08466914296150207519531250000000000,
0.11040474474430084228515625000000000,
0.04209874570369720458984375000000000,
0.06380285322666168212890625000000000,
0.01113510131835937500000000000000000,
-0.02032450586557388305664062500000000,
0.06448182463645935058593750000000000,
-0.10452207922935485839843750000000000,
0.12890045344829559326171875000000000,
0.09500433504581451416015625000000000,
0.13446800410747528076171875000000000,
-0.12483301758766174316406250000000000,
0.05420207977294921875000000000000000,
0.07281242311000823974609375000000000,
-0.10304553806781768798828125000000000,
0.07272376120090484619140625000000000,
-0.03244967013597488403320312500000000,
0.00556188821792602539062500000000000,
0.02670174837112426757812500000000000,
-0.03455112874507904052734375000000000,
0.05375505983829498291015625000000000,
0.04023152589797973632812500000000000,
-0.04997665435075759887695312500000000,
-0.13377295434474945068359375000000000,
0.06277909874916076660156250000000000,
-0.12906418740749359130859375000000000,
0.02727280557155609130859375000000000,
-0.04548179358243942260742187500000000,
-0.06316415220499038696289062500000000,
-0.05550264567136764526367187500000000,
0.07508455216884613037109375000000000,
-0.08534536510705947875976562500000000,
0.14138604700565338134765625000000000,
0.04365560412406921386718750000000000,
0.13246689736843109130859375000000000,
0.07183645665645599365234375000000000,
-0.02565920352935791015625000000000000,
-0.02092465013265609741210937500000000,
-0.04144488275051116943359375000000000,
-0.12605319917201995849609375000000000,
0.09785768389701843261718750000000000,
0.04101645946502685546875000000000000,
-0.13783104717731475830078125000000000,
0.09209659695625305175781250000000000,
0.13777081668376922607421875000000000,
-0.01978204399347305297851562500000000,
0.08777903020381927490234375000000000,
-0.00478617846965789794921875000000000,
-0.07035349309444427490234375000000000,
-0.08588334918022155761718750000000000,
-0.00811223685741424560546875000000000,
0.05013035237789154052734375000000000,
0.04291042685508728027343750000000000,
-0.13112510740756988525390625000000000,
0.07613769173622131347656250000000000,
-0.10885919630527496337890625000000000,
0.07034973800182342529296875000000000,
-0.03183179348707199096679687500000000,
0.09255874156951904296875000000000000,
-0.00499564409255981445312500000000000,
0.11333550512790679931640625000000000,
0.06672306358814239501953125000000000,
-0.10587334632873535156250000000000000,
-0.00502982735633850097656250000000000,
0.05781026184558868408203125000000000,
0.07697086036205291748046875000000000,
-0.05393942445516586303710937500000000,
0.03193151950836181640625000000000000,
0.09935246407985687255859375000000000,
0.10791222751140594482421875000000000,
-0.02711032330989837646484375000000000,
-0.12803812325000762939453125000000000,
0.13111849129199981689453125000000000,
0.01103477180004119873046875000000000,
0.02812533080577850341796875000000000,
-0.07563287764787673950195312500000000,
0.11106793582439422607421875000000000,
-0.02010453492403030395507812500000000,
0.08171704411506652832031250000000000,
0.02440635859966278076171875000000000,
0.10784041881561279296875000000000000,
-0.07335866987705230712890625000000000,
-0.03653723746538162231445312500000000,
-0.04993115365505218505859375000000000,
-0.11315158009529113769531250000000000,
0.06591267883777618408203125000000000,
0.05663332343101501464843750000000000,
-0.00321094691753387451171875000000000,
0.08186616003513336181640625000000000,
-0.10045135021209716796875000000000000,
0.12686179578304290771484375000000000,
-0.03644997626543045043945312500000000,
-0.06351363658905029296875000000000000,
-0.09774459898471832275390625000000000,
0.12591852247714996337890625000000000,
-0.04469176381826400756835937500000000,
0.10327021777629852294921875000000000,
0.07568499445915222167968750000000000,
0.09031240642070770263671875000000000,
-0.00163568556308746337890625000000000,
0.02195025980472564697265625000000000,
-0.04585792869329452514648437500000000,
0.13403616845607757568359375000000000,
-0.00800281763076782226562500000000000,
-0.08724211156368255615234375000000000,
0.03677383065223693847656250000000000,
0.02737092971801757812500000000000000,
0.08543384075164794921875000000000000,
0.06730735301971435546875000000000000,
0.02059282362461090087890625000000000,
-0.11159292608499526977539062500000000,
0.10852132737636566162109375000000000,
-0.04992415755987167358398437500000000,
0.08159242570400238037109375000000000,
0.11997000873088836669921875000000000,
-0.03042478114366531372070312500000000,
0.09001420438289642333984375000000000,
-0.03420007973909378051757812500000000,
0.05433966219425201416015625000000000,
-0.08680579066276550292968750000000000,
0.04364323616027832031250000000000000,
-0.00050017237663269042968750000000000,
-0.04939325898885726928710937500000000,
0.04910975694656372070312500000000000,
0.06400232017040252685546875000000000,
-0.02010753750801086425781250000000000,
-0.03141914308071136474609375000000000,
0.08176824450492858886718750000000000,
0.11926700174808502197265625000000000,
0.11597873270511627197265625000000000,
0.06406164169311523437500000000000000,
0.09130559861660003662109375000000000,
0.06375861167907714843750000000000000,
-0.00628069043159484863281250000000000,
-0.06816460937261581420898437500000000,
0.04108774662017822265625000000000000,
0.05087231099605560302734375000000000,
-0.01044686138629913330078125000000000,
-0.05438162386417388916015625000000000,
-0.10989130288362503051757812500000000,
0.02922984957695007324218750000000000,
-0.06731524318456649780273437500000000,
-0.09637591987848281860351562500000000,
0.06651981174945831298828125000000000,
0.04530242085456848144531250000000000,
0.00716181099414825439453125000000000,
0.10366524755954742431640625000000000,
0.06467974185943603515625000000000000,
-0.09923934936523437500000000000000000,
0.05528505146503448486328125000000000,
-0.04160284996032714843750000000000000,
-0.01747807860374450683593750000000000,
-0.06406221538782119750976562500000000,
0.12914760410785675048828125000000000,
0.09692354500293731689453125000000000,
-0.11530235409736633300781250000000000,
0.03409022092819213867187500000000000,
-0.08813492953777313232421875000000000,
-0.10383202135562896728515625000000000,
0.03283067047595977783203125000000000,
0.01278194785118103027343750000000000,
0.05586069822311401367187500000000000,
-0.12561622262001037597656250000000000,
-0.02203204482793807983398437500000000,
-0.02158588171005249023437500000000000,
0.00076884031295776367187500000000000,
0.11816735565662384033203125000000000,
-0.03903788328170776367187500000000000,
-0.10048070549964904785156250000000000,
0.02419620752334594726562500000000000,
0.07769499719142913818359375000000000,
-0.06802410632371902465820312500000000,
-0.04570660740137100219726562500000000,
0.01173982024192810058593750000000000,
-0.09382912516593933105468750000000000,
0.13133822381496429443359375000000000,
-0.10403088480234146118164062500000000,
-0.09832344204187393188476562500000000,
-0.09705922007560729980468750000000000,
0.01688235998153686523437500000000000,
-0.04158601164817810058593750000000000,
-0.14072294533252716064453125000000000,
0.05952166020870208740234375000000000,
0.10505598783493041992187500000000000,
0.05327180027961730957031250000000000,
0.01662963628768920898437500000000000,
0.05131953954696655273437500000000000,
-0.11003018915653228759765625000000000,
0.12234766781330108642578125000000000,
-0.06456344574689865112304687500000000,
-0.13380655646324157714843750000000000,
0.03587743639945983886718750000000000,
0.04918658733367919921875000000000000,
-0.11522240936756134033203125000000000,
-0.08930300176143646240234375000000000,
-0.02380026131868362426757812500000000,
-0.08067514002323150634765625000000000,
-0.10297846049070358276367187500000000,
0.10376060009002685546875000000000000,
-0.10776609182357788085937500000000000,
-0.12789741158485412597656250000000000,
0.01702517271041870117187500000000000,
0.00340057909488677978515625000000000,
0.01673108339309692382812500000000000,
0.03263109922409057617187500000000000,
0.01197536289691925048828125000000000,
0.00995391607284545898437500000000000,
0.04412965476512908935546875000000000,
-0.10972350835800170898437500000000000,
-0.07665615528821945190429687500000000,
0.10522402822971343994140625000000000,
0.08322967588901519775390625000000000,
0.13129447400569915771484375000000000,
0.00322709977626800537109375000000000,
-0.02275554090738296508789062500000000,
0.09833098948001861572265625000000000,
0.06619070470333099365234375000000000,
-0.07939553260803222656250000000000000,
0.10359381139278411865234375000000000,
0.08510364592075347900390625000000000,
-0.13201136887073516845703125000000000,
-0.04206366837024688720703125000000000,
-0.05285162478685379028320312500000000,
-0.04700670391321182250976562500000000,
-0.10060269385576248168945312500000000,
0.07998533546924591064453125000000000,
-0.02094959467649459838867187500000000,
0.09100881218910217285156250000000000,
-0.00572618842124938964843750000000000,
0.06894694268703460693359375000000000,
-0.06627293676137924194335937500000000,
0.05450671911239624023437500000000000,
0.06593994796276092529296875000000000,
-0.01144829392433166503906250000000000,
0.09445518255233764648437500000000000,
0.08612972497940063476562500000000000,
0.09447209537029266357421875000000000,
-0.01669797301292419433593750000000000,
0.02148272097110748291015625000000000,
-0.11211246252059936523437500000000000,
-0.00010304152965545654296875000000000,
-0.13870170712471008300781250000000000,
-0.05498309433460235595703125000000000,
0.09652855992317199707031250000000000,
-0.01655305922031402587890625000000000,
0.13227589428424835205078125000000000,
0.12021790444850921630859375000000000,
-0.06036150455474853515625000000000000,
-0.11004793643951416015625000000000000,
-0.13184905052185058593750000000000000,
-0.10977084934711456298828125000000000,
0.06363953649997711181640625000000000,
-0.06387933343648910522460937500000000,
0.04995378851890563964843750000000000,
0.04863770306110382080078125000000000,
0.11106844246387481689453125000000000,
-0.12742875516414642333984375000000000,
0.04407709836959838867187500000000000,
0.06726022064685821533203125000000000,
0.02870015799999237060546875000000000,
-0.03162227571010589599609375000000000,
0.07778063416481018066406250000000000,
-0.05419501662254333496093750000000000,
0.11714343726634979248046875000000000,
-0.01409853994846343994140625000000000,
-0.09969882667064666748046875000000000,
-0.01377400755882263183593750000000000,
-0.00740674138069152832031250000000000,
0.13651104271411895751953125000000000,
-0.03612855076789855957031250000000000,
-0.07693459093570709228515625000000000,
0.08485142886638641357421875000000000,
0.07145297527313232421875000000000000,
-0.07510200887918472290039062500000000,
-0.01296892762184143066406250000000000,
-0.00838182866573333740234375000000000,
-0.10024511814117431640625000000000000,
-0.04875294864177703857421875000000000,
-0.03810712695121765136718750000000000,
-0.07677979767322540283203125000000000,
-0.04962516576051712036132812500000000,
0.04900503158569335937500000000000000,
0.06401090323925018310546875000000000,
0.07290259003639221191406250000000000,
-0.04331384599208831787109375000000000,
-0.09747676551342010498046875000000000,
-0.01165437698364257812500000000000000,
-0.10054898262023925781250000000000000,
-0.06852332502603530883789062500000000,
0.05126716196537017822265625000000000,
0.03028754889965057373046875000000000,
0.06688269972801208496093750000000000,
0.05986995995044708251953125000000000,
0.06497550010681152343750000000000000,
-0.11052981019020080566406250000000000,
-0.04814705997705459594726562500000000,
0.10995997488498687744140625000000000,
-0.07313878089189529418945312500000000,
0.13565780222415924072265625000000000,
0.06187711656093597412109375000000000,
-0.00413583219051361083984375000000000,
0.04599761962890625000000000000000000,
-0.06472898274660110473632812500000000,
-0.07147431373596191406250000000000000,
0.03708216547966003417968750000000000,
-0.04272992908954620361328125000000000,
-0.04760821908712387084960937500000000,
0.07424727082252502441406250000000000,
-0.07141731679439544677734375000000000,
0.02222302556037902832031250000000000,
0.05481523275375366210937500000000000,
-0.01045246422290802001953125000000000,
0.06122203171253204345703125000000000,
-0.06824677437543869018554687500000000,
0.00649785995483398437500000000000000,
-0.07957104593515396118164062500000000,
-0.11595749855041503906250000000000000,
0.07762938737869262695312500000000000,
0.11468969285488128662109375000000000,
0.09663775563240051269531250000000000,
0.01446633040904998779296875000000000,
-0.07992485910654067993164062500000000,
0.09916073083877563476562500000000000,
-0.03811112046241760253906250000000000,
-0.05942881107330322265625000000000000,
0.03210359811782836914062500000000000,
-0.12163220345973968505859375000000000,
-0.03990714997053146362304687500000000,
0.01445108652114868164062500000000000,
0.10108074545860290527343750000000000,
-0.12612959742546081542968750000000000,
0.09378418326377868652343750000000000,
-0.00367601215839385986328125000000000,
0.13587249815464019775390625000000000,
0.12418369948863983154296875000000000,
0.10179819166660308837890625000000000,
-0.07072272151708602905273437500000000,
0.12798951566219329833984375000000000,
0.12519599497318267822265625000000000,
-0.08222144097089767456054687500000000,
-0.08357451856136322021484375000000000,
0.01845602691173553466796875000000000,
-0.04183749109506607055664062500000000,
-0.09656667709350585937500000000000000,
-0.12255481630563735961914062500000000,
-0.12213039398193359375000000000000000,
0.07384099066257476806640625000000000,
-0.03796397894620895385742187500000000,
0.05386815965175628662109375000000000,
0.00755335390567779541015625000000000,
0.09182514250278472900390625000000000,
0.06859268248081207275390625000000000,
-0.03793245553970336914062500000000000,
-0.07483817636966705322265625000000000,
0.07457622885704040527343750000000000,
0.02657811343669891357421875000000000,
-0.02212405949831008911132812500000000,
0.11466000974178314208984375000000000,
0.03197918832302093505859375000000000,
0.00434425473213195800781250000000000,
-0.00133095681667327880859375000000000,
-0.05696412920951843261718750000000000,
-0.11461918801069259643554687500000000,
0.06482887268066406250000000000000000,
0.09997627139091491699218750000000000,
-0.11204121261835098266601562500000000,
-0.04447620362043380737304687500000000,
-0.06624867767095565795898437500000000,
-0.04305344820022583007812500000000000,
-0.09834624826908111572265625000000000,
-0.06514443457126617431640625000000000,
0.14079771935939788818359375000000000,
0.07235644757747650146484375000000000,
-0.03825831413269042968750000000000000,
-0.04452669620513916015625000000000000,
0.02101217210292816162109375000000000,
-0.05091455578804016113281250000000000,
0.10675522685050964355468750000000000,
0.09297238290309906005859375000000000,
-0.02252374589443206787109375000000000,
-0.05710606276988983154296875000000000,
0.00216701626777648925781250000000000,
-0.06535267084836959838867187500000000,
0.08772294223308563232421875000000000,
0.03267081081867218017578125000000000,
-0.11289423704147338867187500000000000,
0.04919454455375671386718750000000000,
0.13825531303882598876953125000000000,
0.12742678821086883544921875000000000,
0.10893090069293975830078125000000000,
-0.12171157449483871459960937500000000,
-0.03136293590068817138671875000000000,
-0.03469115495681762695312500000000000,
0.12411113083362579345703125000000000,
0.02515012025833129882812500000000000,
-0.14028799533843994140625000000000000,
-0.11827409267425537109375000000000000,
-0.10742210596799850463867187500000000,
0.04414892196655273437500000000000000,
-0.05720631033182144165039062500000000,
0.00943118333816528320312500000000000,
-0.01776231825351715087890625000000000,
0.06085413694381713867187500000000000,
0.08712919056415557861328125000000000,
-0.03356839716434478759765625000000000,
0.09961187839508056640625000000000000,
0.10605120658874511718750000000000000,
-0.05330228060483932495117187500000000,
-0.08531974256038665771484375000000000,
0.12457837164402008056640625000000000,
-0.05008785426616668701171875000000000,
0.02662268280982971191406250000000000,
-0.10833451896905899047851562500000000,
0.09241355955600738525390625000000000,
0.05734734237194061279296875000000000,
-0.09760011732578277587890625000000000,
0.13746438920497894287109375000000000,
-0.07131271064281463623046875000000000,
-0.07186545431613922119140625000000000,
-0.11775256693363189697265625000000000,
-0.13374869525432586669921875000000000,
0.08521586656570434570312500000000000,
-0.03400713205337524414062500000000000,
-0.08240537345409393310546875000000000,
0.05275082588195800781250000000000000,
0.10217922925949096679687500000000000,
0.07609651982784271240234375000000000,
0.08335091173648834228515625000000000,
0.12782107293605804443359375000000000,
-0.06963969767093658447265625000000000,
0.00714026391506195068359375000000000,
-0.13517449796199798583984375000000000,
-0.06464733183383941650390625000000000,
0.12398119270801544189453125000000000,
0.04388374090194702148437500000000000,
-0.05061553418636322021484375000000000,
-0.09369125217199325561523437500000000,
0.10934998095035552978515625000000000,
-0.01338137686252593994140625000000000,
-0.10133606195449829101562500000000000,
0.07776902616024017333984375000000000,
-0.09922956675291061401367187500000000,
-0.11889944970607757568359375000000000,
-0.01576662063598632812500000000000000,
-0.08715904504060745239257812500000000,
-0.12227374315261840820312500000000000,
0.07994942367076873779296875000000000,
-0.12333859503269195556640625000000000,
0.04536184668540954589843750000000000,
0.02290241420269012451171875000000000,
0.03605878353118896484375000000000000,
-0.13744983077049255371093750000000000,
-0.13278143107891082763671875000000000,
0.02230811119079589843750000000000000,
0.11903168261051177978515625000000000,
-0.00564453005790710449218750000000000,
-0.06363277882337570190429687500000000,
-0.03534033894538879394531250000000000,
0.12140808999538421630859375000000000,
-0.06115824729204177856445312500000000,
0.07203161716461181640625000000000000,
0.14097307622432708740234375000000000,
0.01759421825408935546875000000000000,
0.11660690605640411376953125000000000,
0.11752702295780181884765625000000000,
-0.00871665775775909423828125000000000,
-0.12101141363382339477539062500000000,
0.01041710376739501953125000000000000,
-0.07962674647569656372070312500000000,
-0.07885172963142395019531250000000000,
0.07790151238441467285156250000000000,
0.07287260890007019042968750000000000,
-0.13706196844577789306640625000000000,
0.04655811190605163574218750000000000,
0.13636855781078338623046875000000000,
0.07281357049942016601562500000000000,
0.12354002892971038818359375000000000,
-0.01209545135498046875000000000000000,
0.04556779563426971435546875000000000,
-0.13574454188346862792968750000000000,
-0.02007134258747100830078125000000000,
0.09375032782554626464843750000000000,
-0.01396419107913970947265625000000000,
0.06068342924118041992187500000000000,
-0.04490841180086135864257812500000000,
0.12149514257907867431640625000000000,
-0.12365270406007766723632812500000000,
0.08930382132530212402343750000000000,
-0.00010174512863159179687500000000000,
0.08270628750324249267578125000000000,
-0.10807949304580688476562500000000000,
0.12997244298458099365234375000000000,
-0.11871130764484405517578125000000000,
0.11912898719310760498046875000000000,
0.05085282027721405029296875000000000,
0.11493806540966033935546875000000000,
-0.11162161827087402343750000000000000,
0.11338160932064056396484375000000000,
-0.06398665904998779296875000000000000,
-0.09854099154472351074218750000000000,
-0.03364454954862594604492187500000000,
0.02994330227375030517578125000000000,
0.03353077173233032226562500000000000,
-0.09653323143720626831054687500000000,
-0.13459715247154235839843750000000000,
0.05374525487422943115234375000000000,
-0.00607545673847198486328125000000000,
0.13042153418064117431640625000000000,
-0.10870185494422912597656250000000000,
-0.12756299972534179687500000000000000,
0.09399405121803283691406250000000000,
0.03995013236999511718750000000000000,
0.06169617176055908203125000000000000,
-0.13230518996715545654296875000000000,
0.08475539088249206542968750000000000,
0.05884763598442077636718750000000000,
0.03995548188686370849609375000000000,
0.01413974165916442871093750000000000,
0.04478840529918670654296875000000000,
-0.04980781674385070800781250000000000,
0.08884285390377044677734375000000000,
0.09078128635883331298828125000000000,
0.00957916676998138427734375000000000,
0.07540789246559143066406250000000000,
0.10674174129962921142578125000000000,
0.04999122023582458496093750000000000,
-0.11138063669204711914062500000000000,
0.02907340228557586669921875000000000,
-0.07523388415575027465820312500000000,
0.13720862567424774169921875000000000,
0.09192989766597747802734375000000000,
0.10607551038265228271484375000000000,
-0.01013486087322235107421875000000000,
0.13815541565418243408203125000000000,
0.06792184710502624511718750000000000,
0.00736954808235168457031250000000000,
-0.07484123855829238891601562500000000,
0.08053192496299743652343750000000000,
0.09800566732883453369140625000000000,
0.00005808472633361816406250000000000,
0.12687151134014129638671875000000000,
-0.04011618345975875854492187500000000,
0.11901612579822540283203125000000000,
0.06372486054897308349609375000000000,
0.06532639265060424804687500000000000,
0.00013770163059234619140625000000000,
-0.10014399886131286621093750000000000,
-0.14060978591442108154296875000000000,
0.11836208403110504150390625000000000,
0.09673295915126800537109375000000000,
-0.09127436578273773193359375000000000,
-0.04990822821855545043945312500000000,
0.00288891792297363281250000000000000,
-0.10471988469362258911132812500000000,
0.08498373627662658691406250000000000,
-0.11018563807010650634765625000000000,
-0.01592338085174560546875000000000000,
-0.08338610827922821044921875000000000,
0.12880040705204010009765625000000000,
-0.07395210862159729003906250000000000,
0.05586890876293182373046875000000000,
0.04323378205299377441406250000000000,
0.00346562266349792480468750000000000,
0.02542677521705627441406250000000000,
0.02513197064399719238281250000000000,
0.01103350520133972167968750000000000,
-0.08020021021366119384765625000000000,
0.01083260774612426757812500000000000,
-0.08001188933849334716796875000000000,
0.14012314379215240478515625000000000,
-0.13307207822799682617187500000000000,
0.07421502470970153808593750000000000,
-0.00663629174232482910156250000000000,
-0.02609615027904510498046875000000000,
0.00681751966476440429687500000000000,
-0.13282237946987152099609375000000000,
0.03483462333679199218750000000000000,
0.02183315157890319824218750000000000,
-0.04175916314125061035156250000000000,
-0.13126745820045471191406250000000000,
-0.07161429524421691894531250000000000,
0.09392946958541870117187500000000000,
0.04647327959537506103515625000000000,
-0.11845564842224121093750000000000000,
0.02134209871292114257812500000000000,
-0.09351716935634613037109375000000000,
-0.09401205182075500488281250000000000,
-0.08257514238357543945312500000000000,
-0.04570312052965164184570312500000000,
-0.05539087206125259399414062500000000,
-0.10981555283069610595703125000000000,
-0.10347582399845123291015625000000000,
-0.04581553488969802856445312500000000,
-0.04051978141069412231445312500000000,
0.11678545176982879638671875000000000,
-0.03911008685827255249023437500000000,
-0.06213056296110153198242187500000000,
0.05257177352905273437500000000000000,
0.06058415770530700683593750000000000,
-0.05524558573961257934570312500000000,
0.02798919379711151123046875000000000,
0.08086632192134857177734375000000000,
0.11206351220607757568359375000000000,
-0.08236300945281982421875000000000000,
-0.09056070446968078613281250000000000,
-0.04836115241050720214843750000000000,
-0.07031328976154327392578125000000000,
0.13161809742450714111328125000000000,
-0.02261773496866226196289062500000000,
0.03016039729118347167968750000000000,
0.05001245439052581787109375000000000,
-0.12735071778297424316406250000000000,
0.07991084456443786621093750000000000,
-0.03264698386192321777343750000000000,
-0.04805209487676620483398437500000000,
-0.13708327710628509521484375000000000,
0.02447453141212463378906250000000000,
-0.13425749540328979492187500000000000,
-0.03911920636892318725585937500000000,
-0.01762960851192474365234375000000000,
0.03626592457294464111328125000000000,
0.07371938228607177734375000000000000,
-0.07246480137109756469726562500000000,
-0.05798321217298507690429687500000000,
0.03792485594749450683593750000000000,
0.03477989137172698974609375000000000,
-0.00798358023166656494140625000000000,
0.07573278248310089111328125000000000,
-0.03807620704174041748046875000000000,
-0.04589028656482696533203125000000000,
-0.01024791598320007324218750000000000,
-0.07880100607872009277343750000000000,
0.06095299124717712402343750000000000,
0.04535506665706634521484375000000000,
-0.07267362624406814575195312500000000,
0.10460872948169708251953125000000000,
0.04764939844608306884765625000000000,
0.08071824908256530761718750000000000,
-0.06515073776245117187500000000000000,
0.08270859718322753906250000000000000,
0.13677431643009185791015625000000000,
-0.09452687203884124755859375000000000,
-0.03884715586900711059570312500000000,
-0.08649618923664093017578125000000000,
0.01801736652851104736328125000000000,
0.00699253380298614501953125000000000,
0.02966247498989105224609375000000000,
0.10741564631462097167968750000000000,
0.10576097667217254638671875000000000,
-0.01260760426521301269531250000000000,
0.13032118976116180419921875000000000,
-0.07185231894254684448242187500000000,
-0.02899034321308135986328125000000000,
0.07401883602142333984375000000000000,
0.04496271908283233642578125000000000,
0.04091958701610565185546875000000000,
0.12567363679409027099609375000000000,
0.00886526703834533691406250000000000,
-0.00302317738533020019531250000000000,
-0.12573914229869842529296875000000000,
0.00097864866256713867187500000000000,
-0.08484683930873870849609375000000000,
0.01414194703102111816406250000000000,
0.13153828680515289306640625000000000,
-0.09663543105125427246093750000000000,
-0.04083697497844696044921875000000000,
-0.06701251119375228881835937500000000,
-0.12866802513599395751953125000000000,
0.13194067776203155517578125000000000,
-0.09539644420146942138671875000000000,
0.05312769114971160888671875000000000,
-0.06984411180019378662109375000000000,
0.06133843958377838134765625000000000,
-0.05584569275379180908203125000000000,
0.05906465649604797363281250000000000,
-0.00763511657714843750000000000000000,
0.13474775850772857666015625000000000,
-0.09236554801464080810546875000000000,
-0.07638287544250488281250000000000000,
-0.06884931027889251708984375000000000,
-0.12309419363737106323242187500000000,
0.05130761861801147460937500000000000,
-0.07673108577728271484375000000000000,
-0.11871552467346191406250000000000000,
-0.06869825720787048339843750000000000,
-0.00511455535888671875000000000000000,
0.06642778217792510986328125000000000,
0.05055034160614013671875000000000000,
-0.00532153248786926269531250000000000,
0.03807090222835540771484375000000000,
0.00236977636814117431640625000000000,
0.09103646874427795410156250000000000,
0.13521777093410491943359375000000000,
-0.07123927026987075805664062500000000,
-0.11474707722663879394531250000000000,
-0.11387854814529418945312500000000000,
-0.02969378978013992309570312500000000,
-0.13303381204605102539062500000000000,
0.00955826044082641601562500000000000,
0.00828248262405395507812500000000000,
-0.11291886121034622192382812500000000,
0.03525769710540771484375000000000000,
-0.00643551349639892578125000000000000,
0.13097886741161346435546875000000000,
-0.05428519099950790405273437500000000,
0.07036463916301727294921875000000000,
0.09922471642494201660156250000000000,
0.09830008447170257568359375000000000,
0.10654930770397186279296875000000000,
-0.03156741708517074584960937500000000,
-0.08536070585250854492187500000000000,
-0.08914999663829803466796875000000000,
-0.07433490455150604248046875000000000,
0.02906857430934906005859375000000000,
0.12292079627513885498046875000000000,
0.03762844204902648925781250000000000,
-0.04019570350646972656250000000000000,
0.03363537788391113281250000000000000,
0.12854631245136260986328125000000000,
0.10087552666664123535156250000000000,
0.11938996613025665283203125000000000,
0.11251156032085418701171875000000000,
0.00231988728046417236328125000000000,
0.06637851893901824951171875000000000,
-0.00562079250812530517578125000000000,
0.11279512941837310791015625000000000,
0.02044653892517089843750000000000000,
0.05237039923667907714843750000000000,
-0.04984223842620849609375000000000000,
-0.11188171803951263427734375000000000,
0.00534310936927795410156250000000000,
-0.05343575030565261840820312500000000,
-0.04654157161712646484375000000000000,
-0.09679496288299560546875000000000000,
0.05138106644153594970703125000000000,
0.10081252455711364746093750000000000,
0.09960165619850158691406250000000000,
-0.13262917101383209228515625000000000,
0.08101695775985717773437500000000000,
-0.01050323247909545898437500000000000,
-0.00898006558418273925781250000000000,
0.13578449189662933349609375000000000,
-0.09129739552736282348632812500000000,
0.12780027091503143310546875000000000,
-0.02996086329221725463867187500000000,
-0.14097581803798675537109375000000000,
0.00459462404251098632812500000000000,
0.09200130403041839599609375000000000,
0.02626439929008483886718750000000000,
0.01478341221809387207031250000000000,
0.06203238666057586669921875000000000,
0.06500107049942016601562500000000000,
-0.04292915016412734985351562500000000,
-0.01635593175888061523437500000000000,
0.10591833293437957763671875000000000,
0.01677551865577697753906250000000000,
0.03671486675739288330078125000000000,
-0.06236001104116439819335937500000000,
0.08314287662506103515625000000000000,
-0.13013716042041778564453125000000000,
-0.07610855996608734130859375000000000,
0.10524767637252807617187500000000000,
-0.10999036580324172973632812500000000,
0.11970649659633636474609375000000000,
-0.05962075293064117431640625000000000,
-0.02199406176805496215820312500000000,
0.06849446892738342285156250000000000,
-0.01278008520603179931640625000000000,
0.05125957727432250976562500000000000,
-0.08133393526077270507812500000000000,
0.11297725141048431396484375000000000,
-0.06037876754999160766601562500000000,
0.02493079006671905517578125000000000,
-0.01570843160152435302734375000000000,
-0.03457732498645782470703125000000000,
-0.07929464429616928100585937500000000,
0.02632869780063629150390625000000000,
-0.02544744312763214111328125000000000,
-0.12238518148660659790039062500000000,
0.11891923844814300537109375000000000,
0.01562321186065673828125000000000000,
-0.04174180328845977783203125000000000,
0.11547769606113433837890625000000000,
0.05759611725807189941406250000000000,
-0.01480244100093841552734375000000000,
-0.10791251063346862792968750000000000,
0.01623433828353881835937500000000000,
-0.10750575363636016845703125000000000,
-0.01334445178508758544921875000000000,
-0.06312259286642074584960937500000000,
-0.04940546303987503051757812500000000,
0.03851561248302459716796875000000000,
-0.01110762357711791992187500000000000,
0.13400118052959442138671875000000000,
0.10215850174427032470703125000000000,
0.04191851615905761718750000000000000,
-0.00284312665462493896484375000000000,
-0.06620691716670989990234375000000000,
-0.07225937396287918090820312500000000,
-0.04428819566965103149414062500000000,
0.06299720704555511474609375000000000,
-0.09730611741542816162109375000000000,
-0.13084253668785095214843750000000000,
0.04240195453166961669921875000000000,
0.01893295347690582275390625000000000,
0.09114590287208557128906250000000000,
0.00626203417778015136718750000000000,
0.07619898021221160888671875000000000,
0.00072434544563293457031250000000000,
0.10074351727962493896484375000000000,
0.10226772725582122802734375000000000,
-0.13918825984001159667968750000000000,
-0.12832689285278320312500000000000000,
-0.05698592960834503173828125000000000,
-0.05644070357084274291992187500000000,
0.07276901602745056152343750000000000,
0.11682365834712982177734375000000000,
-0.10896365344524383544921875000000000,
-0.12767380475997924804687500000000000,
0.08560250699520111083984375000000000,
0.06732718646526336669921875000000000,
-0.09502199292182922363281250000000000,
0.12598158419132232666015625000000000,
-0.11522606760263442993164062500000000,
0.03138457238674163818359375000000000,
0.03969721496105194091796875000000000,
-0.05158413946628570556640625000000000,
0.00352016091346740722656250000000000,
0.12829370796680450439453125000000000,
0.06933091580867767333984375000000000,
0.13312877714633941650390625000000000,
-0.10951526463031768798828125000000000,
-0.07292743772268295288085937500000000,
0.10325838625431060791015625000000000,
-0.11890736222267150878906250000000000,
-0.04081162065267562866210937500000000,
-0.00595882534980773925781250000000000,
-0.10860897600650787353515625000000000,
-0.04440753906965255737304687500000000,
0.00985209643840789794921875000000000,
-0.01059162616729736328125000000000000,
-0.05739927291870117187500000000000000,
-0.03150298446416854858398437500000000,
-0.09140955656766891479492187500000000,
-0.08484028279781341552734375000000000,
0.04506896436214447021484375000000000,
-0.11925225704908370971679687500000000,
-0.09155882149934768676757812500000000,
-0.08993615210056304931640625000000000,
0.11644048988819122314453125000000000,
-0.09574858844280242919921875000000000,
0.03843797743320465087890625000000000,
-0.08414660394191741943359375000000000,
0.00494071841239929199218750000000000,
0.10629478096961975097656250000000000,
-0.00944572687149047851562500000000000,
0.13055889308452606201171875000000000,
0.08671942353248596191406250000000000,
0.10380916297435760498046875000000000,
-0.12467933446168899536132812500000000,
-0.09942635893821716308593750000000000,
-0.07679432630538940429687500000000000,
-0.04981896281242370605468750000000000,
-0.05784004181623458862304687500000000,
0.11717258393764495849609375000000000,
0.04843035340309143066406250000000000,
-0.09275904297828674316406250000000000,
-0.01413963735103607177734375000000000,
0.08623841404914855957031250000000000,
0.03288836777210235595703125000000000,
0.11665545403957366943359375000000000,
0.00224041938781738281250000000000000,
0.00711269676685333251953125000000000,
-0.13706567883491516113281250000000000,
-0.06652158498764038085937500000000000,
0.01928392052650451660156250000000000,
-0.03558542579412460327148437500000000,
0.05808588862419128417968750000000000,
0.12612639367580413818359375000000000,
0.11184476315975189208984375000000000,
-0.02169969677925109863281250000000000,
0.13034291565418243408203125000000000,
-0.07043617218732833862304687500000000,
0.07909461855888366699218750000000000,
0.11322845518589019775390625000000000,
-0.03136585652828216552734375000000000,
-0.08066126704216003417968750000000000,
0.05381497740745544433593750000000000,
0.11793731153011322021484375000000000,
0.13162569701671600341796875000000000,
0.12459896504878997802734375000000000,
0.02915264666080474853515625000000000,
0.02921874821186065673828125000000000,
0.03747883439064025878906250000000000,
0.10865588486194610595703125000000000,
-0.00430446863174438476562500000000000,
0.02492490410804748535156250000000000,
0.08742760121822357177734375000000000,
0.06988853216171264648437500000000000,
0.08328780531883239746093750000000000,
-0.10055845975875854492187500000000000,
0.06438800692558288574218750000000000,
0.11771450936794281005859375000000000,
-0.02651987969875335693359375000000000,
0.07283745706081390380859375000000000,
-0.09411412477493286132812500000000000,
0.00313699245452880859375000000000000,
0.01733481884002685546875000000000000,
-0.09201133251190185546875000000000000,
0.03848637640476226806640625000000000,
-0.01486709713935852050781250000000000,
0.06726713478565216064453125000000000,
0.10877825319766998291015625000000000,
0.06627592444419860839843750000000000,
0.09411607682704925537109375000000000,
0.08835697174072265625000000000000000,
0.12848688662052154541015625000000000,
0.13560883700847625732421875000000000,
0.10963682830333709716796875000000000,
-0.03853135555982589721679687500000000,
0.03372858464717864990234375000000000,
0.11356587707996368408203125000000000,
0.02200543880462646484375000000000000,
0.02274850010871887207031250000000000,
-0.05120995640754699707031250000000000,
-0.09214684367179870605468750000000000,
0.12407730519771575927734375000000000,
0.13970436155796051025390625000000000,
-0.08757627010345458984375000000000000,
0.00524739921092987060546875000000000,
-0.03866063058376312255859375000000000,
-0.09839820861816406250000000000000000,
-0.08585284650325775146484375000000000,
-0.05693351477384567260742187500000000,
0.09323750436305999755859375000000000,
-0.05099394917488098144531250000000000,
-0.08010248839855194091796875000000000,
-0.12952595949172973632812500000000000,
-0.05546402186155319213867187500000000,
-0.14104749262332916259765625000000000,
-0.02307792752981185913085937500000000,
0.01349255442619323730468750000000000,
0.08221587538719177246093750000000000,
0.05224668979644775390625000000000000,
0.01426108181476593017578125000000000,
-0.08221237361431121826171875000000000,
-0.11634550243616104125976562500000000,
0.00362856686115264892578125000000000,
-0.13762567937374114990234375000000000,
-0.05150023102760314941406250000000000,
-0.07886769622564315795898437500000000,
0.03089793026447296142578125000000000,
0.06708738207817077636718750000000000,
0.09661124646663665771484375000000000,
0.13195960223674774169921875000000000,
-0.13652069866657257080078125000000000,
-0.10779865086078643798828125000000000,
0.09371931850910186767578125000000000,
0.12892557680606842041015625000000000,
0.08379971981048583984375000000000000,
0.01715198159217834472656250000000000,
-0.00379095971584320068359375000000000,
-0.08380719274282455444335937500000000,
-0.11370272934436798095703125000000000,
-0.02077866345643997192382812500000000,
0.10834109783172607421875000000000000,
0.08594985306262969970703125000000000,
0.12616150081157684326171875000000000,
0.00236970186233520507812500000000000,
-0.08316932618618011474609375000000000,
-0.10185775905847549438476562500000000,
0.09729562699794769287109375000000000,
-0.09711138904094696044921875000000000,
0.06536518037319183349609375000000000,
-0.05859998613595962524414062500000000,
0.01624961197376251220703125000000000,
0.13138596713542938232421875000000000,
-0.12378976494073867797851562500000000,
0.07623010873794555664062500000000000,
0.04505971074104309082031250000000000,
-0.07306045293807983398437500000000000,
-0.10733990371227264404296875000000000,
0.02222838997840881347656250000000000,
-0.06582633405923843383789062500000000,
-0.07840674370527267456054687500000000,
-0.09724256396293640136718750000000000,
0.04840900003910064697265625000000000,
0.09810218214988708496093750000000000,
0.03552846610546112060546875000000000,
-0.06588368862867355346679687500000000,
-0.09153933823108673095703125000000000,
-0.09065233170986175537109375000000000,
-0.04463429003953933715820312500000000,
-0.01165612041950225830078125000000000,
-0.08135916292667388916015625000000000,
0.07941569387912750244140625000000000,
-0.10308738797903060913085937500000000,
-0.01157274842262268066406250000000000,
0.11115010082721710205078125000000000,
-0.06764943897724151611328125000000000,
-0.09266450256109237670898437500000000,
0.03424540162086486816406250000000000,
0.11800424754619598388671875000000000,
0.07956750690937042236328125000000000,
-0.08555035293102264404296875000000000,
-0.00347100198268890380859375000000000,
0.06004032492637634277343750000000000,
-0.02021513134241104125976562500000000,
0.09625820815563201904296875000000000,
0.11271800100803375244140625000000000,
-0.09454681724309921264648437500000000,
0.05581134557723999023437500000000000,
0.04420495033264160156250000000000000,
-0.00520218908786773681640625000000000,
0.11536608636379241943359375000000000,
0.09877268970012664794921875000000000,
-0.07361077517271041870117187500000000,
0.09960962831974029541015625000000000,
0.12847532331943511962890625000000000,
-0.05758529156446456909179687500000000,
-0.01853778958320617675781250000000000,
0.05427961051464080810546875000000000,
0.01405115425586700439453125000000000,
-0.05658211559057235717773437500000000,
-0.05264898389577865600585937500000000,
-0.05035995692014694213867187500000000,
0.05507454276084899902343750000000000,
0.13867475092411041259765625000000000,
0.12412004172801971435546875000000000,
-0.14067712426185607910156250000000000,
-0.04120431095361709594726562500000000,
-0.05686435848474502563476562500000000,
-0.05519588291645050048828125000000000,
0.01275943219661712646484375000000000,
0.02672167122364044189453125000000000,
-0.04344170540571212768554687500000000,
-0.10553798824548721313476562500000000,
-0.06129295378923416137695312500000000,
0.13774906098842620849609375000000000,
-0.04600360989570617675781250000000000,
-0.05609145760536193847656250000000000,
-0.05088380724191665649414062500000000,
0.12219046056270599365234375000000000,
-0.08243190497159957885742187500000000,
0.02315430343151092529296875000000000,
0.09157361090183258056640625000000000,
-0.01229719817638397216796875000000000,
0.11271421611309051513671875000000000,
0.06979341804981231689453125000000000,
0.06518258154392242431640625000000000,
-0.09399931132793426513671875000000000,
0.12474687397480010986328125000000000,
0.08070237934589385986328125000000000,
0.11129824817180633544921875000000000,
-0.03838327527046203613281250000000000,
0.09135533869266510009765625000000000,
0.04493901133537292480468750000000000,
-0.07064796984195709228515625000000000,
-0.07542907446622848510742187500000000,
0.02404455840587615966796875000000000,
0.02923946082592010498046875000000000,
-0.12236100435256958007812500000000000,
0.07767738401889801025390625000000000,
-0.08038395643234252929687500000000000,
0.09347985684871673583984375000000000,
0.01816369593143463134765625000000000,
0.06012015044689178466796875000000000,
0.03847527503967285156250000000000000,
0.08407019078731536865234375000000000,
-0.03687466681003570556640625000000000,
0.02784186601638793945312500000000000,
-0.06916459649801254272460937500000000,
0.13025291264057159423828125000000000,
-0.09561812132596969604492187500000000,
0.06769368052482604980468750000000000,
0.07899306714534759521484375000000000,
0.01901853084564208984375000000000000,
-0.09109763801097869873046875000000000,
-0.11776367574930191040039062500000000,
-0.13676714897155761718750000000000000,
0.08438502252101898193359375000000000,
0.12106876075267791748046875000000000,
-0.08687205612659454345703125000000000,
0.03002737462520599365234375000000000,
-0.12722571194171905517578125000000000,
0.06235060095787048339843750000000000,
0.04414376616477966308593750000000000,
-0.09610603004693984985351562500000000,
0.02031475305557250976562500000000000,
0.12637417018413543701171875000000000,
0.10251767933368682861328125000000000,
-0.11365462839603424072265625000000000,
0.02639923989772796630859375000000000,
-0.09762515127658843994140625000000000,
0.13384927809238433837890625000000000,
-0.00476589798927307128906250000000000,
-0.11448988318443298339843750000000000,
-0.03945626318454742431640625000000000,
0.08111557364463806152343750000000000,
-0.02520172297954559326171875000000000,
-0.10283283889293670654296875000000000,
-0.13707347214221954345703125000000000,
-0.07925438880920410156250000000000000,
-0.09434756636619567871093750000000000,
0.09125065803527832031250000000000000,
-0.11749075353145599365234375000000000,
0.13812552392482757568359375000000000,
-0.07863816618919372558593750000000000,
0.13578657805919647216796875000000000,
-0.05747737735509872436523437500000000,
-0.03792741149663925170898437500000000,
-0.13225030899047851562500000000000000,
0.13804267346858978271484375000000000,
0.09346647560596466064453125000000000,
-0.08337111771106719970703125000000000,
0.05620387196540832519531250000000000,
0.07230518758296966552734375000000000,
0.01460053026676177978515625000000000,
0.13453860580921173095703125000000000,
0.04759800434112548828125000000000000,
-0.08576188981533050537109375000000000,
0.11228694021701812744140625000000000,
-0.11733470857143402099609375000000000,
-0.01928127557039260864257812500000000,
0.08405953645706176757812500000000000,
0.00387039780616760253906250000000000,
0.11180509626865386962890625000000000,
0.04118148982524871826171875000000000,
-0.03674665838479995727539062500000000,
0.10529208183288574218750000000000000,
0.08132399618625640869140625000000000,
0.06777898967266082763671875000000000,
-0.05918567627668380737304687500000000,
0.05076847970485687255859375000000000,
0.06446428596973419189453125000000000,
0.12264548242092132568359375000000000,
0.02492651343345642089843750000000000,
-0.11652484536170959472656250000000000,
-0.12193842232227325439453125000000000,
-0.07115019112825393676757812500000000,
-0.04707799851894378662109375000000000,
0.09613920748233795166015625000000000,
-0.11707554012537002563476562500000000,
0.14131481945514678955078125000000000,
0.06854005157947540283203125000000000,
0.04523941874504089355468750000000000,
-0.00171384215354919433593750000000000,
-0.02112340927124023437500000000000000,
-0.03830521553754806518554687500000000,
0.07929947972297668457031250000000000,
0.08481892943382263183593750000000000,
-0.07899738848209381103515625000000000,
0.00731107592582702636718750000000000,
0.03645773231983184814453125000000000,
0.11090801656246185302734375000000000,
0.06905211508274078369140625000000000,
-0.04095363616943359375000000000000000,
-0.02298512309789657592773437500000000,
-0.07225315272808074951171875000000000,
-0.13940519094467163085937500000000000,
-0.01056094467639923095703125000000000,
0.13178707659244537353515625000000000,
0.02120108902454376220703125000000000,
-0.10885390639305114746093750000000000,
0.08088824152946472167968750000000000,
0.04448036849498748779296875000000000,
0.07500404119491577148437500000000000,
-0.09174963086843490600585937500000000,
-0.00214844942092895507812500000000000,
-0.00604508817195892333984375000000000,
0.02195760607719421386718750000000000,
0.10423155128955841064453125000000000,
-0.01968529075384140014648437500000000,
0.13383860886096954345703125000000000,
0.10780034959316253662109375000000000,
0.13241119682788848876953125000000000,
-0.01944633573293685913085937500000000,
0.13568295538425445556640625000000000,
-0.13052256405353546142578125000000000,
-0.01868514716625213623046875000000000,
0.04016570746898651123046875000000000,
-0.06431023031473159790039062500000000,
-0.12604622542858123779296875000000000,
-0.13780386745929718017578125000000000,
-0.07816782593727111816406250000000000,
0.05873656272888183593750000000000000,
0.05679492652416229248046875000000000,
0.04221957921981811523437500000000000,
-0.00533200800418853759765625000000000,
0.12661184370517730712890625000000000,
-0.01828262954950332641601562500000000,
0.03207206726074218750000000000000000,
-0.08345605432987213134765625000000000,
0.05063295364379882812500000000000000,
-0.07734550535678863525390625000000000,
-0.08681598305702209472656250000000000,
0.02629828453063964843750000000000000,
-0.12547296285629272460937500000000000,
-0.04346031695604324340820312500000000,
0.06291867792606353759765625000000000,
0.10632519423961639404296875000000000,
-0.13030992448329925537109375000000000,
0.10283052921295166015625000000000000,
0.02038125693798065185546875000000000,
-0.07192075252532958984375000000000000,
0.08118394017219543457031250000000000,
-0.11818148940801620483398437500000000,
-0.01412726938724517822265625000000000,
-0.01412479579448699951171875000000000,
-0.11958278715610504150390625000000000,
0.06389641761779785156250000000000000,
-0.02924974262714385986328125000000000,
0.08359825611114501953125000000000000,
0.00179663300514221191406250000000000,
-0.00702500343322753906250000000000000,
-0.02651630342006683349609375000000000,
-0.09345041215419769287109375000000000,
0.07847309112548828125000000000000000,
-0.12253524363040924072265625000000000,
0.00530773401260375976562500000000000,
0.07351842522621154785156250000000000,
0.06596432626247406005859375000000000,
-0.01497998833656311035156250000000000,
-0.03383205085992813110351562500000000,
-0.03495248407125473022460937500000000,
-0.14005936682224273681640625000000000,
-0.12958845496177673339843750000000000,
0.07831491529941558837890625000000000,
0.08318714797496795654296875000000000,
-0.05716206878423690795898437500000000,
-0.08297066390514373779296875000000000,
-0.02244923263788223266601562500000000,
-0.13134698569774627685546875000000000,
-0.06202871352434158325195312500000000,
-0.14011308550834655761718750000000000,
0.13593031466007232666015625000000000,
-0.10944172739982604980468750000000000,
-0.02128811925649642944335937500000000,
-0.11609999090433120727539062500000000,
-0.06113030016422271728515625000000000,
0.02154210209846496582031250000000000,
-0.12127083539962768554687500000000000,
0.00718078017234802246093750000000000,
0.12418471276760101318359375000000000,
-0.10501901060342788696289062500000000,
-0.09257631748914718627929687500000000,
0.01033124327659606933593750000000000,
0.07605499029159545898437500000000000,
-0.01156133413314819335937500000000000,
-0.08615699410438537597656250000000000,
-0.13061903417110443115234375000000000,
0.06800200045108795166015625000000000,
-0.01981844007968902587890625000000000,
-0.04386907070875167846679687500000000,
-0.02440206706523895263671875000000000,
0.00149211287498474121093750000000000,
-0.12716312706470489501953125000000000,
0.03766326606273651123046875000000000,
-0.07540822029113769531250000000000000,
0.01414495706558227539062500000000000,
0.05262386798858642578125000000000000,
-0.07684563100337982177734375000000000,
-0.01526518166065216064453125000000000,
0.06250087916851043701171875000000000,
0.04072657227516174316406250000000000,
-0.06556650996208190917968750000000000,
0.11350657045841217041015625000000000,
-0.02284871786832809448242187500000000,
-0.07717631012201309204101562500000000,
0.12036250531673431396484375000000000,
0.01017354428768157958984375000000000,
-0.01715873926877975463867187500000000,
-0.13232745230197906494140625000000000,
0.05431328713893890380859375000000000,
0.12558163702487945556640625000000000,
0.06486967206001281738281250000000000,
-0.06710992753505706787109375000000000,
-0.04724331200122833251953125000000000,
-0.00010603666305541992187500000000000,
0.04658557474613189697265625000000000,
0.09125448763370513916015625000000000,
-0.08867111802101135253906250000000000,
0.05149486660957336425781250000000000,
0.06106063723564147949218750000000000,
-0.08870559930801391601562500000000000,
-0.02908070385456085205078125000000000,
0.13489417731761932373046875000000000,
-0.01640239357948303222656250000000000,
0.10148544609546661376953125000000000,
0.03367590904235839843750000000000000,
-0.12470749020576477050781250000000000,
-0.02147021144628524780273437500000000,
-0.01486441493034362792968750000000000,
-0.05182094871997833251953125000000000,
0.09210211038589477539062500000000000,
0.04954008758068084716796875000000000,
0.07789164781570434570312500000000000,
-0.03164289146661758422851562500000000,
-0.09796211123466491699218750000000000,
0.05299742519855499267578125000000000,
0.04688473045825958251953125000000000,
-0.08559866994619369506835937500000000,
0.05120226740837097167968750000000000,
-0.05363498628139495849609375000000000,
0.06708459556102752685546875000000000,
-0.07594066858291625976562500000000000,
-0.13939705491065979003906250000000000,
0.02094832062721252441406250000000000,
0.12800024449825286865234375000000000,
-0.06371770799160003662109375000000000,
-0.09703870117664337158203125000000000,
-0.08599444478750228881835937500000000,
-0.00452850759029388427734375000000000,
0.01310992240905761718750000000000000,
-0.06151176244020462036132812500000000,
-0.07529588788747787475585937500000000,
0.09706996381282806396484375000000000,
-0.00774867832660675048828125000000000,
-0.03210233151912689208984375000000000,
0.08572223782539367675781250000000000,
0.14069433510303497314453125000000000,
0.01883351802825927734375000000000000,
0.08275681734085083007812500000000000,
0.06222277879714965820312500000000000,
-0.03639589250087738037109375000000000,
0.01966570317745208740234375000000000,
-0.13450323045253753662109375000000000,
-0.01027724146842956542968750000000000,
-0.03187821060419082641601562500000000,
0.08110171556472778320312500000000000,
0.00850066542625427246093750000000000,
0.08896382153034210205078125000000000,
0.13621197640895843505859375000000000,
-0.03084223717451095581054687500000000,
-0.13749538362026214599609375000000000,
0.05040505528450012207031250000000000,
0.10673245787620544433593750000000000,
0.11151899397373199462890625000000000,
-0.02710323780775070190429687500000000,
-0.04969365149736404418945312500000000,
-0.09840996563434600830078125000000000,
0.02842606604099273681640625000000000,
0.09813714027404785156250000000000000,
-0.04731803387403488159179687500000000,
0.06950724124908447265625000000000000,
0.13055141270160675048828125000000000,
0.02682144939899444580078125000000000,
-0.12336541712284088134765625000000000,
-0.00074157118797302246093750000000000,
0.06559386849403381347656250000000000,
-0.05617303401231765747070312500000000,
-0.03144361078739166259765625000000000,
-0.11295271664857864379882812500000000,
-0.03098774701356887817382812500000000,
-0.08800909668207168579101562500000000,
-0.06249386817216873168945312500000000,
-0.02645085752010345458984375000000000,
-0.04822009056806564331054687500000000,
0.05244280397891998291015625000000000,
0.09388303756713867187500000000000000,
-0.09675695002079010009765625000000000,
-0.02550386637449264526367187500000000,
-0.07629987597465515136718750000000000,
-0.04057411849498748779296875000000000,
-0.12517370283603668212890625000000000,
0.00893463194370269775390625000000000,
0.07079263031482696533203125000000000,
0.13220416009426116943359375000000000,
0.10569317638874053955078125000000000,
-0.06442287564277648925781250000000000,
-0.04966800659894943237304687500000000,
-0.12553878128528594970703125000000000,
0.09893256425857543945312500000000000,
0.02945712208747863769531250000000000,
0.00213283300399780273437500000000000,
0.05748786032199859619140625000000000,
0.14089955389499664306640625000000000,
-0.03985352069139480590820312500000000,
0.00669933855533599853515625000000000,
-0.10128141194581985473632812500000000,
-0.08130307495594024658203125000000000,
-0.03976517915725708007812500000000000,
-0.10281528532505035400390625000000000,
-0.09899659454822540283203125000000000,
0.04606898128986358642578125000000000,
0.03870517015457153320312500000000000,
-0.12645623087882995605468750000000000,
-0.03555180877447128295898437500000000,
-0.00880835950374603271484375000000000,
0.09018746018409729003906250000000000,
0.12407158315181732177734375000000000,
-0.12724508345127105712890625000000000,
0.07689097523689270019531250000000000,
0.13477210700511932373046875000000000,
-0.05440033972263336181640625000000000,
-0.08087041974067687988281250000000000,
0.09125989675521850585937500000000000,
0.06318768858909606933593750000000000,
0.08214534819126129150390625000000000,
0.03359195590019226074218750000000000,
-0.08630208671092987060546875000000000,
0.05838261544704437255859375000000000,
-0.13835246860980987548828125000000000,
0.10547339916229248046875000000000000,
-0.06926942616701126098632812500000000,
0.09672373533248901367187500000000000,
0.08636495471000671386718750000000000,
0.01463675498962402343750000000000000,
0.00695945322513580322265625000000000,
0.07206687331199645996093750000000000,
-0.04331440478563308715820312500000000,
0.11135776340961456298828125000000000,
-0.05116730183362960815429687500000000,
-0.13790756464004516601562500000000000,
-0.04990790784358978271484375000000000,
0.09157828986644744873046875000000000,
0.01079125702381134033203125000000000,
-0.06048956513404846191406250000000000,
-0.03367932885885238647460937500000000,
-0.01695439964532852172851562500000000,
-0.00480033457279205322265625000000000,
-0.02621385455131530761718750000000000,
-0.04973257333040237426757812500000000,
0.04172177612781524658203125000000000,
-0.06992523372173309326171875000000000,
-0.01286192238330841064453125000000000,
0.09583315253257751464843750000000000,
0.13217346370220184326171875000000000,
-0.05950135737657546997070312500000000,
0.02229994535446166992187500000000000,
0.06578849256038665771484375000000000,
-0.11976909637451171875000000000000000,
0.13934563100337982177734375000000000,
0.10219454765319824218750000000000000,
-0.04787526279687881469726562500000000,
-0.10860043019056320190429687500000000,
0.04302924871444702148437500000000000,
0.12681426107883453369140625000000000,
-0.11238004267215728759765625000000000,
0.09422354400157928466796875000000000,
-0.09699928760528564453125000000000000,
0.00837664306163787841796875000000000,
-0.07877051085233688354492187500000000,
0.13158492743968963623046875000000000,
-0.08495892584323883056640625000000000,
-0.01446436345577239990234375000000000,
-0.02429863810539245605468750000000000,
0.09637515246868133544921875000000000,
0.12990219891071319580078125000000000,
-0.10896973311901092529296875000000000,
-0.01447935402393341064453125000000000,
-0.02587432414293289184570312500000000,
-0.09924354404211044311523437500000000,
0.12137188017368316650390625000000000,
0.11065469682216644287109375000000000,
-0.03976020961999893188476562500000000,
0.11211366951465606689453125000000000,
0.12570120394229888916015625000000000,
0.05820171535015106201171875000000000,
0.09648850560188293457031250000000000,
-0.08223846554756164550781250000000000,
-0.12819436192512512207031250000000000,
-0.09059123694896697998046875000000000,
-0.02646417915821075439453125000000000,
-0.13191018998622894287109375000000000,
0.03731936216354370117187500000000000,
0.05066838860511779785156250000000000,
-0.06161943823099136352539062500000000,
0.02028746902942657470703125000000000,
-0.09564754366874694824218750000000000,
0.13637693226337432861328125000000000,
0.04315073788166046142578125000000000,
0.02727112174034118652343750000000000,
-0.04881396144628524780273437500000000,
-0.04401308298110961914062500000000000,
0.09692294895648956298828125000000000,
0.02414739131927490234375000000000000,
-0.03586794435977935791015625000000000,
0.02772797644138336181640625000000000,
-0.02323593199253082275390625000000000,
-0.05318017303943634033203125000000000,
0.06678937375545501708984375000000000,
0.08368331193923950195312500000000000,
0.05785070359706878662109375000000000,
-0.00597891211509704589843750000000000,
-0.06271437555551528930664062500000000,
-0.06686921417713165283203125000000000,
-0.12967690825462341308593750000000000,
-0.00034256279468536376953125000000000,
-0.03106889128684997558593750000000000,
0.12301363050937652587890625000000000,
-0.13939255475997924804687500000000000,
0.11501930654048919677734375000000000,
0.12842760980129241943359375000000000,
-0.01468233764171600341796875000000000,
-0.02698729932308197021484375000000000,
-0.05578086525201797485351562500000000,
-0.00758916139602661132812500000000000,
0.05585518479347229003906250000000000,
-0.03399541229009628295898437500000000,
-0.08674158900976181030273437500000000,
-0.05888572335243225097656250000000000,
0.03895254433155059814453125000000000,
-0.11051821708679199218750000000000000,
0.09202010929584503173828125000000000,
-0.13290315866470336914062500000000000,
0.13930903375148773193359375000000000,
0.06600087881088256835937500000000000,
-0.05919064581394195556640625000000000,
0.08853387832641601562500000000000000,
0.05221429467201232910156250000000000,
0.09344778954982757568359375000000000,
-0.13486149907112121582031250000000000,
0.08030775189399719238281250000000000,
0.02444355189800262451171875000000000,
-0.12280596047639846801757812500000000,
0.01808071136474609375000000000000000,
-0.05627081543207168579101562500000000,
-0.00223731994628906250000000000000000,
0.03014728426933288574218750000000000,
-0.00192920863628387451171875000000000,
-0.00631873309612274169921875000000000,
0.10397334396839141845703125000000000,
-0.03732094913721084594726562500000000,
0.03217497467994689941406250000000000,
0.11318545043468475341796875000000000,
-0.12579059600830078125000000000000000,
0.08118264377117156982421875000000000,
0.08658474683761596679687500000000000,
-0.13138766586780548095703125000000000,
0.04602372646331787109375000000000000,
-0.13582606613636016845703125000000000,
-0.10797712951898574829101562500000000,
0.04247905313968658447265625000000000,
-0.12957742810249328613281250000000000,
-0.12676502764225006103515625000000000,
-0.14018501341342926025390625000000000,
0.11115424335002899169921875000000000,
-0.06151368468999862670898437500000000,
0.11743624508380889892578125000000000,
0.11357067525386810302734375000000000,
0.10029776394367218017578125000000000,
-0.12813349068164825439453125000000000,
-0.10572567582130432128906250000000000,
-0.07323724776506423950195312500000000,
-0.07437882572412490844726562500000000,
0.10338321328163146972656250000000000,
0.08936153352260589599609375000000000,
0.09232760965824127197265625000000000,
0.01247774064540863037109375000000000,
0.04654952883720397949218750000000000,
-0.11008128523826599121093750000000000,
-0.03277052193880081176757812500000000,
-0.08302209526300430297851562500000000,
0.03303389251232147216796875000000000,
0.10121859610080718994140625000000000,
0.01080484688282012939453125000000000,
0.02491833269596099853515625000000000,
0.02624079585075378417968750000000000,
0.07516364753246307373046875000000000,
-0.09621644020080566406250000000000000,
0.13364113867282867431640625000000000,
-0.07691073417663574218750000000000000,
0.03339067101478576660156250000000000,
-0.13813446462154388427734375000000000,
0.03603580594062805175781250000000000,
0.02018119394779205322265625000000000,
-0.12408344447612762451171875000000000,
-0.10367295891046524047851562500000000,
-0.13779465854167938232421875000000000,
-0.03189826756715774536132812500000000,
-0.04283826053142547607421875000000000,
-0.12445128709077835083007812500000000,
0.05658210813999176025390625000000000,
-0.03474653512239456176757812500000000,
-0.07138690352439880371093750000000000,
0.13015656173229217529296875000000000,
-0.01977632939815521240234375000000000,
-0.10201643407344818115234375000000000,
0.03571279346942901611328125000000000,
-0.06371850520372390747070312500000000,
0.01872119307518005371093750000000000,
0.00754697620868682861328125000000000,
0.01377800107002258300781250000000000,
0.07909743487834930419921875000000000,
0.11743105947971343994140625000000000,
0.08476324379444122314453125000000000,
-0.04197605699300765991210937500000000,
0.01918920874595642089843750000000000,
0.02335126698017120361328125000000000,
0.01635849475860595703125000000000000,
-0.11686965823173522949218750000000000,
0.13021369278430938720703125000000000,
-0.13509109616279602050781250000000000,
-0.03138738125562667846679687500000000,
0.06552849709987640380859375000000000,
-0.05269668251276016235351562500000000,
0.10434439778327941894531250000000000,
0.02437765896320343017578125000000000,
0.06421874463558197021484375000000000,
-0.13404780626296997070312500000000000,
-0.06170185655355453491210937500000000,
0.06047587096691131591796875000000000,
-0.10748310387134552001953125000000000,
0.08044093847274780273437500000000000,
-0.03726956993341445922851562500000000,
-0.04901174455881118774414062500000000,
-0.01579268276691436767578125000000000,
0.13751561939716339111328125000000000,
-0.10770642757415771484375000000000000,
-0.04471983015537261962890625000000000,
0.11350406706333160400390625000000000,
-0.08961637318134307861328125000000000,
0.04459664225578308105468750000000000,
0.05319947004318237304687500000000000,
-0.10859780013561248779296875000000000,
0.12112791836261749267578125000000000,
-0.11657995730638504028320312500000000,
-0.13432310521602630615234375000000000,
