0.17401534318923950195312500000000000,
-0.20744284987449645996093750000000000,
-0.43922549486160278320312500000000000,
-0.40457391738891601562500000000000000,
-0.32100322842597961425781250000000000,
0.35134053230285644531250000000000000,
-0.19479149580001831054687500000000000,
-0.21777850389480590820312500000000000,
0.19002640247344970703125000000000000,
0.11186045408248901367187500000000000,
0.11384540796279907226562500000000000,
-0.32794857025146484375000000000000000,
0.02126938104629516601562500000000000,
0.03364515304565429687500000000000000,
0.55237448215484619140625000000000000,
0.07567429542541503906250000000000000,
0.25371915102005004882812500000000000,
-0.36958009004592895507812500000000000,
0.27694857120513916015625000000000000,
-0.25896081328392028808593750000000000,
0.02910554409027099609375000000000000,
0.37471652030944824218750000000000000,
-0.07162320613861083984375000000000000,
-0.15125942230224609375000000000000000,
-0.10030245780944824218750000000000000,
-0.22020399570465087890625000000000000,
-0.32254284620285034179687500000000000,
0.07137393951416015625000000000000000,
-0.40395504236221313476562500000000000,
-0.32866585254669189453125000000000000,
0.15082919597625732421875000000000000,
0.36358094215393066406250000000000000,
0.11082237958908081054687500000000000,
-0.17200052738189697265625000000000000,
0.23422813415527343750000000000000000,
-0.09621676802635192871093750000000000,
0.32196664810180664062500000000000000,
-0.31597951054573059082031250000000000,
-0.20022615790367126464843750000000000,
-0.34759059548377990722656250000000000,
0.17180955410003662109375000000000000,
-0.19592186808586120605468750000000000,
-0.01126879453659057617187500000000000,
-0.47340679168701171875000000000000000,
-0.49165925383567810058593750000000000,
0.43972802162170410156250000000000000,
0.52195358276367187500000000000000000,
-0.14231774210929870605468750000000000,
-0.49470651149749755859375000000000000,
0.08956360816955566406250000000000000,
0.42408418655395507812500000000000000,
-0.12643915414810180664062500000000000,
-0.24917039275169372558593750000000000,
0.44172978401184082031250000000000000,
0.49706900119781494140625000000000000,
0.48345661163330078125000000000000000,
0.47677385807037353515625000000000000,
0.12728583812713623046875000000000000,
-0.17399758100509643554687500000000000,
-0.06538575887680053710937500000000000,
0.34920883178710937500000000000000000,
-0.41283589601516723632812500000000000,
-0.03012305498123168945312500000000000,
-0.46969711780548095703125000000000000,
0.34365218877792358398437500000000000,
0.54167520999908447265625000000000000,
0.24670630693435668945312500000000000,
-0.11283123493194580078125000000000000,
-0.15999805927276611328125000000000000,
0.26962834596633911132812500000000000,
0.41745233535766601562500000000000000,
0.04429954290390014648437500000000000,
0.36648470163345336914062500000000000,
-0.41793417930603027343750000000000000,
0.44511950016021728515625000000000000,
0.09960389137268066406250000000000000,
0.30553388595581054687500000000000000,
0.32990872859954833984375000000000000,
-0.23226058483123779296875000000000000,
0.46861064434051513671875000000000000,
0.55549240112304687500000000000000000,
0.49745976924896240234375000000000000,
-0.31275573372840881347656250000000000,
-0.40954160690307617187500000000000000,
0.30973428487777709960937500000000000,
-0.02038586139678955078125000000000000,
-0.07755327224731445312500000000000000,
-0.15741688013076782226562500000000000,
-0.17333665490150451660156250000000000,
0.31740140914916992187500000000000000,
-0.20013970136642456054687500000000000,
0.24118179082870483398437500000000000,
-0.08664497733116149902343750000000000,
0.43784391880035400390625000000000000,
0.04258739948272705078125000000000000,
-0.12470626831054687500000000000000000,
0.26727229356765747070312500000000000,
-0.44911801815032958984375000000000000,
0.50857055187225341796875000000000000,
-0.22178617119789123535156250000000000,
