0.16953921318054199218750000000000000,
-0.46369042992591857910156250000000000,
0.24827516078948974609375000000000000,
0.29852509498596191406250000000000000,
0.04159271717071533203125000000000000,
-0.19549867510795593261718750000000000,
-0.32968440651893615722656250000000000,
0.38232612609863281250000000000000000,
0.04304671287536621093750000000000000,
-0.03815692663192749023437500000000000,
-0.40352165699005126953125000000000000,
-0.08865806460380554199218750000000000,
-0.15597188472747802734375000000000000,
0.39145654439926147460937500000000000,
0.16390419006347656250000000000000000,
-0.53983509540557861328125000000000000,
-0.24713411927223205566406250000000000,
0.00886940956115722656250000000000000,
0.18873780965805053710937500000000000,
-0.36261630058288574218750000000000000,
0.40582275390625000000000000000000000,
0.23910802602767944335937500000000000,
0.45909368991851806640625000000000000,
0.20935255289077758789062500000000000,
0.12617194652557373046875000000000000,
-0.07036495208740234375000000000000000,
-0.05033141374588012695312500000000000,
0.56586182117462158203125000000000000,
0.12395757436752319335937500000000000,
-0.13618925213813781738281250000000000,
-0.11386567354202270507812500000000000,
0.15691107511520385742187500000000000,
0.12159430980682373046875000000000000,
0.04991507530212402343750000000000000,
0.45366001129150390625000000000000000,
-0.35093903541564941406250000000000000,
-0.38439112901687622070312500000000000,
-0.21642383933067321777343750000000000,
0.22324186563491821289062500000000000,
0.23637884855270385742187500000000000,
0.04720133543014526367187500000000000,
-0.38518199324607849121093750000000000,
0.06548994779586791992187500000000000,
0.45443797111511230468750000000000000,
0.17681771516799926757812500000000000,
-0.42878502607345581054687500000000000,
0.30828958749771118164062500000000000,
0.18642801046371459960937500000000000,
0.48207879066467285156250000000000000,
-0.26211509108543395996093750000000000,
0.51063072681427001953125000000000000,
0.38442599773406982421875000000000000,
0.34692466259002685546875000000000000,
-0.43785792589187622070312500000000000,
-0.26651605963706970214843750000000000,
-0.27202397584915161132812500000000000,
0.26594907045364379882812500000000000,
-0.05353647470474243164062500000000000,
0.23712599277496337890625000000000000,
-0.52645987272262573242187500000000000,
-0.30755189061164855957031250000000000,
-0.33267259597778320312500000000000000,
0.54019832611083984375000000000000000,
-0.07960090041160583496093750000000000,
-0.30264699459075927734375000000000000,
0.44144940376281738281250000000000000,
0.57011437416076660156250000000000000,
0.18811315298080444335937500000000000,
-0.04880273342132568359375000000000000,
-0.07543259859085083007812500000000000,
-0.06428647041320800781250000000000000,
-0.54983335733413696289062500000000000,
0.43259680271148681640625000000000000,
0.43552505970001220703125000000000000,
-0.26837649941444396972656250000000000,
0.04260706901550292968750000000000000,
-0.22121056914329528808593750000000000,
0.57141923904418945312500000000000000,
-0.21529617905616760253906250000000000,
-0.56270128488540649414062500000000000,
-0.48030635714530944824218750000000000,
-0.44017618894577026367187500000000000,
0.20464050769805908203125000000000000,
0.38829737901687622070312500000000000,
-0.04459542036056518554687500000000000,
-0.46065089106559753417968750000000000,
-0.24435183405876159667968750000000000,
0.37482988834381103515625000000000000,
-0.45156538486480712890625000000000000,
-0.18490964174270629882812500000000000,
-0.43990337848663330078125000000000000,
0.29315418004989624023437500000000000,
-0.16737663745880126953125000000000000,
0.22690892219543457031250000000000000,
0.01097124814987182617187500000000000,
0.37750142812728881835937500000000000,
-0.34158453345298767089843750000000000,
0.18326908349990844726562500000000000,
0.38299143314361572265625000000000000,
-0.15790617465972900390625000000000000,
0.56357979774475097656250000000000000,
-0.29103493690490722656250000000000000,
-0.36808001995086669921875000000000000,
0.40070110559463500976562500000000000,
-0.45378789305686950683593750000000000,
-0.00621259212493896484375000000000000,
-0.32525521516799926757812500000000000,
0.48523521423339843750000000000000000,
-0.27598109841346740722656250000000000,
0.49483251571655273437500000000000000,
0.46356296539306640625000000000000000,
0.21613723039627075195312500000000000,
0.51180839538574218750000000000000000,
-0.07701408863067626953125000000000000,
0.45421147346496582031250000000000000,
0.48655521869659423828125000000000000,
0.38009262084960937500000000000000000,
0.38459467887878417968750000000000000,
-0.01667612791061401367187500000000000,
-0.10849797725677490234375000000000000,
-0.22035342454910278320312500000000000,
0.09025496244430541992187500000000000,
-0.31993836164474487304687500000000000,
-0.41148373484611511230468750000000000,
0.50073230266571044921875000000000000,
0.00884056091308593750000000000000000,
0.20794802904129028320312500000000000,
0.24894607067108154296875000000000000,
-0.23642134666442871093750000000000000,
-0.48458379507064819335937500000000000,
-0.04091715812683105468750000000000000,
-0.15811306238174438476562500000000000,
-0.22270739078521728515625000000000000,
0.02894550561904907226562500000000000,
0.34393513202667236328125000000000000,
-0.12913703918457031250000000000000000,
0.32972687482833862304687500000000000,
0.10885292291641235351562500000000000,
0.14912521839141845703125000000000000,
0.46518528461456298828125000000000000,
-0.05984848737716674804687500000000000,
0.36991226673126220703125000000000000,
0.50756585597991943359375000000000000,
-0.38967603445053100585937500000000000,
0.25921565294265747070312500000000000,
-0.28461340069770812988281250000000000,
0.50339221954345703125000000000000000,
0.55597460269927978515625000000000000,
0.54949951171875000000000000000000000,
0.35430091619491577148437500000000000,
0.07605332136154174804687500000000000,
0.47388422489166259765625000000000000,
-0.26280650496482849121093750000000000,
-0.52122354507446289062500000000000000,
0.49136126041412353515625000000000000,
0.22841227054595947265625000000000000,
-0.35197758674621582031250000000000000,
-0.09314516186714172363281250000000000,
-0.33112889528274536132812500000000000,
0.37223684787750244140625000000000000,
-0.53177607059478759765625000000000000,
0.12049967050552368164062500000000000,
0.10418808460235595703125000000000000,
0.38079458475112915039062500000000000,
0.12837594747543334960937500000000000,
-0.19982683658599853515625000000000000,
0.14149910211563110351562500000000000,
-0.34890455007553100585937500000000000,
0.53539299964904785156250000000000000,
-0.27821901440620422363281250000000000,
0.03103828430175781250000000000000000,
0.34153938293457031250000000000000000,
-0.36679187417030334472656250000000000,
0.54543066024780273437500000000000000,
-0.20584368705749511718750000000000000,
0.56125807762145996093750000000000000,
0.10810059309005737304687500000000000,
0.45456147193908691406250000000000000,
0.47370815277099609375000000000000000,
0.11731511354446411132812500000000000,
-0.13153257966041564941406250000000000,
-0.32046651840209960937500000000000000,
0.17202448844909667968750000000000000,
0.37073534727096557617187500000000000,
0.08982938528060913085937500000000000,
0.34142673015594482421875000000000000,
0.52454805374145507812500000000000000,
0.40144580602645874023437500000000000,
-0.49386340379714965820312500000000000,
0.52890408039093017578125000000000000,
-0.46979498863220214843750000000000000,
-0.21114972233772277832031250000000000,
-0.54897534847259521484375000000000000,
0.04573744535446166992187500000000000,
-0.24381294846534729003906250000000000,
0.37451463937759399414062500000000000,
0.08442866802215576171875000000000000,
-0.44485080242156982421875000000000000,
0.30693423748016357421875000000000000,
0.26045972108840942382812500000000000,
0.04151529073715209960937500000000000,
-0.41113972663879394531250000000000000,
0.54182660579681396484375000000000000,
0.56627094745635986328125000000000000,
0.22012972831726074218750000000000000,
-0.03777021169662475585937500000000000,
0.52738881111145019531250000000000000,
0.03355920314788818359375000000000000,
0.02436017990112304687500000000000000,
0.23336040973663330078125000000000000,
0.06385809183120727539062500000000000,
0.54065322875976562500000000000000000,
-0.14247933030128479003906250000000000,
-0.30402410030364990234375000000000000,
0.46738100051879882812500000000000000,
0.41979765892028808593750000000000000,
-0.54804456233978271484375000000000000,
0.10287398099899291992187500000000000,
-0.19984966516494750976562500000000000,
0.04885864257812500000000000000000000,
0.09360760450363159179687500000000000,
0.39222300052642822265625000000000000,
0.35357481241226196289062500000000000,
0.14168119430541992187500000000000000,
0.19417077302932739257812500000000000,
0.44069910049438476562500000000000000,
-0.02659302949905395507812500000000000,
-0.37503737211227416992187500000000000,
-0.53573197126388549804687500000000000,
-0.24191135168075561523437500000000000,
0.30959117412567138671875000000000000,
-0.44275033473968505859375000000000000,
0.31774002313613891601562500000000000,
-0.43211632966995239257812500000000000,
0.45525741577148437500000000000000000,
0.44357228279113769531250000000000000,
0.27374356985092163085937500000000000,
0.18564987182617187500000000000000000,
0.02841466665267944335937500000000000,
-0.40997922420501708984375000000000000,
0.46125257015228271484375000000000000,
-0.53758871555328369140625000000000000,
0.27989202737808227539062500000000000,
-0.49256575107574462890625000000000000,
0.20435535907745361328125000000000000,
-0.14353546500205993652343750000000000,
0.18512248992919921875000000000000000,
-0.23529908061027526855468750000000000,
0.14819061756134033203125000000000000,
0.48350882530212402343750000000000000,
0.16346520185470581054687500000000000,
0.17651253938674926757812500000000000,
-0.38691478967666625976562500000000000,
-0.23726364970207214355468750000000000,
0.12386447191238403320312500000000000,
-0.56691217422485351562500000000000000,
0.18220049142837524414062500000000000,
0.40557950735092163085937500000000000,
0.56903684139251708984375000000000000,
-0.14574408531188964843750000000000000,
-0.42288362979888916015625000000000000,
0.36078524589538574218750000000000000,
0.45748102664947509765625000000000000,
-0.15548041462898254394531250000000000,
0.42021059989929199218750000000000000,
-0.49035722017288208007812500000000000,
-0.18153038620948791503906250000000000,
-0.42607921361923217773437500000000000,
-0.06117147207260131835937500000000000,
0.05135601758956909179687500000000000,
-0.52705574035644531250000000000000000,
-0.50409710407257080078125000000000000,
0.35618144273757934570312500000000000,
-0.29986786842346191406250000000000000,
-0.14159774780273437500000000000000000,
-0.10757654905319213867187500000000000,
-0.07094222307205200195312500000000000,
0.39467656612396240234375000000000000,
-0.52468818426132202148437500000000000,
0.38639670610427856445312500000000000,
0.33558875322341918945312500000000000,
0.02939862012863159179687500000000000,
-0.12456357479095458984375000000000000,
0.51125943660736083984375000000000000,
-0.51857864856719970703125000000000000,
-0.50496745109558105468750000000000000,
0.22800970077514648437500000000000000,
0.09147542715072631835937500000000000,
-0.20598286390304565429687500000000000,
-0.36095756292343139648437500000000000,
-0.42166984081268310546875000000000000,
0.50074970722198486328125000000000000,
-0.47102606296539306640625000000000000,
0.36068683862686157226562500000000000,
-0.18556529283523559570312500000000000,
-0.05718541145324707031250000000000000,
-0.21906322240829467773437500000000000,
-0.50609552860260009765625000000000000,
0.21011006832122802734375000000000000,
0.39871764183044433593750000000000000,
