-0.43250757455825805664062500000000000,
-0.01657193899154663085937500000000000,
0.29938852787017822265625000000000000,
0.19454967975616455078125000000000000,
-0.06487691402435302734375000000000000,
-0.53728801012039184570312500000000000,
0.15111678838729858398437500000000000,
0.28462475538253784179687500000000000,
0.09690588712692260742187500000000000,
-0.06991457939147949218750000000000000,
-0.16416248679161071777343750000000000,
-0.31438282132148742675781250000000000,
-0.30353325605392456054687500000000000,
0.54074311256408691406250000000000000,
0.39693045616149902343750000000000000,
0.20919847488403320312500000000000000,
0.24562090635299682617187500000000000,
0.40222293138504028320312500000000000,
-0.12837418913841247558593750000000000,
0.01236575841903686523437500000000000,
0.10133606195449829101562500000000000,
-0.50150638818740844726562500000000000,
0.37720698118209838867187500000000000,
-0.54206097126007080078125000000000000,
0.33339786529541015625000000000000000,
0.15336740016937255859375000000000000,
0.30744749307632446289062500000000000,
-0.02834498882293701171875000000000000,
-0.17996397614479064941406250000000000,
0.43338072299957275390625000000000000,
0.04716116189956665039062500000000000,
0.57319235801696777343750000000000000,
0.47172570228576660156250000000000000,
0.26350861787796020507812500000000000,
-0.18253979086875915527343750000000000,
0.42018640041351318359375000000000000,
0.40174394845962524414062500000000000,
0.46925926208496093750000000000000000,
0.36419427394866943359375000000000000,
-0.54359436035156250000000000000000000,
0.14782279729843139648437500000000000,
-0.18589380383491516113281250000000000,
-0.45392760634422302246093750000000000,
0.57366442680358886718750000000000000,
0.09711039066314697265625000000000000,
-0.03074103593826293945312500000000000,
0.57241666316986083984375000000000000,
-0.32161709666252136230468750000000000,
0.12091886997222900390625000000000000,
-0.27485117316246032714843750000000000,
