-0.09125193953514099121093750000000000,
0.08753396570682525634765625000000000,
0.08170236647129058837890625000000000,
-0.02504561096429824829101562500000000,
-0.07552818208932876586914062500000000,
0.01912684738636016845703125000000000,
-0.06510350108146667480468750000000000,
0.06809039413928985595703125000000000,
0.05532632768154144287109375000000000,
-0.01040741801261901855468750000000000,
0.05388191342353820800781250000000000,
0.09367738664150238037109375000000000,
-0.12000875920057296752929687500000000,
0.07449764013290405273437500000000000,
0.12141956388950347900390625000000000,
0.10781314969062805175781250000000000,
0.04465276002883911132812500000000000,
-0.06882107257843017578125000000000000,
0.13528440892696380615234375000000000,
-0.08431590348482131958007812500000000,
0.02207469940185546875000000000000000,
-0.11345544457435607910156250000000000,
0.02565781772136688232421875000000000,
0.05968202650547027587890625000000000,
0.03227467834949493408203125000000000,
0.04275219142436981201171875000000000,
0.00995834171772003173828125000000000,
-0.08774322271347045898437500000000000,
-0.00129936635494232177734375000000000,
-0.03009124845266342163085937500000000,
0.08574326336383819580078125000000000,
-0.13378551602363586425781250000000000,
0.02410502731800079345703125000000000,
0.06985060870647430419921875000000000,
0.01830542087554931640625000000000000,
-0.09684041142463684082031250000000000,
-0.05226024240255355834960937500000000,
-0.09611418843269348144531250000000000,
0.03693698346614837646484375000000000,
-0.13085187971591949462890625000000000,
0.07776226103305816650390625000000000,
-0.09468030184507369995117187500000000,
-0.01624567806720733642578125000000000,
0.10095942020416259765625000000000000,
-0.03917000442743301391601562500000000,
-0.12423264980316162109375000000000000,
-0.03230330348014831542968750000000000,
0.08843365311622619628906250000000000,
0.13230086863040924072265625000000000,
0.00513450801372528076171875000000000,
