0.26591199636459350585937500000000000,
-0.26527184247970581054687500000000000,
0.37672609090805053710937500000000000,
-0.28925651311874389648437500000000000,
-0.44490587711334228515625000000000000,
0.44747412204742431640625000000000000,
0.39173018932342529296875000000000000,
0.11011642217636108398437500000000000,
0.17378169298171997070312500000000000,
-0.31864112615585327148437500000000000,
0.41629415750503540039062500000000000,
0.41581773757934570312500000000000000,
0.19863229990005493164062500000000000,
-0.55638295412063598632812500000000000,
0.20149213075637817382812500000000000,
-0.36882621049880981445312500000000000,
-0.54381275177001953125000000000000000,
-0.01633018255233764648437500000000000,
-0.07157105207443237304687500000000000,
0.08132278919219970703125000000000000,
0.52422785758972167968750000000000000,
-0.08887556195259094238281250000000000,
0.56313216686248779296875000000000000,
-0.05446147918701171875000000000000000,
-0.14016288518905639648437500000000000,
-0.31693881750106811523437500000000000,
-0.49503302574157714843750000000000000,
0.18845528364181518554687500000000000,
-0.26841709017753601074218750000000000,
0.47655975818634033203125000000000000,
0.37484437227249145507812500000000000,
-0.00771039724349975585937500000000000,
-0.27925986051559448242187500000000000,
-0.52252274751663208007812500000000000,
-0.51057595014572143554687500000000000,
0.44417464733123779296875000000000000,
0.42529582977294921875000000000000000,
0.37315136194229125976562500000000000,
-0.43519592285156250000000000000000000,
-0.04267209768295288085937500000000000,
-0.54840135574340820312500000000000000,
0.44129979610443115234375000000000000,
0.54513406753540039062500000000000000,
0.45514202117919921875000000000000000,
-0.24514904618263244628906250000000000,
-0.39489662647247314453125000000000000,
0.09316724538803100585937500000000000,
-0.51639044284820556640625000000000000,
0.44854617118835449218750000000000000,
-0.18389171361923217773437500000000000,
0.22121387720108032226562500000000000,
0.35414826869964599609375000000000000,
-0.28931409120559692382812500000000000,
-0.15950182080268859863281250000000000,
-0.37935638427734375000000000000000000,
0.09800779819488525390625000000000000,
-0.32357296347618103027343750000000000,
-0.36510655283927917480468750000000000,
-0.27447670698165893554687500000000000,
-0.31664562225341796875000000000000000,
-0.20126810669898986816406250000000000,
-0.52768796682357788085937500000000000,
-0.43254393339157104492187500000000000,
0.01019179821014404296875000000000000,
0.19198989868164062500000000000000000,
0.49209284782409667968750000000000000,
0.07560271024703979492187500000000000,
0.43778741359710693359375000000000000,
-0.04951584339141845703125000000000000,
-0.42043709754943847656250000000000000,
-0.26965257525444030761718750000000000,
0.34750860929489135742187500000000000,
0.27114486694335937500000000000000000,
-0.12844383716583251953125000000000000,
0.38608354330062866210937500000000000,
0.38561475276947021484375000000000000,
0.52857208251953125000000000000000000,
0.07675564289093017578125000000000000,
-0.04339194297790527343750000000000000,
-0.36531597375869750976562500000000000,
-0.14445698261260986328125000000000000,
-0.10866144299507141113281250000000000,
0.45665609836578369140625000000000000,
0.55984842777252197265625000000000000,
0.12566077709197998046875000000000000,
0.53559744358062744140625000000000000,
-0.22635051608085632324218750000000000,
0.55001032352447509765625000000000000,
-0.26902469992637634277343750000000000,
-0.57676774263381958007812500000000000,
-0.28822341561317443847656250000000000,
0.38241988420486450195312500000000000,
0.48374450206756591796875000000000000,
0.24618488550186157226562500000000000,
-0.55716466903686523437500000000000000,
0.14016485214233398437500000000000000,
-0.22474020719528198242187500000000000,
0.37897670269012451171875000000000000,
-0.05537605285644531250000000000000000,
-0.05323839187622070312500000000000000,
0.28596937656402587890625000000000000,
0.53249704837799072265625000000000000,
0.37247586250305175781250000000000000,
0.14139705896377563476562500000000000,
0.54385972023010253906250000000000000,
-0.51117968559265136718750000000000000,
-0.21745985746383666992187500000000000,
0.35053795576095581054687500000000000,
0.31531107425689697265625000000000000,
0.01478034257888793945312500000000000,
0.16975569725036621093750000000000000,
-0.39131605625152587890625000000000000,
-0.05564647912979125976562500000000000,
-0.25442329049110412597656250000000000,
0.05433553457260131835937500000000000,
0.39387387037277221679687500000000000,
0.27168220281600952148437500000000000,
-0.30408909916877746582031250000000000,
0.13172364234924316406250000000000000,
0.19321429729461669921875000000000000,
-0.32316792011260986328125000000000000,
0.41538852453231811523437500000000000,
0.32802218198776245117187500000000000,
-0.32075971364974975585937500000000000,
0.00754559040069580078125000000000000,
0.22944301366806030273437500000000000,
0.20340698957443237304687500000000000,
-0.41492974758148193359375000000000000,
0.35718190670013427734375000000000000,
-0.20267805457115173339843750000000000,
0.21986639499664306640625000000000000,
-0.43405023217201232910156250000000000,
-0.24149405956268310546875000000000000,
0.07175910472869873046875000000000000,
0.48171281814575195312500000000000000,
-0.20397219061851501464843750000000000,
0.09135627746582031250000000000000000,
-0.22355422377586364746093750000000000,
0.30293083190917968750000000000000000,
0.02230793237686157226562500000000000,
0.42702090740203857421875000000000000,
-0.23073312640190124511718750000000000,
-0.30582666397094726562500000000000000,
-0.19782042503356933593750000000000000,
-0.38396733999252319335937500000000000,
0.05368119478225708007812500000000000,
-0.50453072786331176757812500000000000,
0.17251151800155639648437500000000000,
0.40686392784118652343750000000000000,
-0.29110583662986755371093750000000000,
