-0.07877817749977111816406250000000000,
-0.07552865892648696899414062500000000,
-0.13884453475475311279296875000000000,
-0.14065076410770416259765625000000000,
-0.02425178885459899902343750000000000,
-0.07099270820617675781250000000000000,
0.00285647809505462646484375000000000,
-0.02839069068431854248046875000000000,
-0.10606288909912109375000000000000000,
-0.02347426116466522216796875000000000,
-0.10548049956560134887695312500000000,
-0.03856873512268066406250000000000000,
-0.01081019639968872070312500000000000,
0.11360444128513336181640625000000000,
0.10897813737392425537109375000000000,
0.08217655122280120849609375000000000,
0.10784299671649932861328125000000000,
-0.10524560511112213134765625000000000,
-0.11000518500804901123046875000000000,
0.04088269174098968505859375000000000,
-0.04211696237325668334960937500000000,
-0.13912197947502136230468750000000000,
-0.11544822901487350463867187500000000,
0.02995000779628753662109375000000000,
-0.06799564510583877563476562500000000,
-0.00310443341732025146484375000000000,
-0.08709548413753509521484375000000000,
-0.02100583910942077636718750000000000,
0.06020539999008178710937500000000000,
-0.01685154438018798828125000000000000,
-0.07506187260150909423828125000000000,
-0.02141109108924865722656250000000000,
0.06615439057350158691406250000000000,
-0.00024710595607757568359375000000000,
0.09518177807331085205078125000000000,
-0.11458121985197067260742187500000000,
-0.11452845484018325805664062500000000,
-0.05619689077138900756835937500000000,
0.03288801014423370361328125000000000,
0.02532891929149627685546875000000000,
-0.10267452895641326904296875000000000,
0.10767865180969238281250000000000000,
0.01678049564361572265625000000000000,
-0.03629364818334579467773437500000000,
-0.00637316703796386718750000000000000,
0.02740563452243804931640625000000000,
-0.05492433905601501464843750000000000,
0.08930158615112304687500000000000000,
-0.07061389833688735961914062500000000,
0.00705070793628692626953125000000000,
0.05058950185775756835937500000000000,
0.09726430475711822509765625000000000,
0.04166302084922790527343750000000000,
0.10355629026889801025390625000000000,
0.04341706633567810058593750000000000,
-0.03057588636875152587890625000000000,
0.05781348049640655517578125000000000,
0.05741196870803833007812500000000000,
0.01828028261661529541015625000000000,
-0.08728865534067153930664062500000000,
0.05390989780426025390625000000000000,
0.05211491882801055908203125000000000,
-0.10187777131795883178710937500000000,
-0.10805235803127288818359375000000000,
-0.13054427504539489746093750000000000,
0.13699696958065032958984375000000000,
-0.06100962311029434204101562500000000,
-0.05327850580215454101562500000000000,
0.02967704832553863525390625000000000,
-0.03249812126159667968750000000000000,
0.07117925584316253662109375000000000,
-0.06253978610038757324218750000000000,
0.11646635830402374267578125000000000,
0.10355421900749206542968750000000000,
0.00509510934352874755859375000000000,
-0.06614892184734344482421875000000000,
0.12444426119327545166015625000000000,
-0.12197855114936828613281250000000000,
-0.04681812226772308349609375000000000,
-0.02760916948318481445312500000000000,
-0.04841290414333343505859375000000000,
0.12588278949260711669921875000000000,
-0.02493630349636077880859375000000000,
0.11414353549480438232421875000000000,
0.01689161360263824462890625000000000,
-0.02111487835645675659179687500000000,
-0.00163784623146057128906250000000000,
0.03958946466445922851562500000000000,
-0.01922461390495300292968750000000000,
0.08853493630886077880859375000000000,
0.14130593836307525634765625000000000,
0.00042299926280975341796875000000000,
-0.10525263845920562744140625000000000,
0.11239425837993621826171875000000000,
-0.06031268090009689331054687500000000,
-0.04312280565500259399414062500000000,
0.03943201899528503417968750000000000,
-0.03141813725233078002929687500000000,
-0.04107528924942016601562500000000000,
0.04924255609512329101562500000000000,
-0.02986282855272293090820312500000000,
-0.12649412453174591064453125000000000,
0.12186907231807708740234375000000000,
-0.12029205262660980224609375000000000,
0.01611831784248352050781250000000000,
-0.06340336054563522338867187500000000,
-0.00289422273635864257812500000000000,
-0.11469147354364395141601562500000000,
0.00327980518341064453125000000000000,
0.01023896038532257080078125000000000,
0.10638727247714996337890625000000000,
-0.09741384536027908325195312500000000,
-0.03854956477880477905273437500000000,
0.11266846954822540283203125000000000,
0.00259137153625488281250000000000000,
0.04967960715293884277343750000000000,
0.09757880866527557373046875000000000,
-0.12725277245044708251953125000000000,
-0.10093813389539718627929687500000000,
-0.09992537647485733032226562500000000,
-0.00473037362098693847656250000000000,
-0.09730663895606994628906250000000000,
-0.12873542308807373046875000000000000,
-0.00303609669208526611328125000000000,
-0.13661718368530273437500000000000000,
0.04855929315090179443359375000000000,
-0.01418027281761169433593750000000000,
0.11998642981052398681640625000000000,
0.14081777632236480712890625000000000,
-0.00257942080497741699218750000000000,
-0.05932233482599258422851562500000000,
0.00124290585517883300781250000000000,
-0.14039318263530731201171875000000000,
-0.13580197095870971679687500000000000,
-0.00987464189529418945312500000000000,
-0.11176680773496627807617187500000000,
0.05114136636257171630859375000000000,
0.00713126361370086669921875000000000,
-0.06193521618843078613281250000000000,
0.12183551490306854248046875000000000,
-0.08866255730390548706054687500000000,
-0.10265438258647918701171875000000000,
-0.09151876717805862426757812500000000,
-0.07191036641597747802734375000000000,
-0.04158718883991241455078125000000000,
-0.04370068758726119995117187500000000,
0.12234045565128326416015625000000000,
-0.12209020555019378662109375000000000,
0.08228194713592529296875000000000000,
0.08193093538284301757812500000000000,
-0.13757567107677459716796875000000000,
0.05231483280658721923828125000000000,
0.11083497107028961181640625000000000,
0.01211172342300415039062500000000000,
0.01403003931045532226562500000000000,
0.12910066545009613037109375000000000,
0.07587364315986633300781250000000000,
-0.05686466395854949951171875000000000,
-0.12038187682628631591796875000000000,
-0.13023330271244049072265625000000000,
-0.01746579259634017944335937500000000,
-0.07919349521398544311523437500000000,
-0.13551384210586547851562500000000000,
-0.12121412158012390136718750000000000,
0.02276808023452758789062500000000000,
0.00861407816410064697265625000000000,
-0.11685471981763839721679687500000000,
0.12258596718311309814453125000000000,
0.01648990809917449951171875000000000,
-0.10849830508232116699218750000000000,
0.12639345228672027587890625000000000,
0.11504171788692474365234375000000000,
0.10450525581836700439453125000000000,
-0.01526209712028503417968750000000000,
-0.13343097269535064697265625000000000,
0.06132663786411285400390625000000000,
0.01737534999847412109375000000000000,
0.13544200360774993896484375000000000,
0.03749398887157440185546875000000000,
0.04529911279678344726562500000000000,
0.08586388826370239257812500000000000,
-0.06269119679927825927734375000000000,
-0.11012818664312362670898437500000000,
-0.05173364281654357910156250000000000,
0.09272116422653198242187500000000000,
0.01074664294719696044921875000000000,
-0.03141842037439346313476562500000000,
0.02400028705596923828125000000000000,
0.08276034891605377197265625000000000,
-0.03291655331850051879882812500000000,
-0.11716993153095245361328125000000000,
0.03277714550495147705078125000000000,
0.02934688329696655273437500000000000,
-0.12714879214763641357421875000000000,
0.13410414755344390869140625000000000,
-0.06360416859388351440429687500000000,
0.03071053326129913330078125000000000,
-0.07649226486682891845703125000000000,
0.06317527592182159423828125000000000,
-0.07414266467094421386718750000000000,
-0.05442314594984054565429687500000000,
0.05051101744174957275390625000000000,
0.03895480930805206298828125000000000,
-0.13292041420936584472656250000000000,
0.03312337398529052734375000000000000,
-0.08870312571525573730468750000000000,
-0.03650999814271926879882812500000000,
-0.08966603875160217285156250000000000,
0.01877646148204803466796875000000000,
0.02362258732318878173828125000000000,
-0.11485730111598968505859375000000000,
0.04303061962127685546875000000000000,
-0.13327988982200622558593750000000000,
0.11941649019718170166015625000000000,
0.12686024606227874755859375000000000,
-0.09933592379093170166015625000000000,
-0.00089296698570251464843750000000000,
-0.09874069690704345703125000000000000,
-0.04824347794055938720703125000000000,
-0.02011016756296157836914062500000000,
-0.08053205907344818115234375000000000,
0.10684157907962799072265625000000000,
-0.09292332082986831665039062500000000,
0.06764805316925048828125000000000000,
-0.13957205414772033691406250000000000,
-0.07670149952173233032226562500000000,
-0.13769373297691345214843750000000000,
0.01729029417037963867187500000000000,
0.07475183904170989990234375000000000,
-0.07754830271005630493164062500000000,
-0.06908880174160003662109375000000000,
0.05637431144714355468750000000000000,
-0.05700734257698059082031250000000000,
-0.01553790271282196044921875000000000,
-0.12378983199596405029296875000000000,
0.00449745357036590576171875000000000,
-0.13522450625896453857421875000000000,
-0.00708131492137908935546875000000000,
0.01101523637771606445312500000000000,
0.02625033259391784667968750000000000,
0.11068673431873321533203125000000000,
-0.01621446013450622558593750000000000,
0.12423245608806610107421875000000000,
-0.10054138302803039550781250000000000,
0.08495923876762390136718750000000000,
-0.00565634667873382568359375000000000,
0.08869761228561401367187500000000000,
-0.02427834272384643554687500000000000,
0.08821888267993927001953125000000000,
0.06739257276058197021484375000000000,
-0.09130480885505676269531250000000000,
0.09788200259208679199218750000000000,
-0.01106427609920501708984375000000000,
0.03497284650802612304687500000000000,
0.14022167026996612548828125000000000,
0.09629945456981658935546875000000000,
0.07278284430503845214843750000000000,
-0.09599253535270690917968750000000000,
-0.11284546554088592529296875000000000,
-0.07429753243923187255859375000000000,
0.05455441772937774658203125000000000,
0.06274147331714630126953125000000000,
-0.05276688188314437866210937500000000,
0.02886417508125305175781250000000000,
0.07498621940612792968750000000000000,
0.02337713539600372314453125000000000,
-0.01400384306907653808593750000000000,
-0.03789108246564865112304687500000000,
-0.06262347847223281860351562500000000,
-0.06061200797557830810546875000000000,
0.11372207105159759521484375000000000,
-0.13690394163131713867187500000000000,
-0.03564053773880004882812500000000000,
-0.09425362944602966308593750000000000,
0.00965528190135955810546875000000000,
-0.01697003841400146484375000000000000,
-0.08973173797130584716796875000000000,
-0.14095830917358398437500000000000000,
-0.04214762896299362182617187500000000,
-0.06264381110668182373046875000000000,
0.01868771016597747802734375000000000,
-0.12645015120506286621093750000000000,
0.09191070497035980224609375000000000,
0.12760008871555328369140625000000000,
0.05313052237033843994140625000000000,
-0.00850172340869903564453125000000000,
-0.07616421580314636230468750000000000,
-0.01211707293987274169921875000000000,
0.05149443447589874267578125000000000,
0.13525243103504180908203125000000000,
-0.11072593182325363159179687500000000,
-0.13512615859508514404296875000000000,
0.02534702420234680175781250000000000,
-0.05483362823724746704101562500000000,
0.13447834551334381103515625000000000,
0.02990373969078063964843750000000000,
0.05721290409564971923828125000000000,
-0.12958250939846038818359375000000000,
0.02088575065135955810546875000000000,
-0.00160971283912658691406250000000000,
0.08663451671600341796875000000000000,
0.11134202778339385986328125000000000,
-0.01726850867271423339843750000000000,
0.12418372929096221923828125000000000,
-0.11842960119247436523437500000000000,
0.01429629325866699218750000000000000,
0.03580495715141296386718750000000000,
0.12259139120578765869140625000000000,
-0.00354480743408203125000000000000000,
-0.01737151294946670532226562500000000,
0.00079225003719329833984375000000000,
-0.03670931607484817504882812500000000,
-0.06782333552837371826171875000000000,
0.03383488953113555908203125000000000,
-0.09729529917240142822265625000000000,
0.03627738356590270996093750000000000,
0.05136828124523162841796875000000000,
0.07658813893795013427734375000000000,
0.08252964913845062255859375000000000,
0.02918338775634765625000000000000000,
0.02951852977275848388671875000000000,
0.08084712922573089599609375000000000,
0.06822757422924041748046875000000000,
-0.08576695621013641357421875000000000,
0.02118009328842163085937500000000000,
0.10063993930816650390625000000000000,
0.13547305762767791748046875000000000,
-0.13160286843776702880859375000000000,
0.13088651001453399658203125000000000,
-0.06730710715055465698242187500000000,
0.07450930774211883544921875000000000,
-0.03349775820970535278320312500000000,
-0.04168868064880371093750000000000000,
0.02543319761753082275390625000000000,
0.13098172843456268310546875000000000,
0.02443321049213409423828125000000000,
-0.02459823340177536010742187500000000,
-0.03768546879291534423828125000000000,
0.03537978231906890869140625000000000,
-0.08324432373046875000000000000000000,
-0.01322837173938751220703125000000000,
-0.08915613591670989990234375000000000,
0.04236373305320739746093750000000000,
0.01033705472946166992187500000000000,
-0.09031984210014343261718750000000000,
-0.08239614963531494140625000000000000,
-0.06706506013870239257812500000000000,
0.03620454668998718261718750000000000,
-0.08908788859844207763671875000000000,
-0.13829128444194793701171875000000000,
0.11257116496562957763671875000000000,
0.13673947751522064208984375000000000,
0.09201829135417938232421875000000000,
0.02030660212039947509765625000000000,
-0.10770784318447113037109375000000000,
0.13226269185543060302734375000000000,
0.10733115673065185546875000000000000,
-0.13268725574016571044921875000000000,
-0.02749937027692794799804687500000000,
-0.10829070210456848144531250000000000,
0.08166775107383728027343750000000000,
-0.10835374891757965087890625000000000,
0.13262088596820831298828125000000000,
-0.11100351065397262573242187500000000,
0.13877569139003753662109375000000000,
0.13200481235980987548828125000000000,
-0.07321258634328842163085937500000000,
-0.08021175861358642578125000000000000,
-0.01180078089237213134765625000000000,
-0.06752466410398483276367187500000000,
0.04605926573276519775390625000000000,
0.09802758693695068359375000000000000,
-0.11598964780569076538085937500000000,
-0.02516677975654602050781250000000000,
0.02878272533416748046875000000000000,
-0.02219237387180328369140625000000000,
0.12181352078914642333984375000000000,
-0.10015887022018432617187500000000000,
0.02488738298416137695312500000000000,
0.03550280630588531494140625000000000,
-0.04934308677911758422851562500000000,
-0.03354404121637344360351562500000000,
-0.12752179801464080810546875000000000,
0.01545071601867675781250000000000000,
0.07558007538318634033203125000000000,
-0.01153692603111267089843750000000000,
-0.02636168897151947021484375000000000,
-0.01510091125965118408203125000000000,
-0.05590646713972091674804687500000000,
0.09985215961933135986328125000000000,
0.09798775613307952880859375000000000,
-0.01484228670597076416015625000000000,
-0.06235604733228683471679687500000000,
0.03737986087799072265625000000000000,
0.04543787240982055664062500000000000,
-0.13968233764171600341796875000000000,
0.03439526259899139404296875000000000,
0.00411611795425415039062500000000000,
-0.07988092303276062011718750000000000,
0.03795057535171508789062500000000000,
0.05243852734565734863281250000000000,
-0.03612474352121353149414062500000000,
0.05894577503204345703125000000000000,
-0.12846913933753967285156250000000000,
0.03474691510200500488281250000000000,
-0.09902003407478332519531250000000000,
0.09792760014533996582031250000000000,
0.04280301928520202636718750000000000,
-0.09106458723545074462890625000000000,
-0.05028205364942550659179687500000000,
0.11087842285633087158203125000000000,
-0.07776115834712982177734375000000000,
-0.00410653650760650634765625000000000,
0.06305940449237823486328125000000000,
0.04592905938625335693359375000000000,
-0.09824562072753906250000000000000000,
-0.04898227751255035400390625000000000,
-0.08277884125709533691406250000000000,
-0.11774646490812301635742187500000000,
0.01329641044139862060546875000000000,
0.09821857511997222900390625000000000,
-0.09359927475452423095703125000000000,
0.13244386017322540283203125000000000,
0.09581650793552398681640625000000000,
-0.00064259767532348632812500000000000,
0.14090178906917572021484375000000000,
0.08828195929527282714843750000000000,
0.08659340441226959228515625000000000,
-0.02816945314407348632812500000000000,
-0.09574899077415466308593750000000000,
-0.13319139182567596435546875000000000,
0.08716332912445068359375000000000000,
-0.02890618145465850830078125000000000,
-0.05033954232931137084960937500000000,
-0.05223035067319869995117187500000000,
0.11631394922733306884765625000000000,
-0.12817883491516113281250000000000000,
0.11746256053447723388671875000000000,
-0.06332680583000183105468750000000000,
-0.00973749160766601562500000000000000,
0.11797414720058441162109375000000000,
0.12035308778285980224609375000000000,
0.02182610332965850830078125000000000,
-0.03817599266767501831054687500000000,
-0.13385057449340820312500000000000000,
0.00821216404438018798828125000000000,
-0.11008332669734954833984375000000000,
0.01707960665225982666015625000000000,
-0.01757572591304779052734375000000000,
0.05182307958602905273437500000000000,
0.04411451518535614013671875000000000,
-0.04145402461290359497070312500000000,
0.05152599513530731201171875000000000,
-0.04097422212362289428710937500000000,
-0.02528509497642517089843750000000000,
-0.09005241096019744873046875000000000,
-0.02917608618736267089843750000000000,
-0.11842774599790573120117187500000000,
-0.11915478110313415527343750000000000,
0.09999559819698333740234375000000000,
-0.07808738946914672851562500000000000,
0.01287332177162170410156250000000000,
0.00809524953365325927734375000000000,
-0.11520398408174514770507812500000000,
0.05685184895992279052734375000000000,
0.11792610585689544677734375000000000,
-0.03304744511842727661132812500000000,
0.01327955722808837890625000000000000,
0.10196545720100402832031250000000000,
0.01650376617908477783203125000000000,
-0.12416792660951614379882812500000000,
0.05796104669570922851562500000000000,
-0.13236738741397857666015625000000000,
0.11400629580020904541015625000000000,
0.12851957976818084716796875000000000,
0.02853620052337646484375000000000000,
-0.12968547642230987548828125000000000,
-0.09513621032238006591796875000000000,
0.02892678976058959960937500000000000,
0.01647217571735382080078125000000000,
0.03991289436817169189453125000000000,
0.12665541470050811767578125000000000,
0.11560623347759246826171875000000000,
0.12348161637783050537109375000000000,
-0.01641155779361724853515625000000000,
-0.02923882007598876953125000000000000,
-0.13472737371921539306640625000000000,
-0.08032545447349548339843750000000000,
-0.08337830007076263427734375000000000,
-0.07719171792268753051757812500000000,
0.05088992416858673095703125000000000,
-0.05044364184141159057617187500000000,
-0.09354393929243087768554687500000000,
-0.03105445951223373413085937500000000,
0.12830533087253570556640625000000000,
0.05449534952640533447265625000000000,
-0.00320166349411010742187500000000000,
-0.00494928658008575439453125000000000,
-0.02369492501020431518554687500000000,
-0.12239769101142883300781250000000000,
0.09230366349220275878906250000000000,
-0.13790598511695861816406250000000000,
-0.00455026328563690185546875000000000,
-0.01540601253509521484375000000000000,
-0.12448427826166152954101562500000000,
-0.01595675945281982421875000000000000,
-0.11288467049598693847656250000000000,
0.02113582193851470947265625000000000,
0.13923121988773345947265625000000000,
0.03355756402015686035156250000000000,
0.09939479827880859375000000000000000,
0.11809338629245758056640625000000000,
-0.05490458756685256958007812500000000,
0.11553929746150970458984375000000000,
-0.09329533576965332031250000000000000,
-0.10354845225811004638671875000000000,
-0.00364027917385101318359375000000000,
-0.02594452351331710815429687500000000,
0.00256153941154479980468750000000000,
0.00384037196636199951171875000000000,
-0.09098670631647109985351562500000000,
0.01813395321369171142578125000000000,
0.01072701811790466308593750000000000,
0.10131730139255523681640625000000000,
-0.12080651521682739257812500000000000,
0.00897407531738281250000000000000000,
-0.00963629782199859619140625000000000,
0.08469094336032867431640625000000000,
-0.11246038973331451416015625000000000,
0.08165928721427917480468750000000000,
-0.02706726640462875366210937500000000,
-0.07138610631227493286132812500000000,
-0.12991487979888916015625000000000000,
-0.06273134052753448486328125000000000,
-0.01217430830001831054687500000000000,
-0.06250261515378952026367187500000000,
0.06116349995136260986328125000000000,
-0.10201928019523620605468750000000000,
0.06052577495574951171875000000000000,
-0.06910850852727890014648437500000000,
-0.10437460243701934814453125000000000,
0.14044581353664398193359375000000000,
0.07724076509475708007812500000000000,
0.08623237907886505126953125000000000,
-0.07699967920780181884765625000000000,
-0.02471565455198287963867187500000000,
-0.12971132993698120117187500000000000,
-0.10828955471515655517578125000000000,
-0.06512271612882614135742187500000000,
-0.10224568098783493041992187500000000,
-0.13698460161685943603515625000000000,
0.00940926373004913330078125000000000,
-0.08747401833534240722656250000000000,
0.02149932086467742919921875000000000,
-0.00530067086219787597656250000000000,
0.04908883571624755859375000000000000,
0.10258944332599639892578125000000000,
0.13640351593494415283203125000000000,
0.05321668088436126708984375000000000,
0.05651375651359558105468750000000000,
-0.12921322882175445556640625000000000,
-0.14032043516635894775390625000000000,
-0.10604724287986755371093750000000000,
0.02366811037063598632812500000000000,
0.04037371277809143066406250000000000,
0.13934861123561859130859375000000000,
-0.12168338894844055175781250000000000,
-0.13924100995063781738281250000000000,
0.01394121348857879638671875000000000,
-0.06376197934150695800781250000000000,
-0.01160037517547607421875000000000000,
0.04852862656116485595703125000000000,
-0.11881097406148910522460937500000000,
-0.08988125622272491455078125000000000,
-0.09086589515209197998046875000000000,
0.13996113836765289306640625000000000,
-0.09761241078376770019531250000000000,
0.02457965910434722900390625000000000,
0.05821685492992401123046875000000000,
-0.00686575472354888916015625000000000,
-0.06396329402923583984375000000000000,
0.06726925075054168701171875000000000,
-0.00549849867820739746093750000000000,
0.07993905246257781982421875000000000,
-0.03511441498994827270507812500000000,
0.12666530907154083251953125000000000,
0.10779954493045806884765625000000000,
0.06832090020179748535156250000000000,
-0.11442716419696807861328125000000000,
-0.11113074421882629394531250000000000,
0.05038431286811828613281250000000000,
-0.05153501033782958984375000000000000,
0.00729934871196746826171875000000000,
-0.10592189431190490722656250000000000,
-0.11349659413099288940429687500000000,
0.07330644130706787109375000000000000,
0.07607659697532653808593750000000000,
-0.05027515441179275512695312500000000,
0.12509934604167938232421875000000000,
-0.05215693265199661254882812500000000,
0.12313832342624664306640625000000000,
0.03055621683597564697265625000000000,
-0.05354430526494979858398437500000000,
0.08007888495922088623046875000000000,
0.10331614315509796142578125000000000,
-0.13347512483596801757812500000000000,
-0.00948792695999145507812500000000000,
0.13390786945819854736328125000000000,
0.13894192874431610107421875000000000,
0.01224689185619354248046875000000000,
0.05865710973739624023437500000000000,
0.13203845918178558349609375000000000,
0.13258509337902069091796875000000000,
-0.04079059511423110961914062500000000,
0.13238491117954254150390625000000000,
0.03007842600345611572265625000000000,
-0.07244645804166793823242187500000000,
-0.09302532672882080078125000000000000,
0.00040690600872039794921875000000000,
0.09615314006805419921875000000000000,
0.02748411893844604492187500000000000,
0.10976199805736541748046875000000000,
0.07428206503391265869140625000000000,
-0.05489740520715713500976562500000000,
-0.13736279308795928955078125000000000,
-0.07156216353178024291992187500000000,
-0.07182747125625610351562500000000000,
0.02489301562309265136718750000000000,
0.12945537269115447998046875000000000,
0.09839463233947753906250000000000000,
0.08395038545131683349609375000000000,
0.13414280116558074951171875000000000,
-0.13681419193744659423828125000000000,
-0.10897538065910339355468750000000000,
0.12018476426601409912109375000000000,
-0.04165484756231307983398437500000000,
-0.11836202442646026611328125000000000,
0.05634877085685729980468750000000000,
0.07815496623516082763671875000000000,
0.05279740691184997558593750000000000,
-0.07172323763370513916015625000000000,
0.07023212313652038574218750000000000,
-0.10032865405082702636718750000000000,
-0.11148813366889953613281250000000000,
-0.03853677213191986083984375000000000,
0.03144226968288421630859375000000000,
-0.06387722492218017578125000000000000,
0.01830574870109558105468750000000000,
-0.03165681660175323486328125000000000,
-0.03298884630203247070312500000000000,
-0.11208516359329223632812500000000000,
-0.09829625487327575683593750000000000,
0.06505244970321655273437500000000000,
0.11882443726062774658203125000000000,
-0.05080966651439666748046875000000000,
0.08841045200824737548828125000000000,
-0.11613814532756805419921875000000000,
0.03630912303924560546875000000000000,
-0.13591855764389038085937500000000000,
-0.07036020606756210327148437500000000,
-0.00316119194030761718750000000000000,
-0.13057917356491088867187500000000000,
0.05512659251689910888671875000000000,
0.11883075535297393798828125000000000,
-0.03581546992063522338867187500000000,
-0.08170738816261291503906250000000000,
-0.04997877776622772216796875000000000,
0.11096040904521942138671875000000000,
0.14046157896518707275390625000000000,
0.07563075423240661621093750000000000,
0.12832461297512054443359375000000000,
0.05082622170448303222656250000000000,
-0.09823110699653625488281250000000000,
-0.09068709611892700195312500000000000,
-0.02610808610916137695312500000000000,
-0.12819832563400268554687500000000000,
-0.08832892775535583496093750000000000,
-0.00269106030464172363281250000000000,
0.08262345194816589355468750000000000,
-0.03309207409620285034179687500000000,
-0.08852851390838623046875000000000000,
-0.07344076782464981079101562500000000,
-0.05469638109207153320312500000000000,
0.11730082333087921142578125000000000,
-0.06435318291187286376953125000000000,
-0.13700465857982635498046875000000000,
-0.04083485156297683715820312500000000,
0.04795554280281066894531250000000000,
0.00594666600227355957031250000000000,
-0.00586229562759399414062500000000000,
-0.09389279782772064208984375000000000,
0.05460402369499206542968750000000000,
-0.06231137365102767944335937500000000,
-0.02379073202610015869140625000000000,
0.01011817157268524169921875000000000,
0.01496973633766174316406250000000000,
-0.08264037966728210449218750000000000,
0.09281995892524719238281250000000000,
0.11309961974620819091796875000000000,
-0.01108261942863464355468750000000000,
-0.09228536486625671386718750000000000,
0.13327769935131072998046875000000000,
0.09094409644603729248046875000000000,
0.06819461286067962646484375000000000,
-0.04719614237546920776367187500000000,
0.13471452891826629638671875000000000,
0.12284286320209503173828125000000000,
0.09581159055233001708984375000000000,
-0.10373730957508087158203125000000000,
-0.10687375813722610473632812500000000,
-0.08007705956697463989257812500000000,
0.01315708458423614501953125000000000,
0.09476107358932495117187500000000000,
0.05813467502593994140625000000000000,
-0.13354963064193725585937500000000000,
0.13748259842395782470703125000000000,
0.07224333286285400390625000000000000,
-0.04675122350454330444335937500000000,
0.11041004955768585205078125000000000,
0.00222672522068023681640625000000000,
-0.01828181743621826171875000000000000,
0.02182942628860473632812500000000000,
0.04682940244674682617187500000000000,
-0.05279139429330825805664062500000000,
-0.02880042791366577148437500000000000,
-0.04336599260568618774414062500000000,
-0.00712341070175170898437500000000000,
-0.05885782092809677124023437500000000,
-0.09792427718639373779296875000000000,
0.03023369610309600830078125000000000,
-0.11145552992820739746093750000000000,
-0.11731415987014770507812500000000000,
-0.10025557130575180053710937500000000,
-0.10747629404067993164062500000000000,
0.04749819636344909667968750000000000,
-0.04367273300886154174804687500000000,
-0.00729717314243316650390625000000000,
0.09248614311218261718750000000000000,
0.11125193536281585693359375000000000,
-0.05188404023647308349609375000000000,
0.08851918578147888183593750000000000,
0.01314979791641235351562500000000000,
-0.10946598649024963378906250000000000,
-0.02039255201816558837890625000000000,
-0.07469119876623153686523437500000000,
0.10444760322570800781250000000000000,
-0.07772245258092880249023437500000000,
-0.05688934773206710815429687500000000,
-0.00621679425239562988281250000000000,
0.02924849092960357666015625000000000,
-0.05206798017024993896484375000000000,
-0.08498136699199676513671875000000000,
-0.08289217948913574218750000000000000,
0.04294991493225097656250000000000000,
0.00748309493064880371093750000000000,
0.03238594532012939453125000000000000,
0.01410369575023651123046875000000000,
0.10237884521484375000000000000000000,
0.01693484187126159667968750000000000,
0.13786949217319488525390625000000000,
-0.12646272778511047363281250000000000,
-0.04506003856658935546875000000000000,
-0.12901616096496582031250000000000000,
0.06449012458324432373046875000000000,
0.07634237408638000488281250000000000,
0.02876840531826019287109375000000000,
-0.02841078490018844604492187500000000,
-0.00588865578174591064453125000000000,
0.02384233474731445312500000000000000,
0.11006720364093780517578125000000000,
-0.08939045667648315429687500000000000,
-0.04246447235345840454101562500000000,
0.13184221088886260986328125000000000,
-0.10309433192014694213867187500000000,
0.03931112587451934814453125000000000,
-0.13702851533889770507812500000000000,
0.01767683029174804687500000000000000,
-0.13348241150379180908203125000000000,
-0.04736601561307907104492187500000000,
0.09346805512905120849609375000000000,
-0.00945290923118591308593750000000000,
-0.11539984494447708129882812500000000,
-0.06637368351221084594726562500000000,
-0.04660258442163467407226562500000000,
-0.06072956323623657226562500000000000,
-0.12807007133960723876953125000000000,
-0.10432782024145126342773437500000000,
-0.05772446095943450927734375000000000,
-0.03497647494077682495117187500000000,
0.03204260766506195068359375000000000,
0.03049226105213165283203125000000000,
-0.01975400745868682861328125000000000,
0.13853786885738372802734375000000000,
0.06503827869892120361328125000000000,
0.08502264320850372314453125000000000,
0.05129390954971313476562500000000000,
-0.11036384105682373046875000000000000,
-0.05692601203918457031250000000000000,
-0.05936259031295776367187500000000000,
0.11717419326305389404296875000000000,
0.02394159138202667236328125000000000,
-0.03604269027709960937500000000000000,
-0.05841831862926483154296875000000000,
-0.02150330692529678344726562500000000,
0.08510179817676544189453125000000000,
-0.09433031082153320312500000000000000,
-0.10573057830333709716796875000000000,
0.07472081482410430908203125000000000,
-0.13641750812530517578125000000000000,
-0.06381328403949737548828125000000000,
0.12332998216152191162109375000000000,
0.04014052450656890869140625000000000,
0.07151716947555541992187500000000000,
0.07225018739700317382812500000000000,
-0.06763920187950134277343750000000000,
0.02634653449058532714843750000000000,
0.01363581418991088867187500000000000,
-0.09478713572025299072265625000000000,
0.12919293344020843505859375000000000,
-0.00375187397003173828125000000000000,
0.12561161816120147705078125000000000,
0.12531857192516326904296875000000000,
0.07382765412330627441406250000000000,
0.10446085035800933837890625000000000,
0.10867439210414886474609375000000000,
-0.11696305871009826660156250000000000,
0.03990140557289123535156250000000000,
0.09186209738254547119140625000000000,
0.09985755383968353271484375000000000,
0.09405381977558135986328125000000000,
-0.09987378865480422973632812500000000,
-0.12449377030134201049804687500000000,
0.01978707313537597656250000000000000,
-0.13370926678180694580078125000000000,
-0.06029175966978073120117187500000000,
-0.11902948468923568725585937500000000,
0.11086528003215789794921875000000000,
0.02859757840633392333984375000000000,
0.13265512883663177490234375000000000,
0.02537550032138824462890625000000000,
0.13041014969348907470703125000000000,
0.04695864021778106689453125000000000,
0.10798850655555725097656250000000000,
0.08629584312438964843750000000000000,
0.00443965196609497070312500000000000,
-0.13471414148807525634765625000000000,
-0.02569091320037841796875000000000000,
0.11594270169734954833984375000000000,
-0.03049049526453018188476562500000000,
-0.09066222608089447021484375000000000,
-0.11379863321781158447265625000000000,
-0.11224645376205444335937500000000000,
0.10942946374416351318359375000000000,
-0.13143076002597808837890625000000000,
0.05313204228878021240234375000000000,
0.02741105854511260986328125000000000,
-0.08119194209575653076171875000000000,
-0.02541780471801757812500000000000000,
-0.12784156203269958496093750000000000,
-0.02221926301717758178710937500000000,
-0.09120085835456848144531250000000000,
0.09776495397090911865234375000000000,
-0.12636156380176544189453125000000000,
0.11270077526569366455078125000000000,
-0.13111011683940887451171875000000000,
0.06646998226642608642578125000000000,
-0.04387812316417694091796875000000000,
0.00650462508201599121093750000000000,
0.02997945249080657958984375000000000,
0.13013468682765960693359375000000000,
-0.03055366873741149902343750000000000,
0.10778455436229705810546875000000000,
0.10650643706321716308593750000000000,
-0.03541138023138046264648437500000000,
-0.10354495048522949218750000000000000,
-0.13575837016105651855468750000000000,
0.12496282160282135009765625000000000,
-0.04910033941268920898437500000000000,
0.04814733564853668212890625000000000,
-0.05084358155727386474609375000000000,
0.11618010699748992919921875000000000,
0.04279531538486480712890625000000000,
-0.12279277294874191284179687500000000,
-0.04586342722177505493164062500000000,
-0.06248511373996734619140625000000000,
-0.05122229456901550292968750000000000,
-0.12525303661823272705078125000000000,
-0.06516909599304199218750000000000000,
-0.03938210010528564453125000000000000,
0.07937197387218475341796875000000000,
-0.10929084569215774536132812500000000,
-0.04899317026138305664062500000000000,
0.13776658475399017333984375000000000,
-0.11947219073772430419921875000000000,
-0.06527075171470642089843750000000000,
-0.00036248564720153808593750000000000,
0.00213691592216491699218750000000000,
0.09571249783039093017578125000000000,
0.07772611081600189208984375000000000,
0.06904956698417663574218750000000000,
0.10332934558391571044921875000000000,
0.08574801683425903320312500000000000,
0.08355715870857238769531250000000000,
-0.06032008677721023559570312500000000,
-0.03527959436178207397460937500000000,
0.01867315173149108886718750000000000,
0.02657002210617065429687500000000000,
-0.06108843535184860229492187500000000,
-0.01309925317764282226562500000000000,
-0.07474290579557418823242187500000000,
0.06209596991539001464843750000000000,
-0.07000659406185150146484375000000000,
-0.13077658414840698242187500000000000,
-0.00378353893756866455078125000000000,
0.01083974540233612060546875000000000,
0.02839282155036926269531250000000000,
-0.03112197667360305786132812500000000,
0.11962036788463592529296875000000000,
0.11788408458232879638671875000000000,
-0.11777794361114501953125000000000000,
0.09671081602573394775390625000000000,
0.07753464579582214355468750000000000,
-0.11120916903018951416015625000000000,
0.01378130912780761718750000000000000,
0.07744537293910980224609375000000000,
0.02395351231098175048828125000000000,
-0.09484698623418807983398437500000000,
0.02465693652629852294921875000000000,
0.13883726298809051513671875000000000,
0.12922610342502593994140625000000000,
-0.13372097909450531005859375000000000,
0.13588874042034149169921875000000000,
0.07875186204910278320312500000000000,
-0.12709198892116546630859375000000000,
0.13904012739658355712890625000000000,
0.08525992929935455322265625000000000,
-0.11005734652280807495117187500000000,
0.02648031711578369140625000000000000,
-0.05239698290824890136718750000000000,
0.06609641015529632568359375000000000,
0.05376048386096954345703125000000000,
-0.06644051522016525268554687500000000,
-0.11157514154911041259765625000000000,
0.09461411833763122558593750000000000,
-0.12292717397212982177734375000000000,
-0.08014900982379913330078125000000000,
0.00384819507598876953125000000000000,
-0.05466984212398529052734375000000000,
0.05449998378753662109375000000000000,
0.04158924520015716552734375000000000,
-0.01260490715503692626953125000000000,
0.08010289072990417480468750000000000,
-0.00988829135894775390625000000000000,
0.02216961979866027832031250000000000,
0.07754112780094146728515625000000000,
0.10684469342231750488281250000000000,
-0.10441359877586364746093750000000000,
-0.09956352412700653076171875000000000,
-0.09498214721679687500000000000000000,
-0.03998891264200210571289062500000000,
0.13409365713596343994140625000000000,
-0.13188326358795166015625000000000000,
0.07695259153842926025390625000000000,
0.11174149811267852783203125000000000,
-0.06848981231451034545898437500000000,
0.00908342003822326660156250000000000,
0.12021099030971527099609375000000000,
0.09082813560962677001953125000000000,
-0.12493258714675903320312500000000000,
0.05793820321559906005859375000000000,
-0.09349295496940612792968750000000000,
-0.08370767533779144287109375000000000,
-0.03483893722295761108398437500000000,
0.04251611232757568359375000000000000,
0.05621334910392761230468750000000000,
-0.00304238498210906982421875000000000,
-0.10364522039890289306640625000000000,
-0.13956813514232635498046875000000000,
-0.02814811468124389648437500000000000,
-0.11476036161184310913085937500000000,
-0.08806452900171279907226562500000000,
-0.09677356481552124023437500000000000,
-0.06741806864738464355468750000000000,
-0.02962496876716613769531250000000000,
0.03517040610313415527343750000000000,
-0.05993423610925674438476562500000000,
-0.04717073589563369750976562500000000,
-0.12259522080421447753906250000000000,
0.04480950534343719482421875000000000,
-0.02701009809970855712890625000000000,
0.09021745622158050537109375000000000,
0.09766359627246856689453125000000000,
0.08819212019443511962890625000000000,
0.02168838679790496826171875000000000,
-0.01386961340904235839843750000000000,
0.13956786692142486572265625000000000,
-0.11074136942625045776367187500000000,
0.02348460257053375244140625000000000,
0.06686802208423614501953125000000000,
-0.12653619050979614257812500000000000,
0.09651312232017517089843750000000000,
0.02960954606533050537109375000000000,
0.03102208673954010009765625000000000,
-0.11776036024093627929687500000000000,
-0.10854041576385498046875000000000000,
-0.08767868578433990478515625000000000,
-0.05576385557651519775390625000000000,
-0.05802425742149353027343750000000000,
0.09132018685340881347656250000000000,
-0.02802576869726181030273437500000000,
-0.00573970377445220947265625000000000,
0.04568552970886230468750000000000000,
0.00052186846733093261718750000000000,
0.10241524875164031982421875000000000,
0.09542430937290191650390625000000000,
0.01262471079826354980468750000000000,
-0.11414548754692077636718750000000000,
-0.10390459746122360229492187500000000,
-0.00984469056129455566406250000000000,
0.10032321512699127197265625000000000,
0.08917683362960815429687500000000000,
-0.12517058849334716796875000000000000,
-0.00041040778160095214843750000000000,
0.05789202451705932617187500000000000,
0.14044560492038726806640625000000000,
-0.11200501769781112670898437500000000,
0.08558027446269989013671875000000000,
0.07685285806655883789062500000000000,
0.06028202176094055175781250000000000,
0.05270712077617645263671875000000000,
0.07692006230354309082031250000000000,
0.13585402071475982666015625000000000,
-0.08292286098003387451171875000000000,
-0.07898715883493423461914062500000000,
0.10755948722362518310546875000000000,
0.02094310522079467773437500000000000,
-0.11049737781286239624023437500000000,
0.03818744421005249023437500000000000,
0.09565074741840362548828125000000000,
0.07056844234466552734375000000000000,
0.11395402252674102783203125000000000,
0.06641417741775512695312500000000000,
0.13634522259235382080078125000000000,
-0.03514752537012100219726562500000000,
0.00403957068920135498046875000000000,
-0.02585238963365554809570312500000000,
0.04857504367828369140625000000000000,
-0.04727615416049957275390625000000000,
-0.00134178996086120605468750000000000,
-0.03616924583911895751953125000000000,
0.01292893290519714355468750000000000,
-0.04338746517896652221679687500000000,
-0.00572595000267028808593750000000000,
0.00360989570617675781250000000000000,
0.14099593460559844970703125000000000,
0.09710986912250518798828125000000000,
0.05793927609920501708984375000000000,
-0.06349928677082061767578125000000000,
0.12679405510425567626953125000000000,
-0.07680025696754455566406250000000000,
-0.13522484898567199707031250000000000,
-0.06576570868492126464843750000000000,
-0.00423194468021392822265625000000000,
-0.00452613830566406250000000000000000,
0.05982500314712524414062500000000000,
0.10857388377189636230468750000000000,
-0.02269678562879562377929687500000000,
0.10731805860996246337890625000000000,
-0.00030049681663513183593750000000000,
-0.13896526396274566650390625000000000,
0.13200758397579193115234375000000000,
-0.01559087634086608886718750000000000,
-0.05053988844156265258789062500000000,
0.10453116893768310546875000000000000,
0.04511111974716186523437500000000000,
0.09637433290481567382812500000000000,
-0.06110966205596923828125000000000000,
0.00842104852199554443359375000000000,
-0.07464490085840225219726562500000000,
0.00637719035148620605468750000000000,
-0.04248731583356857299804687500000000,
-0.01119023561477661132812500000000000,
-0.09978958219289779663085937500000000,
0.07186003029346466064453125000000000,
0.05507861077785491943359375000000000,
-0.00286844372749328613281250000000000,
0.08915947377681732177734375000000000,
-0.06403628736734390258789062500000000,
0.00336399674415588378906250000000000,
0.05614982545375823974609375000000000,
-0.05706324428319931030273437500000000,
0.05315518379211425781250000000000000,
-0.13642255961894989013671875000000000,
0.05890770256519317626953125000000000,
-0.01682852953672409057617187500000000,
-0.00502972304821014404296875000000000,
-0.10979608446359634399414062500000000,
0.05375261604785919189453125000000000,
-0.04448451846837997436523437500000000,
-0.04512637853622436523437500000000000,
-0.12833677232265472412109375000000000,
-0.08785565197467803955078125000000000,
0.13804186880588531494140625000000000,
-0.03691098093986511230468750000000000,
-0.10652132332324981689453125000000000,
0.13058464229106903076171875000000000,
0.02795800566673278808593750000000000,
0.07238128781318664550781250000000000,
-0.03069046139717102050781250000000000,
-0.04995733499526977539062500000000000,
-0.13730806112289428710937500000000000,
0.02684712409973144531250000000000000,
-0.11025683581829071044921875000000000,
0.01743939518928527832031250000000000,
-0.05603428930044174194335937500000000,
-0.11566951870918273925781250000000000,
-0.01106554269790649414062500000000000,
-0.03213638067245483398437500000000000,
-0.08027714490890502929687500000000000,
-0.09439257532358169555664062500000000,
0.02729071676731109619140625000000000,
0.12018503248691558837890625000000000,
-0.03118464350700378417968750000000000,
0.02499485015869140625000000000000000,
-0.01711960881948471069335937500000000,
0.13265745341777801513671875000000000,
-0.05791243910789489746093750000000000,
0.12494347989559173583984375000000000,
0.03452339768409729003906250000000000,
0.12246726453304290771484375000000000,
0.04513834416866302490234375000000000,
-0.01740276813507080078125000000000000,
0.13150604069232940673828125000000000,
-0.04800315201282501220703125000000000,
-0.05858914554119110107421875000000000,
0.04308256506919860839843750000000000,
-0.11021404713392257690429687500000000,
-0.10097415745258331298828125000000000,
0.12507320940494537353515625000000000,
-0.00811639428138732910156250000000000,
0.05659744143486022949218750000000000,
-0.05746974050998687744140625000000000,
0.07381439208984375000000000000000000,
-0.01019637286663055419921875000000000,
-0.12754859030246734619140625000000000,
0.13737244904041290283203125000000000,
-0.01336750388145446777343750000000000,
-0.12912769615650177001953125000000000,
-0.09618739038705825805664062500000000,
0.05702069401741027832031250000000000,
-0.04222207516431808471679687500000000,
0.02780234813690185546875000000000000,
0.04922087490558624267578125000000000,
-0.03266268223524093627929687500000000,
0.08281581103801727294921875000000000,
-0.02308107912540435791015625000000000,
0.01666274666786193847656250000000000,
-0.11300086230039596557617187500000000,
-0.04583544284105300903320312500000000,
0.13541142642498016357421875000000000,
-0.04871329665184020996093750000000000,
-0.11799053102731704711914062500000000,
0.05321215093135833740234375000000000,
0.04779744148254394531250000000000000,
0.07337267696857452392578125000000000,
0.00583966076374053955078125000000000,
-0.00722843408584594726562500000000000,
-0.11722020059823989868164062500000000,
-0.13527999818325042724609375000000000,
-0.02934932708740234375000000000000000,
0.03379118442535400390625000000000000,
-0.04854870587587356567382812500000000,
0.06760029494762420654296875000000000,
0.06410814821720123291015625000000000,
-0.02234115451574325561523437500000000,
0.09250003099441528320312500000000000,
-0.13506303727626800537109375000000000,
-0.01835667341947555541992187500000000,
-0.08150425553321838378906250000000000,
0.03382329642772674560546875000000000,
-0.08541440218687057495117187500000000,
-0.02261894941329956054687500000000000,
-0.09481342136859893798828125000000000,
-0.11459545046091079711914062500000000,
-0.02056993544101715087890625000000000,
-0.05696582049131393432617187500000000,
0.09483662247657775878906250000000000,
-0.13643380999565124511718750000000000,
0.05559769272804260253906250000000000,
0.06673534214496612548828125000000000,
0.04026637971401214599609375000000000,
-0.12537774443626403808593750000000000,
0.04222954809665679931640625000000000,
-0.12905454635620117187500000000000000,
-0.01974408328533172607421875000000000,
-0.01917240023612976074218750000000000,
-0.07530148327350616455078125000000000,
-0.01951311528682708740234375000000000,
0.06373749673366546630859375000000000,
-0.07186605781316757202148437500000000,
0.08814427256584167480468750000000000,
-0.11378227174282073974609375000000000,
-0.12362834811210632324218750000000000,
0.10803422331809997558593750000000000,
0.14051415026187896728515625000000000,
-0.08832919597625732421875000000000000,
0.09739042818546295166015625000000000,
0.08866438269615173339843750000000000,
-0.02780955284833908081054687500000000,
-0.03970401734113693237304687500000000,
0.04001449048519134521484375000000000,
0.03961934149265289306640625000000000,
0.08320358395576477050781250000000000,
-0.00195717811584472656250000000000000,
-0.09406335651874542236328125000000000,
-0.08663719892501831054687500000000000,
0.12494550645351409912109375000000000,
0.00298453867435455322265625000000000,
-0.03016350418329238891601562500000000,
-0.06258888542652130126953125000000000,
-0.00834216177463531494140625000000000,
0.02197003364562988281250000000000000,
0.03332534432411193847656250000000000,
0.09011751413345336914062500000000000,
0.06095874309539794921875000000000000,
0.10295575857162475585937500000000000,
-0.13558864593505859375000000000000000,
0.03092053532600402832031250000000000,
0.13265703618526458740234375000000000,
0.09349948167800903320312500000000000,
0.11894159018993377685546875000000000,
-0.07538980990648269653320312500000000,
-0.05395626276731491088867187500000000,
-0.10784060508012771606445312500000000,
-0.03696816414594650268554687500000000,
-0.00834733247756958007812500000000000,
-0.11278900504112243652343750000000000,
-0.01223388314247131347656250000000000,
-0.13468880951404571533203125000000000,
0.08586625754833221435546875000000000,
0.13650386035442352294921875000000000,
-0.12586212158203125000000000000000000,
-0.07693312317132949829101562500000000,
-0.01955591887235641479492187500000000,
0.13731501996517181396484375000000000,
-0.05612777173519134521484375000000000,
-0.01094350218772888183593750000000000,
-0.01735546439886093139648437500000000,
-0.06982746720314025878906250000000000,
0.02118271589279174804687500000000000,
-0.01889156550168991088867187500000000,
-0.07738048583269119262695312500000000,
-0.10266734659671783447265625000000000,
-0.04892219603061676025390625000000000,
0.00940006971359252929687500000000000,
0.02112495899200439453125000000000000,
-0.13889005780220031738281250000000000,
0.05336381494998931884765625000000000,
-0.07625415176153182983398437500000000,
0.06274840235710144042968750000000000,
-0.11857989430427551269531250000000000,
0.03969265520572662353515625000000000,
-0.09613756835460662841796875000000000,
0.06967870891094207763671875000000000,
-0.00762352347373962402343750000000000,
0.13458476960659027099609375000000000,
-0.03772340714931488037109375000000000,
0.02569922804832458496093750000000000,
0.09408679604530334472656250000000000,
0.07992765307426452636718750000000000,
-0.03497895598411560058593750000000000,
-0.06912902742624282836914062500000000,
0.12969322502613067626953125000000000,
0.00310124456882476806640625000000000,
-0.09596340358257293701171875000000000,
0.05064530670642852783203125000000000,
-0.01824449747800827026367187500000000,
-0.12343991547822952270507812500000000,
-0.04141804575920104980468750000000000,
0.01108652353286743164062500000000000,
-0.11937215179204940795898437500000000,
0.02792181074619293212890625000000000,
0.08477500081062316894531250000000000,
0.09733168780803680419921875000000000,
0.06877686083316802978515625000000000,
0.02559415996074676513671875000000000,
-0.04720838367938995361328125000000000,
0.03827811777591705322265625000000000,
-0.10810540616512298583984375000000000,
0.00533211231231689453125000000000000,
0.11823101341724395751953125000000000,
0.03996737301349639892578125000000000,
-0.08635370433330535888671875000000000,
-0.07176399976015090942382812500000000,
0.07678279280662536621093750000000000,
-0.08630462735891342163085937500000000,
-0.11095702648162841796875000000000000,
-0.01862577348947525024414062500000000,
0.08698099851608276367187500000000000,
0.08851808309555053710937500000000000,
0.00518471002578735351562500000000000,
0.12001590430736541748046875000000000,
-0.07032669335603713989257812500000000,
0.08627678453922271728515625000000000,
0.07445065677165985107421875000000000,
0.06422746181488037109375000000000000,
-0.09355692565441131591796875000000000,
0.10075533390045166015625000000000000,
-0.12010549008846282958984375000000000,
-0.12630110979080200195312500000000000,
0.06194977462291717529296875000000000,
0.06623376905918121337890625000000000,
-0.05968584120273590087890625000000000,
0.05666527152061462402343750000000000,
-0.01776237040758132934570312500000000,
-0.08309166133403778076171875000000000,
-0.12376411259174346923828125000000000,
0.02232778072357177734375000000000000,
0.13278917968273162841796875000000000,
-0.07334677875041961669921875000000000,
0.01065969467163085937500000000000000,
-0.12863680720329284667968750000000000,
0.04315045475959777832031250000000000,
-0.11190328001976013183593750000000000,
-0.04165495932102203369140625000000000,
0.10021516680717468261718750000000000,
0.11310382187366485595703125000000000,
0.12446026504039764404296875000000000,
0.14020802080631256103515625000000000,
0.06384342908859252929687500000000000,
-0.09813675284385681152343750000000000,
0.11795805394649505615234375000000000,
-0.07191789895296096801757812500000000,
-0.11558596789836883544921875000000000,
0.05208235979080200195312500000000000,
-0.00358985364437103271484375000000000,
0.04768158495426177978515625000000000,
-0.04652265459299087524414062500000000,
-0.05990453064441680908203125000000000,
0.00864100456237792968750000000000000,
-0.08717430382966995239257812500000000,
-0.08010692894458770751953125000000000,
0.10362811386585235595703125000000000,
0.00801186263561248779296875000000000,
0.08401581645011901855468750000000000,
0.01980081200599670410156250000000000,
0.00096116960048675537109375000000000,
0.10682128369808197021484375000000000,
-0.08326818048954010009765625000000000,
-0.13074669241905212402343750000000000,
0.09650136530399322509765625000000000,
0.00584705173969268798828125000000000,
-0.07830569893121719360351562500000000,
0.13368885219097137451171875000000000,
-0.05878246575593948364257812500000000,
-0.02791050076484680175781250000000000,
0.02639397978782653808593750000000000,
0.12490154802799224853515625000000000,
0.10710176825523376464843750000000000,
0.13042216002941131591796875000000000,
-0.04621631652116775512695312500000000,
0.11384175717830657958984375000000000,
-0.08780103921890258789062500000000000,
-0.05875830352306365966796875000000000,
-0.02466428279876708984375000000000000,
-0.05688730627298355102539062500000000,
0.09516681730747222900390625000000000,
0.01545226573944091796875000000000000,
0.08395716547966003417968750000000000,
0.07906238734722137451171875000000000,
0.05880638957023620605468750000000000,
0.02264976501464843750000000000000000,
-0.02490486204624176025390625000000000,
-0.09618975222110748291015625000000000,
-0.05479098856449127197265625000000000,
-0.07412100583314895629882812500000000,
0.01039141416549682617187500000000000,
-0.03496243059635162353515625000000000,
0.09784674644470214843750000000000000,
-0.10437923669815063476562500000000000,
0.01266784965991973876953125000000000,
-0.07361503690481185913085937500000000,
-0.12345451116561889648437500000000000,
-0.05855591595172882080078125000000000,
-0.07673746347427368164062500000000000,
-0.10034471750259399414062500000000000,
-0.10734022408723831176757812500000000,
-0.09274703264236450195312500000000000,
-0.01730650663375854492187500000000000,
-0.02910558879375457763671875000000000,
-0.11210863292217254638671875000000000,
-0.04820892959833145141601562500000000,
-0.07966201007366180419921875000000000,
-0.06171964854001998901367187500000000,
-0.00700630247592926025390625000000000,
-0.12850697338581085205078125000000000,
-0.09779829531908035278320312500000000,
-0.10073572397232055664062500000000000,
-0.06364821642637252807617187500000000,
-0.00220377743244171142578125000000000,
0.10255479812622070312500000000000000,
0.01803989708423614501953125000000000,
0.10193464159965515136718750000000000,
0.09521438181400299072265625000000000,
-0.13591349124908447265625000000000000,
0.10281613469123840332031250000000000,
0.12806393206119537353515625000000000,
-0.02278497815132141113281250000000000,
-0.03018146008253097534179687500000000,
0.04503434896469116210937500000000000,
0.09957225620746612548828125000000000,
-0.05688139051198959350585937500000000,
-0.02073321491479873657226562500000000,
-0.01281060278415679931640625000000000,
0.03662247955799102783203125000000000,
0.05762949585914611816406250000000000,
-0.10083773732185363769531250000000000,
0.10300712287425994873046875000000000,
-0.01345331966876983642578125000000000,
-0.02645259350538253784179687500000000,
-0.02351930737495422363281250000000000,
0.05211578309535980224609375000000000,
0.10398083925247192382812500000000000,
0.13252995908260345458984375000000000,
-0.11947502195835113525390625000000000,
0.06891733407974243164062500000000000,
-0.06591047346591949462890625000000000,
0.08590020239353179931640625000000000,
0.11510433256626129150390625000000000,
0.03085730969905853271484375000000000,
-0.04902894049882888793945312500000000,
-0.14074255526065826416015625000000000,
-0.08525667339563369750976562500000000,
-0.04996988177299499511718750000000000,
-0.11754950881004333496093750000000000,
-0.02912081032991409301757812500000000,
-0.01532436907291412353515625000000000,
0.00830830633640289306640625000000000,
-0.13435834646224975585937500000000000,
-0.02892085164785385131835937500000000,
0.10111105442047119140625000000000000,
0.00285290181636810302734375000000000,
0.07249860465526580810546875000000000,
0.09063528478145599365234375000000000,
-0.06761468946933746337890625000000000,
0.07023936510086059570312500000000000,
0.00363607704639434814453125000000000,
0.04980820417404174804687500000000000,
0.11460439860820770263671875000000000,
0.07928360998630523681640625000000000,
0.09812177717685699462890625000000000,
-0.08478827029466629028320312500000000,
0.09963756799697875976562500000000000,
0.01407764852046966552734375000000000,
0.11616198718547821044921875000000000,
-0.02839015424251556396484375000000000,
-0.11131875216960906982421875000000000,
-0.10407572984695434570312500000000000,
0.13664330542087554931640625000000000,
0.14025576412677764892578125000000000,
-0.02659948170185089111328125000000000,
-0.13088239729404449462890625000000000,
-0.12323290854692459106445312500000000,
-0.10719385743141174316406250000000000,
-0.11032748967409133911132812500000000,
-0.08295420557260513305664062500000000,
-0.04278884828090667724609375000000000,
-0.08889097720384597778320312500000000,
0.03689934313297271728515625000000000,
0.03292638063430786132812500000000000,
0.07994611561298370361328125000000000,
-0.06991448998451232910156250000000000,
-0.03063663095235824584960937500000000,
-0.12994538247585296630859375000000000,
-0.06049188971519470214843750000000000,
-0.11755560338497161865234375000000000,
-0.09784689545631408691406250000000000,
0.12185217440128326416015625000000000,
0.09728360176086425781250000000000000,
-0.10921260714530944824218750000000000,
0.08814552426338195800781250000000000,
-0.00770381093025207519531250000000000,
-0.04958875477313995361328125000000000,
-0.01320485770702362060546875000000000,
-0.02573724091053009033203125000000000,
-0.01837496459484100341796875000000000,
-0.07814295589923858642578125000000000,
0.05298461019992828369140625000000000,
-0.13406798243522644042968750000000000,
-0.07996746152639389038085937500000000,
-0.07187218219041824340820312500000000,
0.02019773423671722412109375000000000,
0.10568289458751678466796875000000000,
-0.13247588276863098144531250000000000,
-0.06829121708869934082031250000000000,
0.05541144311428070068359375000000000,
-0.10145123302936553955078125000000000,
0.09491451084613800048828125000000000,
0.10919015109539031982421875000000000,
0.07790474593639373779296875000000000,
-0.07702294737100601196289062500000000,
-0.04601797461509704589843750000000000,
0.01613716781139373779296875000000000,
0.14041422307491302490234375000000000,
-0.05660070478916168212890625000000000,
0.07842229306697845458984375000000000,
0.11527658998966217041015625000000000,
-0.06094697862863540649414062500000000,
-0.12351075559854507446289062500000000,
0.08904112875461578369140625000000000,
-0.12520927190780639648437500000000000,
0.03412091732025146484375000000000000,
0.09944076836109161376953125000000000,
0.12971948087215423583984375000000000,
-0.10281950235366821289062500000000000,
-0.07522670179605484008789062500000000,
0.12407965958118438720703125000000000,
0.12328259646892547607421875000000000,
-0.07450523227453231811523437500000000,
-0.10976545512676239013671875000000000,
0.05826011300086975097656250000000000,
0.13257248699665069580078125000000000,
-0.09821075946092605590820312500000000,
0.11331294476985931396484375000000000,
-0.05085418373346328735351562500000000,
-0.08227638900279998779296875000000000,
-0.09256409108638763427734375000000000,
-0.11083234101533889770507812500000000,
0.05265361070632934570312500000000000,
0.00458894670009613037109375000000000,
0.01169615983963012695312500000000000,
-0.10965556651353836059570312500000000,
0.01112350821495056152343750000000000,
-0.00962816178798675537109375000000000,
-0.00481097400188446044921875000000000,
0.06608112156391143798828125000000000,
-0.10121110826730728149414062500000000,
0.09258350729942321777343750000000000,
-0.11658226698637008666992187500000000,
-0.06284993886947631835937500000000000,
-0.11312705278396606445312500000000000,
0.12348790466785430908203125000000000,
0.08031375706195831298828125000000000,
-0.10542322695255279541015625000000000,
0.09715446829795837402343750000000000,
-0.00038345158100128173828125000000000,
0.09966151416301727294921875000000000,
-0.07538297772407531738281250000000000,
-0.06028284132480621337890625000000000,
0.11503480374813079833984375000000000,
0.12663428485393524169921875000000000,
-0.01599267125129699707031250000000000,
-0.09198261797428131103515625000000000,
-0.07997153699398040771484375000000000,
-0.03200592845678329467773437500000000,
0.10858629643917083740234375000000000,
0.02103495597839355468750000000000000,
0.09215517342090606689453125000000000,
0.13276697695255279541015625000000000,
0.11257006227970123291015625000000000,
-0.01213663816452026367187500000000000,
0.10893018543720245361328125000000000,
-0.11003461480140686035156250000000000,
0.02271199226379394531250000000000000,
0.04678680002689361572265625000000000,
0.09650082886219024658203125000000000,
0.04671241343021392822265625000000000,
-0.11935033649206161499023437500000000,
0.06869992613792419433593750000000000,
0.06248338520526885986328125000000000,
-0.06709716469049453735351562500000000,
-0.10353564471006393432617187500000000,
0.08600352704524993896484375000000000,
-0.05061845481395721435546875000000000,
0.10253009200096130371093750000000000,
0.08269976079463958740234375000000000,
-0.10189746320247650146484375000000000,
-0.04036395251750946044921875000000000,
-0.05061092972755432128906250000000000,
0.03985744714736938476562500000000000,
0.11663140356540679931640625000000000,
0.06672868132591247558593750000000000,
-0.11044652760028839111328125000000000,
-0.04008805751800537109375000000000000,
0.12813134491443634033203125000000000,
0.06873224675655364990234375000000000,
0.02593289315700531005859375000000000,
0.04591354727745056152343750000000000,
0.10851383209228515625000000000000000,
-0.11223091185092926025390625000000000,
0.08868449926376342773437500000000000,
-0.03544159233570098876953125000000000,
0.10244025290012359619140625000000000,
0.01905916631221771240234375000000000,
0.05419062077999114990234375000000000,
-0.12216021865606307983398437500000000,
0.07718986272811889648437500000000000,
-0.07567889988422393798828125000000000,
0.12913404405117034912109375000000000,
-0.03263530135154724121093750000000000,
-0.03413611650466918945312500000000000,
0.04096545279026031494140625000000000,
0.02400422096252441406250000000000000,
-0.09749320149421691894531250000000000,
0.11469192802906036376953125000000000,
-0.12396261841058731079101562500000000,
0.06497745215892791748046875000000000,
-0.04779567569494247436523437500000000,
0.11807985603809356689453125000000000,
0.03728531301021575927734375000000000,
-0.08484543859958648681640625000000000,
-0.05213277041912078857421875000000000,
0.08514244854450225830078125000000000,
-0.01459395885467529296875000000000000,
-0.04157186299562454223632812500000000,
-0.03953794389963150024414062500000000,
-0.08629649877548217773437500000000000,
0.01123574376106262207031250000000000,
0.10126388072967529296875000000000000,
0.03241893649101257324218750000000000,
-0.03170181810855865478515625000000000,
-0.12518194317817687988281250000000000,
-0.08008658885955810546875000000000000,
0.13536529242992401123046875000000000,
0.04839955270290374755859375000000000,
-0.12783588469028472900390625000000000,
0.00086562335491180419921875000000000,
0.00263233482837677001953125000000000,
0.07975035905838012695312500000000000,
-0.07448360323905944824218750000000000,
-0.07109878957271575927734375000000000,
0.05816096067428588867187500000000000,
0.07812032103538513183593750000000000,
-0.11851515620946884155273437500000000,
-0.08495752513408660888671875000000000,
0.12739206850528717041015625000000000,
-0.09090889990329742431640625000000000,
0.05899477005004882812500000000000000,
0.12825463712215423583984375000000000,
0.11936847865581512451171875000000000,
-0.00092577934265136718750000000000000,
-0.12818458676338195800781250000000000,
-0.09188962727785110473632812500000000,
-0.07683367282152175903320312500000000,
0.07908990979194641113281250000000000,
-0.12882438302040100097656250000000000,
0.07158719003200531005859375000000000,
0.02400918304920196533203125000000000,
-0.03668092936277389526367187500000000,
-0.11431360244750976562500000000000000,
0.05913838744163513183593750000000000,
0.08645287156105041503906250000000000,
0.03916345536708831787109375000000000,
-0.02034933865070343017578125000000000,
0.03701131045818328857421875000000000,
0.12028844654560089111328125000000000,
-0.04187412559986114501953125000000000,
0.07137301564216613769531250000000000,
0.00880734622478485107421875000000000,
-0.03680143505334854125976562500000000,
-0.02774928510189056396484375000000000,
-0.11760175228118896484375000000000000,
0.00368560850620269775390625000000000,
0.02840891480445861816406250000000000,
0.13600091636180877685546875000000000,
-0.04901482909917831420898437500000000,
-0.08556719124317169189453125000000000,
0.02552905678749084472656250000000000,
0.11209534108638763427734375000000000,
-0.06148136407136917114257812500000000,
0.08306354284286499023437500000000000,
0.12229008972644805908203125000000000,
0.02332331240177154541015625000000000,
0.13188396394252777099609375000000000,
0.05764104425907135009765625000000000,
-0.13640974462032318115234375000000000,
0.08281467854976654052734375000000000,
-0.03921624273061752319335937500000000,
-0.01079711318016052246093750000000000,
-0.00877831876277923583984375000000000,
0.10783380270004272460937500000000000,
-0.12046302855014801025390625000000000,
-0.07210463285446166992187500000000000,
-0.03736567497253417968750000000000000,
0.08700014650821685791015625000000000,
0.04293081164360046386718750000000000,
0.10030005872249603271484375000000000,
-0.09156337380409240722656250000000000,
0.09542596340179443359375000000000000,
-0.06981344521045684814453125000000000,
-0.07745046913623809814453125000000000,
-0.03025145828723907470703125000000000,
-0.05607888102531433105468750000000000,
-0.08590475469827651977539062500000000,
-0.10953752696514129638671875000000000,
0.14041970670223236083984375000000000,
-0.04502342641353607177734375000000000,
0.03691148757934570312500000000000000,
-0.13551457226276397705078125000000000,
0.08575566112995147705078125000000000,
-0.11463703960180282592773437500000000,
0.05230399966239929199218750000000000,
-0.00284054875373840332031250000000000,
-0.01352028548717498779296875000000000,
0.00478763878345489501953125000000000,
-0.06754845380783081054687500000000000,
0.01670980453491210937500000000000000,
-0.03289807587862014770507812500000000,
0.07916460931301116943359375000000000,
0.06467366218566894531250000000000000,
0.12775258719921112060546875000000000,
0.00402219593524932861328125000000000,
-0.06407177448272705078125000000000000,
0.12323568761348724365234375000000000,
-0.11540458351373672485351562500000000,
-0.03337292373180389404296875000000000,
0.06165198981761932373046875000000000,
0.01315580308437347412109375000000000,
-0.10874915868043899536132812500000000,
-0.04764188826084136962890625000000000,
-0.05523329228162765502929687500000000,
0.04732732474803924560546875000000000,
0.03402486443519592285156250000000000,
-0.13706000149250030517578125000000000,
-0.10851514339447021484375000000000000,
0.11360909044742584228515625000000000,
0.02041375637054443359375000000000000,
-0.04766918718814849853515625000000000,
0.05627283453941345214843750000000000,
0.01001970469951629638671875000000000,
0.07829672098159790039062500000000000,
-0.05628695338964462280273437500000000,
-0.11310517042875289916992187500000000,
-0.13491280376911163330078125000000000,
-0.09247055649757385253906250000000000,
-0.06914157420396804809570312500000000,
-0.12432088702917098999023437500000000,
0.05142550170421600341796875000000000,
0.07102099061012268066406250000000000,
-0.04820557683706283569335937500000000,
-0.04615209996700286865234375000000000,
0.00043006241321563720703125000000000,
-0.08467368036508560180664062500000000,
-0.08240155875682830810546875000000000,
-0.05733728408813476562500000000000000,
-0.01567214727401733398437500000000000,
-0.00022740662097930908203125000000000,
0.08942018449306488037109375000000000,
0.12762843072414398193359375000000000,
0.00370039045810699462890625000000000,
-0.01284717023372650146484375000000000,
-0.02662196010351181030273437500000000,
-0.02189989387989044189453125000000000,
-0.12501740455627441406250000000000000,
-0.00304926931858062744140625000000000,
0.06981682777404785156250000000000000,
-0.09439127147197723388671875000000000,
0.04255691170692443847656250000000000,
-0.10232128947973251342773437500000000,
0.03479602932929992675781250000000000,
0.03929683566093444824218750000000000,
0.09659093618392944335937500000000000,
0.11303953826427459716796875000000000,
0.11467821896076202392578125000000000,
-0.11589190363883972167968750000000000,
0.09985201060771942138671875000000000,
-0.03947674483060836791992187500000000,
0.04691193997859954833984375000000000,
-0.01677109301090240478515625000000000,
0.07323490083217620849609375000000000,
0.12045721709728240966796875000000000,
-0.11176928132772445678710937500000000,
-0.00008949637413024902343750000000000,
0.14127014577388763427734375000000000,
0.00041778385639190673828125000000000,
0.06840312480926513671875000000000000,
0.02211806178092956542968750000000000,
0.11751587688922882080078125000000000,
0.01520022749900817871093750000000000,
0.07746687531471252441406250000000000,
0.06817530095577239990234375000000000,
-0.09993386268615722656250000000000000,
0.08639438450336456298828125000000000,
0.10968287289142608642578125000000000,
-0.05237356573343276977539062500000000,
-0.06338756531476974487304687500000000,
-0.00525228679180145263671875000000000,
-0.13781708478927612304687500000000000,
0.05197314918041229248046875000000000,
-0.10640840232372283935546875000000000,
0.10118483006954193115234375000000000,
0.06196318566799163818359375000000000,
-0.13632591068744659423828125000000000,
-0.13377413153648376464843750000000000,
0.01413218677043914794921875000000000,
-0.00309742987155914306640625000000000,
-0.10256052017211914062500000000000000,
0.12510190904140472412109375000000000,
-0.12051271647214889526367187500000000,
0.14084304869174957275390625000000000,
-0.12057000398635864257812500000000000,
0.09894745051860809326171875000000000,
0.12141780555248260498046875000000000,
-0.10729382932186126708984375000000000,
0.06196971237659454345703125000000000,
-0.12089070677757263183593750000000000,
-0.06111872941255569458007812500000000,
0.00573341548442840576171875000000000,
-0.02186661213636398315429687500000000,
0.11253999173641204833984375000000000,
-0.03219418972730636596679687500000000,
-0.08435997366905212402343750000000000,
0.01145096123218536376953125000000000,
0.07153436541557312011718750000000000,
0.01024609804153442382812500000000000,
0.04916819930076599121093750000000000,
0.01089338958263397216796875000000000,
0.05987550318241119384765625000000000,
-0.06958502531051635742187500000000000,
-0.02893659472465515136718750000000000,
0.07279990613460540771484375000000000,
-0.12712937593460083007812500000000000,
-0.12671995162963867187500000000000000,
-0.08809651434421539306640625000000000,
0.07214036583900451660156250000000000,
0.02461360394954681396484375000000000,
0.08953425288200378417968750000000000,
-0.09290905296802520751953125000000000,
-0.09380265325307846069335937500000000,
0.10020087659358978271484375000000000,
-0.02924983203411102294921875000000000,
-0.02223102748394012451171875000000000,
-0.05318974703550338745117187500000000,
0.10217945277690887451171875000000000,
-0.12347558885812759399414062500000000,
0.02764877676963806152343750000000000,
0.02832077443599700927734375000000000,
0.02413910627365112304687500000000000,
0.13790212571620941162109375000000000,
0.06957815587520599365234375000000000,
-0.08345401287078857421875000000000000,
-0.02876485139131546020507812500000000,
0.14004813134670257568359375000000000,
0.09769557416439056396484375000000000,
-0.05638299137353897094726562500000000,
0.09185329079627990722656250000000000,
-0.05370014160871505737304687500000000,
-0.05231862515211105346679687500000000,
-0.02885455638170242309570312500000000,
0.05155099928379058837890625000000000,
0.02374398708343505859375000000000000,
0.11198593676090240478515625000000000,
-0.09681876748800277709960937500000000,
0.00476042926311492919921875000000000,
0.05411815643310546875000000000000000,
0.02773936092853546142578125000000000,
-0.08300751447677612304687500000000000,
-0.05653312057256698608398437500000000,
0.01137202978134155273437500000000000,
0.00728733837604522705078125000000000,
-0.05072240531444549560546875000000000,
-0.04978059232234954833984375000000000,
-0.11649703234434127807617187500000000,
-0.02618797868490219116210937500000000,
-0.12032169103622436523437500000000000,
0.10168012976646423339843750000000000,
0.00469750165939331054687500000000000,
-0.08618353307247161865234375000000000,
0.05341587960720062255859375000000000,
-0.06132467836141586303710937500000000,
-0.13169574737548828125000000000000000,
0.07364155352115631103515625000000000,
0.01951590180397033691406250000000000,
-0.10106077790260314941406250000000000,
0.01080003380775451660156250000000000,
-0.00046125054359436035156250000000000,
0.10266004502773284912109375000000000,
-0.02250213921070098876953125000000000,
0.01023015379905700683593750000000000,
0.04264301061630249023437500000000000,
-0.00849412381649017333984375000000000,
0.09524753689765930175781250000000000,
0.02703563868999481201171875000000000,
-0.14049856364727020263671875000000000,
0.10548758506774902343750000000000000,
0.11465273797512054443359375000000000,
-0.09747591614723205566406250000000000,
0.04804842174053192138671875000000000,
-0.11381246149539947509765625000000000,
0.01591140031814575195312500000000000,
-0.07221164554357528686523437500000000,
-0.00291076302528381347656250000000000,
-0.13769404590129852294921875000000000,
-0.05100830644369125366210937500000000,
-0.04466971009969711303710937500000000,
-0.08925738930702209472656250000000000,
-0.00553658604621887207031250000000000,
-0.00484737753868103027343750000000000,
-0.13274024426937103271484375000000000,
0.00152583420276641845703125000000000,
0.06639488041400909423828125000000000,
-0.11872489750385284423828125000000000,
-0.08234070241451263427734375000000000,
0.07125167548656463623046875000000000,
0.00452682375907897949218750000000000,
0.09799693524837493896484375000000000,
0.00464749336242675781250000000000000,
-0.05154192447662353515625000000000000,
0.04147449135780334472656250000000000,
0.03223732113838195800781250000000000,
-0.11639002710580825805664062500000000,
0.07700969278812408447265625000000000,
-0.09122169762849807739257812500000000,
-0.02065815776586532592773437500000000,
0.10885693132877349853515625000000000,
0.12767462432384490966796875000000000,
-0.13282850384712219238281250000000000,
-0.06331532448530197143554687500000000,
-0.11689059436321258544921875000000000,
-0.00917354226112365722656250000000000,
0.05536510050296783447265625000000000,
-0.13203223049640655517578125000000000,
-0.04532993584871292114257812500000000,
0.08990274369716644287109375000000000,
-0.08720190078020095825195312500000000,
-0.07882904261350631713867187500000000,
-0.02463776618242263793945312500000000,
-0.10217015445232391357421875000000000,
0.13914252817630767822265625000000000,
0.11798097193241119384765625000000000,
-0.00402642786502838134765625000000000,
-0.09240995347499847412109375000000000,
0.12081985175609588623046875000000000,
-0.05424321442842483520507812500000000,
-0.13262075185775756835937500000000000,
0.10322995483875274658203125000000000,
0.09650889039039611816406250000000000,
-0.12413734197616577148437500000000000,
0.03069241344928741455078125000000000,
-0.08731111139059066772460937500000000,
-0.11027251183986663818359375000000000,
-0.06702651083469390869140625000000000,
0.04291538894176483154296875000000000,
-0.01773131638765335083007812500000000,
0.04781821370124816894531250000000000,
-0.09014538675546646118164062500000000,
-0.06075583398342132568359375000000000,
-0.07994173467159271240234375000000000,
0.06187419593334197998046875000000000,
-0.02401047199964523315429687500000000,
-0.00356905162334442138671875000000000,
0.06124694645404815673828125000000000,
0.06488436460494995117187500000000000,
-0.11079858988523483276367187500000000,
0.08163759112358093261718750000000000,
0.07795023918151855468750000000000000,
-0.06291813403367996215820312500000000,
0.02358829975128173828125000000000000,
0.10233695805072784423828125000000000,
0.05020183324813842773437500000000000,
0.12795843183994293212890625000000000,
-0.09046573936939239501953125000000000,
-0.07631628215312957763671875000000000,
-0.10361245274543762207031250000000000,
0.04380644857883453369140625000000000,
-0.03078465163707733154296875000000000,
-0.02618558704853057861328125000000000,
-0.02778635919094085693359375000000000,
-0.06148896366357803344726562500000000,
-0.06852345913648605346679687500000000,
-0.07494650781154632568359375000000000,
0.03537631034851074218750000000000000,
0.07293041050434112548828125000000000,
0.09136731922626495361328125000000000,
0.13245303928852081298828125000000000,
0.12392391264438629150390625000000000,
0.01619662344455718994140625000000000,
0.09600204229354858398437500000000000,
0.12313659489154815673828125000000000,
-0.13962884247303009033203125000000000,
-0.06722225248813629150390625000000000,
-0.10126553475856781005859375000000000,
-0.13034529983997344970703125000000000,
0.11890281736850738525390625000000000,
0.13036938011646270751953125000000000,
0.01837152242660522460937500000000000,
0.07672211527824401855468750000000000,
-0.12728926539421081542968750000000000,
-0.13423617184162139892578125000000000,
0.12191040813922882080078125000000000,
-0.03932677209377288818359375000000000,
0.08570605516433715820312500000000000,
0.05079676210880279541015625000000000,
0.01374045014381408691406250000000000,
0.00896461308002471923828125000000000,
0.01000589132308959960937500000000000,
-0.09529520571231842041015625000000000,
-0.00486688315868377685546875000000000,
0.13069801032543182373046875000000000,
0.09272654354572296142578125000000000,
-0.12182036042213439941406250000000000,
-0.01718868315219879150390625000000000,
-0.03784217685461044311523437500000000,
-0.02015209197998046875000000000000000,
0.03904549777507781982421875000000000,
-0.11152621358633041381835937500000000,
-0.07525662332773208618164062500000000,
0.08181345462799072265625000000000000,
-0.04205360263586044311523437500000000,
0.13266427814960479736328125000000000,
-0.03000508248805999755859375000000000,
0.07717160880565643310546875000000000,
0.11075095832347869873046875000000000,
-0.01553165912628173828125000000000000,
0.09890262782573699951171875000000000,
0.07612013816833496093750000000000000,
0.07822492718696594238281250000000000,
-0.02181740105152130126953125000000000,
0.06355236470699310302734375000000000,
-0.08447197079658508300781250000000000,
-0.03304385393857955932617187500000000,
0.06880533695220947265625000000000000,
-0.11582593619823455810546875000000000,
-0.01401019096374511718750000000000000,
-0.01215891540050506591796875000000000,
0.02310439944267272949218750000000000,
0.03151144087314605712890625000000000,
-0.06701862066984176635742187500000000,
-0.03830959647893905639648437500000000,
-0.03276727348566055297851562500000000,
0.11729471385478973388671875000000000,
0.00901478528976440429687500000000000,
-0.07077857106924057006835937500000000,
0.07910643517971038818359375000000000,
-0.05442736297845840454101562500000000,
0.02000226080417633056640625000000000,
-0.01032088696956634521484375000000000,
-0.05125151574611663818359375000000000,
0.02173550426959991455078125000000000,
0.10556624829769134521484375000000000,
-0.00670370459556579589843750000000000,
0.04259221255779266357421875000000000,
0.06184779107570648193359375000000000,
-0.11478957533836364746093750000000000,
-0.12997415661811828613281250000000000,
0.03821656107902526855468750000000000,
-0.00942656397819519042968750000000000,
0.04486119747161865234375000000000000,
-0.08289429545402526855468750000000000,
-0.00309374928474426269531250000000000,
-0.08868831396102905273437500000000000,
-0.03613107651472091674804687500000000,
0.03436450660228729248046875000000000,
-0.07091213017702102661132812500000000,
-0.12855632603168487548828125000000000,
0.03379477560520172119140625000000000,
0.02256013453006744384765625000000000,
-0.03563553094863891601562500000000000,
0.03015552461147308349609375000000000,
-0.04361629486083984375000000000000000,
-0.06859900802373886108398437500000000,
0.04922908544540405273437500000000000,
0.08076806366443634033203125000000000,
0.05654411017894744873046875000000000,
0.07815127074718475341796875000000000,
-0.07448785006999969482421875000000000,
0.13162128627300262451171875000000000,
-0.06243253499269485473632812500000000,
0.00765277445316314697265625000000000,
-0.05916441977024078369140625000000000,
-0.00648310780525207519531250000000000,
0.13413317501544952392578125000000000,
-0.04941647499799728393554687500000000,
0.11297608911991119384765625000000000,
-0.02386450767517089843750000000000000,
0.01471248269081115722656250000000000,
-0.11531518399715423583984375000000000,
0.06435242295265197753906250000000000,
0.04986837506294250488281250000000000,
0.03899411857128143310546875000000000,
0.02783921360969543457031250000000000,
0.13982708752155303955078125000000000,
-0.13894581794738769531250000000000000,
-0.05284928530454635620117187500000000,
-0.06316068023443222045898437500000000,
-0.01662278175354003906250000000000000,
0.13470120728015899658203125000000000,
-0.07203625142574310302734375000000000,
0.04301726818084716796875000000000000,
-0.08604331314563751220703125000000000,
0.07720473408699035644531250000000000,
-0.04806802421808242797851562500000000,
-0.13231948018074035644531250000000000,
0.06273882091045379638671875000000000,
-0.06380050629377365112304687500000000,
-0.09492765367031097412109375000000000,
-0.01481284201145172119140625000000000,
-0.14072968065738677978515625000000000,
-0.09701614826917648315429687500000000,
-0.12133227288722991943359375000000000,
0.12831901013851165771484375000000000,
0.12231568992137908935546875000000000,
0.06918685138225555419921875000000000,
-0.06217675656080245971679687500000000,
0.12676249444484710693359375000000000,
0.01602491736412048339843750000000000,
0.11123813688755035400390625000000000,
-0.03021957725286483764648437500000000,
0.14030300080776214599609375000000000,
-0.04683046042919158935546875000000000,
-0.11798412352800369262695312500000000,
-0.05278401076793670654296875000000000,
-0.01451613008975982666015625000000000,
0.08625730872154235839843750000000000,
-0.04955086857080459594726562500000000,
0.07782715559005737304687500000000000,
-0.08236919343471527099609375000000000,
0.07982750236988067626953125000000000,
0.01645572483539581298828125000000000,
0.03758360445499420166015625000000000,
-0.08769412338733673095703125000000000,
0.07014068961143493652343750000000000,
0.03411254286766052246093750000000000,
0.10466332733631134033203125000000000,
-0.13282814621925354003906250000000000,
-0.06380220502614974975585937500000000,
-0.10323189944028854370117187500000000,
0.10627938807010650634765625000000000,
-0.02399486303329467773437500000000000,
-0.02971836924552917480468750000000000,
-0.09578922390937805175781250000000000,
-0.08293218910694122314453125000000000,
-0.10632847994565963745117187500000000,
-0.12726692855358123779296875000000000,
0.00357735157012939453125000000000000,
0.11651526391506195068359375000000000,
-0.13304382562637329101562500000000000,
-0.09788970649242401123046875000000000,
0.11976613104343414306640625000000000,
0.11669932305812835693359375000000000,
0.06520576775074005126953125000000000,
-0.08873208612203598022460937500000000,
-0.05246785283088684082031250000000000,
-0.04185512661933898925781250000000000,
-0.13622571527957916259765625000000000,
-0.01305113732814788818359375000000000,
-0.08145865052938461303710937500000000,
0.04628187417984008789062500000000000,
-0.09614023566246032714843750000000000,
-0.06849333643913269042968750000000000,
0.07658946514129638671875000000000000,
-0.01598791778087615966796875000000000,
-0.06285932660102844238281250000000000,
0.07022492587566375732421875000000000,
-0.03918333351612091064453125000000000,
-0.07695305347442626953125000000000000,
-0.06539677083492279052734375000000000,
-0.04682560265064239501953125000000000,
0.08651763200759887695312500000000000,
0.08754003047943115234375000000000000,
0.07722765207290649414062500000000000,
0.07392808794975280761718750000000000,
0.06821829080581665039062500000000000,
0.03731353580951690673828125000000000,
-0.01718153804540634155273437500000000,
-0.11875775456428527832031250000000000,
-0.11329280585050582885742187500000000,
-0.08400690555572509765625000000000000,
0.13846822082996368408203125000000000,
0.00619764626026153564453125000000000,
-0.07794477045536041259765625000000000,
0.01465460658073425292968750000000000,
-0.12262699007987976074218750000000000,
-0.00984001159667968750000000000000000,
-0.13370676338672637939453125000000000,
0.12417642772197723388671875000000000,
-0.10859710723161697387695312500000000,
-0.11809334903955459594726562500000000,
0.07891911268234252929687500000000000,
0.04290986061096191406250000000000000,
0.00304375588893890380859375000000000,
0.14129777252674102783203125000000000,
-0.10065238177776336669921875000000000,
0.02981370687484741210937500000000000,
-0.02120539546012878417968750000000000,
0.04546074569225311279296875000000000,
0.00640060007572174072265625000000000,
-0.05392591655254364013671875000000000,
0.01218107342720031738281250000000000,
-0.08245824277400970458984375000000000,
0.08191640675067901611328125000000000,
0.06800174713134765625000000000000000,
0.05223162472248077392578125000000000,
-0.02273343503475189208984375000000000,
-0.00334799289703369140625000000000000,
0.13038681447505950927734375000000000,
-0.10004901885986328125000000000000000,
-0.11230669170618057250976562500000000,
-0.13298195600509643554687500000000000,
-0.00218434631824493408203125000000000,
0.08413049578666687011718750000000000,
-0.00338061153888702392578125000000000,
0.01515270769596099853515625000000000,
-0.14048849046230316162109375000000000,
0.04465888440608978271484375000000000,
-0.07594144344329833984375000000000000,
0.07405695319175720214843750000000000,
0.07303717732429504394531250000000000,
0.11175267398357391357421875000000000,
-0.13745100796222686767578125000000000,
0.03859555721282958984375000000000000,
-0.04358419030904769897460937500000000,
-0.04110086709260940551757812500000000,
0.10904212296009063720703125000000000,
0.13861410319805145263671875000000000,
0.05147922039031982421875000000000000,
-0.09533054381608963012695312500000000,
-0.11968538910150527954101562500000000,
-0.11803210526704788208007812500000000,
-0.12717474997043609619140625000000000,
0.02406483888626098632812500000000000,
-0.01925849914550781250000000000000000,
0.12497813999652862548828125000000000,
-0.08760926127433776855468750000000000,
0.05545483529567718505859375000000000,
-0.09597121179103851318359375000000000,
0.12957189977169036865234375000000000,
0.04623413085937500000000000000000000,
0.10227678716182708740234375000000000,
0.12710283696651458740234375000000000,
-0.05996352434158325195312500000000000,
0.11516483128070831298828125000000000,
-0.12937535345554351806640625000000000,
0.04061342775821685791015625000000000,
-0.12992613017559051513671875000000000,
-0.02101621031761169433593750000000000,
-0.10129253566265106201171875000000000,
0.11548335850238800048828125000000000,
0.07769495248794555664062500000000000,
0.10152825713157653808593750000000000,
-0.05419855564832687377929687500000000,
0.01168233156204223632812500000000000,
0.05473476648330688476562500000000000,
0.04563842713832855224609375000000000,
0.02772848308086395263671875000000000,
-0.05929153412580490112304687500000000,
-0.00564841926097869873046875000000000,
-0.06212814897298812866210937500000000,
0.06878875195980072021484375000000000,
0.06912216544151306152343750000000000,
-0.10096908360719680786132812500000000,
-0.02269682288169860839843750000000000,
-0.02951193600893020629882812500000000,
-0.13079752027988433837890625000000000,
0.06030970811843872070312500000000000,
0.05722412467002868652343750000000000,
-0.07847522944211959838867187500000000,
0.10941739380359649658203125000000000,
-0.01657698303461074829101562500000000,
0.04979708790779113769531250000000000,
0.08688218891620635986328125000000000,
-0.12247338891029357910156250000000000,
-0.04136988520622253417968750000000000,
-0.05658418685197830200195312500000000,
-0.01706355810165405273437500000000000,
0.09626844525337219238281250000000000,
0.12949921190738677978515625000000000,
-0.01938343793153762817382812500000000,
-0.03884626179933547973632812500000000,
-0.08086696267127990722656250000000000,
-0.13060201704502105712890625000000000,
-0.07783295959234237670898437500000000,
0.02723413705825805664062500000000000,
-0.07988497614860534667968750000000000,
0.12828312814235687255859375000000000,
0.12106634676456451416015625000000000,
0.07143929600715637207031250000000000,
-0.12760388851165771484375000000000000,
0.00440245866775512695312500000000000,
0.07591865956783294677734375000000000,
0.02295583486557006835937500000000000,
-0.06992214918136596679687500000000000,
-0.12985773384571075439453125000000000,
-0.11060895025730133056640625000000000,
-0.08104856312274932861328125000000000,
0.12742213904857635498046875000000000,
-0.12230500578880310058593750000000000,
0.03569266200065612792968750000000000,
-0.10369366407394409179687500000000000,
0.13239286839962005615234375000000000,
0.13605828583240509033203125000000000,
0.02813731133937835693359375000000000,
0.04973585903644561767578125000000000,
-0.10775096714496612548828125000000000,
0.05573335289955139160156250000000000,
0.02423395216464996337890625000000000,
0.10228954255580902099609375000000000,
-0.08144831657409667968750000000000000,
-0.10130013525485992431640625000000000,
-0.14023636281490325927734375000000000,
-0.13158738613128662109375000000000000,
-0.12784945964813232421875000000000000,
0.00581441819667816162109375000000000,
-0.12680156528949737548828125000000000,
0.04797361791133880615234375000000000,
-0.04662751406431198120117187500000000,
0.05609185993671417236328125000000000,
0.05134069919586181640625000000000000,
0.10055978596210479736328125000000000,
-0.12336863577365875244140625000000000,
-0.08623520284891128540039062500000000,
0.08639815449714660644531250000000000,
-0.02608072757720947265625000000000000,
0.01392485201358795166015625000000000,
0.00763393938541412353515625000000000,
-0.09917730093002319335937500000000000,
0.12680469453334808349609375000000000,
0.10291668772697448730468750000000000,
-0.02104112505912780761718750000000000,
0.05105134844779968261718750000000000,
-0.06869935244321823120117187500000000,
0.02117650210857391357421875000000000,
-0.03512746095657348632812500000000000,
-0.05179467052221298217773437500000000,
-0.02384014427661895751953125000000000,
-0.06549998372793197631835937500000000,
0.02131319046020507812500000000000000,
0.13261641561985015869140625000000000,
0.11611859500408172607421875000000000,
-0.01972948014736175537109375000000000,
-0.04143868386745452880859375000000000,
-0.11866676807403564453125000000000000,
0.08496890962123870849609375000000000,
-0.09689173102378845214843750000000000,
-0.02693580090999603271484375000000000,
-0.02760525792837142944335937500000000,
0.04832778871059417724609375000000000,
-0.06265515089035034179687500000000000,
-0.11087374389171600341796875000000000,
-0.04261269420385360717773437500000000,
-0.11946459114551544189453125000000000,
0.12618999183177947998046875000000000,
-0.10853127390146255493164062500000000,
0.02335672080516815185546875000000000,
0.03279866278171539306640625000000000,
0.06705401837825775146484375000000000,
-0.08263738453388214111328125000000000,
-0.11074668169021606445312500000000000,
0.10082513093948364257812500000000000,
0.06864397227764129638671875000000000,
-0.10588084161281585693359375000000000,
-0.13392600417137145996093750000000000,
0.10350948572158813476562500000000000,
-0.06884485483169555664062500000000000,
-0.13439060747623443603515625000000000,
-0.04354263842105865478515625000000000,
0.11272419989109039306640625000000000,
0.05867913365364074707031250000000000,
-0.00431187450885772705078125000000000,
-0.13219213485717773437500000000000000,
-0.10419894754886627197265625000000000,
-0.09520771354436874389648437500000000,
-0.12548644840717315673828125000000000,
0.10245275497436523437500000000000000,
0.04830971360206604003906250000000000,
0.12195672094821929931640625000000000,
-0.10368780791759490966796875000000000,
0.04387931525707244873046875000000000,
0.00392496585845947265625000000000000,
0.08494575321674346923828125000000000,
0.01754206418991088867187500000000000,
-0.03591321408748626708984375000000000,
0.12532906234264373779296875000000000,
0.00112761557102203369140625000000000,
0.05943422019481658935546875000000000,
-0.06026639044284820556640625000000000,
0.05607947707176208496093750000000000,
0.01874695718288421630859375000000000,
0.12823112308979034423828125000000000,
0.01360906660556793212890625000000000,
-0.12222579866647720336914062500000000,
0.12161906063556671142578125000000000,
-0.12220305204391479492187500000000000,
-0.01454135775566101074218750000000000,
-0.12781813740730285644531250000000000,
-0.11496242880821228027343750000000000,
-0.07681100070476531982421875000000000,
-0.00487525761127471923828125000000000,
-0.12208417057991027832031250000000000,
0.08857823908329010009765625000000000,
-0.12077176570892333984375000000000000,
-0.09268620610237121582031250000000000,
-0.01096443831920623779296875000000000,
-0.06890533119440078735351562500000000,
0.05671760439872741699218750000000000,
-0.04151808470487594604492187500000000,
0.07983033359050750732421875000000000,
0.12367407977581024169921875000000000,
0.05962640047073364257812500000000000,
0.11795054376125335693359375000000000,
0.11988066136837005615234375000000000,
0.12931199371814727783203125000000000,
-0.08098568022251129150390625000000000,
-0.02031387388706207275390625000000000,
-0.06683596968650817871093750000000000,
0.07606017589569091796875000000000000,
0.01047711074352264404296875000000000,
0.01891416311264038085937500000000000,
-0.02819759398698806762695312500000000,
-0.00960639119148254394531250000000000,
-0.12226430326700210571289062500000000,
0.09469689428806304931640625000000000,
-0.13286513090133666992187500000000000,
0.05237369239330291748046875000000000,
-0.11244033277034759521484375000000000,
-0.08852066099643707275390625000000000,
0.12286238372325897216796875000000000,
0.06333209574222564697265625000000000,
-0.02634862810373306274414062500000000,
0.07243999838829040527343750000000000,
0.01339194178581237792968750000000000,
0.02776165306568145751953125000000000,
-0.05841096490621566772460937500000000,
0.02682684361934661865234375000000000,
-0.14134593307971954345703125000000000,
-0.08829379081726074218750000000000000,
0.13530586659908294677734375000000000,
-0.00848758220672607421875000000000000,
0.10612523555755615234375000000000000,
0.13878710567951202392578125000000000,
-0.07636154443025588989257812500000000,
-0.10235195606946945190429687500000000,
-0.00750252604484558105468750000000000,
-0.04764517396688461303710937500000000,
-0.04005695879459381103515625000000000,
0.06757886707782745361328125000000000,
-0.13950286805629730224609375000000000,
0.12608842551708221435546875000000000,
-0.06935800611972808837890625000000000,
0.13855515420436859130859375000000000,
-0.07586100697517395019531250000000000,
0.00256837904453277587890625000000000,
-0.08004057407379150390625000000000000,
-0.02635594457387924194335937500000000,
0.08300933241844177246093750000000000,
0.04025357961654663085937500000000000,
0.10036854445934295654296875000000000,
0.09754805266857147216796875000000000,
-0.05769831687211990356445312500000000,
0.08466626703739166259765625000000000,
0.10294997692108154296875000000000000,
0.03985705971717834472656250000000000,
0.02647596597671508789062500000000000,
0.09133388102054595947265625000000000,
0.04475018382072448730468750000000000,
-0.03111995011568069458007812500000000,
0.03623375296592712402343750000000000,
0.01119904220104217529296875000000000,
-0.13424329459667205810546875000000000,
-0.06390634179115295410156250000000000,
0.11069156229496002197265625000000000,
0.10014541447162628173828125000000000,
-0.09718851745128631591796875000000000,
-0.00464241206645965576171875000000000,
-0.05244865268468856811523437500000000,
0.10600320994853973388671875000000000,
-0.09011590480804443359375000000000000,
0.13418249785900115966796875000000000,
-0.02624211460351943969726562500000000,
0.11632813513278961181640625000000000,
-0.01195605099201202392578125000000000,
0.10364560782909393310546875000000000,
-0.06445032358169555664062500000000000,
0.06973508000373840332031250000000000,
0.01137445867061614990234375000000000,
0.04399815201759338378906250000000000,
-0.00007477402687072753906250000000000,
0.04920539259910583496093750000000000,
0.00421832501888275146484375000000000,
0.12311066687107086181640625000000000,
0.03363433480262756347656250000000000,
0.06570614874362945556640625000000000,
0.01867522299289703369140625000000000,
-0.13612478971481323242187500000000000,
-0.11642573773860931396484375000000000,
0.01787972450256347656250000000000000,
0.06178155541419982910156250000000000,
-0.01438383758068084716796875000000000,
-0.13807046413421630859375000000000000,
0.13665248453617095947265625000000000,
0.06798282265663146972656250000000000,
0.13777779042720794677734375000000000,
-0.10680450499057769775390625000000000,
0.01167809963226318359375000000000000,
-0.12282000482082366943359375000000000,
0.00200027227401733398437500000000000,
0.06590673327445983886718750000000000,
0.12702248990535736083984375000000000,
0.08079947531223297119140625000000000,
-0.05944620817899703979492187500000000,
