0.10948617756366729736328125000000000,
0.06418943405151367187500000000000000,
0.09977641701698303222656250000000000,
0.00123247504234313964843750000000000,
0.00552788376808166503906250000000000,
0.12797383964061737060546875000000000,
-0.01509918272495269775390625000000000,
0.07849824428558349609375000000000000,
-0.06196868419647216796875000000000000,
-0.10413058847188949584960937500000000,
-0.08866134285926818847656250000000000,
0.11091001331806182861328125000000000,
-0.13034728169441223144531250000000000,
-0.09922102093696594238281250000000000,
0.07511273026466369628906250000000000,
0.00763331353664398193359375000000000,
0.08681875467300415039062500000000000,
-0.14015753567218780517578125000000000,
-0.00294977426528930664062500000000000,
0.00050304830074310302734375000000000,
-0.02338463813066482543945312500000000,
0.10663393139839172363281250000000000,
-0.00043231248855590820312500000000000,
-0.03365409374237060546875000000000000,
-0.01960885524749755859375000000000000,
-0.00450362265110015869140625000000000,
0.08457593619823455810546875000000000,
-0.13760522007942199707031250000000000,
-0.05347909033298492431640625000000000,
0.05709825456142425537109375000000000,
0.03655558824539184570312500000000000,
0.03527443110942840576171875000000000,
0.10438020527362823486328125000000000,
-0.01011714339256286621093750000000000,
-0.05276832729578018188476562500000000,
-0.12608103454113006591796875000000000,
-0.13766950368881225585937500000000000,
0.13910163938999176025390625000000000,
0.01036784052848815917968750000000000,
0.13177855312824249267578125000000000,
-0.05609764158725738525390625000000000,
-0.12503823637962341308593750000000000,
0.04136356711387634277343750000000000,
-0.10883129388093948364257812500000000,
0.09411552548408508300781250000000000,
0.01704034209251403808593750000000000,
-0.03523851186037063598632812500000000,
-0.06536415219306945800781250000000000,
-0.01134254038333892822265625000000000,
0.03158542513847351074218750000000000,
0.09409376978874206542968750000000000,
-0.05809994041919708251953125000000000,
0.02492399513721466064453125000000000,
0.04523001611232757568359375000000000,
-0.07545847445726394653320312500000000,
-0.12919223308563232421875000000000000,
-0.11885939538478851318359375000000000,
-0.04594735056161880493164062500000000,
-0.11009116470813751220703125000000000,
-0.04451246559619903564453125000000000,
-0.08929494768381118774414062500000000,
-0.12895989418029785156250000000000000,
-0.09793638437986373901367187500000000,
0.13279388844966888427734375000000000,
0.12897910177707672119140625000000000,
0.12922503054141998291015625000000000,
-0.10381127893924713134765625000000000,
-0.12624216079711914062500000000000000,
-0.02560643851757049560546875000000000,
-0.03719483315944671630859375000000000,
-0.04497838020324707031250000000000000,
0.02279217541217803955078125000000000,
-0.00920368731021881103515625000000000,
-0.02722263336181640625000000000000000,
0.13738112151622772216796875000000000,
0.05738873779773712158203125000000000,
-0.00833429396152496337890625000000000,
0.09920372068881988525390625000000000,
-0.07705278694629669189453125000000000,
-0.07577937841415405273437500000000000,
-0.03220538794994354248046875000000000,
0.09234194457530975341796875000000000,
-0.09027295559644699096679687500000000,
0.11956642568111419677734375000000000,
-0.08068536221981048583984375000000000,
0.03660994768142700195312500000000000,
-0.10593961179256439208984375000000000,
-0.08007712662220001220703125000000000,
-0.04132603108882904052734375000000000,
0.02686649560928344726562500000000000,
0.05094666779041290283203125000000000,
-0.06170110404491424560546875000000000,
0.10754561424255371093750000000000000,
0.12930862605571746826171875000000000,
-0.06632427126169204711914062500000000,
-0.01769144088029861450195312500000000,
-0.10999271273612976074218750000000000,
0.04750563204288482666015625000000000,
-0.13797022402286529541015625000000000,
-0.08601559698581695556640625000000000,
0.01336641609668731689453125000000000,
0.12719734013080596923828125000000000,
-0.02372336387634277343750000000000000,
0.11060155928134918212890625000000000,
0.12683482468128204345703125000000000,
0.02012920379638671875000000000000000,
0.12266348302364349365234375000000000,
0.12935666739940643310546875000000000,
0.03139938414096832275390625000000000,
0.01030024886131286621093750000000000,
-0.00344434380531311035156250000000000,
0.06124565005302429199218750000000000,
0.13439051806926727294921875000000000,
0.11686812341213226318359375000000000,
0.00588914752006530761718750000000000,
-0.08040580153465270996093750000000000,
0.09133754670619964599609375000000000,
0.02495217323303222656250000000000000,
0.09543719887733459472656250000000000,
0.09787262976169586181640625000000000,
0.08732418715953826904296875000000000,
0.11480362713336944580078125000000000,
-0.08223970234394073486328125000000000,
0.09951357543468475341796875000000000,
-0.00593274831771850585937500000000000,
-0.07178593426942825317382812500000000,
-0.05974432080984115600585937500000000,
-0.10152530670166015625000000000000000,
0.01136626303195953369140625000000000,
0.05466999113559722900390625000000000,
-0.09440395236015319824218750000000000,
-0.02596177160739898681640625000000000,
-0.03339426219463348388671875000000000,
-0.13728131353855133056640625000000000,
-0.10717235505580902099609375000000000,
0.04521943628787994384765625000000000,
0.11155633628368377685546875000000000,
0.01997430622577667236328125000000000,
-0.13038550317287445068359375000000000,
-0.08197103440761566162109375000000000,
-0.12757503986358642578125000000000000,
0.07651408016681671142578125000000000,
-0.06108435988426208496093750000000000,
-0.03015897423028945922851562500000000,
-0.08911237120628356933593750000000000,
0.08738009631633758544921875000000000,
-0.08857583999633789062500000000000000,
-0.01508527994155883789062500000000000,
0.12196247279644012451171875000000000,
0.09308017790317535400390625000000000,
