0.17160145938396453857421875000000000,
-0.08778262883424758911132812500000000,
0.18913140892982482910156250000000000,
0.09565915167331695556640625000000000,
0.22537527978420257568359375000000000,
0.09843574464321136474609375000000000,
-0.02567361295223236083984375000000000,
0.17905882000923156738281250000000000,
-0.11095977574586868286132812500000000,
0.00944232847541570663452148437500000,
-0.06071235239505767822265625000000000,
0.24986182153224945068359375000000000,
-0.00155616796109825372695922851562500,
0.30033820867538452148437500000000000,
-0.16305479407310485839843750000000000,
-0.04448142275214195251464843750000000,
-0.00479768961668014526367187500000000,
0.08699698001146316528320312500000000,
0.11755095422267913818359375000000000,
0.22895345091819763183593750000000000,
0.20630094408988952636718750000000000,
-0.05631246045231819152832031250000000,
0.03595613315701484680175781250000000,
0.00962861347943544387817382812500000,
-0.12549135088920593261718750000000000,
-0.01424879301339387893676757812500000,
0.10379625856876373291015625000000000,
0.26384219527244567871093750000000000,
0.02168119326233863830566406250000000,
0.04856887087225914001464843750000000,
0.02024409919977188110351562500000000,
0.13990758359432220458984375000000000,
-0.12946997582912445068359375000000000,
-0.01726466231048107147216796875000000,
0.08181671798229217529296875000000000,
-0.07042022794485092163085937500000000,
-0.13577032089233398437500000000000000,
-0.11713544279336929321289062500000000,
-0.12291378527879714965820312500000000,
-0.15992774069309234619140625000000000,
-0.04595952481031417846679687500000000,
-0.04774282127618789672851562500000000,
-0.25290757417678833007812500000000000,
-0.15778586268424987792968750000000000,
-0.00863029155880212783813476562500000,
-0.20758092403411865234375000000000000,
-0.13841477036476135253906250000000000,
-0.07541149854660034179687500000000000,
-0.25550147891044616699218750000000000,
-0.06966461986303329467773437500000000,
-0.35897570848464965820312500000000000,
-0.14140884578227996826171875000000000,
-0.27012842893600463867187500000000000,
0.06231990084052085876464843750000000,
-0.01698278076946735382080078125000000,
-0.05521125346422195434570312500000000,
-0.21893587708473205566406250000000000,
-0.18700607120990753173828125000000000,
0.05386327207088470458984375000000000,
-0.28537878394126892089843750000000000,
-0.02498160675168037414550781250000000,
0.20185960829257965087890625000000000,
0.11155465245246887207031250000000000,
0.22980965673923492431640625000000000,
0.09833011031150817871093750000000000,
0.13868337869644165039062500000000000,
0.01115752942860126495361328125000000,
0.18334959447383880615234375000000000,
-0.05411994829773902893066406250000000,
0.17637932300567626953125000000000000,
0.10789472609758377075195312500000000,
0.22900438308715820312500000000000000,
-0.09695529192686080932617187500000000,
0.12928245961666107177734375000000000,
-0.15162332355976104736328125000000000,
-0.02732405997812747955322265625000000,
0.19891166687011718750000000000000000,
0.02278668060898780822753906250000000,
-0.07643684744834899902343750000000000,
0.05572833120822906494140625000000000,
-0.15150836110115051269531250000000000,
-0.16064478456974029541015625000000000,
0.16613121330738067626953125000000000,
0.06811683624982833862304687500000000,
0.02035083808004856109619140625000000,
0.01920562237501144409179687500000000,
-0.02917520143091678619384765625000000,
0.00359516055323183536529541015625000,
-0.07151579111814498901367187500000000,
0.15161842107772827148437500000000000,
0.13195021450519561767578125000000000,
0.07271872460842132568359375000000000,
0.19549383223056793212890625000000000,
0.14169713854789733886718750000000000,
0.04714649170637130737304687500000000,
-0.09517728537321090698242187500000000,
-0.10551633685827255249023437500000000,
0.12476342171430587768554687500000000,
0.12385299801826477050781250000000000,
0.06517599523067474365234375000000000,
0.01654113270342350006103515625000000,
0.00532017648220062255859375000000000,
0.09737260639667510986328125000000000,
-0.05235840752720832824707031250000000,
0.12080679088830947875976562500000000,
-0.22935275733470916748046875000000000,
-0.06261430680751800537109375000000000,
-0.09249000996351242065429687500000000,
0.12307757139205932617187500000000000,
-0.27699789404869079589843750000000000,
0.01920777000486850738525390625000000,
0.17010051012039184570312500000000000,
-0.21753472089767456054687500000000000,
0.15873365104198455810546875000000000,
0.10046179592609405517578125000000000,
-0.08955920487642288208007812500000000,
-0.16660454869270324707031250000000000,
-0.05356115475296974182128906250000000,
0.08554634451866149902343750000000000,
0.01641919277608394622802734375000000,
-0.16391995549201965332031250000000000,
0.09185634553432464599609375000000000,
0.04388995096087455749511718750000000,
0.09960874170064926147460937500000000,
-0.08677747100591659545898437500000000,
0.07946604490280151367187500000000000,
0.01308769918978214263916015625000000,
0.13368113338947296142578125000000000,
0.13569985330104827880859375000000000,
0.21190345287322998046875000000000000,
0.09369108080863952636718750000000000,
0.25478640198707580566406250000000000,
-0.13181255757808685302734375000000000,
0.01003974955528974533081054687500000,
-0.12426501512527465820312500000000000,
0.11619678139686584472656250000000000,
0.01766273565590381622314453125000000,
0.25930926203727722167968750000000000,
0.25943630933761596679687500000000000,
0.26123586297035217285156250000000000,
-0.25474020838737487792968750000000000,
-0.11362431198358535766601562500000000,
-0.07602635025978088378906250000000000,
0.03020884655416011810302734375000000,
-0.18804854154586791992187500000000000,
-0.15008975565433502197265625000000000,
0.02847030758857727050781250000000000,
-0.20268516242504119873046875000000000,
-0.02441629022359848022460937500000000,
-0.03232267871499061584472656250000000,
-0.04117446392774581909179687500000000,
0.03257402777671813964843750000000000,
-0.08661036193370819091796875000000000,
-0.11831000447273254394531250000000000,
0.10007259994745254516601562500000000,
-0.18639670312404632568359375000000000,
-0.13849937915802001953125000000000000,
-0.08721332252025604248046875000000000,
0.07080812007188796997070312500000000,
0.01169864460825920104980468750000000,
0.10151130706071853637695312500000000,
0.07820214331150054931640625000000000,
0.09786879271268844604492187500000000,
0.05724661797285079956054687500000000,
-0.10621344298124313354492187500000000,
0.19341711699962615966796875000000000,
0.22493475675582885742187500000000000,
-0.05392763018608093261718750000000000,
0.20114749670028686523437500000000000,
-0.18305654823780059814453125000000000,
0.07955791801214218139648437500000000,
0.27601400017738342285156250000000000,
-0.01484191045165061950683593750000000,
-0.02340206131339073181152343750000000,
0.22938884794712066650390625000000000,
-0.12726366519927978515625000000000000,
0.06600088626146316528320312500000000,
0.24628642201423645019531250000000000,
0.21131518483161926269531250000000000,
0.00236793211661279201507568359375000,
0.08175273984670639038085937500000000,
0.01739244163036346435546875000000000,
-0.14395171403884887695312500000000000,
0.08784835040569305419921875000000000,
-0.04420540854334831237792968750000000,
0.06445053964853286743164062500000000,
0.12061490118503570556640625000000000,
0.21819034218788146972656250000000000,
-0.15218341350555419921875000000000000,
0.16083125770092010498046875000000000,
0.01812042854726314544677734375000000,
0.20937581360340118408203125000000000,
0.03232696279883384704589843750000000,
0.21158704161643981933593750000000000,
0.13997229933738708496093750000000000,
-0.16163723170757293701171875000000000,
-0.11606422811746597290039062500000000,
0.16045038402080535888671875000000000,
0.06040226295590400695800781250000000,
-0.15594017505645751953125000000000000,
0.23253419995307922363281250000000000,
0.04799229651689529418945312500000000,
-0.05862843245267868041992187500000000,
0.03366947174072265625000000000000000,
0.22260250151157379150390625000000000,
0.13806074857711791992187500000000000,
0.23668593168258666992187500000000000,
0.25326836109161376953125000000000000,
0.06926620751619338989257812500000000,
-0.15040579438209533691406250000000000,
-0.07763872295618057250976562500000000,
0.11654089391231536865234375000000000,
-0.06189319118857383728027343750000000,
-0.08687236905097961425781250000000000,
-0.02852280810475349426269531250000000,
0.00425617955625057220458984375000000,
0.22346092760562896728515625000000000,
-0.02658087760210037231445312500000000,
0.14466895163059234619140625000000000,
-0.05575243756175041198730468750000000,
-0.16579589247703552246093750000000000,
0.13721024990081787109375000000000000,
-0.03440206125378608703613281250000000,
-0.11662628501653671264648437500000000,
-0.23930186033248901367187500000000000,
-0.01023951172828674316406250000000000,
-0.06353960931301116943359375000000000,
-0.22100125253200531005859375000000000,
-0.19616736471652984619140625000000000,
0.00625828793272376060485839843750000,
-0.25492498278617858886718750000000000,
0.10231561958789825439453125000000000,
0.12229894846677780151367187500000000,
-0.26369202136993408203125000000000000,
0.07134661823511123657226562500000000,
-0.19552069902420043945312500000000000,
-0.11106757074594497680664062500000000,
0.10809359699487686157226562500000000,
0.16904157400131225585937500000000000,
-0.27232328057289123535156250000000000,
0.02513761632144451141357421875000000,
-0.11120997369289398193359375000000000,
0.01381821744143962860107421875000000,
0.09360452741384506225585937500000000,
0.17201916873455047607421875000000000,
-0.02842605859041213989257812500000000,
-0.00352913606911897659301757812500000,
-0.07402617484331130981445312500000000,
0.18154735863208770751953125000000000,
-0.12967899441719055175781250000000000,
0.13765886425971984863281250000000000,
-0.02060488611459732055664062500000000,
-0.02719414792954921722412109375000000,
0.06550839543342590332031250000000000,
-0.07561051845550537109375000000000000,
-0.04258121922612190246582031250000000,
-0.13326448202133178710937500000000000,
0.22394993901252746582031250000000000,
0.16599561274051666259765625000000000,
0.07358475774526596069335937500000000,
-0.15113840997219085693359375000000000,
-0.15519203245639801025390625000000000,
-0.07365393638610839843750000000000000,
-0.19946762919425964355468750000000000,
0.11446505784988403320312500000000000,
0.06823224574327468872070312500000000,
-0.27772995829582214355468750000000000,
0.04532257094979286193847656250000000,
-0.16143958270549774169921875000000000,
-0.16388750076293945312500000000000000,
-0.25916528701782226562500000000000000,
-0.25976026058197021484375000000000000,
0.13416083157062530517578125000000000,
-0.09422907233238220214843750000000000,
-0.26304987072944641113281250000000000,
-0.12503999471664428710937500000000000,
-0.12628172338008880615234375000000000,
-0.08403377979993820190429687500000000,
-0.17688927054405212402343750000000000,
0.09284707158803939819335937500000000,
0.07298471033573150634765625000000000,
0.18234868347644805908203125000000000,
0.15885633230209350585937500000000000,
-0.01085002161562442779541015625000000,
-0.05615567415952682495117187500000000,
-0.17942377924919128417968750000000000,
0.01925468258559703826904296875000000,
0.03509437292814254760742187500000000,
-0.01705841533839702606201171875000000,
-0.14877103269100189208984375000000000,
-0.09151077270507812500000000000000000,
-0.13427697122097015380859375000000000,
0.24225534498691558837890625000000000,
0.24782307446002960205078125000000000,
-0.13835601508617401123046875000000000,
0.10788971185684204101562500000000000,
0.18954877555370330810546875000000000,
0.17744679749011993408203125000000000,
0.19722893834114074707031250000000000,
0.13680484890937805175781250000000000,
-0.00148983683902770280838012695312500,
-0.05707910656929016113281250000000000,
-0.01692399010062217712402343750000000,
0.15588928759098052978515625000000000,
0.07043830305337905883789062500000000,
0.19602316617965698242187500000000000,
0.19912791252136230468750000000000000,
-0.13350631296634674072265625000000000,
-0.13126453757286071777343750000000000,
-0.20095627009868621826171875000000000,
0.02693781629204750061035156250000000,
0.03546101599931716918945312500000000,
0.08621121942996978759765625000000000,
-0.00918711628764867782592773437500000,
-0.00019283883739262819290161132812500,
0.21095427870750427246093750000000000,
0.15863902866840362548828125000000000,
-0.16755326092243194580078125000000000,
-0.08168783783912658691406250000000000,
0.11118741333484649658203125000000000,
-0.08545387536287307739257812500000000,
-0.17701523005962371826171875000000000,
-0.26056206226348876953125000000000000,
0.10240753740072250366210937500000000,
0.04549891874194145202636718750000000,
-0.14310936629772186279296875000000000,
-0.19649535417556762695312500000000000,
-0.10555610805749893188476562500000000,
-0.22952687740325927734375000000000000,
-0.14566923677921295166015625000000000,
-0.14726063609123229980468750000000000,
0.03127592802047729492187500000000000,
0.10680167376995086669921875000000000,
-0.06987249851226806640625000000000000,
-0.06239696592092514038085937500000000,
-0.10428115725517272949218750000000000,
-0.22249713540077209472656250000000000,
-0.24632218480110168457031250000000000,
-0.20148079097270965576171875000000000,
0.03187558427453041076660156250000000,
-0.12383500486612319946289062500000000,
-0.01949640735983848571777343750000000,
0.03123153746128082275390625000000000,
0.14415453374385833740234375000000000,
-0.14031876623630523681640625000000000,
-0.15279754996299743652343750000000000,
0.20345658063888549804687500000000000,
-0.13619966804981231689453125000000000,
0.05092431977391242980957031250000000,
0.05271248891949653625488281250000000,
0.24527236819267272949218750000000000,
0.27109247446060180664062500000000000,
0.13075806200504302978515625000000000,
0.21333204209804534912109375000000000,
0.26511034369468688964843750000000000,
-0.15633592009544372558593750000000000,
0.01468754559755325317382812500000000,
-0.15358121693134307861328125000000000,
-0.14827446639537811279296875000000000,
0.03453735262155532836914062500000000,
0.25785470008850097656250000000000000,
-0.12456993758678436279296875000000000,
0.14306093752384185791015625000000000,
0.03943615034222602844238281250000000,
-0.14957246184349060058593750000000000,
-0.19045408070087432861328125000000000,
-0.14034178853034973144531250000000000,
-0.00174029567278921604156494140625000,
0.15840694308280944824218750000000000,
0.15477086603641510009765625000000000,
-0.14318510890007019042968750000000000,
0.13846018910408020019531250000000000,
0.00519889732822775840759277343750000,
-0.11776793748140335083007812500000000,
0.23059095442295074462890625000000000,
0.22336803376674652099609375000000000,
0.24096620082855224609375000000000000,
-0.02989851869642734527587890625000000,
0.03837146982550621032714843750000000,
0.13461412489414215087890625000000000,
0.12212259322404861450195312500000000,
-0.18503719568252563476562500000000000,
0.12150844931602478027343750000000000,
-0.02923602610826492309570312500000000,
0.08947680145502090454101562500000000,
-0.13925966620445251464843750000000000,
-0.26729092001914978027343750000000000,
-0.02651300653815269470214843750000000,
-0.04042593762278556823730468750000000,
-0.15157605707645416259765625000000000,
0.06786663085222244262695312500000000,
0.12106043845415115356445312500000000,
0.16735586524009704589843750000000000,
-0.07537793368101119995117187500000000,
-0.15948209166526794433593750000000000,
0.00543843954801559448242187500000000,
0.15895467996597290039062500000000000,
-0.22503970563411712646484375000000000,
0.01028579659759998321533203125000000,
-0.23985365033149719238281250000000000,
