0.00000000000000000000000000000000000,
-0.29063302278518676757812500000000000,
0.05652632936835289001464843750000000,
-0.04871534928679466247558593750000000,
0.24958856403827667236328125000000000,
0.08219133317470550537109375000000000,
-0.16681089997291564941406250000000000,
-0.15832465887069702148437500000000000,
0.02843273617327213287353515625000000,
0.16163088381290435791015625000000000,
0.04258995503187179565429687500000000,
0.22748650610446929931640625000000000,
-0.29146170616149902343750000000000000,
-0.04564017057418823242187500000000000,
0.41748836636543273925781250000000000,
-0.02156090177595615386962890625000000,
0.68027722835540771484375000000000000,
0.29847770929336547851562500000000000,
0.58878356218338012695312500000000000,
0.66482275724411010742187500000000000,
0.10562165826559066772460937500000000,
0.17236204445362091064453125000000000,
1.00479328632354736328125000000000000,
-0.09403757750988006591796875000000000,
0.57761514186859130859375000000000000,
0.18321086466312408447265625000000000,
-0.03211808949708938598632812500000000,
-0.13199323415756225585937500000000000,
0.07976794987916946411132812500000000,
0.17222197353839874267578125000000000,
0.19156844913959503173828125000000000,
0.49023091793060302734375000000000000,
-0.21864622831344604492187500000000000,
0.18216404318809509277343750000000000,
0.11505129188299179077148437500000000,
-0.32172852754592895507812500000000000,
0.14263062179088592529296875000000000,
0.19387234747409820556640625000000000,
0.13542282581329345703125000000000000,
0.16539162397384643554687500000000000,
0.85016363859176635742187500000000000,
0.21402537822723388671875000000000000,
-0.01130874454975128173828125000000000,
-0.00789744127541780471801757812500000,
-0.01646849885582923889160156250000000,
0.12694858014583587646484375000000000,
0.08976949751377105712890625000000000,
0.01615123450756072998046875000000000,
0.07785198837518692016601562500000000,
0.15703205764293670654296875000000000,
0.12830004096031188964843750000000000,
-0.40356186032295227050781250000000000,
0.08305632323026657104492187500000000,
0.04241007193922996520996093750000000,
0.61317992210388183593750000000000000,
-0.07985053956508636474609375000000000,
-0.05948862805962562561035156250000000,
0.11347769200801849365234375000000000,
0.13716113567352294921875000000000000,
0.20833201706409454345703125000000000,
0.59018516540527343750000000000000000,
0.26394382119178771972656250000000000,
-0.12711103260517120361328125000000000,
-0.21248386800289154052734375000000000,
0.51962423324584960937500000000000000,
0.20904284715652465820312500000000000,
0.70470106601715087890625000000000000,
0.26879659295082092285156250000000000,
0.93415814638137817382812500000000000,
0.70381516218185424804687500000000000,
-0.13780993223190307617187500000000000,
0.07884291559457778930664062500000000,
0.74523180723190307617187500000000000,
0.10924505442380905151367187500000000,
0.39134627580642700195312500000000000,
0.08481884002685546875000000000000000,
0.10070946067571640014648437500000000,
-0.16907291114330291748046875000000000,
0.15493109822273254394531250000000000,
0.21626454591751098632812500000000000,
0.70366495847702026367187500000000000,
0.09055999666452407836914062500000000,
-0.05238566920161247253417968750000000,
-0.07871589809656143188476562500000000,
-0.04410999268293380737304687500000000,
0.03294148296117782592773437500000000,
0.16148716211318969726562500000000000,
-0.04253846406936645507812500000000000,
0.06476893275976181030273437500000000,
-0.14175622165203094482421875000000000,
0.63335984945297241210937500000000000,
0.04425319656729698181152343750000000,
0.09921897947788238525390625000000000,
0.12869159877300262451171875000000000,
0.16904385387897491455078125000000000,
0.10972875356674194335937500000000000,
0.10727667063474655151367187500000000,
0.11386302858591079711914062500000000,
0.68103092908859252929687500000000000,
0.13584010303020477294921875000000000,
-0.01191817596554756164550781250000000,
-0.21602824330329895019531250000000000,
0.01753521151840686798095703125000000,
-0.08772297948598861694335937500000000,
-0.04191228374838829040527343750000000,
0.02408319152891635894775390625000000,
-0.18005123734474182128906250000000000,
-0.20263561606407165527343750000000000,
-0.19565059244632720947265625000000000,
-0.16846282780170440673828125000000000,
0.10708134621381759643554687500000000,
-0.02523775212466716766357421875000000,
-0.00189991772640496492385864257812500,
-0.19462461769580841064453125000000000,
0.11886637657880783081054687500000000,
-0.00677883578464388847351074218750000,
0.00501968432217836380004882812500000,
-0.19843229651451110839843750000000000,
-0.03667973354458808898925781250000000,
-0.10572125762701034545898437500000000,
0.00099470163695514202117919921875000,
-0.05816508457064628601074218750000000,
-0.02405621670186519622802734375000000,
-0.11703178286552429199218750000000000,
-0.18009994924068450927734375000000000,
-0.24440097808837890625000000000000000,
-0.15006245672702789306640625000000000,
-0.21670180559158325195312500000000000,
-0.24662053585052490234375000000000000,
-0.05457453057169914245605468750000000,
0.10743709653615951538085937500000000,
0.01633273437619209289550781250000000,
0.01498415041714906692504882812500000,
-0.02782407961785793304443359375000000,
-0.18574619293212890625000000000000000,
0.02321002073585987091064453125000000,
-0.14910586178302764892578125000000000,
-0.11549095064401626586914062500000000,
-0.03051758557558059692382812500000000,
-0.22956733405590057373046875000000000,
-0.09482799470424652099609375000000000,
-0.04487401247024536132812500000000000,
-0.14501436054706573486328125000000000,
-0.04568941146135330200195312500000000,
-0.16401505470275878906250000000000000,
-0.04681871458888053894042968750000000,
-0.20469787716865539550781250000000000,
-0.19695779681205749511718750000000000,
-0.01180912088602781295776367187500000,
0.02822333388030529022216796875000000,
-0.24265317618846893310546875000000000,
-0.10255216062068939208984375000000000,
-0.24335423111915588378906250000000000,
-0.03522149100899696350097656250000000,
0.13294559717178344726562500000000000,
0.17530645430088043212890625000000000,
-0.48179906606674194335937500000000000,
-0.30408176779747009277343750000000000,
0.18033483624458312988281250000000000,
0.26934081315994262695312500000000000,
-0.81230723857879638671875000000000000,
0.15557025372982025146484375000000000,
0.15563823282718658447265625000000000,
-0.02713328786194324493408203125000000,
-0.01106471475213766098022460937500000,
-0.14134053885936737060546875000000000,
0.47907632589340209960937500000000000,
0.49782064557075500488281250000000000,
0.36355456709861755371093750000000000,
0.34559530019760131835937500000000000,
-0.26302322745323181152343750000000000,
0.19676126539707183837890625000000000,
0.96051299571990966796875000000000000,
-0.11474193632602691650390625000000000,
0.33287951350212097167968750000000000,
0.13696056604385375976562500000000000,
0.02069102041423320770263671875000000,
0.04706377536058425903320312500000000,
0.07014047354459762573242187500000000,
-0.02338656224310398101806640625000000,
-0.10171730071306228637695312500000000,
1.07135879993438720703125000000000000,
0.07287273555994033813476562500000000,
0.15004594624042510986328125000000000,
0.08971249312162399291992187500000000,
-0.72944194078445434570312500000000000,
-0.14563204348087310791015625000000000,
0.08735593408346176147460937500000000,
-0.00810180325061082839965820312500000,
0.13010041415691375732421875000000000,
0.70023220777511596679687500000000000,
0.05540281161665916442871093750000000,
-0.16376444697380065917968750000000000,
0.09642019867897033691406250000000000,
-0.14411142468452453613281250000000000,
-0.21284428238868713378906250000000000,
-0.26200300455093383789062500000000000,
0.17617493867874145507812500000000000,
-0.99117672443389892578125000000000000,
0.24324186146259307861328125000000000,
0.13927596807479858398437500000000000,
-0.00857707951217889785766601562500000,
0.00504341954365372657775878906250000,
-0.04445300996303558349609375000000000,
-0.11835850030183792114257812500000000,
-0.04628471285104751586914062500000000,
-0.01397465169429779052734375000000000,
0.02165237069129943847656250000000000,
-0.15409915149211883544921875000000000,
-0.04095447063446044921875000000000000,
-0.19497188925743103027343750000000000,
0.00186255166772753000259399414062500,
0.02464052662253379821777343750000000,
-0.10216155648231506347656250000000000,
-0.00995540991425514221191406250000000,
-0.13145363330841064453125000000000000,
0.02421713061630725860595703125000000,
-0.17209361493587493896484375000000000,
0.01946147717535495758056640625000000,
0.03370082750916481018066406250000000,
0.11071051657199859619140625000000000,
0.09784199297428131103515625000000000,
-0.03131059184670448303222656250000000,
-0.09114292263984680175781250000000000,
-0.13419446349143981933593750000000000,
0.06390589475631713867187500000000000,
-0.17456971108913421630859375000000000,
-0.02609620243310928344726562500000000,
-0.19125965237617492675781250000000000,
-0.02798909880220890045166015625000000,
0.01137873530387878417968750000000000,
-0.16641889512538909912109375000000000,
-0.19523791968822479248046875000000000,
-0.01640212535858154296875000000000000,
-0.08034908026456832885742187500000000,
-0.05073864012956619262695312500000000,
-0.15805044770240783691406250000000000,
0.07840266078710556030273437500000000,
-0.19000226259231567382812500000000000,
-0.05948927626013755798339843750000000,
-0.12008813023567199707031250000000000,
-0.13341890275478363037109375000000000,
0.04818671941757202148437500000000000,
-0.08702960610389709472656250000000000,
-0.08877824246883392333984375000000000,
-0.19925276935100555419921875000000000,
-0.03424528986215591430664062500000000,
-0.15449306368827819824218750000000000,
-0.09571588039398193359375000000000000,
-0.08417411148548126220703125000000000,
-0.13591153919696807861328125000000000,
1.15043604373931884765625000000000000,
-0.03379665315151214599609375000000000,
-0.12045855820178985595703125000000000,
-0.07372239232063293457031250000000000,
-0.02972588688135147094726562500000000,
6.71593284606933593750000000000000000,
-0.23158495128154754638671875000000000,
-0.07320350408554077148437500000000000,
0.22783818840980529785156250000000000,
0.21714942157268524169921875000000000,
-0.81393557786941528320312500000000000,
-0.29610356688499450683593750000000000,
0.01264773774892091751098632812500000,
-11.43102169036865234375000000000000000,
-0.70618247985839843750000000000000000,
0.70026701688766479492187500000000000,
-1.14404058456420898437500000000000000,
-0.13136002421379089355468750000000000,
0.24677392840385437011718750000000000,
-0.21422731876373291015625000000000000,
0.11046607047319412231445312500000000,
0.31365087628364562988281250000000000,
-0.18883192539215087890625000000000000,
0.02121013216674327850341796875000000,
-1.01795828342437744140625000000000000,
0.08552146703004837036132812500000000,
-0.43989267945289611816406250000000000,
-0.16154448688030242919921875000000000,
-0.38080286979675292968750000000000000,
0.47228759527206420898437500000000000,
1.40970957279205322265625000000000000,
-0.20018596947193145751953125000000000,
-0.09423716366291046142578125000000000,
0.60552537441253662109375000000000000,
-0.16162399947643280029296875000000000,
0.24161304533481597900390625000000000,
0.27028971910476684570312500000000000,
-0.12711782753467559814453125000000000,
0.04652849212288856506347656250000000,
0.04383240267634391784667968750000000,
-0.08476188033819198608398437500000000,
-0.07445096224546432495117187500000000,
-0.00852777063846588134765625000000000,
-0.33295327425003051757812500000000000,
-0.09222964197397232055664062500000000,
-0.20465746521949768066406250000000000,
-0.25343945622444152832031250000000000,
3.87745881080627441406250000000000000,
-1.55113673210144042968750000000000000,
-0.03509923443198204040527343750000000,
-0.68195992708206176757812500000000000,
0.22641022503376007080078125000000000,
0.08263354003429412841796875000000000,
-0.13059645891189575195312500000000000,
-0.02782520465552806854248046875000000,
-1.38605856895446777343750000000000000,
-0.50237452983856201171875000000000000,
-0.02017320320010185241699218750000000,
-0.14105226099491119384765625000000000,
-0.72759771347045898437500000000000000,
-0.30789634585380554199218750000000000,
-0.70656967163085937500000000000000000,
-0.08471443504095077514648437500000000,
-0.02290436252951622009277343750000000,
0.10477458685636520385742187500000000,
0.09566608071327209472656250000000000,
-0.12578405439853668212890625000000000,
-0.05589217320084571838378906250000000,
-0.11363969743251800537109375000000000,
-0.10008521378040313720703125000000000,
0.07392714917659759521484375000000000,
0.02961407788097858428955078125000000,
-0.23504625260829925537109375000000000,
-0.04793191328644752502441406250000000,
0.01983859390020370483398437500000000,
0.10865505784749984741210937500000000,
-0.12837305665016174316406250000000000,
-0.34474530816078186035156250000000000,
-0.20851100981235504150390625000000000,
-0.08247771114110946655273437500000000,
0.31077322363853454589843750000000000,
-0.66888141632080078125000000000000000,
-0.04634995013475418090820312500000000,
-0.00087878084741532802581787109375000,
-0.96147888898849487304687500000000000,
0.04919268935918807983398437500000000,
-0.24655658006668090820312500000000000,
-0.12253342568874359130859375000000000,
0.23361964523792266845703125000000000,
0.04532825201749801635742187500000000,
0.11864343285560607910156250000000000,
0.00287758815102279186248779296875000,
0.17347855865955352783203125000000000,
-0.58306264877319335937500000000000000,
-0.25267940759658813476562500000000000,
-0.24868914484977722167968750000000000,
-0.14345271885395050048828125000000000,
-0.05881628021597862243652343750000000,
0.12543639540672302246093750000000000,
-0.01442135497927665710449218750000000,
-1.18158113956451416015625000000000000,
0.01362270209938287734985351562500000,
0.06487643718719482421875000000000000,
-0.06034542992711067199707031250000000,
-0.14519424736499786376953125000000000,
-2.18085265159606933593750000000000000,
-0.68552172183990478515625000000000000,
-0.22705489397048950195312500000000000,
-0.15532283484935760498046875000000000,
-1.62249803543090820312500000000000000,
-0.56336158514022827148437500000000000,
-0.76770925521850585937500000000000000,
-0.10630649328231811523437500000000000,
0.32566881179809570312500000000000000,
0.39146763086318969726562500000000000,
0.14041371643543243408203125000000000,
-0.08543489873409271240234375000000000,
0.01196879614144563674926757812500000,
-0.24666640162467956542968750000000000,
-0.84185588359832763671875000000000000,
0.28407478332519531250000000000000000,
0.04391065984964370727539062500000000,
-0.22122704982757568359375000000000000,
-0.33784154057502746582031250000000000,
-0.43028804659843444824218750000000000,
-0.02694123052060604095458984375000000,
-0.41530719399452209472656250000000000,
-0.55366671085357666015625000000000000,
-0.37274587154388427734375000000000000,
0.05868863686919212341308593750000000,
0.54423087835311889648437500000000000,
-1.16464436054229736328125000000000000,
0.10739590227603912353515625000000000,
-0.41233202815055847167968750000000000,
-0.55433821678161621093750000000000000,
-0.17030091583728790283203125000000000,
-0.43926176428794860839843750000000000,
-0.27265247702598571777343750000000000,
0.15224258601665496826171875000000000,
-0.33983096480369567871093750000000000,
-0.78260296583175659179687500000000000,
-0.47733166813850402832031250000000000,
0.05624201148748397827148437500000000,
-0.43800559639930725097656250000000000,
-0.46815213561058044433593750000000000,
-0.15965920686721801757812500000000000,
0.15435954928398132324218750000000000,
-0.34315371513366699218750000000000000,
-0.21888731420040130615234375000000000,
0.03718987479805946350097656250000000,
-0.11010238528251647949218750000000000,
-0.29256662726402282714843750000000000,
-0.02313372679054737091064453125000000,
0.29510951042175292968750000000000000,
-0.07618928700685501098632812500000000,
-0.68722206354141235351562500000000000,
-0.13169850409030914306640625000000000,
-0.43794798851013183593750000000000000,
0.79698735475540161132812500000000000,
0.04100438952445983886718750000000000,
-0.40278443694114685058593750000000000,
-0.49074187874794006347656250000000000,
-4.40783214569091796875000000000000000,
0.26671627163887023925781250000000000,
0.03377778083086013793945312500000000,
1.25575017929077148437500000000000000,
-1.69677126407623291015625000000000000,
0.49651706218719482421875000000000000,
-0.18111531436443328857421875000000000,
-0.07717563211917877197265625000000000,
0.00922686699777841567993164062500000,
-0.42318981885910034179687500000000000,
-0.27751192450523376464843750000000000,
0.05953242257237434387207031250000000,
-5.21668672561645507812500000000000000,
-0.03726716339588165283203125000000000,
-0.58912223577499389648437500000000000,
0.23689658939838409423828125000000000,
0.22117094695568084716796875000000000,
-0.98229825496673583984375000000000000,
0.03754424303770065307617187500000000,
1.25823545455932617187500000000000000,
-0.14518812298774719238281250000000000,
-0.14828628301620483398437500000000000,
0.73064315319061279296875000000000000,
-3.18758296966552734375000000000000000,
1.11462533473968505859375000000000000,
-0.36425852775573730468750000000000000,
-0.18039371073246002197265625000000000,
-0.89132481813430786132812500000000000,
-0.00946994870901107788085937500000000,
-0.18854728341102600097656250000000000,
-0.07488181442022323608398437500000000,
0.05199788510799407958984375000000000,
-0.07206096500158309936523437500000000,
0.08333075791597366333007812500000000,
-1.74691045284271240234375000000000000,
1.79803121089935302734375000000000000,
-0.63364207744598388671875000000000000,
-0.15065254271030426025390625000000000,
-0.15271028876304626464843750000000000,
-0.01126562058925628662109375000000000,
0.03352221846580505371093750000000000,
-0.00276515143923461437225341796875000,
-0.03147996217012405395507812500000000,
-0.11575215309858322143554687500000000,
-0.14196415245532989501953125000000000,
-0.00000950258254306390881538391113281,
-0.12217465788125991821289062500000000,
-0.21917605400085449218750000000000000,
-0.11637280881404876708984375000000000,
-0.18196237087249755859375000000000000,
-0.19443759322166442871093750000000000,
0.02757581882178783416748046875000000,
-0.09765985608100891113281250000000000,
-0.21251532435417175292968750000000000,
-0.08926438540220260620117187500000000,
0.02999052964150905609130859375000000,
0.01663802936673164367675781250000000,
0.04629335179924964904785156250000000,
0.04764137044548988342285156250000000,
-0.02458520792424678802490234375000000,
-0.07158995419740676879882812500000000,
-0.18675890564918518066406250000000000,
-0.15572662651538848876953125000000000,
-0.06696393340826034545898437500000000,
0.01667701080441474914550781250000000,
-0.00688534602522850036621093750000000,
-0.13107821345329284667968750000000000,
-0.01091350056231021881103515625000000,
-0.01361463591456413269042968750000000,
-0.13781811296939849853515625000000000,
-0.05262577906250953674316406250000000,
-0.05846680328249931335449218750000000,
0.02184604853391647338867187500000000,
-0.14196479320526123046875000000000000,
0.03269399330019950866699218750000000,
-0.23065131902694702148437500000000000,
-0.03613088652491569519042968750000000,
0.01819723471999168395996093750000000,
-0.20204943418502807617187500000000000,
0.01275505311787128448486328125000000,
-0.18418285250663757324218750000000000,
-0.16217088699340820312500000000000000,
-0.22055317461490631103515625000000000,
-0.13954785466194152832031250000000000,
-0.09568805247545242309570312500000000,
-0.20532840490341186523437500000000000,
-0.12857158482074737548828125000000000,
0.01818051747977733612060546875000000,
-1.56512570381164550781250000000000000,
0.12460254132747650146484375000000000,
0.11203426122665405273437500000000000,
0.05224526301026344299316406250000000,
-0.16693440079689025878906250000000000,
-0.66071152687072753906250000000000000,
-0.03087645769119262695312500000000000,
-0.05489508435130119323730468750000000,
-0.43062344193458557128906250000000000,
1.31790637969970703125000000000000000,
-0.38230386376380920410156250000000000,
-3.25764751434326171875000000000000000,
0.05384857207536697387695312500000000,
-0.63542997837066650390625000000000000,
-0.52890938520431518554687500000000000,
0.33165979385375976562500000000000000,
-0.51008629798889160156250000000000000,
0.44759684801101684570312500000000000,
-0.03454358503222465515136718750000000,
0.10387503355741500854492187500000000,
0.06623318791389465332031250000000000,
-0.00789372716099023818969726562500000,
-0.01069733873009681701660156250000000,
-0.11280339211225509643554687500000000,
0.16955383121967315673828125000000000,
0.01687870547175407409667968750000000,
-0.05387480556964874267578125000000000,
-0.11474310606718063354492187500000000,
-0.59001290798187255859375000000000000,
-0.08978005498647689819335937500000000,
-5.92048263549804687500000000000000000,
0.13309362530708312988281250000000000,
-0.13826771080493927001953125000000000,
0.13814488053321838378906250000000000,
-0.78124982118606567382812500000000000,
0.79951006174087524414062500000000000,
-0.29620188474655151367187500000000000,
-0.48570379614830017089843750000000000,
-0.08256976306438446044921875000000000,
0.12623098492622375488281250000000000,
0.01096981298178434371948242187500000,
0.15727725625038146972656250000000000,
-0.03536519035696983337402343750000000,
-0.25244885683059692382812500000000000,
0.26123943924903869628906250000000000,
0.06360886991024017333984375000000000,
-0.16455908119678497314453125000000000,
-0.82707929611206054687500000000000000,
0.04195723310112953186035156250000000,
-0.12607268989086151123046875000000000,
-0.19832335412502288818359375000000000,
-0.16205660998821258544921875000000000,
-0.02095239795744419097900390625000000,
-0.05845342576503753662109375000000000,
-0.18090075254440307617187500000000000,
0.03078043647110462188720703125000000,
-0.12072596698999404907226562500000000,
-0.12437982857227325439453125000000000,
-0.00357774901203811168670654296875000,
-0.11100042611360549926757812500000000,
0.00516424234956502914428710937500000,
-0.06415032595396041870117187500000000,
-0.15749120712280273437500000000000000,
-0.21044290065765380859375000000000000,
-0.14710706472396850585937500000000000,
-0.05303427949547767639160156250000000,
-0.18439373373985290527343750000000000,
-0.21455289423465728759765625000000000,
-0.12045463174581527709960937500000000,
-0.00242524058558046817779541015625000,
-0.20723551511764526367187500000000000,
-0.20909148454666137695312500000000000,
-0.02131538465619087219238281250000000,
-0.08446441590785980224609375000000000,
-0.09686610102653503417968750000000000,
-0.07693043351173400878906250000000000,
-0.09750488400459289550781250000000000,
-0.09277741611003875732421875000000000,
-0.19837282598018646240234375000000000,
-0.11042600125074386596679687500000000,
-0.18711037933826446533203125000000000,
-0.04053093492984771728515625000000000,
0.07995222508907318115234375000000000,
-0.01330733764916658401489257812500000,
-0.09695973247289657592773437500000000,
0.05287305638194084167480468750000000,
0.05524452775716781616210937500000000,
-0.09348486363887786865234375000000000,
0.02075066044926643371582031250000000,
-0.14333179593086242675781250000000000,
-0.16850419342517852783203125000000000,
-0.02014846727252006530761718750000000,
0.01396260038018226623535156250000000,
-0.14210085570812225341796875000000000,
-0.20652765035629272460937500000000000,
0.03946490213274955749511718750000000,
-0.13936358690261840820312500000000000,
-0.12092828005552291870117187500000000,
0.01325439941138029098510742187500000,
-0.01080109458416700363159179687500000,
0.00334623549133539199829101562500000,
0.09485706686973571777343750000000000,
-0.11143167316913604736328125000000000,
-0.47312083840370178222656250000000000,
-0.04296847805380821228027343750000000,
-0.62151741981506347656250000000000000,
-0.08432956784963607788085937500000000,
-0.20253488421440124511718750000000000,
0.19956563413143157958984375000000000,
-3.63758373260498046875000000000000000,
-1.10550129413604736328125000000000000,
-0.45896732807159423828125000000000000,
2.39900040626525878906250000000000000,
-0.94131165742874145507812500000000000,
2.56444859504699707031250000000000000,
0.53025186061859130859375000000000000,
0.53351473808288574218750000000000000,
-0.00583576178178191184997558593750000,
0.11208606511354446411132812500000000,
-0.04073461517691612243652343750000000,
-0.10232520848512649536132812500000000,
0.15967455506324768066406250000000000,
-0.10212018340826034545898437500000000,
0.55084478855133056640625000000000000,
-2.51342797279357910156250000000000000,
-0.14718650281429290771484375000000000,
-1.00517547130584716796875000000000000,
-0.02821994386613368988037109375000000,
-1.16581892967224121093750000000000000,
-0.59029728174209594726562500000000000,
-0.00250614923425018787384033203125000,
-0.70635312795639038085937500000000000,
-0.06404764205217361450195312500000000,
-3.07413649559020996093750000000000000,
-0.30863508582115173339843750000000000,
-4.35962581634521484375000000000000000,
-2.90235519409179687500000000000000000,
0.08274547755718231201171875000000000,
-0.03059922531247138977050781250000000,
0.10683974623680114746093750000000000,
0.14916667342185974121093750000000000,
0.13610596954822540283203125000000000,
-0.17782273888587951660156250000000000,
-3.20549106597900390625000000000000000,
0.01880769617855548858642578125000000,
-0.14969842135906219482421875000000000,
-0.09938606619834899902343750000000000,
-0.51893055438995361328125000000000000,
0.76701974868774414062500000000000000,
-0.12015038728713989257812500000000000,
-0.02916194498538970947265625000000000,
0.12508192658424377441406250000000000,
-0.00789073761552572250366210937500000,
0.04626632481813430786132812500000000,
-0.06007939949631690979003906250000000,
-1.16402149200439453125000000000000000,
-0.19273477792739868164062500000000000,
0.00968003552407026290893554687500000,
0.73586469888687133789062500000000000,
-2.64115238189697265625000000000000000,
-1.08796942234039306640625000000000000,
-2.40869808197021484375000000000000000,
0.09136418998241424560546875000000000,
-1.41819751262664794921875000000000000,
-0.39248529076576232910156250000000000,
-0.53854829072952270507812500000000000,
-0.01880015246570110321044921875000000,
0.12697471678256988525390625000000000,
-0.02165175601840019226074218750000000,
-0.06606430560350418090820312500000000,
0.01463102921843528747558593750000000,
0.37865400314331054687500000000000000,
-0.11406752467155456542968750000000000,
-0.07257667928934097290039062500000000,
-0.00866089668124914169311523437500000,
0.12480829656124114990234375000000000,
0.31020924448966979980468750000000000,
0.05168738961219787597656250000000000,
-0.21366412937641143798828125000000000,
-0.09124685823917388916015625000000000,
-7.93546581268310546875000000000000000,
0.94777637720108032226562500000000000,
0.04866715148091316223144531250000000,
-0.29604971408843994140625000000000000,
-0.20993681252002716064453125000000000,
-0.55567073822021484375000000000000000,
0.11785029619932174682617187500000000,
-0.32402339577674865722656250000000000,
0.11380647122859954833984375000000000,
-0.32967567443847656250000000000000000,
0.03009457513689994812011718750000000,
-0.01573022641241550445556640625000000,
0.08819938451051712036132812500000000,
-0.72912216186523437500000000000000000,
-0.09784135967493057250976562500000000,
-0.16977614164352416992187500000000000,
-0.18753211200237274169921875000000000,
-0.29990172386169433593750000000000000,
-0.47600108385086059570312500000000000,
0.03715068474411964416503906250000000,
-0.30389136075973510742187500000000000,
-0.37496337294578552246093750000000000,
0.19443061947822570800781250000000000,
-0.04554179683327674865722656250000000,
-0.06420652568340301513671875000000000,
-1.29094183444976806640625000000000000,
-0.33179464936256408691406250000000000,
-0.03637456148862838745117187500000000,
-0.04494532197713851928710937500000000,
-0.52551770210266113281250000000000000,
-0.08958242833614349365234375000000000,
-0.01295715104788541793823242187500000,
0.03755003213882446289062500000000000,
0.41992703080177307128906250000000000,
0.00707531999796628952026367187500000,
0.23267078399658203125000000000000000,
0.33611679077148437500000000000000000,
0.12343066185712814331054687500000000,
-0.01286352798342704772949218750000000,
-0.03650223836302757263183593750000000,
0.20603244006633758544921875000000000,
0.45864078402519226074218750000000000,
-0.42715436220169067382812500000000000,
-0.02552713267505168914794921875000000,
-0.11156939715147018432617187500000000,
0.01687919907271862030029296875000000,
-0.27584949135780334472656250000000000,
-0.09673868864774703979492187500000000,
-0.07334648072719573974609375000000000,
0.21822434663772583007812500000000000,
1.30533373355865478515625000000000000,
0.01757520809769630432128906250000000,
0.15449553728103637695312500000000000,
0.03834082186222076416015625000000000,
-1.22179257869720458984375000000000000,
0.32412037253379821777343750000000000,
-0.26153245568275451660156250000000000,
-0.19669829308986663818359375000000000,
0.24479633569717407226562500000000000,
0.36322051286697387695312500000000000,
0.34234157204627990722656250000000000,
-0.16231630742549896240234375000000000,
0.12428735941648483276367187500000000,
0.10062072426080703735351562500000000,
-0.32805365324020385742187500000000000,
-0.20833894610404968261718750000000000,
-0.01455998327583074569702148437500000,
-1.24922871589660644531250000000000000,
0.23559951782226562500000000000000000,
0.19662752747535705566406250000000000,
-0.32453182339668273925781250000000000,
0.14408838748931884765625000000000000,
0.07848787307739257812500000000000000,
0.41886013746261596679687500000000000,
0.06251530349254608154296875000000000,
-0.58988130092620849609375000000000000,
0.00308060250245034694671630859375000,
0.03786294162273406982421875000000000,
0.07828263938426971435546875000000000,
-0.24070499837398529052734375000000000,
0.29853543639183044433593750000000000,
-0.02191119827330112457275390625000000,
0.01855935528874397277832031250000000,
0.09445862472057342529296875000000000,
-0.34910702705383300781250000000000000,
0.46899816393852233886718750000000000,
0.29531997442245483398437500000000000,
0.99706995487213134765625000000000000,
0.45018574595451354980468750000000000,
0.06240080296993255615234375000000000,
0.06124269962310791015625000000000000,
0.69276440143585205078125000000000000,
-0.07880924642086029052734375000000000,
0.31063544750213623046875000000000000,
-0.11105721443891525268554687500000000,
0.01051840372383594512939453125000000,
-0.02528474479913711547851562500000000,
0.10749353468418121337890625000000000,
-0.04603080824017524719238281250000000,
-0.54714328050613403320312500000000000,
-0.00596582796424627304077148437500000,
0.02083189599215984344482421875000000,
-0.06115287169814109802246093750000000,
-0.16613952815532684326171875000000000,
-0.12191669642925262451171875000000000,
-0.39517280459403991699218750000000000,
-0.08443993330001831054687500000000000,
-0.10850543528795242309570312500000000,
-0.03013671003282070159912109375000000,
0.56671416759490966796875000000000000,
0.05682522803544998168945312500000000,
0.00942500680685043334960937500000000,
-0.12949776649475097656250000000000000,
-0.38339447975158691406250000000000000,
0.14588966965675354003906250000000000,
0.06735076010227203369140625000000000,
-0.02807366289198398590087890625000000,
-0.69628059864044189453125000000000000,
0.11254771053791046142578125000000000,
-0.07284182310104370117187500000000000,
-0.08920394629240036010742187500000000,
-0.07055833190679550170898437500000000,
0.03706618770956993103027343750000000,
-0.20955033600330352783203125000000000,
-0.01731793023645877838134765625000000,
-0.06934156268835067749023437500000000,
-0.06408804655075073242187500000000000,
-0.05025784671306610107421875000000000,
-0.13927266001701354980468750000000000,
-0.06757739186286926269531250000000000,
-0.20500844717025756835937500000000000,
-0.10873477905988693237304687500000000,
0.13918142020702362060546875000000000,
0.02069890126585960388183593750000000,
-0.17954702675342559814453125000000000,
0.06108350679278373718261718750000000,
-0.14281278848648071289062500000000000,
0.04537697136402130126953125000000000,
-0.09052095562219619750976562500000000,
-0.16674993932247161865234375000000000,
0.04325635358691215515136718750000000,
-0.19001084566116333007812500000000000,
0.02488060109317302703857421875000000,
0.00628089392557740211486816406250000,
-0.10790384560823440551757812500000000,
0.02700370177626609802246093750000000,
-0.02630688995122909545898437500000000,
-0.20912462472915649414062500000000000,
-0.16112224757671356201171875000000000,
0.07505208998918533325195312500000000,
-0.13993805646896362304687500000000000,
0.02809531055390834808349609375000000,
-0.16713581979274749755859375000000000,
0.00381013751029968261718750000000000,
-0.09950076043605804443359375000000000,
-0.08010128140449523925781250000000000,
-0.20177830755710601806640625000000000,
-0.17962805926799774169921875000000000,
-0.11697126179933547973632812500000000,
0.00487302290275692939758300781250000,
-0.09371054917573928833007812500000000,
-0.02522417157888412475585937500000000,
-0.03961896896362304687500000000000000,
-0.19213390350341796875000000000000000,
-0.13975997269153594970703125000000000,
-0.06639122962951660156250000000000000,
0.03397948294878005981445312500000000,
0.13750918209552764892578125000000000,
-0.15708373486995697021484375000000000,
-0.15956997871398925781250000000000000,
-0.01010209321975708007812500000000000,
-0.02396316826343536376953125000000000,
0.12016923725605010986328125000000000,
-0.12751506268978118896484375000000000,
0.10369996726512908935546875000000000,
0.07428294420242309570312500000000000,
0.02951861917972564697265625000000000,
-0.10172634571790695190429687500000000,
-0.09614624083042144775390625000000000,
0.02764493227005004882812500000000000,
-0.11705368757247924804687500000000000,
0.03407035768032073974609375000000000,
0.03533977270126342773437500000000000,
0.05203419923782348632812500000000000,
-0.05559042841196060180664062500000000,
-0.00706025958061218261718750000000000,
-0.08144114911556243896484375000000000,
-0.09643857181072235107421875000000000,
-0.01900050789117813110351562500000000,
-0.12841315567493438720703125000000000,
0.00205680727958679199218750000000000,
-0.11587718129158020019531250000000000,
-0.05723009258508682250976562500000000,
-0.06503333151340484619140625000000000,
0.04320389032363891601562500000000000,
-0.10932355374097824096679687500000000,
0.10977835953235626220703125000000000,
-0.09450541436672210693359375000000000,
0.11954508721828460693359375000000000,
0.11019320785999298095703125000000000,
0.03812688589096069335937500000000000,
-0.09087386727333068847656250000000000,
-0.00431928038597106933593750000000000,
-0.13660494983196258544921875000000000,
0.03957703709602355957031250000000000,
0.13101492822170257568359375000000000,
0.01472654938697814941406250000000000,
-0.13556669652462005615234375000000000,
0.07605789601802825927734375000000000,
-0.08018596470355987548828125000000000,
0.00885686278343200683593750000000000,
0.01366314291954040527343750000000000,
-0.13679377734661102294921875000000000,
-0.00174416601657867431640625000000000,
0.10017371177673339843750000000000000,
-0.12085835635662078857421875000000000,
0.00490610301494598388671875000000000,
-0.01453052461147308349609375000000000,
-0.07840990275144577026367187500000000,
-0.03816105425357818603515625000000000,
-0.17490345239639282226562500000000000,
0.01883166097104549407958984375000000,
-0.19097867608070373535156250000000000,
-0.19335421919822692871093750000000000,
-0.06650178134441375732421875000000000,
-0.02717460691928863525390625000000000,
0.03439919650554656982421875000000000,
-0.00022972535225562751293182373046875,
-0.00506532751023769378662109375000000,
-0.00554724037647247314453125000000000,
0.07805733382701873779296875000000000,
-0.19976668059825897216796875000000000,
-0.04161129891872406005859375000000000,
0.01169712096452713012695312500000000,
-0.03971239924430847167968750000000000,
0.00997588410973548889160156250000000,
-0.19602701067924499511718750000000000,
-0.10593589395284652709960937500000000,
-0.15010894834995269775390625000000000,
0.03316948190331459045410156250000000,
-0.13039936125278472900390625000000000,
-0.19028909504413604736328125000000000,
-0.15957154333591461181640625000000000,
0.06548376381397247314453125000000000,
0.03441017866134643554687500000000000,
-0.06799522042274475097656250000000000,
-0.03641283139586448669433593750000000,
0.02413372881710529327392578125000000,
0.14083959162235260009765625000000000,
-0.05918899923563003540039062500000000,
0.05606655776500701904296875000000000,
0.04678946733474731445312500000000000,
0.05567609891295433044433593750000000,
-0.05954525619745254516601562500000000,
-0.19237346947193145751953125000000000,
-0.15902483463287353515625000000000000,
-0.02814128622412681579589843750000000,
-0.14152838289737701416015625000000000,
0.05855318531394004821777343750000000,
-0.01976516284048557281494140625000000,
-0.06575118005275726318359375000000000,
-0.12115976959466934204101562500000000,
-0.07932591438293457031250000000000000,
-0.11743465065956115722656250000000000,
-0.06757108867168426513671875000000000,
-0.14558154344558715820312500000000000,
-0.10297808051109313964843750000000000,
-0.02003785967826843261718750000000000,
-0.12744145095348358154296875000000000,
-0.11027263849973678588867187500000000,
-0.02049786038696765899658203125000000,
-0.04255631566047668457031250000000000,
-0.13087975978851318359375000000000000,
-0.02739631943404674530029296875000000,
-0.04781657829880714416503906250000000,
-0.00205670297145843505859375000000000,
0.02403821237385272979736328125000000,
-0.18938377499580383300781250000000000,
-0.15147003531455993652343750000000000,
0.00257716933265328407287597656250000,
-0.10296734422445297241210937500000000,
-0.03536955267190933227539062500000000,
-0.11787874251604080200195312500000000,
-0.02582068927586078643798828125000000,
0.03831111639738082885742187500000000,
0.04395133629441261291503906250000000,
-0.20637677609920501708984375000000000,
-0.21954762935638427734375000000000000,
0.01382432505488395690917968750000000,
0.04018148034811019897460937500000000,
-0.14181266725063323974609375000000000,
-0.00819215551018714904785156250000000,
-0.11701349169015884399414062500000000,
0.01570772379636764526367187500000000,
-0.01369515340775251388549804687500000,
-0.20237673819065093994140625000000000,
-0.04094828665256500244140625000000000,
-0.04736686125397682189941406250000000,
-0.04129664599895477294921875000000000,
-0.07936071604490280151367187500000000,
0.02125325612723827362060546875000000,
-0.03347786888480186462402343750000000,
-0.09239146858453750610351562500000000,
0.00571407889947295188903808593750000,
-0.13572372496128082275390625000000000,
0.00435491511598229408264160156250000,
-0.17210699617862701416015625000000000,
0.02815387956798076629638671875000000,
-0.10938082635402679443359375000000000,
-0.13934180140495300292968750000000000,
0.03173992782831192016601562500000000,
-0.00575697934255003929138183593750000,
-0.17452031373977661132812500000000000,
-0.09070835262537002563476562500000000,
-0.05867084488272666931152343750000000,
-0.18843828141689300537109375000000000,
-0.14931686222553253173828125000000000,
-0.13314102590084075927734375000000000,
-0.10719855874776840209960937500000000,
0.01109390705823898315429687500000000,
0.03869163244962692260742187500000000,
-0.14964124560356140136718750000000000,
-0.12518346309661865234375000000000000,
-0.14174745976924896240234375000000000,
-0.21580588817596435546875000000000000,
-0.20254248380661010742187500000000000,
-0.04943996295332908630371093750000000,
-0.13511441648006439208984375000000000,
-0.01293669082224369049072265625000000,
0.05404408648610115051269531250000000,
-0.16184572875499725341796875000000000,
-0.10055706650018692016601562500000000,
-0.14439198374748229980468750000000000,
-0.06296583265066146850585937500000000,
0.02067779004573822021484375000000000,
0.00437232572585344314575195312500000,
0.03278844058513641357421875000000000,
-0.04341035336256027221679687500000000,
-0.13361044228076934814453125000000000,
-0.22271075844764709472656250000000000,
-0.13654199242591857910156250000000000,
-0.01887605525553226470947265625000000,
-0.15055912733078002929687500000000000,
-0.01135168410837650299072265625000000,
0.03165550529956817626953125000000000,
-0.11865578591823577880859375000000000,
0.02815681882202625274658203125000000,
0.00004814375643036328256130218505859,
-0.19304758310317993164062500000000000,
-0.02139761485159397125244140625000000,
-0.22443220019340515136718750000000000,
-0.01945770718157291412353515625000000,
-0.16353332996368408203125000000000000,
-0.11416424065828323364257812500000000,
-0.01903037726879119873046875000000000,
-0.10058994591236114501953125000000000,
-0.00978313107043504714965820312500000,
0.04728187248110771179199218750000000,
0.02780661731958389282226562500000000,
-0.05906821787357330322265625000000000,
-0.19192297756671905517578125000000000,
0.00056369084632024168968200683593750,
0.00136508943978697061538696289062500,
0.01624895073473453521728515625000000,
-0.15369710326194763183593750000000000,
-0.19950604438781738281250000000000000,
-0.07073853909969329833984375000000000,
-0.05584852397441864013671875000000000,
-0.07766840606927871704101562500000000,
-0.14496871829032897949218750000000000,
0.20655992627143859863281250000000000,
0.01519028004258871078491210937500000,
-0.15130737423896789550781250000000000,
0.61192065477371215820312500000000000,
-0.30032971501350402832031250000000000,
-2.63423085212707519531250000000000000,
0.36026069521903991699218750000000000,
-0.37643864750862121582031250000000000,
-0.68269264698028564453125000000000000,
-0.09104656428098678588867187500000000,
0.07179508358240127563476562500000000,
-1.21513998508453369140625000000000000,
-0.10112450271844863891601562500000000,
0.30881619453430175781250000000000000,
1.80281615257263183593750000000000000,
0.25965899229049682617187500000000000,
-0.41880285739898681640625000000000000,
1.00824415683746337890625000000000000,
0.03192372620105743408203125000000000,
0.44335493445396423339843750000000000,
-0.05935030803084373474121093750000000,
-0.15972957015037536621093750000000000,
0.32874017953872680664062500000000000,
-0.19403780996799468994140625000000000,
-0.54978829622268676757812500000000000,
-0.40636369585990905761718750000000000,
0.17503623664379119873046875000000000,
-0.07099438458681106567382812500000000,
-0.43222281336784362792968750000000000,
-2.64173030853271484375000000000000000,
-4.19812107086181640625000000000000000,
-0.03938069939613342285156250000000000,
-0.50190752744674682617187500000000000,
-0.61766350269317626953125000000000000,
0.39049533009529113769531250000000000,
1.22645246982574462890625000000000000,
0.72523444890975952148437500000000000,
-0.26172655820846557617187500000000000,
-0.03630941361188888549804687500000000,
0.35179039835929870605468750000000000,
-0.72053825855255126953125000000000000,
0.48010629415512084960937500000000000,
-0.74320244789123535156250000000000000,
0.55141985416412353515625000000000000,
-0.02911970578134059906005859375000000,
0.15054617822170257568359375000000000,
-0.34539476037025451660156250000000000,
-1.54086959362030029296875000000000000,
-0.37531873583793640136718750000000000,
-0.30790323019027709960937500000000000,
-0.19763380289077758789062500000000000,
-0.20051093399524688720703125000000000,
0.08188120275735855102539062500000000,
-0.25099566578865051269531250000000000,
-0.05102141574025154113769531250000000,
-0.67421942949295043945312500000000000,
-0.57766336202621459960937500000000000,
-0.16525749862194061279296875000000000,
-0.31526309251785278320312500000000000,
-0.26869249343872070312500000000000000,
-0.34936261177062988281250000000000000,
-0.54517024755477905273437500000000000,
-0.46669632196426391601562500000000000,
-0.10849048197269439697265625000000000,
-0.13954521715641021728515625000000000,
-0.23442758619785308837890625000000000,
-0.33492365479469299316406250000000000,
0.07179132848978042602539062500000000,
-0.34866103529930114746093750000000000,
-0.08291477710008621215820312500000000,
0.13304241001605987548828125000000000,
-0.00788414850831031799316406250000000,
-0.21932551264762878417968750000000000,
-0.44791644811630249023437500000000000,
-0.32341694831848144531250000000000000,
0.10076578706502914428710937500000000,
-0.07197650521993637084960937500000000,
-0.46366479992866516113281250000000000,
-0.32361355423927307128906250000000000,
-0.21178491413593292236328125000000000,
0.26582300662994384765625000000000000,
-0.68610757589340209960937500000000000,
-0.12207747250795364379882812500000000,
-0.03757815808057785034179687500000000,
-0.70271605253219604492187500000000000,
-0.07544542849063873291015625000000000,
-0.63937282562255859375000000000000000,
-0.27601063251495361328125000000000000,
-0.04178835079073905944824218750000000,
-0.21446712315082550048828125000000000,
0.01979899592697620391845703125000000,
0.07142346352338790893554687500000000,
0.06221764162182807922363281250000000,
-0.13147646188735961914062500000000000,
-0.21458816528320312500000000000000000,
-0.30533888936042785644531250000000000,
-0.21322639286518096923828125000000000,
-0.21210119128227233886718750000000000,
-0.21088704466819763183593750000000000,
0.13402526080608367919921875000000000,
-0.56239616870880126953125000000000000,
-0.30792707204818725585937500000000000,
-0.02556701935827732086181640625000000,
-0.64683181047439575195312500000000000,
-0.09781387448310852050781250000000000,
-3.12867903709411621093750000000000000,
-0.07821688801050186157226562500000000,
-0.03453383594751358032226562500000000,
-0.58149850368499755859375000000000000,
-8.64396286010742187500000000000000000,
-0.44897258281707763671875000000000000,
-0.66932570934295654296875000000000000,
-0.26492270827293395996093750000000000,
5.50883245468139648437500000000000000,
-1.19875335693359375000000000000000000,
0.45585963129997253417968750000000000,
-0.52793186902999877929687500000000000,
0.07039974629878997802734375000000000,
0.26162320375442504882812500000000000,
0.02962093241512775421142578125000000,
-0.03537555038928985595703125000000000,
-0.03675709664821624755859375000000000,
-0.14453300833702087402343750000000000,
0.08944640308618545532226562500000000,
-1.05474340915679931640625000000000000,
0.16224046051502227783203125000000000,
0.39633315801620483398437500000000000,
-0.17656038701534271240234375000000000,
-0.25906127691268920898437500000000000,
-3.17691683769226074218750000000000000,
0.99500173330307006835937500000000000,
0.41491895914077758789062500000000000,
-0.00110108323860913515090942382812500,
-0.56900262832641601562500000000000000,
0.56125950813293457031250000000000000,
1.08731949329376220703125000000000000,
0.66713219881057739257812500000000000,
0.14641804993152618408203125000000000,
-0.05293705314397811889648437500000000,
0.50185573101043701171875000000000000,
0.10417411476373672485351562500000000,
-0.10650572925806045532226562500000000,
-0.01924076862633228302001953125000000,
-0.68381744623184204101562500000000000,
-0.18281359970569610595703125000000000,
0.01526701264083385467529296875000000,
0.01056465040892362594604492187500000,
-1.34293842315673828125000000000000000,
0.15424472093582153320312500000000000,
0.10321640968322753906250000000000000,
-0.09571617841720581054687500000000000,
-0.03799919411540031433105468750000000,
0.01826322078704833984375000000000000,
-0.06399046629667282104492187500000000,
-0.14287982881069183349609375000000000,
0.06012610346078872680664062500000000,
0.00773826707154512405395507812500000,
-0.15378613770008087158203125000000000,
-0.14397297799587249755859375000000000,
0.05727341026067733764648437500000000,
0.01844733394682407379150390625000000,
-0.04245182499289512634277343750000000,
0.01285020355135202407836914062500000,
0.01227049715816974639892578125000000,
-0.00914586987346410751342773437500000,
0.05750125274062156677246093750000000,
-0.09765156358480453491210937500000000,
-0.09580378234386444091796875000000000,
-0.02037988789379596710205078125000000,
0.06088280677795410156250000000000000,
-0.10123408585786819458007812500000000,
-0.18282671272754669189453125000000000,
0.05491192266345024108886718750000000,
-0.19492302834987640380859375000000000,
-0.11807391047477722167968750000000000,
-0.02692670002579689025878906250000000,
-0.20871959626674652099609375000000000,
0.06800641864538192749023437500000000,
-0.04589024931192398071289062500000000,
0.10009811818599700927734375000000000,
-0.10903263837099075317382812500000000,
-0.09423396736383438110351562500000000,
-0.19872675836086273193359375000000000,
-0.00981289427727460861206054687500000,
-0.15434977412223815917968750000000000,
-0.07747056335210800170898437500000000,
-0.01569623500108718872070312500000000,
-0.09661799669265747070312500000000000,
0.04406240209937095642089843750000000,
0.01086035743355751037597656250000000,
-0.05018356442451477050781250000000000,
-0.14072868227958679199218750000000000,
-0.14870695769786834716796875000000000,
-0.13875353336334228515625000000000000,
-0.06025411188602447509765625000000000,
-0.09813635796308517456054687500000000,
-0.05426613241434097290039062500000000,
0.11009632050991058349609375000000000,
-0.13404557108879089355468750000000000,
-0.10932189971208572387695312500000000,
-0.10592726618051528930664062500000000,
0.06533512473106384277343750000000000,
-0.07523560523986816406250000000000000,
-0.17490892112255096435546875000000000,
-0.13218894600868225097656250000000000,
0.03913302719593048095703125000000000,
-0.14438238739967346191406250000000000,
-0.12628042697906494140625000000000000,
-0.04550394788384437561035156250000000,
-0.08058271557092666625976562500000000,
-0.11204603314399719238281250000000000,
-0.05542435497045516967773437500000000,
-0.02095313929021358489990234375000000,
-0.12280483543872833251953125000000000,
-0.20682273805141448974609375000000000,
-0.23141449689865112304687500000000000,
-0.01403548847883939743041992187500000,
-0.02688565291464328765869140625000000,
-0.23198969662189483642578125000000000,
-0.02409932576119899749755859375000000,
-0.20027253031730651855468750000000000,
-0.16621817648410797119140625000000000,
0.03371798619627952575683593750000000,
-0.01801684685051441192626953125000000,
-0.11844795942306518554687500000000000,
-0.00844310410320758819580078125000000,
0.03189775720238685607910156250000000,
-0.07056234776973724365234375000000000,
-0.07017667591571807861328125000000000,
0.05939074233174324035644531250000000,
-0.07311289012432098388671875000000000,
-0.21053421497344970703125000000000000,
-0.00384772266261279582977294921875000,
-0.03908604010939598083496093750000000,
-0.03517328575253486633300781250000000,
0.00029650973738171160221099853515625,
-0.18779926002025604248046875000000000,
0.01800539717078208923339843750000000,
-0.08788268268108367919921875000000000,
-0.05585499107837677001953125000000000,
-0.21022321283817291259765625000000000,
-0.05382585525512695312500000000000000,
-0.07375345379114151000976562500000000,
-0.17394801974296569824218750000000000,
0.01628510095179080963134765625000000,
-0.16006508469581604003906250000000000,
-0.05153867974877357482910156250000000,
0.06790008395910263061523437500000000,
0.02541082166135311126708984375000000,
-0.04312461987137794494628906250000000,
-0.16883303225040435791015625000000000,
-0.18016818165779113769531250000000000,
-0.13985653221607208251953125000000000,
-0.05945552140474319458007812500000000,
-0.09111978858709335327148437500000000,
-0.18867102265357971191406250000000000,
-0.18044719099998474121093750000000000,
-0.07631446421146392822265625000000000,
-0.04282791912555694580078125000000000,
-0.00383426249027252197265625000000000,
-0.02599732577800750732421875000000000,
-0.05845652520656585693359375000000000,
-0.04631466791033744812011718750000000,
0.03783972188830375671386718750000000,
-0.11988694965839385986328125000000000,
-0.05109427124261856079101562500000000,
-0.07387051731348037719726562500000000,
-0.18186914920806884765625000000000000,
-0.05729599669575691223144531250000000,
-0.07431329041719436645507812500000000,
-0.06583139300346374511718750000000000,
-0.09553343057632446289062500000000000,
-0.06909198313951492309570312500000000,
-0.17206634581089019775390625000000000,
-0.17553520202636718750000000000000000,
-0.10133607685565948486328125000000000,
-0.06850640475749969482421875000000000,
-0.05822834745049476623535156250000000,
-0.12466516345739364624023437500000000,
0.01299334131181240081787109375000000,
-0.01172756683081388473510742187500000,
-0.13429401814937591552734375000000000,
-0.21401470899581909179687500000000000,
0.01431418955326080322265625000000000,
0.06540141999721527099609375000000000,
-0.01416405104100704193115234375000000,
-0.03886010125279426574707031250000000,
0.00113813148345798254013061523437500,
0.00113401282578706741333007812500000,
0.01642858050763607025146484375000000,
-0.08242136240005493164062500000000000,
0.05191420018672943115234375000000000,
0.03706149384379386901855468750000000,
0.02043277956545352935791015625000000,
-0.17998059093952178955078125000000000,
-0.05305276066064834594726562500000000,
-0.15458820760250091552734375000000000,
0.04560979828238487243652343750000000,
-0.08408106118440628051757812500000000,
-0.00953188072890043258666992187500000,
-0.09591869264841079711914062500000000,
0.15107476711273193359375000000000000,
0.17640647292137145996093750000000000,
0.76549178361892700195312500000000000,
0.23073500394821166992187500000000000,
-0.37570604681968688964843750000000000,
0.24409765005111694335937500000000000,
0.24782641232013702392578125000000000,
0.51023608446121215820312500000000000,
0.40730831027030944824218750000000000,
0.52761769294738769531250000000000000,
-0.18342934548854827880859375000000000,
0.18582065403461456298828125000000000,
0.55745214223861694335937500000000000,
0.30005419254302978515625000000000000,
0.87912148237228393554687500000000000,
0.48492330312728881835937500000000000,
1.05027759075164794921875000000000000,
0.88816601037979125976562500000000000,
0.16579085588455200195312500000000000,
-0.07562279701232910156250000000000000,
1.18813574314117431640625000000000000,
0.09652306884527206420898437500000000,
0.81118100881576538085937500000000000,
0.22045615315437316894531250000000000,
0.19619454443454742431640625000000000,
0.20860472321510314941406250000000000,
0.10490830242633819580078125000000000,
0.36182501912117004394531250000000000,
0.20684213936328887939453125000000000,
0.42638152837753295898437500000000000,
0.19867710769176483154296875000000000,
0.20173601806163787841796875000000000,
0.21843309700489044189453125000000000,
0.12069431692361831665039062500000000,
0.23010958731174468994140625000000000,
0.13496606051921844482421875000000000,
0.39566162228584289550781250000000000,
0.04429565742611885070800781250000000,
0.92235785722732543945312500000000000,
0.26562342047691345214843750000000000,
0.14514379203319549560546875000000000,
0.16825430095195770263671875000000000,
0.05881687998771667480468750000000000,
0.16009354591369628906250000000000000,
0.18203310668468475341796875000000000,
0.26271608471870422363281250000000000,
0.25885772705078125000000000000000000,
0.58546870946884155273437500000000000,
0.13838410377502441406250000000000000,
-0.49211785197257995605468750000000000,
-0.02927079424262046813964843750000000,
-0.04724507778882980346679687500000000,
0.15626810491085052490234375000000000,
0.15257214009761810302734375000000000,
-0.18488673865795135498046875000000000,
-0.06515879184007644653320312500000000,
0.12566633522510528564453125000000000,
-0.33012044429779052734375000000000000,
-0.30089917778968811035156250000000000,
-0.07674389332532882690429687500000000,
-0.13233830034732818603515625000000000,
-0.13916842639446258544921875000000000,
0.10333845764398574829101562500000000,
-0.34952476620674133300781250000000000,
0.24544924497604370117187500000000000,
-0.03971398249268531799316406250000000,
0.49322545528411865234375000000000000,
-0.01152811106294393539428710937500000,
-0.05782886967062950134277343750000000,
-0.01651008054614067077636718750000000,
0.22929827868938446044921875000000000,
-0.03447752818465232849121093750000000,
-0.22633531689643859863281250000000000,
-0.20176188647747039794921875000000000,
-0.03729883208870887756347656250000000,
-0.17990191280841827392578125000000000,
0.16890180110931396484375000000000000,
-0.10851582884788513183593750000000000,
0.09914462268352508544921875000000000,
-0.07870230078697204589843750000000000,
-0.35432231426239013671875000000000000,
0.10902005434036254882812500000000000,
-0.11436830461025238037109375000000000,
-0.33358651399612426757812500000000000,
-0.43569260835647583007812500000000000,
-0.22280740737915039062500000000000000,
-0.22417995333671569824218750000000000,
0.13485497236251831054687500000000000,
0.38147440552711486816406250000000000,
0.06415756046772003173828125000000000,
0.09848068654537200927734375000000000,
-0.08728738129138946533203125000000000,
-0.20600688457489013671875000000000000,
0.11022063344717025756835937500000000,
0.04694954305887222290039062500000000,
-0.10227625072002410888671875000000000,
-0.39686122536659240722656250000000000,
-0.07400127500295639038085937500000000,
0.14357808232307434082031250000000000,
0.04246848821640014648437500000000000,
0.01976024173200130462646484375000000,
0.01595219410955905914306640625000000,
-0.16954517364501953125000000000000000,
0.07282637804746627807617187500000000,
-0.17849673330783843994140625000000000,
-0.05071559920907020568847656250000000,
0.04804346710443496704101562500000000,
-0.07120126485824584960937500000000000,
-0.00374274165369570255279541015625000,
-0.09770148247480392456054687500000000,
-0.11675125360488891601562500000000000,
-0.10208805650472640991210937500000000,
-0.10451158136129379272460937500000000,
-0.07400428503751754760742187500000000,
0.00870781671255826950073242187500000,
-0.11382399499416351318359375000000000,
-0.00887992978096008300781250000000000,
-0.15282326936721801757812500000000000,
0.01589035801589488983154296875000000,
0.03885863348841667175292968750000000,
-0.05180061608552932739257812500000000,
0.01487484667450189590454101562500000,
-0.19863587617874145507812500000000000,
0.07185994088649749755859375000000000,
-0.09799768030643463134765625000000000,
-0.16895391047000885009765625000000000,
-0.16029009222984313964843750000000000,
0.03155662864446640014648437500000000,
0.01659089885652065277099609375000000,
-0.08686321228742599487304687500000000,
-0.08443537354469299316406250000000000,
-0.03686776757240295410156250000000000,
0.00246235076338052749633789062500000,
-0.14216108620166778564453125000000000,
-0.16660597920417785644531250000000000,
-0.02068832144141197204589843750000000,
0.06529618799686431884765625000000000,
-0.00002084552033920772373676300048828,
-0.13477756083011627197265625000000000,
-0.08743492513895034790039062500000000,
-0.04282799735665321350097656250000000,
-0.09355596452951431274414062500000000,
0.01969272270798683166503906250000000,
-0.16514796018600463867187500000000000,
0.01195461302995681762695312500000000,
0.04006744548678398132324218750000000,
0.05774329230189323425292968750000000,
0.00789349153637886047363281250000000,
0.03541236370801925659179687500000000,
0.12678141891956329345703125000000000,
-0.10085624456405639648437500000000000,
-0.16494137048721313476562500000000000,
-0.52309352159500122070312500000000000,
0.00970651488751173019409179687500000,
0.39273688197135925292968750000000000,
-0.72382873296737670898437500000000000,
-0.07839091122150421142578125000000000,
-0.06858849525451660156250000000000000,
-0.72851085662841796875000000000000000,
-0.18070974946022033691406250000000000,
0.02552589960396289825439453125000000,
0.16920469701290130615234375000000000,
-0.56201314926147460937500000000000000,
-0.26413920521736145019531250000000000,
-0.09992858767509460449218750000000000,
-0.08828467875719070434570312500000000,
-0.67848140001296997070312500000000000,
-0.32136905193328857421875000000000000,
-0.13053403794765472412109375000000000,
-0.12097992002964019775390625000000000,
-0.15083779394626617431640625000000000,
-0.59949314594268798828125000000000000,
-0.13959886133670806884765625000000000,
-0.21927861869335174560546875000000000,
0.02308647707104682922363281250000000,
-0.28600835800170898437500000000000000,
-0.21172542870044708251953125000000000,
-0.09116124361753463745117187500000000,
-0.50039929151535034179687500000000000,
0.57033783197402954101562500000000000,
-0.30822122097015380859375000000000000,
-0.25063899159431457519531250000000000,
0.36199390888214111328125000000000000,
-0.53112691640853881835937500000000000,
-0.14879594743251800537109375000000000,
-0.14456985890865325927734375000000000,
-0.14253512024879455566406250000000000,
-0.13982680439949035644531250000000000,
-0.29213604331016540527343750000000000,
0.01701566390693187713623046875000000,
0.07744411379098892211914062500000000,
-0.12362804263830184936523437500000000,
-0.14014643430709838867187500000000000,
-0.19256974756717681884765625000000000,
-0.89948332309722900390625000000000000,
-0.18180105090141296386718750000000000,
-0.44278681278228759765625000000000000,
-0.08508706837892532348632812500000000,
-0.23016846179962158203125000000000000,
-0.25071045756340026855468750000000000,
0.13930125534534454345703125000000000,
0.03304911032319068908691406250000000,
-0.13856013119220733642578125000000000,
-0.04459334909915924072265625000000000,
-0.60012054443359375000000000000000000,
0.07188142836093902587890625000000000,
-0.26645246148109436035156250000000000,
-0.39547055959701538085937500000000000,
-8.95664882659912109375000000000000000,
0.19891646504402160644531250000000000,
-0.83161711692810058593750000000000000,
0.36899223923683166503906250000000000,
0.16173782944679260253906250000000000,
0.70811134576797485351562500000000000,
-0.48020857572555541992187500000000000,
-1.23873579502105712890625000000000000,
0.23958747088909149169921875000000000,
-0.11433648318052291870117187500000000,
0.04390587285161018371582031250000000,
0.08341291546821594238281250000000000,
0.02842673100531101226806640625000000,
0.03683722764253616333007812500000000,
0.23623614013195037841796875000000000,
0.82332193851470947265625000000000000,
-0.15103858709335327148437500000000000,
-3.14292430877685546875000000000000000,
-0.03001617640256881713867187500000000,
-0.49636965990066528320312500000000000,
1.79145061969757080078125000000000000,
-3.33650708198547363281250000000000000,
0.67126137018203735351562500000000000,
-0.10769397020339965820312500000000000,
-0.32671636343002319335937500000000000,
-0.53318053483963012695312500000000000,
-2.89505267143249511718750000000000000,
1.86612951755523681640625000000000000,
0.65221577882766723632812500000000000,
-0.18942981958389282226562500000000000,
0.01958061195909976959228515625000000,
0.02242805622518062591552734375000000,
0.11894537508487701416015625000000000,
-0.12680560350418090820312500000000000,
1.26560485363006591796875000000000000,
0.01432415936142206192016601562500000,
-0.01967883110046386718750000000000000,
-0.15750235319137573242187500000000000,
2.57802343368530273437500000000000000,
-0.38010412454605102539062500000000000,
-0.17023867368698120117187500000000000,
-6.84157991409301757812500000000000000,
0.19096027314662933349609375000000000,
-0.12187689542770385742187500000000000,
0.03045071102678775787353515625000000,
-0.35012549161911010742187500000000000,
-0.16760496795177459716796875000000000,
-0.04883726686239242553710937500000000,
-0.28689348697662353515625000000000000,
0.46455347537994384765625000000000000,
-4.33817243576049804687500000000000000,
-0.84936428070068359375000000000000000,
-1.21205270290374755859375000000000000,
-0.25145334005355834960937500000000000,
0.38044199347496032714843750000000000,
-0.22962118685245513916015625000000000,
0.34493717551231384277343750000000000,
0.40397378802299499511718750000000000,
0.35801142454147338867187500000000000,
0.20798368752002716064453125000000000,
0.05808097869157791137695312500000000,
-0.13214100897312164306640625000000000,
0.00755177717655897140502929687500000,
-0.10141693055629730224609375000000000,
0.61113369464874267578125000000000000,
-0.52843159437179565429687500000000000,
-0.20575357973575592041015625000000000,
1.34510684013366699218750000000000000,
-0.33798924088478088378906250000000000,
-0.18729032576084136962890625000000000,
0.33769342303276062011718750000000000,
-14.15038299560546875000000000000000000,
0.80969935655593872070312500000000000,
-0.20808222889900207519531250000000000,
-1.58394956588745117187500000000000000,
-2.53480815887451171875000000000000000,
-0.13843441009521484375000000000000000,
-1.11145615577697753906250000000000000,
-0.20790511369705200195312500000000000,
-0.40677410364151000976562500000000000,
-0.13050758838653564453125000000000000,
0.12859439849853515625000000000000000,
0.08495555818080902099609375000000000,
-0.20191833376884460449218750000000000,
-2.43114900588989257812500000000000000,
-0.10014863312244415283203125000000000,
-0.47547948360443115234375000000000000,
-0.13204774260520935058593750000000000,
0.33551034331321716308593750000000000,
-0.05823257565498352050781250000000000,
-0.13379496335983276367187500000000000,
-0.33070835471153259277343750000000000,
0.05169016867876052856445312500000000,
0.02965976111590862274169921875000000,
0.11146192997694015502929687500000000,
0.02870651334524154663085937500000000,
-0.25746142864227294921875000000000000,
0.02315114624798297882080078125000000,
0.08783135563135147094726562500000000,
0.10767204314470291137695312500000000,
0.00259548844769597053527832031250000,
0.21837706863880157470703125000000000,
-0.13057732582092285156250000000000000,
-0.03284461796283721923828125000000000,
0.11850539594888687133789062500000000,
-0.12408362329006195068359375000000000,
0.55668640136718750000000000000000000,
0.23688152432441711425781250000000000,
0.57783371210098266601562500000000000,
0.50796347856521606445312500000000000,
-0.21919304132461547851562500000000000,
0.09066700935363769531250000000000000,
0.94658976793289184570312500000000000,
0.02945679612457752227783203125000000,
0.42478990554809570312500000000000000,
0.07437748461961746215820312500000000,
0.00819796044379472732543945312500000,
-0.06937262415885925292968750000000000,
-0.03263897076249122619628906250000000,
0.11880742013454437255859375000000000,
0.01365037262439727783203125000000000,
0.42504420876502990722656250000000000,
-0.07457409054040908813476562500000000,
0.05993073061108589172363281250000000,
-0.03701814636588096618652343750000000,
-0.14215122163295745849609375000000000,
0.02111669443547725677490234375000000,
-0.00121970451436936855316162109375000,
-0.03321527689695358276367187500000000,
0.05746051296591758728027343750000000,
0.59472924470901489257812500000000000,
-0.01113453228026628494262695312500000,
-0.06929960846900939941406250000000000,
-0.05992832779884338378906250000000000,
-0.21301372349262237548828125000000000,
-0.05301690846681594848632812500000000,
-0.15684942901134490966796875000000000,
0.19515068829059600830078125000000000,
-0.25935739278793334960937500000000000,
0.29932627081871032714843750000000000,
0.00736581301316618919372558593750000,
-0.06723665446043014526367187500000000,
-0.11396352946758270263671875000000000,
0.03453575447201728820800781250000000,
-0.11359405517578125000000000000000000,
-0.13155931234359741210937500000000000,
-0.08582016825675964355468750000000000,
-0.18562069535255432128906250000000000,
-0.16018016636371612548828125000000000,
-0.07576806843280792236328125000000000,
0.08100022375583648681640625000000000,
-0.16646143794059753417968750000000000,
0.05780781805515289306640625000000000,
-0.07360994815826416015625000000000000,
0.03854472935199737548828125000000000,
-0.05048027634620666503906250000000000,
-0.06772530078887939453125000000000000,
0.05679048970341682434082031250000000,
0.00901571009308099746704101562500000,
-0.15275932848453521728515625000000000,
-0.00187834142707288265228271484375000,
-0.09133114665746688842773437500000000,
-0.00870522949844598770141601562500000,
0.02505325339734554290771484375000000,
-0.01790158264338970184326171875000000,
-0.08436734974384307861328125000000000,
0.02996641397476196289062500000000000,
-0.15704850852489471435546875000000000,
-0.00343711534515023231506347656250000,
-0.19940967857837677001953125000000000,
0.03982332348823547363281250000000000,
-0.05723018571734428405761718750000000,
-0.11001812666654586791992187500000000,
-0.05415935814380645751953125000000000,
-0.16093201935291290283203125000000000,
-0.14670936763286590576171875000000000,
-0.17463466525077819824218750000000000,
-0.19812831282615661621093750000000000,
-0.05154232308268547058105468750000000,
0.06028248369693756103515625000000000,
0.05227418243885040283203125000000000,
-0.00435940222814679145812988281250000,
0.00942722335457801818847656250000000,
0.07911072671413421630859375000000000,
0.05983228608965873718261718750000000,
-0.19660775363445281982421875000000000,
0.04945175722241401672363281250000000,
-0.08818120509386062622070312500000000,
-0.05786721035838127136230468750000000,
-0.05833756923675537109375000000000000,
-0.08435785770416259765625000000000000,
-5.90532159805297851562500000000000000,
-0.21770243346691131591796875000000000,
0.09024886041879653930664062500000000,
0.45837143063545227050781250000000000,
-0.01838577911257743835449218750000000,
-0.02017206512391567230224609375000000,
-0.28240990638732910156250000000000000,
0.02564188092947006225585937500000000,
-0.19579054415225982666015625000000000,
-2.76713490486145019531250000000000000,
0.28250947594642639160156250000000000,
-3.96152257919311523437500000000000000,
0.28647455573081970214843750000000000,
2.43180394172668457031250000000000000,
1.58827817440032958984375000000000000,
-0.04020233452320098876953125000000000,
0.26132860779762268066406250000000000,
-1.93239915370941162109375000000000000,
-0.03975676000118255615234375000000000,
-0.11852633208036422729492187500000000,
0.07702385634183883666992187500000000,
0.37144479155540466308593750000000000,
-0.12433136999607086181640625000000000,
-0.39906299114227294921875000000000000,
-0.44943070411682128906250000000000000,
0.07594442367553710937500000000000000,
-0.75887143611907958984375000000000000,
-0.07569518685340881347656250000000000,
0.13068880140781402587890625000000000,
-0.14437302947044372558593750000000000,
-16.83212661743164062500000000000000000,
0.73661392927169799804687500000000000,
-0.02104641869664192199707031250000000,
-0.19658626616001129150390625000000000,
-1.00040376186370849609375000000000000,
-1.28486120700836181640625000000000000,
0.37979730963706970214843750000000000,
-0.31595927476882934570312500000000000,
0.16707582771778106689453125000000000,
0.20819197595119476318359375000000000,
0.00908233784139156341552734375000000,
0.00105863611679524183273315429687500,
0.20835711061954498291015625000000000,
0.77960711717605590820312500000000000,
-0.02158279716968536376953125000000000,
-0.09781369566917419433593750000000000,
0.04660549014806747436523437500000000,
-2.31806063652038574218750000000000000,
-0.42721161246299743652343750000000000,
0.17506442964076995849609375000000000,
-0.11171498894691467285156250000000000,
0.14667698740959167480468750000000000,
-0.13829183578491210937500000000000000,
-0.57145988941192626953125000000000000,
-0.00515168765559792518615722656250000,
-0.32318693399429321289062500000000000,
-0.12943808734416961669921875000000000,
-0.15685334801673889160156250000000000,
-1.21975743770599365234375000000000000,
-9.66115951538085937500000000000000000,
0.06959133595228195190429687500000000,
-0.31949427723884582519531250000000000,
0.04625526070594787597656250000000000,
3.11332893371582031250000000000000000,
1.84185135364532470703125000000000000,
0.53147220611572265625000000000000000,
-1.82196211814880371093750000000000000,
-0.36021208763122558593750000000000000,
0.38640543818473815917968750000000000,
0.10841719061136245727539062500000000,
-0.16808979213237762451171875000000000,
-0.03933324292302131652832031250000000,
0.01524141151458024978637695312500000,
0.01562433782964944839477539062500000,
1.11062085628509521484375000000000000,
-0.18839444220066070556640625000000000,
-0.89316177368164062500000000000000000,
-0.30717822909355163574218750000000000,
-0.33341985940933227539062500000000000,
-1.15433037281036376953125000000000000,
-0.93284821510314941406250000000000000,
-0.09198582172393798828125000000000000,
-0.09545316547155380249023437500000000,
-0.00269467174075543880462646484375000,
-0.56734472513198852539062500000000000,
-2.12407374382019042968750000000000000,
0.80616730451583862304687500000000000,
-0.42812353372573852539062500000000000,
-0.09028924256563186645507812500000000,
0.75453102588653564453125000000000000,
0.12205459922552108764648437500000000,
0.02775711379945278167724609375000000,
-0.05162667855620384216308593750000000,
-1.30259132385253906250000000000000000,
0.21224373579025268554687500000000000,
0.02907137945294380187988281250000000,
-0.20202109217643737792968750000000000,
-6.67228603363037109375000000000000000,
-0.98430711030960083007812500000000000,
-0.16717463731765747070312500000000000,
-4.27386188507080078125000000000000000,
-0.42992737889289855957031250000000000,
-0.08416227251291275024414062500000000,
-0.47364550828933715820312500000000000,
-0.00426842924207448959350585937500000,
-8.32204151153564453125000000000000000,
-0.63798868656158447265625000000000000,
-0.00949699059128761291503906250000000,
-0.44985887408256530761718750000000000,
-3.10901522636413574218750000000000000,
-0.26534542441368103027343750000000000,
-4.57129907608032226562500000000000000,
-0.83102256059646606445312500000000000,
1.85008013248443603515625000000000000,
0.81147801876068115234375000000000000,
-0.38176953792572021484375000000000000,
-0.20707836747169494628906250000000000,
-0.23002716898918151855468750000000000,
-0.23261152207851409912109375000000000,
-0.08279462903738021850585937500000000,
-0.03049494139850139617919921875000000,
-0.34323418140411376953125000000000000,
-0.01426433026790618896484375000000000,
-0.26129221916198730468750000000000000,
-0.63907378911972045898437500000000000,
0.11764167994260787963867187500000000,
0.46549415588378906250000000000000000,
-1.21679162979125976562500000000000000,
-0.46802502870559692382812500000000000,
-0.76220542192459106445312500000000000,
1.60849547386169433593750000000000000,
-0.60535800457000732421875000000000000,
-0.02003544569015502929687500000000000,
-0.26246663928031921386718750000000000,
-0.62761539220809936523437500000000000,
-0.76699578762054443359375000000000000,
-0.73399019241333007812500000000000000,
-0.21261599659919738769531250000000000,
0.08700654655694961547851562500000000,
-0.12820906937122344970703125000000000,
0.28123512864112854003906250000000000,
-0.14884276688098907470703125000000000,
-0.14581494033336639404296875000000000,
-0.64352953433990478515625000000000000,
-0.19838652014732360839843750000000000,
-0.10090903192758560180664062500000000,
0.11459603160619735717773437500000000,
-5.38043832778930664062500000000000000,
-0.39203906059265136718750000000000000,
-0.04969887435436248779296875000000000,
-0.77264201641082763671875000000000000,
0.16870251297950744628906250000000000,
-0.11281289905309677124023437500000000,
0.01560096908360719680786132812500000,
0.00867426674813032150268554687500000,
2.62019419670104980468750000000000000,
0.19441381096839904785156250000000000,
-0.24604023993015289306640625000000000,
-0.42157447338104248046875000000000000,
-0.02451857738196849822998046875000000,
-0.00305128959007561206817626953125000,
0.16454391181468963623046875000000000,
0.09076157212257385253906250000000000,
-0.01629097014665603637695312500000000,
-0.59166222810745239257812500000000000,
0.10080481320619583129882812500000000,
0.22355650365352630615234375000000000,
0.69809985160827636718750000000000000,
0.00571961933746933937072753906250000,
0.08544960618019104003906250000000000,
0.04913039878010749816894531250000000,
-0.10465557128190994262695312500000000,
0.06449566781520843505859375000000000,
-0.38343468308448791503906250000000000,
-0.32103672623634338378906250000000000,
-0.03998862579464912414550781250000000,
-0.15825906395912170410156250000000000,
0.02704171836376190185546875000000000,
-0.13868606090545654296875000000000000,
0.15530872344970703125000000000000000,
-0.96425539255142211914062500000000000,
0.16265852749347686767578125000000000,
0.07718634605407714843750000000000000,
0.09051991254091262817382812500000000,
-0.26579225063323974609375000000000000,
0.03208664804697036743164062500000000,
-0.06800703704357147216796875000000000,
-0.56604951620101928710937500000000000,
-0.07583732157945632934570312500000000,
0.25088986754417419433593750000000000,
0.11030701547861099243164062500000000,
0.25063657760620117187500000000000000,
-0.20743997395038604736328125000000000,
-0.08876490592956542968750000000000000,
0.19808517396450042724609375000000000,
0.08601552993059158325195312500000000,
-0.23425363004207611083984375000000000,
-0.29103711247444152832031250000000000,
0.09417216479778289794921875000000000,
0.00169101555366069078445434570312500,
-0.39238727092742919921875000000000000,
-0.12117315083742141723632812500000000,
0.07964123040437698364257812500000000,
-0.41457292437553405761718750000000000,
-0.19762478768825531005859375000000000,
-3.02699065208435058593750000000000000,
-0.30854633450508117675781250000000000,
-0.30422788858413696289062500000000000,
-0.39521315693855285644531250000000000,
-3.54393148422241210937500000000000000,
-0.30991375446319580078125000000000000,
-0.51028442382812500000000000000000000,
-0.11729067564010620117187500000000000,
1.08918285369873046875000000000000000,
0.61920458078384399414062500000000000,
-0.20107236504554748535156250000000000,
-0.12190184742212295532226562500000000,
-0.11539892107248306274414062500000000,
0.07624018192291259765625000000000000,
0.09114589542150497436523437500000000,
0.17370720207691192626953125000000000,
-0.27279925346374511718750000000000000,
-0.33989796042442321777343750000000000,
-0.02478967793285846710205078125000000,
-0.71393913030624389648437500000000000,
-0.07598520070314407348632812500000000,
-1.01948130130767822265625000000000000,
-3.85577416419982910156250000000000000,
-0.01482560951262712478637695312500000,
-1.12004017829895019531250000000000000,
0.81003552675247192382812500000000000,
-0.64271748065948486328125000000000000,
0.10150972008705139160156250000000000,
0.07451674342155456542968750000000000,
1.63083422183990478515625000000000000,
-0.24128325283527374267578125000000000,
-1.45370924472808837890625000000000000,
-0.06386455893516540527343750000000000,
0.14510698616504669189453125000000000,
0.15390144288539886474609375000000000,
0.12394019961357116699218750000000000,
-0.04607792198657989501953125000000000,
-0.11672663688659667968750000000000000,
-1.64543437957763671875000000000000000,
0.12714929878711700439453125000000000,
-0.19382275640964508056640625000000000,
-0.50301092863082885742187500000000000,
-4.70066356658935546875000000000000000,
-0.01110463030636310577392578125000000,
-0.01602180860936641693115234375000000,
-2.13392114639282226562500000000000000,
0.03188455849885940551757812500000000,
-0.02301077917218208312988281250000000,
-0.28405180573463439941406250000000000,
-0.17251527309417724609375000000000000,
-1.71524667739868164062500000000000000,
-0.44144114851951599121093750000000000,
-0.11134108155965805053710937500000000,
-0.62143373489379882812500000000000000,
0.25053229928016662597656250000000000,
-0.08784745633602142333984375000000000,
-0.87568205595016479492187500000000000,
-0.28482589125633239746093750000000000,
-0.53010416030883789062500000000000000,
-2.14491653442382812500000000000000000,
-0.64437067508697509765625000000000000,
-0.51595389842987060546875000000000000,
-0.12317170202732086181640625000000000,
-0.49473071098327636718750000000000000,
-0.01436087861657142639160156250000000,
-0.06776648014783859252929687500000000,
-0.54082852602005004882812500000000000,
-0.31525900959968566894531250000000000,
-0.72305887937545776367187500000000000,
0.55033051967620849609375000000000000,
-0.15176643431186676025390625000000000,
0.65754401683807373046875000000000000,
-0.37543419003486633300781250000000000,
-0.38410049676895141601562500000000000,
-0.63554394245147705078125000000000000,
-0.31648543477058410644531250000000000,
-0.70314282178878784179687500000000000,
-0.19205373525619506835937500000000000,
-1.25743174552917480468750000000000000,
-1.75386881828308105468750000000000000,
0.16465383768081665039062500000000000,
1.78614783287048339843750000000000000,
-0.54978823661804199218750000000000000,
-0.21263751387596130371093750000000000,
-0.55963313579559326171875000000000000,
0.12244629859924316406250000000000000,
0.07341290265321731567382812500000000,
-0.37037360668182373046875000000000000,
-0.13751904666423797607421875000000000,
-0.03952566534280776977539062500000000,
-0.59539657831192016601562500000000000,
-1.05224478244781494140625000000000000,
-0.70574277639389038085937500000000000,
-1.04540157318115234375000000000000000,
-0.15567956864833831787109375000000000,
-0.30846664309501647949218750000000000,
-0.40835312008857727050781250000000000,
-0.16515542566776275634765625000000000,
0.39114838838577270507812500000000000,
0.12457628548145294189453125000000000,
-2.86599612236022949218750000000000000,
-0.17713832855224609375000000000000000,
-0.21785362064838409423828125000000000,
-0.90876626968383789062500000000000000,
-0.87748646736145019531250000000000000,
0.37952333688735961914062500000000000,
0.35913431644439697265625000000000000,
0.07197897881269454956054687500000000,
1.42797470092773437500000000000000000,
0.50073623657226562500000000000000000,
-0.09581180661916732788085937500000000,
0.83136510848999023437500000000000000,
1.40955173969268798828125000000000000,
-0.13712662458419799804687500000000000,
-0.24734605848789215087890625000000000,
0.38933470845222473144531250000000000,
-0.00532560329884290695190429687500000,
0.03995564579963684082031250000000000,
-0.60668122768402099609375000000000000,
0.26592835783958435058593750000000000,
0.21724414825439453125000000000000000,
-0.00057187862694263458251953125000000,
-0.59902757406234741210937500000000000,
0.29434549808502197265625000000000000,
-0.91370427608489990234375000000000000,
1.24050962924957275390625000000000000,
0.12017942219972610473632812500000000,
0.10719564557075500488281250000000000,
0.18985244631767272949218750000000000,
-1.05782377719879150390625000000000000,
0.17485092580318450927734375000000000,
0.03280625864863395690917968750000000,
-0.13770410418510437011718750000000000,
0.33960181474685668945312500000000000,
0.43554589152336120605468750000000000,
0.15828676521778106689453125000000000,
-0.33732089400291442871093750000000000,
-0.20599231123924255371093750000000000,
0.12141866981983184814453125000000000,
-0.18159970641136169433593750000000000,
0.19736038148403167724609375000000000,
-0.27164220809936523437500000000000000,
-3.18991899490356445312500000000000000,
0.00414691399782896041870117187500000,
0.18503239750862121582031250000000000,
-0.03367454558610916137695312500000000,
-0.05200959369540214538574218750000000,
-0.14007775485515594482421875000000000,
-0.22010768949985504150390625000000000,
-0.19450606405735015869140625000000000,
-0.08279857784509658813476562500000000,
-0.18590281903743743896484375000000000,
-0.13282607495784759521484375000000000,
-0.03783812001347541809082031250000000,
0.04385151341557502746582031250000000,
0.00778357032686471939086914062500000,
0.02228921279311180114746093750000000,
0.00122468068730086088180541992187500,
-0.13268256187438964843750000000000000,
-0.17957212030887603759765625000000000,
-0.18534779548645019531250000000000000,
-0.16980805993080139160156250000000000,
-0.12500759959220886230468750000000000,
-0.03315177932381629943847656250000000,
-0.09706652909517288208007812500000000,
-0.03320910036563873291015625000000000,
-0.07424535602331161499023437500000000,
-0.19351838529109954833984375000000000,
-0.17362485826015472412109375000000000,
0.03682364895939826965332031250000000,
-0.16340282559394836425781250000000000,
-0.17022770643234252929687500000000000,
0.01726974360644817352294921875000000,
0.02564854361116886138916015625000000,
-0.09112832695245742797851562500000000,
-0.20208078622817993164062500000000000,
-0.01891810074448585510253906250000000,
-0.13068059086799621582031250000000000,
-0.09388279169797897338867187500000000,
0.05540537461638450622558593750000000,
-0.06201391667127609252929687500000000,
0.01935581676661968231201171875000000,
-0.07831358164548873901367187500000000,
0.01983078382909297943115234375000000,
-0.01904413476586341857910156250000000,
-0.21268428862094879150390625000000000,
-0.19495983421802520751953125000000000,
-0.04895525053143501281738281250000000,
-0.09877275675535202026367187500000000,
-0.18138740956783294677734375000000000,
0.02424492686986923217773437500000000,
-0.05520427599549293518066406250000000,
0.01327769737690687179565429687500000,
-0.15054441988468170166015625000000000,
-0.05131328478455543518066406250000000,
-0.17821940779685974121093750000000000,
0.01542009878903627395629882812500000,
-0.22523868083953857421875000000000000,
-0.19739724695682525634765625000000000,
-0.11232578009366989135742187500000000,
-0.07769723981618881225585937500000000,
-0.03795171529054641723632812500000000,
0.04408922046422958374023437500000000,
-0.03368832170963287353515625000000000,
-0.17895692586898803710937500000000000,
-0.08669283241033554077148437500000000,
0.00625262642279267311096191406250000,
0.01544327475130558013916015625000000,
-0.15474171936511993408203125000000000,
-0.03954765573143959045410156250000000,
-0.01678464002907276153564453125000000,
0.01481388416141271591186523437500000,
-0.11470503360033035278320312500000000,
-0.07405957579612731933593750000000000,
-0.00797199178487062454223632812500000,
-0.18406416475772857666015625000000000,
-0.17266747355461120605468750000000000,
-0.17889422178268432617187500000000000,
-0.01698941364884376525878906250000000,
-0.05524945631623268127441406250000000,
0.03695821017026901245117187500000000,
-0.12705922126770019531250000000000000,
-0.07991047203540802001953125000000000,
0.02244434505701065063476562500000000,
-0.11083304882049560546875000000000000,
-0.15111823379993438720703125000000000,
0.02960964851081371307373046875000000,
-0.21545921266078948974609375000000000,
0.02358904108405113220214843750000000,
-0.01057637855410575866699218750000000,
-0.01781835220754146575927734375000000,
-0.13634690642356872558593750000000000,
-0.04630026593804359436035156250000000,
-0.00295163714326918125152587890625000,
-0.13382884860038757324218750000000000,
-0.07733612507581710815429687500000000,
-0.10919493436813354492187500000000000,
-0.04658663272857666015625000000000000,
0.00089140894124284386634826660156250,
-0.13176763057708740234375000000000000,
-0.00948611460626125335693359375000000,
-0.05353923514485359191894531250000000,
0.00226908852346241474151611328125000,
-0.00237139291130006313323974609375000,
0.00667501054704189300537109375000000,
-0.87655496597290039062500000000000000,
-0.48579096794128417968750000000000000,
-0.19695812463760375976562500000000000,
0.48437520861625671386718750000000000,
-0.23679021000862121582031250000000000,
2.72725582122802734375000000000000000,
0.14694896340370178222656250000000000,
0.08153512328863143920898437500000000,
0.12403725087642669677734375000000000,
-14.73051261901855468750000000000000000,
0.27640381455421447753906250000000000,
-0.14280365407466888427734375000000000,
5.08879518508911132812500000000000000,
1.89835453033447265625000000000000000,
1.23822283744812011718750000000000000,
-0.65108901262283325195312500000000000,
0.24954120814800262451171875000000000,
0.44027775526046752929687500000000000,
0.23623669147491455078125000000000000,
-0.48677170276641845703125000000000000,
-0.12749445438385009765625000000000000,
-0.08419093489646911621093750000000000,
0.24148753285408020019531250000000000,
0.02158548124134540557861328125000000,
1.99290823936462402343750000000000000,
-0.25184431672096252441406250000000000,
-1.22859191894531250000000000000000000,
0.28489890694618225097656250000000000,
-0.27446627616882324218750000000000000,
1.00499153137207031250000000000000000,
-2.73420786857604980468750000000000000,
-2.40707874298095703125000000000000000,
-0.12115200608968734741210937500000000,
-1.71688914299011230468750000000000000,
2.54208135604858398437500000000000000,
-4.85906982421875000000000000000000000,
-4.41479301452636718750000000000000000,
0.08666704595088958740234375000000000,
-0.34223666787147521972656250000000000,
-0.02226469665765762329101562500000000,
1.19369256496429443359375000000000000,
0.23488095402717590332031250000000000,
-0.20278577506542205810546875000000000,
0.47625845670700073242187500000000000,
0.01424103975296020507812500000000000,
-0.05792425200343132019042968750000000,
-0.21708731353282928466796875000000000,
0.87740385532379150390625000000000000,
-0.68442004919052124023437500000000000,
-0.45293194055557250976562500000000000,
-0.17057950794696807861328125000000000,
-0.17683526873588562011718750000000000,
0.02401156350970268249511718750000000,
-0.15379719436168670654296875000000000,
-0.10097370296716690063476562500000000,
-0.04765605926513671875000000000000000,
0.04228711873292922973632812500000000,
0.00837945565581321716308593750000000,
0.05336251854896545410156250000000000,
-0.08507313579320907592773437500000000,
-0.16545660793781280517578125000000000,
-0.05973022431135177612304687500000000,
-0.17474670708179473876953125000000000,
-0.05905573815107345581054687500000000,
-0.09011300653219223022460937500000000,
-0.04350566491484642028808593750000000,
-0.03878451511263847351074218750000000,
-0.05039482563734054565429687500000000,
-0.21758291125297546386718750000000000,
-0.09086247533559799194335937500000000,
-0.11130366474390029907226562500000000,
0.02245708182454109191894531250000000,
-0.05828823894262313842773437500000000,
-0.14004603028297424316406250000000000,
0.02769350633025169372558593750000000,
-0.08456869423389434814453125000000000,
-0.13938494026660919189453125000000000,
-0.11133289337158203125000000000000000,
-0.09207884222269058227539062500000000,
0.02154648303985595703125000000000000,
-0.02996101044118404388427734375000000,
-0.18251563608646392822265625000000000,
-0.13927246630191802978515625000000000,
-0.09639021754264831542968750000000000,
-0.07161288708448410034179687500000000,
-0.16788610816001892089843750000000000,
0.00379476649686694145202636718750000,
-0.15318417549133300781250000000000000,
-0.14582751691341400146484375000000000,
-0.20631876587867736816406250000000000,
0.05227806419134140014648437500000000,
-0.20298258960247039794921875000000000,
-0.07768984884023666381835937500000000,
0.04490245506167411804199218750000000,
0.04042507335543632507324218750000000,
0.04040643200278282165527343750000000,
-0.20885196328163146972656250000000000,
0.07474011182785034179687500000000000,
-0.03112330473959445953369140625000000,
-0.14811219274997711181640625000000000,
-0.20043772459030151367187500000000000,
-0.20794171094894409179687500000000000,
-0.02689596265554428100585937500000000,
-0.04946575313806533813476562500000000,
-0.06261041015386581420898437500000000,
-0.06519766151905059814453125000000000,
-0.09735000133514404296875000000000000,
0.05128665268421173095703125000000000,
-0.03725272417068481445312500000000000,
-0.11956193298101425170898437500000000,
-0.00996015965938568115234375000000000,
-0.15146952867507934570312500000000000,
-0.14640724658966064453125000000000000,
-0.01391638070344924926757812500000000,
-0.02315655164420604705810546875000000,
-0.13715396821498870849609375000000000,
-0.16719044744968414306640625000000000,
-0.00123097491450607776641845703125000,
0.04379930347204208374023437500000000,
-0.08932636678218841552734375000000000,
-0.05806280300021171569824218750000000,
0.01591660082340240478515625000000000,
-0.09301164746284484863281250000000000,
-0.17079037427902221679687500000000000,
-0.05179172754287719726562500000000000,
0.07090413570404052734375000000000000,
-0.05844328179955482482910156250000000,
0.03160465881228446960449218750000000,
-0.05349579825997352600097656250000000,
-0.03909799829125404357910156250000000,
-0.07889574021100997924804687500000000,
-0.12585914134979248046875000000000000,
-0.07420866936445236206054687500000000,
0.06246629357337951660156250000000000,
-0.08875845372676849365234375000000000,
-0.16505470871925354003906250000000000,
0.04790677502751350402832031250000000,
-0.14968366920948028564453125000000000,
-0.09882575273513793945312500000000000,
-0.10352060943841934204101562500000000,
-0.16952604055404663085937500000000000,
0.03083166107535362243652343750000000,
-0.19654013216495513916015625000000000,
0.04237885400652885437011718750000000,
-0.12306284904479980468750000000000000,
-0.01126738917082548141479492187500000,
-0.07589679956436157226562500000000000,
-0.05120369791984558105468750000000000,
-0.08632888644933700561523437500000000,
-0.01914882101118564605712890625000000,
-0.21274125576019287109375000000000000,
-0.00799783039838075637817382812500000,
-0.00646753981709480285644531250000000,
-0.26705050468444824218750000000000000,
-0.20623601973056793212890625000000000,
-0.96666884422302246093750000000000000,
-0.26410916447639465332031250000000000,
-0.26322913169860839843750000000000000,
-0.93063241243362426757812500000000000,
-0.34379884600639343261718750000000000,
-0.04340857267379760742187500000000000,
-0.53381675481796264648437500000000000,
1.98072993755340576171875000000000000,
-0.84650534391403198242187500000000000,
-0.31302443146705627441406250000000000,
-1.07488703727722167968750000000000000,
-1.35645592212677001953125000000000000,
-0.01906886138021945953369140625000000,
-0.63326203823089599609375000000000000,
0.01192824821919202804565429687500000,
-0.05984351783990859985351562500000000,
-0.67743206024169921875000000000000000,
-0.25326609611511230468750000000000000,
-0.80335533618927001953125000000000000,
0.20503890514373779296875000000000000,
0.08398701250553131103515625000000000,
1.85356402397155761718750000000000000,
-0.48811963200569152832031250000000000,
-0.73540073633193969726562500000000000,
-0.33000162243843078613281250000000000,
0.31497865915298461914062500000000000,
-0.69898819923400878906250000000000000,
0.09831989556550979614257812500000000,
-0.15977761149406433105468750000000000,
0.40582045912742614746093750000000000,
0.19246566295623779296875000000000000,
-0.36629161238670349121093750000000000,
-0.55671840906143188476562500000000000,
0.08563166111707687377929687500000000,
-0.60401362180709838867187500000000000,
0.17771477997303009033203125000000000,
-0.02235693484544754028320312500000000,
0.06250715255737304687500000000000000,
-0.47607415914535522460937500000000000,
0.05332020670175552368164062500000000,
-0.41584888100624084472656250000000000,
-0.45417875051498413085937500000000000,
-0.98394596576690673828125000000000000,
-0.70787572860717773437500000000000000,
-0.12228631228208541870117187500000000,
-0.00992867164313793182373046875000000,
-0.03622920438647270202636718750000000,
-0.15917706489562988281250000000000000,
-0.02101124450564384460449218750000000,
-0.09207742661237716674804687500000000,
-0.05251121520996093750000000000000000,
0.03719014674425125122070312500000000,
-0.12148764729499816894531250000000000,
-0.17219696938991546630859375000000000,
-0.07268471270799636840820312500000000,
-0.22440943121910095214843750000000000,
0.04296240210533142089843750000000000,
-0.06795496493577957153320312500000000,
0.03215196728706359863281250000000000,
-0.01597207598388195037841796875000000,
-0.03049197420477867126464843750000000,
-0.05774704739451408386230468750000000,
0.00296144932508468627929687500000000,
-0.04668279364705085754394531250000000,
-0.02281157858669757843017578125000000,
-0.05178660899400711059570312500000000,
-0.04779739305377006530761718750000000,
-0.04428933933377265930175781250000000,
-0.21512290835380554199218750000000000,
-0.09812506288290023803710937500000000,
-0.17890834808349609375000000000000000,
-0.05353489518165588378906250000000000,
-0.05758550018072128295898437500000000,
0.01332321576774120330810546875000000,
-0.22534905374050140380859375000000000,
0.04583546519279479980468750000000000,
-0.04825758934020996093750000000000000,
-0.02564827352762222290039062500000000,
-0.18230393528938293457031250000000000,
0.01651034876704216003417968750000000,
-0.10177573561668395996093750000000000,
0.05251553654670715332031250000000000,
-0.12140350788831710815429687500000000,
-0.09693764895200729370117187500000000,
-0.07099528610706329345703125000000000,
-0.17331387102603912353515625000000000,
-0.08768178522586822509765625000000000,
0.01702990382909774780273437500000000,
-0.12252941727638244628906250000000000,
-0.16209810972213745117187500000000000,
-0.16837756335735321044921875000000000,
-0.11215805262327194213867187500000000,
-0.01480497326701879501342773437500000,
-0.09268522262573242187500000000000000,
-0.03611194342374801635742187500000000,
0.01696254871785640716552734375000000,
-0.08495526015758514404296875000000000,
-0.14290934801101684570312500000000000,
-0.01834761537611484527587890625000000,
0.01548672933131456375122070312500000,
0.06006848067045211791992187500000000,
-0.02736834995448589324951171875000000,
-0.17662605643272399902343750000000000,
-0.18680830299854278564453125000000000,
-0.02288022078573703765869140625000000,
-0.00646038213744759559631347656250000,
0.01355489622801542282104492187500000,
-0.02879638224840164184570312500000000,
-0.01443917583674192428588867187500000,
-0.15567885339260101318359375000000000,
0.05787187069654464721679687500000000,
-0.05203612148761749267578125000000000,
0.07534249871969223022460937500000000,
0.05763920396566390991210937500000000,
-0.18615743517875671386718750000000000,
-0.06863798201084136962890625000000000,
-0.14561264216899871826171875000000000,
0.03420513123273849487304687500000000,
-0.02814067527651786804199218750000000,
0.02000859752297401428222656250000000,
-0.09856672585010528564453125000000000,
-0.00689665833488106727600097656250000,
0.04116708412766456604003906250000000,
-0.19275954365730285644531250000000000,
-0.08629063516855239868164062500000000,
-0.13915315270423889160156250000000000,
-0.17181323468685150146484375000000000,
0.02014715038239955902099609375000000,
-0.04728410020470619201660156250000000,
-0.17847593128681182861328125000000000,
0.03749080374836921691894531250000000,
-0.17735242843627929687500000000000000,
-0.02770614996552467346191406250000000,
-0.01359053794294595718383789062500000,
-0.09753128141164779663085937500000000,
0.07138341665267944335937500000000000,
-0.18444553017616271972656250000000000,
-0.10292215645313262939453125000000000,
0.06835453212261199951171875000000000,
-0.19627588987350463867187500000000000,
-0.15375642478466033935546875000000000,
-0.07222677022218704223632812500000000,
0.07844462990760803222656250000000000,
-0.14352373778820037841796875000000000,
-0.00312806502915918827056884765625000,
