0.00000000000000000000000000000000000,
0.32013592123985290527343750000000000,
0.64092439413070678710937500000000000,
-0.04835268855094909667968750000000000,
-0.34613281488418579101562500000000000,
0.13053031265735626220703125000000000,
0.05797501653432846069335937500000000,
-0.03244802355766296386718750000000000,
-0.29570859670639038085937500000000000,
0.00126047886442393064498901367187500,
-0.04194436222314834594726562500000000,
0.41003990173339843750000000000000000,
0.19104251265525817871093750000000000,
-0.03865477442741394042968750000000000,
0.35617780685424804687500000000000000,
-0.32240155339241027832031250000000000,
0.19126288592815399169921875000000000,
0.09758803993463516235351562500000000,
0.11740706861019134521484375000000000,
-0.00280440808273851871490478515625000,
-0.04831516742706298828125000000000000,
0.19045934081077575683593750000000000,
0.18926303088665008544921875000000000,
-0.10004398226737976074218750000000000,
-0.12266495078802108764648437500000000,
0.18629549443721771240234375000000000,
0.13264968991279602050781250000000000,
0.00819513387978076934814453125000000,
0.58403593301773071289062500000000000,
0.01753461919724941253662109375000000,
-0.06604707241058349609375000000000000,
0.33919331431388854980468750000000000,
0.03169444948434829711914062500000000,
0.06356978416442871093750000000000000,
0.19158793985843658447265625000000000,
0.13801541924476623535156250000000000,
-0.01937586069107055664062500000000000,
-0.07275009900331497192382812500000000,
-0.38022452592849731445312500000000000,
0.40684655308723449707031250000000000,
-0.02946336008608341217041015625000000,
-0.00540413195267319679260253906250000,
-0.02952313981950283050537109375000000,
0.02647085674107074737548828125000000,
0.25549384951591491699218750000000000,
-0.00352226616814732551574707031250000,
0.00946510117501020431518554687500000,
-0.05059719085693359375000000000000000,
0.10030791163444519042968750000000000,
-0.04621512442827224731445312500000000,
0.12549538910388946533203125000000000,
0.57958650588989257812500000000000000,
0.44227439165115356445312500000000000,
-0.16399699449539184570312500000000000,
0.39371332526206970214843750000000000,
0.05753941461443901062011718750000000,
0.02951475791633129119873046875000000,
0.05336107686161994934082031250000000,
-0.12059736251831054687500000000000000,
-0.12598954141139984130859375000000000,
-0.03164243325591087341308593750000000,
-0.14307495951652526855468750000000000,
0.00746620446443557739257812500000000,
-0.18432530760765075683593750000000000,
-0.12098718434572219848632812500000000,
0.23479488492012023925781250000000000,
0.15252098441123962402343750000000000,
0.04083430767059326171875000000000000,
-0.12385941296815872192382812500000000,
-0.07947666943073272705078125000000000,
0.02274189330637454986572265625000000,
0.10949229449033737182617187500000000,
0.29682350158691406250000000000000000,
-0.06993297487497329711914062500000000,
-0.14376063644886016845703125000000000,
0.15181046724319458007812500000000000,
-0.05373957380652427673339843750000000,
0.17856267094612121582031250000000000,
0.67283588647842407226562500000000000,
-0.08297027647495269775390625000000000,
0.02288400381803512573242187500000000,
-0.02536322362720966339111328125000000,
-0.06094700843095779418945312500000000,
-0.01768871396780014038085937500000000,
0.45476478338241577148437500000000000,
-0.05926593020558357238769531250000000,
0.05339389294385910034179687500000000,
0.29361012578010559082031250000000000,
-0.35863152146339416503906250000000000,
-0.09669885784387588500976562500000000,
0.11285321414470672607421875000000000,
-0.18893235921859741210937500000000000,
-0.34221476316452026367187500000000000,
-0.04048527032136917114257812500000000,
0.09286629408597946166992187500000000,
-0.12385151535272598266601562500000000,
0.04645396023988723754882812500000000,
0.00268827495165169239044189453125000,
0.02647685445845127105712890625000000,
0.16550116240978240966796875000000000,
0.05957391858100891113281250000000000,
0.57438337802886962890625000000000000,
0.55423456430435180664062500000000000,
0.11928977072238922119140625000000000,
0.50273793935775756835937500000000000,
0.01940314844250679016113281250000000,
-0.33568915724754333496093750000000000,
0.11086481064558029174804687500000000,
-0.11330967396497726440429687500000000,
-0.22457292675971984863281250000000000,
0.10390023142099380493164062500000000,
0.08122153580188751220703125000000000,
0.02159668318927288055419921875000000,
-0.38498124480247497558593750000000000,
-0.12497831881046295166015625000000000,
0.18857972323894500732421875000000000,
0.63084012269973754882812500000000000,
0.04728389903903007507324218750000000,
0.10036468505859375000000000000000000,
0.02540897578001022338867187500000000,
-0.04887036234140396118164062500000000,
-0.01537617295980453491210937500000000,
0.77081918716430664062500000000000000,
-0.00302511220797896385192871093750000,
0.02513225935399532318115234375000000,
-0.04658605530858039855957031250000000,
-0.05363488569855690002441406250000000,
-0.01638040505349636077880859375000000,
0.84756624698638916015625000000000000,
0.22113393247127532958984375000000000,
0.11625698953866958618164062500000000,
0.09017966687679290771484375000000000,
-0.29485914111137390136718750000000000,
-0.40976744890213012695312500000000000,
0.53142219781875610351562500000000000,
-0.06624306738376617431640625000000000,
-0.24453790485858917236328125000000000,
0.68282777070999145507812500000000000,
-0.09117651730775833129882812500000000,
0.09055027365684509277343750000000000,
0.25263014435768127441406250000000000,
-0.18779638409614562988281250000000000,
0.39937746524810791015625000000000000,
-0.04558771848678588867187500000000000,
-0.00438290368765592575073242187500000,
-0.27379387617111206054687500000000000,
-0.06552343070507049560546875000000000,
0.16951183974742889404296875000000000,
0.26707696914672851562500000000000000,
-0.03838605061173439025878906250000000,
-0.02309259772300720214843750000000000,
