0.80741029977798461914062500000000000,
-0.05472989752888679504394531250000000,
0.15456849336624145507812500000000000,
-0.22516058385372161865234375000000000,
0.52109873294830322265625000000000000,
1.59307777881622314453125000000000000,
0.29095432162284851074218750000000000,
-1.49342346191406250000000000000000000,
-0.63305813074111938476562500000000000,
-0.77889442443847656250000000000000000,
-0.24414706230163574218750000000000000,
0.13405038416385650634765625000000000,
-0.25583946704864501953125000000000000,
-0.05051527917385101318359375000000000,
-0.18123649060726165771484375000000000,
0.11706167459487915039062500000000000,
-0.31902077794075012207031250000000000,
-0.19581101834774017333984375000000000,
-0.02248066663742065429687500000000000,
-0.13399511575698852539062500000000000,
-0.45187759399414062500000000000000000,
-0.83645278215408325195312500000000000,
0.01325351465493440628051757812500000,
0.13149577379226684570312500000000000,
-0.74362689256668090820312500000000000,
0.32045304775238037109375000000000000,
0.03148103505373001098632812500000000,
-2.04369282722473144531250000000000000,
1.42254173755645751953125000000000000,
-1.56832242012023925781250000000000000,
2.82386422157287597656250000000000000,
0.97738176584243774414062500000000000,
-1.48284506797790527343750000000000000,
-2.54825830459594726562500000000000000,
-0.89257299900054931640625000000000000,
1.87081134319305419921875000000000000,
-0.45081764459609985351562500000000000,
2.05655598640441894531250000000000000,
-0.17410986125469207763671875000000000,
0.25027170777320861816406250000000000,
1.74536991119384765625000000000000000,
1.35111641883850097656250000000000000,
-1.74835050106048583984375000000000000,
-1.22264301776885986328125000000000000,
0.40606251358985900878906250000000000,
1.71785044670104980468750000000000000,
0.71260452270507812500000000000000000,
0.63593065738677978515625000000000000,
-1.48327410221099853515625000000000000,
1.14322984218597412109375000000000000,
-0.16635143756866455078125000000000000,
0.07789374887943267822265625000000000,
-0.35259470343589782714843750000000000,
-0.13945524394512176513671875000000000,
-0.40542361140251159667968750000000000,
-0.07415702193975448608398437500000000,
-0.20101833343505859375000000000000000,
-0.39114364981651306152343750000000000,
0.16957907378673553466796875000000000,
-0.29279634356498718261718750000000000,
-0.34870263934135437011718750000000000,
-0.47847723960876464843750000000000000,
-0.18883396685123443603515625000000000,
-0.21364673972129821777343750000000000,
-0.46071541309356689453125000000000000,
-0.41365614533424377441406250000000000,
-0.05373813211917877197265625000000000,
0.16381323337554931640625000000000000,
-0.16595637798309326171875000000000000,
-0.28097149729728698730468750000000000,
0.08173593878746032714843750000000000,
0.49204939603805541992187500000000000,
-0.04581093415617942810058593750000000,
1.11148917675018310546875000000000000,
1.47113585472106933593750000000000000,
0.29248708486557006835937500000000000,
1.62108731269836425781250000000000000,
0.37954828143119812011718750000000000,
-0.19500486552715301513671875000000000,
0.32520112395286560058593750000000000,
0.04061442613601684570312500000000000,
0.21853223443031311035156250000000000,
0.00080287456512451171875000000000000,
-0.12312579154968261718750000000000000,
0.00337699055671691894531250000000000,
-0.19637154042720794677734375000000000,
-0.10197621583938598632812500000000000,
0.01649868488311767578125000000000000,
-0.26391908526420593261718750000000000,
-0.24524059891700744628906250000000000,
0.82524830102920532226562500000000000,
0.38500204682350158691406250000000000,
0.02153572626411914825439453125000000,
0.60789674520492553710937500000000000,
2.42443966865539550781250000000000000,
0.94996803998947143554687500000000000,
1.26952910423278808593750000000000000,
-0.79269891977310180664062500000000000,
1.31877589225769042968750000000000000,
-0.11131516844034194946289062500000000,
