0.00000000000000000000000000000000000,
0.36467459797859191894531250000000000,
0.06852609664201736450195312500000000,
-0.20422449707984924316406250000000000,
-0.12507812678813934326171875000000000,
0.05948840826749801635742187500000000,
0.22994108498096466064453125000000000,
-0.00363173359073698520660400390625000,
0.00064753572223708033561706542968750,
0.04151315614581108093261718750000000,
-0.38776493072509765625000000000000000,
-0.36140295863151550292968750000000000,
0.03075102530419826507568359375000000,
0.22852553427219390869140625000000000,
0.06886965036392211914062500000000000,
0.32350409030914306640625000000000000,
-1.04048454761505126953125000000000000,
1.28932249546051025390625000000000000,
-0.27894884347915649414062500000000000,
0.08100785315036773681640625000000000,
-0.02490447461605072021484375000000000,
0.04153476282954216003417968750000000,
0.13222666084766387939453125000000000,
0.02401944063603878021240234375000000,
0.32868847250938415527343750000000000,
0.01555085089057683944702148437500000,
-0.16090205311775207519531250000000000,
0.20797702670097351074218750000000000,
5.99527215957641601562500000000000000,
-0.06616143137216567993164062500000000,
-0.23046605288982391357421875000000000,
-0.28949913382530212402343750000000000,
1.03210532665252685546875000000000000,
0.04360029846429824829101562500000000,
-0.10040351748466491699218750000000000,
-0.08071960508823394775390625000000000,
0.07551216334104537963867187500000000,
1.41021716594696044921875000000000000,
0.01487416960299015045166015625000000,
0.11678712069988250732421875000000000,
-0.02584850229322910308837890625000000,
0.10898907482624053955078125000000000,
0.00468414789065718650817871093750000,
-0.16757953166961669921875000000000000,
0.15100663900375366210937500000000000,
-0.00184041308239102363586425781250000,
-0.03828063979744911193847656250000000,
0.23645435273647308349609375000000000,
-0.39392548799514770507812500000000000,
0.07833752036094665527343750000000000,
0.20366941392421722412109375000000000,
-0.17386814951896667480468750000000000,
-0.37519869208335876464843750000000000,
0.72009789943695068359375000000000000,
-0.15993003547191619873046875000000000,
-1.87836992740631103515625000000000000,
2.40372061729431152343750000000000000,
-0.00219534826464951038360595703125000,
-0.13122235238552093505859375000000000,
0.09340449422597885131835937500000000,
0.02071055211126804351806640625000000,
