0
0.56750286
0.29041034
-0.7667463
-0.30778822
-0.19453627
0.052338067
0.051393315
-0.41384974
0.23124811
-0.5222041
0.24948092
-0.31966025
-0.4844258
-0.5024087
-0.36684132
-0.26990286
0.7860136
0.7489174
0.10237328
0.8797983
0.15358932
-0.43525583
-0.33893755
-0.5969175
-0.43339083
-0.7354752
-0.47557405
-0.41403088
-0.12198586
-0.17878792
-0.7250235
-0.0074615753
0.28415006
0.11934181
0.54047835
-0.18045455
-0.022806033
-0.34083265
-0.11342147
-0.28215396
0.54982346
-0.14061013
0.33105877
-0.5858032
0.05666621
-0.26612052
0.38792008
0.8416578
-0.24263522
0.53111196
0.0035079771
0.13607505
-0.3355052
0.2190599
-0.36567366
0.07387337
-0.7667963
-0.76114225
-0.45275992
0.71551394
0.47114548
0.15460183
-0.79661524
-0.60064125
0.53378177
-0.4437654
-0.55072016
0.26468936
-0.5530952
-0.18429789
0.68568313
-0.105795145
-0.23657186
0.55657285
-0.2538771
-0.084058195
-0.27009708
0.15201633
-0.36564633
-0.08868603
-0.36813867
-0.49944782
0.15619941
0.097883165
-0.15386333
-0.25387898
-0.31589434
0.24764068
0.14373663
0.103651635
-0.609158
-0.48606333
0.60788625
-0.17174609
0.39685357
-0.8278383
-0.77496827
0.45004725
0.10292385
0.02356032
0.39415267
-0.0011339425
-0.55016
-0.6391986
-0.1455047
-0.5055665
-0.43153659
-0.65357935
-0.8085621
0.8507495
-0.41511482
-0.72121143
-0.08908679
0.14683999
-0.091342166
0.15930574
-0.31472558
-0.72965324
0.2529771
-0.15886144
-0.1998527
0.46648562
-0.5152709
-0.6169688
-0.38684142
0.08544944
0.549591
0.15700363
-0.5972403
0.1290118
-0.28042537
-0.16166772
-0.47471124
-0.1994067
0.16951895
-0.22994833
0.5255466
-0.77983564
0.72901106
-0.13720259
-0.040919684
0.41588664
0.26866734
-0.63138336
0.1839547
-0.6343165
-0.77270997
0.043160908
0.19777966
0.0017510616
-0.2912486
0.58892643
0.12385315
-0.5979915
-0.32888025
-0.46990785
0.14315435
0.64497477
-0.4565642
0.66172564
-0.55492294
-0.73738223
0.23062922
0.9800411
0.1919792
0.5019564
0.22844607
0.25867763
0.69003403
0.23063014
0.7923029
-0.11134453
0.21977705
0.63038355
0.31866568
0.05112926
-0.572487
-0.6510052
-0.7051255
-0.30799145
-0.22627999
-0.55431026
-0.2683955
-0.27995992
-0.58382356
0.6659307
-0.044719625
-0.32444412
-0.27769727
0.15242046
0.81918436
-0.07176101
-0.13306478
0.03616906
-0.35165128
0.25721577
0.08931463
-0.34295002
-0.6009581
-0.2209486
0.41203249
-0.5042231
0.19732001
0.002040016
0.2476956
0.269966
-0.67937315
-0.26750422
-0.375018
0.34251153
-0.06093327
-0.06579977
0.3587239
-0.24221425
0.3079772
-0.77737486
-0.042456865
-0.10932781
-0.6006323
-0.4135494
0.022241576
0.054886658
0.4497034
0.25165728
-0.06285234
0.43768716
0.31169912
0.38038883
-0.81463903
-0.17265998
-0.07567745
-0.44787452
-0.3724209
0.26455873
0.27217123
0.21110085
-0.49626547
-0.782893
-0.12633097
0.10448201
-0.4436617
-0.47640857
0.03158159
-0.6644259
0.083445795
0.5011159
0.34114587
0.3595139
-0.5657948
-0.40266263
-0.52734756
0.20641881
-0.26963946
0.17041422
-0.7847299
-0.4299464
-0.54569936
-0.21703994
0.5040283
0.16377054
-0.22594616
-0.18405835
0.39403206
-0.1587429
-0.06810133
-0.5532133
0.04864319
-0.070776194
-0.068543375
-0.19669214
-0.6578035
-0.008462776
-0.5584388
0.3868868
-0.3360028
0.07807392
-0.47322515
-0.49875134
0.5256941
-0.046310667
-0.5861147
0.044273715
0.35021687
-0.3827293
-0.07665207
-0.491803
-0.09745279
0.03348909
0.024159823
-0.15303084
0.27084848
0.38695565
-0.040699713
-0.7733271
-0.39653194
0.71034265
-0.5265808
-0.8473173
-0.2814068
0.06340124
-0.046914566
0.20934387
-0.59289014
0.31469238
0.7441134
-0.28830925
-0.42442197
-0.4687988
0.7390599
-0.24745584
-0.2985813
-0.784595
-0.5749016
0.6449385
0.5729344
0.033042755
-0.7805632
-0.39676628
-0.19734763
0.8683199
0.20627296
0.07950921
-0.21722114
-0.374292
-0.17915855
0.027250765
-0.27187493
-0.1724143
0.54866993
-0.21732743
-0.5166152
-0.82829785
-0.5187446
-0.23076385
0.04583644
-0.02049132
-0.046681575
-0.65384436
-0.082928985
0.05890674
0.057310276
0.37101254
0.18212588
-0.6650947
0.013866895
0.18009083
-0.34901583
-0.5683614
0.59595436
0.6916111
-0.52109975
-0.0705137
-0.02451363
0.5548303
-0.49984318
0.13101675
0.012340456
0.13822679
0.53403217
-0.12997013
0.0042133294
0.07765487
-0.8929424
-0.26480657
0.13181013
0.17601033
0.05989319
-0.40655577
0.3279289
0.27922103
-0.38424823
0.14254606
-0.06465259
-0.67982554
-0.9598137
0.34121662
-0.44287437
-0.37245092
0.27204022
0.54112655
0.042866595
-0.70450497
0.4487734
0.25150582
0.49147582
-0.2985955
-0.07251264
0.82078636
0.034547377
-0.4974984
0.2114537
-0.3730267
-0.1543385
0.46333393
-0.74254066
0.3974876
-0.14597745
-0.090168744
0.5781814
-0.57461625
-0.0735986
-0.8905388
-0.1958745
0.3797346
0.6834709
0.49842352
-0.07685038
0.2038731
0.51431805
-0.4893177
-0.5451088
-0.5868244
0.813719
0.5940581
0.16401234
0.22645052
-0.6311164
0.3957626
-0.20648807
-0.49706933
-0.021021765
-0.38914633
-0.22935499
-0.34683663
0.7438189
-0.10296
0.71793234
-0.7436466
-0.51499784
0.070052944
-0.25413543
0.5022478
-0.75715417
0.09902376
0.14170757
0.14360848
0.017999966
0.016816134
-0.48191223
0.8244128
-0.012531422
-0.11093701
-0.6625318
0.7918223
-0.4477754
-0.20055102
0.1864028
-0.36660945
0.24054673
0.22422883
-0.0725391
-0.14785206
-0.20496896
0.45486528
0.27567297
-0.26555532
0.5446574
0.28852645
0.016272921
-0.5061503
-0.36549982
-0.42522684
-0.2810246
-0.62622964
0.47199413
-0.5442513
-0.2816047
0.7436268
0.7958774
-0.21273884
0.604535
0.21585315
0.07232208
0.8627809
0.0748781
0.19370475
-0.54784495
-0.11312431
0.3796839
0.40710038
-0.5809177
-0.6406846
-0.63999754
-0.39346418
-0.74740547
-0.2789911
0.15540206
0.14006686
0.47517052
-0.23072441
-0.58608985
0.6426082
-0.34326342
-0.570088
0.17517903
0.47241476
-0.36541325
0.47428048
0.5474174
0.22604744
-0.33058557
-0.13843226
0.39619094
-0.34172115
-1.0275676
-0.4298948
0.2657408
0.18175633
0.38238445
0.16417651
-0.107094236
-0.112866014
0.13382426
0.37504387
-0.024572624
0.2682306
0.6734396
-0.49166432
-0.8267562
0.14840817
-0.6908743
-0.38623267
0.11911758
0.22509624
0.46355572
-0.0898618
0.5846529
-0.5227283
0.030851789
-0.19187917
-0.40836373
0.056395806
0.21775286
0.15252092
-0.45591393
-0.03421246
-0.18995681
-0.23731288
-0.05598493
0.32017216
-0.23496652
-0.109148666
-0.24357651
-0.059520014
-0.007504484
0.043356456
0.47863433
0.45890835
-0.7814389
-0.45754817
-0.1437513
0.7815575
0.6213275
-0.30589357
-0.033461772
0.5485733
-0.87821704
-0.7016424
0.6679524
-0.47916237
0.2301296
0.07055383
-0.1901377
-0.28824663
-0.12184345
0.33707798
-0.14241049
-0.5664045
-0.34926778
0.26825115
-0.42088732
-0.12626274
0.16631205
0.36608014
0.02210098
-0.08017056
0.8377269
-0.8027631
0.13115975
0.59296787
0.092547804
0.57716775
-0.31718013
-0.2318098
0.38389155
-0.35866192
-0.15055552
-0.2225114
-0.38127333
0.30037367
0.53868854
-0.099270955
0.1397337
-0.22694711
-0.44877586
0.6487207
-0.34293884
0.73229665
-0.67565215
-0.16898362
