-0.38440927863121032714843750000000000,
-0.17953857779502868652343750000000000,
0.19983500242233276367187500000000000,
0.30669105052947998046875000000000000,
0.18984109163284301757812500000000000,
-0.00897789001464843750000000000000000,
0.43127715587615966796875000000000000,
-0.28108793497085571289062500000000000,
-0.38909134268760681152343750000000000,
0.50484418869018554687500000000000000,
0.42287266254425048828125000000000000,
0.45435082912445068359375000000000000,
0.25635868310928344726562500000000000,
0.36360895633697509765625000000000000,
-0.32754915952682495117187500000000000,
0.18940359354019165039062500000000000,
0.12245881557464599609375000000000000,
0.25766235589981079101562500000000000,
-0.08658146858215332031250000000000000,
-0.03759443759918212890625000000000000,
0.55935239791870117187500000000000000,
-0.05011790990829467773437500000000000,
-0.18930318951606750488281250000000000,
0.34754127264022827148437500000000000,
0.52527308464050292968750000000000000,
-0.19114729762077331542968750000000000,
0.53961539268493652343750000000000000,
-0.55759686231613159179687500000000000,
-0.25111138820648193359375000000000000,
0.51226854324340820312500000000000000,
-0.26268634200096130371093750000000000,
-0.30749669671058654785156250000000000,
-0.41327881813049316406250000000000000,
-0.05855476856231689453125000000000000,
0.23405969142913818359375000000000000,
-0.18595430254936218261718750000000000,
-0.23935374617576599121093750000000000,
0.26122897863388061523437500000000000,
-0.48780483007431030273437500000000000,
0.12331300973892211914062500000000000,
0.06355100870132446289062500000000000,
-0.33987787365913391113281250000000000,
0.30426603555679321289062500000000000,
-0.51874786615371704101562500000000000,
0.00789767503738403320312500000000000,
0.15445560216903686523437500000000000,
0.14254945516586303710937500000000000,
-0.12970408797264099121093750000000000,
-0.37291300296783447265625000000000000,
0.12132298946380615234375000000000000,
-0.37241512537002563476562500000000000,
0.52647805213928222656250000000000000,
0.48573923110961914062500000000000000,
0.37117058038711547851562500000000000,
-0.39238476753234863281250000000000000,
-0.17635008692741394042968750000000000,
0.36579018831253051757812500000000000,
0.38261592388153076171875000000000000,
0.11535674333572387695312500000000000,
-0.17299142479896545410156250000000000,
-0.39675402641296386718750000000000000,
0.12171447277069091796875000000000000,
-0.47445598244667053222656250000000000,
0.10450643301010131835937500000000000,
0.20776474475860595703125000000000000,
-0.40491729974746704101562500000000000,
-0.49772065877914428710937500000000000,
0.44294619560241699218750000000000000,
0.19312399625778198242187500000000000,
0.20025342702865600585937500000000000,
0.56781506538391113281250000000000000,
-0.51396763324737548828125000000000000,
-0.53887891769409179687500000000000000,
-0.26436445116996765136718750000000000,
0.05591654777526855468750000000000000,
-0.23103046417236328125000000000000000,
0.01351618766784667968750000000000000,
-0.15806376934051513671875000000000000,
0.55762469768524169921875000000000000,
0.32272624969482421875000000000000000,
0.31097966432571411132812500000000000,
-0.30460941791534423828125000000000000,
0.24742633104324340820312500000000000,
0.01769697666168212890625000000000000,
-0.55359017848968505859375000000000000,
-0.27601248025894165039062500000000000,
-0.02533495426177978515625000000000000,
-0.16681453585624694824218750000000000,
0.54716026782989501953125000000000000,
-0.07929560542106628417968750000000000,
0.48451018333435058593750000000000000,
0.39858305454254150390625000000000000,
-0.15703517198562622070312500000000000,
0.47452723979949951171875000000000000,
0.48338472843170166015625000000000000,
0.31169438362121582031250000000000000,
-0.25487217307090759277343750000000000,
0.04594892263412475585937500000000000,
-0.37726038694381713867187500000000000,
0.03811150789260864257812500000000000,
-0.49155250191688537597656250000000000,
-0.51147174835205078125000000000000000,
0.55164539813995361328125000000000000,
0.24788856506347656250000000000000000,
0.12371337413787841796875000000000000,
0.08106452226638793945312500000000000,
0.03984928131103515625000000000000000,
0.39319282770156860351562500000000000,
-0.16661018133163452148437500000000000,
-0.26997935771942138671875000000000000,
0.12981468439102172851562500000000000,
-0.11016899347305297851562500000000000,
0.09386068582534790039062500000000000,
-0.03594940900802612304687500000000000,
0.49823462963104248046875000000000000,
-0.17732658982276916503906250000000000,
0.41245138645172119140625000000000000,
-0.42786979675292968750000000000000000,
-0.52202457189559936523437500000000000,
-0.31123358011245727539062500000000000,
-0.09763222932815551757812500000000000,
0.54414927959442138671875000000000000,
0.24259448051452636718750000000000000,
-0.53117841482162475585937500000000000,
-0.04934418201446533203125000000000000,
0.24521523714065551757812500000000000,
0.41409516334533691406250000000000000,
0.32910543680191040039062500000000000,
-0.37705618143081665039062500000000000,
-0.15603506565093994140625000000000000,
-0.48732656240463256835937500000000000,
0.44359076023101806640625000000000000,
-0.07685458660125732421875000000000000,
0.12908023595809936523437500000000000,
0.20874226093292236328125000000000000,
0.13140660524368286132812500000000000,
0.15368586778640747070312500000000000,
-0.54217702150344848632812500000000000,
0.25013554096221923828125000000000000,
0.46824824810028076171875000000000000,
0.12265104055404663085937500000000000,
-0.02289503812789916992187500000000000,
-0.20801955461502075195312500000000000,
-0.55641651153564453125000000000000000,
-0.19146722555160522460937500000000000,
-0.17097538709640502929687500000000000,
-0.05556285381317138671875000000000000,
0.37206965684890747070312500000000000,
0.32809269428253173828125000000000000,
-0.16567856073379516601562500000000000,
0.45906651020050048828125000000000000,
0.09048420190811157226562500000000000,
0.38631802797317504882812500000000000,
-0.55522012710571289062500000000000000,
0.13729900121688842773437500000000000,
0.08564245700836181640625000000000000,
0.12507659196853637695312500000000000,
0.51494061946868896484375000000000000,
0.29722464084625244140625000000000000,
-0.52511525154113769531250000000000000,
0.05530405044555664062500000000000000,
-0.11490115523338317871093750000000000,
-0.29838034510612487792968750000000000,
-0.02904081344604492187500000000000000,
-0.32146683335304260253906250000000000,
-0.09435117244720458984375000000000000,
-0.04308062791824340820312500000000000,
-0.26228722929954528808593750000000000,
0.30893254280090332031250000000000000,
0.40139293670654296875000000000000000,
0.42118823528289794921875000000000000,
0.04121053218841552734375000000000000,
0.53748631477355957031250000000000000,
0.12902593612670898437500000000000000,
-0.01651424169540405273437500000000000,
0.48616588115692138671875000000000000,
0.44872713088989257812500000000000000,
-0.38915687799453735351562500000000000,
0.33301347494125366210937500000000000,
-0.30378907918930053710937500000000000,
0.18394142389297485351562500000000000,
0.15363109111785888671875000000000000,
0.54471290111541748046875000000000000,
-0.42801219224929809570312500000000000,
-0.28031978011131286621093750000000000,
0.28355747461318969726562500000000000,
0.24676942825317382812500000000000000,
-0.53436654806137084960937500000000000,
-0.30514767765998840332031250000000000,
0.57665956020355224609375000000000000,
0.11743551492691040039062500000000000,
0.00945633649826049804687500000000000,
0.27811157703399658203125000000000000,
-0.38850936293601989746093750000000000,
-0.25103011727333068847656250000000000,
-0.38604959845542907714843750000000000,
0.20115739107131958007812500000000000,
-0.35588020086288452148437500000000000,
-0.03647172451019287109375000000000000,
0.51858782768249511718750000000000000,
-0.41581910848617553710937500000000000,
-0.35501003265380859375000000000000000,
0.16707551479339599609375000000000000,
0.51284563541412353515625000000000000,
0.09126567840576171875000000000000000,
0.22498619556427001953125000000000000,
0.15046763420104980468750000000000000,
-0.29013848304748535156250000000000000,
-0.55969721078872680664062500000000000,
-0.52059972286224365234375000000000000,
