-0.05131385475397109985351562500000000,
0.02475368231534957885742187500000000,
-0.05609803646802902221679687500000000,
-0.03684734553098678588867187500000000,
-0.11078045517206192016601562500000000,
0.04472691565752029418945312500000000,
0.04808907955884933471679687500000000,
-0.08472599089145660400390625000000000,
-0.03922651708126068115234375000000000,
-0.09530980885028839111328125000000000,
-0.02127753198146820068359375000000000,
-0.07428035140037536621093750000000000,
0.05101680010557174682617187500000000,
-0.03419070690870285034179687500000000,
0.01191624253988265991210937500000000,
0.10233753174543380737304687500000000,
-0.05410458147525787353515625000000000,
-0.10167326033115386962890625000000000,
-0.04200977087020874023437500000000000,
0.10440888255834579467773437500000000,
-0.07287740707397460937500000000000000,
0.08084181696176528930664062500000000,
-0.03455320745706558227539062500000000,
0.11912975460290908813476562500000000,
0.06539087742567062377929687500000000,
-0.03349143266677856445312500000000000,
0.04530160874128341674804687500000000,
-0.11818679422140121459960937500000000,
0.00078388303518295288085937500000000,
0.11496765166521072387695312500000000,
-0.06090188771486282348632812500000000,
-0.06895765662193298339843750000000000,
0.07178575545549392700195312500000000,
-0.03249066323041915893554687500000000,
0.04738915711641311645507812500000000,
-0.08393968641757965087890625000000000,
-0.02239421010017395019531250000000000,
-0.02731537818908691406250000000000000,
-0.05417220294475555419921875000000000,
0.04405809193849563598632812500000000,
0.10435902327299118041992187500000000,
0.09909088164567947387695312500000000,
-0.06786549836397171020507812500000000,
0.11360307782888412475585937500000000,
-0.09979233145713806152343750000000000,
-0.04092755913734436035156250000000000,
-0.10360223799943923950195312500000000,
0.03642902523279190063476562500000000,
0.04576251655817031860351562500000000,
-0.00408770143985748291015625000000000,
-0.10269092023372650146484375000000000,
0.10000915080308914184570312500000000,
-0.09778803586959838867187500000000000,
-0.07572799921035766601562500000000000,
-0.08211350440979003906250000000000000,
0.08883506804704666137695312500000000,
-0.11236051470041275024414062500000000,
0.00507786870002746582031250000000000,
-0.08741031587123870849609375000000000,
0.00473299622535705566406250000000000,
0.02687636762857437133789062500000000,
0.08722233027219772338867187500000000,
-0.02012188732624053955078125000000000,
0.01457241922616958618164062500000000,
-0.07339998334646224975585937500000000,
0.09444748610258102416992187500000000,
-0.03453129529953002929687500000000000,
0.01658167690038681030273437500000000,
0.03792414814233779907226562500000000,
-0.09175239503383636474609375000000000,
-0.01318354904651641845703125000000000,
0.05729226022958755493164062500000000,
-0.07986702024936676025390625000000000,
0.07906504720449447631835937500000000,
-0.02011162787675857543945312500000000,
-0.07294148951768875122070312500000000,
-0.06403091549873352050781250000000000,
-0.00632822513580322265625000000000000,
0.03774563223123550415039062500000000,
-0.10894313454627990722656250000000000,
-0.05650589615106582641601562500000000,
-0.05028279125690460205078125000000000,
-0.01499819010496139526367187500000000,
0.09051565080881118774414062500000000,
0.08476253598928451538085937500000000,
-0.08050045371055603027343750000000000,
0.06729055196046829223632812500000000,
0.10719384998083114624023437500000000,
-0.03931418806314468383789062500000000,
-0.06195957586169242858886718750000000,
-0.06174428761005401611328125000000000,
0.04123508185148239135742187500000000,
0.08862630277872085571289062500000000,
-0.02266415208578109741210937500000000,
-0.02651914209127426147460937500000000,
0.01907003670930862426757812500000000,
-0.01995629072189331054687500000000000,
-0.09097889065742492675781250000000000,
0.02832854539155960083007812500000000,
-0.09797431528568267822265625000000000,
0.05746800452470779418945312500000000,
-0.08568458259105682373046875000000000,
0.10579703003168106079101562500000000,
-0.03690828382968902587890625000000000,
-0.07923671603202819824218750000000000,
-0.07820349186658859252929687500000000,
0.07261546701192855834960937500000000,
-0.04226797819137573242187500000000000,
-0.07198740541934967041015625000000000,
-0.01834725588560104370117187500000000,
0.01503672450780868530273437500000000,
-0.04040333628654479980468750000000000,
0.04879332333803176879882812500000000,
0.06729248911142349243164062500000000,
-0.05929287895560264587402343750000000,
-0.01864157617092132568359375000000000,
-0.05959080904722213745117187500000000,
-0.09312143921852111816406250000000000,
-0.04716872423887252807617187500000000,
-0.08099718391895294189453125000000000,
0.09664773195981979370117187500000000,
0.07006686180830001831054687500000000,
-0.10607399791479110717773437500000000,
-0.01365695893764495849609375000000000,
-0.10315760970115661621093750000000000,
-0.01714365929365158081054687500000000,
0.03217131644487380981445312500000000,
0.08145769685506820678710937500000000,
0.00785373896360397338867187500000000,
0.06723254173994064331054687500000000,
0.04080332070589065551757812500000000,
-0.03245108574628829956054687500000000,
0.02656867355108261108398437500000000,
0.05171620100736618041992187500000000,
-0.08435844630002975463867187500000000,
0.02325903624296188354492187500000000,
-0.02120249718427658081054687500000000,
0.11318660527467727661132812500000000,
0.06303858011960983276367187500000000,
0.06250485032796859741210937500000000,
-0.02202854305505752563476562500000000,
-0.02125032991170883178710937500000000,
0.06741339713335037231445312500000000,
-0.11776434630155563354492187500000000,
0.05316104739904403686523437500000000,
-0.04380258172750473022460937500000000,
-0.01623702049255371093750000000000000,
-0.02377735823392868041992187500000000,
0.05552742630243301391601562500000000,
-0.02709280699491500854492187500000000,
0.05989987403154373168945312500000000,
-0.11371920257806777954101562500000000,
0.09808137267827987670898437500000000,
0.05697198957204818725585937500000000,
-0.05762270092964172363281250000000000,
-0.02576856315135955810546875000000000,
-0.09430307149887084960937500000000000,
-0.05962970480322837829589843750000000,
0.06940650194883346557617187500000000,
0.11813821643590927124023437500000000,
0.02418323606252670288085937500000000,
-0.05915687978267669677734375000000000,
-0.09153099358081817626953125000000000,
0.09670316427946090698242187500000000,
-0.09555083513259887695312500000000000,
-0.06881035864353179931640625000000000,
-0.05663140863180160522460937500000000,
-0.11947724223136901855468750000000000,
-0.02248062193393707275390625000000000,
-0.00382817536592483520507812500000000,
-0.03796650469303131103515625000000000,
-0.09929254651069641113281250000000000,
0.09003087133169174194335937500000000,
0.11919587105512619018554687500000000,
-0.10921514779329299926757812500000000,
0.08469647914171218872070312500000000,
0.02418974786996841430664062500000000,
0.04348062723875045776367187500000000,
0.09578036516904830932617187500000000,
0.04189952462911605834960937500000000,
-0.00617900490760803222656250000000000,
0.09228114038705825805664062500000000,
-0.09673323482275009155273437500000000,
0.08687683194875717163085937500000000,
-0.00068508088588714599609375000000000,
-0.05469822138547897338867187500000000,
0.06812595576047897338867187500000000,
-0.02765763550996780395507812500000000,
0.07256441563367843627929687500000000,
-0.02076741307973861694335937500000000,
0.00249140709638595581054687500000000,
0.04197033494710922241210937500000000,
-0.09139497578144073486328125000000000,
0.04175869375467300415039062500000000,
-0.05074353516101837158203125000000000,
0.11930155009031295776367187500000000,
-0.10746163129806518554687500000000000,
0.07499044388532638549804687500000000,
-0.02624314278364181518554687500000000,
0.06859175115823745727539062500000000,
0.09670079499483108520507812500000000,
0.05194952338933944702148437500000000,
0.02854045480489730834960937500000000,
0.07184942811727523803710937500000000,
-0.03135204315185546875000000000000000,
0.10970940440893173217773437500000000,
-0.11505535244941711425781250000000000,
-0.06617602705955505371093750000000000,
0.09648228436708450317382812500000000,
0.03023564070463180541992187500000000,
