-0.48626512289047241210937500000000000,
-0.72318196296691894531250000000000000,
-0.85252857208251953125000000000000000,
-0.46341797709465026855468750000000000,
-0.33116236329078674316406250000000000,
-0.00050381879555061459541320800781250,
0.05961288511753082275390625000000000,
-0.29298222064971923828125000000000000,
1.38332355022430419921875000000000000,
-0.94608443975448608398437500000000000,
-0.41932731866836547851562500000000000,
-0.67442637681961059570312500000000000,
-0.41141825914382934570312500000000000,
-0.66322338581085205078125000000000000,
-0.97673481702804565429687500000000000,
2.84984946250915527343750000000000000,
-0.05130638182163238525390625000000000,
-0.12257420271635055541992187500000000,
-0.26407179236412048339843750000000000,
0.05331081524491310119628906250000000,
-0.33693024516105651855468750000000000,
-0.69765347242355346679687500000000000,
-0.72633874416351318359375000000000000,
-0.57440471649169921875000000000000000,
-0.08569659292697906494140625000000000,
-0.14181928336620330810546875000000000,
0.11866500228643417358398437500000000,
-0.69592851400375366210937500000000000,
1.52642226219177246093750000000000000,
-0.67759191989898681640625000000000000,
-0.14415572583675384521484375000000000,
-0.74294942617416381835937500000000000,
-0.10985862463712692260742187500000000,
-0.13758288323879241943359375000000000,
-0.75058120489120483398437500000000000,
2.76575446128845214843750000000000000,
-0.09954719245433807373046875000000000,
0.17356310784816741943359375000000000,
-0.20956200361251831054687500000000000,
0.12559285759925842285156250000000000,
-0.53270018100738525390625000000000000,
-0.94854253530502319335937500000000000,
-0.62131232023239135742187500000000000,
-0.37838050723075866699218750000000000,
-0.10488370805978775024414062500000000,
-0.25689253211021423339843750000000000,
-0.15989620983600616455078125000000000,
-0.44229257106781005859375000000000000,
1.60231077671051025390625000000000000,
-0.94316184520721435546875000000000000,
-0.21668450534343719482421875000000000,
-0.65578794479370117187500000000000000,
-0.19535848498344421386718750000000000,
-0.42521002888679504394531250000000000,
-0.78471332788467407226562500000000000,
2.90539526939392089843750000000000000,
-0.19630920886993408203125000000000000,
-0.10389897227287292480468750000000000,
0.04009863734245300292968750000000000,
0.03068714588880538940429687500000000,
-0.56776833534240722656250000000000000,
-0.96237349510192871093750000000000000,
-0.86191868782043457031250000000000000,
-0.58972352743148803710937500000000000,
-0.02618265710771083831787109375000000,
-0.16578277945518493652343750000000000,
0.13332082331180572509765625000000000,
-0.36670267581939697265625000000000000,
1.96430361270904541015625000000000000,
-0.79036563634872436523437500000000000,
-0.14061203598976135253906250000000000,
-0.86581856012344360351562500000000000,
0.18889462947845458984375000000000000,
-0.07589898258447647094726562500000000,
-0.85108643770217895507812500000000000,
3.02980399131774902343750000000000000,
0.10864578932523727416992187500000000,
0.33317032456398010253906250000000000,
0.32583165168762207031250000000000000,
0.27610829472541809082031250000000000,
-0.62350636720657348632812500000000000,
-0.99274134635925292968750000000000000,
-0.79411906003952026367187500000000000,
-0.58424365520477294921875000000000000,
-0.17868538200855255126953125000000000,
-0.10336144268512725830078125000000000,
0.14859753847122192382812500000000000,
-0.51995617151260375976562500000000000,
1.89699840545654296875000000000000000,
-0.78376853466033935546875000000000000,
-0.16507756710052490234375000000000000,
-0.70386642217636108398437500000000000,
-0.02249786257743835449218750000000000,
-0.31855180859565734863281250000000000,
-0.89343643188476562500000000000000000,
2.89022684097290039062500000000000000,
0.35464102029800415039062500000000000,
0.59092247486114501953125000000000000,
0.50556647777557373046875000000000000,
0.53404694795608520507812500000000000,
-0.08310944586992263793945312500000000,
0.04330075159668922424316406250000000,
3.39358544349670410156250000000000000,
0.08157516270875930786132812500000000,
-0.56040757894515991210937500000000000,
-0.60448241233825683593750000000000000,
-0.53593099117279052734375000000000000,
-0.24038098752498626708984375000000000,
-0.62354582548141479492187500000000000,
0.64448583126068115234375000000000000,
0.07034263759851455688476562500000000,
0.03634745627641677856445312500000000,
-0.59213477373123168945312500000000000,
-0.35262769460678100585937500000000000,
-0.01926260255277156829833984375000000,
-0.80893427133560180664062500000000000,
-0.11129856854677200317382812500000000,
-0.38031765818595886230468750000000000,
-0.82866591215133666992187500000000000,
-1.00179314613342285156250000000000000,
-1.29283845424652099609375000000000000,
-1.24996483325958251953125000000000000,
-1.14019834995269775390625000000000000,
-1.22917723655700683593750000000000000,
-0.64114999771118164062500000000000000,
-0.92472857236862182617187500000000000,
-0.64336794614791870117187500000000000,
-0.91543132066726684570312500000000000,
0.52068895101547241210937500000000000,
-1.66426885128021240234375000000000000,
-0.88062328100204467773437500000000000,
-1.55326628684997558593750000000000000,
-0.84712272882461547851562500000000000,
-0.96506845951080322265625000000000000,
-1.49835598468780517578125000000000000,
1.42441332340240478515625000000000000,
-0.68300509452819824218750000000000000,
-0.69507586956024169921875000000000000,
-0.87561982870101928710937500000000000,
-0.78387248516082763671875000000000000,
-0.20039971172809600830078125000000000,
-0.34490066766738891601562500000000000,
2.79113626480102539062500000000000000,
-0.18351361155509948730468750000000000,
-0.76415085792541503906250000000000000,
-0.38084203004837036132812500000000000,
-0.44534653425216674804687500000000000,
-0.31389123201370239257812500000000000,
-0.44951817393302917480468750000000000,
0.29380184412002563476562500000000000,
-0.23550173640251159667968750000000000,
0.00123685540165752172470092773437500,
-0.65656292438507080078125000000000000,
-0.56867647171020507812500000000000000,
-0.25217676162719726562500000000000000,
-0.93972218036651611328125000000000000,
-0.18705140054225921630859375000000000,
-0.09338022023439407348632812500000000,
-1.16219925880432128906250000000000000,
-1.01711237430572509765625000000000000,
-0.62712651491165161132812500000000000,
-0.95740407705307006835937500000000000,
-0.80481398105621337890625000000000000,
-0.76359438896179199218750000000000000,
-0.37024840712547302246093750000000000,
0.02853737212717533111572265625000000,
-0.00469110487028956413269042968750000,
-0.49340826272964477539062500000000000,
1.67512404918670654296875000000000000,
-0.55501163005828857421875000000000000,
-0.34491214156150817871093750000000000,
-0.82225102186203002929687500000000000,
0.14813446998596191406250000000000000,
-0.25007429718971252441406250000000000,
-0.86100810766220092773437500000000000,
2.55717658996582031250000000000000000,
0.13720503449440002441406250000000000,
0.34212228655815124511718750000000000,
0.38503611087799072265625000000000000,
0.45404353737831115722656250000000000,
-0.13893660902976989746093750000000000,
-0.05373180657625198364257812500000000,
3.43464374542236328125000000000000000,
-0.00737134879454970359802246093750000,
-0.56220781803131103515625000000000000,
-0.40072768926620483398437500000000000,
-0.54720813035964965820312500000000000,
-0.07044199109077453613281250000000000,
-0.62333834171295166015625000000000000,
0.41286668181419372558593750000000000,
-0.10657799243927001953125000000000000,
0.06478112936019897460937500000000000,
-0.84326958656311035156250000000000000,
-0.24404406547546386718750000000000000,
-0.20073276758193969726562500000000000,
-0.75352442264556884765625000000000000,
-0.15669934451580047607421875000000000,
-0.18336643278598785400390625000000000,
-1.05176806449890136718750000000000000,
-0.78936868906021118164062500000000000,
0.31860297918319702148437500000000000,
0.22221498191356658935546875000000000,
0.95531147718429565429687500000000000,
0.34640923142433166503906250000000000,
-0.31965261697769165039062500000000000,
-0.39678120613098144531250000000000000,
-0.57384979724884033203125000000000000,
0.21409350633621215820312500000000000,
-1.42262184619903564453125000000000000,
1.28509485721588134765625000000000000,
-0.21346540749073028564453125000000000,
0.41922876238822937011718750000000000,
-0.29089143872261047363281250000000000,
0.08208870887756347656250000000000000,
0.43846088647842407226562500000000000,
-1.90778279304504394531250000000000000,
-0.58728802204132080078125000000000000,
-0.12089262902736663818359375000000000,
-0.63874584436416625976562500000000000,
-0.83901453018188476562500000000000000,
-0.34732326865196228027343750000000000,
-0.32521945238113403320312500000000000,
-1.64269220829010009765625000000000000,
-0.65005528926849365234375000000000000,
0.49755057692527770996093750000000000,
0.55274677276611328125000000000000000,
0.55005162954330444335937500000000000,
-0.42037114500999450683593750000000000,
1.29619920253753662109375000000000000,
-1.06924831867218017578125000000000000,
0.45331239700317382812500000000000000,
-0.28208562731742858886718750000000000,
0.21121473610401153564453125000000000,
-0.21846543252468109130859375000000000,
-0.34870561957359313964843750000000000,
1.19278240203857421875000000000000000,
0.59034353494644165039062500000000000,
-0.13828362524509429931640625000000000,
0.14478045701980590820312500000000000,
0.45190471410751342773437500000000000,
-0.12304574996232986450195312500000000,
-0.34567728638648986816406250000000000,
-2.01051020622253417968750000000000000,
-0.03772769868373870849609375000000000,
0.44170403480529785156250000000000000,
0.31994861364364624023437500000000000,
0.45854419469833374023437500000000000,
0.06405032426118850708007812500000000,
0.84239482879638671875000000000000000,
-1.00294935703277587890625000000000000,
0.19159406423568725585937500000000000,
-0.13733398914337158203125000000000000,
0.57047522068023681640625000000000000,
0.28975397348403930664062500000000000,
-0.03016538359224796295166015625000000,
0.95129418373107910156250000000000000,
0.45480212569236755371093750000000000,
-0.43909054994583129882812500000000000,
0.78615498542785644531250000000000000,
0.57542520761489868164062500000000000,
0.09362550824880599975585937500000000,
-0.14247472584247589111328125000000000,
3.58296394348144531250000000000000000,
0.22508680820465087890625000000000000,
-0.52940720319747924804687500000000000,
-0.51406615972518920898437500000000000,
-0.47370657324790954589843750000000000,
-0.38857385516166687011718750000000000,
-0.33785709738731384277343750000000000,
0.54810690879821777343750000000000000,
-0.15023382008075714111328125000000000,
0.06671789288520812988281250000000000,
-0.67970103025436401367187500000000000,
-0.20545765757560729980468750000000000,
-0.01572189666330814361572265625000000,
-0.94042789936065673828125000000000000,
-0.17064525187015533447265625000000000,
-0.35168668627738952636718750000000000,
-1.02226114273071289062500000000000000,
-0.99147456884384155273437500000000000,
0.16144929826259613037109375000000000,
0.38130027055740356445312500000000000,
1.54620623588562011718750000000000000,
0.33510819077491760253906250000000000,
-0.81627750396728515625000000000000000,
-0.68891340494155883789062500000000000,
-0.59365743398666381835937500000000000,
-0.05699334293603897094726562500000000,
-0.96114999055862426757812500000000000,
1.70932984352111816406250000000000000,
-0.63154035806655883789062500000000000,
0.09201256930828094482421875000000000,
-0.48497503995895385742187500000000000,
0.29863283038139343261718750000000000,
0.21156825125217437744140625000000000,
-1.24989879131317138671875000000000000,
-0.62430787086486816406250000000000000,
0.11546081304550170898437500000000000,
-0.45127019286155700683593750000000000,
-0.43484053015708923339843750000000000,
-0.31850883364677429199218750000000000,
0.06450156867504119873046875000000000,
2.02166223526000976562500000000000000,
0.13643977046012878417968750000000000,
-0.60920768976211547851562500000000000,
-0.53432345390319824218750000000000000,
-0.75597137212753295898437500000000000,
-0.59485626220703125000000000000000000,
-0.72149318456649780273437500000000000,
1.02294087409973144531250000000000000,
-0.22007316350936889648437500000000000,
0.07469830662012100219726562500000000,
-0.82042038440704345703125000000000000,
-0.50662958621978759765625000000000000,
-0.11570220440626144409179687500000000,
-1.05433177947998046875000000000000000,
-0.19772045314311981201171875000000000,
-0.17605547606945037841796875000000000,
-0.87168371677398681640625000000000000,
-0.83953648805618286132812500000000000,
0.00826109293848276138305664062500000,
-0.21508847177028656005859375000000000,
3.36805129051208496093750000000000000,
0.00909774564206600189208984375000000,
-0.39334484934806823730468750000000000,
-0.32826563715934753417968750000000000,
-0.40148791670799255371093750000000000,
-0.11338616907596588134765625000000000,
-0.76103514432907104492187500000000000,
0.64605754613876342773437500000000000,
-0.19626589119434356689453125000000000,
-0.22535112500190734863281250000000000,
-0.70952832698822021484375000000000000,
-0.03861391544342041015625000000000000,
0.16063974797725677490234375000000000,
-0.80514848232269287109375000000000000,
-0.37614241242408752441406250000000000,
-0.18531110882759094238281250000000000,
-1.21869564056396484375000000000000000,
-1.04995763301849365234375000000000000,
-0.85064506530761718750000000000000000,
-0.58292657136917114257812500000000000,
-1.32559299468994140625000000000000000,
-0.59254562854766845703125000000000000,
0.20652721822261810302734375000000000,
0.84511661529541015625000000000000000,
0.66074931621551513671875000000000000,
-0.92547369003295898437500000000000000,
1.29958450794219970703125000000000000,
-1.13002741336822509765625000000000000,
0.52208614349365234375000000000000000,
-0.55359774827957153320312500000000000,
0.31939393281936645507812500000000000,
-0.32775366306304931640625000000000000,
-0.33202335238456726074218750000000000,
1.63864636421203613281250000000000000,
1.08343899250030517578125000000000000,
0.26836255192756652832031250000000000,
0.12895260751247406005859375000000000,
0.34195324778556823730468750000000000,
-0.62022417783737182617187500000000000,
-0.79817253351211547851562500000000000,
-0.81885153055191040039062500000000000,
-0.53459501266479492187500000000000000,
-0.20519424974918365478515625000000000,
-0.28110334277153015136718750000000000,
-0.02835608087480068206787109375000000,
-0.44487267732620239257812500000000000,
1.57539808750152587890625000000000000,
-0.55797970294952392578125000000000000,
-0.02157106250524520874023437500000000,
-0.92532324790954589843750000000000000,
-0.15614765882492065429687500000000000,
-0.13080264627933502197265625000000000,
-0.62049221992492675781250000000000000,
2.82165932655334472656250000000000000,
0.00975763984024524688720703125000000,
0.08812271803617477416992187500000000,
-0.16848337650299072265625000000000000,
0.30446600914001464843750000000000000,
-0.21905545890331268310546875000000000,
0.01975758373737335205078125000000000,
3.03995513916015625000000000000000000,
-0.17172679305076599121093750000000000,
-0.36928194761276245117187500000000000,
-0.30732309818267822265625000000000000,
-0.34412047266960144042968750000000000,
-0.23359479010105133056640625000000000,
-0.62243580818176269531250000000000000,
0.43914756178855895996093750000000000,
-0.55185949802398681640625000000000000,
-0.07626613229513168334960937500000000,
-0.87414801120758056640625000000000000,
-0.28065073490142822265625000000000000,
0.15738487243652343750000000000000000,
-0.95289713144302368164062500000000000,
-0.19754889607429504394531250000000000,
0.04052069783210754394531250000000000,
-0.88317000865936279296875000000000000,
-1.12846255302429199218750000000000000,
