-0.91028815507888793945312500000000000,
-14.98807048797607421875000000000000000,
67.51193237304687500000000000000000000,
-4.18198680877685546875000000000000000,
37.49986648559570312500000000000000000,
-24.96513748168945312500000000000000000,
7.49828338623046875000000000000000000,
2.99980473518371582031250000000000000,
-23.07243537902832031250000000000000000,
11.26650619506835937500000000000000000,
6.19275999069213867187500000000000000,
-25.18304443359375000000000000000000000,
68.71945953369140625000000000000000000,
-29.65394401550292968750000000000000000,
657.35937500000000000000000000000000000,
0.57393640279769897460937500000000000,
31.34234428405761718750000000000000000,
-162.42456054687500000000000000000000000,
2.29104733467102050781250000000000000,
-25.42876434326171875000000000000000000,
-20.16384124755859375000000000000000000,
426.03149414062500000000000000000000000,
214.76571655273437500000000000000000000,
-237.34596252441406250000000000000000000,
-1.47160494327545166015625000000000000,
-9.32240581512451171875000000000000000,
36.91719818115234375000000000000000000,
-31.75404357910156250000000000000000000,
-27.78993034362792968750000000000000000,
-1056.87805175781250000000000000000000000,
-20.92094421386718750000000000000000000,
119.95244598388671875000000000000000000,
-98.76753997802734375000000000000000000,
-3.61077880859375000000000000000000000,
-5.08139896392822265625000000000000000,
19.79319763183593750000000000000000000,
1.14055883884429931640625000000000000,
5.30656385421752929687500000000000000,
-16.45709609985351562500000000000000000,
176.82394409179687500000000000000000000,
216.25013732910156250000000000000000000,
334.93237304687500000000000000000000000,
-146.21885681152343750000000000000000000,
-105.18701934814453125000000000000000000,
287.72460937500000000000000000000000000,
2.52450704574584960937500000000000000,
-41.95037460327148437500000000000000000,
8.11812591552734375000000000000000000,
-26.62804794311523437500000000000000000,
-16.01833724975585937500000000000000000,
51.00392150878906250000000000000000000,
6.54209518432617187500000000000000000,
-206.42749023437500000000000000000000000,
-34.57973098754882812500000000000000000,
3.06348729133605957031250000000000000,
-23.82184600830078125000000000000000000,
-35.85795593261718750000000000000000000,
2.18814992904663085937500000000000000,
127.15131378173828125000000000000000000,
-738.60687255859375000000000000000000000,
