0.00000000000000000000000000000000000,
-0.02997933700680732727050781250000000,
-0.00846630521118640899658203125000000,
-0.02409932576119899749755859375000000,
0.00450995704159140586853027343750000,
-0.04967504739761352539062500000000000,
0.03578479960560798645019531250000000,
-0.03482079878449440002441406250000000,
0.04164075106382369995117187500000000,
0.00062481604982167482376098632812500,
-0.05334584787487983703613281250000000,
-0.00590577069669961929321289062500000,
-0.04523861408233642578125000000000000,
-0.04899594187736511230468750000000000,
-0.07175935059785842895507812500000000,
-0.01929544284939765930175781250000000,
-0.00610295822843909263610839843750000,
-0.06234225630760192871093750000000000,
0.00668807327747344970703125000000000,
0.01117500104010105133056640625000000,
-0.06156713888049125671386718750000000,
0.00019411090761423110961914062500000,
-0.02315797284245491027832031250000000,
-0.04527076706290245056152343750000000,
0.04381604865193367004394531250000000,
-0.06422643363475799560546875000000000,
-0.02771457470953464508056640625000000,
0.02301597781479358673095703125000000,
-0.03507342934608459472656250000000000,
-0.04434859752655029296875000000000000,
0.00933235324919223785400390625000000,
-0.04092133045196533203125000000000000,
0.01910075545310974121093750000000000,
0.03189073875546455383300781250000000,
-0.02321000769734382629394531250000000,
0.04915061593055725097656250000000000,
-0.02307668328285217285156250000000000,
0.00775915756821632385253906250000000,
-0.00385033898055553436279296875000000,
-0.01856113784015178680419921875000000,
0.03857978060841560363769531250000000,
0.01946489512920379638671875000000000,
-0.02838662639260292053222656250000000,
0.02730912528932094573974609375000000,
0.03227643296122550964355468750000000,
0.00240657757967710494995117187500000,
-0.04933431372046470642089843750000000,
-0.05238892510533332824707031250000000,
-0.03353256732225418090820312500000000,
-0.02729619108140468597412109375000000,
-0.05318588390946388244628906250000000,
0.02669899724423885345458984375000000,
0.00685995025560259819030761718750000,
0.01807903498411178588867187500000000,
-0.06360820680856704711914062500000000,
0.00549554452300071716308593750000000,
-0.01928544230759143829345703125000000,
0.02769447304308414459228515625000000,
0.00112362776417285203933715820312500,
0.03677288070321083068847656250000000,
-0.00072794192237779498100280761718750,
0.00599622027948498725891113281250000,
0.00591953331604599952697753906250000,
0.00642191339284181594848632812500000,
-0.02307014912366867065429687500000000,
-0.02672374434769153594970703125000000,
-0.02489867061376571655273437500000000,
0.01174452900886535644531250000000000,
-0.03487635031342506408691406250000000,
0.04159605130553245544433593750000000,
-0.00248885923065245151519775390625000,
0.01365629117935895919799804687500000,
-0.00346453464590013027191162109375000,
-0.00414734985679388046264648437500000,
-0.04281596094369888305664062500000000,
0.03531254827976226806640625000000000,
0.01311906613409519195556640625000000,
0.00874180532991886138916015625000000,
-0.01239449810236692428588867187500000,
0.00588417798280715942382812500000000,
0.02825215086340904235839843750000000,
-0.06119326502084732055664062500000000,
0.02387994900345802307128906250000000,
0.01794155500829219818115234375000000,
0.01074351929128170013427734375000000,
0.01015190593898296356201171875000000,
0.01812538132071495056152343750000000,
0.00935458485037088394165039062500000,
0.02587328478693962097167968750000000,
-0.03926014155149459838867187500000000,
0.03824897482991218566894531250000000,
-0.00516739068552851676940917968750000,
0.04200762137770652770996093750000000,
-0.00198438693769276142120361328125000,
-0.04861667379736900329589843750000000,
-0.03453602641820907592773437500000000,
-0.04238056391477584838867187500000000,
0.00239340891130268573760986328125000,
-0.05598422884941101074218750000000000,
0.04000518098473548889160156250000000,
0.00565600628033280372619628906250000,
-0.05564965307712554931640625000000000,
0.02429977245628833770751953125000000,
-0.01833559758961200714111328125000000,
-0.03246625885367393493652343750000000,
-0.04951606690883636474609375000000000,
0.04878899082541465759277343750000000,
0.02403901889920234680175781250000000,
0.02430436387658119201660156250000000,
0.01742019690573215484619140625000000,
0.02858232893049716949462890625000000,
0.01592044532299041748046875000000000,
-0.04557979106903076171875000000000000,
0.07752288877964019775390625000000000,
-0.01483192015439271926879882812500000,
0.01379583496600389480590820312500000,
0.02923285402357578277587890625000000,
0.00385378999635577201843261718750000,
-0.01630364917218685150146484375000000,
0.02989683300256729125976562500000000,
-0.01002179738134145736694335937500000,
0.07489468157291412353515625000000000,
-0.04884875565767288208007812500000000,
-0.00558137381449341773986816406250000,
0.02380819618701934814453125000000000,
0.00597226526588201522827148437500000,
0.01197248045355081558227539062500000,
-0.04118228703737258911132812500000000,
