-1.94365990161895751953125000000000000,
-0.00991990696638822555541992187500000,
-0.03131614625453948974609375000000000,
1.86312687397003173828125000000000000,
0.00482520088553428649902343750000000,
0.40197399258613586425781250000000000,
0.24096094071865081787109375000000000,
-0.73189944028854370117187500000000000,
0.60636210441589355468750000000000000,
-1.32084369659423828125000000000000000,
2.75748085975646972656250000000000000,
-0.00524650141596794128417968750000000,
-1.35800433158874511718750000000000000,
2.28857779502868652343750000000000000,
-0.00922124087810516357421875000000000,
-0.35617956519126892089843750000000000,
-0.34248492121696472167968750000000000,
-1.53316223621368408203125000000000000,
0.96805250644683837890625000000000000,
0.00689473608508706092834472656250000,
-0.11647512763738632202148437500000000,
1.39189732074737548828125000000000000,
-2.04538655281066894531250000000000000,
0.00811211019754409790039062500000000,
0.96047794818878173828125000000000000,
0.61007070541381835937500000000000000,
0.00333943683654069900512695312500000,
1.05374813079833984375000000000000000,
0.14923809468746185302734375000000000,
0.03954644128680229187011718750000000,
-1.48388147354125976562500000000000000,
2.44899940490722656250000000000000000,
-0.00102391734253615140914916992187500,
0.97295320034027099609375000000000000,
-0.07595124095678329467773437500000000,
0.26744914054870605468750000000000000,
0.75468736886978149414062500000000000,
-0.57293403148651123046875000000000000,
0.13266788423061370849609375000000000,
-0.04482636973261833190917968750000000,
1.52947282791137695312500000000000000,
-0.05592715367674827575683593750000000,
-1.58714973926544189453125000000000000,
1.53954935073852539062500000000000000,
-0.34267094731330871582031250000000000,
-0.61578649282455444335937500000000000,
0.02970022335648536682128906250000000,
0.47268834710121154785156250000000000,
-1.72943127155303955078125000000000000,
-0.00967097748070955276489257812500000,
0.01783594861626625061035156250000000,
-0.08559582382440567016601562500000000,
-0.01125190779566764831542968750000000,
0.82935178279876708984375000000000000,
3.28663873672485351562500000000000000,
-0.00486511923372745513916015625000000,
-0.06930088996887207031250000000000000,
-0.65488076210021972656250000000000000,
1.60881340503692626953125000000000000,
-0.01443772390484809875488281250000000,
