-0.00830993056297302246093750000000000,
-0.18645730614662170410156250000000000,
0.07679671049118041992187500000000000,
0.00143912434577941894531250000000000,
-0.19106367230415344238281250000000000,
-0.18255414068698883056640625000000000,
0.09474799036979675292968750000000000,
0.05992767214775085449218750000000000,
0.08832499384880065917968750000000000,
-0.10017210245132446289062500000000000,
0.20005118846893310546875000000000000,
-0.17571325600147247314453125000000000,
0.19043233990669250488281250000000000,
0.11052614450454711914062500000000000,
-0.01846024394035339355468750000000000,
0.17092600464820861816406250000000000,
-0.20573708415031433105468750000000000,
0.13998407125473022460937500000000000,
0.21677708625793457031250000000000000,
-0.02410073578357696533203125000000000,
0.11855566501617431640625000000000000,
0.14112234115600585937500000000000000,
-0.11688163131475448608398437500000000,
0.02892935276031494140625000000000000,
-0.03224004805088043212890625000000000,
0.13888198137283325195312500000000000,
0.14912423491477966308593750000000000,
-0.08864103257656097412109375000000000,
-0.14787046611309051513671875000000000,
-0.12142290920019149780273437500000000,
-0.00451028347015380859375000000000000,
0.12041223049163818359375000000000000,
-0.03686442971229553222656250000000000,
-0.22133047878742218017578125000000000,
0.14986947178840637207031250000000000,
-0.13748006522655487060546875000000000,
-0.01870772242546081542968750000000000,
0.04970991611480712890625000000000000,
-0.05942967534065246582031250000000000,
0.21112856268882751464843750000000000,
-0.10914507508277893066406250000000000,
-0.06603962182998657226562500000000000,
-0.01993453502655029296875000000000000,
0.10569131374359130859375000000000000,
-0.19648155570030212402343750000000000,
0.10906791687011718750000000000000000,
-0.14213436841964721679687500000000000,
0.16061198711395263671875000000000000,
0.06328201293945312500000000000000000,
0.01307839155197143554687500000000000,
-0.09252774715423583984375000000000000,
0.01773221790790557861328125000000000,
0.05360367894172668457031250000000000,
0.01732926070690155029296875000000000,
-0.19100697338581085205078125000000000,
-0.00074869394302368164062500000000000,
0.09549620747566223144531250000000000,
0.19239732623100280761718750000000000,
0.13687935471534729003906250000000000,
-0.02122044563293457031250000000000000,
-0.04514992237091064453125000000000000,
0.09174540638923645019531250000000000,
-0.19715321063995361328125000000000000,
-0.11033089458942413330078125000000000,
0.08897984027862548828125000000000000,
0.02019333839416503906250000000000000,
-0.10997780412435531616210937500000000,
0.00489418208599090576171875000000000,
-0.09718966484069824218750000000000000,
0.06125009059906005859375000000000000,
-0.05693224072456359863281250000000000,
0.18631848692893981933593750000000000,
0.08381405472755432128906250000000000,
0.15593031048774719238281250000000000,
-0.18519708514213562011718750000000000,
0.20309323072433471679687500000000000,
-0.11569871753454208374023437500000000,
-0.19667465984821319580078125000000000,
-0.20976805686950683593750000000000000,
0.12950891256332397460937500000000000,
-0.22156296670436859130859375000000000,
-0.07891681790351867675781250000000000,
-0.16595759987831115722656250000000000,
-0.09374955296516418457031250000000000,
-0.13122692704200744628906250000000000,
0.12624433636665344238281250000000000,
-0.18211080133914947509765625000000000,
-0.19849061965942382812500000000000000,
-0.21221415698528289794921875000000000,
0.16245609521865844726562500000000000,
0.07927823066711425781250000000000000,
0.11526229977607727050781250000000000,
-0.10895226895809173583984375000000000,
-0.02988442778587341308593750000000000,
-0.11239046603441238403320312500000000,
0.15214866399765014648437500000000000,
-0.04873728752136230468750000000000000,
-0.14620113372802734375000000000000000,
0.04643052816390991210937500000000000,
0.11368536949157714843750000000000000,
0.09223344922065734863281250000000000,
-0.12059924006462097167968750000000000,
-0.17714582383632659912109375000000000,
-0.21686917543411254882812500000000000,
-0.09470975399017333984375000000000000,
0.10439753532409667968750000000000000,
0.03535148501396179199218750000000000,
0.01221472024917602539062500000000000,
0.07920894026756286621093750000000000,
-0.09081165492534637451171875000000000,
-0.16926966607570648193359375000000000,
-0.12432651966810226440429687500000000,
-0.18570451438426971435546875000000000,
-0.13486129045486450195312500000000000,
0.10056588053703308105468750000000000,
0.19660818576812744140625000000000000,
-0.20360279083251953125000000000000000,
-0.03500160574913024902343750000000000,
-0.11319145560264587402343750000000000,
0.15414315462112426757812500000000000,
-0.07140941917896270751953125000000000,
0.05263167619705200195312500000000000,
0.04601600766181945800781250000000000,
0.09798020124435424804687500000000000,
-0.10298513621091842651367187500000000,
-0.00511470437049865722656250000000000,
0.11284077167510986328125000000000000,
-0.10656549036502838134765625000000000,
0.12901791930198669433593750000000000,
-0.00057129561901092529296875000000000,
0.03367227315902709960937500000000000,
0.20622536540031433105468750000000000,
-0.14183357357978820800781250000000000,
-0.10635659098625183105468750000000000,
-0.06202244758605957031250000000000000,
0.09646591544151306152343750000000000,
0.13655835390090942382812500000000000,
-0.03184920549392700195312500000000000,
0.09090787172317504882812500000000000,
-0.19433410465717315673828125000000000,
0.06152668595314025878906250000000000,
-0.17906105518341064453125000000000000,
-0.02536876499652862548828125000000000,
0.12075939774513244628906250000000000,
-0.06856754422187805175781250000000000,
0.02091808617115020751953125000000000,
0.20315337181091308593750000000000000,
-0.13907310366630554199218750000000000,
0.18713563680648803710937500000000000,
-0.17142568528652191162109375000000000,
-0.04296511411666870117187500000000000,
0.00619392096996307373046875000000000,
0.09186667203903198242187500000000000,
-0.14103354513645172119140625000000000,
-0.02972243726253509521484375000000000,
0.03592753410339355468750000000000000,
-0.16079412400722503662109375000000000,
-0.11408709734678268432617187500000000,
-0.04833181202411651611328125000000000,
-0.15456023812294006347656250000000000,
-0.05349405109882354736328125000000000,
0.16613000631332397460937500000000000,
0.18616682291030883789062500000000000,
0.16090074181556701660156250000000000,
-0.19673708081245422363281250000000000,
-0.04389767348766326904296875000000000,
-0.05712169408798217773437500000000000,
-0.00526984035968780517578125000000000,
0.06225576996803283691406250000000000,
0.05662518739700317382812500000000000,
0.05341333150863647460937500000000000,
-0.02179694175720214843750000000000000,
0.11221906542778015136718750000000000,
-0.07054707407951354980468750000000000,
0.19107595086097717285156250000000000,
0.05846351385116577148437500000000000,
0.07548260688781738281250000000000000,
-0.15757688879966735839843750000000000,
-0.06687216460704803466796875000000000,
0.17529773712158203125000000000000000,
0.21678969264030456542968750000000000,
0.20705303549766540527343750000000000,
0.04916453361511230468750000000000000,
0.12451565265655517578125000000000000,
0.18413773179054260253906250000000000,
0.09487587213516235351562500000000000,
-0.14055925607681274414062500000000000,
-0.18453434109687805175781250000000000,
0.00770376622676849365234375000000000,
-0.20812258124351501464843750000000000,
-0.00587578117847442626953125000000000,
0.21050500869750976562500000000000000,
-0.12630403041839599609375000000000000,
-0.05699595808982849121093750000000000,
0.04205408692359924316406250000000000,
0.20815524458885192871093750000000000,
0.01611822843551635742187500000000000,
-0.21315331757068634033203125000000000,
-0.02889031171798706054687500000000000,
-0.15605418384075164794921875000000000,
0.12208360433578491210937500000000000,
-0.21418082714080810546875000000000000,
-0.01227980852127075195312500000000000,
0.13668674230575561523437500000000000,
0.03949406743049621582031250000000000,
-0.21620658040046691894531250000000000,
-0.21851314604282379150390625000000000,
0.01071643829345703125000000000000000,
-0.03936220705509185791015625000000000,
-0.13244029879570007324218750000000000,
-0.08659787476062774658203125000000000,
0.09934064745903015136718750000000000,
-0.13410949707031250000000000000000000,
0.15271726250648498535156250000000000,
-0.16604757308959960937500000000000000,
0.05022022128105163574218750000000000,
0.03026118874549865722656250000000000,
0.06036001443862915039062500000000000,
-0.11213638633489608764648437500000000,
-0.11895856261253356933593750000000000,
-0.21172098815441131591796875000000000,
0.11726588010787963867187500000000000,
-0.16695976257324218750000000000000000,
0.21947562694549560546875000000000000,
0.15851211547851562500000000000000000,
-0.05242826044559478759765625000000000,
0.12717452645301818847656250000000000,
-0.00077721476554870605468750000000000,
0.11735948920249938964843750000000000,
-0.10321690887212753295898437500000000,
-0.15845802426338195800781250000000000,
0.11918216943740844726562500000000000,
0.11679440736770629882812500000000000,
0.15525695681571960449218750000000000,
-0.01379397511482238769531250000000000,
0.18485310673713684082031250000000000,
0.18215891718864440917968750000000000,
-0.17552812397480010986328125000000000,
-0.12482722848653793334960937500000000,
-0.08893613517284393310546875000000000,
-0.13194292783737182617187500000000000,
-0.15058410167694091796875000000000000,
-0.14316865801811218261718750000000000,
0.07984650135040283203125000000000000,
-0.18484926223754882812500000000000000,
-0.18322062492370605468750000000000000,
0.21636325120925903320312500000000000,
0.09484183788299560546875000000000000,
0.06654682755470275878906250000000000,
-0.12030722200870513916015625000000000,
0.10441675782203674316406250000000000,
-0.14275757968425750732421875000000000,
-0.16236835718154907226562500000000000,
-0.13724216818809509277343750000000000,
-0.14814896881580352783203125000000000,
0.10743394494056701660156250000000000,
0.07650503516197204589843750000000000,
0.00183060765266418457031250000000000,
-0.06231254339218139648437500000000000,
0.10419693589210510253906250000000000,
0.11183083057403564453125000000000000,
0.16669347882270812988281250000000000,
0.16259238123893737792968750000000000,
-0.07673302292823791503906250000000000,
0.11139926314353942871093750000000000,
-0.16865345835685729980468750000000000,
0.17015284299850463867187500000000000,
-0.08709077537059783935546875000000000,
0.14447477459907531738281250000000000,
0.11610752344131469726562500000000000,
-0.13885153830051422119140625000000000,
-0.09677329659461975097656250000000000,
0.18757519125938415527343750000000000,
-0.17855016887187957763671875000000000,
0.17546057701110839843750000000000000,
0.13236758112907409667968750000000000,
-0.15382552146911621093750000000000000,
-0.17125877737998962402343750000000000,
-0.18583707511425018310546875000000000,
-0.10382120311260223388671875000000000,
-0.10025713592767715454101562500000000,
-0.00281895697116851806640625000000000,
-0.10139622539281845092773437500000000,
0.05306622385978698730468750000000000,
-0.06951588392257690429687500000000000,
-0.09833267331123352050781250000000000,
0.00478366017341613769531250000000000,
0.21688172221183776855468750000000000,
-0.21729508042335510253906250000000000,
-0.04781895875930786132812500000000000,
0.05982947349548339843750000000000000,
-0.03214298188686370849609375000000000,
-0.07153330743312835693359375000000000,
0.01416860520839691162109375000000000,
0.20538005232810974121093750000000000,
0.16562935709953308105468750000000000,
0.11939081549644470214843750000000000,
0.07493337988853454589843750000000000,
-0.07485833764076232910156250000000000,
0.07857775688171386718750000000000000,
0.13949787616729736328125000000000000,
-0.05195640027523040771484375000000000,
0.21147784590721130371093750000000000,
-0.15184348821640014648437500000000000,
0.20433914661407470703125000000000000,
0.21394741535186767578125000000000000,
-0.06568661332130432128906250000000000,
-0.07010370492935180664062500000000000,
-0.03978827595710754394531250000000000,
-0.12967249751091003417968750000000000,
-0.00342719256877899169921875000000000,
0.13156402111053466796875000000000000,
0.16330948472023010253906250000000000,
-0.01587706804275512695312500000000000,
-0.07369060814380645751953125000000000,
0.20483630895614624023437500000000000,
-0.07043270766735076904296875000000000,
-0.02485539019107818603515625000000000,
0.08330282568931579589843750000000000,
-0.04851342737674713134765625000000000,
0.09048813581466674804687500000000000,
0.04070875048637390136718750000000000,
0.19646242260932922363281250000000000,
0.20782765746116638183593750000000000,
-0.09721653163433074951171875000000000,
0.05300110578536987304687500000000000,
-0.20399306714534759521484375000000000,
0.22079703211784362792968750000000000,
0.12438744306564331054687500000000000,
0.05988189578056335449218750000000000,
-0.21813251078128814697265625000000000,
-0.12898987531661987304687500000000000,
0.21415978670120239257812500000000000,
-0.13846351206302642822265625000000000,
-0.03203089535236358642578125000000000,
0.20430424809455871582031250000000000,
-0.20584747195243835449218750000000000,
-0.00625230371952056884765625000000000,
0.20782709121704101562500000000000000,
0.21210551261901855468750000000000000,
0.19450429081916809082031250000000000,
-0.12807175517082214355468750000000000,
-0.19141857326030731201171875000000000,
-0.17951147258281707763671875000000000,
0.03901496529579162597656250000000000,
0.13898733258247375488281250000000000,
-0.17145101726055145263671875000000000,
-0.11485401540994644165039062500000000,
0.08900931477546691894531250000000000,
-0.02761501073837280273437500000000000,
-0.09762570261955261230468750000000000,
0.03617781400680541992187500000000000,
-0.11031702905893325805664062500000000,
-0.01477272808551788330078125000000000,
0.16407319903373718261718750000000000,
-0.09269426763057708740234375000000000,
-0.20245951414108276367187500000000000,
-0.10768120735883712768554687500000000,
0.16765621304512023925781250000000000,
0.02705746889114379882812500000000000,
0.10528305172920227050781250000000000,
0.11201417446136474609375000000000000,
-0.15432484447956085205078125000000000,
-0.05271881818771362304687500000000000,
-0.11570476740598678588867187500000000,
-0.15694767236709594726562500000000000,
-0.20466610789299011230468750000000000,
-0.15069726109504699707031250000000000,
0.00717952847480773925781250000000000,
0.09448081254959106445312500000000000,
0.17723038792610168457031250000000000,
-0.02866251766681671142578125000000000,
0.06154629588127136230468750000000000,
-0.02568261325359344482421875000000000,
-0.16739580035209655761718750000000000,
-0.02875858545303344726562500000000000,
0.17667752504348754882812500000000000,
-0.13947217166423797607421875000000000,
-0.06704014539718627929687500000000000,
0.01342062652111053466796875000000000,
-0.02001492679119110107421875000000000,
-0.09871886670589447021484375000000000,
-0.11841478198766708374023437500000000,
-0.14723587036132812500000000000000000,
-0.00235806405544281005859375000000000,
0.04078927636146545410156250000000000,
0.21159553527832031250000000000000000,
0.20203551650047302246093750000000000,
0.12100133299827575683593750000000000,
-0.09279896318912506103515625000000000,
-0.07961072027683258056640625000000000,
-0.15615741908550262451171875000000000,
0.03422117233276367187500000000000000,
0.05172100663185119628906250000000000,
0.04525473713874816894531250000000000,
0.09048992395401000976562500000000000,
-0.00868548452854156494140625000000000,
-0.09120021760463714599609375000000000,
-0.20343549549579620361328125000000000,
-0.13973546028137207031250000000000000,
