0.04276877641677856445312500000000000,
-0.13421320915222167968750000000000000,
0.21553888916969299316406250000000000,
-0.11135242879390716552734375000000000,
-0.11142698675394058227539062500000000,
0.11912542581558227539062500000000000,
0.14731144905090332031250000000000000,
0.15503162145614624023437500000000000,
0.10762858390808105468750000000000000,
-0.19914862513542175292968750000000000,
0.12592414021492004394531250000000000,
-0.10289143770933151245117187500000000,
-0.18519441783428192138671875000000000,
-0.19474071264266967773437500000000000,
0.03787431120872497558593750000000000,
-0.09711198508739471435546875000000000,
0.07664972543716430664062500000000000,
-0.11811551451683044433593750000000000,
0.01239362359046936035156250000000000,
-0.12642514705657958984375000000000000,
0.13267567753791809082031250000000000,
-0.05204361677169799804687500000000000,
-0.07217881083488464355468750000000000,
0.10759854316711425781250000000000000,
0.10574063658714294433593750000000000,
0.01414716243743896484375000000000000,
0.16774299740791320800781250000000000,
-0.16966034471988677978515625000000000,
-0.09056524932384490966796875000000000,
-0.13834124803543090820312500000000000,
-0.06426230072975158691406250000000000,
-0.11883050948381423950195312500000000,
0.21599838137626647949218750000000000,
0.02259626984596252441406250000000000,
-0.09092822670936584472656250000000000,
-0.05228751897811889648437500000000000,
-0.15491157770156860351562500000000000,
0.00952832400798797607421875000000000,
0.18002879619598388671875000000000000,
-0.08382472395896911621093750000000000,
-0.17371240258216857910156250000000000,
0.00500187277793884277343750000000000,
-0.18635424971580505371093750000000000,
0.15602362155914306640625000000000000,
0.08507803082466125488281250000000000,
0.08594673871994018554687500000000000,
-0.17347191274166107177734375000000000,
-0.13911470770835876464843750000000000,
0.10972881317138671875000000000000000,
0.11934340000152587890625000000000000,
-0.00364758074283599853515625000000000,
0.18940776586532592773437500000000000,
-0.20855735242366790771484375000000000,
0.21773195266723632812500000000000000,
0.09579890966415405273437500000000000,
-0.11786662787199020385742187500000000,
0.09409007430076599121093750000000000,
-0.17461383342742919921875000000000000,
0.11631873250007629394531250000000000,
0.12801361083984375000000000000000000,
