-1.58343315124511718750000000000000000,
0.34555894136428833007812500000000000,
-0.17298440635204315185546875000000000,
0.12337042391300201416015625000000000,
-0.76880913972854614257812500000000000,
0.31554880738258361816406250000000000,
-1.68573248386383056640625000000000000,
1.10236597061157226562500000000000000,
-0.50999689102172851562500000000000000,
0.83807748556137084960937500000000000,
-1.49187850952148437500000000000000000,
-1.39888107776641845703125000000000000,
0.20598725974559783935546875000000000,
1.52034926414489746093750000000000000,
0.31670370697975158691406250000000000,
0.95690536499023437500000000000000000,
1.36874389648437500000000000000000000,
-0.16593943536281585693359375000000000,
0.95838755369186401367187500000000000,
0.08979899436235427856445312500000000,
-0.10968469083309173583984375000000000,
0.15675686299800872802734375000000000,
-0.00684774946421384811401367187500000,
-0.06775568425655364990234375000000000,
-0.13712081313133239746093750000000000,
-0.07014996558427810668945312500000000,
-0.04303800314664840698242187500000000,
-0.16396355628967285156250000000000000,
-0.29667478799819946289062500000000000,
-0.17350481450557708740234375000000000,
-0.17429046332836151123046875000000000,
-0.19902864098548889160156250000000000,
-0.07634967565536499023437500000000000,
-0.30236300826072692871093750000000000,
-0.13022854924201965332031250000000000,
-0.19950382411479949951171875000000000,
0.03553827479481697082519531250000000,
-0.06026878580451011657714843750000000,
0.00845512468367815017700195312500000,
0.09725137054920196533203125000000000,
1.79212701320648193359375000000000000,
0.46617689728736877441406250000000000,
-0.57388848066329956054687500000000000,
0.21633701026439666748046875000000000,
2.35154652595520019531250000000000000,
0.16499252617359161376953125000000000,
-0.49696668982505798339843750000000000,
0.51511675119400024414062500000000000,
0.15185730159282684326171875000000000,
0.69332361221313476562500000000000000,
0.49516341090202331542968750000000000,
-0.86041516065597534179687500000000000,
-0.55056470632553100585937500000000000,
0.45402529835700988769531250000000000,
-1.24533724784851074218750000000000000,
-0.29984644055366516113281250000000000,
-1.64068949222564697265625000000000000,
0.38075929880142211914062500000000000,
4.32690000534057617187500000000000000,
-1.60326552391052246093750000000000000,
-1.60278820991516113281250000000000000,
1.41684591770172119140625000000000000,
1.21007680892944335937500000000000000,
0.48508965969085693359375000000000000,
-1.77735936641693115234375000000000000,
0.26005712151527404785156250000000000,
-2.21187567710876464843750000000000000,
-5.64805507659912109375000000000000000,
-0.44648087024688720703125000000000000,
-0.98724579811096191406250000000000000,
-2.03261065483093261718750000000000000,
-0.85279434919357299804687500000000000,
-3.31481623649597167968750000000000000,
1.25490450859069824218750000000000000,
1.17218804359436035156250000000000000,
1.42439424991607666015625000000000000,
0.35250851511955261230468750000000000,
-1.78329908847808837890625000000000000,
-23.93897247314453125000000000000000000,
1.06332504749298095703125000000000000,
-0.00673293275758624076843261718750000,
-0.01627908460795879364013671875000000,
-0.06417892873287200927734375000000000,
-0.05459147319197654724121093750000000,
0.11006746441125869750976562500000000,
-0.09640638530254364013671875000000000,
-0.00592338666319847106933593750000000,
-0.21936732530593872070312500000000000,
-0.28716292977333068847656250000000000,
-0.29417377710342407226562500000000000,
0.10354068875312805175781250000000000,
0.01765435375273227691650390625000000,
-0.11145287007093429565429687500000000,
-0.06933272629976272583007812500000000,
-0.13196375966072082519531250000000000,
-0.30974510312080383300781250000000000,
-0.08607366681098937988281250000000000,
0.07435918599367141723632812500000000,
-0.15070104598999023437500000000000000,
-0.03249069303274154663085937500000000,
-1.14440095424652099609375000000000000,
-0.51480191946029663085937500000000000,
1.04659831523895263671875000000000000,
-58.77864456176757812500000000000000000,
-2.82597255706787109375000000000000000,
-0.49446156620979309082031250000000000,
-3.35886812210083007812500000000000000,
-2.20348024368286132812500000000000000,
-0.15330177545547485351562500000000000,
-0.08108251541852951049804687500000000,
-5.88552045822143554687500000000000000,
-0.93437123298645019531250000000000000,
1.13797402381896972656250000000000000,
1.74690520763397216796875000000000000,
1.98440492153167724609375000000000000,
1.18885183334350585937500000000000000,
-0.43047666549682617187500000000000000,
-0.93191421031951904296875000000000000,
0.18561451137065887451171875000000000,
0.26462930440902709960937500000000000,
-2.56601452827453613281250000000000000,
0.06698733568191528320312500000000000,
2.55979609489440917968750000000000000,
1.86467933654785156250000000000000000,
-2.73494148254394531250000000000000000,
-2.67882990837097167968750000000000000,
0.93060928583145141601562500000000000,
0.07728718966245651245117187500000000,
0.79534608125686645507812500000000000,
-3.27745985984802246093750000000000000,
-29.74331092834472656250000000000000000,
0.75123590230941772460937500000000000,
-1.23419010639190673828125000000000000,
0.36784064769744873046875000000000000,
-2.99166679382324218750000000000000000,
-1.04026448726654052734375000000000000,
2.72910308837890625000000000000000000,
-2.34866595268249511718750000000000000,
1.92107367515563964843750000000000000,
0.65971040725708007812500000000000000,
-0.04653495922684669494628906250000000,
-0.04120019078254699707031250000000000,
0.01479815784841775894165039062500000,
-0.12855209410190582275390625000000000,
-0.01777037978172302246093750000000000,
-0.02155850641429424285888671875000000,
-0.11135570704936981201171875000000000,
-0.03772762417793273925781250000000000,
-0.11090210825204849243164062500000000,
-0.30141881108283996582031250000000000,
0.04707629978656768798828125000000000,
-0.01075301971286535263061523437500000,
-0.30602863430976867675781250000000000,
-0.22535169124603271484375000000000000,
0.04161761328577995300292968750000000,
-0.21815958619117736816406250000000000,
-0.28808635473251342773437500000000000,
-0.20299321413040161132812500000000000,
-0.32069101929664611816406250000000000,
0.07631617039442062377929687500000000,
-2.59472155570983886718750000000000000,
-2.36661744117736816406250000000000000,
-0.20315496623516082763671875000000000,
-4.11976242065429687500000000000000000,
4.00382947921752929687500000000000000,
0.44625183939933776855468750000000000,
0.99528378248214721679687500000000000,
0.95956259965896606445312500000000000,
0.11570063978433609008789062500000000,
-2.93633937835693359375000000000000000,
-4.19284868240356445312500000000000000,
-0.71775615215301513671875000000000000,
1.09752917289733886718750000000000000,
1.78172004222869873046875000000000000,
-0.24514958262443542480468750000000000,
0.52996551990509033203125000000000000,
1.44020223617553710937500000000000000,
0.23528675734996795654296875000000000,
-8.60470581054687500000000000000000000,
-0.82059854269027709960937500000000000,
-0.10634000599384307861328125000000000,
-0.00412879278883337974548339843750000,
-0.32431235909461975097656250000000000,
-0.03531562536954879760742187500000000,
-0.15090416371822357177734375000000000,
0.03479780256748199462890625000000000,
-0.05804448202252388000488281250000000,
0.06677266210317611694335937500000000,
0.01794212311506271362304687500000000,
-0.22284251451492309570312500000000000,
0.12387897074222564697265625000000000,
-0.32590258121490478515625000000000000,
-0.07986337691545486450195312500000000,
-0.05618382617831230163574218750000000,
-0.01167239528149366378784179687500000,
-0.00608806265518069267272949218750000,
-0.25686836242675781250000000000000000,
-0.03966665640473365783691406250000000,
0.03980445489287376403808593750000000,
-0.00550955720245838165283203125000000,
0.51849365234375000000000000000000000,
-0.60491561889648437500000000000000000,
-0.19640254974365234375000000000000000,
-1.90792536735534667968750000000000000,
-0.11487027257680892944335937500000000,
-0.27725154161453247070312500000000000,
-0.68511426448822021484375000000000000,
0.75860685110092163085937500000000000,
0.50471913814544677734375000000000000,
-0.31229040026664733886718750000000000,
-0.36025324463844299316406250000000000,
-0.27336648106575012207031250000000000,
0.16043774783611297607421875000000000,
1.06961596012115478515625000000000000,
0.55780422687530517578125000000000000,
0.09939034283161163330078125000000000,
0.63411223888397216796875000000000000,
0.57940691709518432617187500000000000,
-2.18622279167175292968750000000000000,
-0.19544441998004913330078125000000000,
-0.62763059139251708984375000000000000,
-1.06319439411163330078125000000000000,
-1.33140552043914794921875000000000000,
-29.47924995422363281250000000000000000,
-2.33049607276916503906250000000000000,
-0.12465732544660568237304687500000000,
0.10074455291032791137695312500000000,
0.53726488351821899414062500000000000,
-0.61963099241256713867187500000000000,
0.67117816209793090820312500000000000,
-3.59175062179565429687500000000000000,
-0.94189554452896118164062500000000000,
-0.39624786376953125000000000000000000,
0.09703236818313598632812500000000000,
-0.39282947778701782226562500000000000,
0.03178381174802780151367187500000000,
1.50311219692230224609375000000000000,
0.90484297275543212890625000000000000,
-4.67056751251220703125000000000000000,
1.07251834869384765625000000000000000,
0.12032350152730941772460937500000000,
-0.07446520775556564331054687500000000,
-0.22976848483085632324218750000000000,
0.18147915601730346679687500000000000,
0.02361854910850524902343750000000000,
0.01104044634848833084106445312500000,
-0.21459126472473144531250000000000000,
-0.16789573431015014648437500000000000,
-0.01823449134826660156250000000000000,
-0.22615902125835418701171875000000000,
-0.17977926135063171386718750000000000,
0.12361919134855270385742187500000000,
0.09687057137489318847656250000000000,
-0.02805549651384353637695312500000000,
-0.21458849310874938964843750000000000,
-0.14028590917587280273437500000000000,
-0.18710631132125854492187500000000000,
-0.12237539887428283691406250000000000,
-0.19724769890308380126953125000000000,
-0.09932588785886764526367187500000000,
-0.29417267441749572753906250000000000,
-6.76079368591308593750000000000000000,
1.31647264957427978515625000000000000,
-0.10371442139148712158203125000000000,
1.49738454818725585937500000000000000,
-0.45293781161308288574218750000000000,
-1.02276468276977539062500000000000000,
-1.51063513755798339843750000000000000,
-0.05301270261406898498535156250000000,
1.40293061733245849609375000000000000,
-0.11712966859340667724609375000000000,
0.76835113763809204101562500000000000,
-3.31096386909484863281250000000000000,
-0.00385890249162912368774414062500000,
-0.59299278259277343750000000000000000,
0.96996676921844482421875000000000000,
0.90294110774993896484375000000000000,
-3.25060844421386718750000000000000000,
-0.67092335224151611328125000000000000,
-7.00025415420532226562500000000000000,
-0.27120369672775268554687500000000000,
-0.27765926718711853027343750000000000,
-0.53488993644714355468750000000000000,
-0.41006398200988769531250000000000000,
-1.26572608947753906250000000000000000,
0.04882301390171051025390625000000000,
0.33180445432662963867187500000000000,
0.14796823263168334960937500000000000,
0.87222772836685180664062500000000000,
0.52959626913070678710937500000000000,
-0.28973248600959777832031250000000000,
0.77652251720428466796875000000000000,
0.53077685832977294921875000000000000,
0.11564822494983673095703125000000000,
0.55403923988342285156250000000000000,
-0.14673468470573425292968750000000000,
1.07242941856384277343750000000000000,
0.47814002633094787597656250000000000,
-0.31173673272132873535156250000000000,
-0.54703611135482788085937500000000000,
-0.44451552629470825195312500000000000,
-0.02836672961711883544921875000000000,
-0.52842360734939575195312500000000000,
-0.50102776288986206054687500000000000,
-0.14728128910064697265625000000000000,
-0.15296149253845214843750000000000000,
-0.22417154908180236816406250000000000,
0.07570341229438781738281250000000000,
-0.25352340936660766601562500000000000,
-0.31616395711898803710937500000000000,
-0.38663944602012634277343750000000000,
-0.34264728426933288574218750000000000,
-0.11826521158218383789062500000000000,
-0.40652614831924438476562500000000000,
-0.29722213745117187500000000000000000,
-0.18774205446243286132812500000000000,
-0.40933227539062500000000000000000000,
-0.20278471708297729492187500000000000,
-0.20752859115600585937500000000000000,
-0.11439511924982070922851562500000000,
0.62005937099456787109375000000000000,
-0.14438627660274505615234375000000000,
-0.10920906066894531250000000000000000,
-0.80475968122482299804687500000000000,
0.65061491727828979492187500000000000,
0.07944111526012420654296875000000000,
0.88355553150177001953125000000000000,
1.45529913902282714843750000000000000,
1.69234240055084228515625000000000000,
0.26083624362945556640625000000000000,
0.29672279953956604003906250000000000,
1.04248976707458496093750000000000000,
0.63086575269699096679687500000000000,
1.47883927822113037109375000000000000,
0.94446104764938354492187500000000000,
0.57888734340667724609375000000000000,
0.39225319027900695800781250000000000,
0.05979361385107040405273437500000000,
0.27163046598434448242187500000000000,
0.51089709997177124023437500000000000,
-0.14797420799732208251953125000000000,
0.10918492078781127929687500000000000,
-0.15970432758331298828125000000000000,
0.08830755949020385742187500000000000,
-0.09816493839025497436523437500000000,
0.06339671462774276733398437500000000,
-0.01098909694701433181762695312500000,
-0.16584438085556030273437500000000000,
-0.17983539402484893798828125000000000,
-0.16820695996284484863281250000000000,
0.04654585197567939758300781250000000,
-0.23533234000205993652343750000000000,
-0.13401974737644195556640625000000000,
0.08948628604412078857421875000000000,
0.01997782476246356964111328125000000,
-0.12113299220800399780273437500000000,
-0.03847840055823326110839843750000000,
-0.05757022276520729064941406250000000,
-0.11448077857494354248046875000000000,
0.04475334659218788146972656250000000,
-0.25138100981712341308593750000000000,
-0.22624392807483673095703125000000000,
-0.16018895804882049560546875000000000,
-0.27927705645561218261718750000000000,
-0.25052505731582641601562500000000000,
-0.34212133288383483886718750000000000,
-0.35528787970542907714843750000000000,
-0.16654399037361145019531250000000000,
-0.25963720679283142089843750000000000,
-0.24660781025886535644531250000000000,
-0.09299238771200180053710937500000000,
-0.11753855645656585693359375000000000,
-0.11375640332698822021484375000000000,
-0.43304446339607238769531250000000000,
-0.13132406771183013916015625000000000,
-0.30389201641082763671875000000000000,
-0.25350129604339599609375000000000000,
-0.29194688796997070312500000000000000,
-0.49613308906555175781250000000000000,
-0.20580652356147766113281250000000000,
-7.83957433700561523437500000000000000,
3.64643979072570800781250000000000000,
-1.35548782348632812500000000000000000,
5.25535821914672851562500000000000000,
-4.48212957382202148437500000000000000,
2.05891442298889160156250000000000000,
0.82674914598464965820312500000000000,
0.66404306888580322265625000000000000,
-0.32094931602478027343750000000000000,
1.95297503471374511718750000000000000,
-17.27351760864257812500000000000000000,
-1.40860486030578613281250000000000000,
-0.67151182889938354492187500000000000,
-0.13126556575298309326171875000000000,
-1.27056336402893066406250000000000000,
-3.69307518005371093750000000000000000,
9.47583675384521484375000000000000000,
1.11355948448181152343750000000000000,
-2.56618738174438476562500000000000000,
-1.54932868480682373046875000000000000,
