-0.10927358269691467285156250000000000,
0.20601618289947509765625000000000000,
-0.03580045700073242187500000000000000,
-0.02474969625473022460937500000000000,
-0.01618923246860504150390625000000000,
0.07845914363861083984375000000000000,
-0.03125379979610443115234375000000000,
-0.21690365672111511230468750000000000,
0.07969152927398681640625000000000000,
0.07703843712806701660156250000000000,
-0.17968662083148956298828125000000000,
0.20011785626411437988281250000000000,
-0.10666510462760925292968750000000000,
-0.15632255375385284423828125000000000,
0.21942773461341857910156250000000000,
-0.13620811700820922851562500000000000,
0.07078796625137329101562500000000000,
0.08242124319076538085937500000000000,
-0.19914706051349639892578125000000000,
0.17914289236068725585937500000000000,
-0.03778079152107238769531250000000000,
-0.10578444600105285644531250000000000,
-0.00193807482719421386718750000000000,
0.01763290166854858398437500000000000,
0.06191885471343994140625000000000000,
0.06799376010894775390625000000000000,
0.17720404267311096191406250000000000,
0.16742011904716491699218750000000000,
-0.11740910261869430541992187500000000,
-0.11189573258161544799804687500000000,
0.13638147711753845214843750000000000,
0.08952876925468444824218750000000000,
-0.15594638884067535400390625000000000,
0.03063386678695678710937500000000000,
-0.01952707767486572265625000000000000,
-0.12788426876068115234375000000000000,
0.07451122999191284179687500000000000,
0.19525405764579772949218750000000000,
-0.04950302839279174804687500000000000,
0.07484740018844604492187500000000000,
0.12231066823005676269531250000000000,
0.04281648993492126464843750000000000,
-0.21801356971263885498046875000000000,
-0.02930448949337005615234375000000000,
-0.15400806069374084472656250000000000,
0.15261855721473693847656250000000000,
0.04589140415191650390625000000000000,
-0.09617716073989868164062500000000000,
-0.19606551527976989746093750000000000,
0.17251926660537719726562500000000000,
-0.18803046643733978271484375000000000,
-0.05822256207466125488281250000000000,
-0.07493272423744201660156250000000000,
0.12087556719779968261718750000000000,
-0.07120619714260101318359375000000000,
-0.14003866910934448242187500000000000,
0.08729290962219238281250000000000000,
-0.19143506884574890136718750000000000,
0.13675180077552795410156250000000000,
0.13817971944808959960937500000000000,
