0.02386816777288913726806640625000000,
-0.04089855030179023742675781250000000,
-0.05039384961128234863281250000000000,
0.00441539334133267402648925781250000,
0.07125250995159149169921875000000000,
0.06535541266202926635742187500000000,
-0.07802560925483703613281250000000000,
0.05668245255947113037109375000000000,
0.07370443642139434814453125000000000,
-0.04260605946183204650878906250000000,
0.06805659830570220947265625000000000,
-0.02448831312358379364013671875000000,
0.08186846971511840820312500000000000,
0.10026334971189498901367187500000000,
-0.06487508863210678100585937500000000,
-0.02839617617428302764892578125000000,
-0.07219248265027999877929687500000000,
-0.08048938214778900146484375000000000,
-0.03528555482625961303710937500000000,
-0.00289604580029845237731933593750000,
-0.03513076156377792358398437500000000,
-0.07316245883703231811523437500000000,
0.06151532754302024841308593750000000,
0.00124724872875958681106567382812500,
-0.05835653841495513916015625000000000,
-0.09713534265756607055664062500000000,
0.05218173936009407043457031250000000,
-0.02738007530570030212402343750000000,
0.05264720693230628967285156250000000,
-0.02472395263612270355224609375000000,
0.04556244239211082458496093750000000,
-0.06778277456760406494140625000000000,
-0.06006313487887382507324218750000000,
-0.03818292170763015747070312500000000,
-0.07649748772382736206054687500000000,
0.02344227954745292663574218750000000,
-0.02132926695048809051513671875000000,
0.07491236180067062377929687500000000,
-0.03403415530920028686523437500000000,
-0.05706097558140754699707031250000000,
0.09164693206548690795898437500000000,
-0.02003775164484977722167968750000000,
0.01678941771388053894042968750000000,
0.04833199828863143920898437500000000,
-0.03047655522823333740234375000000000,
0.06944494694471359252929687500000000,
0.03080838918685913085937500000000000,
0.06448824703693389892578125000000000,
-0.03088212013244628906250000000000000,
0.06643990427255630493164062500000000,
0.05864224582910537719726562500000000,
-0.01283705513924360275268554687500000,
0.04761926084756851196289062500000000,
0.07018558681011199951171875000000000,
-0.01982254907488822937011718750000000,
0.09159277379512786865234375000000000,
-0.05688584595918655395507812500000000,
0.07731997966766357421875000000000000,
0.07383808493614196777343750000000000,
0.01065799593925476074218750000000000,
-0.06236699596047401428222656250000000,
-0.06413096189498901367187500000000000,
0.02430051192641258239746093750000000,
0.07414523512125015258789062500000000,
-0.02548874169588088989257812500000000,
0.09154404699802398681640625000000000,
0.04720876365900039672851562500000000,
-0.03354490548372268676757812500000000,
0.01771587133407592773437500000000000,
-0.06161952391266822814941406250000000,
0.03315896913409233093261718750000000,
0.09360606223344802856445312500000000,
0.09263833612203598022460937500000000,
-0.00748427212238311767578125000000000,
-0.10266277939081192016601562500000000,
0.02061794884502887725830078125000000,
-0.09868780523538589477539062500000000,
0.08774423599243164062500000000000000,
0.00655439635738730430603027343750000,
0.07703546434640884399414062500000000,
-0.08754827827215194702148437500000000,
-0.08845604956150054931640625000000000,
-0.04576308652758598327636718750000000,
-0.00527171790599822998046875000000000,
0.01260887179523706436157226562500000,
0.03658134490251541137695312500000000,
0.06120121106505393981933593750000000,
-0.05283777415752410888671875000000000,
-0.08939376473426818847656250000000000,
0.06703500449657440185546875000000000,
0.06685838103294372558593750000000000,
-0.02345802634954452514648437500000000,
0.02322152070701122283935546875000000,
0.09806322306394577026367187500000000,
-0.02767546288669109344482421875000000,
-0.05345449224114418029785156250000000,
-0.07495633512735366821289062500000000,
-0.07000927627086639404296875000000000,
-0.06063970550894737243652343750000000,
0.06229856237769126892089843750000000,
