0.15323869884014129638671875000000000,
-0.02228771708905696868896484375000000,
0.14393839240074157714843750000000000,
-0.12242166697978973388671875000000000,
0.20607545971870422363281250000000000,
0.24947145581245422363281250000000000,
-0.32248768210411071777343750000000000,
-0.15203827619552612304687500000000000,
0.09367731213569641113281250000000000,
0.08345042914152145385742187500000000,
0.28001412749290466308593750000000000,
-0.01714487560093402862548828125000000,
0.24151939153671264648437500000000000,
0.32519754767417907714843750000000000,
-0.19217753410339355468750000000000000,
0.12913823127746582031250000000000000,
-0.33292511105537414550781250000000000,
0.00540152704343199729919433593750000,
0.32094708085060119628906250000000000,
-0.34575971961021423339843750000000000,
-0.19567997753620147705078125000000000,
0.20973417162895202636718750000000000,
0.02700996212661266326904296875000000,
-0.18474408984184265136718750000000000,
-0.20452773571014404296875000000000000,
-0.34005391597747802734375000000000000,
-0.08398669958114624023437500000000000,
0.06294390559196472167968750000000000,
-0.28336879611015319824218750000000000,
-0.00863301753997802734375000000000000,
0.13970354199409484863281250000000000,
-0.33968672156333923339843750000000000,
-0.08581056445837020874023437500000000,
0.12635287642478942871093750000000000,
-0.11591306328773498535156250000000000,
0.14074280858039855957031250000000000,
-0.19269491732120513916015625000000000,
-0.02895226143300533294677734375000000,
0.13830809295177459716796875000000000,
0.03935853019356727600097656250000000,
0.17817632853984832763671875000000000,
0.01703096926212310791015625000000000,
-0.10487785190343856811523437500000000,
-0.14609466493129730224609375000000000,
0.12556229531764984130859375000000000,
0.17724600434303283691406250000000000,
0.32927164435386657714843750000000000,
0.13596892356872558593750000000000000,
0.27958843111991882324218750000000000,
-0.30508556962013244628906250000000000,
-0.03639297932386398315429687500000000,
-0.00430604303255677223205566406250000,
0.28629699349403381347656250000000000,
0.34638008475303649902343750000000000,
-0.03033945709466934204101562500000000,
-0.23949950933456420898437500000000000,
-0.01990566216409206390380859375000000,
0.30914917588233947753906250000000000,
0.16187116503715515136718750000000000,
-0.18707510828971862792968750000000000,
0.22168165445327758789062500000000000,
0.12812587618827819824218750000000000,
0.16327437758445739746093750000000000,
0.25659254193305969238281250000000000,
-0.22884979844093322753906250000000000,
0.19746856391429901123046875000000000,
0.28111034631729125976562500000000000,
0.07521016150712966918945312500000000,
0.18100421130657196044921875000000000,
0.13625107705593109130859375000000000,
0.27656131982803344726562500000000000,
-0.25419089198112487792968750000000000,
-0.23867636919021606445312500000000000,
0.17087596654891967773437500000000000,
0.28897538781166076660156250000000000,
0.27131024003028869628906250000000000,
0.13460184633731842041015625000000000,
-0.21352303028106689453125000000000000,
0.33688381314277648925781250000000000,
-0.02400664426386356353759765625000000,
-0.25366982817649841308593750000000000,
0.31889101862907409667968750000000000,
-0.09494992345571517944335937500000000,
0.06113692000508308410644531250000000,
0.19180259108543395996093750000000000,
0.26487413048744201660156250000000000,
-0.32017582654953002929687500000000000,
-0.33031415939331054687500000000000000,
-0.22013427317142486572265625000000000,
-0.20184846222400665283203125000000000,
-0.34562209248542785644531250000000000,
0.32456430792808532714843750000000000,
0.20470348000526428222656250000000000,
-0.30343040823936462402343750000000000,
0.14663878083229064941406250000000000,
-0.16497372090816497802734375000000000,
0.34262344241142272949218750000000000,
0.07448232173919677734375000000000000,
-0.01105738990008831024169921875000000,
-0.01871249638497829437255859375000000,
