-0.08533859252929687500000000000000000,
-0.00149438832886517047882080078125000,
0.01025935541838407516479492187500000,
0.03292664140462875366210937500000000,
0.06544574350118637084960937500000000,
0.06102862209081649780273437500000000,
-0.08698708564043045043945312500000000,
0.07629585266113281250000000000000000,
-0.01463893800973892211914062500000000,
0.03251918405294418334960937500000000,
0.02618491835892200469970703125000000,
0.03883977979421615600585937500000000,
0.00325939757749438285827636718750000,
0.06257897615432739257812500000000000,
0.04560194909572601318359375000000000,
-0.08070024102926254272460937500000000,
-0.08715733140707015991210937500000000,
-0.10847219079732894897460937500000000,
-0.00631725322455167770385742187500000,
0.10194829106330871582031250000000000,
0.05393975228071212768554687500000000,
0.07820210605859756469726562500000000,
-0.06402412801980972290039062500000000,
-0.02199269831180572509765625000000000,
0.01280444767326116561889648437500000,
-0.04325890541076660156250000000000000,
0.08504515886306762695312500000000000,
-0.06119392812252044677734375000000000,
0.03788436576724052429199218750000000,
-0.02084487117826938629150390625000000,
-0.04336861148476600646972656250000000,
-0.09175119549036026000976562500000000,
0.05210774764418601989746093750000000,
0.07727213948965072631835937500000000,
0.00588891608640551567077636718750000,
0.07109249383211135864257812500000000,
-0.05160894989967346191406250000000000,
-0.06720662862062454223632812500000000,
-0.01528923586010932922363281250000000,
0.03027941659092903137207031250000000,
0.04055353254079818725585937500000000,
0.03036565706133842468261718750000000,
0.02105648815631866455078125000000000,
-0.00576341152191162109375000000000000,
0.03033428639173507690429687500000000,
0.03663224726915359497070312500000000,
-0.09144188463687896728515625000000000,
0.03062090836465358734130859375000000,
0.06883842498064041137695312500000000,
0.07983453571796417236328125000000000,
0.09079186618328094482421875000000000,
0.09153147786855697631835937500000000,
0.07362833619117736816406250000000000,
0.08682519942522048950195312500000000,
-0.06398481875658035278320312500000000,
0.02128785476088523864746093750000000,
0.00071175728226080536842346191406250,
-0.08201238512992858886718750000000000,
0.07164312154054641723632812500000000,
0.05376261845231056213378906250000000,
-0.07097315788269042968750000000000000,
-0.07245028764009475708007812500000000,
-0.00120858161244541406631469726562500,
0.09028281271457672119140625000000000,
0.01654770225286483764648437500000000,
0.09244815260171890258789062500000000,
0.07976868748664855957031250000000000,
0.05140870437026023864746093750000000,
-0.08608744293451309204101562500000000,
-0.09031891822814941406250000000000000,
0.02516971528530120849609375000000000,
-0.04840026050806045532226562500000000,
-0.07553608715534210205078125000000000,
-0.05539542436599731445312500000000000,
-0.06788507103919982910156250000000000,
-0.05198901519179344177246093750000000,
-0.04484850168228149414062500000000000,
-0.02711589448153972625732421875000000,
0.02370504662394523620605468750000000,
0.09018813818693161010742187500000000,
0.01820157468318939208984375000000000,
0.05003567785024642944335937500000000,
-0.03117142617702484130859375000000000,
-0.01004296541213989257812500000000000,
0.08620607107877731323242187500000000,
0.04220839589834213256835937500000000,
0.09502391517162322998046875000000000,
-0.01706129498779773712158203125000000,
0.08211730420589447021484375000000000,
0.02275199070572853088378906250000000,
-0.01727855950593948364257812500000000,
-0.07931552827358245849609375000000000,
-0.04277861490845680236816406250000000,
0.09188397228717803955078125000000000,
-0.03421220928430557250976562500000000,
-0.04590092226862907409667968750000000,
0.02302034944295883178710937500000000,
-0.04377241060137748718261718750000000,
-0.06977913528680801391601562500000000,
-0.06207435578107833862304687500000000,
