0.00983658805489540100097656250000000,
-0.02459073252975940704345703125000000,
0.01195649988949298858642578125000000,
0.02869260869920253753662109375000000,
-0.05801136046648025512695312500000000,
-0.01972517557442188262939453125000000,
0.03735487908124923706054687500000000,
0.01551472395658493041992187500000000,
0.07627806812524795532226562500000000,
0.08411403000354766845703125000000000,
0.05794856697320938110351562500000000,
-0.03641489893198013305664062500000000,
0.08051323890686035156250000000000000,
0.03104313462972640991210937500000000,
0.04582458361983299255371093750000000,
0.07001527398824691772460937500000000,
-0.07621062546968460083007812500000000,
-0.07800130546092987060546875000000000,
-0.09786915779113769531250000000000000,
-0.05389398336410522460937500000000000,
0.07469188421964645385742187500000000,
0.06318985670804977416992187500000000,
0.03497141227126121520996093750000000,
-0.01090411096811294555664062500000000,
-0.09168876707553863525390625000000000,
0.03548050671815872192382812500000000,
-0.02138315141201019287109375000000000,
-0.02975609153509140014648437500000000,
-0.08100907504558563232421875000000000,
0.08024112135171890258789062500000000,
0.02024139463901519775390625000000000,
-0.07826550304889678955078125000000000,
-0.06857483834028244018554687500000000,
-0.00802127085626125335693359375000000,
0.08288209885358810424804687500000000,
-0.00409938395023345947265625000000000,
-0.05590771511197090148925781250000000,
0.07138777524232864379882812500000000,
0.08940971642732620239257812500000000,
-0.09883092343807220458984375000000000,
-0.04168501496315002441406250000000000,
-0.05514118820428848266601562500000000,
0.05738427117466926574707031250000000,
-0.07264586538076400756835937500000000,
-0.09780841320753097534179687500000000,
0.01491421647369861602783203125000000,
0.05855901539325714111328125000000000,
-0.05924589559435844421386718750000000,
0.00404241168871521949768066406250000,
0.02056528627872467041015625000000000,
0.07803756743669509887695312500000000,
-0.04792956635355949401855468750000000,
0.02356409467756748199462890625000000,
0.05861317366361618041992187500000000,
-0.08399588614702224731445312500000000,
-0.07769235223531723022460937500000000,
0.00578135764226317405700683593750000,
-0.05719875544309616088867187500000000,
-0.00339563190937042236328125000000000,
-0.05881866440176963806152343750000000,
-0.01356159523129463195800781250000000,
0.08513732999563217163085937500000000,
-0.00535593181848526000976562500000000,
-0.07609181851148605346679687500000000,
-0.01254637539386749267578125000000000,
0.01351578533649444580078125000000000,
0.06152119114995002746582031250000000,
-0.09614335745573043823242187500000000,
-0.05268127843737602233886718750000000,
0.07041615992784500122070312500000000,
0.03453781455755233764648437500000000,
0.02403269708156585693359375000000000,
0.01062278449535369873046875000000000,
-0.03345950320363044738769531250000000,
0.08220189064741134643554687500000000,
0.01501928269863128662109375000000000,
-0.09038470685482025146484375000000000,
0.06497234106063842773437500000000000,
0.05671213939785957336425781250000000,
-0.07475626468658447265625000000000000,
-0.04489126056432723999023437500000000,
0.07101386040449142456054687500000000,
0.02947043441236019134521484375000000,
0.07773718982934951782226562500000000,
0.09362713992595672607421875000000000,
0.02464789152145385742187500000000000,
0.04017880931496620178222656250000000,
-0.08786681294441223144531250000000000,
-0.03277455270290374755859375000000000,
-0.05000676214694976806640625000000000,
0.07087589055299758911132812500000000,
-0.04277551546692848205566406250000000,
0.01170231401920318603515625000000000,
0.07485162466764450073242187500000000,
0.08851774781942367553710937500000000,
-0.01009886153042316436767578125000000,
0.00739072030410170555114746093750000,
0.00878079980611801147460937500000000,
0.02185046114027500152587890625000000,
0.01931120269000530242919921875000000,
-0.02551688253879547119140625000000000,
-0.09525289386510848999023437500000000,
0.04892923682928085327148437500000000,
0.00717021524906158447265625000000000,
0.09460723400115966796875000000000000,
0.00504422793164849281311035156250000,
0.06308920681476593017578125000000000,
0.06744501739740371704101562500000000,
-0.00912097841501235961914062500000000,
-0.01192187797278165817260742187500000,
-0.00940811634063720703125000000000000,
0.03848197311162948608398437500000000,
-0.10107048600912094116210937500000000,
-0.01799251139163970947265625000000000,
0.09828405082225799560546875000000000,
-0.00039113376988098025321960449218750,
-0.01327001210302114486694335937500000,
-0.09012347459793090820312500000000000,
0.05122255533933639526367187500000000,
0.09395938366651535034179687500000000,
0.02160008996725082397460937500000000,
-0.06975416839122772216796875000000000,
0.00344464322552084922790527343750000,
-0.07502678781747817993164062500000000,
-0.04071844369173049926757812500000000,
0.09946652501821517944335937500000000,
0.07197419553995132446289062500000000,
0.04791148751974105834960937500000000,
0.06953365355730056762695312500000000,
-0.07514724880456924438476562500000000,
-0.05242204666137695312500000000000000,
0.00071251392364501953125000000000000,
0.09049335867166519165039062500000000,
-0.05664850026369094848632812500000000,
0.09632010012865066528320312500000000,
0.05654031783342361450195312500000000,
-0.02270618826150894165039062500000000,
-0.06281942129135131835937500000000000,
0.08917831629514694213867187500000000,
-0.04163079708814620971679687500000000,
-0.02360684797167778015136718750000000,
-0.00937670469284057617187500000000000,
0.08581726253032684326171875000000000,
-0.09508043527603149414062500000000000,
0.04399609565734863281250000000000000,
-0.02230318635702133178710937500000000,
-0.05033257231116294860839843750000000,
0.09965523332357406616210937500000000,
-0.09585442394018173217773437500000000,
0.08387089520692825317382812500000000,
-0.00424726167693734169006347656250000,
-0.00869946926832199096679687500000000,
0.02419890463352203369140625000000000,
0.01948969066143035888671875000000000,
0.01827885955572128295898437500000000,
-0.02812387049198150634765625000000000,
0.08749235421419143676757812500000000,
0.01128051243722438812255859375000000,
0.04460696130990982055664062500000000,
0.05756600946187973022460937500000000,
-0.08394271135330200195312500000000000,
0.09132850170135498046875000000000000,
0.09665264934301376342773437500000000,
0.07599586248397827148437500000000000,
0.07033208757638931274414062500000000,
0.02705319598317146301269531250000000,
0.00597759336233139038085937500000000,
-0.08347258716821670532226562500000000,
0.04437680169939994812011718750000000,
-0.03300916031002998352050781250000000,
0.03072373941540718078613281250000000,
-0.04939279705286026000976562500000000,
-0.03005228191614151000976562500000000,
-0.06505034118890762329101562500000000,
-0.06185999140143394470214843750000000,
-0.05170383676886558532714843750000000,
-0.00825949665158987045288085937500000,
-0.09356435388326644897460937500000000,
-0.08037755638360977172851562500000000,
-0.04890517517924308776855468750000000,
-0.08986873179674148559570312500000000,
0.04575365781784057617187500000000000,
-0.06082436442375183105468750000000000,
-0.05013797059655189514160156250000000,
0.09034194797277450561523437500000000,
0.07780962437391281127929687500000000,
-0.06747746467590332031250000000000000,
0.01766951382160186767578125000000000,
-0.00343849509954452514648437500000000,
-0.03092491254210472106933593750000000,
-0.05388692766427993774414062500000000,
0.07122366875410079956054687500000000,
-0.08442685753107070922851562500000000,
-0.02857725508511066436767578125000000,
-0.08211696147918701171875000000000000,
0.04794033244252204895019531250000000,
-0.09166389703750610351562500000000000,
0.02841702848672866821289062500000000,
-0.08857470005750656127929687500000000,
-0.03747509419918060302734375000000000,
-0.00490951444953680038452148437500000,
0.01535987481474876403808593750000000,
-0.01596406847238540649414062500000000,
0.06845469027757644653320312500000000,
-0.06519380956888198852539062500000000,
-0.05190051347017288208007812500000000,
0.03704192861914634704589843750000000,
-0.03640929982066154479980468750000000,
0.02646934241056442260742187500000000,
0.05075627565383911132812500000000000,
0.02092943340539932250976562500000000,
-0.00337902409955859184265136718750000,
-0.07499115169048309326171875000000000,
0.05044079571962356567382812500000000,
-0.05129943788051605224609375000000000,
0.06709703058004379272460937500000000,
0.03556803986430168151855468750000000,
-0.00096095295157283544540405273437500,
-0.09001526236534118652343750000000000,
-0.02621563524007797241210937500000000,
0.09855345636606216430664062500000000,
-0.07692955434322357177734375000000000,
0.02501757070422172546386718750000000,
0.04661419242620468139648437500000000,
0.01259235292673110961914062500000000,
-0.02645055949687957763671875000000000,
-0.06247052177786827087402343750000000,
-0.01232936233282089233398437500000000,
-0.00844699423760175704956054687500000,
0.01249329745769500732421875000000000,
0.00429191906005144119262695312500000,
-0.09522489458322525024414062500000000,
-0.02498228289186954498291015625000000,
-0.11984708160161972045898437500000000,
-0.01373706758022308349609375000000000,
0.03861168771982192993164062500000000,
0.03515850752592086791992187500000000,
0.02255086041986942291259765625000000,
-0.02669005841016769409179687500000000,
0.00127332715783268213272094726562500,
-0.09944178909063339233398437500000000,
-0.05723970010876655578613281250000000,
-0.03134148195385932922363281250000000,
0.06027919799089431762695312500000000,
-0.02614050917327404022216796875000000,
-0.10243396461009979248046875000000000,
0.07484519481658935546875000000000000,
0.03639598563313484191894531250000000,
-0.08568912744522094726562500000000000,
-0.00529267638921737670898437500000000,
0.07572444528341293334960937500000000,
0.06621228158473968505859375000000000,
-0.07517641037702560424804687500000000,
0.00313695520162582397460937500000000,
0.06117282807826995849609375000000000,
-0.09093459695577621459960937500000000,
-0.07105721533298492431640625000000000,
-0.08454227447509765625000000000000000,
-0.05944113805890083312988281250000000,
-0.08972946554422378540039062500000000,
-0.02037347853183746337890625000000000,
-0.05617416650056838989257812500000000,
-0.07119280099868774414062500000000000,
0.06026764959096908569335937500000000,
-0.04803948476910591125488281250000000,
-0.02327142097055912017822265625000000,
0.04002190381288528442382812500000000,
0.07863090187311172485351562500000000,
-0.04911614581942558288574218750000000,
0.03003121167421340942382812500000000,
-0.10190680623054504394531250000000000,
0.03316868096590042114257812500000000,
-0.09747212380170822143554687500000000,
0.05005753040313720703125000000000000,
0.01887158304452896118164062500000000,
0.01158839464187622070312500000000000,
0.02015781402587890625000000000000000,
0.08821424096822738647460937500000000,
-0.02606472186744213104248046875000000,
-0.01240262854844331741333007812500000,
0.08564741164445877075195312500000000,
0.04055705666542053222656250000000000,
0.07454152405261993408203125000000000,
-0.03418643772602081298828125000000000,
0.02881116047501564025878906250000000,
-0.06265451014041900634765625000000000,
0.00303418166004121303558349609375000,
-0.00604017404839396476745605468750000,
-0.03728055953979492187500000000000000,
0.09216945618391036987304687500000000,
0.09060195833444595336914062500000000,
-0.05510485172271728515625000000000000,
0.07835639268159866333007812500000000,
-0.05057607963681221008300781250000000,
-0.00285928300581872463226318359375000,
-0.02100786194205284118652343750000000,
0.07120554894208908081054687500000000,
0.04445054382085800170898437500000000,
-0.04969223961234092712402343750000000,
-0.02223883382976055145263671875000000,
0.03191548958420753479003906250000000,
-0.08298379927873611450195312500000000,
0.01232861168682575225830078125000000,
-0.02235583774745464324951171875000000,
-0.05322497710585594177246093750000000,
0.10063492506742477416992187500000000,
0.06735711544752120971679687500000000,
0.07881435006856918334960937500000000,
-0.09424098581075668334960937500000000,
-0.02881624735891819000244140625000000,
0.05386572331190109252929687500000000,
-0.06185312941670417785644531250000000,
-0.06803650408983230590820312500000000,
-0.03344571962952613830566406250000000,
0.09484019875526428222656250000000000,
-0.07454314827919006347656250000000000,
-0.05474610999226570129394531250000000,
-0.08000103384256362915039062500000000,
0.05614095926284790039062500000000000,
-0.04801842197775840759277343750000000,
0.09585434943437576293945312500000000,
-0.05587891489267349243164062500000000,
-0.06884431093931198120117187500000000,
0.04783522337675094604492187500000000,
0.01713648810982704162597656250000000,
-0.07278122752904891967773437500000000,
-0.02012900263071060180664062500000000,
0.09381384402513504028320312500000000,
-0.03502621874213218688964843750000000,
-0.08396531641483306884765625000000000,
-0.02382447198033332824707031250000000,
0.00538436323404312133789062500000000,
-0.01339096389710903167724609375000000,
-0.09449311345815658569335937500000000,
0.09894534200429916381835937500000000,
0.05555602163076400756835937500000000,
0.06606762856245040893554687500000000,
0.07939617335796356201171875000000000,
0.01798098161816596984863281250000000,
0.02663593553006649017333984375000000,
-0.06622600555419921875000000000000000,
0.00261105108074843883514404296875000,
0.08011699467897415161132812500000000,
-0.01382572948932647705078125000000000,
0.01406475342810153961181640625000000,
0.09078338742256164550781250000000000,
-0.09170635789632797241210937500000000,
0.03131468594074249267578125000000000,
0.04436179623007774353027343750000000,
0.07639639824628829956054687500000000,
-0.02144785597920417785644531250000000,
0.04012219607830047607421875000000000,
0.07758366316556930541992187500000000,
-0.00070208311080932617187500000000000,
0.08937812596559524536132812500000000,
-0.03955717012286186218261718750000000,
0.08660773187875747680664062500000000,
0.02136179618537425994873046875000000,
-0.02862932533025741577148437500000000,
-0.06111179664731025695800781250000000,
0.04652042686939239501953125000000000,
-0.05811475962400436401367187500000000,
-0.05009952932596206665039062500000000,
-0.07436405122280120849609375000000000,
-0.03887535259127616882324218750000000,
0.01166272256523370742797851562500000,
-0.09203993529081344604492187500000000,
0.08887095749378204345703125000000000,
0.04994818940758705139160156250000000,
-0.07103236019611358642578125000000000,
-0.05979733541607856750488281250000000,
-0.06077302619814872741699218750000000,
-0.04596322774887084960937500000000000,
0.08779302984476089477539062500000000,
0.08470553904771804809570312500000000,
-0.05149548128247261047363281250000000,
0.05046094581484794616699218750000000,
-0.05410603433847427368164062500000000,
0.02742240950465202331542968750000000,
-0.03516542539000511169433593750000000,
0.08718011528253555297851562500000000,
0.08776705712080001831054687500000000,
-0.04101984947919845581054687500000000,
-0.01692395657300949096679687500000000,
0.02473692595958709716796875000000000,
0.07567673921585083007812500000000000,
0.06394999474287033081054687500000000,
-0.04313437268137931823730468750000000,
-0.04850663244724273681640625000000000,
-0.01297568902373313903808593750000000,
-0.09042505174875259399414062500000000,
-0.01079407148063182830810546875000000,
0.04230799525976181030273437500000000,
-0.08433821797370910644531250000000000,
-0.08554100990295410156250000000000000,
-0.00786561798304319381713867187500000,
0.09883602708578109741210937500000000,
-0.00708172470331192016601562500000000,
-0.01189114339649677276611328125000000,
0.01587540283799171447753906250000000,
0.05080367997288703918457031250000000,
0.08314777165651321411132812500000000,
0.07544372230768203735351562500000000,
-0.02993524074554443359375000000000000,
-0.03472988680005073547363281250000000,
-0.00233408971689641475677490234375000,
-0.07929235696792602539062500000000000,
-0.09396146237850189208984375000000000,
0.07084185630083084106445312500000000,
0.09362109005451202392578125000000000,
0.07759650796651840209960937500000000,
0.04458222165703773498535156250000000,
0.09567301720380783081054687500000000,
0.05767125636339187622070312500000000,
0.09299651533365249633789062500000000,
-0.05655876919627189636230468750000000,
0.00320768239907920360565185546875000,
0.02146689966320991516113281250000000,
-0.07054606825113296508789062500000000,
0.03028257936239242553710937500000000,
0.05517483502626419067382812500000000,
-0.09398297220468521118164062500000000,
0.04986304789781570434570312500000000,
0.07531624287366867065429687500000000,
-0.07877343147993087768554687500000000,
0.02938445657491683959960937500000000,
0.00361301749944686889648437500000000,
0.05002165585756301879882812500000000,
-0.02035722509026527404785156250000000,
0.05931312590837478637695312500000000,
-0.03355182334780693054199218750000000,
0.04770887643098831176757812500000000,
0.08492520451545715332031250000000000,
0.07722166180610656738281250000000000,
0.06336050480604171752929687500000000,
-0.06031557545065879821777343750000000,
0.09266283363103866577148437500000000,
0.00082290824502706527709960937500000,
-0.03817123174667358398437500000000000,
0.02425455488264560699462890625000000,
0.07863715291023254394531250000000000,
0.06280134618282318115234375000000000,
0.01633118651807308197021484375000000,
0.08641404658555984497070312500000000,
-0.07900788635015487670898437500000000,
-0.01193211879581212997436523437500000,
-0.06602891534566879272460937500000000,
0.06405513733625411987304687500000000,
0.08497498929500579833984375000000000,
-0.04449958726763725280761718750000000,
-0.01194941718131303787231445312500000,
0.10123266279697418212890625000000000,
-0.00377791980281472206115722656250000,
0.05124253779649734497070312500000000,
-0.07300886511802673339843750000000000,
0.07495201379060745239257812500000000,
-0.05464982986450195312500000000000000,
0.08672551810741424560546875000000000,
0.03636998683214187622070312500000000,
0.05443268269300460815429687500000000,
0.07594887912273406982421875000000000,
-0.09184178709983825683593750000000000,
0.02621033042669296264648437500000000,
0.03270381316542625427246093750000000,
0.05607800930738449096679687500000000,
-0.07929556071758270263671875000000000,
0.00890282634645700454711914062500000,
0.01631703786551952362060546875000000,
0.04198196157813072204589843750000000,
-0.01094012055546045303344726562500000,
0.02395034022629261016845703125000000,
0.09313476830720901489257812500000000,
0.09971623867750167846679687500000000,
-0.08517800271511077880859375000000000,
0.01958235353231430053710937500000000,
0.04123870283365249633789062500000000,
-0.08946611732244491577148437500000000,
0.05942778289318084716796875000000000,
0.03381954506039619445800781250000000,
0.06222687289118766784667968750000000,
-0.03270634636282920837402343750000000,
0.00089636014308780431747436523437500,
0.03067011199891567230224609375000000,
0.08749623596668243408203125000000000,
-0.03076856024563312530517578125000000,
-0.04009955003857612609863281250000000,
-0.05974645167589187622070312500000000,
-0.03892499580979347229003906250000000,
0.04746734350919723510742187500000000,
-0.03640377521514892578125000000000000,
0.04216387122869491577148437500000000,
-0.06971608847379684448242187500000000,
-0.08780908584594726562500000000000000,
0.07920393347740173339843750000000000,
-0.00703890435397624969482421875000000,
0.09305914491415023803710937500000000,
0.03149106353521347045898437500000000,
-0.04900516197085380554199218750000000,
-0.01406889688223600387573242187500000,
-0.00826430041342973709106445312500000,
0.08327574282884597778320312500000000,
-0.05315906926989555358886718750000000,
-0.06330704689025878906250000000000000,
-0.09560628235340118408203125000000000,
0.04124406725168228149414062500000000,
0.01333376020193099975585937500000000,
-0.06187574937939643859863281250000000,
0.00240433216094970703125000000000000,
-0.07931655645370483398437500000000000,
0.05884087830781936645507812500000000,
-0.02167668193578720092773437500000000,
0.06723455339670181274414062500000000,
0.03810901194810867309570312500000000,
-0.04573118686676025390625000000000000,
0.02151489257812500000000000000000000,
-0.07917992770671844482421875000000000,
-0.02091592550277709960937500000000000,
0.08150992542505264282226562500000000,
0.00884039700031280517578125000000000,
0.01396753638982772827148437500000000,
-0.06561344861984252929687500000000000,
0.00190868228673934936523437500000000,
-0.07442291080951690673828125000000000,
-0.08249988406896591186523437500000000,
0.01621917635202407836914062500000000,
-0.06836835294961929321289062500000000,
0.04100357741117477416992187500000000,
0.09148735553026199340820312500000000,
-0.05083806440234184265136718750000000,
0.07660003751516342163085937500000000,
0.03377167135477066040039062500000000,
0.08776814490556716918945312500000000,
0.06976456195116043090820312500000000,
-0.03445782512426376342773437500000000,
-0.01640858501195907592773437500000000,
-0.05577461794018745422363281250000000,
0.03407221287488937377929687500000000,
0.07777144759893417358398437500000000,
-0.00888317823410034179687500000000000,
-0.04668296501040458679199218750000000,
0.01433219760656356811523437500000000,
0.03716181963682174682617187500000000,
-0.05245557054877281188964843750000000,
-0.06168252229690551757812500000000000,
-0.07955817133188247680664062500000000,
0.06156241148710250854492187500000000,
-0.05093104764819145202636718750000000,
0.02406511455774307250976562500000000,
-0.06681279093027114868164062500000000,
0.02820874005556106567382812500000000,
-0.08798301219940185546875000000000000,
-0.08718301355838775634765625000000000,
-0.04694696888327598571777343750000000,
-0.07731650769710540771484375000000000,
-0.04730124399065971374511718750000000,
-0.00504056364297866821289062500000000,
0.01783430576324462890625000000000000,
-0.01630844920873641967773437500000000,
0.06919497996568679809570312500000000,
0.07736945897340774536132812500000000,
0.07782835513353347778320312500000000,
0.04181609302759170532226562500000000,
-0.05704943090677261352539062500000000,
0.02024395763874053955078125000000000,
0.04022177308797836303710937500000000,
0.01202716678380966186523437500000000,
-0.06706885993480682373046875000000000,
0.07418674975633621215820312500000000,
-0.08176521956920623779296875000000000,
-0.07472801208496093750000000000000000,
-0.02182878553867340087890625000000000,
0.08210200816392898559570312500000000,
0.00483194738626480102539062500000000,
-0.09668400138616561889648437500000000,
-0.06577815115451812744140625000000000,
0.06236589699983596801757812500000000,
-0.05162842199206352233886718750000000,
0.08590931445360183715820312500000000,
0.01326449960470199584960937500000000,
-0.05615584924817085266113281250000000,
0.03301721066236495971679687500000000,
-0.06907907873392105102539062500000000,
-0.00713106244802474975585937500000000,
-0.09591551125049591064453125000000000,
-0.00523821264505386352539062500000000,
0.05405632406473159790039062500000000,
0.02284334599971771240234375000000000,
0.07395356148481369018554687500000000,
-0.02300934493541717529296875000000000,
-0.03584758937358856201171875000000000,
-0.05231406912207603454589843750000000,
-0.00208497047424316406250000000000000,
0.07139384001493453979492187500000000,
-0.06518258154392242431640625000000000,
0.03421279042959213256835937500000000,
-0.02666138112545013427734375000000000,
0.03239084035158157348632812500000000,
0.08627779036760330200195312500000000,
-0.01125748455524444580078125000000000,
0.03108302503824234008789062500000000,
0.08342070877552032470703125000000000,
-0.09417705982923507690429687500000000,
0.02046987973153591156005859375000000,
0.04468487203121185302734375000000000,
-0.09799944609403610229492187500000000,
0.08589496463537216186523437500000000,
0.04944903030991554260253906250000000,
-0.00508069107308983802795410156250000,
0.04762587696313858032226562500000000,
-0.01171679049730300903320312500000000,
-0.09214458614587783813476562500000000,
-0.02715590409934520721435546875000000,
0.00638347258791327476501464843750000,
-0.07073219120502471923828125000000000,
0.07163686305284500122070312500000000,
-0.03203939273953437805175781250000000,
-0.04551313444972038269042968750000000,
-0.09347452968358993530273437500000000,
-0.01131832227110862731933593750000000,
0.05691530555486679077148437500000000,
0.05739743262529373168945312500000000,
-0.01064846664667129516601562500000000,
0.03708191961050033569335937500000000,
-0.09515333175659179687500000000000000,
0.02017730474472045898437500000000000,
0.01119495928287506103515625000000000,
-0.03373973071575164794921875000000000,
0.01752759516239166259765625000000000,
-0.09880585223436355590820312500000000,
-0.00347463041543960571289062500000000,
0.07030116021633148193359375000000000,
0.02561617642641067504882812500000000,
-0.03267642110586166381835937500000000,
-0.04433505237102508544921875000000000,
0.06847987323999404907226562500000000,
0.06170254200696945190429687500000000,
-0.02628656476736068725585937500000000,
-0.00348727405071258544921875000000000,
-0.01333674043416976928710937500000000,
-0.04182471334934234619140625000000000,
-0.07787022739648818969726562500000000,
0.08260445296764373779296875000000000,
-0.02262083441019058227539062500000000,
0.02447094768285751342773437500000000,
-0.00756222521886229515075683593750000,
-0.05610136687755584716796875000000000,
-0.05670722201466560363769531250000000,
0.00454370677471160888671875000000000,
-0.07659911364316940307617187500000000,
-0.01077614724636077880859375000000000,
0.08683862537145614624023437500000000,
-0.03269060328602790832519531250000000,
0.06757926195859909057617187500000000,
0.04724629968404769897460937500000000,
-0.02670002728700637817382812500000000,
-0.03202760219573974609375000000000000,
-0.04234170913696289062500000000000000,
-0.07004468888044357299804687500000000,
-0.05819282680749893188476562500000000,
0.04173149913549423217773437500000000,
0.01977414079010486602783203125000000,
-0.07189453393220901489257812500000000,
0.04004775732755661010742187500000000,
-0.03711983188986778259277343750000000,
-0.03679729998111724853515625000000000,
-0.07838986814022064208984375000000000,
0.05464994907379150390625000000000000,
-0.02287485636770725250244140625000000,
-0.01148749887943267822265625000000000,
-0.00826887786388397216796875000000000,
-0.06235953792929649353027343750000000,
0.02019976079463958740234375000000000,
-0.00975777953863143920898437500000000,
0.04613357409834861755371093750000000,
0.03813924640417098999023437500000000,
-0.04510573297739028930664062500000000,
0.09672079235315322875976562500000000,
0.07740967720746994018554687500000000,
-0.06200526654720306396484375000000000,
0.07969588786363601684570312500000000,
-0.06609983742237091064453125000000000,
-0.05736590549349784851074218750000000,
0.08402359485626220703125000000000000,
-0.03443961590528488159179687500000000,
-0.06169869750738143920898437500000000,
-0.02078525722026824951171875000000000,
0.06754988431930541992187500000000000,
-0.00629039714112877845764160156250000,
-0.03586510941386222839355468750000000,
-0.03119627200067043304443359375000000,
0.09143037348985671997070312500000000,
0.01221042871475219726562500000000000,
0.04275619238615036010742187500000000,
0.08183895796537399291992187500000000,
0.02286585420370101928710937500000000,
0.01632916927337646484375000000000000,
-0.05547357350587844848632812500000000,
0.07259511202573776245117187500000000,
0.03501560911536216735839843750000000,
0.09598873555660247802734375000000000,
0.05892763286828994750976562500000000,
-0.07417292147874832153320312500000000,
0.05545453354716300964355468750000000,
0.07429265975952148437500000000000000,
0.02046203427016735076904296875000000,
-0.09142579883337020874023437500000000,
-0.07343914359807968139648437500000000,
-0.01713809743523597717285156250000000,
0.06999551504850387573242187500000000,
-0.02965033985674381256103515625000000,
-0.08508353680372238159179687500000000,
0.03647552803158760070800781250000000,
-0.04690847545862197875976562500000000,
0.02042376808822154998779296875000000,
-0.02622465416789054870605468750000000,
-0.07868594676256179809570312500000000,
0.07422138750553131103515625000000000,
-0.07591235637664794921875000000000000,
-0.07813591510057449340820312500000000,
0.03006016463041305541992187500000000,
0.04553214460611343383789062500000000,
0.06973022967576980590820312500000000,
-0.02720466069877147674560546875000000,
-0.01069279760122299194335937500000000,
-0.02647801861166954040527343750000000,
0.04943303018808364868164062500000000,
-0.02132673561573028564453125000000000,
0.05516052991151809692382812500000000,
0.04325910285115242004394531250000000,
0.09128714352846145629882812500000000,
-0.07835566252470016479492187500000000,
0.02254106104373931884765625000000000,
-0.06585071235895156860351562500000000,
0.06133586540818214416503906250000000,
-0.00021996349096298217773437500000000,
-0.08628070354461669921875000000000000,
0.02660722285509109497070312500000000,
-0.03821547701954841613769531250000000,
0.08122579008340835571289062500000000,
0.07937119156122207641601562500000000,
0.08814293891191482543945312500000000,
0.00562310218811035156250000000000000,
-0.06271365284919738769531250000000000,
0.00478956848382949829101562500000000,
0.00172926951199769973754882812500000,
0.03433147817850112915039062500000000,
-0.03308712318539619445800781250000000,
-0.01149975415319204330444335937500000,
-0.05057476088404655456542968750000000,
0.00780270993709564208984375000000000,
0.08759664744138717651367187500000000,
0.07258045673370361328125000000000000,
-0.04398883134126663208007812500000000,
-0.01662264019250869750976562500000000,
-0.01757722347974777221679687500000000,
-0.00131852924823760986328125000000000,
-0.04752024263143539428710937500000000,
0.07836277037858963012695312500000000,
-0.08130754530429840087890625000000000,
-0.07189796864986419677734375000000000,
0.00691584823653101921081542968750000,
-0.03529577702283859252929687500000000,
0.02200713008642196655273437500000000,
-0.04529921710491180419921875000000000,
0.05094442516565322875976562500000000,
0.02122997306287288665771484375000000,
-0.07172793149948120117187500000000000,
-0.07035726308822631835937500000000000,
0.01891910098493099212646484375000000,
-0.05437225103378295898437500000000000,
0.06392598152160644531250000000000000,
-0.09508828073740005493164062500000000,
0.07121530920267105102539062500000000,
-0.02356177940964698791503906250000000,
-0.07782939821481704711914062500000000,
0.02849639207124710083007812500000000,
-0.01481730118393898010253906250000000,
-0.09868638217449188232421875000000000,
0.02954869717359542846679687500000000,
0.02873481251299381256103515625000000,
0.02732490375638008117675781250000000,
0.04706588387489318847656250000000000,
-0.06830482929944992065429687500000000,
-0.05320762470364570617675781250000000,
0.08235061913728713989257812500000000,
0.07157608121633529663085937500000000,
0.02700094506144523620605468750000000,
0.01926506869494915008544921875000000,
0.04021234065294265747070312500000000,
0.09648482501506805419921875000000000,
0.04309188574552536010742187500000000,
0.01441691163927316665649414062500000,
0.01674030721187591552734375000000000,
-0.04039644449949264526367187500000000,
-0.03521674871444702148437500000000000,
0.10309669375419616699218750000000000,
0.00732237193733453750610351562500000,
-0.01991703361272811889648437500000000,
0.04699851945042610168457031250000000,
-0.09245267510414123535156250000000000,
-0.02924848720431327819824218750000000,
-0.03843244537711143493652343750000000,
-0.00738293165341019630432128906250000,
-0.00263803941197693347930908203125000,
0.03382778912782669067382812500000000,
0.07261198014020919799804687500000000,
0.05138488858938217163085937500000000,
0.08336570858955383300781250000000000,
-0.02037741988897323608398437500000000,
0.02178285457193851470947265625000000,
0.01776597648859024047851562500000000,
0.05067736282944679260253906250000000,
0.04621402546763420104980468750000000,
-0.04260227456688880920410156250000000,
-0.03147678449749946594238281250000000,
0.03798225894570350646972656250000000,
0.06288199126720428466796875000000000,
-0.03329411521553993225097656250000000,
0.02914779447019100189208984375000000,
0.06249181181192398071289062500000000,
-0.02295792102813720703125000000000000,
0.01020125299692153930664062500000000,
0.03203512728214263916015625000000000,
-0.03028726577758789062500000000000000,
0.07831319421529769897460937500000000,
0.08296214789152145385742187500000000,
-0.01438523828983306884765625000000000,
0.08384818583726882934570312500000000,
-0.03930056840181350708007812500000000,
-0.03403247892856597900390625000000000,
-0.02775576710700988769531250000000000,
0.05002523213624954223632812500000000,
-0.07701809704303741455078125000000000,
-0.00809728447347879409790039062500000,
-0.02842907607555389404296875000000000,
-0.07097432762384414672851562500000000,
0.00188227742910385131835937500000000,
-0.09921037405729293823242187500000000,
-0.07332792133092880249023437500000000,
-0.04152413830161094665527343750000000,
0.05843146145343780517578125000000000,
0.01689980737864971160888671875000000,
-0.07612655311822891235351562500000000,
0.01645139604806900024414062500000000,
0.08059336245059967041015625000000000,
0.06483599543571472167968750000000000,
-0.07070931047201156616210937500000000,
-0.02191962674260139465332031250000000,
0.07703291624784469604492187500000000,
0.04392509907484054565429687500000000,
-0.03580452874302864074707031250000000,
0.01665659248828887939453125000000000,
-0.02603706158697605133056640625000000,
0.04582036286592483520507812500000000,
-0.05283270403742790222167968750000000,
0.02537079900503158569335937500000000,
-0.01202883198857307434082031250000000,
-0.02218107506632804870605468750000000,
-0.06091278791427612304687500000000000,
-0.02050918340682983398437500000000000,
-0.04345292598009109497070312500000000,
-0.07274241745471954345703125000000000,
-0.07208331674337387084960937500000000,
-0.10082276165485382080078125000000000,
0.02449139207601547241210937500000000,
0.06695015728473663330078125000000000,
0.01043035369366407394409179687500000,
0.02669673971831798553466796875000000,
-0.03220428898930549621582031250000000,
-0.02502574212849140167236328125000000,
-0.07299840450286865234375000000000000,
0.04446078091859817504882812500000000,
-0.07680507004261016845703125000000000,
0.04418570920825004577636718750000000,
0.05857690423727035522460937500000000,
-0.05098390579223632812500000000000000,
-0.01172926928848028182983398437500000,
-0.02914363145828247070312500000000000,
0.04257340729236602783203125000000000,
-0.05273295566439628601074218750000000,
-0.05973295867443084716796875000000000,
0.05378643050789833068847656250000000,
-0.00758426915854215621948242187500000,
0.04372772201895713806152343750000000,
0.06659919023513793945312500000000000,
0.08385309576988220214843750000000000,
0.03813619166612625122070312500000000,
0.02961572632193565368652343750000000,
0.03565780445933341979980468750000000,
0.01113615650683641433715820312500000,
0.05420979112386703491210937500000000,
-0.04427190870046615600585937500000000,
-0.02093917131423950195312500000000000,
0.04311823099851608276367187500000000,
-0.07411106675863265991210937500000000,
-0.07171313464641571044921875000000000,
-0.05957706645131111145019531250000000,
0.08207791298627853393554687500000000,
-0.10257899761199951171875000000000000,
0.04736594483256340026855468750000000,
0.08658593147993087768554687500000000,
0.04923089966177940368652343750000000,
-0.05360118672251701354980468750000000,
-0.02266696095466613769531250000000000,
0.08200888335704803466796875000000000,
-0.03135037422180175781250000000000000,
0.07557177543640136718750000000000000,
-0.02221982181072235107421875000000000,
0.00836229324340820312500000000000000,
0.10008291900157928466796875000000000,
0.00202350318431854248046875000000000,
-0.02818364277482032775878906250000000,
0.05521517246961593627929687500000000,
0.07165172696113586425781250000000000,
0.02483198978006839752197265625000000,
-0.03431890904903411865234375000000000,
0.08923729509115219116210937500000000,
0.01811866275966167449951171875000000,
-0.08243856579065322875976562500000000,
0.09788998216390609741210937500000000,
-0.08645599335432052612304687500000000,
0.01143914461135864257812500000000000,
-0.05474765598773956298828125000000000,
-0.06878221035003662109375000000000000,
0.08462395519018173217773437500000000,
-0.06662692129611968994140625000000000,
-0.01646176725625991821289062500000000,
0.09348285943269729614257812500000000,
0.01590267382562160491943359375000000,
-0.03261727094650268554687500000000000,
0.00998679175972938537597656250000000,
-0.09851155430078506469726562500000000,
-0.02414356172084808349609375000000000,
-0.01983073353767395019531250000000000,
-0.06040757894515991210937500000000000,
0.01401157677173614501953125000000000,
0.04189638048410415649414062500000000,
0.08489068597555160522460937500000000,
0.03449561074376106262207031250000000,
-0.04723692312836647033691406250000000,
0.08427878469228744506835937500000000,
-0.02333110198378562927246093750000000,
-0.01987903192639350891113281250000000,
0.02039353549480438232421875000000000,
-0.04198403656482696533203125000000000,
0.07114943861961364746093750000000000,
-0.06132367625832557678222656250000000,
0.05057355016469955444335937500000000,
-0.02883675508201122283935546875000000,
0.08761698752641677856445312500000000,
-0.04944611340761184692382812500000000,
0.04837856069207191467285156250000000,
0.07196810096502304077148437500000000,
-0.08101005852222442626953125000000000,
0.03058577515184879302978515625000000,
-0.00059272348880767822265625000000000,
-0.00492832297459244728088378906250000,
-0.09673997759819030761718750000000000,
0.09177989512681961059570312500000000,
0.00965227186679840087890625000000000,
0.10071586817502975463867187500000000,
-0.01617979630827903747558593750000000,
0.03830940276384353637695312500000000,
0.09538172930479049682617187500000000,
-0.06743431091308593750000000000000000,
0.02094619162380695343017578125000000,
-0.00787774659693241119384765625000000,
0.04989774152636528015136718750000000,
-0.03935180231928825378417968750000000,
-0.00957920402288436889648437500000000,
-0.04571075737476348876953125000000000,
-0.08266758918762207031250000000000000,
0.01304990053176879882812500000000000,
0.04509064182639122009277343750000000,
-0.00212160497903823852539062500000000,
-0.04218937084078788757324218750000000,
0.05692583322525024414062500000000000,
-0.03715509176254272460937500000000000,
-0.07362949103116989135742187500000000,
-0.04298474639654159545898437500000000,
0.02482238970696926116943359375000000,
0.06702377647161483764648437500000000,
0.05260202288627624511718750000000000,
-0.05458663031458854675292968750000000,
0.04719465598464012145996093750000000,
0.02190089784562587738037109375000000,
0.07249908894300460815429687500000000,
-0.06962939351797103881835937500000000,
-0.05743551254272460937500000000000000,
-0.06229116767644882202148437500000000,
0.08713395148515701293945312500000000,
0.02238795161247253417968750000000000,
-0.06390401721000671386718750000000000,
0.01981694251298904418945312500000000,
-0.06663859635591506958007812500000000,
0.01138824131339788436889648437500000,
-0.03766456618905067443847656250000000,
0.05897027999162673950195312500000000,
-0.06444097310304641723632812500000000,
0.07521315664052963256835937500000000,
0.04122633114457130432128906250000000,
0.03739767894148826599121093750000000,
-0.06681898236274719238281250000000000,
-0.03268342837691307067871093750000000,
0.05122860148549079895019531250000000,
-0.08960911631584167480468750000000000,
-0.04309486970305442810058593750000000,
-0.07188105583190917968750000000000000,
0.03662873059511184692382812500000000,
0.10385134816169738769531250000000000,
-0.08167304843664169311523437500000000,
-0.00072998291580006480216979980468750,
0.09137618541717529296875000000000000,
-0.03026700206100940704345703125000000,
-0.07981801033020019531250000000000000,
-0.03562185913324356079101562500000000,
0.01778470538556575775146484375000000,
0.01061997469514608383178710937500000,
-0.04840192571282386779785156250000000,
0.09019734710454940795898437500000000,
-0.07527943700551986694335937500000000,
-0.06700066477060317993164062500000000,
-0.04814663529396057128906250000000000,
-0.02122595161199569702148437500000000,
-0.09257587045431137084960937500000000,
0.04219057410955429077148437500000000,
0.05902952700853347778320312500000000,
0.01791240274906158447265625000000000,
-0.01147826854139566421508789062500000,
0.06783158332109451293945312500000000,
0.08679846674203872680664062500000000,
0.01705108582973480224609375000000000,
0.06514850258827209472656250000000000,
0.06433601677417755126953125000000000,
-0.06976796686649322509765625000000000,
0.09913665801286697387695312500000000,
-0.02681481838226318359375000000000000,
-0.09586623311042785644531250000000000,
0.06162223592400550842285156250000000,
-0.01425378024578094482421875000000000,
0.06570629775524139404296875000000000,
-0.01458428706973791122436523437500000,
0.03121787868440151214599609375000000,
-0.05398557335138320922851562500000000,
-0.02548315376043319702148437500000000,
-0.05913154035806655883789062500000000,
-0.09080623090267181396484375000000000,
-0.03871478512883186340332031250000000,
0.05212138220667839050292968750000000,
0.03945445269346237182617187500000000,
0.03052352182567119598388671875000000,
-0.05451162904500961303710937500000000,
0.05101605877280235290527343750000000,
0.06822323054075241088867187500000000,
0.02327036298811435699462890625000000,
0.05510837584733963012695312500000000,
0.02211393974721431732177734375000000,
-0.08546791970729827880859375000000000,
-0.09987843036651611328125000000000000,
0.03715630620718002319335937500000000,
0.09096201509237289428710937500000000,
0.04624006524682044982910156250000000,
-0.09739233553409576416015625000000000,
-0.05682453140616416931152343750000000,
0.00014331191778182983398437500000000,
-0.04429458081722259521484375000000000,
-0.07142169028520584106445312500000000,
0.07810305804014205932617187500000000,
0.08676998317241668701171875000000000,
0.03472595661878585815429687500000000,
0.07709674537181854248046875000000000,
0.04545461386442184448242187500000000,
0.05437489598989486694335937500000000,
-0.02680830843746662139892578125000000,
-0.01217521727085113525390625000000000,
-0.05481412634253501892089843750000000,
-0.02136164531111717224121093750000000,
-0.04641028866171836853027343750000000,
-0.02873282134532928466796875000000000,
-0.02085390873253345489501953125000000,
0.07367826998233795166015625000000000,
0.03862931579351425170898437500000000,
0.00112726434599608182907104492187500,
0.07400086522102355957031250000000000,
-0.01318099442869424819946289062500000,
0.03026800602674484252929687500000000,
-0.03604045510292053222656250000000000,
-0.07194996625185012817382812500000000,
0.05198415368795394897460937500000000,
0.00547907268628478050231933593750000,
0.02213247120380401611328125000000000,
0.05711475759744644165039062500000000,
0.00852096080780029296875000000000000,
-0.00370405707508325576782226562500000,
-0.09570801258087158203125000000000000,
0.06324330717325210571289062500000000,
0.01664303243160247802734375000000000,
0.07624114304780960083007812500000000,
0.09893921762704849243164062500000000,
-0.05346483364701271057128906250000000,
-0.09003890305757522583007812500000000,
-0.07428973168134689331054687500000000,
-0.07605727016925811767578125000000000,
0.06826504319906234741210937500000000,
0.00128502992447465658187866210937500,
-0.04875808954238891601562500000000000,
0.01355290785431861877441406250000000,
-0.06111720949411392211914062500000000,
0.02368696033954620361328125000000000,
-0.01601126603782176971435546875000000,
-0.05045739561319351196289062500000000,
-0.09419234097003936767578125000000000,
-0.08912330865859985351562500000000000,
-0.00053613277850672602653503417968750,
-0.06549382209777832031250000000000000,
-0.04734245315194129943847656250000000,
-0.06795433908700942993164062500000000,
0.07017532736063003540039062500000000,
-0.06032313406467437744140625000000000,
0.06878498941659927368164062500000000,
0.01267696917057037353515625000000000,
-0.02127192169427871704101562500000000,
-0.05502586439251899719238281250000000,
0.03571491688489913940429687500000000,
0.07301295548677444458007812500000000,
0.07575348764657974243164062500000000,
-0.02339980751276016235351562500000000,
-0.00066883862018585205078125000000000,
0.06798595935106277465820312500000000,
-0.01700039207935333251953125000000000,
-0.06072407960891723632812500000000000,
-0.07884633541107177734375000000000000,
0.04617578536272048950195312500000000,
-0.01444489881396293640136718750000000,
0.08630896359682083129882812500000000,
0.05657596141099929809570312500000000,
0.02256195247173309326171875000000000,
-0.05982946977019309997558593750000000,
0.06586364656686782836914062500000000,
-0.04066103324294090270996093750000000,
0.08677794784307479858398437500000000,
-0.01350701414048671722412109375000000,
-0.02187545597553253173828125000000000,
0.04669434577226638793945312500000000,
0.07669579237699508666992187500000000,
-0.04236540943384170532226562500000000,
0.07863986492156982421875000000000000,
-0.05460593476891517639160156250000000,
0.01825709827244281768798828125000000,
0.05447510629892349243164062500000000,
0.10352892428636550903320312500000000,
0.10191625356674194335937500000000000,
-0.03418316319584846496582031250000000,
-0.03257270902395248413085937500000000,
0.00263129430823028087615966796875000,
0.05968566983938217163085937500000000,
-0.03091403096914291381835937500000000,
0.06445516645908355712890625000000000,
0.02530280500650405883789062500000000,
-0.00703305006027221679687500000000000,
0.09913960844278335571289062500000000,
-0.06063206121325492858886718750000000,
-0.08513480424880981445312500000000000,
-0.04226730763912200927734375000000000,
0.04501955956220626831054687500000000,
-0.00471171131357550621032714843750000,
0.05250493437051773071289062500000000,
0.02655613236129283905029296875000000,
-0.01215625833719968795776367187500000,
-0.05216863006353378295898437500000000,
0.01350857876241207122802734375000000,
-0.06626325845718383789062500000000000,
-0.05302680656313896179199218750000000,
-0.10687659680843353271484375000000000,
-0.04336031898856163024902343750000000,
-0.05247472599148750305175781250000000,
0.01059963554143905639648437500000000,
0.03539292886853218078613281250000000,
0.04883836582303047180175781250000000,
0.05573423951864242553710937500000000,
-0.03321757912635803222656250000000000,
-0.06955914944410324096679687500000000,
0.01191200874745845794677734375000000,
0.00636734021827578544616699218750000,
0.00080800405703485012054443359375000,
0.03795915096998214721679687500000000,
-0.00693520531058311462402343750000000,
-0.00707818567752838134765625000000000,
-0.07154178619384765625000000000000000,
-0.01215759199112653732299804687500000,
-0.07712241262197494506835937500000000,
-0.07196684181690216064453125000000000,
0.04871053248643875122070312500000000,
0.07996209710836410522460937500000000,
-0.01471100375056266784667968750000000,
0.03588571399450302124023437500000000,
-0.06738793104887008666992187500000000,
-0.09779524803161621093750000000000000,
-0.01701204478740692138671875000000000,
0.02447647042572498321533203125000000,
-0.08114127069711685180664062500000000,
0.06994967907667160034179687500000000,
-0.02733727917075157165527343750000000,
-0.00032789216493256390094757080078125,
0.01434687711298465728759765625000000,
0.06032493710517883300781250000000000,
0.06177149713039398193359375000000000,
0.02118899673223495483398437500000000,
0.01141190528869628906250000000000000,
0.05304766446352005004882812500000000,
0.06451324373483657836914062500000000,
-0.05167385563254356384277343750000000,
-0.02813725173473358154296875000000000,
0.08868096023797988891601562500000000,
-0.02099175192415714263916015625000000,
-0.07038009911775588989257812500000000,
0.05277026817202568054199218750000000,
0.09042764455080032348632812500000000,
-0.01496593002229928970336914062500000,
-0.08281672000885009765625000000000000,
-0.02297753095626831054687500000000000,
-0.03742396831512451171875000000000000,
0.07849884778261184692382812500000000,
0.06374111026525497436523437500000000,
0.06444834917783737182617187500000000,
0.05887227505445480346679687500000000,
-0.09507334232330322265625000000000000,
-0.06768433004617691040039062500000000,
-0.08482557535171508789062500000000000,
-0.04386689886450767517089843750000000,
-0.05900837853550910949707031250000000,
0.09067460149526596069335937500000000,
0.03996925801038742065429687500000000,
-0.09090255200862884521484375000000000,
-0.05933264642953872680664062500000000,
0.00123115628957748413085937500000000,
-0.05133626610040664672851562500000000,
-0.06401437520980834960937500000000000,
0.01937920413911342620849609375000000,
-0.05423698946833610534667968750000000,
-0.03752545639872550964355468750000000,
-0.08352415263652801513671875000000000,
-0.09195225685834884643554687500000000,
-0.02942775189876556396484375000000000,
-0.01538036670535802841186523437500000,
0.09407818317413330078125000000000000,
0.10313503444194793701171875000000000,
0.05825905874371528625488281250000000,
0.00993065070360898971557617187500000,
-0.00938743352890014648437500000000000,
0.04107006639242172241210937500000000,
0.04818024858832359313964843750000000,
0.02859508059918880462646484375000000,
0.01974590122699737548828125000000000,
0.06579771637916564941406250000000000,
0.01426295191049575805664062500000000,
-0.02377152256667613983154296875000000,
0.02583135291934013366699218750000000,
0.02096613496541976928710937500000000,
0.09066385775804519653320312500000000,
-0.09217895567417144775390625000000000,
0.06461922079324722290039062500000000,
0.08153165131807327270507812500000000,
-0.05010514333844184875488281250000000,
-0.08646953105926513671875000000000000,
-0.03437061607837677001953125000000000,
-0.02304292842745780944824218750000000,
0.00716018024832010269165039062500000,
-0.00194192165508866310119628906250000,
0.00326164066791534423828125000000000,
0.02556787058711051940917968750000000,
0.09892220050096511840820312500000000,
-0.03622726351022720336914062500000000,
-0.03375497460365295410156250000000000,
-0.08641584217548370361328125000000000,
0.00320488214492797851562500000000000,
0.09257572144269943237304687500000000,
0.03198555111885070800781250000000000,
0.06647928059101104736328125000000000,
0.00933410041034221649169921875000000,
-0.09003056585788726806640625000000000,
0.00536459544673562049865722656250000,
0.00775071093812584877014160156250000,
0.08938376605510711669921875000000000,
-0.04804568365216255187988281250000000,
-0.02181595936417579650878906250000000,
-0.00863125640898942947387695312500000,
0.00503920018672943115234375000000000,
0.07161054015159606933593750000000000,
0.07238262146711349487304687500000000,
-0.04343874379992485046386718750000000,
0.02935335412621498107910156250000000,
-0.00802943855524063110351562500000000,
0.02673099748790264129638671875000000,
-0.06914801895618438720703125000000000,
-0.08910059928894042968750000000000000,
0.05405658483505249023437500000000000,
-0.07983098179101943969726562500000000,
-0.08401398360729217529296875000000000,
0.08787440508604049682617187500000000,
0.08868217468261718750000000000000000,
-0.06354467570781707763671875000000000,
-0.04956534877419471740722656250000000,
-0.02656963467597961425781250000000000,
0.03355162590742111206054687500000000,
0.01650298200547695159912109375000000,
0.01486111339181661605834960937500000,
0.01682187803089618682861328125000000,
-0.07889852672815322875976562500000000,
-0.03694923967123031616210937500000000,
-0.00379997491836547851562500000000000,
0.09278797358274459838867187500000000,
-0.05436627939343452453613281250000000,
-0.03881103172898292541503906250000000,
-0.08976744860410690307617187500000000,
0.07818971574306488037109375000000000,
0.03645617142319679260253906250000000,
0.08674713969230651855468750000000000,
0.04852357879281044006347656250000000,
0.02701116353273391723632812500000000,
0.04546589404344558715820312500000000,
-0.08185569196939468383789062500000000,
-0.00823647994548082351684570312500000,
-0.00505015999078750610351562500000000,
0.01174054574221372604370117187500000,
0.03538476675748825073242187500000000,
-0.03877996280789375305175781250000000,
-0.07327995449304580688476562500000000,
0.04343149065971374511718750000000000,
0.07422567158937454223632812500000000,
-0.01273081451654434204101562500000000,
-0.01221460103988647460937500000000000,
0.01517458818852901458740234375000000,
-0.07644909620285034179687500000000000,
0.03649576753377914428710937500000000,
-0.02761305868625640869140625000000000,
0.02634096890687942504882812500000000,
-0.05868816003203392028808593750000000,
0.06086846813559532165527343750000000,
0.06149066984653472900390625000000000,
-0.03201203048229217529296875000000000,
0.03467915579676628112792968750000000,
0.02617135643959045410156250000000000,
-0.06129334121942520141601562500000000,
0.00932868942618370056152343750000000,
-0.00209017470479011535644531250000000,
-0.08814565837383270263671875000000000,
0.05046960338950157165527343750000000,
-0.07388760149478912353515625000000000,
-0.06256530433893203735351562500000000,
0.09023600816726684570312500000000000,
0.09996999800205230712890625000000000,
0.04896943271160125732421875000000000,
0.01558452844619750976562500000000000,
0.09174744784832000732421875000000000,
-0.08353273570537567138671875000000000,
0.05983223021030426025390625000000000,
0.01492925640195608139038085937500000,
0.07278247922658920288085937500000000,
0.05030625313520431518554687500000000,
0.00592861371114850044250488281250000,
-0.03984946012496948242187500000000000,
0.04955501109361648559570312500000000,
0.09516038000583648681640625000000000,
-0.09503228962421417236328125000000000,
0.07411649823188781738281250000000000,
0.10356990993022918701171875000000000,
-0.01326521486043930053710937500000000,
0.03567944094538688659667968750000000,
0.05247330665588378906250000000000000,
0.05767421424388885498046875000000000,
-0.05022100359201431274414062500000000,
-0.07728475332260131835937500000000000,
-0.02142150327563285827636718750000000,
0.08098646253347396850585937500000000,
0.06642416864633560180664062500000000,
0.04917315766215324401855468750000000,
0.09722680598497390747070312500000000,
-0.00843543652445077896118164062500000,
0.07174133509397506713867187500000000,
0.01512970123440027236938476562500000,
-0.09182043373584747314453125000000000,
0.08887588977813720703125000000000000,
0.01651105843484401702880859375000000,
0.02307236380875110626220703125000000,
0.02580263838171958923339843750000000,
0.09821876138448715209960937500000000,
-0.06225669384002685546875000000000000,
-0.07750084251165390014648437500000000,
-0.07911456376314163208007812500000000,
-0.08876551687717437744140625000000000,
-0.01263561379164457321166992187500000,
0.00539980083703994750976562500000000,
-0.01731338165700435638427734375000000,
0.02650948613882064819335937500000000,
-0.01025625038892030715942382812500000,
-0.07483606040477752685546875000000000,
0.07345377653837203979492187500000000,
0.02192830853164196014404296875000000,
-0.02059450373053550720214843750000000,
-0.08647233247756958007812500000000000,
0.06498097628355026245117187500000000,
-0.09271057695150375366210937500000000,
-0.07583668828010559082031250000000000,
0.09992124140262603759765625000000000,
0.02457891777157783508300781250000000,
-0.01139355730265378952026367187500000,
-0.07033120095729827880859375000000000,
0.01264040172100067138671875000000000,
0.08860015869140625000000000000000000,
-0.08143858611583709716796875000000000,
0.01478034909814596176147460937500000,
-0.03322824835777282714843750000000000,
0.01388621609658002853393554687500000,
0.09791930764913558959960937500000000,
0.07690282911062240600585937500000000,
0.06803169101476669311523437500000000,
-0.08656348288059234619140625000000000,
-0.07844877988100051879882812500000000,
-0.06518547236919403076171875000000000,
-0.07957591116428375244140625000000000,
-0.00340785831212997436523437500000000,
0.02242556028068065643310546875000000,
0.04364492744207382202148437500000000,
-0.06899180263280868530273437500000000,
0.03032936900854110717773437500000000,
-0.03192708641290664672851562500000000,
-0.03920505195856094360351562500000000,
-0.05117455124855041503906250000000000,
0.00561529397964477539062500000000000,
0.00998724810779094696044921875000000,
-0.04833665117621421813964843750000000,
0.01044038031250238418579101562500000,
0.07082033902406692504882812500000000,
0.05981511622667312622070312500000000,
-0.04254658147692680358886718750000000,
-0.04838675260543823242187500000000000,
0.06454957276582717895507812500000000,
0.02895708568394184112548828125000000,
0.02725449204444885253906250000000000,
-0.00924781244248151779174804687500000,
0.03896384686231613159179687500000000,
-0.07691723853349685668945312500000000,
-0.09309732168912887573242187500000000,
0.02780376374721527099609375000000000,
-0.04243174195289611816406250000000000,
-0.00739869102835655212402343750000000,
-0.03798454627394676208496093750000000,
0.05576461553573608398437500000000000,
0.06279837340116500854492187500000000,
0.02129821665585041046142578125000000,
0.09858801960945129394531250000000000,
-0.00148026237729936838150024414062500,
0.05070356279611587524414062500000000,
-0.02557029388844966888427734375000000,
0.03755345195531845092773437500000000,
0.01573453098535537719726562500000000,
-0.03261707723140716552734375000000000,
0.00516824424266815185546875000000000,
0.07382290810346603393554687500000000,
0.00684401579201221466064453125000000,
-0.01659768819808959960937500000000000,
-0.00834747403860092163085937500000000,
0.04444103315472602844238281250000000,
-0.04210777208209037780761718750000000,
0.04823351651430130004882812500000000,
0.03896773234009742736816406250000000,
-0.00775817502290010452270507812500000,
-0.03037775494158267974853515625000000,
0.06425668299198150634765625000000000,
0.02444077841937541961669921875000000,
0.09106797724962234497070312500000000,
0.07054301351308822631835937500000000,
0.03464583680033683776855468750000000,
0.08664669841527938842773437500000000,
0.04294639080762863159179687500000000,
0.04953009262681007385253906250000000,
-0.04138971120119094848632812500000000,
-0.03147883340716361999511718750000000,
0.01461759023368358612060546875000000,
0.03980382159352302551269531250000000,
0.08252435922622680664062500000000000,
-0.06579227000474929809570312500000000,
-0.08955906331539154052734375000000000,
-0.03726842999458312988281250000000000,
-0.07455684989690780639648437500000000,
0.02323849685490131378173828125000000,
-0.02581063657999038696289062500000000,
0.10277111083269119262695312500000000,
-0.04794710874557495117187500000000000,
0.05197281390428543090820312500000000,
0.04089150577783584594726562500000000,
0.01091059297323226928710937500000000,
0.02140746265649795532226562500000000,
-0.07181068509817123413085937500000000,
-0.06175721436738967895507812500000000,
-0.03561634942889213562011718750000000,
-0.00578043609857559204101562500000000,
-0.05779054388403892517089843750000000,
-0.08115369826555252075195312500000000,
0.06086944416165351867675781250000000,
0.04737883061170578002929687500000000,
0.05464956536889076232910156250000000,
0.07136709988117218017578125000000000,
0.06805909425020217895507812500000000,
-0.07515826821327209472656250000000000,
-0.06842348724603652954101562500000000,
-0.01465693581849336624145507812500000,
-0.00546809285879135131835937500000000,
-0.02731391228735446929931640625000000,
-0.02250885963439941406250000000000000,
-0.10098809003829956054687500000000000,
-0.07487942278385162353515625000000000,
0.06730284541845321655273437500000000,
-0.02176421880722045898437500000000000,
-0.08793903887271881103515625000000000,
-0.01739594899117946624755859375000000,
0.05701241642236709594726562500000000,
-0.02381146326661109924316406250000000,
0.07639739662408828735351562500000000,
0.06748563796281814575195312500000000,
0.02041599899530410766601562500000000,
-0.03663134574890136718750000000000000,
0.08487220853567123413085937500000000,
0.09362795203924179077148437500000000,
-0.00373864173889160156250000000000000,
-0.06528633832931518554687500000000000,
0.02510773390531539916992187500000000,
0.08307669311761856079101562500000000,
0.00598756223917007446289062500000000,
0.09179306030273437500000000000000000,
-0.05673264339566230773925781250000000,
-0.09970658272504806518554687500000000,
-0.01872107200324535369873046875000000,
0.03160084038972854614257812500000000,
-0.01231968402862548828125000000000000,
-0.09452277421951293945312500000000000,
0.07908054441213607788085937500000000,
-0.00350789166986942291259765625000000,
-0.08333768695592880249023437500000000,
0.04224850237369537353515625000000000,
0.08492679148912429809570312500000000,
-0.09707455337047576904296875000000000,
0.05889730900526046752929687500000000,
0.05402683094143867492675781250000000,
0.05678262189030647277832031250000000,
0.05454542860388755798339843750000000,
-0.00429956102743744850158691406250000,
-0.01307306997478008270263671875000000,
-0.02415928989648818969726562500000000,
-0.04740903526544570922851562500000000,
-0.04418642446398735046386718750000000,
0.02373506501317024230957031250000000,
0.02314978837966918945312500000000000,
-0.06675523519515991210937500000000000,
-0.06479986011981964111328125000000000,
-0.08887099474668502807617187500000000,
0.05803212523460388183593750000000000,
0.03292923420667648315429687500000000,
0.03633438795804977416992187500000000,
0.03233960643410682678222656250000000,
-0.08743530511856079101562500000000000,
0.06360728293657302856445312500000000,
0.01390293799340724945068359375000000,
0.06697674840688705444335937500000000,
-0.10014893859624862670898437500000000,
0.02683090046048164367675781250000000,
0.09417743235826492309570312500000000,
-0.07515756785869598388671875000000000,
0.09986103326082229614257812500000000,
-0.05432216450572013854980468750000000,
0.08286205679178237915039062500000000,
-0.02654995024204254150390625000000000,
0.00453011738136410713195800781250000,
0.07477570325136184692382812500000000,
0.08170150965452194213867187500000000,
-0.03075762093067169189453125000000000,
-0.05223784968256950378417968750000000,
-0.00986210908740758895874023437500000,
0.09039076417684555053710937500000000,
-0.05663754791021347045898437500000000,
0.09069270640611648559570312500000000,
0.06120133399963378906250000000000000,
-0.03019528463482856750488281250000000,
0.03929818049073219299316406250000000,
-0.06316863745450973510742187500000000,
0.07068578898906707763671875000000000,
-0.00496595911681652069091796875000000,
0.02197196893393993377685546875000000,
0.05429698899388313293457031250000000,
-0.07043113559484481811523437500000000,
0.04684197902679443359375000000000000,
0.00948518514633178710937500000000000,
-0.02323120459914207458496093750000000,
-0.01133459061384201049804687500000000,
0.07688760757446289062500000000000000,
0.08793919533491134643554687500000000,
-0.04258551821112632751464843750000000,
0.04531613364815711975097656250000000,
-0.07617946714162826538085937500000000,
-0.03437656909227371215820312500000000,
-0.03252998739480972290039062500000000,
-0.01313571445643901824951171875000000,
0.00316427764482796192169189453125000,
-0.06025296449661254882812500000000000,
0.08901884406805038452148437500000000,
0.07329839468002319335937500000000000,
-0.06185499206185340881347656250000000,
-0.07341313362121582031250000000000000,
0.02382205612957477569580078125000000,
0.01816631853580474853515625000000000,
-0.02738023176789283752441406250000000,
-0.00388722913339734077453613281250000,
0.00756039470434188842773437500000000,
-0.00549676455557346343994140625000000,
-0.07703512161970138549804687500000000,
0.08120523393154144287109375000000000,
0.09008301794528961181640625000000000,
0.07090792804956436157226562500000000,
-0.09227357059717178344726562500000000,
-0.00507760047912597656250000000000000,
-0.08803495019674301147460937500000000,
0.01331502292305231094360351562500000,
-0.06905964761972427368164062500000000,
-0.08469007164239883422851562500000000,
0.03646343201398849487304687500000000,
-0.04288736730813980102539062500000000,
-0.00156766176223754882812500000000000,
0.07562079280614852905273437500000000,
0.04217756539583206176757812500000000,
0.03570225834846496582031250000000000,
-0.04381451755762100219726562500000000,
-0.01173607259988784790039062500000000,
-0.02136478386819362640380859375000000,
-0.09195645153522491455078125000000000,
0.07981646806001663208007812500000000,
-0.07554902136325836181640625000000000,
-0.09432065486907958984375000000000000,
0.02055028825998306274414062500000000,
0.03107184171676635742187500000000000,
-0.06901440024375915527343750000000000,
-0.08623801916837692260742187500000000,
-0.03803706541657447814941406250000000,
0.08946979790925979614257812500000000,
-0.03921810165047645568847656250000000,
0.06136828288435935974121093750000000,
0.07017119973897933959960937500000000,
-0.05610812827944755554199218750000000,
0.07714970409870147705078125000000000,
0.00559522956609725952148437500000000,
-0.02612792141735553741455078125000000,
0.03663624078035354614257812500000000,
-0.06185113266110420227050781250000000,
0.07198747247457504272460937500000000,
-0.08915034681558609008789062500000000,
-0.09533131122589111328125000000000000,
0.07584328204393386840820312500000000,
-0.04248636215925216674804687500000000,
0.09101241081953048706054687500000000,
0.03674895316362380981445312500000000,
-0.06663464009761810302734375000000000,
0.04256362468004226684570312500000000,
0.01891876757144927978515625000000000,
0.00492374086752533912658691406250000,
-0.02863840013742446899414062500000000,
-0.01531306654214859008789062500000000,
-0.09549859911203384399414062500000000,
0.05760175734758377075195312500000000,
-0.06512176245450973510742187500000000,
-0.04175764322280883789062500000000000,
-0.06398176401853561401367187500000000,
-0.04506193473935127258300781250000000,
-0.02554080635309219360351562500000000,
-0.03318955004215240478515625000000000,
0.04035390168428421020507812500000000,
-0.02789136022329330444335937500000000,
0.09476753324270248413085937500000000,
-0.04072816297411918640136718750000000,
0.03835883364081382751464843750000000,
0.05272616073489189147949218750000000,
0.08845189213752746582031250000000000,
0.00750930840149521827697753906250000,
0.02241875417530536651611328125000000,
-0.07964833825826644897460937500000000,
-0.03934410586953163146972656250000000,
-0.03015985712409019470214843750000000,
-0.00231975479982793331146240234375000,
0.04391655325889587402343750000000000,
-0.09730808436870574951171875000000000,
-0.03277277946472167968750000000000000,
-0.07949656248092651367187500000000000,
0.06994742900133132934570312500000000,
-0.06849919259548187255859375000000000,
-0.02320975065231323242187500000000000,
-0.04198489338159561157226562500000000,
0.00578605616465210914611816406250000,
0.06234922632575035095214843750000000,
-0.05200439691543579101562500000000000,
0.09643664956092834472656250000000000,
0.00156128406524658203125000000000000,
-0.00174736569169908761978149414062500,
-0.02646772749722003936767578125000000,
-0.02619288861751556396484375000000000,
-0.03841753304004669189453125000000000,
-0.00436697574332356452941894531250000,
-0.01354242023080587387084960937500000,
0.04632335528731346130371093750000000,
-0.00615553883835673332214355468750000,
-0.08987601101398468017578125000000000,
-0.02171313762664794921875000000000000,
-0.04521849378943443298339843750000000,
-0.05183344334363937377929687500000000,
-0.06605061888694763183593750000000000,
0.09864282608032226562500000000000000,
-0.07196404784917831420898437500000000,
-0.09408999979496002197265625000000000,
-0.05550804361701011657714843750000000,
-0.07567182928323745727539062500000000,
-0.01555142831057310104370117187500000,
-0.05257669836282730102539062500000000,
0.01523266732692718505859375000000000,
-0.04527884721755981445312500000000000,
-0.04382261261343955993652343750000000,
-0.02812956273555755615234375000000000,
0.03388665616512298583984375000000000,
0.01382217556238174438476562500000000,
-0.09231604635715484619140625000000000,
0.00568777322769165039062500000000000,
-0.08171273767948150634765625000000000,
-0.08658858388662338256835937500000000,
0.08264159411191940307617187500000000,
-0.09447088092565536499023437500000000,
0.04942360520362854003906250000000000,
0.02067549899220466613769531250000000,
-0.01059738546609878540039062500000000,
0.09549724310636520385742187500000000,
0.09505731612443923950195312500000000,
0.03668301925063133239746093750000000,
-0.06483384966850280761718750000000000,
-0.09088180214166641235351562500000000,
0.06474530696868896484375000000000000,
0.01007746160030364990234375000000000,
-0.04696806892752647399902343750000000,
-0.05621946975588798522949218750000000,
0.03148021176457405090332031250000000,
0.08484130352735519409179687500000000,
-0.00566075881943106651306152343750000,
-0.08133221417665481567382812500000000,
0.01700920425355434417724609375000000,
-0.08164913952350616455078125000000000,
0.07110676169395446777343750000000000,
-0.05128367990255355834960937500000000,
0.05383074656128883361816406250000000,
-0.01243127882480621337890625000000000,
0.02852398902177810668945312500000000,
0.06038296967744827270507812500000000,
-0.16289860010147094726562500000000000,
-0.01328105479478836059570312500000000,
-0.04073618724942207336425781250000000,
0.05788096040487289428710937500000000,
0.01329891569912433624267578125000000,
-0.06159587949514389038085937500000000,
-0.06659510731697082519531250000000000,
0.04810024052858352661132812500000000,
-0.05625075101852416992187500000000000,
0.05270402505993843078613281250000000,
0.02829021960496902465820312500000000,
-0.08670505881309509277343750000000000,
0.03400859981775283813476562500000000,
0.03122922964394092559814453125000000,
0.08531515300273895263671875000000000,
0.00678585469722747802734375000000000,
0.06420803815126419067382812500000000,
-0.01740668714046478271484375000000000,
0.09297759085893630981445312500000000,
-0.04901429638266563415527343750000000,
0.03433556109666824340820312500000000,
-0.03547219932079315185546875000000000,
0.00147024460602551698684692382812500,
-0.12993256747722625732421875000000000,
0.03869924694299697875976562500000000,
-0.02472984604537487030029296875000000,
0.01976669207215309143066406250000000,
0.10273483395576477050781250000000000,
0.03747983276844024658203125000000000,
0.05925666540861129760742187500000000,
-0.05439907684922218322753906250000000,
-0.03902203962206840515136718750000000,
-0.04016821458935737609863281250000000,
-0.06445277482271194458007812500000000,
-0.02328257262706756591796875000000000,
-0.02665007673203945159912109375000000,
-0.05663601309061050415039062500000000,
-0.05747144296765327453613281250000000,
-0.01106534805148839950561523437500000,
0.05444216728210449218750000000000000,
0.06816244125366210937500000000000000,
0.08194071799516677856445312500000000,
-0.09463857114315032958984375000000000,
0.05798643454909324645996093750000000,
0.03525860980153083801269531250000000,
-0.09042901545763015747070312500000000,
0.09819408506155014038085937500000000,
-0.01020352728664875030517578125000000,
0.08309163153171539306640625000000000,
0.04816274717450141906738281250000000,
0.02691466547548770904541015625000000,
-0.08813184499740600585937500000000000,
-0.05696684122085571289062500000000000,
0.00640942994505167007446289062500000,
-0.08077265322208404541015625000000000,
0.00955008715391159057617187500000000,
0.04576729610562324523925781250000000,
0.05107105523347854614257812500000000,
0.01577663049101829528808593750000000,
-0.04235877469182014465332031250000000,
0.00212317449040710926055908203125000,
0.05318303778767585754394531250000000,
0.02612957917153835296630859375000000,
-0.08654379099607467651367187500000000,
0.06385112553834915161132812500000000,
-0.06536734104156494140625000000000000,
0.04046568647027015686035156250000000,
-0.01814962923526763916015625000000000,
0.09007998555898666381835937500000000,
0.06662590056657791137695312500000000,
0.03822050243616104125976562500000000,
-0.09094782173633575439453125000000000,
-0.02730743214488029479980468750000000,
0.04889177531003952026367187500000000,
0.09415803104639053344726562500000000,
-0.08884272724390029907226562500000000,
0.06320887804031372070312500000000000,
-0.02414709888398647308349609375000000,
-0.08572877943515777587890625000000000,
0.07157851010560989379882812500000000,
0.03338190168142318725585937500000000,
0.00988944154232740402221679687500000,
0.00284921750426292419433593750000000,
-0.04471052438020706176757812500000000,
-0.04715847596526145935058593750000000,
-0.07603856176137924194335937500000000,
-0.00251705525442957878112792968750000,
0.07044743746519088745117187500000000,
-0.08907739818096160888671875000000000,
-0.03815823793411254882812500000000000,
0.08127888292074203491210937500000000,
0.06033079326152801513671875000000000,
0.01158762443810701370239257812500000,
-0.03070755302906036376953125000000000,
-0.07099767774343490600585937500000000,
-0.02324149757623672485351562500000000,
-0.01579859666526317596435546875000000,
-0.00406147539615631103515625000000000,
0.02141990885138511657714843750000000,
-0.08347868919372558593750000000000000,
0.01664288341999053955078125000000000,
-0.06167851388454437255859375000000000,
0.02649547904729843139648437500000000,
-0.03156219422817230224609375000000000,
-0.07095316797494888305664062500000000,
0.01252663135528564453125000000000000,
-0.09285320341587066650390625000000000,
-0.07965152710676193237304687500000000,
-0.08438932150602340698242187500000000,
0.00186444411519914865493774414062500,
0.09735830128192901611328125000000000,
0.05713061988353729248046875000000000,
0.05851659178733825683593750000000000,
-0.04250746965408325195312500000000000,
0.07754073292016983032226562500000000,
0.03683692961931228637695312500000000,
0.05599405616521835327148437500000000,
-0.06374581158161163330078125000000000,
-0.06444767862558364868164062500000000,
0.05457276850938796997070312500000000,
-0.01374854333698749542236328125000000,
0.02163137309253215789794921875000000,
0.03205604851245880126953125000000000,
0.06640810519456863403320312500000000,
0.06082006171345710754394531250000000,
-0.04820709303021430969238281250000000,
0.09184311330318450927734375000000000,
-0.06242010742425918579101562500000000,
-0.01220769714564085006713867187500000,
0.03664299100637435913085937500000000,
0.07144620269536972045898437500000000,
-0.02046675421297550201416015625000000,
0.08759268373250961303710937500000000,
-0.02387186698615550994873046875000000,
0.00573857873678207397460937500000000,
-0.10082916915416717529296875000000000,
-0.05609755590558052062988281250000000,
0.05069815367460250854492187500000000,
0.05219772830605506896972656250000000,
0.00083638617070391774177551269531250,
0.04193827137351036071777343750000000,
-0.04618444666266441345214843750000000,
-0.09144987910985946655273437500000000,
0.01003636792302131652832031250000000,
0.08413318544626235961914062500000000,
-0.04011848941445350646972656250000000,
-0.01307807303965091705322265625000000,
-0.01804546080529689788818359375000000,
-0.04194497317075729370117187500000000,
0.00195687217637896537780761718750000,
-0.00346404453739523887634277343750000,
-0.01842381432652473449707031250000000,
-0.06995993852615356445312500000000000,
0.05453015491366386413574218750000000,
-0.03884711489081382751464843750000000,
0.06645803153514862060546875000000000,
-0.06387579441070556640625000000000000,
-0.05904009193181991577148437500000000,
-0.08988457918167114257812500000000000,
0.09935791790485382080078125000000000,
0.01238557882606983184814453125000000,
0.06894760578870773315429687500000000,
0.00062356266425922513008117675781250,
-0.07161170244216918945312500000000000,
0.04791528731584548950195312500000000,
-0.06390950828790664672851562500000000,
-0.09597323089838027954101562500000000,
0.02051146328449249267578125000000000,
0.08363547921180725097656250000000000,
-0.08807919174432754516601562500000000,
-0.09346578270196914672851562500000000,
-0.09965009987354278564453125000000000,
-0.05285537242889404296875000000000000,
0.03709065169095993041992187500000000,
0.08980778604745864868164062500000000,
0.02948636561632156372070312500000000,
0.07694036513566970825195312500000000,
0.04184854030609130859375000000000000,
0.02553165704011917114257812500000000,
0.02063123881816864013671875000000000,
0.02119108289480209350585937500000000,
0.08152413368225097656250000000000000,
-0.08417005091905593872070312500000000,
0.06210253760218620300292968750000000,
0.01030502095818519592285156250000000,
0.05360777303576469421386718750000000,
-0.01873949356377124786376953125000000,
0.06250865012407302856445312500000000,
-0.02070273645222187042236328125000000,
0.01136183459311723709106445312500000,
-0.09593070298433303833007812500000000,
0.04772333055734634399414062500000000,
-0.03023385815322399139404296875000000,
0.03754664212465286254882812500000000,
0.08217781037092208862304687500000000,
0.02871481701731681823730468750000000,
-0.07290783524513244628906250000000000,
0.08452319353818893432617187500000000,
-0.06746038049459457397460937500000000,
0.09578049927949905395507812500000000,
-0.06262720376253128051757812500000000,
0.04562238603830337524414062500000000,
0.07631630450487136840820312500000000,
-0.00870130956172943115234375000000000,
0.02609234489500522613525390625000000,
0.08130784332752227783203125000000000,
0.04419536143541336059570312500000000,
0.03280896320939064025878906250000000,
-0.01002143323421478271484375000000000,
-0.07433301210403442382812500000000000,
-0.03240342810750007629394531250000000,
0.03121876902878284454345703125000000,
-0.06384993344545364379882812500000000,
0.07506464421749114990234375000000000,
-0.01925406791269779205322265625000000,
-0.02267380803823471069335937500000000,
0.05697255581617355346679687500000000,
-0.02328984998166561126708984375000000,
0.08970267325639724731445312500000000,
0.06407012790441513061523437500000000,
0.08962075412273406982421875000000000,
0.05850140750408172607421875000000000,
0.07560396194458007812500000000000000,
-0.01638519577682018280029296875000000,
0.08945687860250473022460937500000000,
0.04885157570242881774902343750000000,
-0.02033262699842453002929687500000000,
0.04905008897185325622558593750000000,
-0.02668973244726657867431640625000000,
0.03168615326285362243652343750000000,
-0.01674346253275871276855468750000000,
0.08387181907892227172851562500000000,
0.06186852604150772094726562500000000,
-0.07996841520071029663085937500000000,
0.08223307877779006958007812500000000,
0.03518506512045860290527343750000000,
0.00947685539722442626953125000000000,
0.09113677591085433959960937500000000,
-0.07851906120777130126953125000000000,
0.09261082112789154052734375000000000,
-0.03166560828685760498046875000000000,
0.03035309165716171264648437500000000,
0.01601474732160568237304687500000000,
0.08863570541143417358398437500000000,
-0.05129871889948844909667968750000000,
-0.12651424109935760498046875000000000,
0.02492834255099296569824218750000000,
0.09612746536731719970703125000000000,
-0.08702628314495086669921875000000000,
0.05798461660742759704589843750000000,
-0.00755740795284509658813476562500000,
-0.05757831037044525146484375000000000,
-0.09936579316854476928710937500000000,
0.07298396527767181396484375000000000,
0.09597576409578323364257812500000000,
-0.02551955357193946838378906250000000,
0.05362555384635925292968750000000000,
-0.02567752264440059661865234375000000,
-0.01219815574586391448974609375000000,
-0.05923386290669441223144531250000000,
-0.04499806091189384460449218750000000,
-0.10055449604988098144531250000000000,
0.06082372367382049560546875000000000,
0.06094285100698471069335937500000000,
-0.08302146196365356445312500000000000,
0.01740451902151107788085937500000000,
-0.08472551405429840087890625000000000,
0.05164497345685958862304687500000000,
0.01952819526195526123046875000000000,
-0.02907204627990722656250000000000000,
-0.06968333572149276733398437500000000,
0.08420880883932113647460937500000000,
-0.08419914543628692626953125000000000,
-0.06499210000038146972656250000000000,
0.00763010419905185699462890625000000,
0.07978058606386184692382812500000000,
0.01328227575868368148803710937500000,
0.02129168808460235595703125000000000,
-0.01972433179616928100585937500000000,
0.04974285513162612915039062500000000,
-0.03859596326947212219238281250000000,
-0.03569042310118675231933593750000000,
-0.01539980433881282806396484375000000,
-0.06866039335727691650390625000000000,
0.05221435055136680603027343750000000,
0.02625902928411960601806640625000000,
0.06660517305135726928710937500000000,
-0.02458705008029937744140625000000000,
-0.07645408064126968383789062500000000,
0.09607940167188644409179687500000000,
0.02369288913905620574951171875000000,
-0.01128128636628389358520507812500000,
-0.01343323569744825363159179687500000,
0.08626908808946609497070312500000000,
0.07314162701368331909179687500000000,
0.07416431605815887451171875000000000,
-0.07028789818286895751953125000000000,
-0.05413606390357017517089843750000000,
-0.07328537851572036743164062500000000,
0.04909951239824295043945312500000000,
0.11667080968618392944335937500000000,
-0.07346653938293457031250000000000000,
0.01565486192703247070312500000000000,
-0.03046996891498565673828125000000000,
0.08913011848926544189453125000000000,
0.05031103640794754028320312500000000,
-0.07844517379999160766601562500000000,
0.07722005248069763183593750000000000,
0.09713142365217208862304687500000000,
0.06969062238931655883789062500000000,
-0.01098953280597925186157226562500000,
-0.04526690766215324401855468750000000,
0.01710050180554389953613281250000000,
-0.03717290610074996948242187500000000,
-0.04399463161826133728027343750000000,
-0.08689167350530624389648437500000000,
-0.09638657420873641967773437500000000,
-0.02677315659821033477783203125000000,
0.04466528445482254028320312500000000,
0.08777485042810440063476562500000000,
-0.00438249949365854263305664062500000,
0.05626640468835830688476562500000000,
0.01695134118199348449707031250000000,
-0.04420908913016319274902343750000000,
0.06089676171541213989257812500000000,
-0.03590612858533859252929687500000000,
-0.02067383006215095520019531250000000,
0.05186212435364723205566406250000000,
0.02439836598932743072509765625000000,
-0.03944177553057670593261718750000000,
0.05431856960058212280273437500000000,
0.08332201838493347167968750000000000,
0.00646499963477253913879394531250000,
-0.04257917776703834533691406250000000,
-0.06344743072986602783203125000000000,
-0.08986032009124755859375000000000000,
0.05082548409700393676757812500000000,
-0.06794259697198867797851562500000000,
0.04899018257856369018554687500000000,
0.09925387054681777954101562500000000,
-0.03413950279355049133300781250000000,
0.09054022282361984252929687500000000,
-0.03635762631893157958984375000000000,
0.00237270793877542018890380859375000,
0.08152385801076889038085937500000000,
0.05795498564839363098144531250000000,
0.09786576777696609497070312500000000,
0.05068081989884376525878906250000000,
0.01523273251950740814208984375000000,
-0.04864341020584106445312500000000000,
-0.02599928155541419982910156250000000,
-0.00608241325244307518005371093750000,
0.03453852981328964233398437500000000,
0.08921552449464797973632812500000000,
0.05999092012643814086914062500000000,
0.03849350288510322570800781250000000,
-0.06925713270902633666992187500000000,
-0.00102146225981414318084716796875000,
0.06576265394687652587890625000000000,
0.04490427672863006591796875000000000,
-0.08543856441974639892578125000000000,
0.04487183690071105957031250000000000,
0.06136443838477134704589843750000000,
0.08700890094041824340820312500000000,
-0.03289059549570083618164062500000000,
-0.00411020219326019287109375000000000,
-0.03784340247511863708496093750000000,
-0.04294174909591674804687500000000000,
-0.00194391293916851282119750976562500,
-0.03359428793191909790039062500000000,
0.07456166297197341918945312500000000,
0.01110734045505523681640625000000000,
-0.04834586381912231445312500000000000,
-0.09287814050912857055664062500000000,
0.08319210261106491088867187500000000,
-0.02991110086441040039062500000000000,
0.00695556960999965667724609375000000,
-0.01261208113282918930053710937500000,
-0.00048124790191650390625000000000000,
-0.05785001441836357116699218750000000,
0.00441695749759674072265625000000000,
0.05495080351829528808593750000000000,
-0.04047500342130661010742187500000000,
0.06635898351669311523437500000000000,
-0.03567501157522201538085937500000000,
0.06400907039642333984375000000000000,
0.00256167794577777385711669921875000,
0.07035361975431442260742187500000000,
0.03502826020121574401855468750000000,
-0.04878446459770202636718750000000000,
0.05000557750463485717773437500000000,
0.01163243316113948822021484375000000,
0.07630877941846847534179687500000000,
-0.01197590678930282592773437500000000,
-0.03693736344575881958007812500000000,
-0.05914954468607902526855468750000000,
-0.00453465897589921951293945312500000,
-0.08008112758398056030273437500000000,
-0.09241128712892532348632812500000000,
0.07776273041963577270507812500000000,
0.00764461653307080268859863281250000,
-0.05776586756110191345214843750000000,
0.08777750283479690551757812500000000,
-0.06651654839515686035156250000000000,
0.05765504390001296997070312500000000,
0.04832002520561218261718750000000000,
0.02519748359918594360351562500000000,
0.09465228021144866943359375000000000,
-0.03142224252223968505859375000000000,
-0.02269852720201015472412109375000000,
-0.00535925989970564842224121093750000,
-0.04640173912048339843750000000000000,
-0.00346981850452721118927001953125000,
-0.07185520231723785400390625000000000,
0.06466436386108398437500000000000000,
-0.07586445659399032592773437500000000,
-0.09158980846405029296875000000000000,
0.02885928191244602203369140625000000,
0.00025621801614761352539062500000000,
0.04645135253667831420898437500000000,
-0.06707987189292907714843750000000000,
-0.07241207361221313476562500000000000,
-0.05140074715018272399902343750000000,
0.00410116696730256080627441406250000,
0.07214631885290145874023437500000000,
-0.09513846039772033691406250000000000,
-0.02069133706390857696533203125000000,
0.01211236324161291122436523437500000,
-0.00041400842019356787204742431640625,
-0.01401517912745475769042968750000000,
0.06873025745153427124023437500000000,
-0.04511348530650138854980468750000000,
-0.02966473996639251708984375000000000,
-0.00072134431684389710426330566406250,
0.02947033196687698364257812500000000,
0.01391485054045915603637695312500000,
0.00146385282278060913085937500000000,
0.08873873949050903320312500000000000,
0.04166813939809799194335937500000000,
0.09997000545263290405273437500000000,
0.02882546558976173400878906250000000,
0.06376359611749649047851562500000000,
0.03419469669461250305175781250000000,
-0.07375817745923995971679687500000000,
-0.04799713566899299621582031250000000,
0.05164321139454841613769531250000000,
0.06776579469442367553710937500000000,
-0.07795912772417068481445312500000000,
0.09222739189863204956054687500000000,
0.08875165879726409912109375000000000,
-0.01709417439997196197509765625000000,
0.08886577188968658447265625000000000,
0.03946106880903244018554687500000000,
0.08059103041887283325195312500000000,
-0.04250871017575263977050781250000000,
-0.00840284861624240875244140625000000,
-0.10036282241344451904296875000000000,
0.08495628088712692260742187500000000,
0.00666041858494281768798828125000000,
-0.08606792241334915161132812500000000,
0.07587507367134094238281250000000000,
0.02869075164198875427246093750000000,
0.04979357123374938964843750000000000,
-0.04943429306149482727050781250000000,
0.02398283779621124267578125000000000,
0.02650029212236404418945312500000000,
-0.03562166914343833923339843750000000,
-0.04133731126785278320312500000000000,
-0.04761875793337821960449218750000000,
-0.06543578207492828369140625000000000,
-0.05331605672836303710937500000000000,
-0.06937775760889053344726562500000000,
-0.06151412427425384521484375000000000,
-0.00900708138942718505859375000000000,
-0.01233213581144809722900390625000000,
0.01846358925104141235351562500000000,
-0.04553395882248878479003906250000000,
-0.09657208621501922607421875000000000,
0.07782150059938430786132812500000000,
-0.05024097114801406860351562500000000,
-0.03356520086526870727539062500000000,
-0.07799945026636123657226562500000000,
-0.04311610758304595947265625000000000,
-0.05422483384609222412109375000000000,
0.08340360224246978759765625000000000,
-0.06470602005720138549804687500000000,
-0.02992001362144947052001953125000000,
-0.05883920192718505859375000000000000,
0.05890488252043724060058593750000000,
0.02093126624822616577148437500000000,
0.07854170352220535278320312500000000,
-0.04655999690294265747070312500000000,
-0.04911891743540763854980468750000000,
0.01991786062717437744140625000000000,
0.08288329839706420898437500000000000,
0.09531937539577484130859375000000000,
0.08791548013687133789062500000000000,
-0.06453867256641387939453125000000000,
-0.04716628044843673706054687500000000,
0.03772795945405960083007812500000000,
0.02468387037515640258789062500000000,
-0.09202994406223297119140625000000000,
-0.04454350471496582031250000000000000,
0.09114275127649307250976562500000000,
0.05014077201485633850097656250000000,
0.03176934272050857543945312500000000,
-0.07043470442295074462890625000000000,
0.02686444669961929321289062500000000,
-0.08810780197381973266601562500000000,
-0.04113107919692993164062500000000000,
0.03332274034619331359863281250000000,
0.07106935232877731323242187500000000,
-0.09105124324560165405273437500000000,
0.10190276056528091430664062500000000,
-0.09833852201700210571289062500000000,
0.06208618730306625366210937500000000,
-0.00015421956777572631835937500000000,
-0.06680620461702346801757812500000000,
0.02651157230138778686523437500000000,
0.05450753122568130493164062500000000,
-0.09208333492279052734375000000000000,
-0.03783630579710006713867187500000000,
-0.09140691161155700683593750000000000,
-0.04608334973454475402832031250000000,
0.04379840195178985595703125000000000,
0.02629049867391586303710937500000000,
-0.07109555602073669433593750000000000,
-0.04078365117311477661132812500000000,
-0.04572762921452522277832031250000000,
0.02622230909764766693115234375000000,
0.03846506774425506591796875000000000,
-0.06258728355169296264648437500000000,
0.02164987474679946899414062500000000,
-0.03017537854611873626708984375000000,
-0.05413103103637695312500000000000000,
0.09710556268692016601562500000000000,
0.09214455634355545043945312500000000,
-0.05071615055203437805175781250000000,
0.00569447362795472145080566406250000,
-0.09567265212535858154296875000000000,
0.04766893386840820312500000000000000,
-0.03960932418704032897949218750000000,
-0.08142637461423873901367187500000000,
-0.12796780467033386230468750000000000,
-0.02713943645358085632324218750000000,
0.07325682789087295532226562500000000,
0.08715248852968215942382812500000000,
0.01811272464692592620849609375000000,
0.04649799689650535583496093750000000,
-0.05063519254326820373535156250000000,
-0.10040880739688873291015625000000000,
0.05771267414093017578125000000000000,
-0.01677782833576202392578125000000000,
-0.02250987477600574493408203125000000,
-0.00077652931213378906250000000000000,
-0.07226596027612686157226562500000000,
0.00319362967275083065032958984375000,
-0.09630635380744934082031250000000000,
-0.06548596173524856567382812500000000,
-0.09612929075956344604492187500000000,
-0.03325262665748596191406250000000000,
-0.01098688133060932159423828125000000,
0.06515894085168838500976562500000000,
-0.02259918302297592163085937500000000,
0.04990565031766891479492187500000000,
0.04941005259752273559570312500000000,
-0.01926820911467075347900390625000000,
0.07289143651723861694335937500000000,
-0.07368098199367523193359375000000000,
0.01984463632106781005859375000000000,
-0.08577199280261993408203125000000000,
0.08686437457799911499023437500000000,
0.03783736005425453186035156250000000,
-0.01885525882244110107421875000000000,
0.09251088649034500122070312500000000,
-0.08680059760808944702148437500000000,
-0.00408200081437826156616210937500000,
0.02179247140884399414062500000000000,
-0.01840404421091079711914062500000000,
0.00559973716735839843750000000000000,
-0.02443566173315048217773437500000000,
-0.00440593948587775230407714843750000,
0.07323146611452102661132812500000000,
-0.03797375410795211791992187500000000,
-0.03307760879397392272949218750000000,
0.08243096619844436645507812500000000,
-0.05961873382329940795898437500000000,
-0.03687908500432968139648437500000000,
-0.01644226163625717163085937500000000,
-0.07503440231084823608398437500000000,
-0.07939033210277557373046875000000000,
-0.10303629934787750244140625000000000,
-0.07667202502489089965820312500000000,
-0.07530687004327774047851562500000000,
0.02363434806466102600097656250000000,
-0.08869091421365737915039062500000000,
-0.08717279136180877685546875000000000,
-0.07577736675739288330078125000000000,
-0.10053621232509613037109375000000000,
0.08725471049547195434570312500000000,
-0.06522959470748901367187500000000000,
0.02641160599887371063232421875000000,
0.07822311669588088989257812500000000,
0.02144793421030044555664062500000000,
0.08851633220911026000976562500000000,
-0.08921513706445693969726562500000000,
-0.08245933055877685546875000000000000,
0.08760612457990646362304687500000000,
0.05393344908952713012695312500000000,
0.06472159177064895629882812500000000,
0.01435201987624168395996093750000000,
0.05916376784443855285644531250000000,
-0.04030305519700050354003906250000000,
-0.08850798755884170532226562500000000,
0.00630241120234131813049316406250000,
-0.09243663400411605834960937500000000,
-0.04255329445004463195800781250000000,
0.01619323901832103729248046875000000,
0.08904559165239334106445312500000000,
-0.04538181051611900329589843750000000,
0.06421405822038650512695312500000000,
0.08280993998050689697265625000000000,
0.05872406437993049621582031250000000,
0.01916520111262798309326171875000000,
0.05996169522404670715332031250000000,
0.08525419235229492187500000000000000,
-0.08114747703075408935546875000000000,
-0.00389898451976478099822998046875000,
-0.00140201079193502664566040039062500,
0.09633231163024902343750000000000000,
0.05974894016981124877929687500000000,
0.06929356604814529418945312500000000,
0.08213958144187927246093750000000000,
0.06195323541760444641113281250000000,
0.00357301533222198486328125000000000,
-0.08294393122196197509765625000000000,
-0.03374759107828140258789062500000000,
0.03963410109281539916992187500000000,
0.04373724386096000671386718750000000,
-0.00259369518607854843139648437500000,
0.06228405237197875976562500000000000,
-0.00764802843332290649414062500000000,
0.05693969130516052246093750000000000,
0.00767673226073384284973144531250000,
0.01423733588308095932006835937500000,
-0.02789474092423915863037109375000000,
-0.05834184959530830383300781250000000,
-0.06479495763778686523437500000000000,
-0.02259744517505168914794921875000000,
-0.06842224299907684326171875000000000,
0.01634880155324935913085937500000000,
0.06752120703458786010742187500000000,
0.04253954440355300903320312500000000,
0.08681786060333251953125000000000000,
0.01816791296005249023437500000000000,
0.07487818598747253417968750000000000,
-0.07710453867912292480468750000000000,
0.05506539344787597656250000000000000,
-0.04228089749813079833984375000000000,
-0.05061352252960205078125000000000000,
-0.09832329303026199340820312500000000,
0.08084011077880859375000000000000000,
-0.08085583150386810302734375000000000,
0.07017355412244796752929687500000000,
0.03393777459859848022460937500000000,
-0.04037947580218315124511718750000000,
-0.05118570849299430847167968750000000,
-0.03265470266342163085937500000000000,
-0.03472600132226943969726562500000000,
0.02476765960454940795898437500000000,
0.04350148886442184448242187500000000,
-0.02457706630229949951171875000000000,
-0.08453240245580673217773437500000000,
-0.07321579754352569580078125000000000,
-0.08896218240261077880859375000000000,
-0.09968689829111099243164062500000000,
0.02845875173807144165039062500000000,
0.07423465698957443237304687500000000,
0.08460029214620590209960937500000000,
-0.01395268738269805908203125000000000,
-0.00466897338628768920898437500000000,
0.03228706121444702148437500000000000,
0.03513546660542488098144531250000000,
-0.08081809431314468383789062500000000,
0.06249194592237472534179687500000000,
0.04393833130598068237304687500000000,
0.04304725304245948791503906250000000,
-0.07768587768077850341796875000000000,
0.00443401373922824859619140625000000,
-0.05570027232170104980468750000000000,
0.06937938183546066284179687500000000,
-0.04187731072306632995605468750000000,
0.02815298549830913543701171875000000,
0.00851348787546157836914062500000000,
0.03038919530808925628662109375000000,
0.08806522190570831298828125000000000,
-0.01334874238818883895874023437500000,
0.00042922794818878173828125000000000,
0.07965759187936782836914062500000000,
0.07110542804002761840820312500000000,
0.01699355244636535644531250000000000,
-0.01972278207540512084960937500000000,
0.00979574024677276611328125000000000,
-0.03680112212896347045898437500000000,
0.10174531489610671997070312500000000,
-0.00593980913981795310974121093750000,
0.01363638788461685180664062500000000,
0.07123300433158874511718750000000000,
0.07784270495176315307617187500000000,
-0.02884911745786666870117187500000000,
-0.09222350269556045532226562500000000,
0.07248852401971817016601562500000000,
0.02807823196053504943847656250000000,
-0.05976965650916099548339843750000000,
0.05101453512907028198242187500000000,
0.04139366000890731811523437500000000,
0.06372674554586410522460937500000000,
-0.03213522583246231079101562500000000,
0.04429096728563308715820312500000000,
-0.03059317171573638916015625000000000,
-0.06255549192428588867187500000000000,
0.09683436900377273559570312500000000,
0.00044952949974685907363891601562500,
0.00027794713969342410564422607421875,
0.03488440066576004028320312500000000,
-0.03088520281016826629638671875000000,
-0.00307917664758861064910888671875000,
0.01709783077239990234375000000000000,
0.04931874200701713562011718750000000,
-0.07943839579820632934570312500000000,
0.04987912997603416442871093750000000,
0.03649722039699554443359375000000000,
-0.01426539570093154907226562500000000,
-0.07005064189434051513671875000000000,
0.00109992921352386474609375000000000,
0.02705143019556999206542968750000000,
-0.07560446113348007202148437500000000,
0.01276188530027866363525390625000000,
0.09798651933670043945312500000000000,
0.03745603933930397033691406250000000,
0.07450540363788604736328125000000000,
0.05129060894250869750976562500000000,
0.07936492562294006347656250000000000,
-0.07445631176233291625976562500000000,
0.03690580651164054870605468750000000,
0.08617179095745086669921875000000000,
0.05702206864953041076660156250000000,
-0.02824018523097038269042968750000000,
-0.00302700558677315711975097656250000,
-0.08751781284809112548828125000000000,
0.09192625433206558227539062500000000,
-0.08318172395229339599609375000000000,
0.04825294762849807739257812500000000,
-0.01992707699537277221679687500000000,
-0.07965608686208724975585937500000000,
-0.02193020656704902648925781250000000,
-0.08074765652418136596679687500000000,
0.02494465187191963195800781250000000,
0.02219258993864059448242187500000000,
-0.00943582318723201751708984375000000,
-0.05656231567263603210449218750000000,
-0.01130483299493789672851562500000000,
-0.08997591584920883178710937500000000,
-0.01647819578647613525390625000000000,
-0.08853329718112945556640625000000000,
-0.08744332939386367797851562500000000,
-0.02443735487759113311767578125000000,
0.09600750356912612915039062500000000,
0.07439293712377548217773437500000000,
0.04009660333395004272460937500000000,
0.09663603454828262329101562500000000,
-0.01761789619922637939453125000000000,
0.00559703726321458816528320312500000,
0.04725790768861770629882812500000000,
-0.09991913288831710815429687500000000,
0.09176892787218093872070312500000000,
