-0.31052938103675842285156250000000000,
-0.31439790129661560058593750000000000,
0.30704882740974426269531250000000000,
0.29200699925422668457031250000000000,
-0.22991505265235900878906250000000000,
-0.00426453351974487304687500000000000,
0.07204017043113708496093750000000000,
0.21328553557395935058593750000000000,
-0.25266376137733459472656250000000000,
-0.14271356165409088134765625000000000,
0.28916105628013610839843750000000000,
0.01140496879816055297851562500000000,
0.31795534491539001464843750000000000,
-0.03868497908115386962890625000000000,
-0.17773309350013732910156250000000000,
0.25915390253067016601562500000000000,
-0.02342011220753192901611328125000000,
-0.13385336101055145263671875000000000,
0.24290671944618225097656250000000000,
0.26556253433227539062500000000000000,
-0.00677696848288178443908691406250000,
0.36091294884681701660156250000000000,
-0.23733307421207427978515625000000000,
0.37341019511222839355468750000000000,
-0.20052990317344665527343750000000000,
-0.15982282161712646484375000000000000,
0.34626963734626770019531250000000000,
0.09273174405097961425781250000000000,
-0.34222882986068725585937500000000000,
0.27099105715751647949218750000000000,
-0.06841304898262023925781250000000000,
-0.31134605407714843750000000000000000,
0.13047230243682861328125000000000000,
0.00300604081712663173675537109375000,
0.04279303550720214843750000000000000,
-0.26989442110061645507812500000000000,
0.05555815994739532470703125000000000,
0.03886186331510543823242187500000000,
-0.32876926660537719726562500000000000,
0.28890466690063476562500000000000000,
-0.00317952036857604980468750000000000,
0.26235458254814147949218750000000000,
0.09537118673324584960937500000000000,
-0.31935232877731323242187500000000000,
-0.30697503685951232910156250000000000,
-0.35270830988883972167968750000000000,
0.27465322613716125488281250000000000,
0.34836778044700622558593750000000000,
0.12760533392429351806640625000000000,
0.07815637439489364624023437500000000,
0.07748351991176605224609375000000000,
0.33091834187507629394531250000000000,
0.14339028298854827880859375000000000,
0.15616092085838317871093750000000000,
0.01322410907596349716186523437500000,
-0.28408730030059814453125000000000000,
0.01798447407782077789306640625000000,
0.13630448281764984130859375000000000,
0.03123106434941291809082031250000000,
-0.21197971701622009277343750000000000,
0.21992535889148712158203125000000000,
-0.36479637026786804199218750000000000,
0.04377072677016258239746093750000000,
0.13746586441993713378906250000000000,
0.34719741344451904296875000000000000,
-0.08618851006031036376953125000000000,
0.12040065228939056396484375000000000,
0.02309224754571914672851562500000000,
0.27261295914649963378906250000000000,
-0.24497893452644348144531250000000000,
-0.12558199465274810791015625000000000,
-0.25060474872589111328125000000000000,
0.01569106616079807281494140625000000,
-0.23316816985607147216796875000000000,
0.30679962038993835449218750000000000,
-0.07062195241451263427734375000000000,
0.20606143772602081298828125000000000,
0.03817172348499298095703125000000000,
0.27305343747138977050781250000000000,
-0.32388290762901306152343750000000000,
0.30316609144210815429687500000000000,
0.01729755103588104248046875000000000,
-0.24911844730377197265625000000000000,
0.09890478849411010742187500000000000,
-0.12184362858533859252929687500000000,
-0.09103515744209289550781250000000000,
0.35332259535789489746093750000000000,
0.23792411386966705322265625000000000,
-0.18253792822360992431640625000000000,
-0.12751220166683197021484375000000000,
0.31932622194290161132812500000000000,
-0.36038705706596374511718750000000000,
-0.20865163207054138183593750000000000,
0.27198597788810729980468750000000000,
-0.21558414399623870849609375000000000,
-0.22925530374050140380859375000000000,
-0.20463028550148010253906250000000000,
0.32078635692596435546875000000000000,
-0.30655008554458618164062500000000000,
0.14529156684875488281250000000000000,
0.14439675211906433105468750000000000,
0.12215132266283035278320312500000000,
-0.16154995560646057128906250000000000,
0.03989414125680923461914062500000000,
0.29036641120910644531250000000000000,
0.32330095767974853515625000000000000,
0.07138510048389434814453125000000000,
-0.21727743744850158691406250000000000,
-0.06953122466802597045898437500000000,
-0.34021207690238952636718750000000000,
-0.16307729482650756835937500000000000,
0.07313503324985504150390625000000000,
-0.12389890849590301513671875000000000,
0.05241414159536361694335937500000000,
0.27823260426521301269531250000000000,
0.02844396606087684631347656250000000,
0.21430975198745727539062500000000000,
0.26878267526626586914062500000000000,
0.39093786478042602539062500000000000,
0.24134191870689392089843750000000000,
0.07761493325233459472656250000000000,
-0.10924977064132690429687500000000000,
0.03344035148620605468750000000000000,
0.06490042805671691894531250000000000,
-0.12450355291366577148437500000000000,
-0.24677008390426635742187500000000000,
-0.01145926117897033691406250000000000,
0.24443832039833068847656250000000000,
-0.27717566490173339843750000000000000,
0.01097616739571094512939453125000000,
0.32242569327354431152343750000000000,
-0.16717904806137084960937500000000000,
0.35674470663070678710937500000000000,
-0.16925045847892761230468750000000000,
-0.18326386809349060058593750000000000,
-0.28829276561737060546875000000000000,
-0.27559655904769897460937500000000000,
-0.27359974384307861328125000000000000,
-0.26671734452247619628906250000000000,
0.21500304341316223144531250000000000,
-0.16463397443294525146484375000000000,
-0.23791211843490600585937500000000000,
0.04969289898872375488281250000000000,
-0.33855196833610534667968750000000000,
0.04815509915351867675781250000000000,
0.04423776268959045410156250000000000,
0.14219000935554504394531250000000000,
0.34606906771659851074218750000000000,
-0.34009522199630737304687500000000000,
-0.05865004658699035644531250000000000,
-0.33399623632431030273437500000000000,
-0.13479772210121154785156250000000000,
0.17367966473102569580078125000000000,
0.09531406313180923461914062500000000,
0.22465120255947113037109375000000000,
-0.28763437271118164062500000000000000,
0.14613658189773559570312500000000000,
0.04220193624496459960937500000000000,
-0.23634965717792510986328125000000000,
0.07440615445375442504882812500000000,
