-0.20713871717453002929687500000000000,
-0.11224617063999176025390625000000000,
0.02314215898513793945312500000000000,
-0.17680329084396362304687500000000000,
-0.10876052826642990112304687500000000,
-0.15063971281051635742187500000000000,
0.01286475546658039093017578125000000,
0.18038570880889892578125000000000000,
-0.24122935533523559570312500000000000,
0.17187847197055816650390625000000000,
0.08471116423606872558593750000000000,
-0.20133975148200988769531250000000000,
-0.05893878638744354248046875000000000,
-0.05017848685383796691894531250000000,
-0.07880528271198272705078125000000000,
-0.21618741750717163085937500000000000,
0.02743836678564548492431640625000000,
-0.06566014885902404785156250000000000,
-0.01376274228096008300781250000000000,
-0.05159487202763557434082031250000000,
-0.02774848043918609619140625000000000,
0.09203993529081344604492187500000000,
-0.02970035932958126068115234375000000,
-0.02320837974548339843750000000000000,
-0.06909140944480895996093750000000000,
-0.16131138801574707031250000000000000,
-0.01870590634644031524658203125000000,
0.02420086972415447235107421875000000,
0.11127714067697525024414062500000000,
-0.18162129819393157958984375000000000,
0.14376893639564514160156250000000000,
-0.16391786932945251464843750000000000,
-0.12823663651943206787109375000000000,
0.18042671680450439453125000000000000,
-0.01008250471204519271850585937500000,
-0.17020323872566223144531250000000000,
-0.15927630662918090820312500000000000,
0.19258359074592590332031250000000000,
0.00731909275054931640625000000000000,
0.13226824998855590820312500000000000,
0.13272985816001892089843750000000000,
0.13395699858665466308593750000000000,
0.02107144333422183990478515625000000,
-0.12211004644632339477539062500000000,
0.19720435142517089843750000000000000,
-0.22124242782592773437500000000000000,
-0.08026248216629028320312500000000000,
0.09727897495031356811523437500000000,
0.15791974961757659912109375000000000,
-0.10700510442256927490234375000000000,
-0.17653360962867736816406250000000000,
0.11118040978908538818359375000000000,
0.15142033994197845458984375000000000,
0.17140263319015502929687500000000000,
0.12295927852392196655273437500000000,
-0.06533826887607574462890625000000000,
-0.23455567657947540283203125000000000,
0.04776656627655029296875000000000000,
0.16341599822044372558593750000000000,
0.20548802614212036132812500000000000,
0.01777733862400054931640625000000000,
-0.14651863276958465576171875000000000,
0.16706436872482299804687500000000000,
0.18984982371330261230468750000000000,
-0.05365654826164245605468750000000000,
-0.14281040430068969726562500000000000,
-0.03647261857986450195312500000000000,
0.08404973149299621582031250000000000,
-0.05504116415977478027343750000000000,
0.03273713588714599609375000000000000,
-0.03536938130855560302734375000000000,
-0.17107404768466949462890625000000000,
0.03891190886497497558593750000000000,
0.16661551594734191894531250000000000,
-0.06754574179649353027343750000000000,
-0.15749005973339080810546875000000000,
0.03876686096191406250000000000000000,
0.16277143359184265136718750000000000,
-0.15857544541358947753906250000000000,
0.00504769384860992431640625000000000,
-0.10059862583875656127929687500000000,
-0.07765416800975799560546875000000000,
-0.05498223006725311279296875000000000,
0.05946561694145202636718750000000000,
-0.02296796441078186035156250000000000,
0.13256663084030151367187500000000000,
-0.10924812406301498413085937500000000,
-0.08513212203979492187500000000000000,
0.11142551898956298828125000000000000,
-0.20720468461513519287109375000000000,
-0.15305359661579132080078125000000000,
-0.19669821858406066894531250000000000,
0.18385496735572814941406250000000000,
0.01080355048179626464843750000000000,
0.04743391275405883789062500000000000,
-0.06540715694427490234375000000000000,
-0.07020045816898345947265625000000000,
-0.01443508267402648925781250000000000,
0.13366225361824035644531250000000000,
-0.15705838799476623535156250000000000,
-0.16087338328361511230468750000000000,
0.18662187457084655761718750000000000,
-0.06822338700294494628906250000000000,
0.06183072924613952636718750000000000,
-0.13635240495204925537109375000000000,
0.11551168560981750488281250000000000,
0.06514051556587219238281250000000000,
-0.16773174703121185302734375000000000,
-0.16540379822254180908203125000000000,
-0.16217949986457824707031250000000000,
0.02980136871337890625000000000000000,
-0.12635968625545501708984375000000000,
-0.06145635247230529785156250000000000,
-0.10099454969167709350585937500000000,
0.08759075403213500976562500000000000,
0.15111070871353149414062500000000000,
0.02664732933044433593750000000000000,
0.04469856619834899902343750000000000,
0.06331264972686767578125000000000000,
0.03812614083290100097656250000000000,
-0.06792561709880828857421875000000000,
-0.02251709066331386566162109375000000,
-0.04073149710893630981445312500000000,
-0.05739536881446838378906250000000000,
0.11681409180164337158203125000000000,
-0.22330550849437713623046875000000000,
-0.20668829977512359619140625000000000,
-0.06551923602819442749023437500000000,
-0.20239086449146270751953125000000000,
0.05128830671310424804687500000000000,
-0.08803123980760574340820312500000000,
-0.22616061568260192871093750000000000,
0.07101473212242126464843750000000000,
0.11190338432788848876953125000000000,
0.06155212968587875366210937500000000,
-0.11744605004787445068359375000000000,
-0.05771934241056442260742187500000000,
-0.04716295003890991210937500000000000,
0.12424877285957336425781250000000000,
0.00524190487340092658996582031250000,
-0.12424543499946594238281250000000000,
-0.12969146668910980224609375000000000,
0.22380915284156799316406250000000000,
-0.05377502739429473876953125000000000,
0.03140950947999954223632812500000000,
-0.10756706446409225463867187500000000,
-0.12425785511732101440429687500000000,
0.04132187366485595703125000000000000,
-0.03296481072902679443359375000000000,
-0.16437365114688873291015625000000000,
-0.00859860237687826156616210937500000,
-0.15078443288803100585937500000000000,
0.04478243738412857055664062500000000,
0.15844252705574035644531250000000000,
0.12275166064500808715820312500000000,
0.11452016234397888183593750000000000,
0.05279423296451568603515625000000000,
-0.22104842960834503173828125000000000,
-0.18475550413131713867187500000000000,
0.08092448115348815917968750000000000,
0.07202580571174621582031250000000000,
0.04039337113499641418457031250000000,
-0.19227679073810577392578125000000000,
0.06642925739288330078125000000000000,
-0.12293135374784469604492187500000000,
-0.04452416300773620605468750000000000,
0.05298186093568801879882812500000000,
0.05138675123453140258789062500000000,
0.11484618484973907470703125000000000,
0.06892696768045425415039062500000000,
0.08242903649806976318359375000000000,
0.20751307904720306396484375000000000,
-0.06187899410724639892578125000000000,
0.14835833013057708740234375000000000,
-0.21409209072589874267578125000000000,
-0.00133527815341949462890625000000000,
0.14872610569000244140625000000000000,
0.07971137762069702148437500000000000,
-0.12746880948543548583984375000000000,
-0.12097173929214477539062500000000000,
0.21831887960433959960937500000000000,
-0.03845077753067016601562500000000000,
-0.19856657087802886962890625000000000,
0.20115855336189270019531250000000000,
-0.11850047856569290161132812500000000,
-0.06959861516952514648437500000000000,
0.09293671697378158569335937500000000,
-0.09955547004938125610351562500000000,
0.10540169477462768554687500000000000,
-0.23132319748401641845703125000000000,
-0.22683842480182647705078125000000000,
0.15143248438835144042968750000000000,
0.18272022902965545654296875000000000,
0.06553161144256591796875000000000000,
-0.08115451037883758544921875000000000,
-0.00496457517147064208984375000000000,
0.11086656898260116577148437500000000,
-0.17206594347953796386718750000000000,
-0.00077256560325622558593750000000000,
-0.06398165971040725708007812500000000,
0.11808890104293823242187500000000000,
0.12267111986875534057617187500000000,
0.21213391423225402832031250000000000,
-0.21280753612518310546875000000000000,
0.15065781772136688232421875000000000,
-0.10142101347446441650390625000000000,
0.09374991059303283691406250000000000,
-0.10324394702911376953125000000000000,
0.20987096428871154785156250000000000,
-0.14585167169570922851562500000000000,
-0.09783492982387542724609375000000000,
-0.14921192824840545654296875000000000,
0.10555058717727661132812500000000000,
-0.12675020098686218261718750000000000,
0.04529923200607299804687500000000000,
0.00726149976253509521484375000000000,
0.14286008477210998535156250000000000,
0.07817575335502624511718750000000000,
0.18509277701377868652343750000000000,
-0.19419977068901062011718750000000000,
-0.08750687539577484130859375000000000,
0.01264904905110597610473632812500000,
-0.13254135847091674804687500000000000,
-0.05824139714241027832031250000000000,
-0.13180039823055267333984375000000000,
0.09847706556320190429687500000000000,
0.12107946723699569702148437500000000,
-0.22559618949890136718750000000000000,
0.07746706157922744750976562500000000,
-0.13165076076984405517578125000000000,
-0.17041479051113128662109375000000000,
0.08935929834842681884765625000000000,
-0.09993533790111541748046875000000000,
0.06437417864799499511718750000000000,
0.08559723198413848876953125000000000,
-0.03752161562442779541015625000000000,
0.00159454869572073221206665039062500,
0.05398675799369812011718750000000000,
0.11968415975570678710937500000000000,
-0.08534602075815200805664062500000000,
-0.18093082308769226074218750000000000,
0.19667661190032958984375000000000000,
0.15218399465084075927734375000000000,
-0.11461627483367919921875000000000000,
-0.19682407379150390625000000000000000,
0.08064094185829162597656250000000000,
0.20063082873821258544921875000000000,
-0.15194265544414520263671875000000000,
0.02106902934610843658447265625000000,
0.13848952949047088623046875000000000,
0.12301485985517501831054687500000000,
0.15040799975395202636718750000000000,
0.23528289794921875000000000000000000,
0.03789367154240608215332031250000000,
0.20924678444862365722656250000000000,
-0.01417507231235504150390625000000000,
0.03961037844419479370117187500000000,
0.09546715021133422851562500000000000,
-0.20555287599563598632812500000000000,
-0.19980072975158691406250000000000000,
-0.11602467298507690429687500000000000,
0.05884243547916412353515625000000000,
0.00487795053049921989440917968750000,
-0.09650021791458129882812500000000000,
-0.02263907901942729949951171875000000,
0.16852408647537231445312500000000000,
-0.12129893153905868530273437500000000,
0.14832536876201629638671875000000000,
-0.19877764582633972167968750000000000,
-0.01952692121267318725585937500000000,
0.08859567344188690185546875000000000,
-0.15226937830448150634765625000000000,
0.08138665556907653808593750000000000,
-0.03392349556088447570800781250000000,
0.14838398993015289306640625000000000,
-0.06030865013599395751953125000000000,
-0.01368119288235902786254882812500000,
-0.11590181291103363037109375000000000,
-0.07108888030052185058593750000000000,
0.12661273777484893798828125000000000,
0.10031792521476745605468750000000000,
0.15364147722721099853515625000000000,
-0.11008528620004653930664062500000000,
0.15706709027290344238281250000000000,
-0.05004194006323814392089843750000000,
0.18845558166503906250000000000000000,
0.15285137295722961425781250000000000,
-0.03950961306691169738769531250000000,
-0.05170927196741104125976562500000000,
0.22297510504722595214843750000000000,
-0.01865114644169807434082031250000000,
0.21302619576454162597656250000000000,
-0.15939855575561523437500000000000000,
-0.06030921638011932373046875000000000,
0.06226189807057380676269531250000000,
0.08588030934333801269531250000000000,
0.01629004254937171936035156250000000,
0.14344307780265808105468750000000000,
0.09540671110153198242187500000000000,
0.04179419949650764465332031250000000,
0.12919139862060546875000000000000000,
-0.16145588457584381103515625000000000,
-0.11285925656557083129882812500000000,
-0.08692201972007751464843750000000000,
0.23690873384475708007812500000000000,
-0.13711056113243103027343750000000000,
-0.08480454236268997192382812500000000,
0.01293666567653417587280273437500000,
0.22423842549324035644531250000000000,
-0.12894918024539947509765625000000000,
0.11848589032888412475585937500000000,
-0.28427955508232116699218750000000000,
-0.10880602896213531494140625000000000,
-0.11960164457559585571289062500000000,
-0.14434768259525299072265625000000000,
0.14719912409782409667968750000000000,
-0.07991802692413330078125000000000000,
0.06394228339195251464843750000000000,
0.22136560082435607910156250000000000,
0.11755104362964630126953125000000000,
-0.05775232613086700439453125000000000,
0.19234918057918548583984375000000000,
-0.08295672386884689331054687500000000,
0.10013380646705627441406250000000000,
-0.00002597049569885712116956710815430,
0.08040547370910644531250000000000000,
0.13617993891239166259765625000000000,
-0.22624813020229339599609375000000000,
0.05686843022704124450683593750000000,
0.14640910923480987548828125000000000,
-0.19118368625640869140625000000000000,
-0.16091834008693695068359375000000000,
0.08039766550064086914062500000000000,
0.14736707508563995361328125000000000,
-0.10153435915708541870117187500000000,
0.06650307774543762207031250000000000,
-0.11499258130788803100585937500000000,
-0.12396216392517089843750000000000000,
0.07803148031234741210937500000000000,
0.14091609418392181396484375000000000,
-0.14010213315486907958984375000000000,
-0.09803389012813568115234375000000000,
-0.08948168158531188964843750000000000,
-0.02234452962875366210937500000000000,
-0.08295036852359771728515625000000000,
0.04347297549247741699218750000000000,
-0.08649922907352447509765625000000000,
-0.00876687467098236083984375000000000,
-0.07633243501186370849609375000000000,
0.03214275836944580078125000000000000,
0.11248117685317993164062500000000000,
-0.13026484847068786621093750000000000,
-0.10520184785127639770507812500000000,
0.10774609446525573730468750000000000,
0.13874989748001098632812500000000000,
-0.20177376270294189453125000000000000,
0.04468205571174621582031250000000000,
0.06092223525047302246093750000000000,
-0.06665059924125671386718750000000000,
-0.06998294591903686523437500000000000,
0.06426638364791870117187500000000000,
0.15217232704162597656250000000000000,
0.03201419115066528320312500000000000,
0.18669271469116210937500000000000000,
-0.01649993658065795898437500000000000,
-0.02912437915802001953125000000000000,
-0.06209535896778106689453125000000000,
-0.11017924547195434570312500000000000,
0.15588101744651794433593750000000000,
0.05638864636421203613281250000000000,
-0.19303235411643981933593750000000000,
0.21955445408821105957031250000000000,
-0.11781035363674163818359375000000000,
0.13985982537269592285156250000000000,
-0.21032530069351196289062500000000000,
-0.18817362189292907714843750000000000,
-0.08870127797126770019531250000000000,
0.16169360280036926269531250000000000,
0.05632114410400390625000000000000000,
-0.20002958178520202636718750000000000,
0.19692996144294738769531250000000000,
-0.17032663524150848388671875000000000,
0.18323934078216552734375000000000000,
0.15185219049453735351562500000000000,
0.00035440732608549296855926513671875,
0.02589209377765655517578125000000000,
0.01036571525037288665771484375000000,
0.23653453588485717773437500000000000,
-0.00146235036663711071014404296875000,
-0.09935840964317321777343750000000000,
0.00521068647503852844238281250000000,
-0.25669848918914794921875000000000000,
-0.02386043407022953033447265625000000,
-0.13101746141910552978515625000000000,
-0.01172989699989557266235351562500000,
-0.02833704650402069091796875000000000,
0.11278399080038070678710937500000000,
-0.05011048913002014160156250000000000,
0.14229702949523925781250000000000000,
-0.03201838955283164978027343750000000,
