0.05853465199470520019531250000000000,
0.17922693490982055664062500000000000,
0.26004424691200256347656250000000000,
-0.01785498857498168945312500000000000,
0.23165926337242126464843750000000000,
-0.31020578742027282714843750000000000,
-0.07729429006576538085937500000000000,
-0.04188740253448486328125000000000000,
0.18868091702461242675781250000000000,
0.26051613688468933105468750000000000,
0.15327581763267517089843750000000000,
0.13065779209136962890625000000000000,
0.25388601422309875488281250000000000,
0.14579474925994873046875000000000000,
0.04891851544380187988281250000000000,
0.28046283125877380371093750000000000,
-0.24744966626167297363281250000000000,
0.24605718255043029785156250000000000,
0.23685947060585021972656250000000000,
-0.10468985140323638916015625000000000,
-0.23334465920925140380859375000000000,
-0.23582303524017333984375000000000000,
-0.27856662869453430175781250000000000,
-0.28186953067779541015625000000000000,
-0.29204982519149780273437500000000000,
-0.24207648634910583496093750000000000,
-0.15409418940544128417968750000000000,
0.25512495636940002441406250000000000,
0.03074738383293151855468750000000000,
0.13912445306777954101562500000000000,
0.14512705802917480468750000000000000,
-0.19371858239173889160156250000000000,
-0.05963939428329467773437500000000000,
0.20122072100639343261718750000000000,
-0.12426044046878814697265625000000000,
0.00490513443946838378906250000000000,
-0.20247443020343780517578125000000000,
0.05913299322128295898437500000000000,
-0.30104756355285644531250000000000000,
0.18426826596260070800781250000000000,
-0.20638778805732727050781250000000000,
0.30879107117652893066406250000000000,
0.01853162050247192382812500000000000,
-0.13442392647266387939453125000000000,
-0.05247220396995544433593750000000000,
-0.25978383421897888183593750000000000,
-0.18839056789875030517578125000000000,
-0.14439794421195983886718750000000000,
-0.12217204272747039794921875000000000,
-0.00026500225067138671875000000000000,
0.12127116322517395019531250000000000,
-0.21436086297035217285156250000000000,
-0.15595813095569610595703125000000000,
0.05966055393218994140625000000000000,
0.26973608136177062988281250000000000,
0.27060607075691223144531250000000000,
-0.25260642170906066894531250000000000,
0.24722573161125183105468750000000000,
0.04664146900177001953125000000000000,
-0.30151033401489257812500000000000000,
0.26374951004981994628906250000000000,
0.08740696310997009277343750000000000,
-0.11068752408027648925781250000000000,
0.24729862809181213378906250000000000,
-0.21136593818664550781250000000000000,
0.09483280777931213378906250000000000,
-0.03131875395774841308593750000000000,
-0.05022212862968444824218750000000000,
0.14212623238563537597656250000000000,
0.10418659448623657226562500000000000,
0.26806655526161193847656250000000000,
-0.06717777252197265625000000000000000,
0.10900422930717468261718750000000000,
0.14782977104187011718750000000000000,
0.09858331084251403808593750000000000,
-0.20602038502693176269531250000000000,
-0.00405928492546081542968750000000000,
-0.08474090695381164550781250000000000,
0.04084673523902893066406250000000000,
-0.01801928877830505371093750000000000,
0.08976489305496215820312500000000000,
0.16726398468017578125000000000000000,
0.29028978943824768066406250000000000,
0.18342360854148864746093750000000000,
-0.13719309866428375244140625000000000,
-0.16145220398902893066406250000000000,
0.08336383104324340820312500000000000,
-0.18040296435356140136718750000000000,
0.30624368786811828613281250000000000,
0.24861171841621398925781250000000000,
0.22359398007392883300781250000000000,
-0.05360633134841918945312500000000000,
0.11815333366394042968750000000000000,
0.16541755199432373046875000000000000,
0.12650594115257263183593750000000000,
-0.15043309330940246582031250000000000,
-0.20134446024894714355468750000000000,
-0.21648760139942169189453125000000000,
0.15922266244888305664062500000000000,
0.04805600643157958984375000000000000,
