0.01284337975084781646728515625000000,
-0.08639112859964370727539062500000000,
-0.01575925387442111968994140625000000,
0.05572054162621498107910156250000000,
-0.00468118907883763313293457031250000,
-0.09398503601551055908203125000000000,
-0.04251924157142639160156250000000000,
0.05419557541608810424804687500000000,
-0.05183873698115348815917968750000000,
-0.00994152110069990158081054687500000,
0.04620381072163581848144531250000000,
0.03650211542844772338867187500000000,
-0.00016265743761323392391204833984375,
0.04673848301172256469726562500000000,
-0.07289593666791915893554687500000000,
-0.07258161157369613647460937500000000,
0.05358980968594551086425781250000000,
0.00619823578745126724243164062500000,
-0.01673247292637825012207031250000000,
-0.00156871101353317499160766601562500,
0.01265945192426443099975585937500000,
0.07181566208600997924804687500000000,
0.08367717266082763671875000000000000,
0.00170645664911717176437377929687500,
-0.03014857880771160125732421875000000,
0.03117049485445022583007812500000000,
-0.01605973206460475921630859375000000,
0.01339637022465467453002929687500000,
-0.05707781761884689331054687500000000,
0.09240645170211791992187500000000000,
0.07846421003341674804687500000000000,
0.08735843002796173095703125000000000,
0.02685239538550376892089843750000000,
0.04614563658833503723144531250000000,
0.05614915490150451660156250000000000,
0.02329382114112377166748046875000000,
0.02195107936859130859375000000000000,
0.07098277658224105834960937500000000,
0.05659643188118934631347656250000000,
-0.00089582876535132527351379394531250,
-0.04415156319737434387207031250000000,
0.06392928212881088256835937500000000,
-0.07318945974111557006835937500000000,
0.03540642559528350830078125000000000,
0.02285275608301162719726562500000000,
-0.06630285829305648803710937500000000,
-0.06174185499548912048339843750000000,
-0.02177505940198898315429687500000000,
0.01998926140367984771728515625000000,
0.03925395384430885314941406250000000,
0.08999010920524597167968750000000000,
-0.01462495699524879455566406250000000,
0.07839214801788330078125000000000000,
0.05583544820547103881835937500000000,
-0.04328085482120513916015625000000000,
-0.09208374470472335815429687500000000,
-0.00759052019566297531127929687500000,
-0.02771738730370998382568359375000000,
0.07172801345586776733398437500000000,
0.09151946008205413818359375000000000,
0.07365405559539794921875000000000000,
0.06496486067771911621093750000000000,
-0.02607902884483337402343750000000000,
-0.05773885920643806457519531250000000,
0.06947848200798034667968750000000000,
-0.09909611940383911132812500000000000,
0.03950628265738487243652343750000000,
0.00152402359526604413986206054687500,
-0.00933201611042022705078125000000000,
0.03698639199137687683105468750000000,
-0.04355996102094650268554687500000000,
-0.05352796614170074462890625000000000,
-0.09112309664487838745117187500000000,
0.03245604783296585083007812500000000,
0.00839908607304096221923828125000000,
0.04648803174495697021484375000000000,
0.02322305738925933837890625000000000,
-0.09301337599754333496093750000000000,
0.10003613680601119995117187500000000,
-0.06276734918355941772460937500000000,
0.03176028281450271606445312500000000,
0.03552868962287902832031250000000000,
-0.05876279249787330627441406250000000,
-0.04478148370981216430664062500000000,
-0.00846410728991031646728515625000000,
0.01831865310668945312500000000000000,
0.05477989464998245239257812500000000,
0.00375919952057301998138427734375000,
0.06311555951833724975585937500000000,
-0.07516748458147048950195312500000000,
-0.06549309194087982177734375000000000,
-0.04000650346279144287109375000000000,
-0.00425031827762722969055175781250000,
-0.04068206250667572021484375000000000,
0.03025873750448226928710937500000000,
0.01104411203414201736450195312500000,
-0.10447014868259429931640625000000000,
0.07939212769269943237304687500000000,
0.01338087301701307296752929687500000,
0.03211704641580581665039062500000000,
