-0.06216948851943016052246093750000000,
-0.00997024308890104293823242187500000,
-0.02439338527619838714599609375000000,
0.07951484620571136474609375000000000,
-0.03762903809547424316406250000000000,
-0.09331224858760833740234375000000000,
0.06790769100189208984375000000000000,
0.03130707144737243652343750000000000,
-0.05695693194866180419921875000000000,
-0.04084073752164840698242187500000000,
0.05958409607410430908203125000000000,
-0.00240796944126486778259277343750000,
0.02353547327220439910888671875000000,
-0.06874322146177291870117187500000000,
0.08924904465675354003906250000000000,
-0.09700669348239898681640625000000000,
0.08531366288661956787109375000000000,
-0.09028322994709014892578125000000000,
0.02671467699110507965087890625000000,
-0.09823214262723922729492187500000000,
-0.02366930805146694183349609375000000,
-0.03357217088341712951660156250000000,
-0.00677944580093026161193847656250000,
-0.09589580446481704711914062500000000,
-0.03795936331152915954589843750000000,
-0.04840094968676567077636718750000000,
0.08182916790246963500976562500000000,
0.00892938207834959030151367187500000,
-0.02749567665159702301025390625000000,
0.00985106267035007476806640625000000,
-0.01127970777451992034912109375000000,
0.06372033059597015380859375000000000,
-0.03928932547569274902343750000000000,
-0.04066017642617225646972656250000000,
0.06269051879644393920898437500000000,
-0.10958280414342880249023437500000000,
-0.10292312502861022949218750000000000,
-0.03885508701205253601074218750000000,
-0.02540904656052589416503906250000000,
0.01632477715611457824707031250000000,
0.06936129182577133178710937500000000,
-0.04568553343415260314941406250000000,
-0.08274181187152862548828125000000000,
-0.06797145307064056396484375000000000,
0.03753316029906272888183593750000000,
-0.05893261358141899108886718750000000,
0.06928858906030654907226562500000000,
-0.01684181392192840576171875000000000,
0.06876054406166076660156250000000000,
-0.10440982878208160400390625000000000,
0.04603919759392738342285156250000000,
-0.01869168505072593688964843750000000,
0.04897616803646087646484375000000000,
0.02660212293267250061035156250000000,
0.06212719902396202087402343750000000,
-0.05318029969930648803710937500000000,
0.00466780178248882293701171875000000,
-0.07207067310810089111328125000000000,
0.05436431244015693664550781250000000,
-0.10070998221635818481445312500000000,
-0.05369768664240837097167968750000000,
-0.07791111618280410766601562500000000,
-0.07415407896041870117187500000000000,
0.00913570635020732879638671875000000,
-0.04873277246952056884765625000000000,
0.06040574610233306884765625000000000,
0.07928914576768875122070312500000000,
0.05159030854701995849609375000000000,
-0.07529554516077041625976562500000000,
-0.05039203912019729614257812500000000,
-0.01132591255009174346923828125000000,
-0.01006845384836196899414062500000000,
0.00091819599037989974021911621093750,
0.08884706348180770874023437500000000,
0.04663226753473281860351562500000000,
-0.04516987875103950500488281250000000,
0.04080879315733909606933593750000000,
0.04350275546312332153320312500000000,
-0.05610153079032897949218750000000000,
0.01654081046581268310546875000000000,
-0.01398508064448833465576171875000000,
-0.08856645226478576660156250000000000,
-0.04283630475401878356933593750000000,
0.04987081512808799743652343750000000,
0.01807660050690174102783203125000000,
-0.04880130290985107421875000000000000,
0.03337957337498664855957031250000000,
-0.00620153686031699180603027343750000,
0.03239317983388900756835937500000000,
0.03837738186120986938476562500000000,
0.01657744310796260833740234375000000,
0.03089297004044055938720703125000000,
0.07431375235319137573242187500000000,
0.08845891803503036499023437500000000,
-0.05845733731985092163085937500000000,
0.01816541329026222229003906250000000,
-0.03359756991267204284667968750000000,
0.07114212960004806518554687500000000,
0.06804790347814559936523437500000000,
-0.00968388561159372329711914062500000,
0.06735242158174514770507812500000000,
-0.09021009504795074462890625000000000,
-0.04427655413746833801269531250000000,
-0.08886210620403289794921875000000000,
-0.06802944839000701904296875000000000,
-0.01474378257989883422851562500000000,
-0.04172042012214660644531250000000000,
0.04450797289609909057617187500000000,
-0.06474756449460983276367187500000000,
0.03723056241869926452636718750000000,
-0.03477274626493453979492187500000000,
0.04527455195784568786621093750000000,
0.03568127378821372985839843750000000,
0.07113657146692276000976562500000000,
-0.03049175813794136047363281250000000,
0.04636275395750999450683593750000000,
0.07554779201745986938476562500000000,
0.00776899745687842369079589843750000,
0.02345970459282398223876953125000000,
-0.00548363057896494865417480468750000,
0.02457040175795555114746093750000000,
0.05402629822492599487304687500000000,
0.02460141852498054504394531250000000,
-0.09524440765380859375000000000000000,
0.07714451849460601806640625000000000,
0.06051958724856376647949218750000000,
-0.06539975106716156005859375000000000,
-0.10703020542860031127929687500000000,
-0.05647536367177963256835937500000000,
0.01616018638014793395996093750000000,
-0.00763769773766398429870605468750000,
-0.05466576665639877319335937500000000,
0.05692760646343231201171875000000000,
-0.02452841028571128845214843750000000,
0.07628349959850311279296875000000000,
0.01126588415354490280151367187500000,
0.00193291995674371719360351562500000,
-0.07611926645040512084960937500000000,
-0.02127543464303016662597656250000000,
-0.09228453040122985839843750000000000,
-0.09390006959438323974609375000000000,
-0.01510240696370601654052734375000000,
0.08200347423553466796875000000000000,
0.08715579658746719360351562500000000,
-0.07273867726325988769531250000000000,
0.06031691655516624450683593750000000,
-0.00181280518881976604461669921875000,
-0.10169498622417449951171875000000000,
0.04136729985475540161132812500000000,
-0.00044776452705264091491699218750000,
0.07710662484169006347656250000000000,
0.01384274940937757492065429687500000,
-0.05606688559055328369140625000000000,
0.06000394001603126525878906250000000,
-0.08098608255386352539062500000000000,
-0.06476806849241256713867187500000000,
-0.01439519319683313369750976562500000,
-0.03806430473923683166503906250000000,
0.00367882219143211841583251953125000,
-0.07848383486270904541015625000000000,
-0.07970792800188064575195312500000000,
-0.06269001960754394531250000000000000,
-0.02146410197019577026367187500000000,
-0.06771211326122283935546875000000000,
-0.08939906209707260131835937500000000,
0.03599927201867103576660156250000000,
-0.04457090049982070922851562500000000,
0.00869967602193355560302734375000000,
-0.03760466352105140686035156250000000,
0.05557846277952194213867187500000000,
0.03134354948997497558593750000000000,
-0.00399648863822221755981445312500000,
-0.00261051999405026435852050781250000,
-0.01532286684960126876831054687500000,
0.05731520801782608032226562500000000,
-0.01312618236988782882690429687500000,
0.07395596802234649658203125000000000,
-0.03586900606751441955566406250000000,
-0.09734848141670227050781250000000000,
-0.07119195908308029174804687500000000,
0.03825721889734268188476562500000000,
-0.04915025085210800170898437500000000,
-0.00054123101290315389633178710937500,
0.07465696334838867187500000000000000,
0.06042993441224098205566406250000000,
0.00172684760764241218566894531250000,
-0.00524220010265707969665527343750000,
0.01803288795053958892822265625000000,
0.05383443459868431091308593750000000,
-0.08480675518512725830078125000000000,
-0.05735214054584503173828125000000000,
-0.05895505473017692565917968750000000,
0.02207397669553756713867187500000000,
0.03080583177506923675537109375000000,
0.05506303161382675170898437500000000,
-0.05318677797913551330566406250000000,
-0.04684431105852127075195312500000000,
0.05825815722346305847167968750000000,
0.05925205349922180175781250000000000,
0.05933182686567306518554687500000000,
0.09952134639024734497070312500000000,
0.01184064336121082305908203125000000,
-0.07150443643331527709960937500000000,
0.03814544156193733215332031250000000,
0.04664136096835136413574218750000000,
-0.04754493758082389831542968750000000,
0.05137955397367477416992187500000000,
-0.02686265669763088226318359375000000,
-0.07504551112651824951171875000000000,
-0.04972471669316291809082031250000000,
0.07791287451982498168945312500000000,
0.07926008105278015136718750000000000,
-0.05181906744837760925292968750000000,
0.03972212597727775573730468750000000,
-0.09447548538446426391601562500000000,
0.05588255077600479125976562500000000,
-0.08472044765949249267578125000000000,
-0.01676736213266849517822265625000000,
-0.05341739580035209655761718750000000,
-0.07725198566913604736328125000000000,
0.06471270322799682617187500000000000,
0.00823996309190988540649414062500000,
-0.05795054137706756591796875000000000,
-0.04418536648154258728027343750000000,
0.01275146659463644027709960937500000,
0.06840813905000686645507812500000000,
-0.00568210473284125328063964843750000,
0.03340565413236618041992187500000000,
-0.08618105947971343994140625000000000,
0.03385725244879722595214843750000000,
0.03909058123826980590820312500000000,
0.02752191387116909027099609375000000,
-0.07410259544849395751953125000000000,
0.06591869890689849853515625000000000,
-0.05003884434700012207031250000000000,
-0.04760563373565673828125000000000000,
-0.03316211700439453125000000000000000,
0.05469535663723945617675781250000000,
-0.03715190291404724121093750000000000,
-0.00771018536761403083801269531250000,
-0.07318165898323059082031250000000000,
0.00742849987000226974487304687500000,
0.04758146777749061584472656250000000,
-0.05241123959422111511230468750000000,
-0.07581330835819244384765625000000000,
0.07971000671386718750000000000000000,
-0.00549424625933170318603515625000000,
0.04279746115207672119140625000000000,
0.04323740676045417785644531250000000,
-0.00738391559571027755737304687500000,
0.02283317223191261291503906250000000,
0.03187120333313941955566406250000000,
0.07823456078767776489257812500000000,
-0.06711929291486740112304687500000000,
-0.04908368363976478576660156250000000,
0.08054288476705551147460937500000000,
-0.08352046459913253784179687500000000,
-0.00917427241802215576171875000000000,
-0.04466191306710243225097656250000000,
0.01283812802284955978393554687500000,
-0.09136776626110076904296875000000000,
0.01880469731986522674560546875000000,
0.07313051819801330566406250000000000,
-0.06023054942488670349121093750000000,
0.09968650341033935546875000000000000,
0.03911108896136283874511718750000000,
-0.06636834889650344848632812500000000,
0.06405698508024215698242187500000000,
0.02275214903056621551513671875000000,
0.05927000194787979125976562500000000,
-0.02759561873972415924072265625000000,
0.00695622665807604789733886718750000,
0.10089863091707229614257812500000000,
-0.04276936873793601989746093750000000,
-0.03553405031561851501464843750000000,
-0.02211236767470836639404296875000000,
0.02479115128517150878906250000000000,
0.03082603774964809417724609375000000,
0.03071186877787113189697265625000000,
-0.05383681505918502807617187500000000,
0.00164859287906438112258911132812500,
-0.08342364430427551269531250000000000,
0.07796443253755569458007812500000000,
0.08044376969337463378906250000000000,
0.03057113476097583770751953125000000,
-0.02217147871851921081542968750000000,
-0.00467269914224743843078613281250000,
0.04198189452290534973144531250000000,
-0.03407875448465347290039062500000000,
-0.03689719364047050476074218750000000,
-0.04865263774991035461425781250000000,
0.09137064963579177856445312500000000,
0.04648887738585472106933593750000000,
-0.07193432003259658813476562500000000,
0.01269249338656663894653320312500000,
0.10203010588884353637695312500000000,
-0.08260818570852279663085937500000000,
-0.00459058675915002822875976562500000,
-0.07133466750383377075195312500000000,
0.10168278217315673828125000000000000,
0.08087863773107528686523437500000000,
0.04937791451811790466308593750000000,
-0.04267983883619308471679687500000000,
0.00561162875965237617492675781250000,
0.05353802442550659179687500000000000,
0.00407188991084694862365722656250000,
-0.05536323785781860351562500000000000,
-0.04582610726356506347656250000000000,
0.07817703485488891601562500000000000,
0.05996431037783622741699218750000000,
0.03759852796792984008789062500000000,
-0.03588585928082466125488281250000000,
-0.01418420951813459396362304687500000,
-0.06294243782758712768554687500000000,
-0.00815110839903354644775390625000000,
0.06298184394836425781250000000000000,
-0.01316562574356794357299804687500000,
-0.01902426406741142272949218750000000,
-0.01112316176295280456542968750000000,
-0.05615917965769767761230468750000000,
-0.06652522832155227661132812500000000,
-0.02277041412889957427978515625000000,
0.01820730417966842651367187500000000,
-0.02077554538846015930175781250000000,
0.04817994311451911926269531250000000,
0.07356278598308563232421875000000000,
-0.00467705307528376579284667968750000,
-0.06967469304800033569335937500000000,
0.04367585852742195129394531250000000,
-0.03715750202536582946777343750000000,
-0.09770735353231430053710937500000000,
-0.10388086736202239990234375000000000,
-0.07168426364660263061523437500000000,
-0.02012620307505130767822265625000000,
-0.03556267544627189636230468750000000,
0.01856951043009757995605468750000000,
0.06775043159723281860351562500000000,
-0.02639714442193508148193359375000000,
0.08633527159690856933593750000000000,
-0.08053205162286758422851562500000000,
0.02085881866514682769775390625000000,
0.07514455169439315795898437500000000,
0.06951440125703811645507812500000000,
-0.03121819905936717987060546875000000,
-0.05891860648989677429199218750000000,
-0.10290509462356567382812500000000000,
0.03864357993006706237792968750000000,
0.00336464215070009231567382812500000,
0.05756855756044387817382812500000000,
0.03738913312554359436035156250000000,
-0.06250123679637908935546875000000000,
0.02229289710521697998046875000000000,
0.05501042678952217102050781250000000,
0.06309914588928222656250000000000000,
-0.01081283949315547943115234375000000,
-0.10476697981357574462890625000000000,
0.08610078692436218261718750000000000,
0.02667723409831523895263671875000000,
-0.04637634754180908203125000000000000,
-0.02788758277893066406250000000000000,
0.07984813302755355834960937500000000,
0.05474093556404113769531250000000000,
0.04312423616647720336914062500000000,
0.04673033952713012695312500000000000,
0.05818736553192138671875000000000000,
0.08220466971397399902343750000000000,
0.06417553126811981201171875000000000,
0.02145211771130561828613281250000000,
-0.09926333278417587280273437500000000,
0.01612458936870098114013671875000000,
0.07162126153707504272460937500000000,
0.03061840124428272247314453125000000,
-0.02292018942534923553466796875000000,
0.00422639120370149612426757812500000,
-0.01619223877787590026855468750000000,
0.06489021331071853637695312500000000,
0.02808511629700660705566406250000000,
0.03282661363482475280761718750000000,
0.06813212484121322631835937500000000,
-0.06576487421989440917968750000000000,
-0.05411402881145477294921875000000000,
-0.09343767166137695312500000000000000,
0.02092496678233146667480468750000000,
0.05037125200033187866210937500000000,
-0.03764123842120170593261718750000000,
-0.05024424940347671508789062500000000,
-0.07676148414611816406250000000000000,
0.06697355210781097412109375000000000,
0.05042961239814758300781250000000000,
-0.06097581982612609863281250000000000,
-0.08759323507547378540039062500000000,
-0.09886564314365386962890625000000000,
0.05084139108657836914062500000000000,
-0.03596704453229904174804687500000000,
0.00371594959869980812072753906250000,
-0.02522457577288150787353515625000000,
-0.00103144743479788303375244140625000,
-0.00256356131285429000854492187500000,
0.03046533092856407165527343750000000,
-0.03857010602951049804687500000000000,
0.03075853735208511352539062500000000,
0.08412666618824005126953125000000000,
0.06976620852947235107421875000000000,
-0.02365726418793201446533203125000000,
-0.06355077773332595825195312500000000,
0.03974464908242225646972656250000000,
-0.09754406660795211791992187500000000,
-0.06393805891275405883789062500000000,
0.08872945606708526611328125000000000,
-0.03796101361513137817382812500000000,
-0.06083229556679725646972656250000000,
0.01151766255497932434082031250000000,
-0.05138539895415306091308593750000000,
-0.00578783173114061355590820312500000,
0.04078077897429466247558593750000000,
-0.08228541910648345947265625000000000,
0.02165989391505718231201171875000000,
0.07036475092172622680664062500000000,
-0.00191382283810526132583618164062500,
-0.00067327287979423999786376953125000,
-0.10438774526119232177734375000000000,
-0.09350898861885070800781250000000000,
-0.04030735418200492858886718750000000,
-0.08963494002819061279296875000000000,
0.01491771172732114791870117187500000,
-0.05880092084407806396484375000000000,
-0.01188583299517631530761718750000000,
0.08313924819231033325195312500000000,
0.03388072550296783447265625000000000,
-0.01814691349864006042480468750000000,
-0.10229418426752090454101562500000000,
0.08632911741733551025390625000000000,
0.03161232918500900268554687500000000,
0.00124881847295910120010375976562500,
-0.05579355359077453613281250000000000,
-0.02638326957821846008300781250000000,
0.09032174944877624511718750000000000,
-0.02070403844118118286132812500000000,
0.06677051633596420288085937500000000,
0.02742628566920757293701171875000000,
-0.01420945022255182266235351562500000,
0.07643422484397888183593750000000000,
0.04637787491083145141601562500000000,
-0.02095959708094596862792968750000000,
-0.08223174512386322021484375000000000,
-0.09053506702184677124023437500000000,
0.05496815964579582214355468750000000,
-0.07178400456905364990234375000000000,
0.06181260943412780761718750000000000,
-0.09481123834848403930664062500000000,
-0.03543215990066528320312500000000000,
0.02448997274041175842285156250000000,
-0.10545238107442855834960937500000000,
0.00249126576818525791168212890625000,
-0.09858456999063491821289062500000000,
-0.04496780037879943847656250000000000,
0.05936800688505172729492187500000000,
-0.03461527079343795776367187500000000,
-0.06887483596801757812500000000000000,
0.05530211701989173889160156250000000,
-0.01923229359090328216552734375000000,
-0.06115200370550155639648437500000000,
-0.09095155447721481323242187500000000,
-0.06515611708164215087890625000000000,
0.07266612350940704345703125000000000,
0.01780349761247634887695312500000000,
0.01634819619357585906982421875000000,
0.00583510287106037139892578125000000,
-0.00606018956750631332397460937500000,
-0.04467386752367019653320312500000000,
0.01680232211947441101074218750000000,
0.00884405151009559631347656250000000,
-0.04853177815675735473632812500000000,
0.03621496632695198059082031250000000,
-0.01867122761905193328857421875000000,
-0.05379615351557731628417968750000000,
-0.09727676212787628173828125000000000,
0.05156131461262702941894531250000000,
-0.02943748608231544494628906250000000,
0.01151679735630750656127929687500000,
0.01621360145509243011474609375000000,
-0.02690377458930015563964843750000000,
-0.02349547296762466430664062500000000,
-0.03254185989499092102050781250000000,
0.07742235809564590454101562500000000,
-0.04853670299053192138671875000000000,
0.07436264306306838989257812500000000,
-0.04602792859077453613281250000000000,
-0.01237444672733545303344726562500000,
0.03728363662958145141601562500000000,
0.05553649365901947021484375000000000,
-0.07254868000745773315429687500000000,
0.01326412335038185119628906250000000,
-0.04120364412665367126464843750000000,
0.02271793410181999206542968750000000,
0.02868860587477684020996093750000000,
0.00308364559896290302276611328125000,
-0.03966501355171203613281250000000000,
0.06957714259624481201171875000000000,
0.01422168314456939697265625000000000,
0.04004263132810592651367187500000000,
0.07956034690141677856445312500000000,
-0.08326983451843261718750000000000000,
0.03040680475533008575439453125000000,
0.08876825124025344848632812500000000,
0.07852370291948318481445312500000000,
0.01065411418676376342773437500000000,
0.07400119304656982421875000000000000,
-0.08092962950468063354492187500000000,
0.02857986651360988616943359375000000,
0.01031714677810668945312500000000000,
0.05558354407548904418945312500000000,
0.03837788105010986328125000000000000,
-0.05304788053035736083984375000000000,
0.06853528320789337158203125000000000,
-0.00244430406019091606140136718750000,
0.05357853695750236511230468750000000,
-0.03818800672888755798339843750000000,
0.03296297788619995117187500000000000,
0.00759248295798897743225097656250000,
0.02632396668195724487304687500000000,
0.09093103557825088500976562500000000,
-0.02403989620506763458251953125000000,
-0.09283076226711273193359375000000000,
0.00725579634308815002441406250000000,
-0.01746501028537750244140625000000000,
-0.09097788482904434204101562500000000,
0.05772185325622558593750000000000000,
0.04869925975799560546875000000000000,
0.07914940267801284790039062500000000,
-0.04831634089350700378417968750000000,
0.09472292661666870117187500000000000,
-0.03987906128168106079101562500000000,
0.05626654997467994689941406250000000,
0.03183413296937942504882812500000000,
-0.07152666896581649780273437500000000,
0.01195144467055797576904296875000000,
0.09088067710399627685546875000000000,
-0.01854529976844787597656250000000000,
0.00381524045951664447784423828125000,
0.05283383280038833618164062500000000,
-0.03491071611642837524414062500000000,
-0.02530683763325214385986328125000000,
0.04984831437468528747558593750000000,
0.01672844029963016510009765625000000,
-0.01155047770589590072631835937500000,
-0.04027866199612617492675781250000000,
0.09492228925228118896484375000000000,
-0.08419740945100784301757812500000000,
0.01323311310261487960815429687500000,
-0.03822933882474899291992187500000000,
0.04768217727541923522949218750000000,
0.00242606410756707191467285156250000,
0.07693953812122344970703125000000000,
0.05681407824158668518066406250000000,
-0.07443207502365112304687500000000000,
0.08528999984264373779296875000000000,
0.07506243884563446044921875000000000,
0.04284743964672088623046875000000000,
0.00367582496255636215209960937500000,
0.00923325680196285247802734375000000,
-0.05728830769658088684082031250000000,
0.04138491675257682800292968750000000,
-0.05010547488927841186523437500000000,
0.01015156507492065429687500000000000,
0.03252753242850303649902343750000000,
0.00028291763737797737121582031250000,
0.01875285990536212921142578125000000,
-0.08059131354093551635742187500000000,
0.02686123549938201904296875000000000,
-0.02734162658452987670898437500000000,
0.05997372418642044067382812500000000,
0.05393323302268981933593750000000000,
-0.07316178083419799804687500000000000,
0.06193524226546287536621093750000000,
-0.09753828495740890502929687500000000,
-0.02127889730036258697509765625000000,
0.06910339742898941040039062500000000,
-0.10174006968736648559570312500000000,
-0.09387561678886413574218750000000000,
0.02485064789652824401855468750000000,
0.05609956756234169006347656250000000,
0.04736633971333503723144531250000000,
-0.06045057624578475952148437500000000,
-0.06160760670900344848632812500000000,
0.05386628210544586181640625000000000,
0.09202679246664047241210937500000000,
0.09480116516351699829101562500000000,
0.04053148627281188964843750000000000,
0.04919524490833282470703125000000000,
0.08736535906791687011718750000000000,
0.03578250855207443237304687500000000,
0.09580989181995391845703125000000000,
0.06884709745645523071289062500000000,
-0.05329643562436103820800781250000000,
0.09198291599750518798828125000000000,
0.02492151968181133270263671875000000,
-0.00789471808820962905883789062500000,
0.08118343353271484375000000000000000,
-0.01921107992529869079589843750000000,
0.05801108852028846740722656250000000,
0.02050463296473026275634765625000000,
-0.05420314148068428039550781250000000,
-0.02551985159516334533691406250000000,
-0.03061177209019660949707031250000000,
0.01028756797313690185546875000000000,
-0.06627345085144042968750000000000000,
0.06374479085206985473632812500000000,
-0.06161239370703697204589843750000000,
0.07782737165689468383789062500000000,
-0.05181180313229560852050781250000000,
-0.09310651570558547973632812500000000,
0.01941768825054168701171875000000000,
-0.04490643367171287536621093750000000,
-0.09355518221855163574218750000000000,
0.08221174031496047973632812500000000,
0.09137781709432601928710937500000000,
-0.08198992908000946044921875000000000,
-0.03799293935298919677734375000000000,
-0.06125329807400703430175781250000000,
0.02770358882844448089599609375000000,
-0.02524937875568866729736328125000000,
0.06836488097906112670898437500000000,
-0.01355294138193130493164062500000000,
-0.08545006811618804931640625000000000,
-0.01531188935041427612304687500000000,
0.06101047620177268981933593750000000,
-0.06634066998958587646484375000000000,
0.05207115039229393005371093750000000,
0.02652719058096408843994140625000000,
-0.01748384535312652587890625000000000,
-0.03422190994024276733398437500000000,
0.02200126275420188903808593750000000,
0.08673030883073806762695312500000000,
-0.06322490423917770385742187500000000,
-0.02296253852546215057373046875000000,
-0.00926588755100965499877929687500000,
-0.09480521082878112792968750000000000,
0.05272036790847778320312500000000000,
-0.04022032395005226135253906250000000,
0.08528981357812881469726562500000000,
0.08037337660789489746093750000000000,
-0.08862028270959854125976562500000000,
-0.02895448543131351470947265625000000,
-0.01492241583764553070068359375000000,
0.00081198284169659018516540527343750,
-0.01886155828833580017089843750000000,
-0.00203068205155432224273681640625000,
-0.09045346081256866455078125000000000,
-0.02538961544632911682128906250000000,
0.06044845655560493469238281250000000,
-0.01858912408351898193359375000000000,
-0.01176610775291919708251953125000000,
0.01711708121001720428466796875000000,
-0.01985423080623149871826171875000000,
-0.02891382575035095214843750000000000,
-0.09746690839529037475585937500000000,
-0.02377127110958099365234375000000000,
-0.10463766753673553466796875000000000,
0.00119390152394771575927734375000000,
-0.04554930329322814941406250000000000,
0.03621758520603179931640625000000000,
0.02738459780812263488769531250000000,
-0.05646187812089920043945312500000000,
0.00838644523173570632934570312500000,
-0.08855812251567840576171875000000000,
0.03088767640292644500732421875000000,
0.01074794773012399673461914062500000,
0.09009717404842376708984375000000000,
0.05604111775755882263183593750000000,
0.03519697487354278564453125000000000,
-0.03375798463821411132812500000000000,
-0.07271792739629745483398437500000000,
0.07062591612339019775390625000000000,
0.03770040348172187805175781250000000,
0.07350288331508636474609375000000000,
0.08276678621768951416015625000000000,
-0.05510434880852699279785156250000000,
-0.09531154483556747436523437500000000,
0.00825123861432075500488281250000000,
-0.02673827111721038818359375000000000,
0.01689106225967407226562500000000000,
-0.05857800319790840148925781250000000,
-0.03775750845670700073242187500000000,
-0.10042418539524078369140625000000000,
-0.10600446909666061401367187500000000,
0.07083477079868316650390625000000000,
0.00044814517605118453502655029296875,
0.07779157161712646484375000000000000,
-0.09784154593944549560546875000000000,
-0.07002694159746170043945312500000000,
0.02551361732184886932373046875000000,
0.08995153754949569702148437500000000,
0.05416911840438842773437500000000000,
0.01715556904673576354980468750000000,
-0.03029525466263294219970703125000000,
0.02601752616465091705322265625000000,
-0.07101915031671524047851562500000000,
0.06164488568902015686035156250000000,
-0.08424912393093109130859375000000000,
-0.01147455628961324691772460937500000,
-0.08480098098516464233398437500000000,
-0.00240322249010205268859863281250000,
0.05242244526743888854980468750000000,
-0.03723182156682014465332031250000000,
-0.08921501040458679199218750000000000,
0.04337244853377342224121093750000000,
0.06960333883762359619140625000000000,
-0.00056068086996674537658691406250000,
-0.09306541830301284790039062500000000,
0.02812836132943630218505859375000000,
-0.02683879993855953216552734375000000,
-0.05435911566019058227539062500000000,
-0.06555498391389846801757812500000000,
0.07204476743936538696289062500000000,
0.01725310459733009338378906250000000,
-0.00947086885571479797363281250000000,
-0.04470585659146308898925781250000000,
0.01052609737962484359741210937500000,
0.05744791775941848754882812500000000,
-0.00801468268036842346191406250000000,
0.05057522654533386230468750000000000,
-0.07325432449579238891601562500000000,
-0.09227149188518524169921875000000000,
-0.04771181568503379821777343750000000,
-0.08059871941804885864257812500000000,
-0.07973913103342056274414062500000000,
-0.05847775563597679138183593750000000,
-0.08689813315868377685546875000000000,
0.05505914986133575439453125000000000,
0.08632738143205642700195312500000000,
0.09668136388063430786132812500000000,
0.02309209667146205902099609375000000,
0.04484654963016510009765625000000000,
0.03246416896581649780273437500000000,
0.02630088664591312408447265625000000,
-0.01753026433289051055908203125000000,
0.09571112692356109619140625000000000,
0.04451642185449600219726562500000000,
-0.08333485573530197143554687500000000,
0.07330936938524246215820312500000000,
0.07497774809598922729492187500000000,
-0.08068193495273590087890625000000000,
0.03883814811706542968750000000000000,
-0.02352073788642883300781250000000000,
-0.01026649028062820434570312500000000,
-0.08464778214693069458007812500000000,
-0.03797091171145439147949218750000000,
0.03534482046961784362792968750000000,
-0.04551129415631294250488281250000000,
0.08433498442173004150390625000000000,
0.05163280665874481201171875000000000,
0.08210404217243194580078125000000000,
0.09389021247625350952148437500000000,
0.01203587744385004043579101562500000,
0.01076546031981706619262695312500000,
0.04954490810632705688476562500000000,
0.01754784397780895233154296875000000,
0.04259767383337020874023437500000000,
0.09525990486145019531250000000000000,
-0.06515541672706604003906250000000000,
0.00957841053605079650878906250000000,
-0.01200947817414999008178710937500000,
-0.08914121240377426147460937500000000,
0.00939430203288793563842773437500000,
0.07124152779579162597656250000000000,
-0.03175059333443641662597656250000000,
0.04067687317728996276855468750000000,
0.03061467222869396209716796875000000,
0.00446867616847157478332519531250000,
0.01782699301838874816894531250000000,
-0.07189966738224029541015625000000000,
0.03069909662008285522460937500000000,
0.06803825497627258300781250000000000,
-0.03147871792316436767578125000000000,
0.03835323452949523925781250000000000,
-0.02740582823753356933593750000000000,
0.09858731925487518310546875000000000,
0.01204152498394250869750976562500000,
-0.09327037632465362548828125000000000,
0.02701388113200664520263671875000000,
-0.03244301304221153259277343750000000,
0.04022543504834175109863281250000000,
0.02295606955885887145996093750000000,
-0.04632786661386489868164062500000000,
0.03937311470508575439453125000000000,
-0.03349400684237480163574218750000000,
0.05148205533623695373535156250000000,
-0.04024579375982284545898437500000000,
-0.07444755733013153076171875000000000,
-0.00452725915238261222839355468750000,
-0.07918196171522140502929687500000000,
-0.04519870504736900329589843750000000,
-0.00921495258808135986328125000000000,
-0.00650070793926715850830078125000000,
-0.04570605978369712829589843750000000,
-0.05149881541728973388671875000000000,
0.01577423699200153350830078125000000,
0.03449665755033493041992187500000000,
-0.05181257054209709167480468750000000,
0.00577544094994664192199707031250000,
-0.05908204987645149230957031250000000,
-0.07407438755035400390625000000000000,
0.04493099823594093322753906250000000,
-0.09674721211194992065429687500000000,
-0.00579295260831713676452636718750000,
0.05509870126843452453613281250000000,
0.08839623630046844482421875000000000,
-0.00983159430325031280517578125000000,
-0.00271454895846545696258544921875000,
-0.05714328587055206298828125000000000,
0.00553451804444193840026855468750000,
-0.06596632301807403564453125000000000,
-0.08584272861480712890625000000000000,
-0.09273684024810791015625000000000000,
-0.04972779750823974609375000000000000,
-0.05993870645761489868164062500000000,
0.05538001284003257751464843750000000,
0.08502645045518875122070312500000000,
0.05752336978912353515625000000000000,
0.02569842524826526641845703125000000,
0.06194796413183212280273437500000000,
0.08089421689510345458984375000000000,
-0.06079710647463798522949218750000000,
0.07827285677194595336914062500000000,
-0.07912359386682510375976562500000000,
0.08293275535106658935546875000000000,
0.03917837142944335937500000000000000,
-0.09621826559305191040039062500000000,
-0.01957375556230545043945312500000000,
0.07158850878477096557617187500000000,
0.00487396819517016410827636718750000,
-0.08496943861246109008789062500000000,
0.00939328130334615707397460937500000,
-0.03764615952968597412109375000000000,
-0.08243839442729949951171875000000000,
0.02266302518546581268310546875000000,
-0.10170008242130279541015625000000000,
-0.10201351344585418701171875000000000,
0.02962611615657806396484375000000000,
0.05440167337656021118164062500000000,
-0.08863371610641479492187500000000000,
0.00766200479120016098022460937500000,
-0.01398864295333623886108398437500000,
-0.10032259672880172729492187500000000,
-0.08080186694860458374023437500000000,
-0.02237599901854991912841796875000000,
-0.00897516962140798568725585937500000,
-0.07423114031553268432617187500000000,
0.03640229627490043640136718750000000,
-0.06115571036934852600097656250000000,
-0.02610710822045803070068359375000000,
-0.04132216796278953552246093750000000,
-0.06282312422990798950195312500000000,
-0.08339253813028335571289062500000000,
-0.05174970254302024841308593750000000,
0.00004540105146588757634162902832031,
-0.08751302957534790039062500000000000,
0.07023697346448898315429687500000000,
0.08108517527580261230468750000000000,
-0.07414564490318298339843750000000000,
-0.08379039913415908813476562500000000,
-0.00455876858904957771301269531250000,
0.08631385862827301025390625000000000,
0.02442162111401557922363281250000000,
0.05707635730504989624023437500000000,
-0.09764779359102249145507812500000000,
-0.05502506718039512634277343750000000,
0.05877414718270301818847656250000000,
0.07329153269529342651367187500000000,
0.06635522842407226562500000000000000,
-0.03751441463828086853027343750000000,
0.07755050063133239746093750000000000,
0.06226478889584541320800781250000000,
0.02164086326956748962402343750000000,
-0.07116300612688064575195312500000000,
0.07061040401458740234375000000000000,
-0.05474903807044029235839843750000000,
-0.05230049416422843933105468750000000,
0.08580730855464935302734375000000000,
-0.07609548419713973999023437500000000,
-0.03320651128888130187988281250000000,
-0.03888275101780891418457031250000000,
0.03176722303032875061035156250000000,
0.02964609302580356597900390625000000,
-0.03032853268086910247802734375000000,
-0.03235318511724472045898437500000000,
-0.02669005468487739562988281250000000,
-0.02837618626654148101806640625000000,
-0.05722712725400924682617187500000000,
0.00087729655206203460693359375000000,
0.01718347892165184020996093750000000,
0.02627184055745601654052734375000000,
0.04884295538067817687988281250000000,
0.03469036892056465148925781250000000,
-0.04029269143939018249511718750000000,
0.03585698083043098449707031250000000,
0.00436771800741553306579589843750000,
0.07507529109716415405273437500000000,
-0.00566051853820681571960449218750000,
-0.02316993474960327148437500000000000,
0.01384510472416877746582031250000000,
0.06328795850276947021484375000000000,
-0.09549580514430999755859375000000000,
0.03851545974612236022949218750000000,
0.05806189030408859252929687500000000,
0.04941135644912719726562500000000000,
0.02368203736841678619384765625000000,
0.01346130482852458953857421875000000,
0.04747910052537918090820312500000000,
0.00323540600948035717010498046875000,
-0.08120801299810409545898437500000000,
-0.04020335897803306579589843750000000,
-0.08503779768943786621093750000000000,
0.00738708348944783210754394531250000,
-0.10221009701490402221679687500000000,
-0.03524011373519897460937500000000000,
-0.02956590428948402404785156250000000,
0.01887863874435424804687500000000000,
0.00934070348739624023437500000000000,
0.06651043146848678588867187500000000,
-0.08567402511835098266601562500000000,
-0.12550382316112518310546875000000000,
-0.12625330686569213867187500000000000,
0.05680829286575317382812500000000000,
0.03643099963665008544921875000000000,
0.01715318299829959869384765625000000,
-0.02568641118705272674560546875000000,
-0.01798531413078308105468750000000000,
0.00797697156667709350585937500000000,
-0.09750396013259887695312500000000000,
-0.01239327993243932723999023437500000,
-0.09462905675172805786132812500000000,
-0.10690291970968246459960937500000000,
-0.04696843773126602172851562500000000,
-0.07075660675764083862304687500000000,
-0.00383966020308434963226318359375000,
0.00678090890869498252868652343750000,
-0.12051209062337875366210937500000000,
0.06680092215538024902343750000000000,
0.06628163903951644897460937500000000,
-0.06894399970769882202148437500000000,
0.05952936410903930664062500000000000,
0.05447660386562347412109375000000000,
0.03125549480319023132324218750000000,
-0.08997848629951477050781250000000000,
-0.02986779622733592987060546875000000,
-0.08942846953868865966796875000000000,
0.01502265222370624542236328125000000,
-0.05807517468929290771484375000000000,
-0.12037072330713272094726562500000000,
0.02289680950343608856201171875000000,
-0.07119822502136230468750000000000000,
0.02070315182209014892578125000000000,
0.03025916591286659240722656250000000,
0.02686413563787937164306640625000000,
0.00509545952081680297851562500000000,
0.04189386218786239624023437500000000,
-0.12589916586875915527343750000000000,
-0.06736799329519271850585937500000000,
-0.05948042869567871093750000000000000,
0.02523511089384555816650390625000000,
0.01651396416127681732177734375000000,
0.02769469097256660461425781250000000,
-0.00053674116497859358787536621093750,
-0.03954711556434631347656250000000000,
0.05472417920827865600585937500000000,
0.02885267697274684906005859375000000,
0.01772302016615867614746093750000000,
-0.08639875799417495727539062500000000,
-0.10646614432334899902343750000000000,
-0.03767683357000350952148437500000000,
-0.07850218564271926879882812500000000,
-0.10538911074399948120117187500000000,
-0.03043303266167640686035156250000000,
-0.02541349455714225769042968750000000,
-0.04571352899074554443359375000000000,
-0.06023505702614784240722656250000000,
-0.00308359414339065551757812500000000,
0.06133719161152839660644531250000000,
-0.07927934080362319946289062500000000,
0.01717324741184711456298828125000000,
-0.01991352252662181854248046875000000,
0.00272726244293153285980224609375000,
-0.12253399938344955444335937500000000,
0.00292814313434064388275146484375000,
0.04678190499544143676757812500000000,
-0.11607291549444198608398437500000000,
0.02642523683607578277587890625000000,
0.03063207119703292846679687500000000,
-0.03085071966052055358886718750000000,
-0.00731146568432450294494628906250000,
-0.03683374077081680297851562500000000,
-0.06843356788158416748046875000000000,
-0.01568629592657089233398437500000000,
-0.00791234429925680160522460937500000,
0.02710795588791370391845703125000000,
-0.12794403731822967529296875000000000,
-0.10910727083683013916015625000000000,
-0.09724227339029312133789062500000000,
0.08068783581256866455078125000000000,
0.09000585973262786865234375000000000,
0.09943427890539169311523437500000000,
0.09520237892866134643554687500000000,
-0.03714850544929504394531250000000000,
-0.01007428672164678573608398437500000,
0.05273541808128356933593750000000000,
0.00591640686616301536560058593750000,
0.07590261101722717285156250000000000,
-0.00922658201307058334350585937500000,
-0.09648905694484710693359375000000000,
-0.07311848551034927368164062500000000,
0.07366388291120529174804687500000000,
-0.09489793330430984497070312500000000,
0.09728629142045974731445312500000000,
0.08569945394992828369140625000000000,
-0.04341591894626617431640625000000000,
-0.04095973074436187744140625000000000,
-0.05887135863304138183593750000000000,
0.05545887351036071777343750000000000,
-0.09440179914236068725585937500000000,
0.08715775609016418457031250000000000,
0.04783483222126960754394531250000000,
0.05603934079408645629882812500000000,
0.02021752484142780303955078125000000,
-0.08215522766113281250000000000000000,
0.08960977196693420410156250000000000,
0.02290012687444686889648437500000000,
0.06034034490585327148437500000000000,
-0.01524657011032104492187500000000000,
-0.09158478677272796630859375000000000,
-0.01567498780786991119384765625000000,
-0.05851596966385841369628906250000000,
0.05471568554639816284179687500000000,
-0.06059441342949867248535156250000000,
0.05860029906034469604492187500000000,
0.06555125117301940917968750000000000,
0.05424464493989944458007812500000000,
-0.04289210587739944458007812500000000,
0.00790973007678985595703125000000000,
-0.08898451924324035644531250000000000,
-0.02334755472838878631591796875000000,
0.07930696755647659301757812500000000,
0.02598457038402557373046875000000000,
-0.08529771119356155395507812500000000,
-0.02538961358368396759033203125000000,
0.00323158176615834236145019531250000,
-0.03054738231003284454345703125000000,
-0.06315221637487411499023437500000000,
-0.07474197447299957275390625000000000,
0.03623709082603454589843750000000000,
0.05003724247217178344726562500000000,
0.00323622231371700763702392578125000,
0.01933377422392368316650390625000000,
-0.00423111720010638236999511718750000,
0.04437576606869697570800781250000000,
-0.06093931198120117187500000000000000,
-0.06021492928266525268554687500000000,
0.01863422058522701263427734375000000,
-0.01002969406545162200927734375000000,
-0.04185537993907928466796875000000000,
-0.04219876602292060852050781250000000,
0.05750928819179534912109375000000000,
0.01618637144565582275390625000000000,
-0.05687531456351280212402343750000000,
-0.02530989982187747955322265625000000,
0.07724732905626296997070312500000000,
-0.09458352625370025634765625000000000,
-0.01492732856422662734985351562500000,
-0.01051265466958284378051757812500000,
-0.01735957898199558258056640625000000,
-0.03006900660693645477294921875000000,
0.07402504980564117431640625000000000,
-0.00615425547584891319274902343750000,
0.07549360394477844238281250000000000,
0.00252039777114987373352050781250000,
0.03268292173743247985839843750000000,
-0.02903968095779418945312500000000000,
-0.06841206550598144531250000000000000,
-0.05168383568525314331054687500000000,
-0.04123050719499588012695312500000000,
0.04648967459797859191894531250000000,
-0.05061786249279975891113281250000000,
0.07380420714616775512695312500000000,
-0.00124388933181762695312500000000000,
-0.06336332857608795166015625000000000,
-0.03423409536480903625488281250000000,
-0.00967796146869659423828125000000000,
-0.05479226633906364440917968750000000,
0.01738032139837741851806640625000000,
-0.02035996317863464355468750000000000,
-0.06106207147240638732910156250000000,
0.01746034063398838043212890625000000,
0.05159456655383110046386718750000000,
-0.03464724868535995483398437500000000,
0.07249116897583007812500000000000000,
0.01830385997891426086425781250000000,
0.00657726824283599853515625000000000,
-0.05778700858354568481445312500000000,
-0.04089845344424247741699218750000000,
0.01695136912167072296142578125000000,
0.07484562695026397705078125000000000,
-0.05191974341869354248046875000000000,
0.00130125670693814754486083984375000,
0.02822405286133289337158203125000000,
-0.03403253108263015747070312500000000,
-0.09397480636835098266601562500000000,
0.08132965862751007080078125000000000,
0.10535401105880737304687500000000000,
-0.03701425716280937194824218750000000,
-0.03525744006037712097167968750000000,
0.10095225274562835693359375000000000,
0.03785138577222824096679687500000000,
0.07670967280864715576171875000000000,
-0.08448263257741928100585937500000000,
0.01841826550662517547607421875000000,
-0.04186541959643363952636718750000000,
0.04202542826533317565917968750000000,
0.03509872779250144958496093750000000,
-0.06464761495590209960937500000000000,
-0.06226653605699539184570312500000000,
0.10213890671730041503906250000000000,
0.01011349353939294815063476562500000,
0.07583823800086975097656250000000000,
0.00655968161299824714660644531250000,
0.03266185522079467773437500000000000,
-0.01778016239404678344726562500000000,
0.05003631860017776489257812500000000,
0.01549817528575658798217773437500000,
0.01511767785996198654174804687500000,
-0.08494468033313751220703125000000000,
-0.06619661301374435424804687500000000,
0.03027679398655891418457031250000000,
0.01793721318244934082031250000000000,
-0.08031522482633590698242187500000000,
0.10102111846208572387695312500000000,
-0.04871508851647377014160156250000000,
-0.01689437963068485260009765625000000,
-0.01724926196038722991943359375000000,
-0.08266009390354156494140625000000000,
-0.08423143625259399414062500000000000,
0.05065517127513885498046875000000000,
-0.02682623267173767089843750000000000,
0.04489153251051902770996093750000000,
-0.06699553132057189941406250000000000,
0.04284209385514259338378906250000000,
-0.00276715448126196861267089843750000,
-0.02114752680063247680664062500000000,
-0.02922131493687629699707031250000000,
-0.07510072737932205200195312500000000,
0.05768845602869987487792968750000000,
-0.06568946689367294311523437500000000,
-0.09114734828472137451171875000000000,
0.09192368388175964355468750000000000,
0.06513480097055435180664062500000000,
-0.02342546358704566955566406250000000,
-0.03355182707309722900390625000000000,
-0.06659124791622161865234375000000000,
0.05745923891663551330566406250000000,
0.04016748443245887756347656250000000,
-0.07156862318515777587890625000000000,
-0.07850021123886108398437500000000000,
-0.05088534951210021972656250000000000,
-0.08160655200481414794921875000000000,
0.06243485957384109497070312500000000,
0.00230215000919997692108154296875000,
0.03812160342931747436523437500000000,
0.06889130175113677978515625000000000,
-0.06767105311155319213867187500000000,
0.07300169765949249267578125000000000,
-0.09102327376604080200195312500000000,
0.06361395865678787231445312500000000,
0.06924723833799362182617187500000000,
0.01311667356640100479125976562500000,
0.10282442718744277954101562500000000,
0.00227693095803260803222656250000000,
0.09063445031642913818359375000000000,
-0.01413602381944656372070312500000000,
0.01103543583303689956665039062500000,
-0.00327828805893659591674804687500000,
-0.03918937221169471740722656250000000,
-0.02076297998428344726562500000000000,
0.09383398294448852539062500000000000,
0.07531658560037612915039062500000000,
0.06262584775686264038085937500000000,
0.05652028694748878479003906250000000,
0.09464210271835327148437500000000000,
0.09624181687831878662109375000000000,
0.05807039141654968261718750000000000,
-0.04302844032645225524902343750000000,
0.04809739813208580017089843750000000,
0.00120437704026699066162109375000000,
-0.08443433791399002075195312500000000,
0.08895421028137207031250000000000000,
0.08650447428226470947265625000000000,
0.08778250217437744140625000000000000,
-0.07236349582672119140625000000000000,
-0.06737852841615676879882812500000000,
0.08957753330469131469726562500000000,
-0.02437759563326835632324218750000000,
-0.05489190667867660522460937500000000,
-0.00784362759441137313842773437500000,
0.00510752759873867034912109375000000,
0.05909531563520431518554687500000000,
-0.03443102911114692687988281250000000,
-0.00842922832816839218139648437500000,
0.05016029998660087585449218750000000,
0.08625125885009765625000000000000000,
-0.08154332637786865234375000000000000,
0.04396944865584373474121093750000000,
-0.08754150569438934326171875000000000,
-0.03248232230544090270996093750000000,
0.07502301782369613647460937500000000,
-0.00326195405796170234680175781250000,
-0.09763544052839279174804687500000000,
0.04399169608950614929199218750000000,
-0.04581933096051216125488281250000000,
-0.00811199564486742019653320312500000,
-0.01423135399818420410156250000000000,
0.04331691190600395202636718750000000,
0.01839537546038627624511718750000000,
0.03641043975949287414550781250000000,
-0.03368702158331871032714843750000000,
-0.07893476635217666625976562500000000,
-0.02740390039980411529541015625000000,
0.06451459228992462158203125000000000,
-0.09400794655084609985351562500000000,
-0.06923626363277435302734375000000000,
0.01416557002812623977661132812500000,
-0.10064947605133056640625000000000000,
-0.00517668528482317924499511718750000,
0.00584688223898410797119140625000000,
0.00197076844051480293273925781250000,
0.06941993534564971923828125000000000,
-0.00591133069247007369995117187500000,
-0.10677524656057357788085937500000000,
-0.02531279623508453369140625000000000,
-0.04329749569296836853027343750000000,
0.01760276407003402709960937500000000,
0.03767472878098487854003906250000000,
-0.07318637520074844360351562500000000,
-0.07962970435619354248046875000000000,
0.07941388338804244995117187500000000,
-0.00099732889793813228607177734375000,
-0.03824669495224952697753906250000000,
0.06155278533697128295898437500000000,
-0.06793656945228576660156250000000000,
0.07039862126111984252929687500000000,
-0.03487286344170570373535156250000000,
-0.08756589144468307495117187500000000,
0.07407150417566299438476562500000000,
0.02471584826707839965820312500000000,
-0.05022470653057098388671875000000000,
-0.00511997938156127929687500000000000,
0.05233695730566978454589843750000000,
-0.01006861496716737747192382812500000,
-0.04743416234850883483886718750000000,
-0.06498034298419952392578125000000000,
-0.03675645217299461364746093750000000,
-0.03140287101268768310546875000000000,
0.05712471902370452880859375000000000,
-0.06026262044906616210937500000000000,
-0.10856988281011581420898437500000000,
0.08316678553819656372070312500000000,
-0.06333815306425094604492187500000000,
0.03201250359416007995605468750000000,
-0.00870156195014715194702148437500000,
0.02023659460246562957763671875000000,
0.00513633759692311286926269531250000,
0.08480274677276611328125000000000000,
0.06237944588065147399902343750000000,
0.04728171974420547485351562500000000,
0.07757497578859329223632812500000000,
-0.09509588778018951416015625000000000,
-0.05933494493365287780761718750000000,
-0.00026720811729319393634796142578125,
0.06736385077238082885742187500000000,
0.05688425898551940917968750000000000,
0.00581634743139147758483886718750000,
-0.09978301823139190673828125000000000,
-0.01528236642479896545410156250000000,
-0.06572328507900238037109375000000000,
0.03245876356959342956542968750000000,
0.06233545765280723571777343750000000,
0.02449594624340534210205078125000000,
0.03847311064600944519042968750000000,
0.06285661458969116210937500000000000,
-0.02368549630045890808105468750000000,
0.04712894931435585021972656250000000,
-0.03100620396435260772705078125000000,
-0.00725142890587449073791503906250000,
-0.06314306706190109252929687500000000,
-0.09303340315818786621093750000000000,
-0.10960372537374496459960937500000000,
-0.09245836734771728515625000000000000,
0.01084538735449314117431640625000000,
-0.10965371876955032348632812500000000,
-0.01195722259581089019775390625000000,
-0.02758743055164813995361328125000000,
-0.03712363541126251220703125000000000,
-0.05210714414715766906738281250000000,
0.03303457424044609069824218750000000,
-0.08335208892822265625000000000000000,
-0.04468996822834014892578125000000000,
0.02347151562571525573730468750000000,
-0.10609801858663558959960937500000000,
-0.05099975317716598510742187500000000,
0.04177760705351829528808593750000000,
0.00555173028260469436645507812500000,
0.07781993597745895385742187500000000,
-0.01330628618597984313964843750000000,
-0.04800537228584289550781250000000000,
0.07999373227357864379882812500000000,
-0.03152816742658615112304687500000000,
-0.00800604745745658874511718750000000,
-0.04172199964523315429687500000000000,
-0.05193171277642250061035156250000000,
0.04021753370761871337890625000000000,
0.07659310847520828247070312500000000,
0.02551006339490413665771484375000000,
-0.02240541763603687286376953125000000,
0.03354404866695404052734375000000000,
-0.04486993327736854553222656250000000,
-0.03780585899949073791503906250000000,
-0.06620568037033081054687500000000000,
0.00499689253047108650207519531250000,
0.01171207893639802932739257812500000,
0.02878529392182826995849609375000000,
0.02536182850599288940429687500000000,
0.04998184368014335632324218750000000,
-0.05714054033160209655761718750000000,
0.07457257062196731567382812500000000,
-0.00525561720132827758789062500000000,
-0.01828192174434661865234375000000000,
-0.00335727934725582599639892578125000,
-0.06584978848695755004882812500000000,
-0.08835240453481674194335937500000000,
0.01837973110377788543701171875000000,
0.00844181049615144729614257812500000,
0.03259254619479179382324218750000000,
0.07766290009021759033203125000000000,
0.00623946636915206909179687500000000,
-0.00618947530165314674377441406250000,
-0.04560220986604690551757812500000000,
-0.00576583016663789749145507812500000,
0.05381903424859046936035156250000000,
0.06181567907333374023437500000000000,
-0.04943722486495971679687500000000000,
0.06054185703396797180175781250000000,
-0.09948533028364181518554687500000000,
0.03887155652046203613281250000000000,
0.05128347873687744140625000000000000,
0.03913173824548721313476562500000000,
-0.07938198000192642211914062500000000,
0.02713991142809391021728515625000000,
0.01736088842153549194335937500000000,
-0.01402252167463302612304687500000000,
0.02845570258796215057373046875000000,
0.06251228600740432739257812500000000,
-0.09937281161546707153320312500000000,
-0.08149816840887069702148437500000000,
-0.06661215424537658691406250000000000,
0.08456598222255706787109375000000000,
-0.07579631358385086059570312500000000,
0.04811750724911689758300781250000000,
-0.08949553966522216796875000000000000,
-0.02856083028018474578857421875000000,
-0.09941678494215011596679687500000000,
0.04188892617821693420410156250000000,
-0.05510371178388595581054687500000000,
-0.03808334097266197204589843750000000,
-0.04825400561094284057617187500000000,
0.08180276304483413696289062500000000,
-0.05725640803575515747070312500000000,
-0.07662823796272277832031250000000000,
0.02822983264923095703125000000000000,
-0.01569771207869052886962890625000000,
0.05244545638561248779296875000000000,
0.02920360863208770751953125000000000,
-0.00597964879125356674194335937500000,
-0.00721128936856985092163085937500000,
-0.07587399333715438842773437500000000,
0.08957874774932861328125000000000000,
-0.00183031661435961723327636718750000,
0.08764690905809402465820312500000000,
0.01978297345340251922607421875000000,
-0.07954165339469909667968750000000000,
0.05073371529579162597656250000000000,
0.03766531497240066528320312500000000,
0.01891561038792133331298828125000000,
-0.07366766035556793212890625000000000,
-0.07163767516613006591796875000000000,
-0.07565215229988098144531250000000000,
0.08989410847425460815429687500000000,
-0.06814866513013839721679687500000000,
0.08038863539695739746093750000000000,
0.03766027092933654785156250000000000,
-0.02448475733399391174316406250000000,
-0.05973552167415618896484375000000000,
0.07020815461874008178710937500000000,
-0.07985224574804306030273437500000000,
0.04855433851480484008789062500000000,
-0.04769139736890792846679687500000000,
0.08284509927034378051757812500000000,
-0.07624159008264541625976562500000000,
0.03936046734452247619628906250000000,
-0.03665598481893539428710937500000000,
-0.00564340362325310707092285156250000,
0.00500921346247196197509765625000000,
-0.05023049563169479370117187500000000,
0.03564858809113502502441406250000000,
0.00302272336557507514953613281250000,
0.08941608667373657226562500000000000,
-0.10060667246580123901367187500000000,
-0.10679131001234054565429687500000000,
-0.03407262638211250305175781250000000,
0.08714824169874191284179687500000000,
-0.01645343005657196044921875000000000,
-0.04320865869522094726562500000000000,
0.04059029743075370788574218750000000,
-0.02448851428925991058349609375000000,
-0.09287760406732559204101562500000000,
0.02138845063745975494384765625000000,
0.02946233563125133514404296875000000,
0.05615595728158950805664062500000000,
0.07093538343906402587890625000000000,
0.08286394178867340087890625000000000,
0.02431981824338436126708984375000000,
0.07166428118944168090820312500000000,
0.02143781259655952453613281250000000,
-0.05117737874388694763183593750000000,
0.07068258523941040039062500000000000,
0.00742508471012115478515625000000000,
-0.10651545226573944091796875000000000,
0.03354647755622863769531250000000000,
0.00311633106321096420288085937500000,
0.00829280074685811996459960937500000,
0.00471995025873184204101562500000000,
-0.06533467769622802734375000000000000,
-0.08015846461057662963867187500000000,
-0.01214194577187299728393554687500000,
-0.07844427973031997680664062500000000,
-0.06036776304244995117187500000000000,
0.05826715007424354553222656250000000,
0.03180350363254547119140625000000000,
-0.03677415475249290466308593750000000,
-0.10462488234043121337890625000000000,
0.01806074939668178558349609375000000,
0.03203507885336875915527343750000000,
-0.05941900238394737243652343750000000,
-0.05174596235156059265136718750000000,
-0.08770279586315155029296875000000000,
-0.08672942221164703369140625000000000,
-0.09807258099317550659179687500000000,
-0.03935436904430389404296875000000000,
-0.02846805006265640258789062500000000,
-0.02990620583295822143554687500000000,
-0.04442748427391052246093750000000000,
0.08668942004442214965820312500000000,
-0.08091899007558822631835937500000000,
-0.07707455754280090332031250000000000,
0.09090434014797210693359375000000000,
0.06713652610778808593750000000000000,
0.03871298953890800476074218750000000,
-0.01017795968800783157348632812500000,
0.04769116267561912536621093750000000,
-0.05710271745920181274414062500000000,
0.08330534398555755615234375000000000,
0.06284894049167633056640625000000000,
0.05808274820446968078613281250000000,
0.02368126437067985534667968750000000,
-0.08768332004547119140625000000000000,
-0.00855734758079051971435546875000000,
-0.09476329386234283447265625000000000,
-0.08096772432327270507812500000000000,
0.08746633678674697875976562500000000,
0.02657232061028480529785156250000000,
0.02804910764098167419433593750000000,
-0.03190543875098228454589843750000000,
0.04161164164543151855468750000000000,
-0.06866358965635299682617187500000000,
-0.00168033863883465528488159179687500,
-0.06825082004070281982421875000000000,
0.00569472415372729301452636718750000,
-0.08654661476612091064453125000000000,
-0.02534838765859603881835937500000000,
-0.03222681581974029541015625000000000,
0.04801795631647109985351562500000000,
0.06757643073797225952148437500000000,
-0.03030930086970329284667968750000000,
-0.05312958732247352600097656250000000,
-0.09658459573984146118164062500000000,
0.00807556882500648498535156250000000,
0.02127020433545112609863281250000000,
-0.07982838153839111328125000000000000,
0.01698710583150386810302734375000000,
0.04927071183919906616210937500000000,
-0.08969308435916900634765625000000000,
-0.09400582313537597656250000000000000,
-0.07364955544471740722656250000000000,
0.06326878815889358520507812500000000,
-0.06047650054097175598144531250000000,
0.00739585608243942260742187500000000,
0.00206234655342996120452880859375000,
0.07530339062213897705078125000000000,
0.01893604733049869537353515625000000,
0.05434589833021163940429687500000000,
0.06982031464576721191406250000000000,
-0.10126975923776626586914062500000000,
-0.10529322177171707153320312500000000,
-0.07376904040575027465820312500000000,
-0.07679933309555053710937500000000000,
-0.00457080546766519546508789062500000,
-0.06091764569282531738281250000000000,
0.07884825766086578369140625000000000,
0.08004593849182128906250000000000000,
-0.02467894926667213439941406250000000,
0.00779759138822555541992187500000000,
-0.10653182119131088256835937500000000,
0.04772071912884712219238281250000000,
0.01674263179302215576171875000000000,
-0.01684827357530593872070312500000000,
-0.01838165149092674255371093750000000,
-0.08164139091968536376953125000000000,
-0.05933687835931777954101562500000000,
-0.03327108547091484069824218750000000,
0.07521260529756546020507812500000000,
-0.02657533064484596252441406250000000,
-0.04252988845109939575195312500000000,
0.05338496342301368713378906250000000,
0.08331996947526931762695312500000000,
0.00949850119650363922119140625000000,
-0.06366658210754394531250000000000000,
-0.07760240137577056884765625000000000,
-0.04811358079314231872558593750000000,
0.05468135327100753784179687500000000,
-0.03271721303462982177734375000000000,
0.03581456467509269714355468750000000,
-0.05051339417695999145507812500000000,
0.07530349493026733398437500000000000,
0.01636279933154582977294921875000000,
-0.06271868199110031127929687500000000,
-0.06535454839468002319335937500000000,
-0.10507826507091522216796875000000000,
-0.01759839244186878204345703125000000,
-0.01101396232843399047851562500000000,
-0.06054461747407913208007812500000000,
0.01891527511179447174072265625000000,
0.01318774279206991195678710937500000,
-0.02541059255599975585937500000000000,
-0.07682064920663833618164062500000000,
0.05839030817151069641113281250000000,
0.04730043560266494750976562500000000,
0.02044993266463279724121093750000000,
-0.06397350132465362548828125000000000,
-0.10581638664007186889648437500000000,
-0.06949287652969360351562500000000000,
-0.09634727984666824340820312500000000,
-0.08548872172832489013671875000000000,
-0.05077993869781494140625000000000000,
0.04443798214197158813476562500000000,
0.01204703934490680694580078125000000,
0.07485371828079223632812500000000000,
-0.10042612254619598388671875000000000,
-0.03461309149861335754394531250000000,
0.05247709527611732482910156250000000,
0.05135252699255943298339843750000000,
0.01680178381502628326416015625000000,
-0.06071403995156288146972656250000000,
0.05525951832532882690429687500000000,
-0.09998796135187149047851562500000000,
-0.10655997693538665771484375000000000,
0.00062618020456284284591674804687500,
-0.07279284298419952392578125000000000,
0.04254044219851493835449218750000000,
0.08205526322126388549804687500000000,
0.05802818760275840759277343750000000,
-0.00025282139540649950504302978515625,
0.01609145291149616241455078125000000,
0.03916983678936958312988281250000000,
-0.04289664328098297119140625000000000,
0.05453666672110557556152343750000000,
0.04309455677866935729980468750000000,
0.06157970055937767028808593750000000,
-0.09491201490163803100585937500000000,
0.06239693984389305114746093750000000,
-0.04829306155443191528320312500000000,
-0.10305856168270111083984375000000000,
-0.02807773649692535400390625000000000,
-0.10393707454204559326171875000000000,
-0.07595888525247573852539062500000000,
0.04762693494558334350585937500000000,
-0.07645224034786224365234375000000000,
0.07994177937507629394531250000000000,
-0.03783965483307838439941406250000000,
-0.06958223879337310791015625000000000,
0.05094588547945022583007812500000000,
-0.05368276685476303100585937500000000,
-0.08417233079671859741210937500000000,
-0.03236210346221923828125000000000000,
-0.07896848022937774658203125000000000,
0.03345676138997077941894531250000000,
0.04723869636654853820800781250000000,
-0.01753624714910984039306640625000000,
0.06533104181289672851562500000000000,
0.09101767092943191528320312500000000,
0.05475321039557456970214843750000000,
0.02877963520586490631103515625000000,
-0.10660124570131301879882812500000000,
0.03763811662793159484863281250000000,
0.05291321501135826110839843750000000,
0.05153587087988853454589843750000000,
0.06974478811025619506835937500000000,
0.01148443017154932022094726562500000,
-0.06276957690715789794921875000000000,
-0.03589846566319465637207031250000000,
0.04054871946573257446289062500000000,
0.08603252470493316650390625000000000,
0.04556907713413238525390625000000000,
-0.07663746923208236694335937500000000,
0.09111209958791732788085937500000000,
0.08800698816776275634765625000000000,
0.02795399725437164306640625000000000,
0.06513617187738418579101562500000000,
0.08380857855081558227539062500000000,
-0.08405388891696929931640625000000000,
0.01341168582439422607421875000000000,
-0.02836292982101440429687500000000000,
-0.02139336988329887390136718750000000,
0.04668109863996505737304687500000000,
-0.03838650509715080261230468750000000,
0.01295238174498081207275390625000000,
0.06622693687677383422851562500000000,
0.02164698205888271331787109375000000,
0.04708582535386085510253906250000000,
0.01363242790102958679199218750000000,
-0.09183323383331298828125000000000000,
0.00161015684716403484344482421875000,
0.04568358138203620910644531250000000,
-0.01999988406896591186523437500000000,
0.06682386994361877441406250000000000,
0.07753005623817443847656250000000000,
0.01495370548218488693237304687500000,
0.08694966882467269897460937500000000,
-0.06795062869787216186523437500000000,
-0.04408014565706253051757812500000000,
-0.10430780053138732910156250000000000,
-0.06296232342720031738281250000000000,
-0.07815530896186828613281250000000000,
-0.03766132146120071411132812500000000,
0.09080618619918823242187500000000000,
0.01539475657045841217041015625000000,
-0.00021680314966943114995956420898438,
0.04020341113209724426269531250000000,
0.08162951469421386718750000000000000,
0.00440436042845249176025390625000000,
-0.10234640538692474365234375000000000,
-0.04929277673363685607910156250000000,
-0.00340566248632967472076416015625000,
-0.04475823044776916503906250000000000,
-0.10367840528488159179687500000000000,
-0.07457535713911056518554687500000000,
-0.08718855679035186767578125000000000,
-0.05096655711531639099121093750000000,
0.01138552464544773101806640625000000,
0.00334245315752923488616943359375000,
0.03083754889667034149169921875000000,
-0.03199869021773338317871093750000000,
-0.08075177669525146484375000000000000,
0.05437247455120086669921875000000000,
-0.04138703271746635437011718750000000,
-0.09690987318754196166992187500000000,
-0.02487630955874919891357421875000000,
-0.09886481612920761108398437500000000,
-0.01198964472860097885131835937500000,
0.00293622096069157123565673828125000,
-0.07988446950912475585937500000000000,
0.00807747337967157363891601562500000,
0.02140410803258419036865234375000000,
0.02447273209691047668457031250000000,
0.03354168310761451721191406250000000,
-0.00142648548353463411331176757812500,
-0.07235567271709442138671875000000000,
0.00224455981515347957611083984375000,
-0.05436880886554718017578125000000000,
-0.02999221161007881164550781250000000,
0.06740779429674148559570312500000000,
0.03908861428499221801757812500000000,
-0.02767159417271614074707031250000000,
0.02926297485828399658203125000000000,
-0.00883476063609123229980468750000000,
-0.04522045329213142395019531250000000,
-0.06925298273563385009765625000000000,
-0.09369988739490509033203125000000000,
-0.02439640276134014129638671875000000,
-0.07072678953409194946289062500000000,
-0.10299059748649597167968750000000000,
-0.01722489297389984130859375000000000,
-0.06420928239822387695312500000000000,
0.06085522100329399108886718750000000,
-0.06742526590824127197265625000000000,
-0.00638456968590617179870605468750000,
0.08810785412788391113281250000000000,
0.01516736205667257308959960937500000,
-0.00197324529290199279785156250000000,
-0.03738408163189888000488281250000000,
0.07789587229490280151367187500000000,
0.00458143278956413269042968750000000,
0.06769917160272598266601562500000000,
-0.07871136069297790527343750000000000,
-0.08064991980791091918945312500000000,
-0.05866736173629760742187500000000000,
0.03563133999705314636230468750000000,
0.07989025861024856567382812500000000,
0.00323134055361151695251464843750000,
0.04259128123521804809570312500000000,
0.03366978466510772705078125000000000,
0.10149079561233520507812500000000000,
0.05198194086551666259765625000000000,
-0.03239381313323974609375000000000000,
0.08825533837080001831054687500000000,
-0.02019919268786907196044921875000000,
0.06051256507635116577148437500000000,
0.05831602215766906738281250000000000,
0.06475313007831573486328125000000000,
-0.09184259921312332153320312500000000,
-0.00091789517318829894065856933593750,
-0.00860301591455936431884765625000000,
0.05291699245572090148925781250000000,
-0.01338097639381885528564453125000000,
0.04759582504630088806152343750000000,
0.06809898465871810913085937500000000,
-0.05870014801621437072753906250000000,
-0.07670807093381881713867187500000000,
0.05358501896262168884277343750000000,
0.04795948415994644165039062500000000,
-0.01949879713356494903564453125000000,
-0.07730029523372650146484375000000000,
0.03092539310455322265625000000000000,
0.02866803482174873352050781250000000,
0.03359078243374824523925781250000000,
-0.08436293154954910278320312500000000,
0.00376369175501167774200439453125000,
-0.00854356680065393447875976562500000,
-0.04541447013616561889648437500000000,
0.06756931543350219726562500000000000,
0.07500681281089782714843750000000000,
0.04420774430036544799804687500000000,
-0.07130054384469985961914062500000000,
-0.08031105995178222656250000000000000,
0.07011440396308898925781250000000000,
-0.04105589166283607482910156250000000,
-0.09461674094200134277343750000000000,
0.07081700116395950317382812500000000,
0.01987699791789054870605468750000000,
-0.07716915756464004516601562500000000,
-0.00160406436771154403686523437500000,
0.00836422108113765716552734375000000,
0.03739141672849655151367187500000000,
0.01869536004960536956787109375000000,
-0.01536092162132263183593750000000000,
0.05801150947809219360351562500000000,
0.07578036934137344360351562500000000,
-0.02652929164469242095947265625000000,
0.03892446681857109069824218750000000,
0.02643471024930477142333984375000000,
0.09537128359079360961914062500000000,
-0.01729565113782882690429687500000000,
0.08210822939872741699218750000000000,
0.01678113639354705810546875000000000,
-0.08632523566484451293945312500000000,
-0.04431707412004470825195312500000000,
-0.05590160563588142395019531250000000,
-0.09224169701337814331054687500000000,
-0.01075991056859493255615234375000000,
0.01669096015393733978271484375000000,
0.06094876676797866821289062500000000,
-0.01079422142356634140014648437500000,
-0.07955688238143920898437500000000000,
0.05797128751873970031738281250000000,
0.03265127167105674743652343750000000,
-0.08396268635988235473632812500000000,
-0.02077894471585750579833984375000000,
-0.06838617473840713500976562500000000,
-0.02756641618907451629638671875000000,
-0.02887007407844066619873046875000000,
0.00743979960680007934570312500000000,
-0.00542543129995465278625488281250000,
0.09764321893453598022460937500000000,
0.09964311867952346801757812500000000,
0.05431021004915237426757812500000000,
-0.02633932977914810180664062500000000,
0.06680880486965179443359375000000000,
0.10074830800294876098632812500000000,
-0.08259818702936172485351562500000000,
-0.08161091804504394531250000000000000,
-0.03843951225280761718750000000000000,
0.06144305691123008728027343750000000,
-0.04875570908188819885253906250000000,
0.06791896373033523559570312500000000,
-0.05929712578654289245605468750000000,
-0.01195524819195270538330078125000000,
0.03680356591939926147460937500000000,
0.02593518793582916259765625000000000,
0.06641114503145217895507812500000000,
-0.05452490597963333129882812500000000,
0.02875936403870582580566406250000000,
0.07845412194728851318359375000000000,
-0.07238782942295074462890625000000000,
0.07831124961376190185546875000000000,
-0.06909301877021789550781250000000000,
-0.06691689044237136840820312500000000,
-0.08963639289140701293945312500000000,
0.03945584222674369812011718750000000,
0.07494471222162246704101562500000000,
-0.02615096792578697204589843750000000,
-0.04305803775787353515625000000000000,
-0.05179819092154502868652343750000000,
0.02278420887887477874755859375000000,
-0.08669082820415496826171875000000000,
-0.04318334534764289855957031250000000,
-0.04772957786917686462402343750000000,
-0.04399637505412101745605468750000000,
-0.05490185692906379699707031250000000,
0.05017860233783721923828125000000000,
-0.02862580679357051849365234375000000,
-0.03860658407211303710937500000000000,
0.07629171758890151977539062500000000,
0.00247221626341342926025390625000000,
0.06837035715579986572265625000000000,
-0.00344485044479370117187500000000000,
0.03665968775749206542968750000000000,
0.03526847437024116516113281250000000,
-0.07692150771617889404296875000000000,
0.05798799544572830200195312500000000,
-0.09145263582468032836914062500000000,
0.05729089304804801940917968750000000,
0.03234174102544784545898437500000000,
-0.01596358604729175567626953125000000,
0.08255258202552795410156250000000000,
-0.07598020881414413452148437500000000,
-0.06294992566108703613281250000000000,
0.00001991581302718259394168853759766,
0.05411624163389205932617187500000000,
-0.06462617963552474975585937500000000,
0.07124782353639602661132812500000000,
-0.04563036933541297912597656250000000,
0.01822374761104583740234375000000000,
-0.01819068379700183868408203125000000,
-0.05881844088435173034667968750000000,
0.03121460601687431335449218750000000,
-0.05747497826814651489257812500000000,
0.03067510016262531280517578125000000,
-0.09335251897573471069335937500000000,
-0.10802751034498214721679687500000000,
-0.03731737658381462097167968750000000,
0.00211745197884738445281982421875000,
0.04641315713524818420410156250000000,
0.01285565923899412155151367187500000,
0.01689236424863338470458984375000000,
-0.01104819215834140777587890625000000,
0.07422269135713577270507812500000000,
0.03131067007780075073242187500000000,
-0.08238033205270767211914062500000000,
0.07505750656127929687500000000000000,
0.05210408940911293029785156250000000,
0.05345797911286354064941406250000000,
-0.06415951997041702270507812500000000,
0.00648773834109306335449218750000000,
-0.00766662368550896644592285156250000,
-0.05202931538224220275878906250000000,
-0.01871097646653652191162109375000000,
0.07884074002504348754882812500000000,
0.05324780195951461791992187500000000,
0.05052403733134269714355468750000000,
-0.09838713705539703369140625000000000,
-0.02024512551724910736083984375000000,
0.06669387966394424438476562500000000,
-0.00557934073731303215026855468750000,
-0.00647911848500370979309082031250000,
-0.01902367360889911651611328125000000,
-0.10104426741600036621093750000000000,
0.05917998403310775756835937500000000,
0.02126574143767356872558593750000000,
-0.08254350721836090087890625000000000,
-0.04001682251691818237304687500000000,
0.07508381456136703491210937500000000,
0.07079581171274185180664062500000000,
-0.08210425823926925659179687500000000,
-0.06799238175153732299804687500000000,
-0.01273024547845125198364257812500000,
-0.07615862041711807250976562500000000,
0.08031610399484634399414062500000000,
0.02488360553979873657226562500000000,
-0.03315800055861473083496093750000000,
-0.00084371998673304915428161621093750,
0.02849210985004901885986328125000000,
0.02808137424290180206298828125000000,
-0.08378240466117858886718750000000000,
0.04006290063261985778808593750000000,
0.01360137294977903366088867187500000,
-0.06557318568229675292968750000000000,
0.02096062526106834411621093750000000,
-0.07886932045221328735351562500000000,
0.02240874059498310089111328125000000,
-0.09220986813306808471679687500000000,
0.06013029068708419799804687500000000,
-0.03000986389815807342529296875000000,
-0.00047419840120710432529449462890625,
-0.08347847312688827514648437500000000,
0.00781350024044513702392578125000000,
0.07991057634353637695312500000000000,
0.04695595055818557739257812500000000,
0.05756630375981330871582031250000000,
0.09359213709831237792968750000000000,
-0.01833174750208854675292968750000000,
0.02358049154281616210937500000000000,
-0.01402420178055763244628906250000000,
0.06133555248379707336425781250000000,
0.05675240233540534973144531250000000,
-0.08520209789276123046875000000000000,
0.06694922596216201782226562500000000,
-0.06298579275608062744140625000000000,
-0.05696665123105049133300781250000000,
-0.00393377337604761123657226562500000,
0.05992042645812034606933593750000000,
0.09491899609565734863281250000000000,
-0.00025156262563541531562805175781250,
0.03574389219284057617187500000000000,
-0.04223115369677543640136718750000000,
-0.10019917786121368408203125000000000,
-0.01656551100313663482666015625000000,
-0.04230380058288574218750000000000000,
0.09807192534208297729492187500000000,
0.00006966951332287862896919250488281,
-0.03606376796960830688476562500000000,
0.03380687534809112548828125000000000,
0.05739088729023933410644531250000000,
0.06519022583961486816406250000000000,
0.00103776447940617799758911132812500,
-0.06301184743642807006835937500000000,
-0.08516327291727066040039062500000000,
-0.06080419570207595825195312500000000,
-0.00346700474619865417480468750000000,
-0.09040853381156921386718750000000000,
0.01638938114047050476074218750000000,
-0.02912366390228271484375000000000000,
-0.01651883125305175781250000000000000,
0.03306493908166885375976562500000000,
0.04900055378675460815429687500000000,
0.03786752745509147644042968750000000,
-0.06600693613290786743164062500000000,
0.00800131540745496749877929687500000,
-0.09002946317195892333984375000000000,
-0.08955286443233489990234375000000000,
0.08881556242704391479492187500000000,
-0.06413118541240692138671875000000000,
-0.01432317122817039489746093750000000,
-0.07898927479982376098632812500000000,
-0.02870014123618602752685546875000000,
-0.07660318911075592041015625000000000,
-0.09197489917278289794921875000000000,
0.09268031269311904907226562500000000,
-0.01139060035347938537597656250000000,
0.02552169747650623321533203125000000,
0.05561258271336555480957031250000000,
-0.04796285182237625122070312500000000,
0.07598048448562622070312500000000000,
-0.08420212566852569580078125000000000,
0.04831008613109588623046875000000000,
0.01837396807968616485595703125000000,
0.03504756093025207519531250000000000,
-0.01635040529072284698486328125000000,
-0.01539206504821777343750000000000000,
-0.01037211343646049499511718750000000,
-0.04382634162902832031250000000000000,
0.08587484061717987060546875000000000,
0.00085753307212144136428833007812500,
0.07722565531730651855468750000000000,
0.01688149571418762207031250000000000,
-0.01024162117391824722290039062500000,
-0.04208170622587203979492187500000000,
-0.06053523346781730651855468750000000,
0.06982751935720443725585937500000000,
0.05529621988534927368164062500000000,
-0.02878295071423053741455078125000000,
-0.04175297170877456665039062500000000,
0.03767084702849388122558593750000000,
0.09179722517728805541992187500000000,
-0.08346350491046905517578125000000000,
0.05594700947403907775878906250000000,
0.09083383530378341674804687500000000,
-0.08157036453485488891601562500000000,
0.02047781087458133697509765625000000,
0.03693756833672523498535156250000000,
0.03906309977173805236816406250000000,
0.07916610687971115112304687500000000,
-0.07299953699111938476562500000000000,
-0.06665855646133422851562500000000000,
-0.00415694247931241989135742187500000,
0.05161026120185852050781250000000000,
-0.00344655429944396018981933593750000,
-0.04072444513440132141113281250000000,
-0.04043969511985778808593750000000000,
-0.10597671568393707275390625000000000,
-0.04503863304853439331054687500000000,
0.01616995781660079956054687500000000,
-0.00702654197812080383300781250000000,
-0.04169664159417152404785156250000000,
0.05776721611618995666503906250000000,
-0.07877852767705917358398437500000000,
0.03666863963007926940917968750000000,
0.04516543820500373840332031250000000,
-0.00253859302029013633728027343750000,
0.04976604133844375610351562500000000,
-0.00246783066540956497192382812500000,
0.07020083814859390258789062500000000,
-0.02607341110706329345703125000000000,
-0.09417784214019775390625000000000000,
0.06087883189320564270019531250000000,
-0.08167374879121780395507812500000000,
-0.02932410687208175659179687500000000,
0.03741861507296562194824218750000000,
-0.02663199417293071746826171875000000,
0.09011792391538619995117187500000000,
0.03629284724593162536621093750000000,
-0.06589703261852264404296875000000000,
0.08797611296176910400390625000000000,
-0.08648741245269775390625000000000000,
-0.02334590442478656768798828125000000,
0.06974031031131744384765625000000000,
-0.01003938633948564529418945312500000,
-0.03837487474083900451660156250000000,
-0.08612988144159317016601562500000000,
-0.00920413155108690261840820312500000,
-0.00403939746320247650146484375000000,
0.08484996855258941650390625000000000,
-0.01881930232048034667968750000000000,
0.00171165762003511190414428710937500,
-0.09006939828395843505859375000000000,
-0.05962061136960983276367187500000000,
0.08435805141925811767578125000000000,
-0.07539488375186920166015625000000000,
-0.04370622336864471435546875000000000,
0.07902272045612335205078125000000000,
0.07888138294219970703125000000000000,
-0.08990447968244552612304687500000000,
-0.08778160810470581054687500000000000,
0.02333633787930011749267578125000000,
-0.07173784077167510986328125000000000,
-0.08942109346389770507812500000000000,
0.02663269825279712677001953125000000,
-0.07744622975587844848632812500000000,
0.00975476205348968505859375000000000,
-0.03459905460476875305175781250000000,
-0.06660095602273941040039062500000000,
-0.10349126160144805908203125000000000,
-0.07020811736583709716796875000000000,
0.00782480742782354354858398437500000,
0.06478095799684524536132812500000000,
-0.07734567672014236450195312500000000,
-0.09295377880334854125976562500000000,
-0.07270593941211700439453125000000000,
0.07751423865556716918945312500000000,
0.05172777175903320312500000000000000,
-0.09078377485275268554687500000000000,
-0.09710710495710372924804687500000000,
-0.10302215069532394409179687500000000,
-0.01112239621579647064208984375000000,
-0.06439206004142761230468750000000000,
0.03627170994877815246582031250000000,
-0.03736422955989837646484375000000000,
0.08931221067905426025390625000000000,
-0.08364467322826385498046875000000000,
0.05918515473604202270507812500000000,
-0.08714804798364639282226562500000000,
0.03957352414727210998535156250000000,
-0.03800514712929725646972656250000000,
0.02522035501897335052490234375000000,
0.00744115747511386871337890625000000,
-0.02217138931155204772949218750000000,
-0.10269253700971603393554687500000000,
-0.09705130755901336669921875000000000,
-0.05969698354601860046386718750000000,
-0.01220526453107595443725585937500000,
0.01168411877006292343139648437500000,
-0.06338224560022354125976562500000000,
-0.08283829689025878906250000000000000,
-0.03482908383011817932128906250000000,
0.04731776565313339233398437500000000,
-0.09999740868806838989257812500000000,
-0.01538650877773761749267578125000000,
0.00057134620146825909614562988281250,
-0.06854812800884246826171875000000000,
-0.06190343573689460754394531250000000,
0.08728650957345962524414062500000000,
-0.05556251481175422668457031250000000,
0.04732611775398254394531250000000000,
-0.10487499833106994628906250000000000,
0.05860036611557006835937500000000000,
0.07322261482477188110351562500000000,
-0.05616361275315284729003906250000000,
-0.04796538129448890686035156250000000,
0.08684622496366500854492187500000000,
-0.10473315417766571044921875000000000,
-0.00845863297581672668457031250000000,
0.04659708961844444274902343750000000,
0.08281685411930084228515625000000000,
0.06463649868965148925781250000000000,
0.02567777223885059356689453125000000,
-0.03765143826603889465332031250000000,
-0.04981279000639915466308593750000000,
-0.00256138481199741363525390625000000,
0.07897862792015075683593750000000000,
-0.05587736144661903381347656250000000,
0.08248142898082733154296875000000000,
-0.05868882313370704650878906250000000,
-0.03535272553563117980957031250000000,
0.07296848297119140625000000000000000,
-0.02033454924821853637695312500000000,
-0.01074989419430494308471679687500000,
-0.01470578089356422424316406250000000,
-0.05273381993174552917480468750000000,
-0.09845671057701110839843750000000000,
0.06602075695991516113281250000000000,
-0.02284618280827999114990234375000000,
-0.02712279558181762695312500000000000,
-0.00437480956315994262695312500000000,
0.08955583721399307250976562500000000,
0.00530221033841371536254882812500000,
-0.10157924145460128784179687500000000,
0.08069532364606857299804687500000000,
-0.03960931301116943359375000000000000,
-0.00893536023795604705810546875000000,
0.04291835799813270568847656250000000,
-0.07274222373962402343750000000000000,
-0.04755557700991630554199218750000000,
-0.03623644635081291198730468750000000,
0.08888093382120132446289062500000000,
-0.06210442259907722473144531250000000,
0.00346229039132595062255859375000000,
-0.03811691328883171081542968750000000,
-0.07127653062343597412109375000000000,
-0.04444427415728569030761718750000000,
-0.04666344448924064636230468750000000,
-0.02774010784924030303955078125000000,
-0.03228862211108207702636718750000000,
-0.06426000595092773437500000000000000,
0.06480794399976730346679687500000000,
-0.05104531347751617431640625000000000,
0.00946617312729358673095703125000000,
-0.05373382568359375000000000000000000,
0.01532373204827308654785156250000000,
0.07071237266063690185546875000000000,
0.00674953497946262359619140625000000,
0.06799969822168350219726562500000000,
-0.07365610450506210327148437500000000,
0.03463785722851753234863281250000000,
0.08323340117931365966796875000000000,
0.07178332656621932983398437500000000,
0.04593848809599876403808593750000000,
0.04946238920092582702636718750000000,
-0.03998095914721488952636718750000000,
-0.09353040158748626708984375000000000,
-0.09462776780128479003906250000000000,
0.03860009834170341491699218750000000,
-0.10004452615976333618164062500000000,
0.02161055430769920349121093750000000,
-0.02078924514353275299072265625000000,
0.08614255487918853759765625000000000,
-0.06757827103137969970703125000000000,
-0.00006494656554423272609710693359375,
-0.09698089212179183959960937500000000,
-0.04909888282418251037597656250000000,
0.03764995932579040527343750000000000,
-0.01336543820798397064208984375000000,
-0.00048108733608387410640716552734375,
0.05573619902133941650390625000000000,
0.02748629078269004821777343750000000,
0.00793243944644927978515625000000000,
-0.01751757971942424774169921875000000,
-0.04388498142361640930175781250000000,
0.00599994184449315071105957031250000,
-0.08155661076307296752929687500000000,
0.04836764186620712280273437500000000,
0.00679943151772022247314453125000000,
-0.05805421248078346252441406250000000,
0.07174729555845260620117187500000000,
0.02593982778489589691162109375000000,
0.08434092253446578979492187500000000,
-0.10343235731124877929687500000000000,
-0.10124392062425613403320312500000000,
-0.07831481099128723144531250000000000,
-0.04340178146958351135253906250000000,
0.04538542777299880981445312500000000,
-0.01299325190484523773193359375000000,
-0.06391965597867965698242187500000000,
-0.08407428860664367675781250000000000,
-0.00329806143417954444885253906250000,
-0.02840889059007167816162109375000000,
0.02314483188092708587646484375000000,
-0.04008007049560546875000000000000000,
0.02885087020695209503173828125000000,
-0.03251858800649642944335937500000000,
0.02510318532586097717285156250000000,
0.08564357459545135498046875000000000,
-0.00888366810977458953857421875000000,
0.02890715189278125762939453125000000,
-0.09234514087438583374023437500000000,
-0.04450638219714164733886718750000000,
0.02991100400686264038085937500000000,
0.08135548233985900878906250000000000,
-0.09412883967161178588867187500000000,
-0.09172756969928741455078125000000000,
0.06828070431947708129882812500000000,
0.00525612989440560340881347656250000,
-0.00889729987829923629760742187500000,
-0.01100462116301059722900390625000000,
-0.04708627983927726745605468750000000,
0.09824463725090026855468750000000000,
0.04785661771893501281738281250000000,
0.02467730082571506500244140625000000,
0.02174814231693744659423828125000000,
0.00892938300967216491699218750000000,
-0.05905016884207725524902343750000000,
0.09488712996244430541992187500000000,
0.10260284692049026489257812500000000,
-0.05716618150472640991210937500000000,
0.08564557135105133056640625000000000,
-0.07279297709465026855468750000000000,
-0.05355761200189590454101562500000000,
0.08989769220352172851562500000000000,
0.09275035560131072998046875000000000,
-0.00447751861065626144409179687500000,
0.00334689812734723091125488281250000,
0.01467821281403303146362304687500000,
-0.01598529145121574401855468750000000,
-0.08413880318403244018554687500000000,
-0.08489590138196945190429687500000000,
0.09323032945394515991210937500000000,
-0.05388197302818298339843750000000000,
0.02892199158668518066406250000000000,
0.02914356440305709838867187500000000,
-0.08332943916320800781250000000000000,
0.04046015813946723937988281250000000,
0.05714745819568634033203125000000000,
-0.00159087439533323049545288085937500,
0.04227448254823684692382812500000000,
-0.03841996192932128906250000000000000,
-0.05144218355417251586914062500000000,
0.01985629089176654815673828125000000,
-0.05317852273583412170410156250000000,
-0.08623591810464859008789062500000000,
-0.04204509779810905456542968750000000,
0.08562079817056655883789062500000000,
-0.07456267625093460083007812500000000,
0.06121531128883361816406250000000000,
-0.01337976381182670593261718750000000,
-0.05471361801028251647949218750000000,
-0.01090892218053340911865234375000000,
0.02404712140560150146484375000000000,
-0.04102254286408424377441406250000000,
0.09205288439989089965820312500000000,
-0.06015432626008987426757812500000000,
0.04504909738898277282714843750000000,
-0.04511268436908721923828125000000000,
-0.04867681115865707397460937500000000,
-0.01184851862490177154541015625000000,
-0.01226047985255718231201171875000000,
-0.05440976470708847045898437500000000,
0.00310532795265316963195800781250000,
-0.03919835388660430908203125000000000,
0.00213698041625320911407470703125000,
0.00598891312256455421447753906250000,
-0.02585038170218467712402343750000000,
0.08370847254991531372070312500000000,
0.06834600865840911865234375000000000,
0.09621636569499969482421875000000000,
0.03808319196105003356933593750000000,
0.02147616632282733917236328125000000,
-0.01299845892935991287231445312500000,
0.09983059763908386230468750000000000,
0.02008249051868915557861328125000000,
-0.00256465398706495761871337890625000,
0.01870967820286750793457031250000000,
-0.08175688236951828002929687500000000,
-0.06937933713197708129882812500000000,
0.07302593439817428588867187500000000,
0.06426624953746795654296875000000000,
-0.09503202140331268310546875000000000,
0.06820933520793914794921875000000000,
-0.08112584054470062255859375000000000,
-0.00269592623226344585418701171875000,
0.03697947785258293151855468750000000,
-0.06262127310037612915039062500000000,
0.08847889304161071777343750000000000,
-0.03525443747639656066894531250000000,
-0.09523000568151473999023437500000000,
-0.02367304265499114990234375000000000,
-0.04652784019708633422851562500000000,
-0.00309753534384071826934814453125000,
0.00199740636162459850311279296875000,
0.09283352643251419067382812500000000,
0.05327111482620239257812500000000000,
0.02616590261459350585937500000000000,
0.06901952624320983886718750000000000,
-0.07016146928071975708007812500000000,
-0.00412049470469355583190917968750000,
0.09264896064996719360351562500000000,
-0.07991667836904525756835937500000000,
-0.06748387962579727172851562500000000,
-0.01361823454499244689941406250000000,
-0.02702911943197250366210937500000000,
-0.02306531183421611785888671875000000,
0.01390373893082141876220703125000000,
0.00664139352738857269287109375000000,
-0.07164169102907180786132812500000000,
-0.07453621923923492431640625000000000,
0.05041644722223281860351562500000000,
0.02714371867477893829345703125000000,
-0.07512061297893524169921875000000000,
-0.02329246886074542999267578125000000,
-0.02273963019251823425292968750000000,
0.10028005391359329223632812500000000,
-0.08899456262588500976562500000000000,
-0.04153078421950340270996093750000000,
0.05485242977738380432128906250000000,
-0.01605950668454170227050781250000000,
0.00387032027356326580047607421875000,
0.04528066515922546386718750000000000,
0.06965653598308563232421875000000000,
0.00065457570599392056465148925781250,
-0.09173098206520080566406250000000000,
-0.04523720964789390563964843750000000,
0.08013400435447692871093750000000000,
0.05658730864524841308593750000000000,
0.05093017220497131347656250000000000,
0.09752947837114334106445312500000000,
0.05498735606670379638671875000000000,
0.03276298195123672485351562500000000,
0.10305503755807876586914062500000000,
-0.02507211081683635711669921875000000,
-0.01332520414143800735473632812500000,
0.04478900879621505737304687500000000,
0.09075076133012771606445312500000000,
0.00499681243672966957092285156250000,
0.08810716122388839721679687500000000,
0.01265638321638107299804687500000000,
0.04900171235203742980957031250000000,
0.05018213391304016113281250000000000,
0.06715921312570571899414062500000000,
-0.08456506580114364624023437500000000,
-0.04902243614196777343750000000000000,
0.00761223584413528442382812500000000,
-0.04932382702827453613281250000000000,
-0.05366849154233932495117187500000000,
-0.06520335376262664794921875000000000,
-0.00362112349830567836761474609375000,
-0.09060749411582946777343750000000000,
-0.08854487538337707519531250000000000,
-0.06882187724113464355468750000000000,
-0.09565567225217819213867187500000000,
-0.05178834870457649230957031250000000,
0.08819011598825454711914062500000000,
-0.00056928436970338225364685058593750,
-0.04515885561704635620117187500000000,
0.09126193821430206298828125000000000,
0.03659300878643989562988281250000000,
0.08129011839628219604492187500000000,
-0.07740087807178497314453125000000000,
-0.09422355145215988159179687500000000,
0.00915054511278867721557617187500000,
-0.08511359244585037231445312500000000,
-0.04206508770585060119628906250000000,
-0.01922412589192390441894531250000000,
0.03389443829655647277832031250000000,
-0.01749924570322036743164062500000000,
0.01993017643690109252929687500000000,
0.03007955476641654968261718750000000,
0.05398219078779220581054687500000000,
0.10181546211242675781250000000000000,
-0.04233335331082344055175781250000000,
0.09745170176029205322265625000000000,
-0.02737555839121341705322265625000000,
-0.07157345861196517944335937500000000,
0.01716319285333156585693359375000000,
-0.05481877177953720092773437500000000,
-0.06726682931184768676757812500000000,
0.01467353943735361099243164062500000,
-0.03351110592484474182128906250000000,
-0.05478748306632041931152343750000000,
-0.07883137464523315429687500000000000,
-0.09615914523601531982421875000000000,
0.06209756061434745788574218750000000,
-0.00150615326128900051116943359375000,
-0.09317325800657272338867187500000000,
0.05750344693660736083984375000000000,
0.10187474638223648071289062500000000,
-0.00194860761985182762145996093750000,
0.09384533017873764038085937500000000,
-0.11829102784395217895507812500000000,
0.06990662962198257446289062500000000,
-0.11998302489519119262695312500000000,
-0.02217743173241615295410156250000000,
-0.02343656681478023529052734375000000,
0.04537084326148033142089843750000000,
0.01004425995051860809326171875000000,
-0.09012398868799209594726562500000000,
-0.06262272596359252929687500000000000,
-0.05891789495944976806640625000000000,
-0.09706187248229980468750000000000000,
0.05769600719213485717773437500000000,
-0.06737366318702697753906250000000000,
-0.00762164918705821037292480468750000,
-0.12294837832450866699218750000000000,
0.04215729609131813049316406250000000,
-0.04756025597453117370605468750000000,
0.03989069908857345581054687500000000,
0.03825727477669715881347656250000000,
0.04794837161898612976074218750000000,
-0.06285689026117324829101562500000000,
-0.06779187172651290893554687500000000,
-0.00347911636345088481903076171875000,
-0.02647297456860542297363281250000000,
-0.04290688782930374145507812500000000,
-0.02842259965837001800537109375000000,
-0.08441907912492752075195312500000000,
0.03865135833621025085449218750000000,
-0.11403941363096237182617187500000000,
-0.12326779216527938842773437500000000,
-0.12185227125883102416992187500000000,
0.05808083713054656982421875000000000,
0.04776277765631675720214843750000000,
0.02093933522701263427734375000000000,
-0.04687761887907981872558593750000000,
-0.05140593647956848144531250000000000,
-0.08607639372348785400390625000000000,
-0.06586645543575286865234375000000000,
0.06860248744487762451171875000000000,
0.01480443030595779418945312500000000,
0.07205640524625778198242187500000000,
0.00135409773793071508407592773437500,
-0.03072053194046020507812500000000000,
0.05808135494589805603027343750000000,
-0.09631667286157608032226562500000000,
-0.01039308402687311172485351562500000,
-0.03975131735205650329589843750000000,
-0.08772134780883789062500000000000000,
-0.04227492213249206542968750000000000,
0.02484407275915145874023437500000000,
-0.11468242853879928588867187500000000,
0.00084978825179859995841979980468750,
0.00378695339895784854888916015625000,
-0.02533908933401107788085937500000000,
0.01701411418616771697998046875000000,
-0.07755626738071441650390625000000000,
-0.09808101505041122436523437500000000,
-0.10009066760540008544921875000000000,
-0.09635145962238311767578125000000000,
0.01866766437888145446777343750000000,
0.03451620042324066162109375000000000,
-0.04613480344414710998535156250000000,
-0.08292978256940841674804687500000000,
0.04017025604844093322753906250000000,
0.02933351695537567138671875000000000,
-0.00517151458188891410827636718750000,
-0.07256964594125747680664062500000000,
-0.02332748658955097198486328125000000,
-0.04631248116493225097656250000000000,
-0.05952705815434455871582031250000000,
-0.12303166091442108154296875000000000,
0.00891053490340709686279296875000000,
0.05012126639485359191894531250000000,
-0.07148388773202896118164062500000000,
-0.00709355995059013366699218750000000,
-0.00425014737993478775024414062500000,
0.00877135526388883590698242187500000,
-0.06207861006259918212890625000000000,
-0.04815835505723953247070312500000000,
-0.05949603393673896789550781250000000,
-0.05513826012611389160156250000000000,
0.05929409340023994445800781250000000,
-0.07796456664800643920898437500000000,
0.04775226116180419921875000000000000,
0.06771238893270492553710937500000000,
0.06853869557380676269531250000000000,
0.00280247698538005352020263671875000,
0.05159330368041992187500000000000000,
0.05597746372222900390625000000000000,
0.06298144161701202392578125000000000,
-0.07128254324197769165039062500000000,
0.01349510438740253448486328125000000,
-0.12311103194952011108398437500000000,
-0.06319908797740936279296875000000000,
0.07590955495834350585937500000000000,
-0.10852047055959701538085937500000000,
-0.11913640052080154418945312500000000,
-0.10858078300952911376953125000000000,
0.04968098923563957214355468750000000,
-0.03180943056941032409667968750000000,
-0.04346528276801109313964843750000000,
-0.04889202117919921875000000000000000,
0.01727128215134143829345703125000000,
0.02184314467012882232666015625000000,
-0.09539441019296646118164062500000000,
0.04197062551975250244140625000000000,
0.00096344115445390343666076660156250,
0.09060712158679962158203125000000000,
-0.02355398796498775482177734375000000,
-0.03303251042962074279785156250000000,
-0.00367329898290336132049560546875000,
-0.02008162811398506164550781250000000,
0.07982687652111053466796875000000000,
0.04011454060673713684082031250000000,
0.01955772936344146728515625000000000,
0.02318059094250202178955078125000000,
-0.03117074072360992431640625000000000,
-0.01935378275811672210693359375000000,
-0.02500248700380325317382812500000000,
-0.01500837691128253936767578125000000,
-0.06359241157770156860351562500000000,
0.01066495943814516067504882812500000,
0.06929492205381393432617187500000000,
0.08461154997348785400390625000000000,
-0.07517568022012710571289062500000000,
0.01066951826214790344238281250000000,
0.06378719955682754516601562500000000,
0.05517052486538887023925781250000000,
-0.02561660856008529663085937500000000,
-0.06902959197759628295898437500000000,
