-0.01436222158372402191162109375000000,
-0.05823469534516334533691406250000000,
0.04701271653175354003906250000000000,
-0.08689653873443603515625000000000000,
-0.08785222470760345458984375000000000,
0.00800271052867174148559570312500000,
-0.07642550021409988403320312500000000,
0.06111514568328857421875000000000000,
-0.06200043112039566040039062500000000,
0.00031279388349503278732299804687500,
0.02506367489695549011230468750000000,
0.10321877896785736083984375000000000,
-0.01860094256699085235595703125000000,
-0.03493321686983108520507812500000000,
-0.04899954050779342651367187500000000,
-0.08125072717666625976562500000000000,
-0.07002355158329010009765625000000000,
0.01877563819289207458496093750000000,
-0.01795644313097000122070312500000000,
0.01844993419945240020751953125000000,
-0.06895805150270462036132812500000000,
-0.04460937157273292541503906250000000,
0.04339039325714111328125000000000000,
0.04966786131262779235839843750000000,
0.00290260231122374534606933593750000,
0.05287933722138404846191406250000000,
-0.06454666703939437866210937500000000,
0.01863676868379116058349609375000000,
0.04704469814896583557128906250000000,
0.09529836475849151611328125000000000,
-0.07382256537675857543945312500000000,
-0.01327772997319698333740234375000000,
0.04646704718470573425292968750000000,
0.08330157399177551269531250000000000,
0.00532132433727383613586425781250000,
0.01917013153433799743652343750000000,
-0.05065367370843887329101562500000000,
0.05447047203779220581054687500000000,
0.01383654121309518814086914062500000,
0.09843923151493072509765625000000000,
-0.06421580165624618530273437500000000,
-0.07678521424531936645507812500000000,
-0.00033068726770579814910888671875000,
0.05067802593111991882324218750000000,
-0.01466289907693862915039062500000000,
-0.03075657784938812255859375000000000,
-0.06782454997301101684570312500000000,
-0.08903896808624267578125000000000000,
0.08857437223196029663085937500000000,
-0.04528485983610153198242187500000000,
-0.03224202245473861694335937500000000,
0.09857451915740966796875000000000000,
-0.05628949031233787536621093750000000,
0.05157662555575370788574218750000000,
-0.07727728039026260375976562500000000,
0.06606650352478027343750000000000000,
0.09748806804418563842773437500000000,
0.09402730315923690795898437500000000,
-0.01232731249183416366577148437500000,
0.07121774554252624511718750000000000,
-0.02244135737419128417968750000000000,
0.03149840608239173889160156250000000,
0.05434466153383255004882812500000000,
-0.04167624562978744506835937500000000,
0.03741066902875900268554687500000000,
-0.01548726391047239303588867187500000,
-0.05595941841602325439453125000000000,
-0.02394939400255680084228515625000000,
0.00873206183314323425292968750000000,
0.01026856526732444763183593750000000,
0.04791891202330589294433593750000000,
0.08131472766399383544921875000000000,
0.02496353350579738616943359375000000,
-0.05445007979869842529296875000000000,
-0.02137946709990501403808593750000000,
0.01788421534001827239990234375000000,
-0.08646019548177719116210937500000000,
-0.05941602215170860290527343750000000,
0.08555902540683746337890625000000000,
-0.08270575106143951416015625000000000,
0.05370075628161430358886718750000000,
-0.04556499421596527099609375000000000,
-0.06217626854777336120605468750000000,
0.06697642803192138671875000000000000,
-0.01364818215370178222656250000000000,
0.06118142977356910705566406250000000,
0.06109915301203727722167968750000000,
-0.02464487031102180480957031250000000,
-0.03627976775169372558593750000000000,
0.07895611226558685302734375000000000,
-0.05914451926946640014648437500000000,
-0.07828672230243682861328125000000000,
0.09196293354034423828125000000000000,
0.03074551373720169067382812500000000,
0.03809893876314163208007812500000000,
-0.00945844687521457672119140625000000,
-0.06278434395790100097656250000000000,
-0.05578871816396713256835937500000000,
0.00146312406286597251892089843750000,
0.03018433973193168640136718750000000,
