0.00000000000000000000000000000000000,
-4.70860147476196289062500000000000000,
-4.82005691528320312500000000000000000,
-4.96872091293334960937500000000000000,
2.63388419151306152343750000000000000,
-2.98192620277404785156250000000000000,
-3.48075604438781738281250000000000000,
-3.94767475128173828125000000000000000,
-2.64405369758605957031250000000000000,
-3.15250849723815917968750000000000000,
-4.38078308105468750000000000000000000,
-4.87203741073608398437500000000000000,
-9.79665565490722656250000000000000000,
-12.28639125823974609375000000000000000,
-1.03009724617004394531250000000000000,
-5.11113119125366210937500000000000000,
-0.80661576986312866210937500000000000,
-4.52801847457885742187500000000000000,
-2.04846787452697753906250000000000000,
-5.35950660705566406250000000000000000,
-4.31699943542480468750000000000000000,
-4.99025154113769531250000000000000000,
-4.83858489990234375000000000000000000,
0.16678014397621154785156250000000000,
2.39357519149780273437500000000000000,
0.69886559247970581054687500000000000,
-5.01609611511230468750000000000000000,
-6.89230966567993164062500000000000000,
-0.72355866432189941406250000000000000,
-12.08087062835693359375000000000000000,
-5.47276782989501953125000000000000000,
-9.58097457885742187500000000000000000,
-1.15864682197570800781250000000000000,
1.30134606361389160156250000000000000,
1.97259438037872314453125000000000000,
2.37845540046691894531250000000000000,
-5.52438545227050781250000000000000000,
-11.10822486877441406250000000000000000,
-1.70841145515441894531250000000000000,
1.83902585506439208984375000000000000,
-6.23914957046508789062500000000000000,
-0.98291993141174316406250000000000000,
1.80190896987915039062500000000000000,
0.20730386674404144287109375000000000,
-3.53042173385620117187500000000000000,
-5.00744962692260742187500000000000000,
1.93351984024047851562500000000000000,
-3.65295839309692382812500000000000000,
-2.84045219421386718750000000000000000,
-0.38308477401733398437500000000000000,
-4.89291000366210937500000000000000000,
