2.09390115737915039062500000000000000
0.45263433456420898437500000000000000
-1.64187502861022949218750000000000000
2.66629457473754882812500000000000000
-0.67919820547103881835937500000000000
0.10856202989816665649414062500000000
-6.30256605148315429687500000000000000
10.43933296203613281250000000000000000
-0.03938987478613853454589843750000000
-2.41406011581420898437500000000000000
-0.28696402907371520996093750000000000
-0.01298105996102094650268554687500000
-0.06752651929855346679687500000000000
5.64558124542236328125000000000000000
-0.26653167605400085449218750000000000
2.66950368881225585937500000000000000
-1.45382320880889892578125000000000000
0.35766911506652832031250000000000000
0.56877040863037109375000000000000000
3.10217833518981933593750000000000000
-0.36958193778991699218750000000000000
0.22549894452095031738281250000000000
-0.79915136098861694335937500000000000
-1.22020947933197021484375000000000000
1.57387745380401611328125000000000000
-0.14607262611389160156250000000000000
-1.88366425037384033203125000000000000
-2.98293471336364746093750000000000000
4.33620977401733398437500000000000000
-0.06054171919822692871093750000000000
0.85883808135986328125000000000000000
3.37683653831481933593750000000000000
0.08813732117414474487304687500000000
0.79508918523788452148437500000000000
-0.48851105570793151855468750000000000
-4.50175285339355468750000000000000000
0.25832942128181457519531250000000000
0.03267654404044151306152343750000000
0.09938699007034301757812500000000000
2.22687745094299316406250000000000000
-1.19436287879943847656250000000000000
-0.76939958333969116210937500000000000
-0.45489048957824707031250000000000000
1.95217466354370117187500000000000000
0.12085970491170883178710937500000000
-2.04708981513977050781250000000000000
3.38811635971069335937500000000000000
0.76080578565597534179687500000000000
1.45769894123077392578125000000000000
-1.17519187927246093750000000000000000
0.02508187107741832733154296875000000
-0.76683032512664794921875000000000000
-1.42459917068481445312500000000000000
-0.35621681809425354003906250000000000
-0.91054558753967285156250000000000000
2.60338139533996582031250000000000000
0.00550227658823132514953613281250000
-1.78523337841033935546875000000000000
2.59675669670104980468750000000000000
-0.12367828935384750366210937500000000
3.10002255439758300781250000000000000
-0.20759475231170654296875000000000000
0.16343958675861358642578125000000000
-0.90818315744400024414062500000000000
1.89483129978179931640625000000000000
-0.06107566505670547485351562500000000
2.86024403572082519531250000000000000
-0.27145749330520629882812500000000000
-0.18415588140487670898437500000000000
2.03744006156921386718750000000000000
0.33688315749168395996093750000000000
-0.26827785372734069824218750000000000
3.20638799667358398437500000000000000
-0.38624894618988037109375000000000000
0.82418388128280639648437500000000000
-1.21136987209320068359375000000000000
2.40854406356811523437500000000000000
0.03831423446536064147949218750000000
4.32461309432983398437500000000000000
-0.35733705759048461914062500000000000
-0.32388842105865478515625000000000000
3.17761564254760742187500000000000000
-3.00695347785949707031250000000000000
1.72326278686523437500000000000000000
0.32188898324966430664062500000000000
-0.04625882580876350402832031250000000
-0.02199749462306499481201171875000000
3.64734745025634765625000000000000000
-0.56676578521728515625000000000000000
0.05295902490615844726562500000000000
0.43491801619529724121093750000000000
0.10470893234014511108398437500000000
0.06183784455060958862304687500000000
-3.64298653602600097656250000000000000
3.58638525009155273437500000000000000
-0.97319388389587402343750000000000000
-1.07308185100555419921875000000000000
-1.77371931076049804687500000000000000
-0.15499871969223022460937500000000000
-2.20218300819396972656250000000000000
-0.69930285215377807617187500000000000
-0.19163668155670166015625000000000000
1.11768281459808349609375000000000000
1.08962714672088623046875000000000000
-0.37752741575241088867187500000000000
2.04822278022766113281250000000000000
0.67317509651184082031250000000000000
1.10217189788818359375000000000000000
0.54750299453735351562500000000000000
-0.26204484701156616210937500000000000
-0.29559245705604553222656250000000000
1.63211786746978759765625000000000000
-1.09109485149383544921875000000000000
-1.76932501792907714843750000000000000
4.28926897048950195312500000000000000
-5.07799911499023437500000000000000000
-0.07734865695238113403320312500000000
2.13675236701965332031250000000000000
1.89492750167846679687500000000000000
-0.55351346731185913085937500000000000
-0.83808112144470214843750000000000000
-1.19528698921203613281250000000000000
0.02896681614220142364501953125000000
1.86134183406829833984375000000000000
0.37622803449630737304687500000000000
0.66085243225097656250000000000000000
3.82548475265502929687500000000000000
-2.61710309982299804687500000000000000
-0.02584709040820598602294921875000000
3.08807420730590820312500000000000000
0.65525096654891967773437500000000000
0.38486316800117492675781250000000000
0.01651198230683803558349609375000000
1.41991961002349853515625000000000000
-0.65167689323425292968750000000000000
2.34201765060424804687500000000000000
-0.46668848395347595214843750000000000
-0.24902185797691345214843750000000000
0.01586446724832057952880859375000000
1.04446017742156982421875000000000000
-2.04527568817138671875000000000000000
3.84654235839843750000000000000000000
-2.44537234306335449218750000000000000
0.75018161535263061523437500000000000
-3.01482272148132324218750000000000000
7.04877662658691406250000000000000000
-0.77232474088668823242187500000000000
-0.98295360803604125976562500000000000
1.96356391906738281250000000000000000
-0.13043549656867980957031250000000000
