0.00000000000000000000000000000000000,
1.43095040321350097656250000000000000,
1.88337874412536621093750000000000000,
0.35187789797782897949218750000000000,
-1.92843365669250488281250000000000000,
0.52213114500045776367187500000000000,
0.45362839102745056152343750000000000,
-0.01302064955234527587890625000000000,
0.74179255962371826171875000000000000,
0.22878472506999969482421875000000000,
0.59223121404647827148437500000000000,
0.95758658647537231445312500000000000,
-0.35996899008750915527343750000000000,
0.03533215075731277465820312500000000,
-0.32693544030189514160156250000000000,
0.50745171308517456054687500000000000,
-0.67429059743881225585937500000000000,
-0.95849561691284179687500000000000000,
-1.92861795425415039062500000000000000,
2.89237594604492187500000000000000000,
1.33317804336547851562500000000000000,
2.66801190376281738281250000000000000,
2.02974343299865722656250000000000000,
-1.30985128879547119140625000000000000,
-0.81689053773880004882812500000000000,
-1.18684732913970947265625000000000000,
3.33831477165222167968750000000000000,
5.55703926086425781250000000000000000,
-0.16578161716461181640625000000000000,
-0.01874263025820255279541015625000000,
3.07193207740783691406250000000000000,
0.09160654246807098388671875000000000,
-2.72625899314880371093750000000000000,
-2.07155132293701171875000000000000000,
-1.19539546966552734375000000000000000,
-0.21423524618148803710937500000000000,
-0.24740093946456909179687500000000000,
0.07522048056125640869140625000000000,
-0.24047048389911651611328125000000000,
2.46177339553833007812500000000000000,
0.88089758157730102539062500000000000,
-0.02973507717251777648925781250000000,
-0.79826951026916503906250000000000000,
-1.17605841159820556640625000000000000,
0.59200972318649291992187500000000000,
-0.86350131034851074218750000000000000,
-1.42519211769104003906250000000000000,
-0.00313176936469972133636474609375000,
1.06944429874420166015625000000000000,
-0.41889339685440063476562500000000000,
2.03020334243774414062500000000000000,
22.87717437744140625000000000000000000,
-0.25465837121009826660156250000000000,
8.65554714202880859375000000000000000,
-0.06141677498817443847656250000000000,
13.44359207153320312500000000000000000,
-0.59796935319900512695312500000000000,
8.45252704620361328125000000000000000,
4.11976957321166992187500000000000000,
27.45585441589355468750000000000000000,
4.29294729232788085937500000000000000,
0.18639406561851501464843750000000000,
10.76286888122558593750000000000000000,
0.00892065931111574172973632812500000,
-0.09829722344875335693359375000000000,
-2.07463169097900390625000000000000000,
4.74339246749877929687500000000000000,
-3.37935066223144531250000000000000000,
-2.20204925537109375000000000000000000,
-2.60090065002441406250000000000000000,
2.97079801559448242187500000000000000,
-1.02123379707336425781250000000000000,
1.09426069259643554687500000000000000,
0.54882776737213134765625000000000000,
-2.00664734840393066406250000000000000,
-1.53269731998443603515625000000000000,
-0.04385875910520553588867187500000000,
-2.05549383163452148437500000000000000,
16.94133567810058593750000000000000000,
-0.18412551283836364746093750000000000,
-0.47381004691123962402343750000000000,
-1.31996417045593261718750000000000000,
0.82891392707824707031250000000000000,
0.26745295524597167968750000000000000,
-0.05212598294019699096679687500000000,
-1.49621152877807617187500000000000000,
-14.02443218231201171875000000000000000,
-1.17084312438964843750000000000000000,
18.18992233276367187500000000000000000,
-0.26994487643241882324218750000000000,
-0.31515243649482727050781250000000000,
0.10029724240303039550781250000000000,
3.24850559234619140625000000000000000,
-7.57408475875854492187500000000000000,
-3.48000884056091308593750000000000000,
3.81931614875793457031250000000000000,
-2.33301234245300292968750000000000000,
25.13038063049316406250000000000000000,
6.57836532592773437500000000000000000,
-2.85272717475891113281250000000000000,
1.46038508415222167968750000000000000,
-0.80912488698959350585937500000000000,
0.12541474401950836181640625000000000,
0.04543342068791389465332031250000000,
-1.75001239776611328125000000000000000,
-0.17213587462902069091796875000000000,
1.18891203403472900390625000000000000,
3.10848641395568847656250000000000000,
-1.38673579692840576171875000000000000,
0.32473891973495483398437500000000000,
-10.63792610168457031250000000000000000,
3.77879524230957031250000000000000000,
-2.20827698707580566406250000000000000,
0.00418726354837417602539062500000000,
-0.79500526189804077148437500000000000,
-2.14527845382690429687500000000000000,
-1.38484025001525878906250000000000000,
-1.40015435218811035156250000000000000,
0.06189396232366561889648437500000000,
-4.39381361007690429687500000000000000,
-7.09645366668701171875000000000000000,
0.82805943489074707031250000000000000,
-4.62711477279663085937500000000000000,
-0.32826086878776550292968750000000000,
-0.39857587218284606933593750000000000,
-0.35474088788032531738281250000000000,
-3.19916057586669921875000000000000000,
8.26791286468505859375000000000000000,
0.68354815244674682617187500000000000,
-0.34567663073539733886718750000000000,
3.70887780189514160156250000000000000,
-0.19902761280536651611328125000000000,
-2.22099518775939941406250000000000000,
-1.56977772712707519531250000000000000,
-1.45077359676361083984375000000000000,
-0.18105421960353851318359375000000000,
-1.62105023860931396484375000000000000,
-0.33682963252067565917968750000000000,
-0.11732599884271621704101562500000000,
1.92352592945098876953125000000000000,
-0.03018895722925662994384765625000000,
-1.13784861564636230468750000000000000,
-0.81185525655746459960937500000000000,
-0.34044018387794494628906250000000000,
-0.41995921730995178222656250000000000,
-2.11034464836120605468750000000000000,
-0.28259542584419250488281250000000000,
1.94392669200897216796875000000000000,
1.00784790515899658203125000000000000,
0.05903309956192970275878906250000000,
-5.89626359939575195312500000000000000,
0.22611111402511596679687500000000000,
2.62841820716857910156250000000000000,
0.49078077077865600585937500000000000,
-0.51701873540878295898437500000000000,
-0.11833118647336959838867187500000000,
1.28923797607421875000000000000000000,
0.50686061382293701171875000000000000,
-1.77872574329376220703125000000000000,
-0.11507303267717361450195312500000000,
2.25742602348327636718750000000000000,
0.06681994348764419555664062500000000,
0.94157999753952026367187500000000000,
0.01231287419795989990234375000000000,
-0.21542190015316009521484375000000000,
1.03876733779907226562500000000000000,
0.12638032436370849609375000000000000,
0.75470679998397827148437500000000000,
-1.47970223426818847656250000000000000,
2.41437864303588867187500000000000000,
2.47870540618896484375000000000000000,
2.72079968452453613281250000000000000,
2.14662361145019531250000000000000000,
-0.01627625338733196258544921875000000,
-0.13697560131549835205078125000000000,
-0.39872282743453979492187500000000000,
2.76771092414855957031250000000000000,
1.34887516498565673828125000000000000,
-0.08639652281999588012695312500000000,
-0.12131205946207046508789062500000000,
0.76620483398437500000000000000000000,
0.06143954396247863769531250000000000,
-0.42656308412551879882812500000000000,
-1.35124063491821289062500000000000000,
-0.57792168855667114257812500000000000,
-0.36010453104972839355468750000000000,
0.10417981445789337158203125000000000,
-0.33186596632003784179687500000000000,
-0.38760787248611450195312500000000000,
0.17050573229789733886718750000000000,
-0.11747016012668609619140625000000000,
-0.59097367525100708007812500000000000,
-0.24915456771850585937500000000000000,
-0.64339268207550048828125000000000000,
0.02302332781255245208740234375000000,
0.05867159739136695861816406250000000,
-0.48886370658874511718750000000000000,
0.47246989607810974121093750000000000,
1.08591353893280029296875000000000000,
0.34939315915107727050781250000000000,
2.19560289382934570312500000000000000,
-0.22602830827236175537109375000000000,
3.40163135528564453125000000000000000,
5.58461856842041015625000000000000000,
-0.31975030899047851562500000000000000,
-4.46685457229614257812500000000000000,
4.53783798217773437500000000000000000,
3.17193603515625000000000000000000000,
-0.29119047522544860839843750000000000,
-3.34396624565124511718750000000000000,
2.70037078857421875000000000000000000,
3.34254097938537597656250000000000000,
0.75170433521270751953125000000000000,
0.31190147995948791503906250000000000,
1.48613250255584716796875000000000000,
1.16752147674560546875000000000000000,
0.88394451141357421875000000000000000,
1.92240309715270996093750000000000000,
0.22975933551788330078125000000000000,
3.71363067626953125000000000000000000,
2.32642841339111328125000000000000000,
2.31856346130371093750000000000000000,
1.67771494388580322265625000000000000,
-0.87512826919555664062500000000000000,
0.24175612628459930419921875000000000,
0.45170891284942626953125000000000000,
2.37436437606811523437500000000000000,
1.02206480503082275390625000000000000,
2.03222441673278808593750000000000000,
0.16046699881553649902343750000000000,
1.09813737869262695312500000000000000,
-0.93617278337478637695312500000000000,
-0.53820437192916870117187500000000000,
-0.23431888222694396972656250000000000,
-0.09719634801149368286132812500000000,
0.09665977954864501953125000000000000,
3.81039643287658691406250000000000000,
0.17843073606491088867187500000000000,
2.85758018493652343750000000000000000,
2.78450608253479003906250000000000000,
-0.59720462560653686523437500000000000,
-0.14105674624443054199218750000000000,
-1.32760930061340332031250000000000000,
1.79155504703521728515625000000000000,
-3.07162976264953613281250000000000000,
0.58500695228576660156250000000000000,
0.79233539104461669921875000000000000,
-1.37802982330322265625000000000000000,
18.91734504699707031250000000000000000,
0.21997234225273132324218750000000000,
1.98886811733245849609375000000000000,
8.78629302978515625000000000000000000,
5.78735351562500000000000000000000000,
9.90205860137939453125000000000000000,
0.40970754623413085937500000000000000,
2.13038563728332519531250000000000000,
4.31639289855957031250000000000000000,
2.85876703262329101562500000000000000,
-0.15831005573272705078125000000000000,
6.91694068908691406250000000000000000,
2.83570170402526855468750000000000000,
1.56207716464996337890625000000000000,
-5.18966102600097656250000000000000000,
-0.01173636596649885177612304687500000,
-0.74594736099243164062500000000000000,
3.65155148506164550781250000000000000,
4.12562322616577148437500000000000000,
1.83388912677764892578125000000000000,
-0.41476660966873168945312500000000000,
3.55035686492919921875000000000000000,
3.98046302795410156250000000000000000,
5.24060821533203125000000000000000000,
3.60123634338378906250000000000000000,
6.23867034912109375000000000000000000,
0.42940738797187805175781250000000000,
6.04666042327880859375000000000000000,
4.08997249603271484375000000000000000,
0.97645580768585205078125000000000000,
2.41952323913574218750000000000000000,
0.06447212398052215576171875000000000,
2.93713212013244628906250000000000000,
0.74319851398468017578125000000000000,
3.35680294036865234375000000000000000,
0.39925175905227661132812500000000000,
0.32110521197319030761718750000000000,
0.37182822823524475097656250000000000,
2.70144176483154296875000000000000000,
0.40729284286499023437500000000000000,
0.21901527047157287597656250000000000,
-1.76890397071838378906250000000000000,
2.60029315948486328125000000000000000,
0.19557915627956390380859375000000000,
3.34752941131591796875000000000000000,
0.86621016263961791992187500000000000,
4.82082080841064453125000000000000000,
2.24499583244323730468750000000000000,
-0.34036603569984436035156250000000000,
2.92862653732299804687500000000000000,
7.30970430374145507812500000000000000,
3.33343696594238281250000000000000000,
3.52396607398986816406250000000000000,
1.42195188999176025390625000000000000,
1.58939027786254882812500000000000000,
4.76145458221435546875000000000000000,
1.52941739559173583984375000000000000,
0.36914056539535522460937500000000000,
1.63798499107360839843750000000000000,
0.91049540042877197265625000000000000,
1.09824180603027343750000000000000000,
0.93916857242584228515625000000000000,
-0.00411335751414299011230468750000000,
1.37117111682891845703125000000000000,
0.74578815698623657226562500000000000,
0.51387357711791992187500000000000000,
1.60035598278045654296875000000000000,
1.55843806266784667968750000000000000,
1.03523945808410644531250000000000000,
1.88589322566986083984375000000000000,
0.93610107898712158203125000000000000,
1.44718956947326660156250000000000000,
0.88773411512374877929687500000000000,
1.52121722698211669921875000000000000,
1.26491069793701171875000000000000000,
2.60199332237243652343750000000000000,
2.20549654960632324218750000000000000,
2.30818796157836914062500000000000000,
1.27847611904144287109375000000000000,
0.46265351772308349609375000000000000,
1.27668535709381103515625000000000000,
0.82710921764373779296875000000000000,
0.84525454044342041015625000000000000,
1.65180706977844238281250000000000000,
2.16660308837890625000000000000000000,
1.31262719631195068359375000000000000,
1.66353011131286621093750000000000000,
2.48963117599487304687500000000000000,
1.26504480838775634765625000000000000,
1.22887754440307617187500000000000000,
1.59566509723663330078125000000000000,
0.84819585084915161132812500000000000,
1.79382228851318359375000000000000000,
1.34924650192260742187500000000000000,
2.40336823463439941406250000000000000,
-0.38894274830818176269531250000000000,
2.00746560096740722656250000000000000,
1.06909227371215820312500000000000000,
1.41017830371856689453125000000000000,
1.17635917663574218750000000000000000,
1.69552266597747802734375000000000000,
1.25844228267669677734375000000000000,
1.22127187252044677734375000000000000,
-0.66829878091812133789062500000000000,
2.54201912879943847656250000000000000,
1.19479787349700927734375000000000000,
-0.79497551918029785156250000000000000,
0.25867834687232971191406250000000000,
1.42425608634948730468750000000000000,
0.67813766002655029296875000000000000,
-1.71296834945678710937500000000000000,
-0.79027944803237915039062500000000000,
0.92998152971267700195312500000000000,
0.12596896290779113769531250000000000,
-1.04408121109008789062500000000000000,
-0.00226298370398581027984619140625000,
0.45454135537147521972656250000000000,
2.43008661270141601562500000000000000,
0.02206011302769184112548828125000000,
1.69776439666748046875000000000000000,
-0.51736152172088623046875000000000000,
3.99382400512695312500000000000000000,
1.30777180194854736328125000000000000,
2.16303443908691406250000000000000000,
2.19722223281860351562500000000000000,
0.01982391439378261566162109375000000,
0.11428495496511459350585937500000000,
-0.58442527055740356445312500000000000,
3.44517588615417480468750000000000000,
1.20275735855102539062500000000000000,
0.33916389942169189453125000000000000,
0.03952994197607040405273437500000000,
0.62993884086608886718750000000000000,
0.17988525331020355224609375000000000,
1.00786805152893066406250000000000000,
-0.87114244699478149414062500000000000,
-0.91324079036712646484375000000000000,
0.14385393261909484863281250000000000,
-1.24102056026458740234375000000000000,
-0.07454160600900650024414062500000000,
-1.25505137443542480468750000000000000,
-0.55306661128997802734375000000000000,
-0.53389018774032592773437500000000000,
-0.61006981134414672851562500000000000,
0.11503589153289794921875000000000000,
0.19453179836273193359375000000000000,
0.07371564954519271850585937500000000,
1.20315313339233398437500000000000000,
0.20718753337860107421875000000000000,
1.68249952793121337890625000000000000,
1.08616244792938232421875000000000000,
-0.04895572364330291748046875000000000,
2.03993344306945800781250000000000000,
1.84142959117889404296875000000000000,
5.07352781295776367187500000000000000,
-0.48204773664474487304687500000000000,
-0.61081516742706298828125000000000000,
4.49124908447265625000000000000000000,
2.52254843711853027343750000000000000,
2.28343892097473144531250000000000000,
-0.94086039066314697265625000000000000,
0.04682550206780433654785156250000000,
1.18626534938812255859375000000000000,
5.49447536468505859375000000000000000,
-2.30232000350952148437500000000000000,
0.11380590498447418212890625000000000,
0.90133178234100341796875000000000000,
3.32451295852661132812500000000000000,
0.58788710832595825195312500000000000,
1.51793706417083740234375000000000000,
-0.61716413497924804687500000000000000,
5.07629394531250000000000000000000000,
2.74098730087280273437500000000000000,
6.09441471099853515625000000000000000,
2.84094524383544921875000000000000000,
2.41136026382446289062500000000000000,
1.67730605602264404296875000000000000,
0.32631230354309082031250000000000000,
4.55511426925659179687500000000000000,
4.34867858886718750000000000000000000,
0.53250581026077270507812500000000000,
0.03570292890071868896484375000000000,
5.30715847015380859375000000000000000,
0.22431203722953796386718750000000000,
-0.31339731812477111816406250000000000,
-0.89317280054092407226562500000000000,
-0.60892546176910400390625000000000000,
1.54962790012359619140625000000000000,
2.39949011802673339843750000000000000,
0.41781076788902282714843750000000000,
-0.72550404071807861328125000000000000,
-0.52218174934387207031250000000000000,
3.18192243576049804687500000000000000,
-1.17571997642517089843750000000000000,
0.62413173913955688476562500000000000,
-0.01978668756783008575439453125000000,
5.04149484634399414062500000000000000,
1.59380388259887695312500000000000000,
1.49421191215515136718750000000000000,
2.32318305969238281250000000000000000,
0.92585146427154541015625000000000000,
0.98608630895614624023437500000000000,
2.47824692726135253906250000000000000,
0.16233086585998535156250000000000000,
10.11981582641601562500000000000000000,
-6.60685634613037109375000000000000000,
0.08880907297134399414062500000000000,
2.84701967239379882812500000000000000,
4.12838983535766601562500000000000000,
-3.56366109848022460937500000000000000,
-1.29296553134918212890625000000000000,
-9.34676933288574218750000000000000000,
1.69153940677642822265625000000000000,
-5.14009571075439453125000000000000000,
-3.15612649917602539062500000000000000,
0.39688733220100402832031250000000000,
-1.44793581962585449218750000000000000,
2.97383332252502441406250000000000000,
-0.36560413241386413574218750000000000,
-0.32172754406929016113281250000000000,
-1.73114287853240966796875000000000000,
6.32844352722167968750000000000000000,
4.92844295501708984375000000000000000,
6.10907745361328125000000000000000000,
4.85824346542358398437500000000000000,
-2.45392227172851562500000000000000000,
1.88070297241210937500000000000000000,
2.07005000114440917968750000000000000,
6.60138273239135742187500000000000000,
11.94652843475341796875000000000000000,
0.61148351430892944335937500000000000,
0.36704626679420471191406250000000000,
11.04890632629394531250000000000000000,
1.06774926185607910156250000000000000,
4.37685394287109375000000000000000000,
0.06437614560127258300781250000000000,
0.18416821956634521484375000000000000,
3.03178167343139648437500000000000000,
-3.28293442726135253906250000000000000,
-0.10142190754413604736328125000000000,
2.64597010612487792968750000000000000,
-0.66057860851287841796875000000000000,
-4.75015544891357421875000000000000000,
-0.71071410179138183593750000000000000,
3.09108328819274902343750000000000000,
-1.59991502761840820312500000000000000,
-1.42618489265441894531250000000000000,
0.38582223653793334960937500000000000,
1.53088176250457763671875000000000000,
6.31067991256713867187500000000000000,
2.22637414932250976562500000000000000,
-0.04514749348163604736328125000000000,
5.06920289993286132812500000000000000,
0.02256126329302787780761718750000000,
2.55043578147888183593750000000000000,
-0.89400637149810791015625000000000000,
0.72947961091995239257812500000000000,
0.24211059510707855224609375000000000,
-0.92206108570098876953125000000000000,
0.06969580054283142089843750000000000,
1.10020065307617187500000000000000000,
-0.18281932175159454345703125000000000,
0.85393625497817993164062500000000000,
-0.08650671690702438354492187500000000,
0.19623941183090209960937500000000000,
-0.12496036291122436523437500000000000,
-0.57391756772994995117187500000000000,
0.17221470177173614501953125000000000,
-0.50864726305007934570312500000000000,
0.50791084766387939453125000000000000,
0.33652716875076293945312500000000000,
1.29143309593200683593750000000000000,
0.66787433624267578125000000000000000,
-2.04194068908691406250000000000000000,
1.21506488323211669921875000000000000,
-0.15034613013267517089843750000000000,
-0.66777533292770385742187500000000000,
-0.03891700133681297302246093750000000,
1.59467446804046630859375000000000000,
-5.77990913391113281250000000000000000,
-0.14888779819011688232421875000000000,
-0.03062804415822029113769531250000000,
-2.88584613800048828125000000000000000,
0.00492759048938751220703125000000000,
-0.41925570368766784667968750000000000,
0.22655464708805084228515625000000000,
0.10349078476428985595703125000000000,
-0.23471537232398986816406250000000000,
0.48586353659629821777343750000000000,
0.23435586690902709960937500000000000,
0.06238845363259315490722656250000000,
-0.06704828888177871704101562500000000,
-1.35269629955291748046875000000000000,
-0.11923346668481826782226562500000000,
-0.38408157229423522949218750000000000,
-0.30571126937866210937500000000000000,
0.44495475292205810546875000000000000,
0.23673695325851440429687500000000000,
-0.75549256801605224609375000000000000,
-0.22827972471714019775390625000000000,
-0.29088431596755981445312500000000000,
-0.14197997748851776123046875000000000,
1.24213981628417968750000000000000000,
5.93188858032226562500000000000000000,
6.38069868087768554687500000000000000,
2.74809432029724121093750000000000000,
-5.77518272399902343750000000000000000,
0.93090653419494628906250000000000000,
4.26995182037353515625000000000000000,
-2.96311426162719726562500000000000000,
1.01294887065887451171875000000000000,
0.58244484663009643554687500000000000,
2.18208146095275878906250000000000000,
-3.60759425163269042968750000000000000,
3.85455465316772460937500000000000000,
-0.16447624564170837402343750000000000,
-2.32132530212402343750000000000000000,
-2.37481760978698730468750000000000000,
2.30273222923278808593750000000000000,
5.32043743133544921875000000000000000,
-4.81054162979125976562500000000000000,
-1.80155122280120849609375000000000000,
0.51982790231704711914062500000000000,
5.10183095932006835937500000000000000,
-1.68189060688018798828125000000000000,
-0.29092073440551757812500000000000000,
-0.22558729350566864013671875000000000,
-0.30609166622161865234375000000000000,
0.21397252380847930908203125000000000,
13.62757301330566406250000000000000000,
0.25605824589729309082031250000000000,
0.22541926801204681396484375000000000,
8.58072185516357421875000000000000000,
-0.09161579608917236328125000000000000,
-2.81819939613342285156250000000000000,
-4.57632923126220703125000000000000000,
-6.62538862228393554687500000000000000,
-0.35328787565231323242187500000000000,
-6.69036149978637695312500000000000000,
0.71298342943191528320312500000000000,
0.18624894320964813232421875000000000,
-0.99445998668670654296875000000000000,
-5.21474027633666992187500000000000000,
-5.00976181030273437500000000000000000,
-0.23378959298133850097656250000000000,
-1.29397737979888916015625000000000000,
3.61786079406738281250000000000000000,
-8.43281269073486328125000000000000000,
-0.85460931062698364257812500000000000,
-1.40329706668853759765625000000000000,
0.55209040641784667968750000000000000,
0.82188987731933593750000000000000000,
-2.64071679115295410156250000000000000,
4.45416498184204101562500000000000000,
3.31191301345825195312500000000000000,
-1.45408403873443603515625000000000000,
-0.50679129362106323242187500000000000,
2.27975606918334960937500000000000000,
-0.34750849008560180664062500000000000,
3.70991611480712890625000000000000000,
-1.03503370285034179687500000000000000,
3.17115592956542968750000000000000000,
0.16868501901626586914062500000000000,
5.48067855834960937500000000000000000,
-0.42894554138183593750000000000000000,
0.00912515632808208465576171875000000,
0.00152030750177800655364990234375000,
2.32931375503540039062500000000000000,
0.77569299936294555664062500000000000,
0.47401842474937438964843750000000000,
-1.22791194915771484375000000000000000,
3.27374315261840820312500000000000000,
1.35813581943511962890625000000000000,
4.58160638809204101562500000000000000,
1.90618801116943359375000000000000000,
3.26884794235229492187500000000000000,
1.91127729415893554687500000000000000,
1.10106825828552246093750000000000000,
2.76975011825561523437500000000000000,
2.44782757759094238281250000000000000,
0.60233068466186523437500000000000000,
0.08197505027055740356445312500000000,
2.90056467056274414062500000000000000,
0.95600861310958862304687500000000000,
0.63156580924987792968750000000000000,
-0.74563944339752197265625000000000000,
-0.53168588876724243164062500000000000,
1.82193660736083984375000000000000000,
2.40500235557556152343750000000000000,
0.32044357061386108398437500000000000,
0.04059206694364547729492187500000000,
-0.01176576968282461166381835937500000,
4.18195867538452148437500000000000000,
-1.09389591217041015625000000000000000,
1.35223376750946044921875000000000000,
1.29261767864227294921875000000000000,
5.30079603195190429687500000000000000,
2.11612725257873535156250000000000000,
1.93874895572662353515625000000000000,
-0.27369105815887451171875000000000000,
-3.35367941856384277343750000000000000,
1.48774039745330810546875000000000000,
1.94405210018157958984375000000000000,
1.27514028549194335937500000000000000,
2.72829008102416992187500000000000000,
4.65796613693237304687500000000000000,
1.38512420654296875000000000000000000,
-0.75343346595764160156250000000000000,
2.28736925125122070312500000000000000,
1.28444159030914306640625000000000000,
-0.79693710803985595703125000000000000,
-1.17053771018981933593750000000000000,
0.29552790522575378417968750000000000,
1.94793009757995605468750000000000000,
1.78527128696441650390625000000000000,
0.27458491921424865722656250000000000,
2.99845314025878906250000000000000000,
1.82802069187164306640625000000000000,
0.84201848506927490234375000000000000,
3.02563714981079101562500000000000000,
0.57433640956878662109375000000000000,
1.75859308242797851562500000000000000,
1.24751746654510498046875000000000000,
2.40872812271118164062500000000000000,
1.68241512775421142578125000000000000,
4.24723196029663085937500000000000000,
3.66935205459594726562500000000000000,
3.11106395721435546875000000000000000,
1.85328924655914306640625000000000000,
0.54986763000488281250000000000000000,
0.31974110007286071777343750000000000,
0.59803491830825805664062500000000000,
1.65192270278930664062500000000000000,
3.07891559600830078125000000000000000,
1.19937598705291748046875000000000000,
1.44986736774444580078125000000000000,
1.63125181198120117187500000000000000,
3.79807209968566894531250000000000000,
1.99136745929718017578125000000000000,
1.66237723827362060546875000000000000,
-0.23393434286117553710937500000000000,
1.13486647605895996093750000000000000,
2.86901426315307617187500000000000000,
1.18140721321105957031250000000000000,
3.41793894767761230468750000000000000,
0.79212522506713867187500000000000000,
3.12740755081176757812500000000000000,
1.90532135963439941406250000000000000,
2.98979282379150390625000000000000000,
0.06638577580451965332031250000000000,
0.19858118891716003417968750000000000,
2.65599846839904785156250000000000000,
1.69026565551757812500000000000000000,
0.07826676219701766967773437500000000,
-0.20938621461391448974609375000000000,
2.34484863281250000000000000000000000,
-0.39636155962944030761718750000000000,
0.05857123807072639465332031250000000,
-2.08533740043640136718750000000000000,
0.45313847064971923828125000000000000,
0.83915132284164428710937500000000000,
0.21648548543453216552734375000000000,
4.76831865310668945312500000000000000,
0.65129858255386352539062500000000000,
-0.46495744585990905761718750000000000,
0.06358934193849563598632812500000000,
-0.16824106872081756591796875000000000,
1.55095171928405761718750000000000000,
-0.00417396798729896545410156250000000,
-1.36762058734893798828125000000000000,
-3.71339178085327148437500000000000000,
2.39337944984436035156250000000000000,
3.23317241668701171875000000000000000,
0.38198345899581909179687500000000000,
1.91678905487060546875000000000000000,
-1.09913551807403564453125000000000000,
-0.43284758925437927246093750000000000,
0.20767144858837127685546875000000000,
2.83631873130798339843750000000000000,
-5.17701101303100585937500000000000000,
-0.08176517486572265625000000000000000,
0.00969609431922435760498046875000000,
-1.53753304481506347656250000000000000,
-0.10436913371086120605468750000000000,
0.34682336449623107910156250000000000,
-1.35996091365814208984375000000000000,
-0.31822806596755981445312500000000000,
0.43773859739303588867187500000000000,
1.94107449054718017578125000000000000,
-0.07985407114028930664062500000000000,
0.17930009961128234863281250000000000,
-0.69086068868637084960937500000000000,
1.42409706115722656250000000000000000,
-0.47229877114295959472656250000000000,
-0.63178694248199462890625000000000000,
-2.60805368423461914062500000000000000,
0.44199028611183166503906250000000000,
-0.19784988462924957275390625000000000,
-0.79984617233276367187500000000000000,
-0.30646356940269470214843750000000000,
-4.08131551742553710937500000000000000,
0.49867320060729980468750000000000000,
1.67006659507751464843750000000000000,
3.43120527267456054687500000000000000,
4.77294206619262695312500000000000000,
3.55375957489013671875000000000000000,
-0.17517997324466705322265625000000000,
-2.15127635002136230468750000000000000,
1.51859152317047119140625000000000000,
-0.46918973326683044433593750000000000,
-1.76311933994293212890625000000000000,
1.04170870780944824218750000000000000,
-1.43679535388946533203125000000000000,
3.12855339050292968750000000000000000,
0.39994797110557556152343750000000000,
0.35336473584175109863281250000000000,
1.59914183616638183593750000000000000,
0.71041905879974365234375000000000000,
-0.20511241257190704345703125000000000,
2.24201321601867675781250000000000000,
-1.30473387241363525390625000000000000,
-0.11957222968339920043945312500000000,
-0.43600094318389892578125000000000000,
4.99630069732666015625000000000000000,
0.04640064388513565063476562500000000,
5.35746002197265625000000000000000000,
3.64106559753417968750000000000000000,
3.25572729110717773437500000000000000,
-0.10356160998344421386718750000000000,
1.18167150020599365234375000000000000,
-0.47982856631278991699218750000000000,
0.53789001703262329101562500000000000,
3.17101025581359863281250000000000000,
2.41717624664306640625000000000000000,
-0.42429995536804199218750000000000000,
-0.40727770328521728515625000000000000,
-0.22433577477931976318359375000000000,
3.52017331123352050781250000000000000,
4.29981946945190429687500000000000000,
1.36247634887695312500000000000000000,
-1.57477724552154541015625000000000000,
1.43650567531585693359375000000000000,
3.39208579063415527343750000000000000,
-0.77684557437896728515625000000000000,
2.50799775123596191406250000000000000,
-1.25000834465026855468750000000000000,
7.19795274734497070312500000000000000,
1.65218317508697509765625000000000000,
2.74234962463378906250000000000000000,
0.97084182500839233398437500000000000,
-5.36802625656127929687500000000000000,
1.04101932048797607421875000000000000,
0.03415519744157791137695312500000000,
1.86723649501800537109375000000000000,
1.87623131275177001953125000000000000,
3.40705823898315429687500000000000000,
1.82448387145996093750000000000000000,
1.84461295604705810546875000000000000,
1.93467128276824951171875000000000000,
1.62430417537689208984375000000000000,
2.24595212936401367187500000000000000,
2.43202757835388183593750000000000000,
1.01695251464843750000000000000000000,
1.00040769577026367187500000000000000,
0.31881627440452575683593750000000000,
0.17267441749572753906250000000000000,
0.93849796056747436523437500000000000,
1.51533222198486328125000000000000000,
1.63243567943572998046875000000000000,
1.66376471519470214843750000000000000,
1.15618717670440673828125000000000000,
1.55220234394073486328125000000000000,
1.84949421882629394531250000000000000,
1.43299043178558349609375000000000000,
1.81910753250122070312500000000000000,
2.62181758880615234375000000000000000,
1.52309596538543701171875000000000000,
1.82271420955657958984375000000000000,
1.61401212215423583984375000000000000,
0.23415946960449218750000000000000000,
2.90451526641845703125000000000000000,
0.15679775178432464599609375000000000,
0.54385513067245483398437500000000000,
0.91166120767593383789062500000000000,
3.26029562950134277343750000000000000,
1.69882833957672119140625000000000000,
1.62706351280212402343750000000000000,
1.89651334285736083984375000000000000,
1.24422073364257812500000000000000000,
0.47169595956802368164062500000000000,
3.18572235107421875000000000000000000,
-0.03281293436884880065917968750000000,
1.69702541828155517578125000000000000,
1.53140473365783691406250000000000000,
2.01390504837036132812500000000000000,
-0.09196329116821289062500000000000000,
1.18381083011627197265625000000000000,
1.68385255336761474609375000000000000,
1.15433609485626220703125000000000000,
2.42066407203674316406250000000000000,
3.88070344924926757812500000000000000,
3.31636524200439453125000000000000000,
1.83765447139739990234375000000000000,
2.06265425682067871093750000000000000,
3.16878271102905273437500000000000000,
-1.18692278861999511718750000000000000,
-0.88870805501937866210937500000000000,
0.94334882497787475585937500000000000,
1.47959411144256591796875000000000000,
0.56259870529174804687500000000000000,
-0.58727395534515380859375000000000000,
-0.96036815643310546875000000000000000,
-0.22716683149337768554687500000000000,
2.45328283309936523437500000000000000,
-0.23661136627197265625000000000000000,
0.08473513275384902954101562500000000,
0.19620902836322784423828125000000000,
1.28595066070556640625000000000000000,
-0.62092149257659912109375000000000000,
1.48276042938232421875000000000000000,
-0.71583026647567749023437500000000000,
2.63303804397583007812500000000000000,
0.33545058965682983398437500000000000,
2.84993076324462890625000000000000000,
1.53450620174407958984375000000000000,
0.49721112847328186035156250000000000,
0.55139476060867309570312500000000000,
0.47674107551574707031250000000000000,
1.96877408027648925781250000000000000,
3.98753046989440917968750000000000000,
-0.23504441976547241210937500000000000,
0.08557540923357009887695312500000000,
2.95118427276611328125000000000000000,
-0.41042777895927429199218750000000000,
-0.34280079603195190429687500000000000,
-0.65989840030670166015625000000000000,
-0.80094611644744873046875000000000000,
0.16363491117954254150390625000000000,
-1.92855393886566162109375000000000000,
0.08260001987218856811523437500000000,
-0.79409384727478027343750000000000000,
0.21225383877754211425781250000000000,
-0.30585214495658874511718750000000000,
-0.65953439474105834960937500000000000,
0.44228419661521911621093750000000000,
0.54394286870956420898437500000000000,
-0.69093531370162963867187500000000000,
0.90441125631332397460937500000000000,
0.84185612201690673828125000000000000,
0.37704634666442871093750000000000000,
0.55847668647766113281250000000000000,
-0.12064513564109802246093750000000000,
1.51283645629882812500000000000000000,
2.02505803108215332031250000000000000,
-3.45183944702148437500000000000000000,
-0.42454278469085693359375000000000000,
0.21070757508277893066406250000000000,
-0.36088046431541442871093750000000000,
-6.82758903503417968750000000000000000,
0.37454482913017272949218750000000000,
1.23851239681243896484375000000000000,
-1.64552080631256103515625000000000000,
2.18528795242309570312500000000000000,
0.73795092105865478515625000000000000,
1.33566331863403320312500000000000000,
-0.30743151903152465820312500000000000,
-2.74041080474853515625000000000000000,
0.85240185260772705078125000000000000,
-0.65788871049880981445312500000000000,
-3.86271572113037109375000000000000000,
0.79424101114273071289062500000000000,
1.26581931114196777343750000000000000,
0.87003558874130249023437500000000000,
-4.10115098953247070312500000000000000,
0.74024158716201782226562500000000000,
-4.97607374191284179687500000000000000,
-1.59643626213073730468750000000000000,
-1.54622137546539306640625000000000000,
0.45958408713340759277343750000000000,
-3.95849275588989257812500000000000000,
0.22753663361072540283203125000000000,
-0.42299270629882812500000000000000000,
-6.92661380767822265625000000000000000,
-0.80900925397872924804687500000000000,
-0.68346077203750610351562500000000000,
-0.03136061877012252807617187500000000,
-0.21728417277336120605468750000000000,
-1.65954291820526123046875000000000000,
-2.79437780380249023437500000000000000,
-0.53283518552780151367187500000000000,
0.72984701395034790039062500000000000,
-1.12661612033843994140625000000000000,
0.67344111204147338867187500000000000,
-0.20848272740840911865234375000000000,
-0.69080555438995361328125000000000000,
-0.63243895769119262695312500000000000,
-6.83096408843994140625000000000000000,
0.82707589864730834960937500000000000,
-2.22192239761352539062500000000000000,
-0.07183150202035903930664062500000000,
6.02958106994628906250000000000000000,
-1.25483119487762451171875000000000000,
0.80084276199340820312500000000000000,
-6.28224277496337890625000000000000000,
1.49281513690948486328125000000000000,
38.08834075927734375000000000000000000,
0.52391874790191650390625000000000000,
-2.78667902946472167968750000000000000,
-0.96182608604431152343750000000000000,
3.15149521827697753906250000000000000,
4.55295801162719726562500000000000000,
1.66563642024993896484375000000000000,
2.11633300781250000000000000000000000,
-1.32067310810089111328125000000000000,
2.90542316436767578125000000000000000,
-0.15491230785846710205078125000000000,
-2.24069142341613769531250000000000000,
-0.00869942549616098403930664062500000,
1.81941294670104980468750000000000000,
-1.31365346908569335937500000000000000,
0.32868662476539611816406250000000000,
-0.50009292364120483398437500000000000,
1.16741669178009033203125000000000000,
3.27874302864074707031250000000000000,
0.68621385097503662109375000000000000,
0.96400809288024902343750000000000000,
-0.40598040819168090820312500000000000,
0.64496946334838867187500000000000000,
-0.18574668467044830322265625000000000,
4.34911394119262695312500000000000000,
-0.41370972990989685058593750000000000,
-0.31331807374954223632812500000000000,
2.15193128585815429687500000000000000,
-0.02062414772808551788330078125000000,
0.20705266296863555908203125000000000,
-0.24445638060569763183593750000000000,
0.42186504602432250976562500000000000,
-0.44134831428527832031250000000000000,
1.19636392593383789062500000000000000,
-1.09967505931854248046875000000000000,
2.05920124053955078125000000000000000,
-0.28533411026000976562500000000000000,
3.39524579048156738281250000000000000,
0.27422624826431274414062500000000000,
0.36172622442245483398437500000000000,
0.43676024675369262695312500000000000,
0.50994783639907836914062500000000000,
1.56750833988189697265625000000000000,
-0.61310452222824096679687500000000000,
1.07299649715423583984375000000000000,
1.63436245918273925781250000000000000,
0.01022868789732456207275390625000000,
1.10121297836303710937500000000000000,
1.82244062423706054687500000000000000,
4.03244018554687500000000000000000000,
-0.58890640735626220703125000000000000,
-1.38796341419219970703125000000000000,
0.93735975027084350585937500000000000,
1.19634532928466796875000000000000000,
1.19424533843994140625000000000000000,
1.09851825237274169921875000000000000,
0.20838412642478942871093750000000000,
0.23758362233638763427734375000000000,
4.40888929367065429687500000000000000,
-0.62147045135498046875000000000000000,
-0.09752117097377777099609375000000000,
0.33303007483482360839843750000000000,
1.28537905216217041015625000000000000,
0.22158804535865783691406250000000000,
1.76513278484344482421875000000000000,
-1.45757126808166503906250000000000000,
2.20253276824951171875000000000000000,
1.27291345596313476562500000000000000,
4.58018732070922851562500000000000000,
0.95697981119155883789062500000000000,
1.18104314804077148437500000000000000,
0.69359165430068969726562500000000000,
0.71987617015838623046875000000000000,
1.40029680728912353515625000000000000,
7.63639736175537109375000000000000000,
0.65456855297088623046875000000000000,
0.18526194989681243896484375000000000,
5.83093214035034179687500000000000000,
0.20904248952865600585937500000000000,
0.61864250898361206054687500000000000,
-1.19938051700592041015625000000000000,
-1.04217314720153808593750000000000000,
0.52302455902099609375000000000000000,
-4.44573307037353515625000000000000000,
0.47872677445411682128906250000000000,
0.01671553216874599456787109375000000,
-0.36896291375160217285156250000000000,
0.26907098293304443359375000000000000,
-1.41758763790130615234375000000000000,
0.58533912897109985351562500000000000,
0.35428541898727416992187500000000000,
2.18883919715881347656250000000000000,
0.25842684507369995117187500000000000,
0.36733034253120422363281250000000000,
-0.38845598697662353515625000000000000,
0.36302918195724487304687500000000000,
0.25855383276939392089843750000000000,
0.88124185800552368164062500000000000,
-0.05920294672250747680664062500000000,
1.51189100742340087890625000000000000,
-0.63481301069259643554687500000000000,
-1.41934752464294433593750000000000000,
-1.25491166114807128906250000000000000,
0.93932890892028808593750000000000000,
2.32713079452514648437500000000000000,
0.16715729236602783203125000000000000,
-0.90953451395034790039062500000000000,
-0.19918029010295867919921875000000000,
3.31494808197021484375000000000000000,
1.22399246692657470703125000000000000,
-0.16379357874393463134765625000000000,
0.71432340145111083984375000000000000,
1.38840985298156738281250000000000000,
-0.84757262468338012695312500000000000,
-0.44236975908279418945312500000000000,
-0.72584134340286254882812500000000000,
2.47685480117797851562500000000000000,
1.12174808979034423828125000000000000,
2.50040841102600097656250000000000000,
0.85565459728240966796875000000000000,
0.10305820405483245849609375000000000,
-0.34034791588783264160156250000000000,
-0.41413366794586181640625000000000000,
2.13223791122436523437500000000000000,
0.21246489882469177246093750000000000,
0.08709346503019332885742187500000000,
-0.28237089514732360839843750000000000,
0.94971191883087158203125000000000000,
-0.36468914151191711425781250000000000,
0.37456679344177246093750000000000000,
-0.81869286298751831054687500000000000,
-0.87893027067184448242187500000000000,
-0.25235855579376220703125000000000000,
0.85548931360244750976562500000000000,
-0.04294924065470695495605468750000000,
0.91729575395584106445312500000000000,
1.60888290405273437500000000000000000,
1.18847000598907470703125000000000000,
-1.47380542755126953125000000000000000,
0.05637973919510841369628906250000000,
0.27029630541801452636718750000000000,
0.38936623930931091308593750000000000,
0.21624511480331420898437500000000000,
-0.25110021233558654785156250000000000,
0.41726061701774597167968750000000000,
0.37189507484436035156250000000000000,
-0.97519117593765258789062500000000000,
0.59501969814300537109375000000000000,
-2.16420221328735351562500000000000000,
5.78708600997924804687500000000000000,
0.86394411325454711914062500000000000,
-0.83057349920272827148437500000000000,
-0.74873965978622436523437500000000000,
3.70984005928039550781250000000000000,
1.89177930355072021484375000000000000,
0.02675106562674045562744140625000000,
1.29941952228546142578125000000000000,
1.35148215293884277343750000000000000,
4.74826145172119140625000000000000000,
1.77000844478607177734375000000000000,
0.01334580685943365097045898437500000,
-0.21808561682701110839843750000000000,
2.46157002449035644531250000000000000,
-1.17763662338256835937500000000000000,
2.03526091575622558593750000000000000,
-1.40979039669036865234375000000000000,
3.60623669624328613281250000000000000,
0.91317731142044067382812500000000000,
5.62969017028808593750000000000000000,
1.01074159145355224609375000000000000,
1.59129953384399414062500000000000000,
0.93071442842483520507812500000000000,
1.10264253616333007812500000000000000,
2.77423286437988281250000000000000000,
4.44378185272216796875000000000000000,
0.38340088725090026855468750000000000,
-0.10048872977495193481445312500000000,
5.36788988113403320312500000000000000,
0.10289648920297622680664062500000000,
0.32456237077713012695312500000000000,
-1.09126102924346923828125000000000000,
-0.74572730064392089843750000000000000,
0.81803292036056518554687500000000000,
4.14240646362304687500000000000000000,
0.10005522519350051879882812500000000,
-0.01120603363960981369018554687500000,
1.12833881378173828125000000000000000,
2.11069464683532714843750000000000000,
-0.98078203201293945312500000000000000,
1.19067966938018798828125000000000000,
1.24574351310729980468750000000000000,
3.23935961723327636718750000000000000,
-0.43279987573623657226562500000000000,
1.23151075839996337890625000000000000,
-0.31608077883720397949218750000000000,
1.79060781002044677734375000000000000,
0.26035958528518676757812500000000000,
0.61775654554367065429687500000000000,
2.85257101058959960937500000000000000,
2.24756860733032226562500000000000000,
5.11557817459106445312500000000000000,
1.72125065326690673828125000000000000,
3.61914014816284179687500000000000000,
1.83887708187103271484375000000000000,
2.43667721748352050781250000000000000,
3.35154676437377929687500000000000000,
4.76299810409545898437500000000000000,
1.79256761074066162109375000000000000,
1.82453072071075439453125000000000000,
0.44319745898246765136718750000000000,
-0.07905329018831253051757812500000000,
0.83588510751724243164062500000000000,
1.60463154315948486328125000000000000,
0.77967953681945800781250000000000000,
1.41975784301757812500000000000000000,
1.45984494686126708984375000000000000,
1.80613803863525390625000000000000000,
2.27447915077209472656250000000000000,
1.83485877513885498046875000000000000,
1.89386117458343505859375000000000000,
2.54713463783264160156250000000000000,
1.05586302280426025390625000000000000,
1.69984173774719238281250000000000000,
1.92021727561950683593750000000000000,
0.32604762911796569824218750000000000,
3.28850388526916503906250000000000000,
0.00919842254370450973510742187500000,
0.38624328374862670898437500000000000,
0.55072569847106933593750000000000000,
3.71344089508056640625000000000000000,
1.70594596862792968750000000000000000,
1.71110355854034423828125000000000000,
1.58468794822692871093750000000000000,
1.05554151535034179687500000000000000,
0.08887105435132980346679687500000000,
4.77892732620239257812500000000000000,
-0.01044728048145771026611328125000000,
1.61151981353759765625000000000000000,
1.48454177379608154296875000000000000,
1.56815755367279052734375000000000000,
-0.17187678813934326171875000000000000,
0.98431110382080078125000000000000000,
1.86715650558471679687500000000000000,
0.60737246274948120117187500000000000,
4.78950119018554687500000000000000000,
4.99978876113891601562500000000000000,
5.78672218322753906250000000000000000,
1.89191401004791259765625000000000000,
2.56224989891052246093750000000000000,
2.42957282066345214843750000000000000,
3.53903865814208984375000000000000000,
1.64836812019348144531250000000000000,
2.50822520256042480468750000000000000,
2.15676450729370117187500000000000000,
1.71242880821228027343750000000000000,
1.71705698966979980468750000000000000,
3.60623121261596679687500000000000000,
1.24107086658477783203125000000000000,
1.31311523914337158203125000000000000,
0.35893884301185607910156250000000000,
0.28769382834434509277343750000000000,
1.20358884334564208984375000000000000,
1.91681337356567382812500000000000000,
2.47616147994995117187500000000000000,
1.95503175258636474609375000000000000,
1.02403342723846435546875000000000000,
1.85991322994232177734375000000000000,
2.15743207931518554687500000000000000,
2.00619649887084960937500000000000000,
2.26160693168640136718750000000000000,
3.27604985237121582031250000000000000,
1.47732508182525634765625000000000000,
2.25489521026611328125000000000000000,
2.26791477203369140625000000000000000,
0.22245387732982635498046875000000000,
3.32342839241027832031250000000000000,
0.27378338575363159179687500000000000,
0.73831540346145629882812500000000000,
1.39280700683593750000000000000000000,
3.17412495613098144531250000000000000,
1.75255882740020751953125000000000000,
1.82816100120544433593750000000000000,
1.90566253662109375000000000000000000,
1.52653479576110839843750000000000000,
0.71262353658676147460937500000000000,
3.34192347526550292968750000000000000,
-0.27597448229789733886718750000000000,
1.98487675189971923828125000000000000,
1.40871930122375488281250000000000000,
2.49156403541564941406250000000000000,
0.13322341442108154296875000000000000,
1.56053590774536132812500000000000000,
1.95300042629241943359375000000000000,
0.93929260969161987304687500000000000,
2.91024303436279296875000000000000000,
4.89831638336181640625000000000000000,
3.96133875846862792968750000000000000,
1.96570110321044921875000000000000000,
1.21504557132720947265625000000000000,
3.17052102088928222656250000000000000,
10.22243785858154296875000000000000000,
1.73012995719909667968750000000000000,
-1.43408966064453125000000000000000000,
3.31521534919738769531250000000000000,
0.63907831907272338867187500000000000,
0.37932857871055603027343750000000000,
-3.57344341278076171875000000000000000,
2.86666679382324218750000000000000000,
1.80186951160430908203125000000000000,
2.01776838302612304687500000000000000,
0.32832688093185424804687500000000000,
2.82833266258239746093750000000000000,
1.52410387992858886718750000000000000,
1.50059103965759277343750000000000000,
3.09091925621032714843750000000000000,
0.89896476268768310546875000000000000,
1.90211653709411621093750000000000000,
2.15727281570434570312500000000000000,
2.75256419181823730468750000000000000,
1.47261297702789306640625000000000000,
5.04086589813232421875000000000000000,
3.00112414360046386718750000000000000,
3.92583417892456054687500000000000000,
1.63304781913757324218750000000000000,
0.46016690135002136230468750000000000,
0.43833389878273010253906250000000000,
0.46236792206764221191406250000000000,
1.35784912109375000000000000000000000,
2.41772675514221191406250000000000000,
0.84346979856491088867187500000000000,
1.52189242839813232421875000000000000,
1.45650088787078857421875000000000000,
3.22459101676940917968750000000000000,
1.28035724163055419921875000000000000,
1.36854898929595947265625000000000000,
0.52463173866271972656250000000000000,
2.09011340141296386718750000000000000,
2.20391798019409179687500000000000000,
1.10482490062713623046875000000000000,
2.99054121971130371093750000000000000,
3.06613993644714355468750000000000000,
2.94516897201538085937500000000000000,
1.55488204956054687500000000000000000,
2.62949538230895996093750000000000000,
0.93185019493103027343750000000000000,
4.67379713058471679687500000000000000,
4.58677148818969726562500000000000000,
1.49815773963928222656250000000000000,
-0.37834087014198303222656250000000000,
1.35614442825317382812500000000000000,
0.09731261432170867919921875000000000,
-1.39615821838378906250000000000000000,
0.66831898689270019531250000000000000,
1.09475815296173095703125000000000000,
0.81247717142105102539062500000000000,
1.33339798450469970703125000000000000,
1.24773168563842773437500000000000000,
0.21569426357746124267578125000000000,
2.17708635330200195312500000000000000,
0.27991890907287597656250000000000000,
-0.01783801242709159851074218750000000,
0.23387652635574340820312500000000000,
1.49218714237213134765625000000000000,
-0.21992714703083038330078125000000000,
-0.80525624752044677734375000000000000,
-0.89765077829360961914062500000000000,
2.71507215499877929687500000000000000,
0.84111106395721435546875000000000000,
3.37685084342956542968750000000000000,
1.59310150146484375000000000000000000,
0.63760995864868164062500000000000000,
0.10225419700145721435546875000000000,
0.22562803328037261962890625000000000,
2.06632614135742187500000000000000000,
3.54849958419799804687500000000000000,
-0.05791765451431274414062500000000000,
0.07616581022739410400390625000000000,
3.78197884559631347656250000000000000,
0.22285823523998260498046875000000000,
0.00910529959946870803833007812500000,
-1.85320448875427246093750000000000000,
-1.23341178894042968750000000000000000,
-0.23607580363750457763671875000000000,
-0.16027480363845825195312500000000000,
0.10972616821527481079101562500000000,
0.31509912014007568359375000000000000,
0.53031569719314575195312500000000000,
0.22060708701610565185546875000000000,
-1.66467535495758056640625000000000000,
-0.38130956888198852539062500000000000,
-0.52323335409164428710937500000000000,
0.84854179620742797851562500000000000,
0.98188602924346923828125000000000000,
-0.38204887509346008300781250000000000,
-0.71883612871170043945312500000000000,
0.83601051568984985351562500000000000,
0.37962344288825988769531250000000000,
1.61005079746246337890625000000000000,
0.91173952817916870117187500000000000,
2.48373079299926757812500000000000000,
14.17579364776611328125000000000000000,
-0.07914866507053375244140625000000000,
0.95888584852218627929687500000000000,
0.58225166797637939453125000000000000,
-3.99739742279052734375000000000000000,
-2.01074290275573730468750000000000000,
-7.45582675933837890625000000000000000,
0.72811299562454223632812500000000000,
3.51599407196044921875000000000000000,
1.62142944335937500000000000000000000,
0.15976196527481079101562500000000000,
0.15608777105808258056640625000000000,
2.80087661743164062500000000000000000,
-1.23402571678161621093750000000000000,
0.78336566686630249023437500000000000,
-1.00082564353942871093750000000000000,
6.98813629150390625000000000000000000,
3.98152899742126464843750000000000000,
1.84800159931182861328125000000000000,
3.82946443557739257812500000000000000,
-1.18928980827331542968750000000000000,
1.76313328742980957031250000000000000,
0.63029861450195312500000000000000000,
5.33999872207641601562500000000000000,
4.75845432281494140625000000000000000,
2.69913339614868164062500000000000000,
-0.04530205205082893371582031250000000,
2.56006097793579101562500000000000000,
-0.90232193470001220703125000000000000,
2.27289199829101562500000000000000000,
-0.02304999716579914093017578125000000,
-0.30841907858848571777343750000000000,
1.58755540847778320312500000000000000,
0.57866919040679931640625000000000000,
-0.86375367641448974609375000000000000,
0.04805536568164825439453125000000000,
-1.41271233558654785156250000000000000,
-3.65655016899108886718750000000000000,
-0.55200684070587158203125000000000000,
1.18500733375549316406250000000000000,
0.67281895875930786132812500000000000,
-5.15877914428710937500000000000000000,
1.14234733581542968750000000000000000,
1.81952750682830810546875000000000000,
5.00343942642211914062500000000000000,
0.39551195502281188964843750000000000,
1.54835414886474609375000000000000000,
3.90839290618896484375000000000000000,
-0.77317911386489868164062500000000000,
0.80419003963470458984375000000000000,
-1.96894609928131103515625000000000000,
-1.19896602630615234375000000000000000,
0.66396182775497436523437500000000000,
0.18365609645843505859375000000000000,
1.13798999786376953125000000000000000,
0.23477232456207275390625000000000000,
-1.92570042610168457031250000000000000,
0.13180308043956756591796875000000000,
2.55971860885620117187500000000000000,
-0.16572731733322143554687500000000000,
-0.08193552494049072265625000000000000,
0.36813107132911682128906250000000000,
1.69037020206451416015625000000000000,
-0.83669990301132202148437500000000000,
-0.28818681836128234863281250000000000,
-0.34021821618080139160156250000000000,
2.17727112770080566406250000000000000,
0.28067570924758911132812500000000000,
2.23269486427307128906250000000000000,
0.55785477161407470703125000000000000,
0.34415647387504577636718750000000000,
0.31528902053833007812500000000000000,
0.67144614458084106445312500000000000,
1.39599180221557617187500000000000000,
2.18182873725891113281250000000000000,
0.06290825456380844116210937500000000,
0.06391622871160507202148437500000000,
2.80292654037475585937500000000000000,
0.20461082458496093750000000000000000,
-0.39485123753547668457031250000000000,
-1.13473451137542724609375000000000000,
-0.57888549566268920898437500000000000,
-0.02296984940767288208007812500000000,
-0.06970599293708801269531250000000000,
0.00054395169718191027641296386718750,
0.79163932800292968750000000000000000,
0.48528006672859191894531250000000000,
0.51158607006072998046875000000000000,
-1.24488580226898193359375000000000000,
0.53671276569366455078125000000000000,
-0.02129012532532215118408203125000000,
-0.07517430931329727172851562500000000,
-0.89019298553466796875000000000000000,
0.71378833055496215820312500000000000,
0.62539619207382202148437500000000000,
-0.05915031954646110534667968750000000,
-1.03495144844055175781250000000000000,
0.14437706768512725830078125000000000,
0.77855384349822998046875000000000000,
5.32927131652832031250000000000000000,
1.11608088016510009765625000000000000,
-1.08986032009124755859375000000000000,
1.26843881607055664062500000000000000,
2.46432328224182128906250000000000000,
3.50205707550048828125000000000000000,
-1.27709400653839111328125000000000000,
-0.81838661432266235351562500000000000,
1.57473695278167724609375000000000000,
5.39371013641357421875000000000000000,
1.89494287967681884765625000000000000,
0.03048237040638923645019531250000000,
1.07912933826446533203125000000000000,
1.91676807403564453125000000000000000,
-0.99346220493316650390625000000000000,
0.95217663049697875976562500000000000,
-1.42411863803863525390625000000000000,
3.07708883285522460937500000000000000,
0.60935002565383911132812500000000000,
5.60650157928466796875000000000000000,
1.08986020088195800781250000000000000,
1.20825827121734619140625000000000000,
0.92684507369995117187500000000000000,
0.82383781671524047851562500000000000,
2.46273326873779296875000000000000000,
5.21716356277465820312500000000000000,
-0.07538735121488571166992187500000000,
0.05128016695380210876464843750000000,
5.19956636428833007812500000000000000,
0.56457537412643432617187500000000000,
-0.15836407244205474853515625000000000,
-1.29133653640747070312500000000000000,
-0.92839086055755615234375000000000000,
0.66995978355407714843750000000000000,
-5.46474170684814453125000000000000000,
0.30143210291862487792968750000000000,
-0.11126757413148880004882812500000000,
1.04022300243377685546875000000000000,
3.59347534179687500000000000000000000,
-1.35163176059722900390625000000000000,
0.64063197374343872070312500000000000,
0.45513823628425598144531250000000000,
3.62218141555786132812500000000000000,
-0.16126562654972076416015625000000000,
1.19066238403320312500000000000000000,
0.27391225099563598632812500000000000,
0.31960743665695190429687500000000000,
0.30157172679901123046875000000000000,
0.49651128053665161132812500000000000,
2.04771208763122558593750000000000000,
4.74448013305664062500000000000000000,
1.68959426879882812500000000000000000,
0.26718574762344360351562500000000000,
13.94792461395263671875000000000000000,
3.88434100151062011718750000000000000,
3.79015517234802246093750000000000000,
7.99049043655395507812500000000000000,
14.92749500274658203125000000000000000,
0.22107937932014465332031250000000000,
1.19153010845184326171875000000000000,
0.29563674330711364746093750000000000,
-0.09770108759403228759765625000000000,
-2.10902929306030273437500000000000000,
-0.63984620571136474609375000000000000,
-1.10099375247955322265625000000000000,
0.49439597129821777343750000000000000,
0.75614506006240844726562500000000000,
0.45341834425926208496093750000000000,
-0.03103152662515640258789062500000000,
2.86890006065368652343750000000000000,
-0.43855157494544982910156250000000000,
0.64972543716430664062500000000000000,
-0.89534419775009155273437500000000000,
1.81265044212341308593750000000000000,
0.02132482081651687622070312500000000,
0.91638493537902832031250000000000000,
1.09878480434417724609375000000000000,
-0.56825333833694458007812500000000000,
0.00812020339071750640869140625000000,
-1.04778528213500976562500000000000000,
1.72257375717163085937500000000000000,
0.52499127388000488281250000000000000,
0.17698533833026885986328125000000000,
-0.70417940616607666015625000000000000,
-8.04813861846923828125000000000000000,
-0.88794368505477905273437500000000000,
5.33161115646362304687500000000000000,
0.10512582212686538696289062500000000,
-2.82492280006408691406250000000000000,
0.37715822458267211914062500000000000,
0.24325491487979888916015625000000000,
-0.49228304624557495117187500000000000,
-2.40042805671691894531250000000000000,
-0.68947714567184448242187500000000000,
-1.08207511901855468750000000000000000,
5.58447074890136718750000000000000000,
10.66045951843261718750000000000000000,
0.04109115153551101684570312500000000,
-0.40706837177276611328125000000000000,
-0.87133073806762695312500000000000000,
2.04568195343017578125000000000000000,
1.18205296993255615234375000000000000,
1.36184561252593994140625000000000000,
-1.37562155723571777343750000000000000,
2.40264225006103515625000000000000000,
0.12547138333320617675781250000000000,
-1.52977263927459716796875000000000000,
-2.88467621803283691406250000000000000,
1.09482276439666748046875000000000000,
1.40876436233520507812500000000000000,
0.74486351013183593750000000000000000,
0.35860571265220642089843750000000000,
2.34572625160217285156250000000000000,
1.49002897739410400390625000000000000,
1.47541177272796630859375000000000000,
2.19989633560180664062500000000000000,
0.69161891937255859375000000000000000,
1.76554954051971435546875000000000000,
1.22582685947418212890625000000000000,
1.65457844734191894531250000000000000,
1.38979101181030273437500000000000000,
2.89247465133666992187500000000000000,
2.21237206459045410156250000000000000,
2.67276024818420410156250000000000000,
1.84946429729461669921875000000000000,
0.27184224128723144531250000000000000,
-0.26941815018653869628906250000000000,
0.80350798368453979492187500000000000,
0.70678955316543579101562500000000000,
2.13046741485595703125000000000000000,
1.47821414470672607421875000000000000,
1.10563766956329345703125000000000000,
1.08658361434936523437500000000000000,
2.10209226608276367187500000000000000,
1.25294351577758789062500000000000000,
1.41329252719879150390625000000000000,
-0.43971416354179382324218750000000000,
1.14103507995605468750000000000000000,
1.59780263900756835937500000000000000,
0.85955226421356201171875000000000000,
2.77778625488281250000000000000000000,
1.49032545089721679687500000000000000,
1.68373179435729980468750000000000000,
0.66282206773757934570312500000000000,
1.89356279373168945312500000000000000,
0.12126633524894714355468750000000000,
2.58575725555419921875000000000000000,
0.67372721433639526367187500000000000,
1.45573878288269042968750000000000000,
5.40124368667602539062500000000000000,
2.95493960380554199218750000000000000,
6.39035463333129882812500000000000000,
1.73478519916534423828125000000000000,
3.70605707168579101562500000000000000,
2.46031570434570312500000000000000000,
2.61769151687622070312500000000000000,
2.96756172180175781250000000000000000,
12.26737308502197265625000000000000000,
3.79923462867736816406250000000000000,
1.49067246913909912109375000000000000,
1.82151198387145996093750000000000000,
0.07573496550321578979492187500000000,
1.48890280723571777343750000000000000,
2.16294908523559570312500000000000000,
0.54793995618820190429687500000000000,
1.42211508750915527343750000000000000,
1.47475171089172363281250000000000000,
2.22382879257202148437500000000000000,
3.65203666687011718750000000000000000,
2.40828275680541992187500000000000000,
2.56124186515808105468750000000000000,
4.57008552551269531250000000000000000,
0.79954111576080322265625000000000000,
2.38690710067749023437500000000000000,
2.61698484420776367187500000000000000,
0.47569152712821960449218750000000000,
3.43276238441467285156250000000000000,
-0.07713811099529266357421875000000000,
0.90284937620162963867187500000000000,
0.23290440440177917480468750000000000,
4.59199571609497070312500000000000000,
1.47567963600158691406250000000000000,
1.76972353458404541015625000000000000,
1.00769126415252685546875000000000000,
1.19117689132690429687500000000000000,
0.19231443107128143310546875000000000,
6.15067720413208007812500000000000000,
-0.65807545185089111328125000000000000,
1.68065416812896728515625000000000000,
1.32199776172637939453125000000000000,
1.65117681026458740234375000000000000,
0.62939512729644775390625000000000000,
1.78515982627868652343750000000000000,
2.55676150321960449218750000000000000,
0.14122256636619567871093750000000000,
8.54918861389160156250000000000000000,
7.46117496490478515625000000000000000,
11.69823265075683593750000000000000000,
2.51508021354675292968750000000000000,
1.11854946613311767578125000000000000,
2.83695912361145019531250000000000000,
-0.31692221760749816894531250000000000,
-2.21428537368774414062500000000000000,
-0.31929209828376770019531250000000000,
1.02138543128967285156250000000000000,
1.04726219177246093750000000000000000,
1.30404210090637207031250000000000000,
1.03894710540771484375000000000000000,
1.36858010292053222656250000000000000,
0.60494178533554077148437500000000000,
-0.54379701614379882812500000000000000,
0.11433226615190505981445312500000000,
-0.61089402437210083007812500000000000,
1.66840147972106933593750000000000000,
1.20253860950469970703125000000000000,
1.35586535930633544921875000000000000,
-2.98404955863952636718750000000000000,
2.82288312911987304687500000000000000,
1.71752130985260009765625000000000000,
2.51636242866516113281250000000000000,
1.68800389766693115234375000000000000,
-0.42847362160682678222656250000000000,
0.27834823727607727050781250000000000,
-0.38320848345756530761718750000000000,
2.47210907936096191406250000000000000,
8.86693572998046875000000000000000000,
-0.18905483186244964599609375000000000,
0.39105007052421569824218750000000000,
5.17137908935546875000000000000000000,
-0.03452020138502120971679687500000000,
-0.47855827212333679199218750000000000,
-3.06868672370910644531250000000000000,
-2.11303615570068359375000000000000000,
-0.16844341158866882324218750000000000,
-2.11882781982421875000000000000000000,
0.68800473213195800781250000000000000,
0.22900032997131347656250000000000000,
0.19756978750228881835937500000000000,
-1.74752664566040039062500000000000000,
-3.13742589950561523437500000000000000,
-0.66316092014312744140625000000000000,
-1.18456363677978515625000000000000000,
1.17490708827972412109375000000000000,
0.42657104134559631347656250000000000,
-0.53642493486404418945312500000000000,
-0.94532406330108642578125000000000000,
-0.23157154023647308349609375000000000,
0.10146119445562362670898437500000000,
1.80050539970397949218750000000000000,
0.05675104632973670959472656250000000,
0.80763030052185058593750000000000000,
-0.80179738998413085937500000000000000,
-0.59407830238342285156250000000000000,
0.06285507231950759887695312500000000,
1.84921228885650634765625000000000000,
-0.28544038534164428710937500000000000,
-1.42692816257476806640625000000000000,
1.15939295291900634765625000000000000,
2.10365581512451171875000000000000000,
0.51460433006286621093750000000000000,
0.95243483781814575195312500000000000,
-0.26608204841613769531250000000000000,
-0.84792548418045043945312500000000000,
0.92638647556304931640625000000000000,
-0.40012714266777038574218750000000000,
0.74389749765396118164062500000000000,
-0.45879942178726196289062500000000000,
2.15126800537109375000000000000000000,
1.30653059482574462890625000000000000,
0.23176997900009155273437500000000000,
1.35971546173095703125000000000000000,
-0.74150508642196655273437500000000000,
-0.31155058741569519042968750000000000,
-0.06984479725360870361328125000000000,
1.95252943038940429687500000000000000,
-5.08442831039428710937500000000000000,
-0.39142677187919616699218750000000000,
-0.24289692938327789306640625000000000,
-2.46217298507690429687500000000000000,
-0.22825367748737335205078125000000000,
0.00534250121563673019409179687500000,
-0.27604961395263671875000000000000000,
-0.32683983445167541503906250000000000,
-0.49119374155998229980468750000000000,
-1.36908018589019775390625000000000000,
-0.39518707990646362304687500000000000,
-1.30689823627471923828125000000000000,
0.16537228226661682128906250000000000,
0.67763727903366088867187500000000000,
-0.12855093181133270263671875000000000,
0.35981947183609008789062500000000000,
-1.79907548427581787109375000000000000,
-0.56862241029739379882812500000000000,
0.28769072890281677246093750000000000,
0.00364367594011127948760986328125000,
0.46542820334434509277343750000000000,
2.16434383392333984375000000000000000,
-0.16500535607337951660156250000000000,
1.56911385059356689453125000000000000,
-2.82266306877136230468750000000000000,
5.43155384063720703125000000000000000,
-0.98552560806274414062500000000000000,
-0.26020509004592895507812500000000000,
4.35560035705566406250000000000000000,
4.35525560379028320312500000000000000,
3.16609406471252441406250000000000000,
-1.49076843261718750000000000000000000,
-0.97895181179046630859375000000000000,
1.21615326404571533203125000000000000,
4.87311935424804687500000000000000000,
-4.29185581207275390625000000000000000,
0.06241935864090919494628906250000000,
1.51388990879058837890625000000000000,
1.81433641910552978515625000000000000,
1.34402358531951904296875000000000000,
3.05763435363769531250000000000000000,
-0.91335242986679077148437500000000000,
2.17697286605834960937500000000000000,
0.07754064351320266723632812500000000,
4.50673246383666992187500000000000000,
0.78194677829742431640625000000000000,
1.74527168273925781250000000000000000,
1.34885215759277343750000000000000000,
1.95511567592620849609375000000000000,
1.70442223548889160156250000000000000,
2.34778571128845214843750000000000000,
-1.61352789402008056640625000000000000,
0.29840525984764099121093750000000000,
4.50924158096313476562500000000000000,
0.52521055936813354492187500000000000,
-0.01340402849018573760986328125000000,
-0.43774127960205078125000000000000000,
-0.16496224701404571533203125000000000,
0.68694996833801269531250000000000000,
4.00152778625488281250000000000000000,
0.47060486674308776855468750000000000,
1.25375580787658691406250000000000000,
0.52070593833923339843750000000000000,
1.27059423923492431640625000000000000,
-0.37965381145477294921875000000000000,
0.84377241134643554687500000000000000,
4.42874097824096679687500000000000000,
2.57286047935485839843750000000000000,
0.72806853055953979492187500000000000,
1.28209853172302246093750000000000000,
0.50917804241180419921875000000000000,
1.67679989337921142578125000000000000,
-1.50288629531860351562500000000000000,
0.21698094904422760009765625000000000,
3.33757066726684570312500000000000000,
5.06385755538940429687500000000000000,
2.83966255187988281250000000000000000,
-0.91523700952529907226562500000000000,
1.89801692962646484375000000000000000,
1.57966363430023193359375000000000000,
-2.37176752090454101562500000000000000,
-0.11815676838159561157226562500000000,
1.37556898593902587890625000000000000,
0.57011181116104125976562500000000000,
4.74489593505859375000000000000000000,
-1.15423250198364257812500000000000000,
-0.12266195565462112426757812500000000,
0.67423480749130249023437500000000000,
1.96957516670227050781250000000000000,
0.86877030134201049804687500000000000,
0.30612149834632873535156250000000000,
-1.67304384708404541015625000000000000,
3.42944073677062988281250000000000000,
0.90098530054092407226562500000000000,
5.91176700592041015625000000000000000,
1.16749393939971923828125000000000000,
0.75466430187225341796875000000000000,
1.06475830078125000000000000000000000,
0.02138484641909599304199218750000000,
3.03289365768432617187500000000000000,
6.14080429077148437500000000000000000,
1.34825253486633300781250000000000000,
0.06542988866567611694335937500000000,
5.01816034317016601562500000000000000,
0.28437742590904235839843750000000000,
-0.26281192898750305175781250000000000,
-0.92108339071273803710937500000000000,
-0.68431431055068969726562500000000000,
1.45320975780487060546875000000000000,
7.54109668731689453125000000000000000,
0.09189867228269577026367187500000000,
0.46073427796363830566406250000000000,
-1.10216903686523437500000000000000000,
0.97593522071838378906250000000000000,
-1.09842634201049804687500000000000000,
0.15276417136192321777343750000000000,
0.42205524444580078125000000000000000,
3.86706781387329101562500000000000000,
-1.20392215251922607421875000000000000,
0.56780117750167846679687500000000000,
-0.24495306611061096191406250000000000,
0.32796880602836608886718750000000000,
0.94443833827972412109375000000000000,
0.89458042383193969726562500000000000,
0.97858315706253051757812500000000000,
0.69024920463562011718750000000000000,
-1.12219858169555664062500000000000000,
-0.96172362565994262695312500000000000,
0.20569075644016265869140625000000000,
-2.24940991401672363281250000000000000,
0.19873376190662384033203125000000000,
-0.00682340050116181373596191406250000,
1.19958209991455078125000000000000000,
1.16226530075073242187500000000000000,
0.61338448524475097656250000000000000,
-1.55950999259948730468750000000000000,
0.10356589406728744506835937500000000,
-1.90863120555877685546875000000000000,
1.01044821739196777343750000000000000,
-0.87883746623992919921875000000000000,
-1.30241286754608154296875000000000000,
-0.52705782651901245117187500000000000,
1.79871106147766113281250000000000000,
1.58921706676483154296875000000000000,
2.05553102493286132812500000000000000,
0.97262507677078247070312500000000000,
0.16635321080684661865234375000000000,
-0.55364274978637695312500000000000000,
-0.17960870265960693359375000000000000,
1.65669405460357666015625000000000000,
5.89845848083496093750000000000000000,
0.21195407211780548095703125000000000,
0.06089782342314720153808593750000000,
3.31188106536865234375000000000000000,
0.10900828242301940917968750000000000,
-0.32502758502960205078125000000000000,
-0.20362479984760284423828125000000000,
-0.49851742386817932128906250000000000,
-0.11654102057218551635742187500000000,
-0.03770514577627182006835937500000000,
-0.23374503850936889648437500000000000,
-1.91139876842498779296875000000000000,
0.15416027605533599853515625000000000,
0.18097589910030364990234375000000000,
0.21983526647090911865234375000000000,
-0.24450393021106719970703125000000000,
-3.46346020698547363281250000000000000,
-2.97902941703796386718750000000000000,
-0.02762323245406150817871093750000000,
-1.09852015972137451171875000000000000,
0.15196135640144348144531250000000000,
0.29658469557762145996093750000000000,
-0.25550201535224914550781250000000000,
0.84535622596740722656250000000000000,
1.58752894401550292968750000000000000,
1.28423714637756347656250000000000000,
3.30620074272155761718750000000000000,
1.69139444828033447265625000000000000,
1.13632547855377197265625000000000000,
1.39372980594635009765625000000000000,
1.16407465934753417968750000000000000,
2.81017875671386718750000000000000000,
1.83466303348541259765625000000000000,
0.86789131164550781250000000000000000,
0.79019373655319213867187500000000000,
0.46383181214332580566406250000000000,
0.18879692256450653076171875000000000,
1.01737904548645019531250000000000000,
1.20778810977935791015625000000000000,
1.80149483680725097656250000000000000,
1.28912580013275146484375000000000000,
1.26522517204284667968750000000000000,
1.32821595668792724609375000000000000,
1.38055729866027832031250000000000000,
1.02814126014709472656250000000000000,
1.23723268508911132812500000000000000,
2.15628933906555175781250000000000000,
1.49038934707641601562500000000000000,
1.49468600749969482421875000000000000,
1.20661687850952148437500000000000000,
0.33338940143585205078125000000000000,
1.89742863178253173828125000000000000,
0.36253058910369873046875000000000000,
0.42923212051391601562500000000000000,
1.15053510665893554687500000000000000,
2.40572619438171386718750000000000000,
1.70451653003692626953125000000000000,
1.80503344535827636718750000000000000,
1.55629420280456542968750000000000000,
1.20874297618865966796875000000000000,
0.76480072736740112304687500000000000,
3.31666779518127441406250000000000000,
0.57904922962188720703125000000000000,
1.52634131908416748046875000000000000,
1.52868795394897460937500000000000000,
1.56218194961547851562500000000000000,
-0.02802321314811706542968750000000000,
1.22406733036041259765625000000000000,
1.20934617519378662109375000000000000,
1.08161699771881103515625000000000000,
1.35209167003631591796875000000000000,
2.84606623649597167968750000000000000,
1.86988782882690429687500000000000000,
1.16172659397125244140625000000000000,
0.88370347023010253906250000000000000,
2.19280815124511718750000000000000000,
-0.05824678018689155578613281250000000,
-3.31295704841613769531250000000000000,
-0.17491886019706726074218750000000000,
0.01487982459366321563720703125000000,
-0.09558050334453582763671875000000000,
0.65308076143264770507812500000000000,
-0.56261146068572998046875000000000000,
-0.34616789221763610839843750000000000,
0.52259647846221923828125000000000000,
-0.22663649916648864746093750000000000,
-0.05493436008691787719726562500000000,
-0.90809041261672973632812500000000000,
3.32525420188903808593750000000000000,
-1.07090580463409423828125000000000000,
0.70932835340499877929687500000000000,
-0.04537142813205718994140625000000000,
4.17646360397338867187500000000000000,
-0.00843670312315225601196289062500000,
3.08682513236999511718750000000000000,
2.30546069145202636718750000000000000,
-1.06968486309051513671875000000000000,
-0.73524200916290283203125000000000000,
-1.25416457653045654296875000000000000,
3.70197772979736328125000000000000000,
5.28399419784545898437500000000000000,
0.03779349103569984436035156250000000,
0.10105393826961517333984375000000000,
3.25565433502197265625000000000000000,
0.04752138257026672363281250000000000,
-0.72179341316223144531250000000000000,
-2.07795786857604980468750000000000000,
-2.58776569366455078125000000000000000,
-0.46341723203659057617187500000000000,
1.04148995876312255859375000000000000,
0.25834229588508605957031250000000000,
0.56113272905349731445312500000000000,
1.51660168170928955078125000000000000,
0.69120836257934570312500000000000000,
-1.42195630073547363281250000000000000,
-1.15205109119415283203125000000000000,
-1.24498105049133300781250000000000000,
0.76672625541687011718750000000000000,
0.38952359557151794433593750000000000,
-1.58023607730865478515625000000000000,
0.40099194645881652832031250000000000,
0.27182298898696899414062500000000000,
-0.19253459572792053222656250000000000,
2.17486763000488281250000000000000000,
-2.78861546516418457031250000000000000,
0.77839374542236328125000000000000000,
3.89778590202331542968750000000000000,
0.84117513895034790039062500000000000,
14.70530033111572265625000000000000000,
2.73877596855163574218750000000000000,
6.08036994934082031250000000000000000,
14.47113323211669921875000000000000000,
1.83255302906036376953125000000000000,
0.70010936260223388671875000000000000,
7.94953632354736328125000000000000000,
26.93152999877929687500000000000000000,
-0.34212440252304077148437500000000000,
-1.13071048259735107421875000000000000,
0.66446167230606079101562500000000000,
1.57146883010864257812500000000000000,
-0.37015727162361145019531250000000000,
3.35664272308349609375000000000000000,
3.24371504783630371093750000000000000,
1.31790328025817871093750000000000000,
0.86625987291336059570312500000000000,
0.87729513645172119140625000000000000,
0.14669355750083923339843750000000000,
-0.42011293768882751464843750000000000,
0.93309122323989868164062500000000000,
1.87912094593048095703125000000000000,
-2.38537311553955078125000000000000000,
-1.10252046585083007812500000000000000,
-0.56693571805953979492187500000000000,
-1.59505653381347656250000000000000000,
-1.96535634994506835937500000000000000,
0.39628428220748901367187500000000000,
0.79039680957794189453125000000000000,
0.61129188537597656250000000000000000,
-0.61651641130447387695312500000000000,
3.04664921760559082031250000000000000,
-1.12365961074829101562500000000000000,
3.17730236053466796875000000000000000,
-0.72841864824295043945312500000000000,
-2.50203919410705566406250000000000000,
1.20243036746978759765625000000000000,
-1.19730770587921142578125000000000000,
-1.12994313240051269531250000000000000,
-6.90896129608154296875000000000000000,
1.65644109249114990234375000000000000,
0.63937121629714965820312500000000000,
-7.32952642440795898437500000000000000,
9.05390644073486328125000000000000000,
-5.59535360336303710937500000000000000,
1.28714513778686523437500000000000000,
6.44120979309082031250000000000000000,
3.65173363685607910156250000000000000,
0.21177920699119567871093750000000000,
0.11695564538240432739257812500000000,
5.41893196105957031250000000000000000,
5.01803636550903320312500000000000000,
1.94361495971679687500000000000000000,
10.59211921691894531250000000000000000,
30.04967117309570312500000000000000000,
3.68186402320861816406250000000000000,
8.33446693420410156250000000000000000,
10.32833003997802734375000000000000000,
-0.25291761755943298339843750000000000,
0.10171422362327575683593750000000000,
1.94969570636749267578125000000000000,
1.43867254257202148437500000000000000,
1.74254524707794189453125000000000000,
-0.18772451579570770263671875000000000,
3.03010463714599609375000000000000000,
2.88869023323059082031250000000000000,
2.31566429138183593750000000000000000,
1.69937992095947265625000000000000000,
-0.16016519069671630859375000000000000,
-0.81244432926177978515625000000000000,
8.08173274993896484375000000000000000,
3.27212572097778320312500000000000000,
0.11778716742992401123046875000000000,
0.84225016832351684570312500000000000,
-0.37724989652633666992187500000000000,
-0.43582713603973388671875000000000000,
-0.31987839937210083007812500000000000,
1.12806737422943115234375000000000000,
-0.15601472556591033935546875000000000,
-0.00723140919581055641174316406250000,
-0.59526437520980834960937500000000000,
8.65546512603759765625000000000000000,
-0.60642039775848388671875000000000000,
16.03717613220214843750000000000000000,
-0.81470727920532226562500000000000000,
0.45764669775962829589843750000000000,
-0.07486542314291000366210937500000000,
1.72589540481567382812500000000000000,
2.31248331069946289062500000000000000,
3.78056144714355468750000000000000000,
-0.50807404518127441406250000000000000,
-0.03704533353447914123535156250000000,
6.07723045349121093750000000000000000,
12.63436794281005859375000000000000000,
-2.00730347633361816406250000000000000,
1.22369682788848876953125000000000000,
7.22541046142578125000000000000000000,
5.01920700073242187500000000000000000,
16.63872909545898437500000000000000000,
0.16290210187435150146484375000000000,
2.27902030944824218750000000000000000,
2.64863920211791992187500000000000000,
3.64697885513305664062500000000000000,
-0.47954124212265014648437500000000000,
2.90980362892150878906250000000000000,
3.32720136642456054687500000000000000,
3.47797107696533203125000000000000000,
-0.46829542517662048339843750000000000,
0.27821284532546997070312500000000000,
1.62001430988311767578125000000000000,
2.69474029541015625000000000000000000,
1.77077519893646240234375000000000000,
2.23163509368896484375000000000000000,
-1.02380216121673583984375000000000000,
3.01150345802307128906250000000000000,
2.53267645835876464843750000000000000,
4.90056705474853515625000000000000000,
2.43672108650207519531250000000000000,
5.29810810089111328125000000000000000,
3.16738700866699218750000000000000000,
4.01789188385009765625000000000000000,
3.11399173736572265625000000000000000,
1.20860135555267333984375000000000000,
-0.30540186166763305664062500000000000,
0.49889710545539855957031250000000000,
3.08699321746826171875000000000000000,
1.98292374610900878906250000000000000,
-1.18148195743560791015625000000000000,
-0.13635930418968200683593750000000000,
0.18783104419708251953125000000000000,
3.11529207229614257812500000000000000,
5.86916923522949218750000000000000000,
1.11305809020996093750000000000000000,
0.15973445773124694824218750000000000,
-0.02844942919909954071044921875000000,
4.16785573959350585937500000000000000,
-0.49791011214256286621093750000000000,
3.07478213310241699218750000000000000,
-0.27182179689407348632812500000000000,
6.26204156875610351562500000000000000,
2.93899941444396972656250000000000000,
2.36325359344482421875000000000000000,
4.47764253616333007812500000000000000,
-0.36339366436004638671875000000000000,
4.63140916824340820312500000000000000,
2.48824763298034667968750000000000000,
0.12521840631961822509765625000000000,
-0.57286512851715087890625000000000000,
1.33928811550140380859375000000000000,
-0.31302675604820251464843750000000000,
0.65475291013717651367187500000000000,
-2.31910848617553710937500000000000000,
0.63063460588455200195312500000000000,
-0.67023187875747680664062500000000000,
-0.67825824022293090820312500000000000,
2.57608699798583984375000000000000000,
-0.68602937459945678710937500000000000,
-0.19164352118968963623046875000000000,
0.05327185988426208496093750000000000,
0.16718594729900360107421875000000000,
0.40233743190765380859375000000000000,
0.36083114147186279296875000000000000,
-1.89126718044281005859375000000000000,
-1.62837660312652587890625000000000000,
1.64619445800781250000000000000000000,
1.20474028587341308593750000000000000,
-0.12301012128591537475585937500000000,
1.22967064380645751953125000000000000,
-0.86590343713760375976562500000000000,
-0.49787327647209167480468750000000000,
-0.09338603913784027099609375000000000,
2.11042881011962890625000000000000000,
-1.79887223243713378906250000000000000,
0.14810727536678314208984375000000000,
0.01206783391535282135009765625000000,
0.19715811312198638916015625000000000,
0.01817354187369346618652343750000000,
0.55912774801254272460937500000000000,
-1.29990208148956298828125000000000000,
-0.38040545582771301269531250000000000,
-0.34307789802551269531250000000000000,
0.97652387619018554687500000000000000,
0.09319078177213668823242187500000000,
0.57667475938796997070312500000000000,
-6.32730484008789062500000000000000000,
0.54988473653793334960937500000000000,
-0.53829795122146606445312500000000000,
-0.67696255445480346679687500000000000,
0.12562407553195953369140625000000000,
-0.13822367787361145019531250000000000,
-0.08007715642452239990234375000000000,
-1.44653367996215820312500000000000000,
0.13740836083889007568359375000000000,
-3.34003424644470214843750000000000000,
0.66247153282165527343750000000000000,
1.05139291286468505859375000000000000,
-0.06510719656944274902343750000000000,
1.88581848144531250000000000000000000,
-0.22525084018707275390625000000000000,
-1.59315383434295654296875000000000000,
0.40256926417350769042968750000000000,
-0.07640214264392852783203125000000000,
0.32046648859977722167968750000000000,
1.55501234531402587890625000000000000,
0.15158237516880035400390625000000000,
2.72420763969421386718750000000000000,
0.73275381326675415039062500000000000,
0.18876840174198150634765625000000000,
0.08808714896440505981445312500000000,
-0.40741154551506042480468750000000000,
0.79178839921951293945312500000000000,
0.45985960960388183593750000000000000,
1.01699340343475341796875000000000000,
-1.17603635787963867187500000000000000,
2.08929824829101562500000000000000000,
1.35082364082336425781250000000000000,
2.22591590881347656250000000000000000,
1.26933944225311279296875000000000000,
-0.95751106739044189453125000000000000,
-0.48316124081611633300781250000000000,
-0.66433030366897583007812500000000000,
1.55571842193603515625000000000000000,
3.52538251876831054687500000000000000,
0.20060721039772033691406250000000000,
0.03276348859071731567382812500000000,
2.18308138847351074218750000000000000,
-0.04513527825474739074707031250000000,
-0.08219874650239944458007812500000000,
-0.89262825250625610351562500000000000,
-1.01108670234680175781250000000000000,
-0.26559019088745117187500000000000000,
0.10444415360689163208007812500000000,
0.14106917381286621093750000000000000,
-0.34889027476310729980468750000000000,
-0.80286461114883422851562500000000000,
-0.28224638104438781738281250000000000,
-0.67692905664443969726562500000000000,
-0.59730613231658935546875000000000000,
-0.84895867109298706054687500000000000,
0.88140732049942016601562500000000000,
0.61140513420104980468750000000000000,
-0.90566414594650268554687500000000000,
-0.42217528820037841796875000000000000,
0.03651748970150947570800781250000000,
0.05061881989240646362304687500000000,
1.56157243251800537109375000000000000,
1.80048167705535888671875000000000000,
1.41613030433654785156250000000000000,
1.81748259067535400390625000000000000,
1.77807271480560302734375000000000000,
1.69462072849273681640625000000000000,
1.75971221923828125000000000000000000,
1.47280800342559814453125000000000000,
4.51658868789672851562500000000000000,
2.16133499145507812500000000000000000,
1.53786432743072509765625000000000000,
1.28937423229217529296875000000000000,
-0.07014763355255126953125000000000000,
0.09205641597509384155273437500000000,
0.89107799530029296875000000000000000,
1.27343475818634033203125000000000000,
1.50346970558166503906250000000000000,
1.29686450958251953125000000000000000,
1.35404145717620849609375000000000000,
1.35101819038391113281250000000000000,
1.50605595111846923828125000000000000,
1.11778998374938964843750000000000000,
1.23456740379333496093750000000000000,
2.28440380096435546875000000000000000,
1.26036179065704345703125000000000000,
1.49539697170257568359375000000000000,
1.54161107540130615234375000000000000,
0.21837948262691497802734375000000000,
2.00693273544311523437500000000000000,
-0.10909545421600341796875000000000000,
0.12002808600664138793945312500000000,
0.51674473285675048828125000000000000,
2.62387156486511230468750000000000000,
1.41997182369232177734375000000000000,
1.70173799991607666015625000000000000,
1.45727038383483886718750000000000000,
0.86047768592834472656250000000000000,
0.14869630336761474609375000000000000,
4.31800174713134765625000000000000000,
0.54943448305130004882812500000000000,
1.22397911548614501953125000000000000,
1.46551358699798583984375000000000000,
1.13627982139587402343750000000000000,
0.53568983078002929687500000000000000,
0.29749733209609985351562500000000000,
1.46452212333679199218750000000000000,
1.23056566715240478515625000000000000,
1.56672406196594238281250000000000000,
4.32118844985961914062500000000000000,
3.67070078849792480468750000000000000,
1.17797112464904785156250000000000000,
1.43653881549835205078125000000000000,
1.25013768672943115234375000000000000,
2.57886457443237304687500000000000000,
1.86297237873077392578125000000000000,
1.25632381439208984375000000000000000,
1.41646754741668701171875000000000000,
1.20282518863677978515625000000000000,
3.15949940681457519531250000000000000,
1.65667152404785156250000000000000000,
1.21686863899230957031250000000000000,
0.83856844902038574218750000000000000,
0.24861600995063781738281250000000000,
0.23021000623703002929687500000000000,
0.85817646980285644531250000000000000,
1.19426667690277099609375000000000000,
1.70195579528808593750000000000000000,
1.35134100914001464843750000000000000,
1.24423754215240478515625000000000000,
1.40966188907623291015625000000000000,
1.47562098503112792968750000000000000,
1.12452137470245361328125000000000000,
1.32168936729431152343750000000000000,
1.93245613574981689453125000000000000,
1.46620893478393554687500000000000000,
1.32080149650573730468750000000000000,
1.23354756832122802734375000000000000,
0.20853386819362640380859375000000000,
1.97683632373809814453125000000000000,
0.14402993023395538330078125000000000,
0.21870505809783935546875000000000000,
0.86156171560287475585937500000000000,
2.55097413063049316406250000000000000,
1.71726834774017333984375000000000000,
1.65428638458251953125000000000000000,
1.43994188308715820312500000000000000,
1.05434155464172363281250000000000000,
0.57507091760635375976562500000000000,
3.55932450294494628906250000000000000,
0.52378910779953002929687500000000000,
1.38221502304077148437500000000000000,
1.48322284221649169921875000000000000,
1.58053314685821533203125000000000000,
0.05834442004561424255371093750000000,
0.67871576547622680664062500000000000,
1.33485722541809082031250000000000000,
1.07597708702087402343750000000000000,
1.45255839824676513671875000000000000,
3.67841744422912597656250000000000000,
2.64745759963989257812500000000000000,
1.17152023315429687500000000000000000,
1.01611173152923583984375000000000000,
4.34622764587402343750000000000000000,
-2.29801893234252929687500000000000000,
0.33233696222305297851562500000000000,
4.38582277297973632812500000000000000,
3.70387363433837890625000000000000000,
6.01181888580322265625000000000000000,
-1.45414650440216064453125000000000000,
-1.20183968544006347656250000000000000,
1.42418813705444335937500000000000000,
8.64725971221923828125000000000000000,
7.55712747573852539062500000000000000,
0.53103244304656982421875000000000000,
2.59416890144348144531250000000000000,
3.96010875701904296875000000000000000,
-0.97590374946594238281250000000000000,
3.06787776947021484375000000000000000,
-0.19546476006507873535156250000000000,
6.18691968917846679687500000000000000,
2.52709960937500000000000000000000000,
3.57285523414611816406250000000000000,
3.39191174507141113281250000000000000,
6.68913984298706054687500000000000000,
2.71549725532531738281250000000000000,
3.70370364189147949218750000000000000,
4.99866437911987304687500000000000000,
0.61726474761962890625000000000000000,
-2.18124175071716308593750000000000000,
0.60680323839187622070312500000000000,
2.44940996170043945312500000000000000,
2.41035699844360351562500000000000000,
-0.29483565688133239746093750000000000,
0.13193243741989135742187500000000000,
0.47957098484039306640625000000000000,
2.57559752464294433593750000000000000,
0.88335597515106201171875000000000000,
1.31814813613891601562500000000000000,
-0.23834122717380523681640625000000000,
1.50526273250579833984375000000000000,
4.09382009506225585937500000000000000,
-0.20986880362033843994140625000000000,
3.56253647804260253906250000000000000,
1.34183526039123535156250000000000000,
5.16087245941162109375000000000000000,
1.53307974338531494140625000000000000,
2.41329431533813476562500000000000000,
-2.64493036270141601562500000000000000,
2.06202220916748046875000000000000000,
-0.48379153013229370117187500000000000,
3.26128554344177246093750000000000000,
14.13960933685302734375000000000000000,
3.42165374755859375000000000000000000,
15.14531230926513671875000000000000000,
0.20795951783657073974609375000000000,
5.95540475845336914062500000000000000,
0.65349256992340087890625000000000000,
5.26570320129394531250000000000000000,
3.96913385391235351562500000000000000,
34.44263076782226562500000000000000000,
8.43114948272705078125000000000000000,
3.08280634880065917968750000000000000,
11.45244312286376953125000000000000000,
-0.00281437789089977741241455078125000,
-1.76117241382598876953125000000000000,
4.19929742813110351562500000000000000,
14.02126693725585937500000000000000000,
-1.26762390136718750000000000000000000,
-0.88544660806655883789062500000000000,
4.33961343765258789062500000000000000,
5.44592857360839843750000000000000000,
3.54479360580444335937500000000000000,
3.74352383613586425781250000000000000,
4.61427450180053710937500000000000000,
-1.18815481662750244140625000000000000,
9.26781272888183593750000000000000000,
4.63766765594482421875000000000000000,
0.64046823978424072265625000000000000,
6.53032875061035156250000000000000000,
0.11299259215593338012695312500000000,
1.43027830123901367187500000000000000,
-0.22497127950191497802734375000000000,
2.28655529022216796875000000000000000,
0.04711718857288360595703125000000000,
0.14751622080802917480468750000000000,
-0.32808461785316467285156250000000000,
4.31616783142089843750000000000000000,
-0.43954500555992126464843750000000000,
13.76414394378662109375000000000000000,
-1.88490021228790283203125000000000000,
2.75686502456665039062500000000000000,
-0.30893176794052124023437500000000000,
4.04787921905517578125000000000000000,
-4.28955221176147460937500000000000000,
6.59411430358886718750000000000000000,
2.97806525230407714843750000000000000,
-2.52335095405578613281250000000000000,
22.60020065307617187500000000000000000,
6.17975091934204101562500000000000000,
14.22144889831542968750000000000000000,
3.34432339668273925781250000000000000,
0.86617481708526611328125000000000000,
3.12154603004455566406250000000000000,
-0.47584268450736999511718750000000000,
-1.10049200057983398437500000000000000,
0.91443103551864624023437500000000000,
0.90755665302276611328125000000000000,
0.80834591388702392578125000000000000,
0.62498742341995239257812500000000000,
0.62216877937316894531250000000000000,
0.20255683362483978271484375000000000,
3.53766274452209472656250000000000000,
-0.13675363361835479736328125000000000,
0.14201873540878295898437500000000000,
0.54374438524246215820312500000000000,
1.15607011318206787109375000000000000,
-0.25076228380203247070312500000000000,
0.76954168081283569335937500000000000,
-1.10948371887207031250000000000000000,
2.45055627822875976562500000000000000,
0.76866132020950317382812500000000000,
3.48292636871337890625000000000000000,
1.06259882450103759765625000000000000,
0.69056433439254760742187500000000000,
0.52851563692092895507812500000000000,
0.11457218229770660400390625000000000,
1.72083556652069091796875000000000000,
4.66253185272216796875000000000000000,
0.41491955518722534179687500000000000,
-0.11491832137107849121093750000000000,
2.86079645156860351562500000000000000,
0.04011200740933418273925781250000000,
0.44533440470695495605468750000000000,
-1.26177215576171875000000000000000000,
-0.93492126464843750000000000000000000,
0.49086412787437438964843750000000000,
0.60417377948760986328125000000000000,
-0.03588156029582023620605468750000000,
-0.39951869845390319824218750000000000,
-0.20107829570770263671875000000000000,
-0.73790693283081054687500000000000000,
-1.23066937923431396484375000000000000,
0.15834718942642211914062500000000000,
-0.22754634916782379150390625000000000,
0.71704810857772827148437500000000000,
-0.80419671535491943359375000000000000,
0.08675381541252136230468750000000000,
-0.11260910332202911376953125000000000,
0.75579810142517089843750000000000000,
-0.17274466156959533691406250000000000,
1.03274762630462646484375000000000000,
