-0.13099034130573272705078125000000000,
-0.26927989721298217773437500000000000,
-0.03131249547004699707031250000000000,
-0.20147785544395446777343750000000000,
0.26270887255668640136718750000000000,
0.16436472535133361816406250000000000,
-0.21449722349643707275390625000000000,
0.26946046948432922363281250000000000,
0.03601571917533874511718750000000000,
0.08768534660339355468750000000000000,
0.28525772690773010253906250000000000,
-0.17890337109565734863281250000000000,
0.27553179860115051269531250000000000,
0.10186263918876647949218750000000000,
0.17437154054641723632812500000000000,
-0.23005729913711547851562500000000000,
0.24753209948539733886718750000000000,
-0.31374379992485046386718750000000000,
0.31055030226707458496093750000000000,
-0.26588571071624755859375000000000000,
-0.07231493294239044189453125000000000,
-0.01965090632438659667968750000000000,
-0.08414155244827270507812500000000000,
-0.11632636189460754394531250000000000,
-0.17866338789463043212890625000000000,
0.14473137259483337402343750000000000,
-0.19225476682186126708984375000000000,
0.30730387568473815917968750000000000,
0.24601122736930847167968750000000000,
-0.21409046649932861328125000000000000,
0.08845770359039306640625000000000000,
-0.08617268502712249755859375000000000,
0.30466511845588684082031250000000000,
0.24900797009468078613281250000000000,
0.21661624312400817871093750000000000,
0.06630259752273559570312500000000000,
-0.16937497258186340332031250000000000,
0.05117622017860412597656250000000000,
0.18022024631500244140625000000000000,
-0.06809596717357635498046875000000000,
0.10342225432395935058593750000000000,
-0.08162970840930938720703125000000000,
0.19470533728599548339843750000000000,
0.25463804602622985839843750000000000,
0.17243930697441101074218750000000000,
0.01438868045806884765625000000000000,
0.10218137502670288085937500000000000,
0.21158257126808166503906250000000000,
-0.20903307199478149414062500000000000,
-0.00094890594482421875000000000000000,
0.19513353705406188964843750000000000,
0.24290403723716735839843750000000000,
-0.07090893387794494628906250000000000,
0.01540642976760864257812500000000000,
0.11576423048973083496093750000000000,
0.07657992839813232421875000000000000,
0.22226861119270324707031250000000000,
0.30759504437446594238281250000000000,
-0.10390883684158325195312500000000000,
-0.09141255915164947509765625000000000,
-0.03521654009819030761718750000000000,
-0.07123079895973205566406250000000000,
0.14730456471443176269531250000000000,
-0.10789947211742401123046875000000000,
-0.02753752470016479492187500000000000,
0.08654019236564636230468750000000000,
0.30520436167716979980468750000000000,
-0.05443680286407470703125000000000000,
-0.24891643226146697998046875000000000,
0.22606864571571350097656250000000000,
0.21752598881721496582031250000000000,
0.01989686489105224609375000000000000,
0.05464452505111694335937500000000000,
-0.00231081247329711914062500000000000,
0.29089912772178649902343750000000000,
-0.23507884144783020019531250000000000,
0.29070302844047546386718750000000000,
0.25880977511405944824218750000000000,
-0.12009590864181518554687500000000000,
0.08847334980964660644531250000000000,
0.12789592146873474121093750000000000,
0.31197503209114074707031250000000000,
-0.14685717225074768066406250000000000,
-0.23715046048164367675781250000000000,
-0.28903394937515258789062500000000000,
-0.08022291958332061767578125000000000,
0.28946313261985778808593750000000000,
0.18814948201179504394531250000000000,
0.05416357517242431640625000000000000,
-0.05459180474281311035156250000000000,
-0.05836954712867736816406250000000000,
0.01608660817146301269531250000000000,
0.28312334418296813964843750000000000,
-0.06985212862491607666015625000000000,
0.28393146395683288574218750000000000,
-0.21727287769317626953125000000000000,
0.30565330386161804199218750000000000,
0.29382619261741638183593750000000000,
0.24317643046379089355468750000000000,
0.01769021153450012207031250000000000,
