-0.04148060828447341918945312500000000,
0.13627792894840240478515625000000000,
-0.04464136064052581787109375000000000,
-0.17003735899925231933593750000000000,
-0.25170606374740600585937500000000000,
-0.19202876091003417968750000000000000,
0.35653144121170043945312500000000000,
0.17741407454013824462890625000000000,
0.03884702175855636596679687500000000,
0.27990552783012390136718750000000000,
0.29727727174758911132812500000000000,
-0.01448010839521884918212890625000000,
-0.13478903472423553466796875000000000,
0.19682681560516357421875000000000000,
-0.17403092980384826660156250000000000,
0.23651720583438873291015625000000000,
0.33286318182945251464843750000000000,
0.20916810631752014160156250000000000,
-0.29967421293258666992187500000000000,
-0.03206908330321311950683593750000000,
-0.19405959546566009521484375000000000,
-0.07229550182819366455078125000000000,
-0.19556842744350433349609375000000000,
0.15442043542861938476562500000000000,
0.28156691789627075195312500000000000,
0.17960837483406066894531250000000000,
-0.18334433436393737792968750000000000,
-0.00105616054497659206390380859375000,
-0.14967992901802062988281250000000000,
-0.27934855222702026367187500000000000,
0.02776229567825794219970703125000000,
-0.03183270618319511413574218750000000,
-0.34068998694419860839843750000000000,
0.17699395120143890380859375000000000,
-0.11837875843048095703125000000000000,
-0.29303732514381408691406250000000000,
-0.02495549805462360382080078125000000,
0.06838405132293701171875000000000000,
-0.26189684867858886718750000000000000,
-0.07212238013744354248046875000000000,
0.14444193243980407714843750000000000,
0.02268360741436481475830078125000000,
0.33663168549537658691406250000000000,
-0.34088486433029174804687500000000000,
-0.35099866986274719238281250000000000,
0.07664883136749267578125000000000000,
0.29247719049453735351562500000000000,
0.27916660904884338378906250000000000,
-0.01703059859573841094970703125000000,
0.34738695621490478515625000000000000,
0.19157278537750244140625000000000000,
0.15451633930206298828125000000000000,
0.17471151053905487060546875000000000,
-0.08315639197826385498046875000000000,
-0.00433638179674744606018066406250000,
0.14725613594055175781250000000000000,
0.30729469656944274902343750000000000,
0.00721721118316054344177246093750000,
0.21574765443801879882812500000000000,
0.35188508033752441406250000000000000,
-0.11627358198165893554687500000000000,
-0.07148278504610061645507812500000000,
0.06710725277662277221679687500000000,
0.21779166162014007568359375000000000,
0.17479000985622406005859375000000000,
0.30643421411514282226562500000000000,
0.04141917452216148376464843750000000,
0.23333881795406341552734375000000000,
0.06667149066925048828125000000000000,
0.06510750949382781982421875000000000,
-0.25328293442726135253906250000000000,
0.12710624933242797851562500000000000,
-0.27751523256301879882812500000000000,
-0.19619239866733551025390625000000000,
0.02451530098915100097656250000000000,
0.04625865817070007324218750000000000,
-0.16728729009628295898437500000000000,
0.03621459007263183593750000000000000,
-0.26946851611137390136718750000000000,
0.31853261590003967285156250000000000,
0.31490123271942138671875000000000000,
0.23801046609878540039062500000000000,
0.14549987018108367919921875000000000,
-0.31558901071548461914062500000000000,
-0.04283090308308601379394531250000000,
-0.24135340750217437744140625000000000,
-0.29580095410346984863281250000000000,
-0.22433698177337646484375000000000000,
0.23942331969738006591796875000000000,
-0.20270650088787078857421875000000000,
-0.18149285018444061279296875000000000,
0.32329252362251281738281250000000000,
0.02201893366873264312744140625000000,
-0.07232768088579177856445312500000000,
0.16945770382881164550781250000000000,
0.07803788781166076660156250000000000,
-0.12028805911540985107421875000000000,
0.31263497471809387207031250000000000,
0.33095642924308776855468750000000000,
0.34887647628784179687500000000000000,
0.21006563305854797363281250000000000,
-0.17803120613098144531250000000000000,
-0.33889117836952209472656250000000000,
-0.16324819624423980712890625000000000,
-0.23718039691448211669921875000000000,
-0.03994793072342872619628906250000000,
0.29888185858726501464843750000000000,
-0.02565410360693931579589843750000000,
0.10093279182910919189453125000000000,
-0.22916856408119201660156250000000000,
-0.29032701253890991210937500000000000,
0.25454261898994445800781250000000000,
0.10473120957612991333007812500000000,
-0.34560126066207885742187500000000000,
0.35667556524276733398437500000000000,
-0.34981244802474975585937500000000000,
0.05523545295000076293945312500000000,
-0.03653917089104652404785156250000000,
0.09246627241373062133789062500000000,
0.02302899584174156188964843750000000,
0.13097344338893890380859375000000000,
-0.02925629355013370513916015625000000,
0.23825013637542724609375000000000000,
0.17351949214935302734375000000000000,
0.33034732937812805175781250000000000,
-0.00302940071560442447662353515625000,
-0.16359230875968933105468750000000000,
-0.16387319564819335937500000000000000,
-0.21506188809871673583984375000000000,
-0.34301882982254028320312500000000000,
-0.17508019506931304931640625000000000,
-0.34731644392013549804687500000000000,
0.35618066787719726562500000000000000,
-0.11156675964593887329101562500000000,
-0.13851769268512725830078125000000000,
0.20462098717689514160156250000000000,
-0.16940571367740631103515625000000000,
-0.03302222490310668945312500000000000,
-0.21311490237712860107421875000000000,
0.21055236458778381347656250000000000,
-0.23164033889770507812500000000000000,
0.15069666504859924316406250000000000,
-0.24814054369926452636718750000000000,
0.15668728947639465332031250000000000,
-0.08356725424528121948242187500000000,
-0.06522516906261444091796875000000000,
-0.11214416474103927612304687500000000,
-0.18819159269332885742187500000000000,
-0.08464376628398895263671875000000000,
0.19456708431243896484375000000000000,
-0.22601191699504852294921875000000000,
0.29291293025016784667968750000000000,
0.25129809975624084472656250000000000,
0.16187720000743865966796875000000000,
-0.14391764998435974121093750000000000,
-0.17338392138481140136718750000000000,
0.03559120371937751770019531250000000,
0.07097833603620529174804687500000000,
-0.09832655638456344604492187500000000,
-0.31238991022109985351562500000000000,
0.05129413306713104248046875000000000,
-0.19748741388320922851562500000000000,
0.01177704520523548126220703125000000,
-0.02433421462774276733398437500000000,
0.23316136002540588378906250000000000,
0.30446398258209228515625000000000000,
-0.21793925762176513671875000000000000,
0.14455386996269226074218750000000000,
-0.19744718074798583984375000000000000,
-0.01631701923906803131103515625000000,
-0.08301315456628799438476562500000000,
0.31316864490509033203125000000000000,
-0.25765943527221679687500000000000000,
0.31411537528038024902343750000000000,
0.11911393702030181884765625000000000,
0.07840581983327865600585937500000000,
-0.34867817163467407226562500000000000,
-0.25571870803833007812500000000000000,
-0.20925445854663848876953125000000000,
0.22142586112022399902343750000000000,
0.13467326760292053222656250000000000,
-0.30061990022659301757812500000000000,
-0.14991393685340881347656250000000000,
0.26252177357673645019531250000000000,
-0.30357879400253295898437500000000000,
-0.22038437426090240478515625000000000,
-0.22885328531265258789062500000000000,
0.29987671971321105957031250000000000,
0.23038962483406066894531250000000000,
-0.24802739918231964111328125000000000,
0.27458801865577697753906250000000000,
0.32535809278488159179687500000000000,
0.29538032412528991699218750000000000,
0.02903746813535690307617187500000000,
0.32139015197753906250000000000000000,
-0.13587677478790283203125000000000000,
-0.26141408085823059082031250000000000,
-0.07312849909067153930664062500000000,
0.01570399850606918334960937500000000,
0.18828377127647399902343750000000000,
0.29166924953460693359375000000000000,
-0.28059017658233642578125000000000000,
0.03639702871441841125488281250000000,
0.19034868478775024414062500000000000,
0.26829215884208679199218750000000000,
-0.28631892800331115722656250000000000,
-0.08903337270021438598632812500000000,
-0.27141854166984558105468750000000000,
-0.03511749207973480224609375000000000,
0.20737411081790924072265625000000000,
-0.03991533443331718444824218750000000,
0.18486304581165313720703125000000000,
0.16163581609725952148437500000000000,
0.14611020684242248535156250000000000,
-0.18660426139831542968750000000000000,
0.20739038288593292236328125000000000,
-0.32872435450553894042968750000000000,
0.30147859454154968261718750000000000,
-0.02344959974288940429687500000000000,
0.07286256551742553710937500000000000,
0.34263888001441955566406250000000000,
-0.25445401668548583984375000000000000,
0.03119038231670856475830078125000000,
0.12602396309375762939453125000000000,
-0.03084935992956161499023437500000000,
-0.30028828978538513183593750000000000,
-0.22965419292449951171875000000000000,
-0.12665241956710815429687500000000000,
0.09593757241964340209960937500000000,
0.01647790893912315368652343750000000,
-0.13963334262371063232421875000000000,
-0.07310024648904800415039062500000000,
0.11704635620117187500000000000000000,
-0.33473050594329833984375000000000000,
0.07650271058082580566406250000000000,
-0.27622732520103454589843750000000000,
-0.25957769155502319335937500000000000,
0.00793424248695373535156250000000000,
-0.11051228642463684082031250000000000,
-0.21498458087444305419921875000000000,
0.31708195805549621582031250000000000,
0.26390194892883300781250000000000000,
-0.04956701025366783142089843750000000,
0.10320250689983367919921875000000000,
0.29308688640594482421875000000000000,
0.21818673610687255859375000000000000,
0.13356560468673706054687500000000000,
-0.19254001975059509277343750000000000,
-0.26795405149459838867187500000000000,
-0.10702649503946304321289062500000000,
0.13942836225032806396484375000000000,
-0.31920856237411499023437500000000000,
-0.31792622804641723632812500000000000,
-0.02036788314580917358398437500000000,
-0.07961647957563400268554687500000000,
0.33153513073921203613281250000000000,
-0.27226957678794860839843750000000000,
-0.30119356513023376464843750000000000,
-0.07947262376546859741210937500000000,
-0.32404249906539916992187500000000000,
0.29496645927429199218750000000000000,
-0.22523546218872070312500000000000000,
0.24378606677055358886718750000000000,
-0.26362285017967224121093750000000000,
0.30297368764877319335937500000000000,
-0.15338350832462310791015625000000000,
0.05456920340657234191894531250000000,
0.35186341404914855957031250000000000,
0.23764432966709136962890625000000000,
-0.35910665988922119140625000000000000,
0.29433071613311767578125000000000000,
0.31255593895912170410156250000000000,
0.22846603393554687500000000000000000,
-0.21355499327182769775390625000000000,
-0.15013040602207183837890625000000000,
0.06279154866933822631835937500000000,
0.21766366064548492431640625000000000,
0.13156577944755554199218750000000000,
0.06809680908918380737304687500000000,
-0.06346315890550613403320312500000000,
0.10133562982082366943359375000000000,
0.31202843785285949707031250000000000,
-0.05684337392449378967285156250000000,
0.32671543955802917480468750000000000,
-0.13899035751819610595703125000000000,
0.17511427402496337890625000000000000,
0.02857839129865169525146484375000000,
0.00470789801329374313354492187500000,
-0.10421796888113021850585937500000000,
-0.10729692131280899047851562500000000,
0.33087003231048583984375000000000000,
0.03986257314682006835937500000000000,
-0.10894845426082611083984375000000000,
0.14887665212154388427734375000000000,
-0.33770385384559631347656250000000000,
-0.27912792563438415527343750000000000,
0.19258880615234375000000000000000000,
-0.32694241404533386230468750000000000,
0.14273430407047271728515625000000000,
-0.04577198997139930725097656250000000,
-0.10398534685373306274414062500000000,
0.26767548918724060058593750000000000,
-0.28317949175834655761718750000000000,
-0.31235617399215698242187500000000000,
-0.19986310601234436035156250000000000,
-0.24745248258113861083984375000000000,
0.29428201913833618164062500000000000,
-0.25737866759300231933593750000000000,
0.34042951464653015136718750000000000,
-0.18995833396911621093750000000000000,
0.35380661487579345703125000000000000,
0.12889640033245086669921875000000000,
0.04284444823861122131347656250000000,
0.08009630441665649414062500000000000,
0.09921980649232864379882812500000000,
0.22624173760414123535156250000000000,
0.21965232491493225097656250000000000,
-0.18352624773979187011718750000000000,
-0.23963253200054168701171875000000000,
-0.12844881415367126464843750000000000,
-0.09174561500549316406250000000000000,
-0.25413608551025390625000000000000000,
0.05836496874690055847167968750000000,
-0.00639525288715958595275878906250000,
0.27318105101585388183593750000000000,
0.35426941514015197753906250000000000,
-0.23296602070331573486328125000000000,
0.03126177191734313964843750000000000,
-0.28019088506698608398437500000000000,
0.16278073191642761230468750000000000,
0.27167180180549621582031250000000000,
-0.32974809408187866210937500000000000,
-0.06047552824020385742187500000000000,
-0.15499995648860931396484375000000000,
0.20019939541816711425781250000000000,
-0.30409929156303405761718750000000000,
-0.05109155178070068359375000000000000,
-0.17565149068832397460937500000000000,
-0.19599328935146331787109375000000000,
-0.15922072529792785644531250000000000,
-0.34849193692207336425781250000000000,
0.13349702954292297363281250000000000,
0.00291255116462707519531250000000000,
-0.24629214406013488769531250000000000,
-0.03942364454269409179687500000000000,
0.30198600888252258300781250000000000,
0.04451200366020202636718750000000000,
0.08311671018600463867187500000000000,
-0.11652423441410064697265625000000000,
-0.31176996231079101562500000000000000,
0.16165521740913391113281250000000000,
-0.14294900000095367431640625000000000,
-0.33754137158393859863281250000000000,
0.14684464037418365478515625000000000,
-0.35504385828971862792968750000000000,
0.10712291300296783447265625000000000,
0.18388031423091888427734375000000000,
-0.19727291166782379150390625000000000,
-0.09759389609098434448242187500000000,
0.25494313240051269531250000000000000,
-0.09217549860477447509765625000000000,
0.32940417528152465820312500000000000,
-0.07631544768810272216796875000000000,
0.35311949253082275390625000000000000,
-0.06664305925369262695312500000000000,
-0.26336815953254699707031250000000000,
-0.33634993433952331542968750000000000,
-0.08268026262521743774414062500000000,
-0.01402233261615037918090820312500000,
-0.06576143205165863037109375000000000,
-0.02806104533374309539794921875000000,
0.33614808320999145507812500000000000,
0.09480412304401397705078125000000000,
0.32559338212013244628906250000000000,
-0.29389068484306335449218750000000000,
-0.23690953850746154785156250000000000,
0.06046405807137489318847656250000000,
-0.25818443298339843750000000000000000,
0.34373041987419128417968750000000000,
0.14475634694099426269531250000000000,
0.30324566364288330078125000000000000,
-0.26992705464363098144531250000000000,
0.02280896157026290893554687500000000,
-0.01923416182398796081542968750000000,
0.32952764630317687988281250000000000,
0.07884228229522705078125000000000000,
0.07203814387321472167968750000000000,
-0.12136968970298767089843750000000000,
-0.27345591783523559570312500000000000,
-0.23452150821685791015625000000000000,
0.14937815070152282714843750000000000,
-0.18967877328395843505859375000000000,
-0.16479673981666564941406250000000000,
0.27757748961448669433593750000000000,
0.02796688675880432128906250000000000,
0.20178934931755065917968750000000000,
-0.27523574233055114746093750000000000,
-0.35078576207160949707031250000000000,
0.21452984213829040527343750000000000,
0.13278406858444213867187500000000000,
