-0.13633000850677490234375000000000000,
-0.05931699648499488830566406250000000,
0.07146984338760375976562500000000000,
-0.04568997025489807128906250000000000,
-0.11536921560764312744140625000000000,
-0.12583117187023162841796875000000000,
0.06260342895984649658203125000000000,
-0.05412404611706733703613281250000000,
0.08210996538400650024414062500000000,
-0.07662285119295120239257812500000000,
-0.01992768794298171997070312500000000,
0.01810343563556671142578125000000000,
-0.03205597028136253356933593750000000,
0.03108473122119903564453125000000000,
0.06325756013393402099609375000000000,
0.03764437139034271240234375000000000,
-0.10228628665208816528320312500000000,
0.01536995824426412582397460937500000,
-0.13583341240882873535156250000000000,
-0.03675277531147003173828125000000000,
0.12933352589607238769531250000000000,
0.11190933734178543090820312500000000,
0.12929993867874145507812500000000000,
-0.04702080413699150085449218750000000,
0.09671057760715484619140625000000000,
-0.11684464663267135620117187500000000,
0.11507461965084075927734375000000000,
-0.11139608919620513916015625000000000,
0.11400467157363891601562500000000000,
-0.01792234182357788085937500000000000,
-0.13087339699268341064453125000000000,
-0.06847030669450759887695312500000000,
0.07799328863620758056640625000000000,
0.12856090068817138671875000000000000,
0.08712113648653030395507812500000000,
-0.05512785539031028747558593750000000,
-0.13287229835987091064453125000000000,
-0.02305046468973159790039062500000000,
0.03550238534808158874511718750000000,
0.06114727258682250976562500000000000,
-0.06738027930259704589843750000000000,
0.08282091468572616577148437500000000,
0.10311660915613174438476562500000000,
0.00829756725579500198364257812500000,
0.02929656207561492919921875000000000,
0.03705867379903793334960937500000000,
0.01583998464047908782958984375000000,
-0.09929369390010833740234375000000000,
-0.13091443479061126708984375000000000,
-0.04320657253265380859375000000000000,
