-0.13371559977531433105468750000000000,
-0.01792335510253906250000000000000000,
0.01925110816955566406250000000000000,
0.17117124795913696289062500000000000,
-0.45390617847442626953125000000000000,
0.57405543327331542968750000000000000,
-0.47674202919006347656250000000000000,
-0.57156068086624145507812500000000000,
0.12734782695770263671875000000000000,
0.57163929939270019531250000000000000,
-0.29196313023567199707031250000000000,
-0.51023912429809570312500000000000000,
-0.54801958799362182617187500000000000,
-0.56486475467681884765625000000000000,
-0.32947927713394165039062500000000000,
-0.03043299913406372070312500000000000,
0.07720714807510375976562500000000000,
-0.06408369541168212890625000000000000,
0.33399027585983276367187500000000000,
-0.01994538307189941406250000000000000,
-0.54314810037612915039062500000000000,
-0.18601638078689575195312500000000000,
-0.04710137844085693359375000000000000,
-0.21629443764686584472656250000000000,
0.57723736763000488281250000000000000,
-0.07285588979721069335937500000000000,
-0.51237326860427856445312500000000000,
0.46395432949066162109375000000000000,
-0.04986125230789184570312500000000000,
0.44535017013549804687500000000000000,
0.09876859188079833984375000000000000,
-0.27513378858566284179687500000000000,
-0.20292520523071289062500000000000000,
-0.55290150642395019531250000000000000,
-0.02329158782958984375000000000000000,
0.25581240653991699218750000000000000,
-0.21339771151542663574218750000000000,
0.22177547216415405273437500000000000,
0.05173295736312866210937500000000000,
0.02491217851638793945312500000000000,
-0.12100234627723693847656250000000000,
0.20894873142242431640625000000000000,
-0.09668937325477600097656250000000000,
0.32834941148757934570312500000000000,
-0.51062071323394775390625000000000000,
0.47050666809082031250000000000000000,
-0.36655664443969726562500000000000000,
0.20999246835708618164062500000000000,
-0.11035874485969543457031250000000000,
0.54499328136444091796875000000000000,
0.43869578838348388671875000000000000,
-0.15968436002731323242187500000000000,
0.21895962953567504882812500000000000,
-0.00401908159255981445312500000000000,
0.37081205844879150390625000000000000,
0.06166708469390869140625000000000000,
-0.28888559341430664062500000000000000,
0.39038926362991333007812500000000000,
0.46859133243560791015625000000000000,
0.21952223777770996093750000000000000,
0.50761246681213378906250000000000000,
-0.47768411040306091308593750000000000,
0.44305062294006347656250000000000000,
0.26019692420959472656250000000000000,
0.02075803279876708984375000000000000,
0.05458891391754150390625000000000000,
-0.23595574498176574707031250000000000,
-0.27052557468414306640625000000000000,
-0.27617105841636657714843750000000000,
0.17335742712020874023437500000000000,
-0.05110079050064086914062500000000000,
-0.25015816092491149902343750000000000,
-0.47993662953376770019531250000000000,
0.33889693021774291992187500000000000,
-0.49897408485412597656250000000000000,
0.02083003520965576171875000000000000,
-0.10519993305206298828125000000000000,
-0.04697400331497192382812500000000000,
0.28127753734588623046875000000000000,
-0.35675540566444396972656250000000000,
-0.25016203522682189941406250000000000,
-0.12030693888664245605468750000000000,
0.48369145393371582031250000000000000,
0.49853420257568359375000000000000000,
0.33439666032791137695312500000000000,
-0.19565683603286743164062500000000000,
-0.41809222102165222167968750000000000,
0.32185292243957519531250000000000000,
0.15644353628158569335937500000000000,
0.08413684368133544921875000000000000,
-0.16569873690605163574218750000000000,
-0.27477747201919555664062500000000000,
0.49711346626281738281250000000000000,
0.19854283332824707031250000000000000,
-0.08260425925254821777343750000000000,
-0.11621320247650146484375000000000000,
0.09932649135589599609375000000000000,
0.20323771238327026367187500000000000,
0.31257611513137817382812500000000000,
-0.00958693027496337890625000000000000,
