-0.07115459442138671875000000000000000,
0.07589007169008255004882812500000000,
0.06774000078439712524414062500000000,
0.07408336549997329711914062500000000,
0.03073335438966751098632812500000000,
-0.01181025803089141845703125000000000,
0.04574697464704513549804687500000000,
-0.00082010030746459960937500000000000,
0.03054339438676834106445312500000000,
-0.07152847945690155029296875000000000,
0.03652236610651016235351562500000000,
-0.03763733059167861938476562500000000,
0.03914242237806320190429687500000000,
-0.02969931066036224365234375000000000,
0.00948774814605712890625000000000000,
-0.05171849951148033142089843750000000,
-0.02357424795627593994140625000000000,
0.09127769619226455688476562500000000,
-0.09672132879495620727539062500000000,
0.06047295778989791870117187500000000,
-0.00727139413356781005859375000000000,
0.09795895963907241821289062500000000,
-0.05019381269812583923339843750000000,
-0.01752529293298721313476562500000000,
-0.04718969017267227172851562500000000,
-0.08661027252674102783203125000000000,
-0.04108149930834770202636718750000000,
-0.06675630807876586914062500000000000,
0.08840211480855941772460937500000000,
-0.02900744974613189697265625000000000,
-0.08047751337289810180664062500000000,
-0.07362411916255950927734375000000000,
-0.00910804420709609985351562500000000,
-0.06223279237747192382812500000000000,
-0.04744484648108482360839843750000000,
0.09175033122301101684570312500000000,
0.06026958674192428588867187500000000,
-0.00361051410436630249023437500000000,
-0.07936408370733261108398437500000000,
0.05319450050592422485351562500000000,
-0.03495861589908599853515625000000000,
0.03707555681467056274414062500000000,
-0.01319471746683120727539062500000000,
-0.02022825181484222412109375000000000,
-0.03643815219402313232421875000000000,
-0.02032648026943206787109375000000000,
-0.09161742776632308959960937500000000,
-0.09524045139551162719726562500000000,
-0.06396299600601196289062500000000000,
0.06016572564840316772460937500000000,
-0.02021671831607818603515625000000000,
0.04615461081266403198242187500000000,
0.05613931268453598022460937500000000,
-0.05983550474047660827636718750000000,
0.04690604656934738159179687500000000,
0.07663483172655105590820312500000000,
-0.03854156658053398132324218750000000,
0.04113423079252243041992187500000000,
-0.07803469896316528320312500000000000,
0.03523335605859756469726562500000000,
0.02960864454507827758789062500000000,
-0.04533595964312553405761718750000000,
-0.05925469473004341125488281250000000,
-0.04479721933603286743164062500000000,
-0.01947393268346786499023437500000000,
0.09232463687658309936523437500000000,
0.00843825191259384155273437500000000,
0.09638798981904983520507812500000000,
0.06056091934442520141601562500000000,
0.05682162195444107055664062500000000,
0.07002668827772140502929687500000000,
0.09306148439645767211914062500000000,
-0.08069606870412826538085937500000000,
0.07843361049890518188476562500000000,
0.09845381230115890502929687500000000,
-0.02819249778985977172851562500000000,
-0.06481923162937164306640625000000000,
-0.01185560226440429687500000000000000,
-0.03904483467340469360351562500000000,
-0.00656349956989288330078125000000000,
-0.06663892418146133422851562500000000,
-0.01656552404165267944335937500000000,
-0.05023155361413955688476562500000000,
0.01547102630138397216796875000000000,
0.07744751125574111938476562500000000,
-0.08874361962080001831054687500000000,
0.00089026987552642822265625000000000,
0.04937636107206344604492187500000000,
0.05765403062105178833007812500000000,
0.09190625697374343872070312500000000,
0.00933794677257537841796875000000000,
0.04853978008031845092773437500000000,
0.03820084780454635620117187500000000,
-0.09016896784305572509765625000000000,
-0.04913902282714843750000000000000000,
0.08831173926591873168945312500000000,
-0.06226570531725883483886718750000000,
0.00875890254974365234375000000000000,
0.07184188812971115112304687500000000,
-0.07709717750549316406250000000000000,
0.08876351267099380493164062500000000,
0.05610121041536331176757812500000000,
-0.01162366569042205810546875000000000,
0.00203198194503784179687500000000000,
-0.09941805899143218994140625000000000,
-0.04626945406198501586914062500000000,
0.07633214443922042846679687500000000,
-0.08641749620437622070312500000000000,
-0.05580557510256767272949218750000000,
-0.03849477693438529968261718750000000,
-0.08295845985412597656250000000000000,
-0.01849192380905151367187500000000000,
0.02054566144943237304687500000000000,
0.08482614904642105102539062500000000,
0.07390848547220230102539062500000000,
-0.04024547338485717773437500000000000,
0.09598653763532638549804687500000000,
0.09456270188093185424804687500000000,
0.08414313942193984985351562500000000,
-0.06797212362289428710937500000000000,
-0.07476608455181121826171875000000000,
-0.06993250548839569091796875000000000,
-0.08897564560174942016601562500000000,
-0.05239931493997573852539062500000000,
0.05592606216669082641601562500000000,
-0.04508621618151664733886718750000000,
0.02184885740280151367187500000000000,
-0.00989516824483871459960937500000000,
0.00461031496524810791015625000000000,
0.07208590954542160034179687500000000,
0.07601519674062728881835937500000000,
-0.09195393323898315429687500000000000,
0.09144479781389236450195312500000000,
-0.08155461400747299194335937500000000,
0.03353776782751083374023437500000000,
0.09662079066038131713867187500000000,
0.09092254191637039184570312500000000,
-0.07213513553142547607421875000000000,
-0.06494103372097015380859375000000000,
0.08657666295766830444335937500000000,
0.09804230183362960815429687500000000,
0.08555430918931961059570312500000000,
-0.02673350274562835693359375000000000,
0.01457957178354263305664062500000000,
-0.08599042147397994995117187500000000,
0.03825073689222335815429687500000000,
0.06363304704427719116210937500000000,
0.03155102580785751342773437500000000,
-0.03881642967462539672851562500000000,
-0.05845713615417480468750000000000000,
-0.08405274152755737304687500000000000,
0.00238247960805892944335937500000000,
-0.09199416637420654296875000000000000,
0.08070594817399978637695312500000000,
-0.05708014965057373046875000000000000,
0.09819357842206954956054687500000000,
0.04885154217481613159179687500000000,
-0.06170573458075523376464843750000000,
-0.02789075672626495361328125000000000,
0.09839005023241043090820312500000000,
0.06741672009229660034179687500000000,
-0.00590021908283233642578125000000000,
0.08024557679891586303710937500000000,
-0.06317368149757385253906250000000000,
-0.05280761793255805969238281250000000,
0.04984217137098312377929687500000000,
0.01843456923961639404296875000000000,
0.06162924319505691528320312500000000,
-0.05889711529016494750976562500000000,
0.01192696392536163330078125000000000,
-0.04736636951565742492675781250000000,
0.09671109169721603393554687500000000,
0.08435598760843276977539062500000000,
-0.05704747512936592102050781250000000,
-0.01900009810924530029296875000000000,
0.06088327616453170776367187500000000,
-0.04907094314694404602050781250000000,
-0.09025930613279342651367187500000000,
0.04417837411165237426757812500000000,
0.09006679803133010864257812500000000,
0.06072068959474563598632812500000000,
-0.06592969596385955810546875000000000,
0.08806823939085006713867187500000000,
0.07074954360723495483398437500000000,
-0.09996169805526733398437500000000000,
-0.07716272771358489990234375000000000,
0.06205581873655319213867187500000000,
0.09924323111772537231445312500000000,
-0.09388335794210433959960937500000000,
-0.04284868389368057250976562500000000,
0.08253064006567001342773437500000000,
0.01880554854869842529296875000000000,
0.05485359579324722290039062500000000,
0.07417169958353042602539062500000000,
-0.01513121277093887329101562500000000,
0.00178732722997665405273437500000000,
-0.03733862936496734619140625000000000,
0.08819509297609329223632812500000000,
0.06809515506029129028320312500000000,
-0.02295538038015365600585937500000000,
0.04374272376298904418945312500000000,
-0.02214574813842773437500000000000000,
0.06237577646970748901367187500000000,
-0.03953119739890098571777343750000000,
0.08875984698534011840820312500000000,
-0.09948479384183883666992187500000000,
0.00527833402156829833984375000000000,
0.03620123118162155151367187500000000,
-0.05322623252868652343750000000000000,
-0.06937655061483383178710937500000000,
-0.07453359663486480712890625000000000,
-0.00719896703958511352539062500000000,
0.05128230899572372436523437500000000,
-0.06561762094497680664062500000000000,
-0.01590597629547119140625000000000000,
0.09649900346994400024414062500000000,
0.07336784154176712036132812500000000,
0.08326495438814163208007812500000000,
-0.06799240410327911376953125000000000,
0.09885179251432418823242187500000000,
-0.00763060152530670166015625000000000,
-0.08300904929637908935546875000000000,
0.09515095502138137817382812500000000,
0.06784624606370925903320312500000000,
-0.06821975857019424438476562500000000,
0.07794073969125747680664062500000000,
-0.02702526003122329711914062500000000,
-0.02835603058338165283203125000000000,
-0.06166070699691772460937500000000000,
-0.00175736844539642333984375000000000,
0.05281173437833786010742187500000000,
0.01287094503641128540039062500000000,
-0.05437021329998970031738281250000000,
-0.09857457131147384643554687500000000,
0.08822847157716751098632812500000000,
0.04518967121839523315429687500000000,
-0.08833259344100952148437500000000000,
0.06072241812944412231445312500000000,
-0.09519938379526138305664062500000000,
0.06923817843198776245117187500000000,
0.08721888810396194458007812500000000,
-0.00357977300882339477539062500000000,
-0.03654110431671142578125000000000000,
0.02292124927043914794921875000000000,
0.04262918978929519653320312500000000,
-0.01679603010416030883789062500000000,
-0.02394691854715347290039062500000000,
0.08936167508363723754882812500000000,
-0.02853888273239135742187500000000000,
-0.02686102688312530517578125000000000,
0.08670379966497421264648437500000000,
-0.09482117742300033569335937500000000,
0.09669914096593856811523437500000000,
-0.05562200769782066345214843750000000,
-0.06268598139286041259765625000000000,
0.03438649326562881469726562500000000,
0.03936598449945449829101562500000000,
0.02062259614467620849609375000000000,
0.08712593466043472290039062500000000,
-0.08178832381963729858398437500000000,
0.03676667064428329467773437500000000,
0.04686739295721054077148437500000000,
0.04174747318029403686523437500000000,
0.06059662252664566040039062500000000,
-0.06886716932058334350585937500000000,
-0.06131375953555107116699218750000000,
0.02079495042562484741210937500000000,
0.07975260168313980102539062500000000,
0.01276932656764984130859375000000000,
0.05966285616159439086914062500000000,
-0.08555930107831954956054687500000000,
-0.07053568214178085327148437500000000,
-0.07855539023876190185546875000000000,
0.00591572374105453491210937500000000,
-0.07201822847127914428710937500000000,
0.07870017737150192260742187500000000,
-0.00840443372726440429687500000000000,
0.03973335772752761840820312500000000,
0.09851557761430740356445312500000000,
-0.02889102697372436523437500000000000,
-0.01613517105579376220703125000000000,
-0.07115040719509124755859375000000000,
-0.01630862802267074584960937500000000,
0.05671525746583938598632812500000000,
0.02142129838466644287109375000000000,
0.08828599005937576293945312500000000,
-0.05461344867944717407226562500000000,
-0.04895740747451782226562500000000000,
-0.05573907122015953063964843750000000,
-0.02627348899841308593750000000000000,
-0.06527546793222427368164062500000000,
0.06964642554521560668945312500000000,
0.05940539389848709106445312500000000,
0.00039038807153701782226562500000000,
0.02617157250642776489257812500000000,
0.03111431747674942016601562500000000,
-0.05718444660305976867675781250000000,
-0.00697628408670425415039062500000000,
-0.07258924096822738647460937500000000,
-0.04649225622415542602539062500000000,
