-0.20721834897994995117187500000000000,
0.16667246818542480468750000000000000,
0.19663703441619873046875000000000000,
0.52609574794769287109375000000000000,
-0.44986557960510253906250000000000000,
0.21497863531112670898437500000000000,
-0.25992754101753234863281250000000000,
-0.04736602306365966796875000000000000,
-0.16765242815017700195312500000000000,
-0.37808406352996826171875000000000000,
-0.35891461372375488281250000000000000,
-0.39106553792953491210937500000000000,
-0.09756848216056823730468750000000000,
0.55685293674468994140625000000000000,
-0.22918894886970520019531250000000000,
-0.40811556577682495117187500000000000,
0.26503044366836547851562500000000000,
-0.56578558683395385742187500000000000,
-0.39130002260208129882812500000000000,
-0.13028126955032348632812500000000000,
-0.56745898723602294921875000000000000,
0.11175489425659179687500000000000000,
0.41503947973251342773437500000000000,
-0.33692780137062072753906250000000000,
-0.25154581665992736816406250000000000,
-0.27127265930175781250000000000000000,
-0.45222622156143188476562500000000000,
0.21666020154953002929687500000000000,
0.01140803098678588867187500000000000,
0.15845972299575805664062500000000000,
-0.52826410531997680664062500000000000,
-0.51602870225906372070312500000000000,
-0.35510343313217163085937500000000000,
-0.50788182020187377929687500000000000,
0.55360519886016845703125000000000000,
0.20334851741790771484375000000000000,
0.13806664943695068359375000000000000,
-0.47454613447189331054687500000000000,
-0.24811625480651855468750000000000000,
0.35124349594116210937500000000000000,
0.11214107275009155273437500000000000,
-0.36874067783355712890625000000000000,
-0.28693467378616333007812500000000000,
-0.08789816498756408691406250000000000,
0.07335937023162841796875000000000000,
-0.53258651494979858398437500000000000,
-0.40184789896011352539062500000000000,
-0.46999084949493408203125000000000000,
-0.24718263745307922363281250000000000,
-0.35071238875389099121093750000000000,
0.10307466983795166015625000000000000,
-0.02224725484848022460937500000000000,
0.43922960758209228515625000000000000,
0.42909443378448486328125000000000000,
-0.32260832190513610839843750000000000,
0.25446295738220214843750000000000000,
-0.09913447499275207519531250000000000,
0.18329578638076782226562500000000000,
-0.34970712661743164062500000000000000,
0.19952541589736938476562500000000000,
-0.43935054540634155273437500000000000,
-0.09669387340545654296875000000000000,
0.40187764167785644531250000000000000,
-0.31758254766464233398437500000000000,
-0.00251126289367675781250000000000000,
0.55739486217498779296875000000000000,
0.51590228080749511718750000000000000,
-0.44986116886138916015625000000000000,
0.22349315881729125976562500000000000,
0.05094850063323974609375000000000000,
-0.54510653018951416015625000000000000,
-0.23983627557754516601562500000000000,
0.33604300022125244140625000000000000,
-0.48329392075538635253906250000000000,
0.26560461521148681640625000000000000,
-0.31324025988578796386718750000000000,
-0.05445015430450439453125000000000000,
-0.04271560907363891601562500000000000,
0.27657520771026611328125000000000000,
-0.09006783366203308105468750000000000,
-0.53337717056274414062500000000000000,
0.04312318563461303710937500000000000,
-0.11693379282951354980468750000000000,
0.20166152715682983398437500000000000,
-0.09878513216972351074218750000000000,
-0.49646368622779846191406250000000000,
0.06993204355239868164062500000000000,
-0.53925251960754394531250000000000000,
-0.09948086738586425781250000000000000,
-0.24475151300430297851562500000000000,
0.03156113624572753906250000000000000,
0.45507407188415527343750000000000000,
-0.18989419937133789062500000000000000,
-0.02835673093795776367187500000000000,
-0.44565224647521972656250000000000000,
0.45475959777832031250000000000000000,
0.19307577610015869140625000000000000,
0.38558077812194824218750000000000000,
-0.49157473444938659667968750000000000,
-0.10379907488822937011718750000000000,
0.48289978504180908203125000000000000,
0.33220016956329345703125000000000000,
0.42330944538116455078125000000000000,
0.11160641908645629882812500000000000,
0.39138156175613403320312500000000000,
-0.44537031650543212890625000000000000,
0.24218124151229858398437500000000000,
0.16932761669158935546875000000000000,
-0.28214958310127258300781250000000000,
-0.00394374132156372070312500000000000,
-0.16878947615623474121093750000000000,
0.09317535161972045898437500000000000,
0.56250691413879394531250000000000000,
0.07110524177551269531250000000000000,
-0.39660477638244628906250000000000000,
-0.51821887493133544921875000000000000,
-0.20909988880157470703125000000000000,
0.56686377525329589843750000000000000,
-0.15280309319496154785156250000000000,
0.24714028835296630859375000000000000,
-0.48573449254035949707031250000000000,
0.00748461484909057617187500000000000,
0.39424085617065429687500000000000000,
0.12367653846740722656250000000000000,
-0.36449614167213439941406250000000000,
0.28812891244888305664062500000000000,
-0.52698314189910888671875000000000000,
-0.54681944847106933593750000000000000,
-0.55953460931777954101562500000000000,
0.24377357959747314453125000000000000,
-0.12903091311454772949218750000000000,
0.25134742259979248046875000000000000,
-0.57631415128707885742187500000000000,
-0.02794396877288818359375000000000000,
0.21977347135543823242187500000000000,
-0.04425740242004394531250000000000000,
-0.26975286006927490234375000000000000,
-0.14742508530616760253906250000000000,
0.49443614482879638671875000000000000,
-0.02133417129516601562500000000000000,
-0.52612859010696411132812500000000000,
-0.36088776588439941406250000000000000,
0.08387047052383422851562500000000000,
0.56202697753906250000000000000000000,
0.46888244152069091796875000000000000,
-0.02070671319961547851562500000000000,
-0.21965071558952331542968750000000000,
-0.47654923796653747558593750000000000,
-0.28279668092727661132812500000000000,
0.12682169675827026367187500000000000,
0.51005530357360839843750000000000000,
-0.01566803455352783203125000000000000,
0.16337484121322631835937500000000000,
-0.02686947584152221679687500000000000,
0.32980817556381225585937500000000000,
-0.41104084253311157226562500000000000,
0.15395164489746093750000000000000000,
0.43231320381164550781250000000000000,
-0.20385354757308959960937500000000000,
-0.30777442455291748046875000000000000,
0.33696317672729492187500000000000000,
-0.01176875829696655273437500000000000,
-0.56686818599700927734375000000000000,
-0.00195747613906860351562500000000000,
-0.06616932153701782226562500000000000,
0.41865885257720947265625000000000000,
0.45214986801147460937500000000000000,
-0.15513107180595397949218750000000000,
-0.56937551498413085937500000000000000,
0.05250328779220581054687500000000000,
0.47309565544128417968750000000000000,
0.23884969949722290039062500000000000,
0.05235552787780761718750000000000000,
0.22888106107711791992187500000000000,
0.01943659782409667968750000000000000,
-0.21716141700744628906250000000000000,
0.47968900203704833984375000000000000,
-0.26446196436882019042968750000000000,
0.53060495853424072265625000000000000,
0.42256146669387817382812500000000000,
-0.17335316538810729980468750000000000,
0.06162148714065551757812500000000000,
-0.45594879984855651855468750000000000,
-0.16662284731864929199218750000000000,
-0.50842750072479248046875000000000000,
0.15946459770202636718750000000000000,
0.46291267871856689453125000000000000,
0.38974612951278686523437500000000000,
0.34595048427581787109375000000000000,
-0.01645529270172119140625000000000000,
0.03339326381683349609375000000000000,
0.05883276462554931640625000000000000,
0.54034757614135742187500000000000000,
-0.37582951784133911132812500000000000,
-0.05668908357620239257812500000000000,
-0.56622433662414550781250000000000000,
-0.18948930501937866210937500000000000,
-0.00134688615798950195312500000000000,
0.45475375652313232421875000000000000,
-0.20640420913696289062500000000000000,
-0.55753535032272338867187500000000000,
0.20254731178283691406250000000000000,
-0.01225644350051879882812500000000000,
0.00719612836837768554687500000000000,
0.30769604444503784179687500000000000,
-0.28548252582550048828125000000000000,
-0.04610633850097656250000000000000000,
0.00330370664596557617187500000000000,
0.20842266082763671875000000000000000,
-0.55618554353713989257812500000000000,
0.16235059499740600585937500000000000,
0.21302366256713867187500000000000000,
-0.32469779253005981445312500000000000,
-0.24727666378021240234375000000000000,
0.30559438467025756835937500000000000,
-0.17480179667472839355468750000000000,
0.14355081319808959960937500000000000,
-0.28542822599411010742187500000000000,
-0.48366206884384155273437500000000000,
-0.37294989824295043945312500000000000,
0.54279768466949462890625000000000000,
-0.19590935111045837402343750000000000,
0.53859019279479980468750000000000000,
0.51508224010467529296875000000000000,
-0.25960743427276611328125000000000000,
0.23899251222610473632812500000000000,
0.27875876426696777343750000000000000,
-0.40097242593765258789062500000000000,
0.04014724493026733398437500000000000,
0.05111074447631835937500000000000000,
-0.22386378049850463867187500000000000,
0.15966737270355224609375000000000000,
-0.12470749020576477050781250000000000,
0.48609101772308349609375000000000000,
0.22844284772872924804687500000000000,
0.27106457948684692382812500000000000,
-0.23442775011062622070312500000000000,
0.44135224819183349609375000000000000,
0.12690204381942749023437500000000000,
0.46061229705810546875000000000000000,
0.34707528352737426757812500000000000,
0.24635046720504760742187500000000000,
0.47939121723175048828125000000000000,
-0.09505167603492736816406250000000000,
-0.52229863405227661132812500000000000,
-0.29977104067802429199218750000000000,
-0.01192325353622436523437500000000000,
0.45281803607940673828125000000000000,
0.38787865638732910156250000000000000,
0.28684383630752563476562500000000000,
-0.00427293777465820312500000000000000,
-0.16648623347282409667968750000000000,
0.42477643489837646484375000000000000,
-0.01857066154479980468750000000000000,
0.43333137035369873046875000000000000,
0.04707294702529907226562500000000000,
-0.20273911952972412109375000000000000,
-0.35501343011856079101562500000000000,
-0.34235167503356933593750000000000000,
-0.12223130464553833007812500000000000,
0.53030586242675781250000000000000000,
0.38174945116043090820312500000000000,
0.34762102365493774414062500000000000,
0.52792274951934814453125000000000000,
-0.39546376466751098632812500000000000,
-0.09469777345657348632812500000000000,
0.10832267999649047851562500000000000,
-0.40538117289543151855468750000000000,
0.44011282920837402343750000000000000,
0.11941874027252197265625000000000000,
0.04493045806884765625000000000000000,
0.37341195344924926757812500000000000,
-0.23802098631858825683593750000000000,
0.38291293382644653320312500000000000,
0.40000218152999877929687500000000000,
-0.08691582083702087402343750000000000,
0.27207195758819580078125000000000000,
0.57436609268188476562500000000000000,
0.32383018732070922851562500000000000,
-0.07468092441558837890625000000000000,
-0.33781468868255615234375000000000000,
0.53073132038116455078125000000000000,
-0.15505439043045043945312500000000000,
0.52311432361602783203125000000000000,
0.30669474601745605468750000000000000,
-0.00765472650527954101562500000000000,
-0.34903675317764282226562500000000000,
-0.03793787956237792968750000000000000,
0.49823868274688720703125000000000000,
0.04406994581222534179687500000000000,
0.24763709306716918945312500000000000,
0.42205548286437988281250000000000000,
-0.15651169419288635253906250000000000,
-0.41936391592025756835937500000000000,
-0.12199115753173828125000000000000000,
0.43229341506958007812500000000000000,
0.03561639785766601562500000000000000,
0.02055776119232177734375000000000000,
0.16360789537429809570312500000000000,
-0.30604702234268188476562500000000000,
