0.31755095720291137695312500000000000,
0.51330208778381347656250000000000000,
-0.38529598712921142578125000000000000,
0.36153334379196166992187500000000000,
0.08068662881851196289062500000000000,
0.14638042449951171875000000000000000,
-0.40410083532333374023437500000000000,
-0.15494707226753234863281250000000000,
0.40183776617050170898437500000000000,
-0.13887441158294677734375000000000000,
-0.20493793487548828125000000000000000,
0.46436583995819091796875000000000000,
0.53396904468536376953125000000000000,
0.53078508377075195312500000000000000,
-0.05168628692626953125000000000000000,
0.41918450593948364257812500000000000,
0.39978265762329101562500000000000000,
-0.34012764692306518554687500000000000,
0.44933462142944335937500000000000000,
-0.46264722943305969238281250000000000,
-0.21639588475227355957031250000000000,
0.13613229990005493164062500000000000,
-0.05953502655029296875000000000000000,
0.18110418319702148437500000000000000,
-0.09422686696052551269531250000000000,
-0.35772955417633056640625000000000000,
-0.12979274988174438476562500000000000,
0.50878202915191650390625000000000000,
-0.50537317991256713867187500000000000,
0.11225754022598266601562500000000000,
-0.27795714139938354492187500000000000,
-0.07930970191955566406250000000000000,
0.32010668516159057617187500000000000,
0.31951159238815307617187500000000000,
-0.56139379739761352539062500000000000,
0.14076387882232666015625000000000000,
-0.14287632703781127929687500000000000,
0.23711478710174560546875000000000000,
0.17056208848953247070312500000000000,
-0.29391703009605407714843750000000000,
-0.35094645619392395019531250000000000,
-0.45365071296691894531250000000000000,
-0.39278811216354370117187500000000000,
0.05032938718795776367187500000000000,
0.51154279708862304687500000000000000,
0.12355107069015502929687500000000000,
0.57036888599395751953125000000000000,
0.17858177423477172851562500000000000,
0.24310505390167236328125000000000000,
-0.07397866249084472656250000000000000,
0.23791497945785522460937500000000000,
0.09199082851409912109375000000000000,
0.28619539737701416015625000000000000,
-0.12889882922172546386718750000000000,
0.29658460617065429687500000000000000,
0.03670847415924072265625000000000000,
0.40603488683700561523437500000000000,
-0.52218234539031982421875000000000000,
-0.53916406631469726562500000000000000,
-0.43433439731597900390625000000000000,
0.42790055274963378906250000000000000,
-0.44284033775329589843750000000000000,
-0.47029176354408264160156250000000000,
0.09211403131484985351562500000000000,
-0.25419244170188903808593750000000000,
0.27112877368927001953125000000000000,
0.52921450138092041015625000000000000,
-0.55016779899597167968750000000000000,
0.06300067901611328125000000000000000,
-0.33327743411064147949218750000000000,
0.33123278617858886718750000000000000,
0.51533544063568115234375000000000000,
-0.06408059597015380859375000000000000,
0.35005646944046020507812500000000000,
0.08082526922225952148437500000000000,
-0.12053558230400085449218750000000000,
-0.07265418767929077148437500000000000,
-0.53572559356689453125000000000000000,
-0.09464982151985168457031250000000000,
-0.30230987071990966796875000000000000,
0.01541411876678466796875000000000000,
-0.47085928916931152343750000000000000,
0.30411404371261596679687500000000000,
0.38794159889221191406250000000000000,
-0.23967239260673522949218750000000000,
0.32520592212677001953125000000000000,
-0.05153882503509521484375000000000000,
-0.42144602537155151367187500000000000,
0.22328358888626098632812500000000000,
0.16344207525253295898437500000000000,
0.55340278148651123046875000000000000,
0.26177769899368286132812500000000000,
-0.08001461625099182128906250000000000,
0.47297489643096923828125000000000000,
-0.44154086709022521972656250000000000,
-0.34403127431869506835937500000000000,
-0.36103641986846923828125000000000000,
0.23392391204833984375000000000000000,
-0.14750966429710388183593750000000000,
0.04759168624877929687500000000000000,
-0.51608639955520629882812500000000000,
-0.38877454400062561035156250000000000,
0.08765280246734619140625000000000000,
0.06817680597305297851562500000000000,
-0.08197420835494995117187500000000000,
-0.08981159329414367675781250000000000,
0.45889651775360107421875000000000000,
0.22341805696487426757812500000000000,
-0.05808764696121215820312500000000000,
-0.40202414989471435546875000000000000,
-0.24604749679565429687500000000000000,
-0.45399257540702819824218750000000000,
0.49779605865478515625000000000000000,
-0.00443238019943237304687500000000000,
0.29210203886032104492187500000000000,
-0.11425289511680603027343750000000000,
0.29615235328674316406250000000000000,
0.54679870605468750000000000000000000,
-0.03172898292541503906250000000000000,
0.27913469076156616210937500000000000,
0.25104457139968872070312500000000000,
-0.08832708001136779785156250000000000,
-0.06013286113739013671875000000000000,
-0.05246114730834960937500000000000000,
0.10339844226837158203125000000000000,
-0.57720714807510375976562500000000000,
0.52798855304718017578125000000000000,
-0.10737681388854980468750000000000000,
-0.27498078346252441406250000000000000,
-0.33832722902297973632812500000000000,
-0.20936968922615051269531250000000000,
-0.37284329533576965332031250000000000,
-0.42325979471206665039062500000000000,
-0.55641180276870727539062500000000000,
0.20530134439468383789062500000000000,
-0.31788480281829833984375000000000000,
0.09463149309158325195312500000000000,
-0.36353725194931030273437500000000000,
-0.29311865568161010742187500000000000,
0.08246701955795288085937500000000000,
0.30904757976531982421875000000000000,
0.00359916687011718750000000000000000,
-0.25782093405723571777343750000000000,
0.29768788814544677734375000000000000,
0.00103020668029785156250000000000000,
-0.37921261787414550781250000000000000,
0.22095763683319091796875000000000000,
0.21079134941101074218750000000000000,
-0.50925147533416748046875000000000000,
0.14065665006637573242187500000000000,
-0.23887160420417785644531250000000000,
0.38366258144378662109375000000000000,
0.45217418670654296875000000000000000,
0.17763143777847290039062500000000000,
0.00453406572341918945312500000000000,
0.07325744628906250000000000000000000,
0.20035731792449951171875000000000000,
-0.03047454357147216796875000000000000,
-0.39537498354911804199218750000000000,
-0.21236628293991088867187500000000000,
0.43940925598144531250000000000000000,
0.05043268203735351562500000000000000,
0.39068770408630371093750000000000000,
-0.16891130805015563964843750000000000,
0.13093560934066772460937500000000000,
-0.02679175138473510742187500000000000,
-0.05095899105072021484375000000000000,
0.05371648073196411132812500000000000,
-0.46286252140998840332031250000000000,
-0.21691110730171203613281250000000000,
-0.30164468288421630859375000000000000,
-0.37345981597900390625000000000000000,
0.18075633049011230468750000000000000,
-0.11597421765327453613281250000000000,
-0.09081858396530151367187500000000000,
0.53234267234802246093750000000000000,
0.27761411666870117187500000000000000,
-0.18210694193840026855468750000000000,
-0.32764309644699096679687500000000000,
-0.07020574808120727539062500000000000,
0.01569885015487670898437500000000000,
0.47885572910308837890625000000000000,
0.02851092815399169921875000000000000,
-0.45302242040634155273437500000000000,
-0.24608054757118225097656250000000000,
-0.43540161848068237304687500000000000,
-0.23310437798500061035156250000000000,
-0.54590374231338500976562500000000000,
0.47505414485931396484375000000000000,
0.38371878862380981445312500000000000,
-0.09436845779418945312500000000000000,
-0.16768008470535278320312500000000000,
-0.43627792596817016601562500000000000,
0.04657423496246337890625000000000000,
-0.26829829812049865722656250000000000,
-0.05778682231903076171875000000000000,
0.37191200256347656250000000000000000,
-0.35883778333663940429687500000000000,
-0.49442562460899353027343750000000000,
0.39609378576278686523437500000000000,
0.28536009788513183593750000000000000,
-0.06269460916519165039062500000000000,
-0.29058855772018432617187500000000000,
0.02860558032989501953125000000000000,
-0.04341572523117065429687500000000000,
0.50346326828002929687500000000000000,
0.20524162054061889648437500000000000,
-0.03324699401855468750000000000000000,
0.10118353366851806640625000000000000,
0.38916999101638793945312500000000000,
