-0.02085841259166048081152844417829328,
-0.12022753430194153823062919173025875,
-0.12243115798646563019413946449276409,
-0.22759641168483529805044440763595048,
0.01685802662768876372667570251451252,
-0.29302062129313632965477154357358813,
-0.05495644583671868005358973618967866,
-0.06468169240494493765769590254421928,
-0.11279718173531588787383839189715218,
0.05697426519617557194585799607011722,
-0.09759464931344616345221254505304387,
-0.06073157125388119886855164963890275,
-0.16864486927624786072321683150221361,
0.00157477232161997793627450370479437,
-0.09119650705348429642338459188977140,
0.10954701726836722774915955369579024,
-0.24626663312563845664726613904349506,
0.06978888604519448146668025856342865,
-0.06172236807126302293724506853322964,
0.02121169305393582130148111275502743,
0.53467696841673451046972331823781133,
-0.36522685502255897160850395266606938,
0.10312168940799359972970705712214112,
-1.46692478085820132704952811764087528,
1.10534828793681949576921397238038480,
0.36983901048417772150500582029053476,
-0.10277940421468133302962399966418161,
0.13707989981497020748335557982500177,
0.08167524348577810677785038251386140,
0.11926623794374895115577572823895025,
-1.12690340490669194117856477532768622,
-0.00133934220728769252939382994327389,
0.15191494745165093349648088860703865,
-0.72795404776215033582076330276322551,
-0.62761485901452906954745003531570546,
0.21711781348105385625046892528189346,
0.18604722894688785483907622619881295,
0.57921803961884144040794808461214416,
0.39883737520491024941549085269798525,
0.78406181092755822259476872204686515,
0.89674257912560118022327060316456482,
0.62537989051693909647866576051455922,
-0.06723168848421465226827820060861995,
1.25816702549780257136546879337402061,
-0.31629793729842786698114309729135130,
-0.01818997640322592146411295743746450,
0.78582107490703867469505894405301660,
-0.08427686428240940830214356083160965,
-1.97275378855384175835752103012055159,
-0.72556972039792322348716879787389189,
1.05086172931122945328752393834292889,
-3.20864341570273969850290995964314789,
0.02753278474714304646653317831805907,
-4.04122352370625481654542454634793103,
-0.15155585932428106143987633913639002,
-6.27746966385800053700450007454492152,
2.15990603519550594668885423743631691,
0.59660455759517316831619382355711423,
2.94862033431769532398902811110019684,
-0.26427960618176010720858926106302533,
-0.07522733850537417776838111649340135,
-0.23861106472194809624554068250290584,
-0.03897531323794073410127225542964879,
-0.14610482694337262321582215918169823,
-0.27350778488974758495544392644660547,
-0.14549995845960753126924203115777345,
0.06701193405460938168349827037673094,
0.04328073897977482986654251817526529,
-0.19945143388682959328939148235804169,
-0.24814482097605203292367548328911653,
0.09657589294915432109878139499414829,
-0.27917365281321121495139436774479691,
0.01089421151572195212153815191413742,
-0.19514563479750438035331683295225957,
-0.03768623792450385284746872116556915,
0.13757449014139108700582880828733323,
0.00890776747547006308991512923967093,
-0.05324328964434713040709823417273583,
-0.00823285250255365551319552963605020,
-0.10709734663839741430901852936585783,
1.30519820963761046250795061496319249,
-0.06599909009637601464692835406822269,
0.38376299019870696582756863790564239,
-1.43306675006841821584657736821100116,
0.67352257403585780171084707035333849,
0.06460256182402143720899800882762065,
0.09271536813141477428867887056185282,
-0.03689271314297743603605184148364060,
-0.48132215685367546464945576190075371,
2.74963725560677341164250719884876162,
-0.54051702326831219114211535270442255,
0.04579871855578689088250854410944157,
0.05654964369925254141779902283815318,
-0.25997213554644732491638592364324722,
-1.10016681382650749476681539817946032,
-0.05676964115744246447414766976180545,
0.01390998468975202309594330074560276,
-0.40872270615948708138986944504722487,
-0.73054135788928353800741888335323893,
0.12595427961482849599228472925460665,
1.25162299477080751763935495546320453,
-1.46244377149807114335544611094519496,
-1.95937059125745771659410365828080103,
-1.30596688147505979316065349848940969,
0.91194537076958170906948453193763271,
-0.13733346565090531754549374454654753,
-2.21335111384497995601350339711643755,
0.17363885545848878333430320708430372,
1.55234631669350231497617187415016815,
-15.95212223094434023096255259588360786,
-0.07636754364808176487322555203718366,
0.34992417789768653912929607940895949,
0.07817312253946143152383285723772133,
-0.08836545191450513592190674216908519,
-1.14215847736460562877880420273868367,
1.39210009287946268052849063678877428,
-2.02997333142923475080010575766209513,
-4.92066508263304491777034854749217629,
0.18198957555418318610129801982111530,
0.45715833292706486989942504806094803,
0.39067025236842817248472670144110452,
0.83964525468682082998128635153989308,
1.61154478281471469358621106948703527,
1.04749965956560742164072053128620610,
-1.04280187514528610570607725094305351,
-0.41463635274002919040015058271819726,
-1.84929580219386680006721235258737579,
-0.27239607315468727932739056996069849,
-0.11646626593102130109436131988331908,
-0.24473094001430642507877166735852370,
1.33679214043096972197588456765515730,
-0.17962303646007787838456692952604499,
-0.54431240576645600892646825741394423,
0.77383156169764155674073435875470750,
0.30944632557356710478302375122439116,
-1.09042977491910941800767886888934299,
0.08104892857147295848196932865903364,
-1.50733913096481497717604725039564073,
0.03255755848986272016354348579625366,
0.72871551542930168565703752392437309,
-0.03005512636544796500892573476448888,
-0.15835801392014317579004512026585871,
-0.15627014419031393099857041306677274,
-0.29869529851311510393330195256567094,
-0.30853890520659588148078000813256949,
-0.42346217298079230628715663442562800,
-0.47348448383232655256591669967747293,
-0.13594713294320348584420798943028785,
-0.23458273344934732485000949964160100,
-0.08819683714451874434470113328643492,
-0.23359286732937498132223197444545804,
-0.45091614735002238933958551569958217,
-0.12961238971907124151172752135607880,
-0.09793046743761842087838687120893155,
-0.36265075339123870046265096789284144,
-0.09772445595218479108545750477787806,
-0.59367686633888883118714829834061675,
-0.21350513398647308349609375000000000,
0.12369850277900695800781250000000000,
-0.19468433055729050806803570594638586,
-0.32267064426955682776565481617581099,
-0.96303140168213696714616389726870693,
-0.61228152403271662862493940338026732,
-0.06326414086975905293197541823246866,
-1.24574681350664939749606219265842810,
-0.01089873308145626606968647820394835,
-0.02619884121097999438165793151256366,
0.00392386777793720699369917070953306,
-0.93533970557594647843302482215221971,
-3.36972626392533536332507537736091763,
0.33599407677415726869440959490020759,
-0.29439392737492686702438504653400742,
-0.11688334038764258693277042766567320,
-2.39451486643887445637801647535525262,
-0.08589721368153457881078338687075302,
0.13189761543813791067059071338007925,
-0.23951422976475314485789169793861220,
-0.96646472031498398269633298696135171,
1.11903700454087862148355725366855040,
-0.18090200256597235850541949275793741,
0.97033726469787617840978555250330828,
-1.03276653124951622864102773746708408,
0.44609933339393109674730908409401309,
0.19023506041515281239639989507850260,
-0.87154540819149273200849847853532992,
-0.31270688281126141072618906946445350,
-0.22786918139677167505219301801844267,
-0.96122770660032108569481579252169468,
-0.06148970775237913577448978230677312,
2.70707168155606359150056050566490740,
1.11367099549717729622955175727838650,
-1.96277294667268287220451838948065415,
-0.28497109312028129357585726211254951,
-5.98910176148075201751908025471493602,
0.92254258320138893267881030624266714,
-0.66444204906325565751501471822848544,
0.78099524796319230723895543633261696,
1.09974528779214719698131830227794126,
-0.84651914586131837836546765174716711,
-0.03734197964977593181545856282355089,
-0.42301416047583934032516594925255049,
-0.26228345950008724596358433700515889,
0.00576660345956549712231886672952896,
0.88056563959458289403414710250217468,
-1.43525247844034997690698673977749422,
-0.29740145411369239836218980599369388,
0.17177719794745935355528843047068221,
-0.06273400807542768575775227191115846,
0.66535806784418494164157209525001235,
-2.36962537761394598234687691729050130,
-0.66029385915288896224950576652190648,
0.24407229463554835913186025209142826,
-0.03323150693332795752032993163993524,
-0.81870306523147451382982353607076220,
1.13796431591523972137736109289107844,
0.22269115243912437906992352054658113,
0.74739248209125208610714707901934162,
-0.48456435097587041704869648128806148,
0.43080311735830062458418865389830898,
0.48879882179963657362620210733439308,
-0.28049761156130625927573873923392966,
-0.21674988373999923285673219197633443,
-0.09495257178154815902448859787909896,
-0.01607633684844612595443713587428647,
-0.02026620448303815408275241338742489,
0.05002231985513876100224450738096493,
0.09575820796350734132040827262244420,
-0.20768326327923322671686889862030512,
-0.06629963918628446750691551869749674,
0.07552558155810717988032365610706620,
0.04869072307784744202407978264091071,
-0.23888348185340968488077351139509119,
-0.28396818503006848732894695785944350,
0.09016232082846503681494709780963603,
-0.27378248705867591628049240171094425,
0.09177034433967515281160842732788296,
-0.09203084276442898004066961448188522,
0.03197023997602034539600168727702112,
-0.02821623705929170514150605697523133,
-0.26629898620695613420394920467515476,
-10.26589253620118924459347908850759268,
2.31806605397081133546066666895058006,
-9.50907138775907156968969502486288548,
6.01288057083148430592700606212019920,
-0.02451111089570926632186242954958288,
-0.40329514177280717523998987417144235,
-0.96393858182908032095070893774391152,
0.06259071887692589652996133509077481,
0.16130423273605354328452676782035269,
-0.17734335338633602785485265940224053,
-0.11961194659866489220512164592946647,
-0.78825049691407944596477364029851742,
0.04454247445328385346385857701534405,
-1.75072851511241656119466370000736788,
0.51098499433339139574883347449940629,
-2.42762615771800938091473653912544250,
0.22452800904241965174179540554177947,
3.49681086637560234464672248577699065,
-1.92028067119717693600478014559485018,
-0.57267960707187637314774519836646505,
-0.18817533552646636962890625000000000,
0.07989653944969177246093750000000000,
-0.07167243957519531250000000000000000,
-0.09494449198246002197265625000000000,
-0.09962981194257736206054687500000000,
-0.21068444848060607910156250000000000,
-0.17386142909526824951171875000000000,
-0.07409797608852386474609375000000000,
-0.03583212196826934814453125000000000,
0.20188102126121520996093750000000000,
0.00396513938903808593750000000000000,
-0.19203563034534454345703125000000000,
0.02810052037239074707031250000000000,
0.01181618869304656982421875000000000,
-0.06657527387142181396484375000000000,
0.04022359848022460937500000000000000,
0.01046986877918243408203125000000000,
0.20910698175430297851562500000000000,
-0.05671702325344085693359375000000000,
-0.13797304034233093261718750000000000,
-0.22621975419602952106501447815389838,
0.10853833544242724729045335152477492,
-0.26450178471761270904138996229448821,
0.14547478052595269604196914770000149,
-0.05787936824196525387176137655842467,
-0.14782114939798021713279752020753222,
-0.13437434523930008589687190578843001,
-0.20391371658646462172725932759931311,
0.02983829462699474910358787838049466,
-0.14593753218650817871093750000000000,
-0.27898801679544027454227261841879226,
-0.15104829253123991383844781921652611,
-0.20480439649783102606939166889787884,
-0.00059608774460312040008314049543969,
0.01751827372231476442898667755798670,
-0.26544017972332778487754012530785985,
-0.05875651843142268987429943649658526,
0.14988809823989868164062500000000000,
-0.17764988541603088378906250000000000,
0.02827368663438317719638348535227124,
0.41278570800647934602167765660851728,
-0.26292569358264505918754139202064835,
0.51248422580617081223408604273572564,
-0.37477046843673816889364047710841987,
1.41589933933260714304935845575528219,
0.34133761881686897066146002543973736,
1.33414588013424606494083946017781273,
0.04300310080936223244840732604643563,
1.33735608284598872508297517924802378,
0.11411671304715814700969644945871551,
-0.09660421811872349495686762566037942,
0.19294888732485840354691219999949681,
0.19595485608402124499960450521029998,
-0.42329845163068302582587421056814492,
1.04707958001931866753864142083330080,
0.51893382111360542019440345029579476,
0.56398874236620710753697949257912114,
0.27837582769552643435773120472731534,
0.75844952518919672712627289001829922,
1.82387639942193691133809352322714403,
-1.74665381728720392473519495979417115,
-1.16239779387903841012530392617918551,
-1.54795743472639424354042603226844221,
1.11685937370794441392263252055272460,
-1.14772647122399318320162819873075932,
0.17438567522275508214768535708572017,
-0.33768416112468596645967977565305773,
-0.11219182111429283621450991859092028,
-0.47799224595638106771744446632510517,
-2.24132990935685283417910795833449811,
2.65603203408331678403442310809623450,
-0.66967059212080559671420587619650178,
-0.02680958114980679096728266586069367,
-0.19930453276242443561017125830403529,
1.02854433468180062050123524386435747,
0.77820548742500672556587915096315555,
0.07899056598831234732305262014051550,
-2.14850913904671125820300403574947268,
3.52925252604225958563688436697702855,
0.44822684309873811470126270251057576,
-0.35024824836650547688066126283956692,
-0.23162214307678591351802310782659333,
-0.05786279603729214265905866909633914,
-0.66129274028110851535444680848740973,
0.18551657257670206568889170739566907,
-0.18531907939386607631071512969356263,
0.29063727753669127418234552351350430,
0.05859995017499201874766612263556453,
0.26094934834781507992929050487873610,
-1.51927067446628027980182196188252419,
0.26901392852564581792407238935993519,
0.26488656328342630175143312953878194,
0.17379376797754456096534170228551375,
-0.57139363780020591132569052206235938,
0.57388955871306812639431882416829467,
0.28492487626550777601863728705211543,
0.69239974490159583719872671281336807,
0.18243485468101519608730143318098271,
0.25183558356377255815772286950959824,
1.11728645580965246786320221872301772,
-0.17939932644367218017578125000000000,
0.05627124209933023757379544349532807,
-0.17726766870091556493882478662271751,
-0.19693478252265694816713903492200188,
0.02028709615999877216574454052988585,
-0.01248067669890348327377260773118905,
-0.13280857336037069083012340797722572,
-0.15917380339247308440597805656580022,
-0.12706341377973309758608877473307075,
-0.27556166944688814668396048546128441,
-0.12827958404414493975842503914464032,
-0.30311845959871414057928973306843545,
-0.00244190942692332994129467138577638,
-0.08405680876323523564863648971368093,
0.01969212591141721035992162569527864,
-0.27429330954660746666462500797933899,
-0.23553509547554821179637940531392815,
0.06280269826183897119431520650323364,
0.04031425989423760569696497668701340,
0.07490400652387596558412496960954741,
-0.09153527571717394450967475449942867,
-0.14706209180145854431565055620012572,
-0.05611345021737040861253831280919258,
-0.17443130463200218205344071975559928,
-0.03654733040770965363241984391606820,
-0.05014274464176347867461203122729785,
-0.27550330294999458846660900235292502,
-0.23836977043040677437524266224500025,
0.08165101720396178430760869559890125,
-0.04485896402338807043008728214772418,
-0.01181265019925841625036966320294596,
-0.01643665287334116625883595474988397,
-0.30343610882725308153240462161193136,
-0.23315191306891094868980474075215170,
-0.13738133762245238744803543795569567,
-0.04562472622819348233580427631750354,
-0.02514311564200058524143344129697653,
-0.10699138243193870301261938493553316,
-0.10080025491675384530232406632421771,
0.02877033317987963759176928135730122,
