-1.24651789929784939658929943107068539,
-0.01031121815793321211396360581602494,
-0.01771183145517906884491843300111213,
0.04340593591363122588644429811211012,
0.04468866000174811364820115500151587,
0.50799576725724537862305396629380994,
-1.27984518487230380934249751589959487,
0.00285479026906575649932817917431294,
-0.00516962632603592403546244327117165,
-1.03776261353341592297283568768762052,
0.04626611727332432394410588472055679,
-0.05601130148708571843130243905761745,
1.10659025385525278117881953221512958,
-0.15156686256757243014270386538555613,
-0.08866125143612925418867831695024506,
-0.34205795193933657971641082440328319,
0.06783541982484901644578911827920820,
-0.06355081685451360873351234204164939,
1.25130648735024241346991402679122984,
0.08805562408608848257163259631852270,
-0.01370811793505602796394704512294993,
0.02998667246673016387181753827917419,
0.00600656947467235590581990933856105,
0.00976396216642477429714652714665135,
1.30771290569873244180598703678697348,
-1.54781956883582694217693642713129520,
0.00251488187323250633048443702932673,
-1.27528486811311281279301965696504340,
2.15046540137305131068501395930070430,
-0.00290655572086588641703142066319288,
0.89776438743195396963159282677224837,
-0.94884385240130375560596576178795658,
0.24388943534649917821433007247833302,
-0.52560759253741307084339950961293653,
0.64962530347225022619994660999509506,
-0.42466840849988046757701454225752968,
-0.00645319332521777661720863150662808,
-0.05128930303809313417939819146340596,
0.00655784212054299174565752394983065,
-0.59986683451220801366332580073503777,
1.13961427160114858736505993874743581,
0.01397242123591841723995177204642459,
-0.11144981979398106697320969260545098,
1.08657191423107568617467677540844306,
-0.01658078092781330170613074415086885,
-0.47456227096488468042423392034834251,
0.05154026405836963087292446061837836,
0.46684775255454286080336601116869133,
-0.08291085533980863120362414520059247,
-0.57632146589879196252326210014871322,
-1.05823177043676097675017899746308103,
-1.32151654081014835462326573178870603,
2.26508211055590269467074904241599143,
-0.00267152223144371397944851764805207,
-1.70166022346352430183458182000322267,
2.03840291956814390061936137499287724,
-0.05812540346079871772522196238242032,
0.50870443756648842104084451420931146,
1.02962689379488270269291660952148959,
0.07532706553605482413527028029420762,
