-0.00185512928318662092055935097789643,
0.68514586622245521319030103768454865,
-0.15416206716058261649848759589076508,
0.13736269051544694463906637338368455,
0.21475454426961981813093416349147446,
0.35641446946717331156762043065100443,
0.70037694344963663528602637597941794,
0.28218110441202459703902150067733601,
-0.12963124602542755448020272979192669,
-0.18758292105031024177286269605247071,
-0.52044904682614623325775937701109797,
0.13839085954713550852268610924511449,
0.03888211077512411517620449785681558,
-0.11530116945505142211914062500000000,
-0.04043292876390738171954453150647169,
0.97804925563802858068385148726520129,
0.07824441033844936610464060322556179,
0.55052653665557260698193431380786933,
0.20190222663478551989868492455570959,
0.05120562887559654274838294440996833,
-0.04529178601760531358566552739830513,
0.09541105038131521276500990325075691,
-0.01991002201097523058304084031533421,
0.12887643245231045208143427771574352,
0.96482005531826686706153850536793470,
0.01421213421452971470415604926529340,
0.52876168849507387825781279389047995,
-0.30511540186153418563463901591603644,
-0.07899349624976340078497116792277666,
-0.07152013173691984526669784827390686,
-0.22926662909574457849259943031938747,
0.24889518168511012841115359606192214,
-0.10895633841493518323417788451479282,
0.22100275754928588867187500000000000,
0.24239287263902192792741630000818986,
0.84701512053224692344599588977871463,
0.22955313031654339672726905519084539,
-0.42275857968633312466977258736733347,
0.11169438499781743356908947362171602,
-0.06320175234618841120237675568205304,
-0.02693884676180006987333825918540242,
-0.06023669399298597904035545980150346,
-0.33484865756833370742384659024537541,
-0.06188545836481117862204470725373540,
-0.24933874691842378146233727420622017,
0.77515273228354653056726419890765101,
0.99237461205460320012861075156251900,
0.24193408063289933984663093724520877,
-0.09800303994541367802462161762377946,
-0.42039442800611026562762617686530575,
0.81654809355038726614850475016282871,
-0.08843605038886118152596793606790015,
0.61736456647806725595017951491172425,
0.17476212978363037109375000000000000,
0.01332287957633274295965453148937740,
1.29896777636203641925760621234076098,
0.22850557873213203641249435804638779,
0.21795400390087502073832581572787603,
-0.06903695027486290991536321826060885,
0.10200554080884789709404714130869252,
