-0.15098237991333007812500000000000000,
-0.05838209763169288635253906250000000,
-0.19726651906967163085937500000000000,
0.21171070635318756103515625000000000,
0.10449114441871643066406250000000000,
-0.04320486262440681457519531250000000,
-0.00897414423525333404541015625000000,
-0.28501859307289123535156250000000000,
0.26839673519134521484375000000000000,
-0.15888415277004241943359375000000000,
-0.25845059752464294433593750000000000,
-0.24958068132400512695312500000000000,
-0.23237344622611999511718750000000000,
-0.03380542621016502380371093750000000,
0.23412041366100311279296875000000000,
-0.06894595921039581298828125000000000,
0.16467197239398956298828125000000000,
-0.33714243769645690917968750000000000,
-0.11662990599870681762695312500000000,
-0.35963308811187744140625000000000000,
0.14889067411422729492187500000000000,
0.40815404057502746582031250000000000,
0.37737166881561279296875000000000000,
0.16492725908756256103515625000000000,
0.08548605442047119140625000000000000,
0.06262398511171340942382812500000000,
0.04201871529221534729003906250000000,
0.18123942613601684570312500000000000,
-0.16980822384357452392578125000000000,
-0.13825501501560211181640625000000000,
0.09294127672910690307617187500000000,
-0.15199278295040130615234375000000000,
-0.10106068849563598632812500000000000,
0.01943654008209705352783203125000000,
-0.14119237661361694335937500000000000,
-0.32971346378326416015625000000000000,
0.09419111907482147216796875000000000,
-0.08768127858638763427734375000000000,
0.23258407413959503173828125000000000,
-0.07325620204210281372070312500000000,
-0.03910449519753456115722656250000000,
-0.29290887713432312011718750000000000,
0.13818231225013732910156250000000000,
-0.06060934066772460937500000000000000,
0.12701193988323211669921875000000000,
0.15894770622253417968750000000000000,
-0.00954164471477270126342773437500000,
-0.21535545587539672851562500000000000,
0.08946564793586730957031250000000000,
0.15171936154365539550781250000000000,
-0.00056025135563686490058898925781250,
0.23455286026000976562500000000000000,
0.03493978455662727355957031250000000,
-0.31951540708541870117187500000000000,
0.04716535657644271850585937500000000,
-0.02956546284258365631103515625000000,
0.00156754592899233102798461914062500,
-0.02921739779412746429443359375000000,
-0.06853730231523513793945312500000000,
0.01940223947167396545410156250000000,
0.31591501832008361816406250000000000,
0.29689788818359375000000000000000000,
0.27495527267456054687500000000000000,
0.09724269807338714599609375000000000,
0.32701134681701660156250000000000000,
0.07888507843017578125000000000000000,
0.05355849489569664001464843750000000,
0.26656535267829895019531250000000000,
-0.25723850727081298828125000000000000,
-0.09350809454917907714843750000000000,
-0.03251139074563980102539062500000000,
-0.29042515158653259277343750000000000,
0.14735400676727294921875000000000000,
0.30344441533088684082031250000000000,
0.07867266982793807983398437500000000,
-0.21984660625457763671875000000000000,
-0.16654109954833984375000000000000000,
0.15257582068443298339843750000000000,
-0.05238608270883560180664062500000000,
0.07988330721855163574218750000000000,
0.28174942731857299804687500000000000,
0.41249805688858032226562500000000000,
0.06408037990331649780273437500000000,
0.24041038751602172851562500000000000,
0.44129282236099243164062500000000000,
0.01031368225812911987304687500000000,
0.03636669367551803588867187500000000,
0.11954917013645172119140625000000000,
-0.19271077215671539306640625000000000,
0.04316610842943191528320312500000000,
0.09242744743824005126953125000000000,
-0.12189517170190811157226562500000000,
-0.05021861568093299865722656250000000,
-0.33848926424980163574218750000000000,
-0.10449036210775375366210937500000000,
-0.20759356021881103515625000000000000,
0.20937250554561614990234375000000000,
-0.16053463518619537353515625000000000,
-0.19162905216217041015625000000000000,
-0.07690298557281494140625000000000000,
