-0.09786729514598846435546875000000000,
0.13538400828838348388671875000000000,
-0.11028005182743072509765625000000000,
-0.11787100136280059814453125000000000,
0.06474943459033966064453125000000000,
0.04823981225490570068359375000000000,
-0.13839679956436157226562500000000000,
-0.06107915192842483520507812500000000,
-0.10558556020259857177734375000000000,
-0.05586010217666625976562500000000000,
0.05495052039623260498046875000000000,
0.13843958079814910888671875000000000,
0.01079151034355163574218750000000000,
0.03029511868953704833984375000000000,
0.09530211985111236572265625000000000,
-0.03080032765865325927734375000000000,
0.13122372329235076904296875000000000,
0.05946901440620422363281250000000000,
-0.05086930841207504272460937500000000,
0.12769158184528350830078125000000000,
-0.07525097578763961791992187500000000,
0.05013611912727355957031250000000000,
0.09274327754974365234375000000000000,
0.08401055634021759033203125000000000,
-0.04780092090368270874023437500000000,
0.04053187370300292968750000000000000,
0.08585409820079803466796875000000000,
0.05990685522556304931640625000000000,
-0.11783991754055023193359375000000000,
0.08501289784908294677734375000000000,
-0.05127061158418655395507812500000000,
0.11978308856487274169921875000000000,
-0.06239716708660125732421875000000000,
-0.00949165225028991699218750000000000,
-0.04836209118366241455078125000000000,
-0.12072905898094177246093750000000000,
0.01878000795841217041015625000000000,
0.11589266359806060791015625000000000,
0.05683426558971405029296875000000000,
-0.04513286799192428588867187500000000,
0.00187861919403076171875000000000000,
-0.08129304647445678710937500000000000,
0.05134540796279907226562500000000000,
-0.07967307418584823608398437500000000,
0.10636389255523681640625000000000000,
-0.08439129590988159179687500000000000,
-0.11150243878364562988281250000000000,
0.13651524484157562255859375000000000,
-0.10930529236793518066406250000000000,
0.03085115551948547363281250000000000,
0.05642639100551605224609375000000000,
0.04705217480659484863281250000000000,
0.12385271489620208740234375000000000,
-0.00036589801311492919921875000000000,
0.05896601080894470214843750000000000,
-0.13670684397220611572265625000000000,
0.13299955427646636962890625000000000,
-0.13100633025169372558593750000000000,
-0.02245453000068664550781250000000000,
0.04740965366363525390625000000000000,
-0.00687104463577270507812500000000000,
0.07041862607002258300781250000000000,
-0.12614062428474426269531250000000000,
-0.09081916511058807373046875000000000,
-0.01862546801567077636718750000000000,
-0.03699585050344467163085937500000000,
0.08565968275070190429687500000000000,
0.07247832417488098144531250000000000,
0.13916631042957305908203125000000000,
-0.12291058152914047241210937500000000,
-0.05290140956640243530273437500000000,
-0.01648858934640884399414062500000000,
0.10716672241687774658203125000000000,
0.06726557016372680664062500000000000,
-0.00860895216464996337890625000000000,
0.03062082827091217041015625000000000,
-0.10838642716407775878906250000000000,
0.10996739566326141357421875000000000,
0.06841176748275756835937500000000000,
-0.09480566531419754028320312500000000,
-0.00901292264461517333984375000000000,
-0.07124515622854232788085937500000000,
0.04119436442852020263671875000000000,
0.00468394160270690917968750000000000,
-0.08006699383258819580078125000000000,
0.01866242289543151855468750000000000,
-0.10180889070034027099609375000000000,
-0.00234059989452362060546875000000000,
-0.01043014228343963623046875000000000,
-0.08257269859313964843750000000000000,
-0.07327234745025634765625000000000000,
0.04758130013942718505859375000000000,
0.03030838072299957275390625000000000,
-0.04627904295921325683593750000000000,
-0.12966734170913696289062500000000000,
0.00620199739933013916015625000000000,
0.12662465870380401611328125000000000,
-0.08375094830989837646484375000000000,
-0.13135164976119995117187500000000000,
0.02154107391834259033203125000000000,
0.08608432114124298095703125000000000,
0.01994903385639190673828125000000000,
-0.01607474684715270996093750000000000,
-0.02020916342735290527343750000000000,
-0.03520049154758453369140625000000000,
0.00914354622364044189453125000000000,
0.05089306831359863281250000000000000,
-0.00379033386707305908203125000000000,
0.10475990176200866699218750000000000,
0.06707642972469329833984375000000000,
0.08649204671382904052734375000000000,
0.12832082808017730712890625000000000,
0.00926303863525390625000000000000000,
0.08373151719570159912109375000000000,
0.00130450725555419921875000000000000,
0.05424645543098449707031250000000000,
-0.08318613469600677490234375000000000,
0.01100721955299377441406250000000000,
-0.08488909900188446044921875000000000,
0.09076638519763946533203125000000000,
-0.10925975441932678222656250000000000,
0.13901801407337188720703125000000000,
-0.06841253489255905151367187500000000,
0.12473310530185699462890625000000000,
-0.07102791219949722290039062500000000,
-0.03383847326040267944335937500000000,
-0.08542092144489288330078125000000000,
0.06527030467987060546875000000000000,
-0.02978201210498809814453125000000000,
-0.10525660216808319091796875000000000,
0.00772720575332641601562500000000000,
0.04330310225486755371093750000000000,
0.07714878022670745849609375000000000,
0.11751438677310943603515625000000000,
-0.13639794290065765380859375000000000,
0.02549621462821960449218750000000000,
-0.09278891980648040771484375000000000,
-0.01642481237649917602539062500000000,
-0.02916201204061508178710937500000000,
-0.00418734550476074218750000000000000,
0.02914616465568542480468750000000000,
-0.04858734458684921264648437500000000,
-0.08560495823621749877929687500000000,
-0.11283807456493377685546875000000000,
0.04143792390823364257812500000000000,
-0.03781108558177947998046875000000000,
0.10604634881019592285156250000000000,
-0.10946048051118850708007812500000000,
-0.03130528330802917480468750000000000,
0.13382412493228912353515625000000000,
