-0.29110431671142578125000000000000000,
-0.05441531538963317871093750000000000,
-0.08707994222640991210937500000000000,
0.04350677132606506347656250000000000,
0.27686354517936706542968750000000000,
-0.01045593619346618652343750000000000,
0.25270339846611022949218750000000000,
0.00876379013061523437500000000000000,
-0.17047542333602905273437500000000000,
-0.12667404115200042724609375000000000,
-0.07766602933406829833984375000000000,
0.06633406877517700195312500000000000,
-0.30986961722373962402343750000000000,
-0.26869085431098937988281250000000000,
-0.01479998230934143066406250000000000,
-0.31574389338493347167968750000000000,
-0.10464645922183990478515625000000000,
-0.20619292557239532470703125000000000,
-0.17589625716209411621093750000000000,
0.29241344332695007324218750000000000,
0.25300404429435729980468750000000000,
-0.24677729606628417968750000000000000,
-0.26029706001281738281250000000000000,
-0.19307732582092285156250000000000000,
0.18839433789253234863281250000000000,
-0.19168663024902343750000000000000000,
-0.07992503046989440917968750000000000,
0.18821331858634948730468750000000000,
-0.16591367125511169433593750000000000,
0.22973760962486267089843750000000000,
-0.01919767260551452636718750000000000,
0.15741622447967529296875000000000000,
0.30890753865242004394531250000000000,
0.30169853568077087402343750000000000,
0.28861179947853088378906250000000000,
-0.26443523168563842773437500000000000,
0.05877545475959777832031250000000000,
0.21496102213859558105468750000000000,
0.20137110352516174316406250000000000,
-0.20548787713050842285156250000000000,
-0.28875738382339477539062500000000000,
-0.00301951169967651367187500000000000,
0.24012592434883117675781250000000000,
0.14499706029891967773437500000000000,
0.30335173010826110839843750000000000,
0.07265684008598327636718750000000000,
0.03649270534515380859375000000000000,
-0.24445371329784393310546875000000000,
0.29715636372566223144531250000000000,
-0.24645557999610900878906250000000000,
0.09380152821540832519531250000000000,
-0.14210064709186553955078125000000000,
0.25493320822715759277343750000000000,
-0.06223332881927490234375000000000000,
-0.24914355576038360595703125000000000,
0.19369688630104064941406250000000000,
-0.14761835336685180664062500000000000,
0.30916735529899597167968750000000000,
-0.03901797533035278320312500000000000,
-0.17508603632450103759765625000000000,
-0.17601805925369262695312500000000000,
-0.15799739956855773925781250000000000,
0.23137834668159484863281250000000000,
0.00770452618598937988281250000000000,
-0.25584629178047180175781250000000000,
0.07817792892456054687500000000000000,
0.03966063261032104492187500000000000,
-0.27918452024459838867187500000000000,
-0.02845767140388488769531250000000000,
0.31372806429862976074218750000000000,
-0.28951686620712280273437500000000000,
-0.27115023136138916015625000000000000,
0.12601441144943237304687500000000000,
-0.27213910222053527832031250000000000,
-0.23654156923294067382812500000000000,
0.28376629948616027832031250000000000,
-0.18809020519256591796875000000000000,
0.25471934676170349121093750000000000,
0.14026167988777160644531250000000000,
0.25053420662879943847656250000000000,
-0.30384927988052368164062500000000000,
0.06918275356292724609375000000000000,
0.02981162071228027343750000000000000,
0.12303867936134338378906250000000000,
-0.03879219293594360351562500000000000,
0.23940554261207580566406250000000000,
0.29272046685218811035156250000000000,
0.14727741479873657226562500000000000,
-0.02066040039062500000000000000000000,
-0.15488560497760772705078125000000000,
-0.00212928652763366699218750000000000,
0.22490820288658142089843750000000000,
-0.10405895113945007324218750000000000,
-0.31586647033691406250000000000000000,
-0.03249567747116088867187500000000000,
-0.24772316217422485351562500000000000,
-0.17190983891487121582031250000000000,
-0.20298236608505249023437500000000000,
-0.20149832963943481445312500000000000,
-0.13305589556694030761718750000000000,
