-0.10865540057420730590820312500000000,
-0.07903525233268737792968750000000000,
-0.38427403569221496582031250000000000,
-0.43722230195999145507812500000000000,
0.11906783282756805419921875000000000,
0.15245467424392700195312500000000000,
-0.10362881422042846679687500000000000,
0.21205224096775054931640625000000000,
-0.15406320989131927490234375000000000,
-0.44110769033432006835937500000000000,
-0.29525285959243774414062500000000000,
-0.08164894580841064453125000000000000,
-0.59107428789138793945312500000000000,
-0.13362196087837219238281250000000000,
0.11854249238967895507812500000000000,
-0.13474069535732269287109375000000000,
0.22313216328620910644531250000000000,
0.06949748098850250244140625000000000,
0.29421764612197875976562500000000000,
0.02342600747942924499511718750000000,
0.11373250186443328857421875000000000,
0.30079358816146850585937500000000000,
-0.37896186113357543945312500000000000,
0.22319304943084716796875000000000000,
-0.26987364888191223144531250000000000,
-0.25221535563468933105468750000000000,
-0.12393353879451751708984375000000000,
0.05638070404529571533203125000000000,
0.10446015000343322753906250000000000,
0.13658235967159271240234375000000000,
0.29663217067718505859375000000000000,
-0.36323666572570800781250000000000000,
-0.80767136812210083007812500000000000,
0.29659831523895263671875000000000000,
-0.08889161050319671630859375000000000,
0.02343244478106498718261718750000000,
-0.09899044036865234375000000000000000,
-0.35203853249549865722656250000000000,
-0.36127999424934387207031250000000000,
-0.08282860368490219116210937500000000,
-0.54437327384948730468750000000000000,
0.20641013979911804199218750000000000,
-0.02854025922715663909912109375000000,
-0.06886491179466247558593750000000000,
-0.37687709927558898925781250000000000,
0.14070008695125579833984375000000000,
-0.01437079813331365585327148437500000,
0.24405987560749053955078125000000000,
-0.45896750688552856445312500000000000,
0.16683022677898406982421875000000000,
