0.00494666723534464836120605468750000,
0.01643644832074642181396484375000000,
-0.14193861186504364013671875000000000,
0.12220840156078338623046875000000000,
-0.06509646773338317871093750000000000,
-0.08147944509983062744140625000000000,
0.05821580067276954650878906250000000,
0.13148044049739837646484375000000000,
0.09705202281475067138671875000000000,
0.05985822156071662902832031250000000,
-0.08501187711954116821289062500000000,
0.00325805996544659137725830078125000,
0.05912046134471893310546875000000000,
-0.12822544574737548828125000000000000,
0.07218776643276214599609375000000000,
0.11849793046712875366210937500000000,
-0.14894749224185943603515625000000000,
0.06507053226232528686523437500000000,
0.05898138880729675292968750000000000,
0.02286227233707904815673828125000000,
-0.04885783419013023376464843750000000,
0.01811749488115310668945312500000000,
0.10420116037130355834960937500000000,
0.13767811655998229980468750000000000,
0.04654777422547340393066406250000000,
-0.09703847765922546386718750000000000,
-0.22389094531536102294921875000000000,
0.11385945230722427368164062500000000,
0.01535504963248968124389648437500000,
-0.13798367977142333984375000000000000,
0.02435920014977455139160156250000000,
-0.23075360059738159179687500000000000,
-0.13829346001148223876953125000000000,
-0.10441365092992782592773437500000000,
0.07761055976152420043945312500000000,
0.02955231629312038421630859375000000,
-0.01461067143827676773071289062500000,
0.02728455327451229095458984375000000,
-0.07986856997013092041015625000000000,
-0.00226058647967875003814697265625000,
-0.07680808752775192260742187500000000,
0.03032933548092842102050781250000000,
-0.13971967995166778564453125000000000,
-0.12894715368747711181640625000000000,
-0.11959217488765716552734375000000000,
0.11536137014627456665039062500000000,
0.10130245983600616455078125000000000,
-0.10844738781452178955078125000000000,
0.12310606986284255981445312500000000,
-0.08164273202419281005859375000000000,
