-0.01134684402495622634887695312500000,
0.00352152925916016101837158203125000,
0.08567389845848083496093750000000000,
0.11020028591156005859375000000000000,
0.11216636002063751220703125000000000,
0.09908708930015563964843750000000000,
-0.11292606592178344726562500000000000,
0.06017906218767166137695312500000000,
-0.10984115302562713623046875000000000,
-0.06713604927062988281250000000000000,
-0.06267759948968887329101562500000000,
-0.01898842677474021911621093750000000,
-0.10766316950321197509765625000000000,
-0.09462574124336242675781250000000000,
-0.01020471379160881042480468750000000,
0.05689738690853118896484375000000000,
0.07309851795434951782226562500000000,
0.08628184348344802856445312500000000,
0.03181815892457962036132812500000000,
0.12251482903957366943359375000000000,
0.00262006954289972782135009765625000,
0.00301386159844696521759033203125000,
-0.10320889204740524291992187500000000,
-0.13206431269645690917968750000000000,
0.11099606752395629882812500000000000,
0.00023125673760659992694854736328125,
-0.00037177265039645135402679443359375,
-0.05412798374891281127929687500000000,
-0.04876875877380371093750000000000000,
0.06193450465798377990722656250000000,
-0.09623777121305465698242187500000000,
0.00046693938202224671840667724609375,
0.01154054142534732818603515625000000,
0.07760505378246307373046875000000000,
0.05846070125699043273925781250000000,
0.08391359448432922363281250000000000,
0.10240354388952255249023437500000000,
0.07585472613573074340820312500000000,
-0.01582553610205650329589843750000000,
0.04151022061705589294433593750000000,
0.09857720136642456054687500000000000,
-0.00361312646418809890747070312500000,
-0.00717941718176007270812988281250000,
-0.06036470830440521240234375000000000,
-0.12221597880125045776367187500000000,
0.11077535897493362426757812500000000,
-0.10473346710205078125000000000000000,
-0.00161168002523481845855712890625000,
0.12453410774469375610351562500000000,
0.00899787154048681259155273437500000,
