0.21445137262344360351562500000000000,
-0.06866097450256347656250000000000000,
-0.20914614200592041015625000000000000,
-0.23127540946006774902343750000000000,
0.42413079738616943359375000000000000,
0.21645694971084594726562500000000000,
-0.48603993654251098632812500000000000,
-0.42219793796539306640625000000000000,
-0.56490218639373779296875000000000000,
0.34235006570816040039062500000000000,
-0.38882780075073242187500000000000000,
0.55644559860229492187500000000000000,
0.15426933765411376953125000000000000,
-0.10621085762977600097656250000000000,
-0.27654552459716796875000000000000000,
0.08041834831237792968750000000000000,
0.47622537612915039062500000000000000,
-0.36637794971466064453125000000000000,
0.56261110305786132812500000000000000,
-0.04298305511474609375000000000000000,
0.28941774368286132812500000000000000,
-0.18725118041038513183593750000000000,
0.29988318681716918945312500000000000,
-0.43070805072784423828125000000000000,
0.37664562463760375976562500000000000,
0.33990162611007690429687500000000000,
0.31964099407196044921875000000000000,
-0.14427617192268371582031250000000000,
-0.44460889697074890136718750000000000,
-0.56065875291824340820312500000000000,
-0.43590137362480163574218750000000000,
0.49314212799072265625000000000000000,
0.39325547218322753906250000000000000,
-0.19643992185592651367187500000000000,
-0.30493178963661193847656250000000000,
0.31853568553924560546875000000000000,
0.04431098699569702148437500000000000,
-0.40520277619361877441406250000000000,
0.46769726276397705078125000000000000,
0.53994250297546386718750000000000000,
0.34772169589996337890625000000000000,
0.32326769828796386718750000000000000,
0.17988944053649902343750000000000000,
0.18962264060974121093750000000000000,
-0.57226943969726562500000000000000000,
0.47011840343475341796875000000000000,
0.42209380865097045898437500000000000,
0.15322333574295043945312500000000000,
0.28497433662414550781250000000000000,
-0.10553106665611267089843750000000000,
0.06708014011383056640625000000000000,
0.19458931684494018554687500000000000,
0.32293379306793212890625000000000000,
-0.29605123400688171386718750000000000,
0.31425303220748901367187500000000000,
0.11838579177856445312500000000000000,
-0.30791056156158447265625000000000000,
-0.33917260169982910156250000000000000,
-0.15741917490959167480468750000000000,
-0.42719149589538574218750000000000000,
