-0.08610561490058898925781250000000000,
-0.19037362933158874511718750000000000,
-0.14614349603652954101562500000000000,
-0.00064419209957122802734375000000000,
-0.21548095345497131347656250000000000,
-0.02171297371387481689453125000000000,
-0.06427341699600219726562500000000000,
0.12801259756088256835937500000000000,
-0.12000539898872375488281250000000000,
-0.01856596767902374267578125000000000,
-0.03143391013145446777343750000000000,
-0.13378474116325378417968750000000000,
-0.16054287552833557128906250000000000,
-0.18902446329593658447265625000000000,
-0.05442836880683898925781250000000000,
-0.20932978391647338867187500000000000,
0.12877884507179260253906250000000000,
-0.08751748502254486083984375000000000,
0.19007807970046997070312500000000000,
0.03736266493797302246093750000000000,
0.13838097453117370605468750000000000,
-0.10248795151710510253906250000000000,
-0.18378448486328125000000000000000000,
-0.14696250855922698974609375000000000,
-0.19279786944389343261718750000000000,
0.20197010040283203125000000000000000,
0.16638237237930297851562500000000000,
-0.15859031677246093750000000000000000,
0.21752098202705383300781250000000000,
0.07147750258445739746093750000000000,
0.02484643459320068359375000000000000,
0.05835393071174621582031250000000000,
0.18066194653511047363281250000000000,
0.19180044531822204589843750000000000,
0.14829736948013305664062500000000000,
0.12882611155509948730468750000000000,
0.21769720315933227539062500000000000,
0.11042302846908569335937500000000000,
-0.17748096585273742675781250000000000,
0.02024281024932861328125000000000000,
-0.07661567628383636474609375000000000,
0.18943879008293151855468750000000000,
0.00405973196029663085937500000000000,
0.15575188398361206054687500000000000,
0.15403333306312561035156250000000000,
0.20511630177497863769531250000000000,
0.20251050591468811035156250000000000,
-0.19053149223327636718750000000000000,
-0.02252976596355438232421875000000000,
-0.12479460239410400390625000000000000,
-0.21642449498176574707031250000000000,
-0.08852297067642211914062500000000000,
0.13302364945411682128906250000000000,
-0.04194335639476776123046875000000000,
-0.07415008544921875000000000000000000,
0.03882753849029541015625000000000000,
0.04126259684562683105468750000000000,
0.15580925345420837402343750000000000,
-0.07550343871116638183593750000000000,
-0.00857913494110107421875000000000000,
