-0.17117568850517272949218750000000000,
-0.13227632641792297363281250000000000,
-0.09547562897205352783203125000000000,
-0.15976752340793609619140625000000000,
-0.01910665631294250488281250000000000,
0.11909881234169006347656250000000000,
-0.08781093358993530273437500000000000,
0.18936291337013244628906250000000000,
-0.17153725028038024902343750000000000,
-0.18674492835998535156250000000000000,
0.11854249238967895507812500000000000,
-0.04391545057296752929687500000000000,
-0.10777039825916290283203125000000000,
-0.15261203050613403320312500000000000,
-0.17744183540344238281250000000000000,
-0.08903874456882476806640625000000000,
-0.09950586408376693725585937500000000,
0.11199200153350830078125000000000000,
0.14095908403396606445312500000000000,
-0.19220833480358123779296875000000000,
-0.14794695377349853515625000000000000,
0.18460109829902648925781250000000000,
0.09784552454948425292968750000000000,
-0.10687982290983200073242187500000000,
-0.15375219285488128662109375000000000,
0.21433001756668090820312500000000000,
0.04490303993225097656250000000000000,
-0.03446811437606811523437500000000000,
0.12807136774063110351562500000000000,
0.14438617229461669921875000000000000,
-0.15403902530670166015625000000000000,
-0.20254370570182800292968750000000000,
0.16969919204711914062500000000000000,
0.08122822642326354980468750000000000,
0.09854143857955932617187500000000000,
-0.08849099278450012207031250000000000,
-0.13675461709499359130859375000000000,
0.22017541527748107910156250000000000,
0.03787779808044433593750000000000000,
0.15458187460899353027343750000000000,
-0.20801633596420288085937500000000000,
0.18105518817901611328125000000000000,
0.21058839559555053710937500000000000,
0.19454526901245117187500000000000000,
-0.06902639567852020263671875000000000,
0.11943992972373962402343750000000000,
-0.14233535528182983398437500000000000,
-0.08231610059738159179687500000000000,
0.06534335017204284667968750000000000,
0.19343340396881103515625000000000000,
0.16996669769287109375000000000000000,
0.10423684120178222656250000000000000,
-0.16349443793296813964843750000000000,
-0.18666644394397735595703125000000000,
0.19252300262451171875000000000000000,
0.14506658911705017089843750000000000,
-0.11848304420709609985351562500000000,
-0.06678411364555358886718750000000000,
0.17031514644622802734375000000000000,
0.05801066756248474121093750000000000,
-0.07757908105850219726562500000000000,
-0.02677051723003387451171875000000000,
-0.20104378461837768554687500000000000,
0.01163372397422790527343750000000000,
-0.16674619913101196289062500000000000,
0.12395584583282470703125000000000000,
-0.17056164145469665527343750000000000,
-0.11144660413265228271484375000000000,
-0.06559953093528747558593750000000000,
-0.11011181026697158813476562500000000,
0.04833015799522399902343750000000000,
-0.16535033285617828369140625000000000,
0.02147200703620910644531250000000000,
-0.16645666956901550292968750000000000,
-0.09465150535106658935546875000000000,
0.22194489836692810058593750000000000,
0.15210682153701782226562500000000000,
0.06276449561119079589843750000000000,
0.06814131140708923339843750000000000,
0.07608211040496826171875000000000000,
0.19684380292892456054687500000000000,
-0.18038320541381835937500000000000000,
0.19850775599479675292968750000000000,
0.16165474057197570800781250000000000,
0.05659818649291992187500000000000000,
-0.21313878893852233886718750000000000,
-0.17488251626491546630859375000000000,
-0.20865572988986968994140625000000000,
0.02274498343467712402343750000000000,
0.13126018643379211425781250000000000,
-0.11400403827428817749023437500000000,
-0.21762345731258392333984375000000000,
-0.02293850481510162353515625000000000,
-0.08145132660865783691406250000000000,
-0.16366788744926452636718750000000000,
-0.04276207089424133300781250000000000,
0.07831513881683349609375000000000000,
0.02004621922969818115234375000000000,
0.15983739495277404785156250000000000,
-0.00905819237232208251953125000000000,
0.06611847877502441406250000000000000,
-0.05928727984428405761718750000000000,
-0.03240062296390533447265625000000000,
0.08970522880554199218750000000000000,
-0.20296475291252136230468750000000000,
0.09924733638763427734375000000000000,
-0.19372124969959259033203125000000000,
-0.18050242960453033447265625000000000,
-0.19369734823703765869140625000000000,
-0.19598485529422760009765625000000000,
-0.09184159338474273681640625000000000,
-0.05421034991741180419921875000000000,
-0.02858358621597290039062500000000000,
-0.19892096519470214843750000000000000,
-0.02397249639034271240234375000000000,
-0.17543499171733856201171875000000000,
0.10260868072509765625000000000000000,
-0.02317409217357635498046875000000000,
0.20933672785758972167968750000000000,
0.13677865266799926757812500000000000,
-0.09307648241519927978515625000000000,
0.22282022237777709960937500000000000,
0.14832100272178649902343750000000000,
0.18193382024765014648437500000000000,
0.11131638288497924804687500000000000,
-0.09971316903829574584960937500000000,
-0.20093767344951629638671875000000000,
-0.06951841711997985839843750000000000,
-0.21046492457389831542968750000000000,
0.05579107999801635742187500000000000,
-0.00662545859813690185546875000000000,
0.10165625810623168945312500000000000,
-0.18079313635826110839843750000000000,
0.11863714456558227539062500000000000,
-0.14816886186599731445312500000000000,
0.16747486591339111328125000000000000,
-0.20337568223476409912109375000000000,
0.11613020300865173339843750000000000,
0.21367460489273071289062500000000000,
-0.06773714721202850341796875000000000,
-0.17507195472717285156250000000000000,
-0.17238698899745941162109375000000000,
0.19705983996391296386718750000000000,
-0.01097697019577026367187500000000000,
-0.02684587240219116210937500000000000,
-0.14325606822967529296875000000000000,
0.03948587179183959960937500000000000,
0.05400949716567993164062500000000000,
0.18956828117370605468750000000000000,
-0.11333286762237548828125000000000000,
0.03340113162994384765625000000000000,
0.05159172415733337402343750000000000,
-0.02976796030998229980468750000000000,
-0.04442055523395538330078125000000000,
-0.00706863403320312500000000000000000,
0.11841300129890441894531250000000000,
-0.08999785780906677246093750000000000,
-0.07479785382747650146484375000000000,
-0.05220544338226318359375000000000000,
0.16404601931571960449218750000000000,
-0.00257843732833862304687500000000000,
0.07405248284339904785156250000000000,
0.00415548682212829589843750000000000,
-0.15849171578884124755859375000000000,
0.05321538448333740234375000000000000,
-0.01634925603866577148437500000000000,
-0.02726070582866668701171875000000000,
-0.00667375326156616210937500000000000,
0.14263969659805297851562500000000000,
0.21145182847976684570312500000000000,
-0.00842268764972686767578125000000000,
-0.22165612876415252685546875000000000,
-0.18894228339195251464843750000000000,
0.00331966578960418701171875000000000,
-0.14217174053192138671875000000000000,
0.12137249112129211425781250000000000,
0.20044952630996704101562500000000000,
0.20472338795661926269531250000000000,
-0.17388892173767089843750000000000000,
-0.18793430924415588378906250000000000,
-0.01637691259384155273437500000000000,
-0.13675259053707122802734375000000000,
-0.09604017436504364013671875000000000,
-0.17941044270992279052734375000000000,
0.14431092143058776855468750000000000,
0.10002884268760681152343750000000000,
0.08421820402145385742187500000000000,
0.01499885320663452148437500000000000,
0.15178883075714111328125000000000000,
-0.17370317876338958740234375000000000,
0.00521463155746459960937500000000000,
-0.12579721212387084960937500000000000,
0.16028562188148498535156250000000000,
-0.11494217067956924438476562500000000,
0.16715681552886962890625000000000000,
0.04950800538063049316406250000000000,
-0.08121016621589660644531250000000000,
-0.14599364995956420898437500000000000,
0.19420427083969116210937500000000000,
0.06852737069129943847656250000000000,
-0.21906368434429168701171875000000000,
-0.21104463934898376464843750000000000,
0.03100967407226562500000000000000000,
0.01759107410907745361328125000000000,
0.01500010490417480468750000000000000,
-0.08219833672046661376953125000000000,
-0.19343389570713043212890625000000000,
-0.19332255423069000244140625000000000,
0.19100883603096008300781250000000000,
-0.07418949902057647705078125000000000,
-0.08117796480655670166015625000000000,
-0.13752348721027374267578125000000000,
0.12818196415901184082031250000000000,
0.21283471584320068359375000000000000,
-0.17122276127338409423828125000000000,
0.06096541881561279296875000000000000,
0.06707832217216491699218750000000000,
0.05680426955223083496093750000000000,
0.11195510625839233398437500000000000,
-0.13450175523757934570312500000000000,
0.05606177449226379394531250000000000,
-0.19488732516765594482421875000000000,
-0.19764855504035949707031250000000000,
-0.17654940485954284667968750000000000,
0.11179798841476440429687500000000000,
-0.20401713252067565917968750000000000,
-0.18621505796909332275390625000000000,
0.14896067976951599121093750000000000,
-0.16256685554981231689453125000000000,
0.14537450671195983886718750000000000,
0.00025920569896697998046875000000000,
0.21273386478424072265625000000000000,
0.01322962343692779541015625000000000,
-0.06353637576103210449218750000000000,
0.01094004511833190917968750000000000,
-0.01513631641864776611328125000000000,
0.20383957028388977050781250000000000,
0.19364666938781738281250000000000000,
0.03521615266799926757812500000000000,
0.15630114078521728515625000000000000,
-0.11910239607095718383789062500000000,
0.14080056548118591308593750000000000,
0.21574050188064575195312500000000000,
-0.14067021012306213378906250000000000,
0.13041311502456665039062500000000000,
0.19931766390800476074218750000000000,
-0.03559315204620361328125000000000000,
-0.01522135734558105468750000000000000,
0.18718317151069641113281250000000000,
0.19908365607261657714843750000000000,
0.04395428299903869628906250000000000,
-0.04976156353950500488281250000000000,
0.08247378468513488769531250000000000,
0.04322180151939392089843750000000000,
-0.19171269237995147705078125000000000,
0.19100302457809448242187500000000000,
-0.11999438703060150146484375000000000,
-0.08412495255470275878906250000000000,
0.17043116688728332519531250000000000,
-0.01858986914157867431640625000000000,
0.02769920229911804199218750000000000,
-0.22222761809825897216796875000000000,
-0.08520075678825378417968750000000000,
-0.20897416770458221435546875000000000,
-0.17170178890228271484375000000000000,
0.01805570721626281738281250000000000,
0.19443178176879882812500000000000000,
0.07906457781791687011718750000000000,
0.19657686352729797363281250000000000,
-0.17172700166702270507812500000000000,
-0.19015243649482727050781250000000000,
-0.21210400760173797607421875000000000,
0.06387412548065185546875000000000000,
0.11562126874923706054687500000000000,
0.16591739654541015625000000000000000,
-0.18067875504493713378906250000000000,
-0.11820561438798904418945312500000000,
-0.05400800704956054687500000000000000,
-0.07128138840198516845703125000000000,
0.15292614698410034179687500000000000,
0.09664198756217956542968750000000000,
0.16231566667556762695312500000000000,
0.09668922424316406250000000000000000,
-0.12152679264545440673828125000000000,
-0.06494341790676116943359375000000000,
0.04023930430412292480468750000000000,
-0.16103824973106384277343750000000000,
0.04231914877891540527343750000000000,
0.09805020689964294433593750000000000,
0.07885757088661193847656250000000000,
-0.07934720814228057861328125000000000,
0.15590080618858337402343750000000000,
-0.20394673943519592285156250000000000,
0.04665625095367431640625000000000000,
0.08296257257461547851562500000000000,
-0.01627455651760101318359375000000000,
0.18720561265945434570312500000000000,
0.19455018639564514160156250000000000,
-0.20317097008228302001953125000000000,
0.03725898265838623046875000000000000,
-0.11769818514585494995117187500000000,
0.04149571061134338378906250000000000,
0.15446794033050537109375000000000000,
-0.12806822359561920166015625000000000,
0.14567348361015319824218750000000000,
-0.21128572523593902587890625000000000,
-0.12970620393753051757812500000000000,
0.09956210851669311523437500000000000,
0.19531574845314025878906250000000000,
-0.19074019789695739746093750000000000,
-0.02116262912750244140625000000000000,
0.10307621955871582031250000000000000,
-0.09999798238277435302734375000000000,
0.18754237890243530273437500000000000,
-0.02273520827293395996093750000000000,
0.14005413651466369628906250000000000,
0.03176343441009521484375000000000000,
-0.15324163436889648437500000000000000,
-0.21461030840873718261718750000000000,
0.09465670585632324218750000000000000,
-0.12746755778789520263671875000000000,
-0.08572427928447723388671875000000000,
-0.12878400087356567382812500000000000,
-0.03324529528617858886718750000000000,
-0.15810920298099517822265625000000000,
-0.03084760904312133789062500000000000,
-0.16327267885208129882812500000000000,
-0.10805084556341171264648437500000000,
0.05438455939292907714843750000000000,
-0.17204314470291137695312500000000000,
-0.18008355796337127685546875000000000,
0.16940537095069885253906250000000000,
0.00266645848751068115234375000000000,
-0.10972926765680313110351562500000000,
0.19280490279197692871093750000000000,
-0.00593642890453338623046875000000000,
0.17888399958610534667968750000000000,
-0.01755908131599426269531250000000000,
0.07756331562995910644531250000000000,
-0.12877018749713897705078125000000000,
0.10039493441581726074218750000000000,
-0.03823436796665191650390625000000000,
-0.21281015872955322265625000000000000,
-0.16186529397964477539062500000000000,
0.16972890496253967285156250000000000,
-0.12546896934509277343750000000000000,
-0.15850536525249481201171875000000000,
-0.01439230144023895263671875000000000,
-0.19671003520488739013671875000000000,
0.17761558294296264648437500000000000,
0.20825901627540588378906250000000000,
0.13131457567214965820312500000000000,
0.04396936297416687011718750000000000,
0.17372012138366699218750000000000000,
-0.06068053841590881347656250000000000,
-0.17767971754074096679687500000000000,
0.14733898639678955078125000000000000,
-0.18133260309696197509765625000000000,
0.06605410575866699218750000000000000,
-0.21265341341495513916015625000000000,
-0.15362355113029479980468750000000000,
-0.21416801214218139648437500000000000,
-0.13172084093093872070312500000000000,
-0.02042356133460998535156250000000000,
-0.21871981024742126464843750000000000,
-0.16323517262935638427734375000000000,
-0.10066732019186019897460937500000000,
0.16050416231155395507812500000000000,
-0.22243148088455200195312500000000000,
0.15302255749702453613281250000000000,
-0.06534448266029357910156250000000000,
0.16707083582878112792968750000000000,
-0.07895442843437194824218750000000000,
0.08140775561332702636718750000000000,
-0.06321424245834350585937500000000000,
-0.11191146075725555419921875000000000,
-0.06021821498870849609375000000000000,
-0.00790670514106750488281250000000000,
0.18873158097267150878906250000000000,
0.09080004692077636718750000000000000,
0.13942897319793701171875000000000000,
0.14600732922554016113281250000000000,
0.02695912122726440429687500000000000,
0.21485179662704467773437500000000000,
0.17647638916969299316406250000000000,
-0.08882576227188110351562500000000000,
-0.03757034242153167724609375000000000,
-0.19282248616218566894531250000000000,
-0.03547130525112152099609375000000000,
0.07503178715705871582031250000000000,
0.15525057911872863769531250000000000,
0.12572968006134033203125000000000000,
-0.05911377072334289550781250000000000,
-0.16487787663936614990234375000000000,
0.08609706163406372070312500000000000,
-0.02965195477008819580078125000000000,
-0.11558938026428222656250000000000000,
-0.00521042943000793457031250000000000,
-0.07251979410648345947265625000000000,
-0.21798266470432281494140625000000000,
